<?xml version="1.0"?>
<opencv_storage>
<my_svm type_id="opencv-ml-svm">
  <svm_type>C_SVC</svm_type>
  <kernel><type>LINEAR</type></kernel>
  <C>1.0000000000000001e-01</C>
  <term_criteria><epsilon>1.1920928955078125e-07</epsilon>
    <iterations>2147483647</iterations></term_criteria>
  <var_all>1024</var_all>
  <var_count>1024</var_count>
  <class_count>10</class_count>
  <class_labels type_id="opencv-matrix">
    <rows>1</rows>
    <cols>10</cols>
    <dt>i</dt>
    <data>
      48 49 50 51 52 53 54 55 56 57</data></class_labels>
  <sv_total>95</sv_total>
  <support_vectors>
    <_>
      85. 55. 33. 73. 91. 68. 29. 81. 101. 83. 22. 87. 108. 95. 16. 98.
      115. 106. 10. 111. 121. 119. 0. 115. 137. 125. 0. 101. 163. 130.
      0. 80. 190. 131. 0. 57. 208. 126. 1. 38. 216. 121. 11. 14. 209.
      114. 20. 7. 192. 107. 29. 9. 165. 103. 34. 12. 140. 97. 41. 14.
      117. 91. 48. 18. 108. 60. 66. 98. 118. 76. 53. 109. 124. 90. 39.
      120. 131. 111. 30. 135. 139. 127. 19. 151. 149. 146. 1. 152. 173.
      160. 1. 128. 202. 170. 1. 93. 226. 171. 7. 66. 238. 164. 8. 41.
      244. 154. 16. 16. 240. 145. 28. 11. 229. 135. 37. 18. 211. 129.
      47. 25. 186. 127. 58. 32. 158. 127. 70. 36. 135. 63. 106. 139.
      142. 78. 83. 154. 147. 94. 60. 165. 150. 116. 42. 178. 155. 134.
      30. 188. 167. 158. 10. 182. 191. 177. 8. 149. 219. 189. 2. 104.
      236. 192. 9. 70. 247. 185. 13. 42. 250. 176. 24. 15. 249. 168. 35.
      17. 244. 165. 49. 27. 230. 166. 64. 35. 214. 167. 80. 45. 190.
      174. 96. 57. 149. 59. 186. 184. 151. 73. 132. 197. 151. 88. 90.
      204. 151. 105. 62. 212. 156. 127. 41. 215. 169. 157. 19. 202. 194.
      179. 12. 163. 223. 195. 2. 108. 241. 200. 12. 71. 249. 196. 20.
      42. 252. 187. 31. 18. 251. 182. 45. 28. 246. 183. 64. 38. 234.
      188. 84. 54. 220. 194. 110. 71. 196. 205. 143. 87. 141. 51. 242.
      218. 139. 61. 202. 224. 136. 75. 136. 228. 134. 89. 86. 229. 143.
      112. 57. 228. 158. 144. 30. 213. 187. 172. 19. 168. 220. 192. 2.
      105. 238. 198. 15. 68. 247. 196. 27. 40. 250. 188. 37. 23. 248.
      185. 59. 38. 242. 190. 83. 56. 226. 196. 113. 78. 204. 203. 155.
      104. 176. 213. 198. 143. 114. 46. 254. 236. 112. 55. 240. 238.
      112. 67. 191. 238. 113. 79. 120. 237. 119. 95. 76. 231. 135. 123.
      39. 210. 166. 152. 28. 161. 201. 174. 9. 99. 225. 182. 19. 62.
      237. 182. 33. 39. 243. 178. 49. 31. 237. 179. 77. 52. 224. 184.
      109. 76. 197. 191. 157. 107. 163. 195. 207. 157. 129. 201. 235.
      206. 84. 61. 255. 246. 85. 66. 250. 244. 89. 72. 222. 239. 95. 82.
      155. 232. 105. 92. 92. 222. 123. 116. 53. 187. 148. 140. 35. 132.
      179. 156. 15. 85. 204. 164. 20. 55. 218. 167. 38. 43. 222. 164.
      58. 44. 212. 166. 91. 74. 186. 170. 142. 105. 148. 172. 198. 157.
      114. 169. 234. 210. 89. 166. 251. 240. 60. 99. 255. 248. 66. 93.
      252. 241. 73. 92. 230. 229. 83. 96. 177. 214. 94. 102. 110. 183.
      112. 113. 65. 133. 128. 126. 43. 93. 148. 134. 22. 65. 164. 140.
      22. 45. 175. 142. 42. 48. 175. 138. 65. 60. 159. 136. 106. 93.
      130. 137. 170. 141. 102. 132. 223. 197. 81. 125. 248. 233. 64.
      117. 254. 251. 44. 176. 254. 242. 55. 159. 249. 227. 69. 146. 228.
      201. 84. 138. 181. 168. 102. 133. 119. 128. 123. 134. 73. 90. 141.
      144. 50. 70. 153. 146. 28. 49. 162. 145. 22. 43. 162. 142. 43. 56.
      155. 129. 68. 77. 133. 121. 115. 120. 110. 111. 181. 174. 87. 100.
      231. 219. 69. 88. 252. 244. 53. 79. 255. 253. 56. 235. 249. 219.
      72. 221. 236. 190. 89. 203. 211. 150. 117. 189. 167. 114. 146.
      180. 116. 86. 173. 178. 75. 62. 186. 184. 51. 46. 193. 185. 31.
      36. 193. 181. 23. 45. 184. 172. 40. 69. 171. 152. 63. 97. 148.
      125. 107. 153. 121. 103. 173. 203. 98. 85. 227. 231. 81. 71. 250.
      248. 69. 57. 255. 254. 78. 252. 225. 162. 97. 243. 206. 126. 124.
      227. 175. 96. 161. 212. 136. 74. 192. 204. 99. 54. 210. 199. 70.
      34. 217. 207. 48. 25. 215. 209. 32. 26. 213. 206. 21. 47. 200.
      194. 36. 75. 183. 169. 54. 113. 160. 133. 90. 173. 131. 103. 143.
      215. 111. 82. 203. 235. 95. 65. 239. 247. 86. 51. 253. 253. 107.
      253. 181. 94. 138. 245. 160. 79. 175. 229. 131. 63. 207. 215. 104.
      48. 225. 208. 82. 34. 233. 209. 59. 21. 234. 220. 40. 13. 232.
      224. 29. 26. 228. 221. 18. 50. 217. 212. 30. 78. 201. 185. 41.
      120. 178. 147. 71. 179. 152. 110. 102. 218. 130. 84. 153. 235.
      118. 67. 208. 245. 109. 52. 239. 251. 145. 247. 132. 58. 180. 233.
      117. 50. 214. 217. 98. 39. 231. 202. 81. 32. 242. 199. 64. 24.
      245. 207. 47. 12. 243. 220. 32. 9. 237. 226. 24. 26. 230. 225. 14.
      51. 221. 216. 21. 79. 205. 193. 31. 122. 183. 159. 52. 180. 161.
      122. 75. 216. 144. 91. 103. 232. 130. 76. 147. 241. 124. 59. 195.
      246. 163. 222. 97. 33. 200. 206. 87. 29. 227. 188. 77. 23. 240.
      177. 62. 16. 245. 180. 49. 10. 246. 193. 37. 2. 243. 209. 25. 3.
      233. 219. 17. 25. 226. 218. 11. 50. 214. 211. 13. 77. 198. 191.
      20. 118. 176. 158. 37. 172. 156. 125. 53. 208. 140. 99. 72. 224.
      129. 82. 94. 230. 124. 67. 126. 234. 161. 162. 74. 15. 197. 150.
      68. 13. 223. 144. 58. 10. 236. 141. 46. 8. 241. 150. 36. 7. 239.
      169. 27. 3. 232. 189. 14. 3. 223. 199. 11. 24. 211. 200. 8. 46.
      195. 194. 3. 72. 177. 174. 4. 106. 156. 145. 23. 153. 137. 119.
      33. 189. 123. 96. 47. 205. 116. 80. 63. 210. 109. 67. 80. 213.
      138. 100. 56. 4. 171. 101. 52. 4. 199. 101. 44. 4. 216. 104. 35.
      5. 221. 115. 27. 5. 217. 128. 17. 5. 205. 147. 5. 6. 187. 159. 6.
      21. 171. 160. 6. 40. 154. 154. 6. 61. 139. 137. 7. 88. 122. 118.
      17. 122. 108. 100. 26. 149. 100. 86. 34. 165. 92. 74. 44. 170. 88.
      61. 54. 168.</_>
    <_>
      77. 29. 16. 94. 88. 39. 13. 100. 99. 54. 10. 104. 113. 74. 7. 100.
      130. 96. 5. 83. 143. 119. 0. 62. 152. 141. 0. 38. 156. 152. 0. 25.
      160. 158. 12. 9. 161. 158. 20. 0. 158. 153. 29. 1. 153. 140. 37.
      4. 144. 122. 43. 6. 133. 102. 45. 7. 121. 89. 43. 9. 111. 78. 40.
      11. 103. 34. 40. 135. 115. 47. 32. 142. 128. 64. 24. 141. 144. 83.
      17. 128. 156. 107. 12. 102. 173. 138. 7. 77. 182. 163. 11. 50.
      191. 178. 15. 35. 196. 190. 22. 25. 197. 190. 30. 21. 194. 183.
      37. 19. 187. 171. 48. 17. 179. 153. 57. 15. 170. 135. 60. 18. 162.
      115. 62. 20. 154. 104. 63. 26. 141. 40. 76. 189. 150. 53. 58. 188.
      160. 72. 41. 178. 172. 94. 29. 157. 183. 121. 22. 123. 198. 153.
      16. 93. 208. 177. 20. 67. 217. 194. 23. 55. 221. 204. 31. 44. 222.
      208. 39. 38. 220. 203. 47. 31. 217. 197. 60. 27. 210. 182. 68. 24.
      204. 167. 77. 27. 198. 155. 83. 34. 193. 148. 92. 44. 164. 41.
      132. 228. 167. 55. 97. 220. 173. 73. 70. 202. 179. 95. 48. 176.
      188. 119. 35. 139. 200. 149. 26. 105. 213. 171. 28. 88. 223. 185.
      32. 80. 227. 199. 42. 69. 228. 205. 50. 61. 226. 207. 58. 47. 223.
      207. 68. 36. 217. 202. 80. 33. 211. 198. 92. 41. 205. 195. 108.
      55. 200. 192. 132. 75. 158. 37. 213. 243. 160. 51. 156. 232. 163.
      70. 108. 212. 170. 90. 77. 180. 179. 112. 56. 146. 196. 138. 37.
      118. 210. 156. 39. 107. 223. 169. 44. 104. 229. 180. 52. 97. 229.
      192. 63. 85. 226. 199. 66. 66. 219. 208. 79. 53. 206. 213. 91. 49.
      196. 213. 109. 65. 183. 215. 145. 87. 176. 214. 186. 120. 128. 35.
      249. 249. 131. 49. 218. 237. 138. 68. 160. 214. 150. 89. 109. 181.
      164. 110. 81. 149. 184. 131. 54. 129. 201. 143. 50. 125. 217. 150.
      52. 128. 225. 157. 59. 116. 226. 175. 68. 101. 224. 190. 73. 81.
      210. 206. 86. 69. 187. 218. 102. 70. 165. 222. 137. 93. 144. 223.
      186. 131. 130. 218. 232. 188. 91. 40. 253. 251. 97. 55. 241. 238.
      107. 74. 201. 212. 127. 94. 149. 178. 147. 112. 105. 147. 166.
      124. 71. 126. 181. 129. 59. 125. 195. 127. 56. 127. 203. 129. 57.
      115. 207. 147. 66. 103. 202. 166. 71. 86. 188. 192. 90. 84. 163.
      212. 113. 95. 136. 218. 159. 132. 106. 215. 220. 187. 91. 200.
      248. 238. 61. 65. 254. 250. 71. 72. 246. 233. 85. 88. 219. 200.
      103. 101. 171. 165. 124. 116. 123. 135. 143. 121. 82. 109. 154.
      116. 63. 103. 161. 110. 51. 101. 168. 106. 46. 95. 172. 120. 56.
      92. 170. 140. 64. 84. 157. 164. 89. 98. 137. 185. 122. 124. 107.
      191. 180. 177. 84. 184. 236. 231. 65. 163. 252. 252. 47. 109. 253.
      242. 61. 108. 244. 216. 79. 115. 221. 176. 99. 125. 178. 139. 117.
      134. 134. 108. 134. 130. 87. 86. 140. 122. 63. 78. 142. 111. 45.
      72. 145. 104. 34. 67. 148. 110. 42. 74. 148. 120. 51. 82. 139.
      136. 84. 111. 118. 145. 127. 161. 96. 145. 193. 220. 73. 135. 242.
      249. 53. 112. 254. 254. 50. 189. 251. 216. 70. 174. 238. 174. 94.
      168. 212. 137. 119. 169. 173. 105. 146. 172. 130. 83. 162. 165.
      88. 62. 166. 159. 60. 51. 165. 152. 39. 45. 167. 142. 26. 46. 168.
      140. 31. 62. 166. 138. 42. 82. 157. 133. 76. 129. 141. 124. 117.
      191. 114. 110. 184. 240. 92. 96. 239. 252. 72. 78. 253. 255. 69.
      241. 243. 154. 93. 226. 224. 118. 120. 215. 193. 95. 155. 209.
      155. 75. 185. 209. 117. 57. 204. 206. 81. 38. 211. 207. 54. 30.
      210. 204. 33. 26. 211. 197. 19. 31. 209. 189. 21. 48. 205. 174.
      30. 80. 194. 149. 61. 136. 175. 122. 98. 201. 146. 99. 154. 244.
      116. 79. 221. 254. 97. 60. 250. 255. 87. 251. 230. 93. 112. 242.
      206. 74. 151. 231. 171. 58. 190. 225. 137. 44. 219. 227. 100. 33.
      234. 229. 71. 22. 239. 235. 46. 17. 240. 238. 29. 14. 241. 237.
      17. 25. 239. 230. 16. 43. 234. 216. 22. 73. 224. 179. 45. 126.
      203. 139. 75. 195. 177. 101. 113. 241. 148. 76. 174. 253. 123. 52.
      227. 255. 99. 250. 209. 52. 132. 243. 182. 43. 175. 234. 151. 33.
      214. 231. 114. 27. 235. 234. 85. 20. 245. 240. 59. 13. 248. 245.
      36. 10. 249. 247. 24. 11. 250. 248. 15. 21. 248. 245. 12. 36. 245.
      236. 16. 64. 239. 208. 32. 106. 225. 162. 53. 169. 202. 113. 82.
      230. 177. 81. 118. 251. 152. 57. 168. 255. 98. 236. 169. 28. 131.
      228. 151. 24. 172. 222. 123. 19. 211. 222. 96. 14. 232. 227. 69.
      10. 243. 236. 46. 6. 247. 242. 30. 4. 247. 246. 19. 8. 247. 246.
      12. 18. 246. 244. 8. 28. 244. 237. 9. 49. 237. 215. 23. 87. 224.
      173. 35. 136. 205. 126. 54. 199. 181. 90. 80. 240. 161. 65. 106.
      252. 86. 186. 125. 14. 111. 182. 114. 11. 150. 181. 98. 9. 186.
      189. 78. 6. 214. 199. 56. 4. 228. 216. 36. 1. 233. 225. 23. 1.
      235. 231. 13. 6. 235. 233. 8. 13. 232. 230. 5. 21. 229. 221. 1.
      38. 219. 196. 15. 66. 203. 159. 23. 100. 184. 119. 34. 151. 164.
      89. 49. 201. 146. 64. 67. 233. 67. 121. 91. 2. 90. 126. 85. 2.
      114. 134. 75. 2. 144. 143. 59. 2. 167. 155. 41. 3. 185. 170. 27.
      3. 194. 183. 18. 3. 198. 191. 7. 5. 197. 195. 5. 8. 193. 192. 4.
      14. 187. 180. 3. 28. 176. 159. 10. 48. 162. 133. 18. 76. 147. 102.
      25. 105. 133. 79. 32. 142. 117. 58. 42. 175.</_>
    <_>
      37. 22. 0. 54. 43. 29. 0. 66. 51. 42. 0. 79. 62. 54. 0. 86. 74.
      70. 1. 88. 89. 87. 1. 83. 101. 99. 1. 67. 111. 108. 16. 49. 116.
      113. 24. 32. 118. 109. 32. 16. 115. 103. 41. 1. 104. 91. 46. 2.
      95. 78. 45. 2. 84. 63. 41. 2. 70. 49. 37. 2. 59. 39. 31. 3. 61.
      29. 32. 85. 65. 43. 26. 100. 79. 59. 23. 112. 90. 80. 18. 121.
      105. 99. 14. 123. 125. 123. 12. 114. 139. 137. 3. 94. 156. 150.
      19. 66. 165. 156. 28. 45. 169. 151. 40. 22. 162. 138. 53. 3. 147.
      126. 60. 3. 135. 108. 61. 4. 120. 93. 60. 4. 103. 82. 55. 4. 84.
      74. 53. 4. 85. 41. 66. 122. 94. 56. 56. 138. 106. 78. 44. 155.
      119. 100. 30. 167. 134. 125. 21. 166. 155. 148. 13. 147. 179. 174.
      5. 124. 197. 191. 21. 88. 211. 196. 34. 55. 218. 191. 48. 25. 215.
      178. 64. 5. 205. 158. 73. 5. 189. 138. 79. 5. 168. 129. 80. 6.
      139. 123. 78. 6. 117. 121. 75. 6. 114. 50. 119. 158. 124. 67. 99.
      183. 134. 92. 77. 200. 144. 118. 53. 213. 163. 141. 35. 208. 185.
      176. 16. 185. 209. 201. 12. 143. 226. 220. 23. 102. 236. 224. 36.
      65. 242. 221. 52. 28. 244. 207. 71. 6. 240. 189. 87. 12. 231. 176.
      97. 14. 211. 170. 102. 16. 178. 171. 105. 20. 141. 175. 105. 25.
      133. 69. 177. 191. 142. 85. 140. 218. 156. 105. 111. 232. 167.
      130. 80. 237. 180. 155. 50. 233. 197. 188. 23. 210. 220. 214. 13.
      162. 234. 226. 21. 112. 244. 230. 35. 69. 251. 226. 52. 28. 253.
      216. 77. 12. 252. 205. 98. 17. 245. 198. 116. 24. 233. 203. 130.
      36. 199. 215. 136. 46. 160. 226. 140. 56. 146. 108. 232. 210. 165.
      114. 193. 230. 178. 124. 144. 241. 185. 136. 104. 245. 193. 157.
      68. 239. 202. 182. 29. 216. 215. 202. 17. 166. 229. 216. 19. 115.
      240. 221. 27. 73. 249. 217. 49. 42. 253. 209. 77. 38. 254. 205.
      104. 50. 249. 212. 133. 62. 236. 224. 157. 74. 207. 238. 179. 86.
      164. 248. 193. 97. 153. 159. 251. 207. 173. 147. 227. 227. 189.
      143. 177. 237. 196. 144. 128. 239. 198. 151. 84. 232. 203. 165.
      39. 200. 208. 182. 22. 152. 218. 191. 14. 107. 228. 194. 22. 77.
      240. 192. 44. 62. 246. 188. 73. 69. 247. 192. 110. 88. 242. 205.
      145. 101. 227. 225. 185. 117. 193. 241. 217. 130. 152. 252. 234.
      139. 161. 219. 254. 186. 186. 195. 235. 204. 203. 175. 190. 217.
      214. 159. 135. 218. 215. 147. 93. 200. 212. 146. 48. 169. 204.
      154. 26. 131. 201. 160. 13. 94. 208. 163. 15. 81. 221. 162. 38.
      86. 228. 161. 67. 107. 230. 170. 112. 132. 224. 187. 154. 149.
      201. 210. 202. 171. 172. 229. 236. 187. 136. 243. 251. 197. 171.
      247. 249. 149. 199. 231. 229. 164. 224. 206. 188. 172. 234. 180.
      137. 168. 237. 160. 99. 148. 235. 146. 57. 127. 225. 151. 38. 102.
      216. 154. 20. 87. 209. 157. 18. 96. 211. 152. 33. 120. 213. 149.
      60. 146. 212. 153. 104. 181. 199. 164. 150. 204. 181. 179. 204.
      222. 153. 194. 241. 230. 132. 212. 255. 234. 181. 253. 228. 111.
      214. 240. 200. 119. 236. 220. 167. 121. 246. 192. 131. 117. 250.
      173. 98. 103. 250. 166. 64. 89. 245. 172. 47. 82. 238. 176. 31.
      86. 229. 177. 25. 113. 223. 170. 30. 145. 213. 159. 49. 186. 199.
      148. 92. 219. 184. 143. 135. 235. 163. 142. 187. 243. 140. 145.
      231. 246. 126. 150. 252. 246. 189. 248. 179. 76. 223. 233. 159.
      81. 242. 213. 136. 80. 252. 192. 116. 74. 255. 183. 92. 63. 255.
      182. 71. 57. 253. 190. 58. 67. 248. 195. 45. 91. 241. 195. 36.
      128. 232. 184. 30. 167. 220. 171. 38. 206. 197. 150. 72. 231. 180.
      135. 109. 243. 157. 122. 149. 249. 137. 110. 196. 250. 125. 103.
      233. 247. 184. 223. 128. 44. 219. 201. 120. 43. 239. 186. 109. 41.
      250. 178. 97. 37. 254. 183. 85. 27. 255. 190. 76. 37. 254. 202.
      65. 63. 251. 211. 55. 95. 244. 208. 44. 133. 235. 194. 33. 173.
      221. 176. 28. 206. 194. 151. 52. 227. 169. 130. 82. 238. 142. 107.
      114. 243. 128. 87. 143. 242. 113. 68. 181. 238. 163. 165. 84. 21.
      195. 152. 83. 20. 223. 148. 82. 19. 239. 155. 79. 17. 245. 170.
      76. 14. 248. 184. 75. 35. 247. 196. 70. 63. 244. 203. 61. 96. 237.
      198. 48. 131. 228. 187. 34. 164. 210. 169. 23. 190. 183. 142. 33.
      207. 156. 123. 51. 219. 132. 97. 75. 222. 112. 72. 98. 217. 96.
      51. 122. 206. 134. 110. 53. 7. 160. 109. 54. 7. 188. 117. 58. 7.
      209. 129. 61. 7. 222. 144. 64. 8. 225. 162. 68. 30. 225. 174. 65.
      59. 222. 180. 60. 89. 214. 173. 47. 118. 198. 161. 31. 140. 182.
      145. 19. 161. 158. 131. 18. 172. 134. 110. 27. 175. 113. 90. 42.
      175. 93. 66. 56. 166. 78. 47. 70. 154. 101. 62. 34. 8. 121. 69.
      35. 8. 137. 83. 40. 8. 153. 100. 45. 9. 168. 118. 51. 9. 174. 133.
      57. 26. 177. 139. 58. 50. 174. 141. 52. 73. 168. 138. 40. 98. 158.
      132. 27. 116. 141. 122. 17. 126. 127. 108. 13. 129. 107. 92. 15.
      129. 88. 72. 20. 126. 68. 55. 26. 119. 54. 39. 33. 111. 71. 29.
      15. 9. 89. 43. 18. 9. 102. 59. 25. 10. 115. 75. 32. 10. 124. 91.
      40. 10. 127. 100. 46. 24. 127. 106. 47. 39. 125. 106. 42. 57. 120.
      101. 34. 76. 115. 96. 24. 90. 106. 91. 15. 94. 95. 83. 10. 95. 81.
      71. 11. 93. 64. 58. 11. 90. 48. 46. 11. 81. 36. 31. 11. 72.</_>
    <_>
      48. 31. 35. 108. 54. 46. 31. 127. 65. 55. 26. 145. 80. 70. 21.
      157. 98. 80. 15. 167. 125. 86. 11. 173. 150. 87. 0. 166. 174. 88.
      0. 151. 198. 90. 0. 126. 209. 92. 0. 92. 213. 94. 8. 63. 206. 96.
      14. 34. 190. 94. 20. 21. 165. 94. 27. 1. 137. 96. 36. 1. 109. 102.
      45. 1. 62. 40. 74. 146. 73. 53. 65. 163. 83. 70. 52. 185. 103. 86.
      40. 194. 126. 102. 26. 199. 153. 112. 17. 199. 181. 117. 9. 189.
      207. 120. 7. 168. 227. 123. 7. 137. 235. 126. 10. 101. 238. 127.
      15. 68. 235. 128. 22. 38. 224. 128. 32. 23. 205. 131. 45. 14. 173.
      139. 54. 18. 142. 149. 68. 21. 76. 44. 136. 175. 87. 59. 114. 194.
      99. 77. 91. 211. 119. 96. 69. 216. 141. 116. 49. 216. 171. 133.
      29. 209. 198. 139. 17. 192. 220. 143. 11. 169. 236. 145. 9. 135.
      243. 147. 13. 99. 246. 150. 20. 67. 245. 154. 32. 39. 237. 160.
      48. 28. 225. 170. 64. 24. 197. 185. 79. 33. 163. 200. 97. 43. 84.
      45. 206. 198. 98. 61. 175. 211. 109. 79. 141. 223. 133. 103. 105.
      225. 151. 127. 74. 219. 178. 145. 46. 205. 206. 157. 26. 179. 225.
      164. 16. 152. 237. 167. 10. 116. 244. 169. 18. 87. 247. 171. 27.
      60. 246. 177. 49. 42. 241. 187. 67. 41. 230. 201. 88. 47. 203.
      218. 113. 61. 171. 231. 138. 78. 84. 41. 247. 205. 97. 55. 229.
      215. 110. 77. 193. 224. 133. 101. 148. 222. 154. 130. 105. 211.
      179. 152. 65. 189. 202. 169. 39. 153. 220. 177. 22. 122. 232. 180.
      12. 88. 238. 184. 23. 68. 242. 184. 38. 50. 240. 192. 64. 48. 234.
      203. 90. 56. 219. 217. 121. 76. 191. 231. 152. 100. 157. 240. 180.
      127. 75. 51. 255. 204. 86. 59. 248. 212. 101. 74. 228. 218. 121.
      95. 189. 214. 144. 122. 138. 197. 168. 147. 83. 162. 189. 166. 51.
      125. 203. 175. 29. 89. 215. 178. 13. 60. 222. 183. 29. 50. 226.
      183. 49. 44. 223. 192. 82. 57. 212. 204. 120. 81. 191. 216. 160.
      113. 159. 228. 196. 150. 129. 235. 222. 183. 58. 76. 255. 203. 71.
      73. 253. 206. 85. 78. 239. 207. 103. 89. 208. 200. 121. 107. 160.
      176. 141. 130. 100. 140. 156. 144. 63. 98. 167. 153. 35. 66. 176.
      156. 12. 38. 184. 161. 34. 36. 188. 162. 56. 46. 181. 172. 102.
      75. 169. 182. 149. 110. 146. 195. 195. 153. 118. 205. 228. 196.
      92. 210. 244. 227. 48. 129. 255. 201. 58. 107. 251. 198. 73. 96.
      238. 192. 88. 93. 212. 181. 104. 100. 166. 155. 118. 108. 106.
      113. 128. 123. 69. 74. 134. 131. 39. 43. 137. 132. 10. 16. 140.
      134. 38. 30. 140. 136. 66. 51. 135. 142. 116. 91. 123. 149. 172.
      139. 103. 156. 219. 186. 83. 159. 242. 224. 65. 159. 253. 244. 54.
      187. 252. 190. 70. 155. 243. 179. 84. 130. 229. 173. 99. 112. 202.
      161. 108. 107. 161. 135. 117. 106. 105. 97. 120. 114. 67. 64. 122.
      118. 39. 37. 125. 117. 8. 16. 124. 119. 40. 36. 119. 117. 68. 62.
      112. 116. 125. 108. 99. 115. 181. 161. 81. 111. 228. 208. 66. 106.
      248. 237. 50. 101. 254. 250. 87. 229. 235. 170. 107. 199. 222.
      159. 131. 166. 204. 150. 148. 146. 176. 136. 160. 139. 142. 112.
      163. 135. 95. 80. 162. 143. 61. 52. 158. 148. 35. 31. 154. 148. 7.
      21. 151. 146. 37. 47. 143. 137. 66. 79. 132. 123. 119. 134. 111.
      106. 177. 186. 91. 89. 227. 227. 73. 75. 248. 246. 56. 60. 254.
      253. 130. 240. 201. 134. 157. 219. 186. 124. 182. 190. 168. 113.
      202. 172. 145. 100. 211. 164. 115. 81. 213. 165. 79. 57. 208. 177.
      50. 40. 201. 187. 28. 23. 196. 188. 1. 24. 187. 182. 32. 53. 174.
      167. 54. 95. 156. 143. 104. 154. 133. 114. 158. 207. 104. 85. 209.
      236. 82. 62. 239. 249. 69. 43. 251. 254. 168. 236. 158. 94. 200.
      216. 144. 85. 226. 193. 132. 78. 238. 180. 109. 69. 243. 185. 86.
      55. 243. 196. 59. 42. 240. 210. 37. 26. 234. 221. 22. 18. 230.
      223. 2. 29. 221. 218. 25. 64. 208. 202. 45. 110. 184. 170. 82.
      174. 152. 132. 128. 224. 118. 89. 173. 245. 92. 57. 214. 252. 77.
      35. 237. 255. 191. 215. 124. 58. 223. 193. 111. 52. 241. 176. 98.
      49. 249. 174. 81. 42. 251. 186. 63. 34. 251. 204. 44. 24. 249.
      221. 25. 18. 245. 233. 16. 13. 241. 234. 2. 33. 233. 232. 19. 71.
      220. 218. 30. 126. 195. 185. 58. 190. 158. 141. 90. 233. 121. 97.
      129. 248. 93. 63. 165. 253. 78. 36. 200. 254. 193. 170. 91. 31.
      225. 155. 82. 27. 242. 147. 72. 24. 250. 151. 56. 22. 252. 171.
      44. 19. 252. 194. 28. 15. 249. 217. 17. 11. 245. 230. 12. 8. 239.
      232. 2. 33. 231. 229. 14. 72. 215. 213. 20. 129. 188. 179. 41.
      191. 149. 138. 61. 232. 110. 93. 85. 247. 84. 59. 114. 250. 71.
      34. 142. 250. 175. 115. 67. 17. 210. 109. 60. 15. 233. 111. 51.
      12. 244. 124. 41. 9. 247. 144. 27. 7. 246. 172. 19. 2. 242. 197.
      10. 3. 234. 213. 8. 3. 226. 217. 3. 32. 214. 212. 9. 70. 197. 194.
      11. 120. 165. 162. 23. 178. 131. 122. 37. 220. 95. 83. 52. 236.
      72. 53. 72. 241. 57. 30. 90. 239. 147. 75. 47. 3. 178. 76. 42. 4.
      207. 80. 33. 4. 226. 93. 25. 4. 231. 115. 19. 4. 230. 140. 13. 5.
      221. 163. 5. 5. 210. 180. 5. 6. 199. 188. 6. 28. 183. 182. 6. 62.
      164. 164. 6. 105. 138. 136. 14. 155. 104. 102. 20. 195. 77. 71.
      30. 214. 55. 47. 43. 217. 46. 25. 53. 209.</_>
    <_>
      72. 40. 36. 86. 82. 49. 29. 92. 96. 62. 21. 99. 111. 76. 15. 101.
      129. 97. 10. 96. 148. 118. 0. 79. 154. 138. 0. 59. 162. 150. 0.
      41. 165. 154. 18. 25. 163. 152. 30. 0. 157. 146. 42. 1. 144. 133.
      50. 1. 125. 125. 61. 1. 104. 113. 65. 1. 86. 103. 64. 2. 74. 96.
      63. 2. 98. 48. 67. 121. 110. 61. 54. 127. 128. 77. 45. 132. 151.
      98. 36. 130. 170. 124. 27. 119. 184. 153. 16. 93. 193. 175. 11.
      68. 199. 185. 8. 46. 201. 192. 22. 28. 200. 190. 35. 2. 196. 183.
      49. 2. 180. 177. 64. 8. 165. 170. 76. 10. 140. 161. 82. 14. 116.
      152. 85. 19. 97. 144. 85. 23. 126. 53. 120. 163. 142. 69. 95. 166.
      159. 87. 75. 166. 176. 114. 60. 155. 193. 146. 47. 134. 208. 172.
      33. 102. 213. 195. 23. 70. 217. 207. 14. 47. 219. 211. 24. 28.
      218. 212. 39. 7. 214. 210. 55. 7. 206. 209. 76. 13. 186. 208. 94.
      20. 167. 203. 107. 30. 140. 199. 117. 37. 115. 196. 123. 43. 143.
      56. 197. 195. 156. 74. 161. 191. 172. 97. 126. 181. 188. 124. 93.
      168. 206. 155. 69. 141. 215. 182. 47. 101. 222. 206. 34. 69. 226.
      214. 20. 46. 227. 221. 26. 25. 226. 223. 42. 9. 224. 224. 62. 13.
      213. 226. 87. 26. 198. 229. 116. 38. 174. 230. 140. 48. 150. 231.
      158. 59. 122. 232. 171. 71. 139. 55. 249. 215. 153. 73. 228. 205.
      168. 95. 186. 188. 181. 125. 144. 167. 200. 156. 100. 131. 211.
      181. 63. 92. 216. 204. 44. 63. 220. 211. 26. 41. 221. 217. 26. 20.
      220. 222. 45. 14. 215. 225. 67. 22. 207. 231. 100. 40. 186. 235.
      139. 53. 166. 237. 171. 72. 137. 239. 198. 93. 112. 241. 216. 118.
      114. 60. 255. 227. 126. 75. 251. 209. 142. 97. 235. 182. 160. 121.
      189. 154. 176. 149. 133. 116. 189. 172. 79. 79. 198. 186. 51. 51.
      202. 196. 31. 35. 202. 202. 25. 15. 200. 208. 47. 20. 194. 210.
      70. 33. 179. 218. 114. 52. 164. 224. 163. 78. 137. 228. 203. 108.
      111. 230. 233. 148. 90. 231. 247. 180. 80. 84. 255. 229. 89. 92.
      253. 204. 100. 105. 248. 171. 117. 121. 215. 134. 134. 135. 159.
      98. 151. 149. 91. 66. 158. 157. 58. 46. 163. 161. 33. 27. 164.
      165. 22. 11. 162. 169. 46. 30. 156. 174. 72. 44. 146. 181. 120.
      73. 127. 187. 175. 109. 105. 191. 222. 158. 86. 189. 247. 201. 70.
      188. 252. 235. 54. 132. 255. 226. 62. 133. 253. 194. 71. 135. 248.
      156. 83. 136. 217. 115. 98. 134. 162. 80. 108. 129. 94. 50. 117.
      127. 59. 36. 121. 124. 34. 17. 123. 124. 17. 12. 122. 127. 44. 37.
      120. 131. 68. 54. 113. 136. 118. 92. 102. 140. 178. 144. 87. 138.
      229. 195. 73. 132. 250. 236. 60. 128. 254. 250. 50. 207. 254. 210.
      58. 196. 251. 172. 67. 185. 241. 132. 78. 173. 207. 95. 88. 157.
      153. 67. 99. 135. 90. 42. 104. 123. 57. 29. 106. 113. 33. 12. 110.
      107. 14. 17. 112. 109. 40. 43. 113. 107. 61. 66. 109. 105. 106.
      112. 104. 101. 168. 171. 93. 96. 222. 223. 81. 87. 249. 248. 70.
      81. 254. 253. 68. 247. 248. 179. 77. 242. 238. 145. 88. 232. 217.
      106. 102. 216. 183. 78. 117. 198. 141. 54. 130. 173. 88. 35. 139.
      161. 57. 23. 143. 149. 36. 9. 147. 141. 13. 24. 149. 136. 35. 48.
      152. 128. 50. 77. 151. 114. 90. 131. 146. 99. 145. 192. 131. 84.
      200. 237. 116. 71. 243. 251. 102. 60. 252. 255. 101. 252. 216.
      137. 115. 250. 204. 105. 130. 246. 184. 80. 150. 240. 162. 58.
      167. 228. 126. 43. 178. 210. 86. 24. 183. 199. 57. 15. 185. 190.
      38. 6. 189. 180. 15. 29. 192. 176. 27. 51. 193. 164. 41. 85. 192.
      142. 71. 147. 184. 115. 109. 202. 173. 91. 166. 241. 160. 74. 213.
      251. 147. 61. 246. 254. 142. 252. 178. 95. 158. 249. 168. 75. 176.
      247. 155. 58. 195. 245. 138. 45. 211. 241. 111. 32. 224. 236. 82.
      16. 230. 235. 56. 10. 232. 233. 39. 3. 234. 227. 18. 32. 234. 219.
      18. 55. 232. 205. 31. 89. 228. 175. 52. 150. 218. 143. 79. 203.
      206. 108. 118. 238. 190. 84. 167. 250. 179. 69. 209. 253. 160.
      245. 145. 65. 177. 239. 136. 51. 197. 237. 128. 42. 214. 238. 119.
      31. 231. 240. 100. 21. 240. 242. 78. 9. 244. 243. 56. 7. 245. 244.
      39. 3. 246. 242. 21. 34. 246. 236. 12. 56. 244. 223. 19. 89. 238.
      194. 40. 147. 230. 160. 57. 194. 214. 122. 81. 229. 201. 94. 112.
      245. 191. 75. 151. 249. 152. 201. 110. 44. 170. 199. 106. 37. 187.
      203. 104. 29. 208. 212. 99. 19. 225. 223. 88. 11. 236. 233. 72. 3.
      242. 237. 52. 3. 243. 240. 39. 4. 244. 239. 23. 34. 243. 234. 8.
      53. 239. 219. 11. 85. 234. 190. 28. 130. 220. 155. 41. 174. 205.
      120. 55. 205. 187. 91. 74. 221. 178. 73. 94. 233. 123. 139. 83.
      30. 141. 143. 83. 25. 159. 153. 82. 18. 177. 169. 81. 12. 197.
      185. 76. 8. 212. 204. 66. 4. 221. 213. 49. 4. 225. 220. 37. 4.
      227. 219. 22. 31. 225. 212. 5. 49. 218. 197. 5. 77. 209. 169. 16.
      111. 193. 135. 27. 148. 174. 103. 38. 169. 159. 80. 48. 179. 148.
      65. 59. 184. 91. 83. 64. 21. 103. 90. 63. 17. 119. 103. 64. 13.
      137. 122. 65. 9. 157. 145. 62. 7. 173. 164. 53. 5. 182. 175. 43.
      5. 188. 182. 32. 6. 191. 183. 19. 28. 187. 177. 6. 45. 180. 165.
      6. 66. 170. 138. 10. 89. 154. 108. 16. 110. 133. 84. 24. 125. 119.
      68. 32. 129. 107. 52. 38. 129.</_>
    <_>
      52. 24. 0. 57. 62. 33. 0. 68. 71. 44. 0. 75. 81. 56. 0. 82. 91.
      70. 1. 84. 100. 86. 1. 78. 107. 97. 1. 67. 117. 107. 1. 51. 122.
      110. 2. 35. 127. 106. 17. 21. 129. 95. 23. 2. 124. 85. 30. 2. 113.
      72. 34. 2. 96. 62. 39. 3. 83. 52. 41. 3. 70. 44. 40. 3. 76. 32.
      37. 83. 87. 42. 33. 94. 97. 55. 29. 103. 108. 70. 23. 110. 120.
      88. 18. 109. 130. 106. 14. 99. 136. 125. 3. 83. 145. 134. 4. 62.
      153. 137. 4. 43. 160. 132. 19. 24. 163. 122. 30. 4. 160. 107. 40.
      4. 148. 94. 50. 5. 132. 86. 58. 5. 115. 79. 63. 5. 96. 75. 64. 5.
      101. 39. 72. 111. 116. 52. 61. 128. 130. 69. 49. 139. 142. 90. 37.
      144. 154. 112. 26. 140. 165. 135. 16. 127. 172. 158. 6. 101. 183.
      170. 6. 73. 193. 173. 14. 50. 201. 168. 25. 27. 208. 156. 39. 6.
      203. 140. 53. 13. 188. 128. 68. 15. 170. 119. 78. 16. 149. 116.
      87. 19. 131. 116. 90. 20. 126. 45. 121. 145. 141. 61. 98. 164.
      156. 80. 78. 175. 168. 103. 58. 180. 179. 131. 40. 171. 190. 157.
      20. 150. 200. 178. 13. 119. 211. 194. 6. 82. 221. 198. 18. 53.
      234. 194. 34. 28. 241. 180. 50. 7. 239. 168. 71. 17. 229. 159. 90.
      22. 206. 154. 104. 30. 181. 155. 117. 35. 160. 159. 125. 43. 140.
      64. 175. 172. 156. 76. 145. 193. 171. 93. 111. 207. 184. 118. 81.
      210. 195. 142. 55. 194. 206. 169. 29. 165. 215. 193. 18. 126. 225.
      209. 7. 85. 237. 213. 22. 54. 245. 211. 42. 27. 250. 198. 64. 15.
      250. 187. 91. 26. 245. 182. 116. 36. 228. 183. 136. 48. 202. 188.
      152. 61. 176. 199. 164. 73. 143. 101. 237. 190. 161. 105. 189.
      213. 177. 118. 147. 227. 195. 134. 105. 226. 209. 159. 73. 204.
      222. 184. 39. 170. 232. 210. 23. 126. 240. 224. 13. 84. 247. 231.
      25. 51. 251. 229. 49. 32. 252. 218. 74. 34. 252. 208. 106. 50.
      249. 203. 139. 65. 234. 205. 166. 79. 207. 214. 186. 95. 180. 227.
      206. 113. 132. 153. 254. 197. 152. 146. 230. 216. 172. 145. 174.
      228. 192. 153. 130. 224. 211. 169. 88. 201. 227. 189. 48. 164.
      237. 216. 32. 120. 243. 230. 15. 77. 247. 236. 31. 47. 250. 235.
      55. 38. 251. 222. 82. 49. 249. 215. 121. 72. 242. 209. 158. 92.
      223. 208. 189. 115. 199. 214. 221. 135. 173. 226. 245. 158. 126.
      216. 255. 187. 146. 195. 244. 202. 170. 179. 190. 212. 192. 174.
      143. 205. 213. 181. 99. 182. 231. 197. 59. 147. 238. 218. 38. 104.
      243. 230. 19. 68. 244. 235. 31. 44. 246. 234. 57. 47. 246. 221.
      85. 69. 240. 210. 128. 98. 228. 199. 166. 129. 208. 191. 205. 155.
      185. 190. 242. 179. 166. 196. 254. 206. 129. 253. 254. 167. 152.
      242. 238. 173. 177. 220. 193. 177. 204. 203. 151. 171. 227. 201.
      110. 151. 239. 207. 70. 120. 244. 222. 47. 86. 245. 233. 24. 56.
      243. 236. 30. 46. 241. 233. 54. 67. 237. 219. 79. 94. 226. 201.
      122. 134. 212. 183. 162. 167. 194. 168. 204. 198. 175. 159. 244.
      225. 162. 155. 255. 246. 138. 255. 242. 135. 162. 253. 215. 138.
      187. 239. 182. 136. 215. 221. 150. 130. 236. 214. 117. 112. 247.
      216. 79. 88. 248. 229. 54. 65. 248. 235. 31. 45. 243. 238. 26. 51.
      238. 232. 45. 80. 228. 214. 67. 119. 212. 188. 104. 162. 196. 164.
      142. 200. 179. 141. 180. 233. 167. 125. 222. 250. 157. 112. 252.
      253. 151. 255. 200. 102. 173. 252. 184. 100. 200. 240. 167. 96.
      223. 225. 144. 91. 241. 219. 117. 78. 248. 219. 86. 63. 249. 229.
      60. 46. 247. 234. 36. 42. 241. 235. 26. 58. 232. 225. 35. 92. 217.
      205. 52. 137. 199. 177. 84. 182. 181. 149. 115. 223. 169. 121.
      148. 249. 161. 97. 181. 253. 153. 80. 218. 254. 157. 246. 160. 74.
      176. 232. 156. 69. 198. 220. 149. 66. 219. 212. 134. 58. 233. 209.
      114. 48. 240. 210. 89. 37. 239. 217. 65. 28. 236. 220. 41. 38.
      226. 218. 27. 64. 213. 207. 25. 102. 197. 188. 36. 147. 178. 163.
      60. 191. 163. 135. 83. 230. 151. 106. 108. 248. 144. 82. 137. 251.
      139. 63. 163. 251. 148. 189. 124. 46. 166. 186. 128. 42. 184. 185.
      127. 34. 202. 187. 120. 28. 217. 191. 104. 21. 224. 196. 87. 16.
      224. 202. 65. 14. 220. 204. 43. 37. 211. 203. 28. 66. 197. 192.
      18. 102. 178. 174. 22. 146. 161. 150. 41. 185. 143. 124. 56. 217.
      131. 96. 74. 231. 123. 75. 92. 231. 119. 57. 111. 223. 129. 137.
      93. 29. 144. 141. 100. 23. 161. 149. 103. 20. 174. 158. 101. 17.
      186. 165. 92. 14. 195. 171. 77. 7. 196. 176. 59. 7. 191. 178. 41.
      36. 183. 176. 27. 62. 172. 169. 8. 95. 157. 155. 8. 133. 139. 133.
      22. 165. 123. 110. 32. 185. 109. 89. 44. 192. 100. 69. 57. 186.
      93. 53. 68. 175. 99. 91. 72. 21. 114. 99. 77. 19. 127. 112. 80.
      17. 138. 123. 81. 15. 147. 131. 76. 13. 154. 138. 66. 8. 154. 141.
      51. 8. 152. 142. 35. 33. 146. 140. 24. 54. 136. 133. 9. 81. 124.
      122. 9. 111. 108. 105. 16. 133. 95. 90. 20. 148. 85. 74. 25. 150.
      76. 59. 33. 143. 71. 46. 38. 132. 77. 59. 48. 9. 89. 71. 55. 9.
      98. 84. 60. 10. 108. 93. 63. 10. 118. 102. 60. 10. 123. 109. 53.
      10. 125. 113. 43. 11. 121. 115. 31. 29. 118. 113. 21. 45. 109.
      107. 11. 67. 98. 97. 11. 89. 88. 87. 11. 103. 75. 73. 12. 114. 66.
      61. 12. 114. 56. 49. 12. 105. 47. 40. 12. 94.</_>
    <_>
      88. 36. 22. 132. 104. 58. 16. 130. 123. 82. 12. 114. 139. 104. 8.
      95. 147. 121. 5. 89. 148. 134. 0. 93. 150. 128. 5. 113. 164. 115.
      10. 136. 187. 104. 15. 141. 211. 95. 25. 115. 218. 90. 35. 80.
      203. 87. 43. 49. 167. 87. 50. 23. 120. 86. 57. 6. 84. 82. 60. 7.
      55. 79. 59. 8. 110. 40. 56. 180. 132. 64. 42. 175. 154. 90. 28.
      153. 174. 118. 16. 123. 183. 146. 9. 107. 185. 163. 0. 105. 186.
      160. 5. 120. 193. 145. 11. 138. 211. 131. 17. 140. 232. 119. 28.
      113. 240. 116. 43. 77. 230. 116. 54. 48. 201. 122. 68. 23. 153.
      131. 74. 9. 106. 135. 80. 11. 72. 138. 79. 12. 131. 39. 97. 224.
      153. 64. 73. 217. 177. 92. 51. 195. 194. 122. 33. 162. 200. 154.
      19. 133. 202. 174. 7. 118. 200. 175. 8. 121. 204. 164. 12. 131.
      219. 150. 19. 125. 237. 142. 33. 100. 245. 143. 52. 71. 241. 154.
      71. 44. 218. 172. 88. 24. 176. 189. 99. 16. 123. 199. 108. 20. 86.
      210. 109. 25. 137. 35. 168. 246. 157. 56. 119. 239. 178. 83. 84.
      220. 194. 113. 56. 190. 204. 145. 35. 155. 208. 172. 15. 130. 209.
      182. 12. 117. 213. 179. 13. 112. 223. 172. 21. 100. 237. 168. 37.
      81. 244. 175. 62. 58. 239. 192. 84. 40. 219. 212. 106. 30. 180.
      229. 126. 30. 129. 243. 139. 38. 89. 249. 142. 47. 125. 32. 235.
      250. 140. 47. 184. 248. 160. 70. 124. 234. 178. 94. 85. 211. 193.
      125. 57. 179. 201. 157. 29. 141. 206. 178. 18. 112. 213. 186. 14.
      93. 219. 189. 24. 76. 229. 191. 44. 61. 233. 196. 71. 47. 224.
      214. 99. 43. 198. 231. 132. 44. 158. 246. 156. 53. 113. 251. 171.
      68. 79. 254. 180. 78. 100. 52. 252. 251. 112. 55. 226. 249. 127.
      68. 170. 241. 148. 85. 116. 225. 167. 109. 80. 196. 184. 137. 46.
      151. 193. 162. 29. 109. 199. 176. 17. 77. 204. 188. 26. 57. 209.
      194. 51. 46. 205. 201. 83. 42. 190. 215. 122. 52. 158. 231. 163.
      66. 118. 244. 191. 81. 89. 251. 204. 101. 63. 254. 215. 126. 74.
      88. 254. 250. 87. 78. 242. 248. 102. 77. 197. 240. 122. 88. 144.
      226. 146. 103. 98. 198. 165. 124. 61. 148. 176. 148. 37. 99. 184.
      164. 21. 66. 186. 177. 30. 41. 185. 183. 58. 36. 174. 190. 94. 46.
      151. 199. 144. 71. 119. 211. 191. 91. 90. 222. 216. 117. 67. 235.
      233. 149. 46. 249. 245. 188. 50. 158. 252. 246. 65. 126. 238. 234.
      81. 108. 200. 225. 100. 101. 155. 210. 120. 106. 110. 182. 140.
      116. 70. 129. 152. 134. 43. 85. 161. 142. 23. 50. 163. 154. 32.
      32. 161. 159. 61. 36. 149. 161. 96. 54. 127. 165. 159. 87. 97.
      166. 207. 115. 73. 169. 236. 152. 50. 178. 250. 191. 33. 192. 253.
      225. 48. 234. 245. 220. 63. 197. 219. 203. 80. 163. 187. 190. 101.
      141. 147. 171. 124. 136. 107. 141. 143. 135. 70. 98. 155. 143. 42.
      69. 164. 149. 23. 39. 167. 150. 30. 28. 165. 147. 59. 39. 156.
      137. 94. 65. 134. 129. 157. 99. 103. 117. 210. 138. 75. 108. 243.
      181. 53. 103. 252. 216. 34. 106. 255. 244. 65. 253. 212. 177. 81.
      242. 188. 155. 103. 214. 160. 138. 132. 192. 130. 119. 162. 183.
      96. 97. 185. 179. 67. 72. 195. 187. 40. 49. 203. 189. 22. 26. 207.
      185. 27. 25. 208. 173. 52. 40. 202. 152. 83. 69. 182. 127. 140.
      108. 146. 102. 197. 152. 107. 83. 242. 195. 76. 70. 253. 226. 54.
      63. 255. 248. 91. 255. 170. 121. 111. 251. 153. 105. 136. 235.
      133. 92. 166. 217. 110. 77. 194. 209. 86. 64. 212. 205. 61. 44.
      220. 212. 38. 27. 227. 214. 22. 15. 231. 207. 25. 18. 232. 195.
      41. 37. 230. 168. 67. 69. 215. 133. 111. 109. 184. 97. 166. 157.
      139. 72. 222. 199. 102. 49. 252. 228. 74. 33. 255. 247. 121. 253.
      139. 76. 145. 250. 130. 68. 173. 238. 114. 55. 197. 225. 96. 45.
      218. 222. 78. 34. 233. 223. 59. 21. 238. 229. 39. 14. 243. 232.
      24. 8. 245. 228. 21. 13. 247. 216. 29. 34. 244. 192. 45. 66. 233.
      151. 79. 105. 209. 111. 118. 156. 169. 76. 180. 200. 128. 51. 236.
      227. 95. 31. 254. 240. 147. 249. 114. 48. 173. 239. 112. 38. 196.
      228. 102. 31. 217. 223. 91. 24. 232. 224. 75. 16. 242. 227. 62.
      11. 243. 234. 45. 7. 247. 237. 27. 4. 247. 235. 20. 10. 248. 226.
      19. 29. 246. 205. 27. 62. 236. 170. 55. 98. 217. 125. 85. 150.
      186. 89. 128. 196. 143. 60. 188. 221. 110. 36. 236. 229. 149. 206.
      92. 26. 177. 202. 94. 19. 198. 202. 90. 14. 218. 205. 84. 10. 230.
      213. 73. 7. 238. 221. 64. 4. 239. 227. 48. 3. 241. 231. 31. 3.
      240. 230. 20. 6. 241. 224. 13. 26. 237. 206. 15. 54. 228. 176. 35.
      91. 210. 135. 57. 137. 181. 95. 86. 182. 142. 67. 120. 203. 111.
      41. 167. 208. 133. 136. 72. 14. 159. 145. 75. 11. 183. 158. 75. 9.
      201. 172. 73. 6. 215. 187. 69. 4. 221. 198. 60. 0. 223. 208. 47.
      0. 222. 213. 31. 1. 221. 214. 18. 4. 220. 207. 10. 22. 216. 193.
      6. 49. 206. 165. 18. 78. 189. 127. 34. 115. 161. 93. 53. 151. 129.
      66. 74. 170. 98. 41. 96. 171. 105. 93. 51. 1. 124. 104. 59. 1.
      144. 117. 62. 1. 162. 134. 63. 2. 173. 146. 60. 2. 181. 159. 53.
      2. 181. 166. 42. 2. 179. 169. 28. 3. 175. 171. 17. 3. 174. 168. 9.
      17. 169. 156. 5. 38. 160. 135. 13. 65. 144. 107. 20. 92. 123. 82.
      32. 114. 101. 58. 45. 128. 82. 37. 56. 126.</_>
    <_>
      86. 45. 38. 146. 111. 64. 30. 157. 139. 89. 22. 169. 167. 122. 12.
      168. 193. 156. 8. 154. 215. 188. 0. 123. 229. 212. 0. 81. 239.
      228. 18. 48. 241. 234. 30. 26. 239. 231. 44. 0. 233. 216. 57. 0.
      221. 196. 67. 5. 207. 175. 68. 6. 189. 151. 65. 7. 173. 132. 62.
      8. 150. 117. 61. 10. 109. 49. 75. 175. 132. 69. 56. 183. 155. 97.
      40. 188. 179. 130. 27. 183. 203. 160. 14. 165. 223. 191. 1. 134.
      235. 214. 1. 85. 241. 230. 18. 48. 242. 239. 32. 26. 242. 239. 47.
      1. 240. 229. 63. 1. 232. 214. 72. 7. 220. 197. 78. 10. 205. 177.
      80. 17. 186. 163. 83. 24. 167. 154. 88. 31. 122. 49. 143. 194.
      144. 69. 110. 200. 164. 98. 73. 201. 186. 131. 50. 190. 206. 160.
      34. 168. 223. 190. 12. 131. 231. 211. 8. 82. 237. 226. 18. 47.
      238. 237. 31. 24. 237. 240. 46. 5. 238. 237. 63. 5. 232. 230. 77.
      11. 223. 218. 89. 21. 208. 207. 100. 32. 189. 198. 113. 42. 171.
      192. 126. 55. 127. 45. 209. 210. 145. 65. 170. 210. 162. 90. 125.
      205. 182. 123. 82. 189. 200. 155. 52. 160. 213. 182. 25. 121. 219.
      203. 15. 74. 224. 216. 16. 43. 225. 226. 28. 21. 225. 233. 42. 6.
      224. 235. 60. 9. 217. 238. 79. 24. 209. 234. 101. 37. 195. 227.
      120. 53. 177. 222. 143. 71. 156. 221. 163. 96. 117. 38. 250. 219.
      133. 54. 228. 213. 149. 75. 177. 202. 167. 108. 125. 182. 181.
      140. 76. 153. 193. 166. 38. 112. 199. 183. 23. 67. 202. 195. 12.
      39. 202. 204. 23. 17. 201. 212. 37. 9. 199. 220. 54. 19. 190. 230.
      81. 38. 179. 235. 112. 58. 164. 236. 143. 86. 146. 234. 173. 119.
      126. 233. 201. 149. 97. 49. 255. 227. 114. 58. 250. 215. 131. 71.
      220. 199. 147. 94. 163. 175. 157. 118. 109. 142. 166. 140. 54. 97.
      170. 154. 34. 57. 171. 161. 11. 34. 169. 172. 17. 13. 166. 180.
      35. 21. 161. 193. 50. 35. 154. 207. 85. 61. 143. 218. 124. 96.
      126. 225. 162. 137. 108. 224. 201. 174. 87. 219. 240. 205. 72. 89.
      255. 234. 88. 84. 254. 214. 107. 83. 244. 192. 119. 87. 187. 162.
      128. 98. 131. 124. 128. 104. 68. 77. 121. 111. 40. 48. 119. 115.
      14. 25. 116. 118. 12. 14. 116. 134. 32. 33. 115. 148. 50. 51. 108.
      169. 93. 93. 99. 183. 142. 139. 85. 191. 184. 179. 70. 190. 227.
      218. 60. 185. 249. 248. 59. 156. 255. 228. 73. 139. 253. 206. 95.
      120. 245. 179. 111. 111. 194. 148. 117. 102. 140. 107. 116. 96.
      76. 64. 106. 93. 46. 39. 99. 90. 18. 20. 91. 91. 11. 22. 88. 100.
      31. 46. 86. 112. 52. 73. 82. 127. 100. 130. 73. 141. 151. 176. 66.
      146. 200. 218. 56. 145. 244. 248. 46. 138. 252. 252. 64. 231. 253.
      207. 86. 202. 249. 185. 116. 176. 229. 158. 133. 153. 184. 129.
      138. 135. 138. 87. 133. 115. 79. 52. 118. 103. 48. 33. 105. 93.
      21. 19. 95. 88. 14. 31. 92. 89. 33. 63. 92. 94. 53. 104. 91. 101.
      103. 159. 87. 106. 155. 208. 81. 107. 204. 245. 71. 101. 246. 251.
      65. 90. 253. 254. 75. 252. 243. 173. 110. 247. 224. 152. 140. 222.
      196. 130. 159. 193. 164. 99. 173. 172. 127. 67. 171. 150. 81. 39.
      158. 141. 53. 25. 146. 134. 28. 23. 136. 123. 20. 44. 130. 117.
      32. 84. 125. 110. 49. 137. 121. 100. 98. 187. 118. 90. 147. 232.
      112. 80. 194. 249. 102. 69. 243. 252. 92. 59. 251. 255. 94. 254.
      192. 120. 132. 251. 178. 105. 164. 246. 161. 85. 192. 225. 141.
      65. 208. 204. 114. 45. 214. 189. 77. 27. 209. 185. 54. 19. 198.
      181. 34. 30. 186. 176. 23. 57. 178. 162. 29. 105. 172. 147. 43.
      156. 160. 124. 80. 203. 153. 104. 127. 241. 144. 84. 172. 249.
      135. 68. 212. 251. 120. 55. 247. 254. 107. 253. 148. 69. 145. 250.
      141. 61. 180. 246. 129. 52. 211. 233. 114. 41. 235. 219. 95. 30.
      244. 215. 72. 19. 244. 217. 55. 16. 240. 217. 37. 36. 226. 211.
      27. 68. 213. 197. 26. 119. 200. 176. 35. 170. 186. 149. 62. 208.
      175. 121. 97. 236. 159. 98. 137. 245. 151. 74. 174. 248. 142. 58.
      210. 250. 109. 247. 114. 36. 147. 242. 109. 33. 181. 226. 101. 28.
      213. 217. 91. 22. 241. 216. 82. 16. 247. 222. 70. 9. 248. 231. 56.
      15. 246. 236. 40. 41. 243. 229. 29. 74. 230. 212. 22. 125. 211.
      187. 24. 174. 195. 157. 44. 204. 178. 135. 66. 220. 165. 108. 94.
      227. 152. 83. 128. 232. 144. 66. 157. 236. 99. 196. 78. 10. 135.
      191. 78. 10. 167. 187. 74. 9. 196. 188. 72. 7. 221. 195. 70. 6.
      242. 209. 67. 6. 245. 221. 55. 15. 243. 228. 41. 43. 238. 223. 29.
      76. 222. 206. 20. 122. 203. 180. 13. 165. 184. 152. 29. 188. 169.
      124. 42. 198. 152. 102. 59. 197. 139. 78. 79. 194. 129. 63. 105.
      191. 75. 136. 56. 2. 106. 137. 59. 2. 136. 142. 58. 2. 161. 149.
      60. 2. 185. 163. 62. 3. 206. 182. 60. 3. 215. 197. 51. 15. 216.
      205. 39. 41. 210. 199. 28. 70. 198. 184. 16. 113. 180. 158. 8.
      148. 159. 133. 17. 165. 144. 106. 26. 168. 126. 83. 36. 158. 113.
      66. 47. 153. 102. 53. 61. 145. 57. 76. 40. 3. 77. 84. 43. 3. 103.
      96. 44. 4. 128. 110. 47. 4. 150. 129. 50. 4. 170. 150. 51. 4. 178.
      166. 45. 13. 181. 174. 36. 37. 177. 171. 25. 62. 168. 155. 13. 92.
      151. 134. 5. 122. 132. 104. 7. 138. 113. 79. 11. 136. 95. 64. 20.
      123. 80. 51. 27. 115. 71. 42. 35. 103.</_>
    <_>
      83. 67. 88. 112. 95. 85. 96. 124. 117. 95. 107. 126. 126. 109.
      103. 118. 121. 104. 93. 96. 99. 89. 82. 82. 81. 74. 62. 59. 56.
      54. 43. 38. 36. 34. 33. 31. 30. 0. 34. 39. 44. 36. 43. 55. 69. 57.
      61. 79. 92. 81. 80. 93. 128. 104. 90. 114. 167. 138. 107. 123.
      189. 170. 119. 127. 87. 78. 134. 135. 108. 92. 149. 149. 127. 116.
      160. 156. 139. 130. 152. 148. 132. 127. 133. 126. 111. 110. 103.
      95. 84. 85. 80. 75. 59. 60. 53. 47. 37. 39. 38. 35. 30. 0. 39. 45.
      49. 37. 55. 63. 75. 60. 83. 90. 99. 85. 106. 123. 142. 118. 136.
      150. 181. 155. 160. 174. 198. 188. 179. 182. 97. 80. 184. 175.
      119. 97. 193. 185. 139. 127. 197. 187. 148. 148. 193. 181. 146.
      151. 176. 152. 130. 139. 133. 117. 107. 115. 91. 85. 87. 89. 59.
      55. 76. 79. 42. 40. 72. 66. 47. 53. 81. 72. 65. 77. 94. 84. 96.
      113. 122. 99. 141. 156. 155. 134. 182. 190. 186. 173. 199. 207.
      200. 194. 217. 219. 112. 79. 217. 194. 125. 97. 226. 199. 139.
      132. 227. 198. 147. 158. 218. 192. 149. 173. 195. 175. 145. 164.
      156. 133. 131. 144. 105. 91. 119. 125. 65. 61. 109. 111. 46. 44.
      104. 97. 52. 56. 109. 98. 77. 84. 121. 106. 119. 131. 138. 118.
      176. 184. 160. 141. 206. 215. 181. 171. 233. 236. 191. 190. 245.
      245. 123. 72. 241. 219. 129. 92. 242. 216. 137. 125. 240. 208.
      146. 159. 230. 195. 155. 180. 203. 178. 166. 184. 168. 135. 168.
      179. 111. 93. 167. 172. 66. 63. 161. 162. 48. 48. 158. 149. 54.
      58. 154. 146. 81. 86. 154. 141. 130. 144. 154. 138. 188. 194. 160.
      141. 223. 229. 164. 150. 246. 248. 170. 172. 252. 252. 165. 91.
      250. 236. 163. 114. 247. 223. 164. 143. 241. 207. 175. 178. 224.
      190. 186. 193. 196. 164. 196. 203. 152. 121. 204. 210. 100. 87.
      212. 212. 64. 60. 213. 210. 45. 47. 210. 204. 53. 58. 202. 197.
      78. 86. 195. 188. 129. 144. 187. 174. 189. 196. 175. 150. 228.
      234. 153. 140. 250. 251. 140. 137. 253. 254. 192. 129. 251. 241.
      189. 143. 243. 222. 187. 167. 229. 197. 191. 189. 203. 173. 201.
      204. 177. 133. 219. 220. 124. 94. 231. 228. 86. 75. 236. 234. 57.
      54. 238. 235. 41. 43. 237. 233. 49. 56. 231. 224. 67. 82. 218.
      212. 117. 135. 199. 191. 181. 190. 182. 165. 221. 229. 147. 134.
      249. 250. 120. 115. 255. 255. 215. 184. 248. 237. 209. 185. 231.
      209. 205. 192. 201. 180. 210. 201. 176. 134. 220. 217. 130. 96.
      232. 230. 89. 75. 240. 239. 67. 57. 244. 242. 48. 42. 245. 243.
      35. 38. 244. 242. 43. 51. 239. 238. 62. 73. 228. 222. 108. 120.
      208. 199. 169. 180. 183. 176. 215. 220. 140. 132. 247. 249. 98.
      98. 253. 254. 230. 215. 233. 216. 225. 213. 200. 186. 222. 214.
      170. 142. 224. 218. 122. 98. 231. 225. 88. 77. 238. 234. 62. 52.
      242. 239. 50. 40. 245. 243. 36. 33. 246. 244. 30. 32. 244. 243.
      42. 48. 240. 239. 59. 64. 229. 227. 103. 111. 207. 206. 166. 171.
      182. 183. 214. 214. 137. 143. 247. 246. 95. 105. 254. 253. 230.
      225. 197. 183. 226. 222. 167. 142. 223. 221. 120. 99. 223. 221.
      86. 76. 227. 224. 63. 55. 232. 228. 40. 33. 235. 233. 34. 28. 237.
      235. 29. 27. 238. 236. 26. 28. 237. 235. 46. 45. 232. 232. 64. 62.
      219. 221. 115. 109. 198. 205. 177. 170. 178. 188. 220. 214. 138.
      161. 249. 246. 102. 126. 255. 253. 211. 213. 145. 124. 206. 207.
      112. 94. 203. 202. 84. 78. 202. 200. 61. 56. 204. 200. 44. 40.
      206. 202. 28. 26. 209. 205. 27. 0. 211. 208. 26. 0. 213. 209. 25.
      25. 211. 211. 50. 46. 205. 208. 74. 65. 196. 201. 123. 114. 185.
      195. 185. 177. 162. 186. 226. 218. 135. 172. 250. 248. 114. 142.
      255. 254. 171. 179. 92. 79. 166. 174. 80. 63. 163. 168. 61. 51.
      161. 163. 46. 39. 159. 161. 35. 31. 157. 157. 1. 1. 157. 157. 1.
      1. 158. 158. 2. 2. 159. 155. 2. 2. 159. 162. 53. 47. 156. 169. 78.
      66. 153. 174. 128. 116. 148. 179. 187. 177. 143. 178. 225. 217.
      136. 172. 249. 247. 128. 151. 252. 252. 110. 116. 58. 52. 108.
      113. 50. 44. 106. 108. 41. 37. 103. 105. 33. 31. 102. 102. 29. 28.
      100. 100. 3. 3. 101. 101. 3. 3. 101. 101. 4. 4. 102. 100. 4. 4.
      104. 110. 51. 45. 112. 120. 76. 64. 118. 136. 122. 110. 128. 153.
      180. 169. 140. 169. 216. 212. 146. 173. 240. 241. 151. 163. 251.
      251. 73. 76. 35. 30. 71. 74. 32. 29. 71. 71. 29. 27. 70. 71. 27.
      26. 70. 70. 25. 25. 68. 68. 5. 5. 68. 68. 5. 5. 69. 69. 6. 6. 70.
      67. 6. 6. 73. 77. 49. 41. 82. 87. 69. 58. 91. 107. 106. 94. 115.
      132. 152. 144. 136. 151. 191. 192. 153. 165. 216. 226. 171. 162.
      234. 248. 7. 7. 7. 7. 8. 8. 8. 8. 9. 9. 9. 9. 10. 10. 10. 10. 11.
      11. 11. 11. 12. 12. 12. 12. 13. 13. 13. 13. 14. 14. 14. 14. 15.
      15. 15. 15. 32. 36. 42. 37. 50. 57. 60. 51. 72. 83. 88. 83. 93.
      105. 121. 117. 122. 131. 154. 165. 147. 145. 183. 198. 168. 147.
      194. 227. 16. 16. 16. 16. 17. 17. 17. 17. 18. 18. 18. 18. 19. 19.
      19. 19. 20. 20. 20. 20. 21. 21. 21. 21. 22. 22. 22. 22. 23. 23.
      23. 23. 24. 24. 24. 24. 31. 34. 38. 32. 49. 54. 52. 41. 66. 73.
      74. 65. 88. 90. 90. 89. 116. 113. 113. 124. 137. 125. 131. 166.
      150. 129. 145. 193.</_>
    <_>
      47. 40. 0. 61. 58. 52. 0. 70. 71. 65. 31. 77. 82. 76. 34. 77. 88.
      82. 37. 74. 90. 84. 40. 65. 84. 79. 42. 53. 74. 72. 40. 41. 58.
      58. 37. 0. 45. 46. 34. 0. 33. 35. 31. 1. 1. 1. 1. 2. 2. 2. 2. 3.
      3. 3. 3. 4. 4. 4. 4. 5. 5. 5. 5. 6. 69. 48. 56. 86. 85. 63. 60.
      100. 102. 79. 63. 109. 120. 95. 64. 113. 124. 105. 66. 107. 126.
      110. 67. 97. 120. 103. 67. 82. 102. 89. 61. 68. 78. 73. 54. 49.
      57. 55. 46. 41. 38. 39. 36. 33. 6. 6. 6. 7. 7. 7. 7. 8. 8. 8. 8.
      9. 9. 9. 9. 10. 10. 10. 10. 11. 91. 55. 96. 114. 115. 76. 98. 127.
      133. 97. 100. 141. 151. 117. 99. 144. 159. 128. 99. 139. 159. 133.
      99. 126. 148. 125. 96. 110. 126. 112. 84. 88. 100. 87. 73. 65. 71.
      64. 56. 52. 44. 44. 42. 37. 11. 11. 11. 12. 12. 12. 12. 13. 13.
      13. 13. 14. 14. 14. 14. 15. 15. 15. 15. 16. 121. 60. 139. 140.
      143. 83. 141. 157. 161. 110. 142. 167. 179. 130. 138. 172. 189.
      146. 136. 167. 189. 152. 132. 157. 174. 144. 123. 137. 151. 123.
      111. 112. 120. 100. 90. 80. 81. 71. 69. 62. 49. 47. 48. 43. 16.
      16. 16. 17. 17. 17. 17. 18. 18. 18. 18. 19. 19. 19. 19. 20. 20.
      20. 20. 21. 147. 68. 183. 164. 166. 95. 184. 184. 189. 122. 179.
      193. 203. 147. 173. 195. 215. 161. 168. 191. 217. 168. 162. 176.
      199. 163. 152. 157. 177. 152. 131. 128. 151. 131. 106. 96. 121.
      113. 78. 71. 102. 101. 53. 47. 94. 92. 30. 21. 94. 91. 32. 21. 94.
      89. 35. 21. 93. 86. 38. 22. 94. 83. 42. 22. 165. 73. 220. 190.
      186. 101. 218. 198. 202. 128. 209. 205. 221. 155. 202. 207. 228.
      169. 195. 201. 228. 183. 187. 190. 221. 179. 166. 165. 197. 168.
      146. 139. 173. 158. 119. 104. 154. 146. 83. 76. 140. 138. 54. 49.
      135. 134. 35. 31. 135. 133. 43. 34. 135. 131. 52. 39. 136. 128.
      61. 46. 136. 125. 70. 50. 185. 80. 250. 208. 195. 109. 242. 211.
      210. 136. 230. 213. 225. 160. 222. 209. 238. 180. 208. 201. 240.
      191. 196. 189. 228. 193. 174. 164. 215. 190. 149. 137. 197. 186.
      119. 103. 185. 178. 81. 73. 175. 174. 50. 47. 172. 171. 45. 39.
      171. 169. 57. 48. 172. 168. 75. 60. 172. 166. 89. 72. 171. 163.
      105. 83. 194. 113. 255. 235. 202. 131. 254. 226. 218. 155. 242.
      220. 228. 176. 226. 206. 243. 196. 212. 194. 249. 207. 194. 175.
      245. 219. 167. 154. 234. 220. 142. 123. 225. 219. 108. 93. 220.
      215. 74. 66. 214. 213. 45. 43. 212. 210. 55. 51. 211. 207. 75. 68.
      210. 206. 97. 87. 209. 204. 121. 109. 208. 200. 142. 127. 198.
      140. 255. 254. 205. 153. 253. 241. 219. 169. 237. 222. 227. 193.
      221. 199. 243. 209. 199. 184. 252. 224. 180. 158. 253. 231. 155.
      132. 248. 238. 124. 105. 244. 239. 90. 78. 239. 238. 62. 55. 237.
      237. 38. 36. 235. 233. 63. 61. 234. 232. 87. 84. 232. 229. 120.
      114. 231. 227. 146. 140. 229. 225. 167. 162. 203. 163. 254. 255.
      205. 170. 240. 251. 217. 187. 222. 223. 225. 201. 200. 195. 240.
      221. 185. 165. 247. 230. 158. 135. 253. 242. 130. 105. 253. 246.
      103. 81. 252. 248. 72. 62. 251. 249. 48. 43. 250. 249. 32. 32.
      247. 247. 69. 70. 246. 245. 98. 101. 245. 243. 129. 132. 244. 240.
      160. 163. 241. 234. 188. 191. 203. 185. 232. 255. 204. 186. 219.
      252. 211. 194. 197. 223. 223. 206. 184. 191. 231. 224. 160. 156.
      242. 233. 134. 117. 248. 243. 107. 79. 251. 246. 81. 56. 252. 248.
      54. 44. 251. 249. 36. 32. 250. 250. 22. 22. 247. 246. 70. 76. 245.
      244. 99. 108. 244. 241. 132. 144. 241. 238. 162. 176. 239. 229.
      190. 204. 196. 188. 200. 254. 196. 187. 188. 239. 200. 192. 170.
      212. 211. 201. 156. 183. 222. 218. 137. 145. 227. 224. 111. 102.
      232. 230. 85. 65. 235. 234. 64. 42. 237. 235. 36. 34. 236. 236.
      23. 23. 236. 236. 23. 23. 233. 233. 67. 75. 231. 230. 92. 106.
      229. 226. 122. 142. 226. 223. 154. 173. 224. 218. 178. 202. 180.
      176. 165. 227. 180. 173. 156. 214. 186. 177. 143. 192. 193. 188.
      129. 161. 198. 197. 115. 127. 206. 203. 89. 88. 213. 210. 72. 51.
      215. 214. 54. 30. 216. 216. 31. 24. 216. 216. 24. 24. 217. 217.
      24. 25. 214. 213. 57. 69. 212. 208. 80. 97. 207. 205. 107. 129.
      204. 198. 133. 160. 199. 192. 156. 187. 154. 155. 129. 192. 153.
      152. 121. 183. 157. 153. 115. 161. 162. 159. 103. 138. 169. 164.
      90. 108. 175. 171. 75. 77. 178. 177. 59. 44. 181. 181. 46. 25.
      181. 181. 25. 25. 182. 182. 26. 26. 182. 182. 26. 26. 179. 178.
      50. 59. 177. 175. 68. 82. 174. 170. 86. 111. 170. 164. 107. 137.
      166. 158. 125. 159. 124. 126. 93. 153. 122. 122. 88. 144. 127.
      123. 85. 130. 134. 130. 80. 112. 141. 138. 74. 86. 145. 143. 62.
      64. 148. 147. 52. 38. 149. 149. 40. 27. 149. 150. 27. 27. 150.
      150. 27. 28. 150. 151. 28. 28. 148. 148. 41. 50. 147. 145. 53. 67.
      145. 141. 66. 85. 143. 134. 78. 106. 139. 125. 91. 124. 92. 96.
      57. 109. 91. 92. 59. 104. 95. 93. 60. 95. 101. 98. 59. 79. 106.
      104. 56. 66. 113. 111. 49. 51. 116. 115. 41. 33. 117. 117. 35. 28.
      118. 118. 29. 29. 118. 118. 29. 29. 119. 119. 30. 30. 116. 116.
      33. 39. 116. 114. 37. 51. 114. 110. 45. 63. 112. 104. 53. 77. 108.
      98. 58. 87.</_>
    <_>
      61. 48. 62. 70. 73. 58. 64. 75. 80. 70. 65. 79. 90. 79. 62. 77.
      96. 86. 59. 73. 91. 89. 55. 64. 79. 83. 52. 54. 67. 75. 47. 45.
      52. 62. 43. 37. 39. 47. 38. 34. 0. 38. 33. 32. 0. 0. 0. 1. 1. 1.
      1. 2. 2. 2. 2. 3. 3. 3. 3. 4. 4. 4. 4. 5. 94. 59. 75. 113. 108.
      73. 81. 118. 119. 90. 87. 120. 126. 104. 91. 116. 128. 116. 95.
      103. 122. 118. 96. 85. 107. 112. 89. 72. 82. 99. 77. 56. 64. 76.
      67. 46. 46. 58. 52. 40. 5. 44. 39. 34. 5. 5. 6. 6. 6. 6. 7. 7. 7.
      7. 8. 8. 8. 8. 9. 9. 9. 9. 10. 10. 131. 69. 105. 155. 149. 86.
      114. 160. 158. 112. 119. 161. 164. 131. 124. 154. 165. 146. 127.
      137. 158. 150. 128. 118. 137. 139. 121. 98. 109. 120. 105. 74. 78.
      97. 85. 58. 53. 69. 66. 47. 10. 49. 45. 37. 10. 11. 11. 11. 11.
      12. 12. 12. 12. 13. 13. 13. 13. 14. 14. 14. 14. 15. 15. 15. 166.
      77. 148. 185. 175. 101. 152. 190. 185. 128. 155. 189. 192. 153.
      159. 180. 191. 163. 161. 169. 180. 168. 162. 150. 163. 160. 155.
      121. 129. 138. 133. 95. 94. 109. 107. 70. 61. 76. 76. 54. 15. 53.
      50. 40. 16. 16. 16. 16. 17. 17. 17. 17. 18. 18. 18. 18. 19. 19.
      19. 19. 20. 20. 20. 20. 189. 83. 178. 211. 200. 111. 176. 214.
      206. 144. 177. 210. 211. 165. 179. 202. 212. 175. 181. 187. 204.
      181. 180. 170. 187. 175. 173. 144. 162. 164. 156. 110. 133. 144.
      124. 80. 107. 118. 86. 60. 92. 102. 53. 42. 93. 93. 32. 21. 94.
      93. 33. 21. 95. 93. 35. 21. 97. 92. 38. 21. 98. 92. 41. 22. 203.
      85. 207. 236. 210. 115. 202. 233. 219. 148. 198. 226. 226. 170.
      196. 214. 228. 181. 197. 199. 221. 191. 194. 178. 204. 188. 182.
      156. 182. 177. 164. 121. 166. 167. 129. 88. 149. 153. 91. 62. 135.
      145. 55. 42. 137. 136. 36. 33. 138. 138. 42. 37. 139. 138. 50. 43.
      141. 140. 60. 49. 145. 143. 68. 55. 204. 100. 237. 243. 209. 121.
      221. 238. 218. 151. 207. 227. 228. 171. 202. 213. 235. 186. 200.
      199. 231. 197. 194. 179. 220. 199. 179. 159. 205. 197. 160. 126.
      195. 192. 123. 99. 187. 186. 84. 72. 184. 185. 50. 55. 187. 186.
      44. 51. 189. 188. 56. 56. 190. 190. 71. 67. 191. 191. 87. 78. 193.
      192. 104. 95. 205. 134. 249. 243. 210. 151. 231. 232. 221. 168.
      210. 215. 231. 183. 201. 203. 240. 201. 193. 189. 242. 209. 177.
      171. 239. 216. 167. 154. 232. 218. 142. 131. 225. 216. 105. 113.
      222. 216. 74. 97. 223. 219. 45. 80. 224. 222. 51. 76. 226. 225.
      70. 78. 227. 227. 94. 91. 228. 228. 117. 110. 229. 229. 140. 130.
      205. 169. 252. 238. 209. 172. 229. 217. 219. 183. 205. 201. 231.
      199. 188. 183. 241. 211. 173. 170. 246. 224. 158. 157. 246. 233.
      141. 145. 244. 237. 115. 134. 243. 238. 81. 130. 244. 239. 60.
      123. 246. 241. 39. 111. 249. 245. 59. 103. 251. 248. 80. 102. 251.
      250. 111. 116. 251. 252. 144. 137. 250. 252. 167. 162. 213. 194.
      242. 218. 217. 196. 214. 198. 224. 202. 192. 175. 234. 208. 170.
      160. 241. 223. 152. 143. 245. 232. 123. 130. 248. 239. 106. 132.
      249. 240. 82. 142. 252. 240. 64. 152. 253. 242. 45. 152. 253. 247.
      33. 139. 255. 253. 63. 127. 255. 253. 88. 120. 255. 254. 122. 132.
      254. 255. 156. 156. 254. 254. 176. 176. 227. 208. 223. 195. 230.
      207. 197. 173. 235. 212. 171. 153. 238. 222. 146. 126. 241. 230.
      117. 110. 243. 236. 82. 108. 244. 239. 71. 125. 246. 237. 56. 150.
      248. 236. 43. 163. 248. 237. 32. 167. 250. 240. 22. 157. 251. 242.
      63. 141. 250. 245. 87. 129. 249. 247. 120. 136. 247. 247. 154.
      157. 244. 245. 174. 178. 230. 209. 196. 166. 233. 208. 172. 145.
      233. 212. 147. 117. 234. 217. 115. 96. 234. 224. 86. 78. 236. 225.
      61. 89. 235. 225. 51. 116. 235. 222. 43. 147. 234. 214. 35. 164.
      232. 211. 22. 168. 230. 213. 22. 159. 229. 215. 57. 140. 226. 220.
      79. 124. 223. 221. 108. 127. 220. 220. 136. 146. 215. 216. 162.
      169. 217. 198. 165. 125. 219. 198. 142. 106. 218. 201. 114. 84.
      215. 203. 84. 68. 213. 206. 65. 58. 212. 206. 40. 75. 208. 204.
      37. 103. 207. 200. 34. 132. 206. 193. 32. 153. 203. 185. 23. 157.
      200. 182. 23. 148. 196. 182. 50. 127. 193. 184. 68. 111. 188. 184.
      88. 109. 184. 183. 113. 119. 180. 179. 133. 143. 195. 172. 128.
      82. 195. 172. 108. 73. 194. 173. 83. 61. 190. 174. 66. 48. 186.
      177. 48. 46. 181. 176. 23. 66. 178. 174. 23. 85. 174. 169. 24.
      112. 171. 159. 24. 129. 168. 149. 24. 133. 161. 140. 24. 123. 154.
      136. 42. 105. 148. 135. 53. 90. 141. 135. 68. 83. 134. 134. 81.
      89. 132. 130. 100. 107. 165. 142. 92. 52. 166. 143. 77. 47. 163.
      146. 65. 41. 161. 149. 51. 36. 158. 151. 40. 38. 155. 150. 25. 54.
      151. 147. 25. 71. 147. 135. 25. 87. 139. 125. 25. 101. 131. 115.
      26. 103. 122. 104. 26. 98. 114. 101. 35. 81. 106. 100. 41. 69.
      102. 98. 49. 63. 99. 96. 57. 63. 97. 90. 67. 72. 125. 100. 66. 26.
      126. 102. 57. 26. 124. 104. 49. 27. 122. 110. 41. 27. 119. 114.
      35. 34. 117. 113. 27. 44. 112. 109. 27. 54. 106. 101. 28. 65. 99.
      88. 28. 72. 84. 74. 28. 74. 71. 59. 28. 69. 57. 46. 29. 60. 44.
      36. 29. 48. 36. 29. 29. 39. 30. 30. 30. 30. 31. 31. 31. 31.</_>
    <_>
      0. 0. 0. 51. 47. 39. 39. 60. 56. 42. 42. 70. 63. 46. 46. 80. 71.
      50. 50. 85. 74. 52. 52. 84. 72. 50. 51. 75. 63. 45. 46. 64. 55.
      41. 41. 54. 45. 38. 39. 41. 0. 1. 1. 1. 1. 2. 2. 2. 2. 3. 3. 3. 3.
      4. 4. 4. 4. 5. 5. 5. 5. 6. 6. 6. 48. 6. 49. 67. 64. 49. 59. 85.
      78. 59. 66. 97. 89. 68. 72. 111. 94. 77. 77. 116. 96. 81. 76. 113.
      92. 77. 71. 102. 82. 67. 62. 88. 65. 57. 53. 69. 51. 46. 44. 48.
      7. 7. 7. 7. 8. 8. 8. 8. 9. 9. 9. 9. 10. 10. 10. 10. 11. 11. 11.
      11. 12. 12. 12. 12. 57. 13. 83. 82. 79. 57. 98. 100. 92. 70. 112.
      119. 104. 85. 121. 139. 115. 92. 125. 146. 116. 97. 122. 143. 109.
      93. 111. 132. 93. 84. 94. 105. 76. 68. 73. 84. 57. 55. 58. 56. 13.
      13. 13. 14. 14. 14. 14. 15. 15. 15. 15. 16. 16. 16. 16. 17. 17.
      17. 17. 18. 18. 18. 18. 19. 71. 19. 111. 93. 94. 65. 137. 119.
      112. 83. 152. 145. 132. 97. 165. 164. 140. 110. 168. 172. 141.
      115. 163. 170. 133. 110. 146. 152. 109. 96. 120. 130. 88. 81. 91.
      97. 63. 60. 68. 62. 19. 19. 20. 20. 20. 20. 21. 21. 21. 21. 22.
      22. 22. 22. 23. 23. 23. 23. 24. 24. 24. 24. 25. 25. 103. 25. 142.
      120. 122. 71. 170. 147. 139. 90. 185. 169. 150. 106. 202. 182.
      157. 121. 204. 190. 155. 132. 195. 184. 143. 121. 176. 171. 118.
      105. 147. 143. 93. 87. 107. 106. 68. 66. 81. 73. 41. 42. 25. 54.
      53. 49. 38. 61. 62. 59. 40. 69. 74. 66. 43. 74. 85. 73. 47. 75.
      91. 78. 52. 72. 142. 44. 166. 155. 155. 80. 193. 172. 166. 99.
      216. 184. 173. 120. 233. 201. 176. 141. 235. 204. 175. 147. 222.
      198. 167. 146. 200. 178. 148. 138. 167. 149. 133. 123. 120. 114.
      113. 112. 87. 86. 101. 101. 26. 82. 102. 99. 44. 95. 103. 101. 52.
      108. 110. 104. 61. 115. 117. 110. 72. 116. 125. 114. 83. 113. 173.
      67. 181. 182. 179. 90. 211. 192. 184. 107. 235. 202. 189. 134.
      245. 208. 192. 149. 247. 208. 189. 162. 239. 199. 181. 165. 210.
      177. 172. 162. 174. 148. 161. 153. 131. 115. 148. 146. 89. 95.
      141. 142. 26. 100. 139. 137. 56. 124. 140. 137. 70. 145. 144. 140.
      88. 152. 150. 144. 103. 156. 161. 149. 118. 153. 209. 123. 192.
      208. 212. 135. 217. 211. 215. 145. 238. 211. 216. 163. 246. 210.
      217. 175. 246. 204. 217. 185. 236. 189. 212. 193. 207. 171. 205.
      195. 171. 141. 201. 194. 123. 111. 191. 187. 84. 104. 183. 183.
      26. 121. 180. 180. 65. 151. 179. 178. 87. 173. 179. 177. 108. 182.
      183. 178. 135. 187. 190. 181. 151. 187. 238. 165. 198. 223. 239.
      168. 211. 219. 237. 174. 224. 214. 237. 184. 234. 205. 238. 202.
      234. 191. 240. 213. 218. 176. 240. 221. 189. 153. 236. 228. 156.
      123. 234. 229. 112. 102. 227. 225. 73. 109. 220. 220. 26. 136.
      215. 215. 75. 169. 210. 209. 98. 188. 208. 206. 131. 206. 209.
      205. 154. 214. 212. 206. 175. 218. 251. 196. 199. 222. 250. 198.
      202. 216. 247. 203. 204. 205. 245. 212. 207. 187. 247. 224. 203.
      173. 251. 237. 186. 153. 252. 242. 168. 133. 253. 247. 136. 102.
      252. 249. 96. 91. 248. 246. 60. 107. 243. 243. 27. 138. 240. 240.
      82. 172. 234. 233. 105. 195. 229. 227. 140. 213. 226. 221. 167.
      226. 226. 219. 186. 235. 254. 219. 191. 206. 253. 218. 182. 196.
      251. 221. 178. 180. 250. 230. 174. 168. 252. 239. 171. 147. 253.
      243. 155. 124. 255. 251. 136. 100. 255. 254. 106. 83. 255. 255.
      80. 79. 254. 254. 48. 99. 252. 253. 27. 131. 246. 245. 81. 164.
      241. 241. 105. 185. 238. 235. 139. 207. 233. 229. 167. 223. 230.
      222. 185. 236. 249. 226. 177. 177. 244. 225. 165. 169. 242. 227.
      149. 154. 242. 232. 138. 138. 243. 236. 125. 116. 245. 241. 108.
      96. 248. 244. 94. 79. 250. 248. 77. 61. 250. 249. 58. 64. 249.
      248. 27. 86. 244. 244. 27. 107. 242. 241. 74. 144. 239. 237. 98.
      170. 233. 230. 126. 186. 225. 220. 152. 207. 220. 213. 174. 221.
      232. 215. 157. 144. 229. 214. 142. 135. 225. 214. 119. 117. 223.
      216. 104. 101. 224. 219. 92. 86. 227. 223. 78. 67. 230. 228. 69.
      53. 232. 231. 58. 43. 232. 231. 47. 51. 231. 231. 28. 69. 228.
      228. 28. 89. 224. 222. 64. 117. 218. 217. 86. 143. 213. 210. 106.
      166. 209. 203. 134. 180. 203. 194. 150. 201. 201. 190. 134. 99.
      196. 188. 113. 91. 194. 188. 95. 79. 193. 190. 80. 66. 194. 191.
      62. 54. 196. 195. 45. 40. 197. 197. 43. 28. 200. 198. 40. 28. 200.
      200. 38. 43. 199. 199. 29. 54. 197. 197. 29. 63. 193. 192. 56. 90.
      188. 186. 70. 109. 183. 181. 88. 135. 179. 175. 103. 151. 176.
      169. 118. 170. 166. 164. 100. 55. 164. 163. 90. 49. 163. 162. 76.
      44. 162. 161. 61. 40. 161. 160. 50. 38. 157. 158. 29. 29. 158.
      158. 30. 30. 158. 159. 30. 30. 159. 159. 31. 31. 159. 160. 31. 31.
      160. 160. 32. 32. 157. 156. 45. 59. 156. 154. 55. 78. 154. 150.
      65. 95. 151. 145. 76. 114. 148. 137. 87. 136. 134. 126. 58. 32.
      133. 126. 53. 32. 132. 130. 47. 33. 131. 130. 42. 33. 130. 126.
      39. 33. 127. 127. 33. 34. 127. 127. 34. 34. 128. 128. 34. 35. 128.
      128. 35. 35. 129. 129. 35. 36. 129. 129. 36. 36. 125. 124. 36. 48.
      124. 122. 37. 60. 122. 118. 37. 75. 119. 114. 37. 89. 117. 108.
      37. 98.</_>
    <_>
      0. 0. 0. 0. 1. 1. 1. 1. 2. 2. 2. 2. 3. 3. 3. 3. 4. 4. 4. 4. 5. 5.
      5. 5. 6. 6. 6. 6. 7. 7. 7. 7. 8. 8. 8. 8. 9. 9. 9. 9. 10. 10. 10.
      10. 11. 11. 11. 11. 12. 12. 12. 12. 13. 13. 13. 13. 14. 14. 14.
      14. 15. 15. 15. 15. 90. 82. 69. 93. 97. 87. 71. 96. 102. 91. 74.
      97. 105. 93. 76. 95. 104. 91. 76. 91. 99. 87. 75. 83. 91. 80. 73.
      77. 81. 74. 70. 70. 72. 68. 68. 16. 16. 16. 16. 17. 17. 17. 17.
      18. 18. 18. 18. 19. 19. 19. 19. 20. 20. 20. 20. 21. 21. 21. 21.
      22. 22. 22. 22. 23. 104. 94. 103. 112. 112. 101. 109. 116. 118.
      109. 112. 118. 123. 110. 113. 116. 121. 110. 112. 111. 114. 103.
      106. 101. 105. 94. 97. 90. 90. 83. 85. 78. 78. 72. 76. 69. 23. 23.
      23. 24. 24. 24. 24. 25. 25. 25. 25. 26. 26. 26. 26. 27. 27. 27.
      27. 28. 28. 28. 28. 29. 29. 29. 29. 30. 122. 108. 133. 141. 140.
      117. 142. 145. 146. 135. 146. 147. 151. 143. 147. 145. 153. 144.
      145. 139. 149. 143. 139. 118. 144. 141. 117. 105. 139. 132. 99.
      86. 128. 126. 86. 73. 123. 122. 30. 30. 122. 123. 30. 31. 123.
      122. 68. 31. 124. 121. 69. 31. 125. 120. 72. 31. 126. 118. 75. 32.
      127. 116. 79. 32. 146. 116. 154. 175. 158. 140. 171. 177. 171.
      150. 175. 177. 175. 168. 177. 172. 178. 171. 173. 156. 176. 172.
      160. 142. 173. 170. 142. 114. 169. 166. 113. 94. 161. 159. 95. 79.
      157. 155. 32. 32. 157. 157. 33. 33. 158. 156. 71. 68. 158. 156.
      79. 72. 159. 155. 85. 77. 160. 154. 92. 82. 162. 154. 99. 87. 167.
      141. 180. 203. 174. 150. 196. 203. 181. 171. 201. 200. 194. 181.
      203. 188. 199. 195. 198. 174. 200. 198. 179. 150. 199. 197. 156.
      126. 196. 195. 125. 100. 193. 188. 102. 82. 186. 184. 33. 33. 185.
      185. 34. 34. 186. 185. 80. 75. 188. 185. 92. 83. 192. 186. 105.
      93. 194. 186. 115. 103. 196. 187. 131. 111. 183. 170. 201. 226.
      197. 176. 207. 224. 202. 193. 211. 209. 206. 204. 211. 201. 210.
      211. 205. 180. 216. 222. 192. 157. 223. 225. 169. 130. 224. 224.
      135. 102. 222. 222. 107. 84. 221. 217. 34. 34. 219. 219. 35. 35.
      220. 220. 88. 84. 221. 221. 106. 98. 223. 221. 121. 113. 225. 222.
      144. 131. 225. 224. 160. 146. 204. 194. 206. 243. 206. 199. 208.
      231. 207. 205. 213. 217. 215. 214. 210. 202. 226. 228. 204. 179.
      231. 234. 183. 153. 235. 238. 167. 125. 237. 243. 131. 100. 241.
      242. 106. 83. 242. 238. 35. 35. 240. 240. 36. 36. 241. 241. 96.
      93. 241. 242. 115. 111. 243. 244. 143. 138. 244. 245. 167. 152.
      244. 245. 180. 173. 218. 211. 206. 243. 223. 212. 205. 228. 225.
      223. 205. 209. 227. 228. 202. 197. 232. 236. 194. 172. 238. 245.
      174. 144. 246. 247. 149. 114. 248. 251. 119. 95. 252. 254. 99. 80.
      254. 250. 36. 36. 253. 253. 37. 37. 252. 254. 101. 100. 250. 255.
      125. 120. 249. 255. 151. 147. 249. 255. 177. 173. 247. 255. 200.
      195. 228. 231. 202. 226. 229. 229. 198. 208. 229. 230. 183. 199.
      232. 233. 178. 176. 235. 242. 170. 151. 244. 246. 148. 127. 246.
      247. 133. 102. 248. 250. 108. 87. 251. 252. 90. 76. 254. 251. 37.
      37. 253. 253. 38. 38. 250. 252. 104. 104. 248. 251. 128. 129. 247.
      249. 153. 153. 246. 249. 179. 180. 245. 248. 203. 204. 226. 233.
      184. 200. 227. 231. 176. 182. 227. 229. 169. 172. 227. 230. 151.
      149. 230. 233. 142. 129. 233. 234. 120. 107. 235. 236. 110. 88.
      237. 237. 92. 78. 239. 239. 81. 71. 240. 239. 38. 38. 239. 240.
      39. 39. 237. 238. 101. 103. 236. 236. 121. 127. 234. 235. 148.
      152. 232. 234. 174. 178. 230. 232. 197. 201. 208. 220. 169. 166.
      208. 214. 149. 150. 210. 213. 140. 141. 210. 213. 117. 119. 212.
      213. 107. 106. 214. 214. 92. 88. 215. 216. 85. 74. 217. 217. 77.
      69. 218. 218. 71. 67. 220. 218. 39. 39. 219. 219. 40. 40. 216.
      216. 95. 98. 215. 215. 113. 117. 212. 212. 140. 145. 209. 209.
      155. 170. 207. 207. 175. 182. 184. 198. 143. 124. 187. 196. 126.
      115. 188. 195. 111. 109. 189. 193. 96. 97. 189. 193. 82. 85. 192.
      189. 40. 75. 189. 190. 40. 41. 190. 190. 41. 41. 190. 191. 41. 42.
      191. 191. 42. 42. 191. 192. 42. 43. 187. 187. 86. 89. 184. 183.
      100. 108. 182. 182. 114. 127. 181. 181. 138. 147. 179. 178. 148.
      168. 158. 168. 115. 43. 159. 168. 108. 43. 161. 167. 96. 43. 162.
      166. 86. 44. 162. 166. 77. 44. 163. 163. 44. 44. 163. 163. 45. 45.
      164. 164. 45. 45. 164. 164. 46. 46. 165. 165. 46. 46. 165. 165.
      47. 47. 162. 161. 78. 81. 161. 160. 88. 94. 159. 155. 98. 109.
      154. 152. 110. 119. 152. 148. 119. 139. 129. 129. 89. 47. 130.
      130. 84. 47. 132. 132. 80. 48. 133. 134. 73. 48. 134. 134. 70. 48.
      135. 135. 48. 49. 136. 136. 49. 49. 136. 136. 49. 50. 137. 137.
      50. 50. 137. 137. 50. 51. 138. 138. 51. 51. 134. 133. 70. 74. 132.
      131. 73. 81. 130. 128. 79. 89. 128. 124. 84. 98. 124. 120. 89.
      107. 51. 52. 52. 52. 52. 53. 53. 53. 53. 54. 54. 54. 54. 55. 55.
      55. 55. 56. 56. 56. 56. 57. 57. 57. 57. 58. 58. 58. 58. 59. 59.
      59. 59. 60. 60. 60. 60. 61. 61. 61. 61. 62. 62. 62. 62. 63. 63.
      63. 63. 64. 64. 64. 64. 65. 65. 65. 65. 66. 66. 66. 66. 67. 67.
      67.</_>
    <_>
      0. 0. 0. 0. 1. 1. 1. 1. 2. 2. 2. 2. 3. 3. 3. 3. 4. 4. 4. 4. 5. 5.
      5. 5. 6. 6. 6. 6. 7. 7. 7. 7. 8. 8. 8. 8. 9. 9. 9. 9. 10. 10. 10.
      10. 11. 11. 11. 11. 12. 12. 12. 12. 13. 13. 13. 13. 14. 14. 14.
      14. 15. 15. 15. 15. 93. 79. 79. 98. 96. 83. 83. 100. 98. 85. 85.
      99. 98. 86. 86. 96. 95. 84. 84. 92. 89. 81. 81. 85. 83. 77. 77.
      78. 76. 74. 75. 16. 16. 16. 16. 17. 17. 17. 17. 18. 18. 18. 18.
      19. 19. 19. 19. 20. 20. 20. 20. 21. 21. 21. 21. 22. 22. 22. 22.
      23. 23. 23. 23. 24. 109. 98. 114. 117. 113. 103. 117. 120. 115.
      107. 118. 120. 114. 108. 115. 117. 109. 106. 109. 110. 102. 100.
      101. 101. 92. 91. 90. 90. 80. 82. 78. 75. 24. 24. 24. 25. 25. 25.
      25. 26. 26. 26. 26. 27. 27. 27. 27. 28. 28. 28. 28. 29. 29. 29.
      29. 30. 30. 30. 30. 31. 31. 31. 31. 32. 122. 116. 152. 133. 133.
      123. 152. 143. 144. 134. 152. 145. 147. 146. 148. 135. 147. 147.
      132. 122. 143. 145. 119. 113. 135. 137. 103. 100. 132. 133. 88.
      81. 129. 129. 32. 32. 129. 129. 32. 33. 130. 130. 33. 33. 128.
      128. 74. 33. 128. 128. 76. 34. 127. 126. 79. 34. 127. 124. 84. 34.
      125. 123. 88. 34. 149. 131. 181. 170. 154. 149. 181. 173. 162.
      158. 179. 166. 171. 173. 175. 156. 173. 176. 153. 148. 171. 175.
      136. 123. 165. 172. 113. 108. 162. 164. 95. 87. 160. 161. 35. 35.
      161. 161. 35. 35. 161. 162. 36. 36. 160. 160. 80. 75. 159. 159.
      88. 79. 158. 159. 97. 86. 157. 158. 105. 91. 157. 157. 111. 95.
      163. 151. 206. 192. 176. 170. 206. 187. 180. 180. 203. 182. 184.
      192. 196. 177. 190. 199. 177. 156. 195. 200. 151. 135. 192. 198.
      120. 115. 191. 197. 101. 92. 189. 189. 36. 36. 189. 190. 37. 37.
      190. 190. 37. 37. 188. 189. 91. 83. 186. 188. 104. 93. 185. 187.
      116. 103. 184. 186. 126. 111. 183. 186. 146. 119. 185. 178. 231.
      207. 199. 191. 226. 204. 203. 203. 221. 200. 205. 208. 204. 181.
      208. 222. 182. 164. 212. 223. 157. 145. 216. 223. 124. 117. 217.
      222. 104. 94. 218. 218. 38. 38. 218. 218. 38. 38. 219. 219. 39.
      39. 215. 217. 100. 94. 213. 216. 116. 107. 210. 215. 132. 120.
      209. 213. 152. 134. 207. 211. 171. 150. 204. 200. 247. 224. 206.
      205. 236. 209. 211. 216. 224. 203. 223. 225. 205. 183. 225. 234.
      183. 163. 230. 243. 155. 137. 234. 243. 122. 114. 237. 242. 103.
      94. 240. 240. 39. 39. 240. 241. 40. 40. 241. 241. 40. 40. 237.
      238. 106. 102. 235. 237. 122. 118. 232. 236. 150. 136. 229. 235.
      174. 154. 227. 234. 184. 176. 223. 209. 244. 227. 224. 222. 226.
      210. 225. 226. 209. 202. 230. 241. 201. 180. 242. 246. 178. 155.
      245. 254. 150. 125. 248. 255. 119. 107. 251. 255. 99. 90. 251.
      252. 41. 41. 252. 252. 41. 41. 252. 253. 42. 42. 250. 251. 110.
      107. 248. 250. 131. 124. 246. 249. 154. 151. 245. 248. 179. 176.
      243. 247. 201. 188. 231. 226. 224. 221. 232. 228. 207. 204. 234.
      233. 201. 185. 242. 244. 179. 171. 244. 246. 156. 147. 246. 249.
      130. 118. 248. 255. 108. 99. 251. 255. 93. 85. 253. 253. 42. 42.
      253. 254. 43. 43. 254. 254. 43. 43. 250. 250. 110. 111. 249. 249.
      130. 131. 247. 247. 154. 155. 245. 245. 178. 179. 243. 244. 200.
      201. 232. 228. 202. 202. 230. 227. 187. 182. 229. 228. 177. 172.
      229. 230. 153. 149. 231. 233. 135. 123. 233. 236. 113. 104. 235.
      238. 96. 87. 238. 242. 84. 78. 238. 239. 44. 44. 239. 239. 44. 44.
      239. 240. 45. 45. 237. 236. 106. 109. 235. 233. 121. 127. 232.
      231. 150. 153. 229. 228. 174. 178. 227. 225. 183. 198. 222. 215.
      177. 175. 221. 212. 158. 155. 214. 210. 148. 146. 212. 211. 125.
      121. 212. 213. 112. 108. 214. 214. 94. 89. 215. 217. 82. 76. 217.
      219. 77. 74. 219. 220. 45. 45. 220. 220. 46. 46. 220. 221. 46. 46.
      216. 214. 99. 105. 213. 211. 114. 121. 210. 208. 131. 148. 208.
      206. 151. 164. 207. 205. 165. 181. 202. 199. 146. 144. 199. 198.
      125. 127. 198. 197. 116. 119. 197. 197. 104. 106. 196. 196. 91.
      95. 196. 193. 47. 78. 193. 193. 47. 47. 193. 194. 47. 48. 194.
      194. 48. 48. 194. 195. 48. 49. 195. 195. 49. 49. 192. 191. 89. 97.
      191. 187. 102. 112. 188. 185. 115. 126. 186. 182. 124. 149. 184.
      180. 143. 159. 175. 174. 118. 97. 174. 173. 110. 93. 172. 172.
      102. 87. 170. 170. 92. 80. 169. 169. 82. 76. 166. 166. 49. 50.
      167. 167. 50. 50. 167. 167. 50. 51. 168. 168. 51. 51. 168. 168.
      51. 52. 169. 169. 52. 52. 166. 165. 81. 89. 165. 163. 88. 101.
      164. 160. 97. 112. 163. 156. 105. 121. 162. 153. 112. 134. 145.
      138. 90. 52. 144. 138. 86. 53. 144. 142. 82. 53. 143. 142. 77. 53.
      142. 139. 75. 53. 139. 139. 54. 54. 139. 140. 54. 54. 140. 140.
      55. 55. 140. 141. 55. 55. 141. 141. 56. 56. 141. 142. 56. 56. 138.
      137. 57. 80. 138. 136. 57. 87. 137. 133. 57. 96. 136. 132. 57.
      105. 134. 126. 58. 111. 58. 58. 58. 59. 59. 59. 59. 60. 60. 60.
      60. 61. 61. 61. 61. 62. 62. 62. 62. 63. 63. 63. 63. 64. 64. 64.
      64. 65. 65. 65. 65. 66. 66. 66. 66. 67. 67. 67. 67. 68. 68. 68.
      68. 69. 69. 69. 69. 70. 70. 70. 70. 71. 71. 71. 71. 72. 72. 72.
      72. 73. 73. 73. 73. 74.</_>
    <_>
      53. 47. 64. 59. 64. 57. 67. 66. 75. 72. 67. 69. 84. 83. 65. 69.
      92. 92. 60. 65. 94. 96. 55. 58. 86. 90. 51. 50. 77. 80. 45. 44.
      62. 66. 42. 37. 48. 49. 38. 34. 38. 39. 34. 33. 0. 0. 0. 0. 1. 1.
      1. 1. 2. 2. 2. 2. 3. 3. 3. 3. 4. 4. 4. 4. 81. 56. 86. 91. 95. 72.
      92. 98. 107. 91. 95. 101. 113. 107. 93. 100. 117. 115. 88. 94.
      117. 116. 84. 82. 111. 113. 81. 71. 98. 103. 73. 58. 79. 82. 65.
      47. 58. 61. 52. 41. 42. 45. 42. 36. 5. 5. 5. 5. 6. 6. 6. 6. 7. 7.
      7. 7. 8. 8. 8. 8. 9. 9. 9. 9. 114. 68. 107. 122. 124. 86. 111.
      128. 135. 109. 115. 130. 143. 126. 112. 128. 154. 136. 110. 122.
      154. 141. 108. 114. 140. 135. 105. 104. 124. 120. 95. 87. 104.
      101. 81. 72. 76. 74. 64. 56. 50. 49. 48. 44. 10. 10. 10. 10. 11.
      11. 11. 11. 12. 12. 12. 12. 13. 13. 13. 13. 14. 14. 14. 14. 141.
      76. 131. 155. 156. 100. 134. 162. 167. 121. 137. 165. 178. 141.
      134. 161. 189. 159. 131. 153. 188. 165. 129. 139. 172. 158. 125.
      127. 144. 136. 112. 110. 118. 112. 99. 93. 89. 83. 77. 71. 58. 54.
      54. 50. 15. 15. 15. 15. 16. 16. 16. 16. 17. 17. 17. 17. 18. 18.
      18. 18. 19. 19. 19. 19. 173. 79. 164. 190. 188. 106. 163. 194.
      200. 129. 161. 196. 215. 156. 155. 191. 225. 175. 151. 177. 227.
      189. 145. 167. 212. 182. 140. 153. 183. 160. 127. 130. 146. 134.
      109. 109. 120. 113. 85. 84. 102. 98. 61. 57. 87. 88. 32. 20. 88.
      88. 33. 20. 89. 90. 35. 20. 90. 93. 39. 20. 91. 95. 40. 21. 199.
      77. 201. 221. 210. 105. 191. 223. 221. 129. 177. 220. 236. 157.
      167. 211. 251. 183. 162. 198. 253. 195. 157. 189. 248. 193. 152.
      169. 212. 174. 132. 144. 175. 157. 115. 120. 147. 136. 90. 96.
      130. 127. 62. 63. 121. 122. 37. 35. 122. 123. 43. 39. 123. 125.
      50. 45. 125. 127. 60. 52. 126. 129. 70. 59. 208. 71. 252. 247.
      212. 99. 218. 232. 219. 124. 192. 221. 227. 152. 170. 208. 250.
      176. 161. 196. 254. 197. 155. 190. 254. 202. 145. 172. 241. 194.
      130. 151. 209. 184. 111. 123. 186. 168. 85. 97. 166. 163. 57. 64.
      159. 160. 45. 41. 160. 162. 56. 52. 162. 164. 73. 67. 163. 166.
      89. 80. 165. 170. 105. 94. 191. 79. 255. 250. 191. 97. 249. 222.
      192. 118. 196. 202. 201. 142. 166. 188. 223. 171. 153. 174. 251.
      195. 139. 168. 254. 210. 133. 159. 252. 213. 119. 138. 233. 207.
      103. 116. 215. 199. 78. 91. 199. 195. 51. 59. 194. 194. 54. 49.
      195. 197. 76. 68. 197. 200. 101. 87. 199. 208. 119. 108. 202. 215.
      138. 124. 176. 112. 255. 240. 173. 118. 253. 203. 175. 132. 193.
      176. 188. 154. 158. 158. 210. 177. 136. 145. 238. 203. 121. 139.
      253. 223. 116. 132. 254. 233. 106. 120. 253. 236. 85. 103. 248.
      231. 66. 78. 235. 229. 43. 51. 229. 229. 66. 60. 230. 233. 93. 84.
      232. 239. 118. 110. 237. 248. 144. 133. 240. 252. 175. 160. 170.
      142. 255. 224. 167. 143. 240. 187. 168. 152. 178. 156. 174. 164.
      139. 131. 193. 185. 119. 117. 217. 201. 101. 109. 239. 220. 97.
      107. 251. 234. 83. 97. 251. 241. 68. 80. 250. 245. 52. 61. 247.
      243. 36. 43. 244. 245. 73. 69. 245. 247. 104. 98. 246. 249. 132.
      126. 247. 250. 169. 158. 248. 252. 214. 193. 187. 187. 255. 201.
      185. 184. 207. 166. 185. 184. 159. 135. 190. 189. 125. 111. 200.
      198. 102. 96. 217. 214. 74. 78. 231. 226. 69. 75. 246. 237. 60.
      68. 249. 242. 49. 57. 249. 246. 40. 46. 246. 245. 21. 36. 244.
      244. 77. 74. 242. 242. 108. 106. 239. 239. 138. 133. 237. 237.
      178. 171. 232. 233. 228. 217. 211. 219. 215. 172. 208. 216. 171.
      142. 203. 213. 135. 117. 209. 213. 108. 94. 214. 218. 83. 70. 221.
      225. 55. 42. 229. 230. 53. 41. 238. 238. 46. 39. 241. 242. 41. 35.
      244. 243. 36. 33. 243. 243. 21. 21. 241. 240. 74. 75. 238. 236.
      105. 106. 232. 228. 133. 134. 226. 222. 170. 171. 220. 216. 216.
      217. 226. 234. 165. 142. 223. 227. 137. 123. 220. 224. 114. 103.
      219. 222. 87. 78. 222. 224. 65. 55. 225. 225. 38. 22. 228. 228.
      37. 22. 231. 231. 35. 22. 234. 234. 34. 22. 235. 235. 33. 23. 235.
      236. 23. 23. 230. 230. 67. 70. 227. 226. 96. 100. 224. 219. 121.
      128. 218. 211. 151. 161. 211. 198. 185. 197. 218. 216. 128. 116.
      214. 213. 110. 102. 212. 210. 92. 82. 209. 209. 70. 63. 207. 207.
      51. 47. 204. 204. 23. 24. 204. 204. 24. 24. 205. 205. 24. 25. 205.
      205. 25. 25. 206. 206. 25. 26. 206. 206. 26. 26. 203. 202. 56. 63.
      200. 198. 79. 89. 196. 192. 104. 115. 192. 186. 126. 140. 186.
      173. 144. 169. 190. 183. 102. 85. 187. 183. 86. 75. 186. 182. 72.
      61. 184. 182. 55. 48. 182. 181. 44. 40. 178. 179. 26. 27. 179.
      179. 27. 27. 179. 180. 27. 28. 180. 180. 28. 28. 180. 181. 28. 29.
      181. 181. 29. 29. 177. 176. 46. 53. 174. 173. 62. 76. 172. 169.
      81. 100. 168. 163. 99. 119. 164. 156. 114. 138. 157. 146. 73. 54.
      155. 146. 63. 48. 154. 147. 53. 43. 153. 147. 44. 38. 152. 148.
      37. 34. 148. 148. 29. 30. 148. 149. 30. 30. 149. 149. 30. 31. 149.
      150. 31. 31. 150. 150. 31. 32. 150. 151. 32. 32. 147. 146. 40. 46.
      145. 143. 47. 62. 143. 141. 59. 80. 140. 137. 71. 99. 137. 131.
      82. 113.</_>
    <_>
      30. 0. 39. 42. 41. 33. 48. 56. 56. 48. 56. 72. 80. 66. 63. 85. 97.
      87. 68. 92. 109. 103. 69. 92. 119. 110. 65. 84. 109. 107. 61. 70.
      96. 94. 54. 55. 75. 74. 44. 40. 52. 51. 35. 31. 34. 34. 30. 28. 0.
      0. 0. 1. 1. 1. 1. 2. 2. 2. 2. 3. 3. 3. 3. 4. 32. 4. 62. 49. 47.
      35. 79. 65. 66. 55. 90. 85. 93. 82. 102. 103. 118. 105. 107. 113.
      134. 127. 108. 114. 143. 137. 103. 105. 134. 131. 96. 89. 114.
      112. 83. 71. 88. 89. 64. 50. 60. 60. 50. 37. 39. 39. 36. 30. 4. 4.
      5. 5. 5. 5. 6. 6. 6. 6. 7. 7. 7. 7. 8. 8. 35. 8. 93. 53. 52. 38.
      113. 76. 79. 59. 133. 97. 106. 90. 157. 120. 132. 121. 165. 131.
      162. 144. 164. 132. 169. 163. 155. 125. 160. 155. 139. 106. 129.
      130. 120. 86. 100. 101. 94. 61. 67. 70. 69. 45. 42. 43. 48. 33. 8.
      9. 9. 9. 9. 10. 10. 10. 10. 11. 11. 11. 11. 12. 12. 12. 40. 12.
      129. 62. 58. 39. 164. 84. 82. 62. 185. 106. 111. 93. 205. 128.
      139. 124. 214. 144. 167. 153. 210. 147. 176. 174. 204. 138. 164.
      166. 187. 121. 133. 137. 163. 99. 102. 107. 123. 72. 69. 74. 88.
      51. 43. 45. 57. 36. 13. 13. 13. 13. 14. 14. 14. 14. 15. 15. 15.
      15. 16. 16. 16. 16. 68. 17. 173. 105. 80. 37. 197. 112. 92. 58.
      227. 125. 113. 90. 249. 138. 136. 121. 251. 150. 163. 148. 251.
      156. 173. 172. 247. 146. 165. 172. 228. 131. 142. 149. 195. 110.
      119. 125. 151. 84. 98. 101. 106. 59. 83. 84. 66. 42. 77. 78. 29.
      27. 78. 78. 32. 27. 76. 77. 37. 29. 77. 77. 43. 31. 97. 17. 198.
      156. 98. 33. 234. 149. 102. 51. 252. 145. 111. 81. 254. 146. 126.
      107. 255. 150. 141. 133. 254. 151. 152. 161. 253. 149. 157. 166.
      250. 137. 145. 162. 217. 120. 134. 143. 175. 91. 126. 129. 118.
      65. 121. 122. 75. 47. 116. 116. 38. 33. 116. 116. 49. 40. 117.
      117. 61. 49. 117. 117. 75. 57. 126. 17. 224. 209. 122. 30. 248.
      195. 115. 46. 253. 179. 111. 68. 254. 167. 118. 96. 255. 151. 127.
      124. 254. 146. 141. 148. 253. 147. 161. 169. 250. 140. 167. 177.
      217. 125. 172. 177. 176. 98. 173. 175. 118. 70. 172. 174. 79. 52.
      170. 170. 53. 46. 170. 170. 73. 59. 171. 171. 93. 79. 169. 169.
      112. 92. 153. 36. 246. 252. 142. 35. 248. 240. 127. 46. 251. 203.
      115. 62. 252. 178. 111. 89. 252. 157. 122. 120. 251. 144. 139.
      148. 249. 145. 168. 178. 235. 141. 182. 187. 196. 127. 194. 195.
      153. 101. 196. 198. 104. 74. 199. 199. 76. 59. 201. 201. 70. 61.
      201. 201. 100. 85. 200. 200. 129. 109. 200. 200. 166. 135. 180.
      91. 248. 255. 175. 86. 246. 250. 155. 87. 235. 217. 135. 95. 224.
      180. 128. 110. 217. 146. 137. 135. 208. 131. 162. 171. 205. 134.
      182. 191. 192. 133. 202. 206. 165. 123. 218. 219. 123. 100. 226.
      227. 86. 73. 231. 231. 73. 67. 233. 233. 87. 81. 232. 232. 124.
      112. 231. 229. 173. 152. 230. 228. 204. 187. 193. 139. 250. 255.
      184. 132. 225. 249. 178. 128. 198. 207. 164. 130. 181. 174. 161.
      143. 168. 132. 167. 166. 153. 115. 179. 183. 150. 119. 196. 202.
      136. 119. 216. 219. 115. 108. 227. 230. 90. 88. 239. 241. 63. 64.
      244. 243. 71. 73. 246. 244. 99. 96. 243. 242. 140. 135. 240. 238.
      191. 183. 238. 232. 237. 225. 203. 194. 247. 253. 197. 184. 206.
      226. 194. 180. 177. 184. 186. 179. 136. 142. 185. 181. 113. 109.
      192. 191. 98. 91. 197. 202. 97. 94. 210. 216. 89. 95. 223. 224.
      78. 87. 235. 236. 58. 72. 243. 243. 44. 54. 246. 245. 67. 76. 245.
      242. 102. 104. 241. 237. 147. 152. 236. 229. 196. 199. 229. 222.
      247. 248. 215. 232. 221. 220. 215. 220. 183. 186. 210. 215. 140.
      147. 209. 208. 103. 110. 208. 207. 80. 85. 214. 214. 54. 65. 218.
      219. 53. 67. 224. 226. 49. 69. 233. 234. 43. 63. 240. 241. 34. 54.
      244. 245. 29. 42. 244. 242. 63. 72. 242. 239. 99. 104. 236. 230.
      140. 154. 228. 222. 191. 203. 222. 214. 237. 249. 218. 247. 192.
      178. 219. 245. 156. 141. 220. 233. 114. 108. 220. 225. 82. 83.
      221. 223. 55. 60. 223. 223. 28. 44. 225. 226. 29. 45. 229. 231.
      28. 46. 234. 235. 27. 44. 237. 238. 27. 38. 239. 239. 26. 32. 238.
      236. 57. 64. 234. 230. 88. 99. 227. 222. 126. 142. 221. 215. 175.
      193. 216. 204. 206. 240. 202. 241. 155. 114. 205. 228. 124. 95.
      207. 221. 95. 74. 209. 218. 66. 53. 210. 216. 47. 38. 211. 211.
      17. 18. 211. 211. 18. 18. 212. 212. 18. 19. 212. 212. 19. 19. 213.
      213. 19. 20. 213. 213. 20. 20. 209. 208. 50. 57. 207. 206. 75. 86.
      204. 199. 104. 123. 197. 193. 136. 171. 194. 182. 177. 203. 181.
      205. 108. 83. 182. 198. 91. 68. 184. 195. 71. 55. 186. 193. 51.
      41. 187. 192. 37. 32. 188. 188. 20. 21. 188. 188. 21. 21. 189.
      189. 21. 22. 189. 189. 22. 22. 190. 190. 22. 23. 190. 190. 23. 23.
      186. 185. 41. 48. 185. 183. 58. 71. 181. 180. 82. 101. 179. 176.
      105. 130. 176. 165. 128. 168. 145. 174. 81. 50. 149. 168. 64. 45.
      151. 163. 52. 36. 154. 162. 41. 31. 156. 161. 31. 28. 157. 158.
      23. 24. 158. 158. 24. 24. 158. 159. 24. 25. 159. 159. 25. 25. 159.
      160. 25. 26. 160. 160. 26. 26. 154. 154. 34. 40. 152. 150. 47. 56.
      148. 144. 60. 80. 143. 138. 81. 100. 138. 130. 94. 122.</_>
    <_>
      84. 66. 73. 87. 97. 74. 77. 97. 102. 79. 80. 98. 102. 81. 78. 87.
      91. 77. 72. 78. 78. 68. 62. 64. 64. 58. 54. 55. 51. 49. 44. 40. 0.
      0. 0. 0. 1. 1. 1. 1. 45. 41. 46. 53. 56. 53. 57. 66. 68. 63. 69.
      82. 82. 76. 82. 102. 100. 88. 99. 113. 111. 104. 108. 120. 101.
      76. 105. 116. 111. 86. 114. 123. 117. 100. 116. 126. 116. 101.
      114. 119. 109. 91. 104. 106. 89. 79. 84. 84. 72. 64. 66. 65. 55.
      54. 50. 47. 2. 2. 2. 2. 3. 3. 3. 3. 47. 43. 53. 60. 61. 58. 70.
      80. 77. 71. 92. 106. 99. 88. 116. 128. 114. 109. 139. 148. 126.
      123. 151. 156. 118. 91. 138. 148. 136. 110. 147. 154. 143. 121.
      151. 155. 146. 128. 147. 149. 140. 126. 131. 130. 125. 118. 108.
      105. 112. 110. 80. 76. 103. 103. 56. 52. 94. 93. 38. 4. 93. 92. 4.
      40. 99. 92. 60. 68. 104. 102. 87. 101. 113. 108. 118. 129. 122.
      117. 150. 155. 140. 137. 179. 186. 149. 148. 194. 197. 145. 106.
      160. 186. 153. 124. 181. 190. 157. 144. 185. 190. 159. 152. 179.
      180. 155. 153. 154. 152. 151. 149. 127. 120. 144. 144. 98. 86.
      138. 139. 62. 56. 133. 131. 39. 4. 132. 130. 4. 45. 135. 128. 67.
      76. 138. 132. 107. 114. 141. 137. 145. 150. 146. 143. 184. 188.
      153. 152. 215. 217. 158. 160. 240. 237. 159. 124. 190. 214. 166.
      145. 199. 218. 178. 156. 201. 210. 182. 174. 195. 193. 182. 181.
      178. 164. 180. 181. 145. 136. 176. 178. 107. 98. 172. 175. 67. 60.
      166. 165. 42. 5. 164. 164. 5. 48. 164. 161. 73. 81. 163. 160. 117.
      124. 162. 157. 157. 163. 162. 158. 199. 202. 162. 161. 242. 242.
      163. 174. 252. 252. 192. 154. 201. 233. 193. 165. 216. 230. 196.
      187. 217. 222. 198. 196. 200. 198. 201. 202. 184. 173. 205. 212.
      147. 137. 208. 215. 111. 98. 212. 215. 70. 61. 213. 211. 43. 5.
      211. 209. 37. 51. 207. 203. 75. 83. 201. 198. 123. 135. 196. 192.
      172. 180. 190. 187. 219. 221. 184. 183. 250. 249. 176. 181. 253.
      253. 219. 188. 207. 241. 218. 191. 211. 230. 217. 199. 204. 219.
      220. 216. 194. 192. 223. 224. 174. 159. 226. 231. 141. 122. 232.
      235. 105. 85. 236. 239. 67. 59. 239. 238. 45. 5. 238. 236. 39. 52.
      233. 231. 74. 81. 225. 223. 125. 137. 220. 216. 177. 182. 200.
      197. 222. 223. 189. 189. 251. 251. 176. 179. 255. 254. 234. 216.
      198. 226. 231. 218. 194. 217. 227. 221. 188. 195. 229. 225. 175.
      173. 234. 236. 150. 142. 242. 243. 118. 107. 244. 245. 89. 75.
      246. 247. 62. 53. 249. 248. 43. 6. 248. 246. 42. 51. 244. 244. 71.
      78. 240. 239. 124. 128. 225. 224. 175. 177. 212. 214. 222. 221.
      191. 195. 252. 251. 173. 185. 255. 255. 242. 231. 186. 197. 240.
      228. 173. 187. 234. 229. 155. 160. 235. 233. 142. 141. 240. 241.
      119. 113. 243. 243. 97. 82. 244. 245. 74. 60. 246. 247. 55. 48.
      249. 248. 42. 6. 248. 247. 43. 49. 245. 245. 71. 72. 241. 241.
      123. 121. 227. 229. 174. 166. 215. 220. 221. 218. 193. 200. 251.
      250. 177. 189. 255. 254. 232. 228. 154. 156. 230. 225. 141. 146.
      227. 224. 122. 125. 227. 226. 108. 106. 229. 228. 86. 83. 232.
      232. 69. 62. 235. 235. 59. 49. 237. 237. 48. 41. 239. 238. 39. 6.
      238. 237. 45. 44. 234. 236. 73. 68. 228. 230. 122. 119. 222. 224.
      171. 161. 207. 220. 219. 214. 193. 204. 250. 249. 183. 194. 254.
      254. 206. 206. 121. 115. 205. 203. 107. 104. 203. 202. 87. 85.
      204. 203. 74. 70. 206. 206. 61. 59. 208. 208. 50. 46. 209. 209.
      46. 37. 211. 212. 41. 6. 213. 213. 38. 7. 213. 210. 44. 40. 210.
      214. 73. 65. 205. 210. 119. 115. 200. 208. 161. 156. 197. 205.
      207. 202. 191. 199. 247. 246. 186. 195. 253. 253. 170. 172. 88.
      75. 171. 171. 77. 67. 170. 170. 65. 59. 170. 169. 55. 50. 169.
      169. 48. 46. 169. 166. 7. 38. 167. 167. 7. 7. 167. 167. 8. 8. 168.
      168. 8. 8. 168. 165. 42. 9. 172. 175. 69. 61. 176. 178. 112. 109.
      179. 183. 152. 149. 182. 187. 191. 192. 184. 189. 226. 233. 185.
      188. 250. 252. 126. 127. 63. 9. 127. 129. 57. 9. 129. 130. 52. 9.
      130. 131. 47. 10. 131. 132. 41. 10. 133. 133. 10. 10. 133. 134.
      11. 11. 134. 134. 11. 11. 134. 135. 12. 12. 135. 132. 39. 12. 139.
      139. 63. 58. 143. 144. 101. 100. 150. 151. 136. 138. 158. 157.
      163. 177. 171. 162. 196. 209. 180. 165. 223. 243. 89. 83. 12. 13.
      90. 85. 13. 13. 90. 88. 13. 14. 92. 90. 14. 14. 94. 91. 14. 15.
      94. 95. 15. 15. 95. 95. 15. 16. 95. 96. 16. 16. 96. 96. 16. 17.
      96. 94. 38. 17. 103. 103. 57. 52. 112. 110. 81. 83. 125. 120. 110.
      115. 142. 136. 140. 148. 153. 143. 158. 183. 159. 146. 185. 204.
      17. 17. 18. 18. 18. 18. 19. 19. 19. 19. 20. 20. 20. 20. 21. 21.
      21. 21. 22. 22. 22. 22. 23. 23. 23. 23. 24. 24. 24. 24. 25. 25.
      25. 25. 26. 26. 26. 26. 27. 27. 56. 54. 50. 47. 72. 65. 66. 70.
      90. 80. 84. 93. 113. 99. 105. 120. 129. 109. 121. 147. 142. 115.
      140. 168. 27. 27. 28. 28. 28. 28. 29. 29. 29. 29. 30. 30. 30. 30.
      31. 31. 31. 31. 32. 32. 32. 32. 33. 33. 33. 33. 34. 34. 34. 34.
      35. 35. 35. 35. 36. 36. 36. 36. 37. 37. 51. 49. 44. 40. 64. 58.
      54. 57. 79. 69. 63. 71. 100. 79. 75. 89. 111. 86. 85. 112. 117.
      93. 97. 127.</_>
    <_>
      76. 57. 66. 43. 85. 67. 59. 38. 83. 73. 50. 31. 69. 67. 37. 19.
      51. 52. 25. 9. 29. 30. 12. 4. 13. 12. 4. 6. 8. 3. 2. 17. 13. 2. 1.
      45. 27. 12. 2. 84. 46. 33. 1. 115. 74. 62. 3. 139. 105. 94. 9.
      150. 133. 124. 22. 149. 159. 150. 38. 137. 181. 168. 60. 123. 112.
      82. 136. 79. 118. 99. 126. 68. 117. 107. 113. 55. 105. 99. 94. 35.
      75. 75. 68. 21. 48. 45. 40. 11. 28. 19. 22. 17. 27. 7. 13. 39. 36.
      6. 7. 83. 58. 22. 10. 130. 81. 48. 7. 164. 109. 85. 14. 188. 132.
      119. 25. 195. 156. 150. 44. 194. 180. 176. 73. 183. 197. 195. 107.
      169. 137. 105. 208. 114. 146. 120. 197. 105. 145. 128. 181. 87.
      126. 120. 155. 62. 96. 95. 123. 38. 64. 60. 85. 26. 43. 26. 57.
      34. 47. 10. 49. 64. 66. 8. 42. 118. 93. 29. 46. 167. 116. 61. 42.
      201. 136. 102. 49. 214. 152. 135. 62. 219. 170. 165. 89. 217. 188.
      192. 123. 213. 200. 204. 158. 209. 147. 127. 238. 144. 153. 138.
      231. 133. 151. 141. 222. 116. 134. 130. 206. 91. 106. 104. 177.
      65. 74. 63. 134. 49. 60. 28. 107. 58. 72. 10. 103. 93. 101. 10.
      98. 149. 129. 32. 108. 197. 148. 65. 101. 218. 158. 108. 107. 228.
      164. 140. 118. 230. 172. 166. 144. 230. 178. 190. 177. 229. 188.
      202. 206. 229. 132. 148. 251. 163. 139. 146. 248. 155. 135. 138.
      241. 144. 120. 121. 228. 122. 94. 90. 211. 97. 76. 54. 181. 77.
      73. 23. 160. 86. 98. 7. 162. 117. 128. 8. 163. 166. 154. 30. 172.
      207. 167. 61. 167. 224. 169. 100. 168. 233. 165. 130. 178. 237.
      161. 152. 196. 238. 154. 169. 216. 241. 154. 182. 231. 243. 98.
      171. 255. 178. 106. 153. 252. 173. 103. 135. 248. 164. 91. 110.
      239. 151. 78. 76. 227. 130. 77. 39. 207. 112. 89. 16. 201. 114.
      118. 5. 209. 137. 148. 5. 212. 173. 167. 24. 220. 208. 175. 49.
      216. 223. 170. 82. 215. 233. 158. 110. 219. 240. 144. 128. 226.
      244. 125. 140. 236. 247. 114. 146. 246. 250. 57. 205. 255. 187.
      63. 179. 252. 185. 68. 145. 248. 183. 74. 109. 240. 176. 80. 69.
      229. 163. 94. 32. 217. 149. 115. 14. 218. 147. 139. 4. 227. 157.
      159. 2. 232. 175. 170. 14. 237. 202. 171. 33. 235. 216. 160. 59.
      234. 229. 141. 80. 236. 238. 117. 95. 241. 245. 92. 103. 247. 250.
      72. 102. 252. 253. 28. 227. 253. 192. 38. 205. 249. 191. 56. 168.
      242. 192. 77. 126. 233. 193. 100. 84. 225. 187. 123. 36. 217. 178.
      145. 16. 223. 174. 159. 4. 233. 175. 166. 0. 241. 176. 166. 6.
      245. 195. 158. 16. 244. 205. 140. 33. 242. 223. 113. 46. 243. 235.
      84. 56. 246. 246. 54. 57. 250. 251. 31. 53. 254. 254. 36. 237.
      247. 189. 61. 221. 239. 186. 89. 199. 231. 190. 125. 161. 221.
      196. 152. 120. 213. 198. 172. 71. 210. 199. 183. 40. 220. 200.
      184. 18. 232. 196. 177. 3. 239. 184. 162. 3. 245. 189. 145. 8.
      243. 194. 119. 20. 242. 214. 92. 33. 244. 230. 69. 40. 248. 245.
      52. 44. 252. 251. 37. 40. 255. 255. 77. 244. 232. 174. 111. 232.
      224. 168. 147. 218. 213. 173. 180. 196. 201. 187. 200. 162. 192.
      198. 208. 114. 191. 205. 207. 74. 207. 210. 197. 39. 224. 204.
      182. 11. 231. 190. 153. 6. 237. 184. 129. 9. 234. 180. 103. 21.
      235. 204. 79. 35. 240. 226. 67. 48. 246. 242. 61. 55. 251. 250.
      59. 56. 254. 254. 124. 243. 215. 142. 160. 234. 203. 137. 194.
      225. 189. 143. 212. 211. 165. 162. 220. 193. 152. 187. 223. 150.
      156. 203. 217. 110. 182. 210. 203. 64. 206. 206. 179. 26. 216.
      190. 143. 12. 221. 174. 113. 15. 219. 161. 88. 30. 220. 188. 78.
      52. 228. 214. 80. 69. 239. 234. 88. 82. 249. 247. 96. 87. 253.
      253. 157. 236. 185. 96. 193. 230. 170. 90. 212. 224. 151. 99. 225.
      215. 129. 124. 228. 202. 115. 156. 227. 173. 119. 186. 219. 132.
      143. 201. 199. 87. 171. 198. 165. 37. 185. 179. 125. 19. 193. 157.
      95. 23. 184. 136. 78. 42. 194. 157. 81. 71. 209. 195. 99. 97. 226.
      222. 116. 112. 240. 238. 131. 116. 249. 249. 169. 218. 147. 50.
      200. 214. 135. 47. 215. 212. 115. 54. 225. 208. 92. 83. 226. 199.
      80. 119. 221. 176. 86. 153. 209. 138. 106. 174. 181. 93. 129. 175.
      142. 44. 139. 155. 100. 24. 142. 131. 73. 28. 133. 108. 66. 51.
      146. 121. 82. 85. 171. 156. 110. 112. 202. 198. 132. 128. 222.
      222. 149. 133. 235. 236. 160. 180. 104. 15. 189. 183. 91. 15. 204.
      186. 75. 23. 211. 186. 58. 44. 211. 179. 47. 78. 203. 161. 51.
      113. 185. 127. 65. 136. 148. 87. 86. 140. 109. 41. 90. 121. 67.
      23. 90. 97. 50. 26. 81. 70. 53. 47. 95. 81. 70. 79. 121. 111. 102.
      109. 155. 151. 125. 122. 191. 191. 142. 126. 210. 213. 131. 124.
      58. 1. 154. 131. 53. 1. 172. 138. 42. 5. 182. 143. 32. 21. 177.
      141. 27. 43. 164. 127. 29. 71. 141. 101. 36. 92. 108. 65. 48. 98.
      70. 32. 50. 84. 41. 16. 45. 62. 31. 18. 39. 41. 34. 35. 52. 46.
      55. 63. 72. 64. 79. 88. 104. 100. 104. 101. 134. 134. 117. 106.
      159. 163. 91. 60. 29. 0. 111. 71. 27. 0. 122. 86. 21. 0. 127. 93.
      15. 5. 122. 96. 11. 17. 111. 88. 13. 34. 89. 66. 18. 51. 63. 43.
      24. 56. 37. 20. 25. 45. 20. 9. 22. 31. 14. 11. 17. 18. 19. 24. 25.
      20. 34. 41. 35. 30. 54. 59. 55. 53. 70. 68. 75. 76. 83. 72. 97.
      102.</_>
    <_>
      72. 28. 57. 79. 82. 41. 49. 73. 85. 53. 45. 56. 78. 60. 42. 36.
      60. 55. 37. 19. 38. 41. 28. 9. 24. 25. 16. 7. 16. 10. 6. 23. 26.
      8. 2. 47. 46. 20. 0. 76. 80. 51. 0. 98. 125. 99. 2. 99. 158. 142.
      6. 81. 181. 173. 17. 62. 196. 188. 32. 48. 204. 197. 53. 45. 110.
      44. 134. 131. 125. 64. 119. 120. 130. 83. 107. 96. 122. 93. 99.
      64. 94. 85. 87. 35. 65. 65. 65. 22. 42. 36. 39. 23. 37. 15. 21.
      51. 50. 11. 7. 94. 79. 25. 1. 135. 117. 60. 1. 151. 150. 117. 4.
      149. 178. 161. 14. 133. 196. 189. 33. 105. 207. 205. 62. 92. 213.
      211. 99. 92. 138. 57. 207. 166. 153. 83. 193. 154. 158. 107. 183.
      131. 147. 121. 174. 90. 123. 112. 159. 54. 87. 84. 130. 36. 63.
      48. 89. 43. 62. 21. 53. 86. 83. 14. 27. 141. 119. 27. 10. 179.
      146. 66. 5. 193. 171. 126. 13. 192. 188. 169. 29. 176. 200. 197.
      61. 155. 208. 210. 108. 144. 212. 216. 153. 152. 148. 61. 234.
      190. 162. 88. 228. 177. 166. 115. 223. 149. 156. 127. 219. 109.
      133. 119. 210. 71. 101. 90. 187. 54. 81. 52. 152. 70. 90. 23. 112.
      127. 120. 15. 71. 177. 147. 26. 43. 205. 167. 62. 31. 213. 179.
      118. 42. 212. 186. 162. 64. 201. 191. 189. 109. 190. 195. 204.
      161. 189. 197. 211. 198. 200. 135. 58. 252. 201. 146. 82. 247.
      184. 149. 103. 243. 155. 139. 114. 237. 115. 118. 103. 230. 77.
      97. 76. 218. 68. 88. 44. 202. 90. 106. 18. 176. 147. 137. 12. 139.
      191. 161. 23. 114. 213. 173. 52. 95. 219. 175. 100. 102. 219. 173.
      140. 124. 214. 168. 168. 163. 211. 162. 184. 201. 215. 161. 192.
      222. 223. 95. 67. 255. 207. 103. 83. 254. 185. 107. 98. 251. 151.
      101. 100. 248. 112. 86. 87. 244. 82. 80. 61. 232. 77. 86. 33. 225.
      106. 113. 12. 215. 158. 139. 7. 199. 193. 160. 17. 185. 212. 167.
      43. 172. 217. 163. 81. 174. 220. 152. 120. 184. 220. 136. 140.
      207. 222. 121. 153. 224. 227. 105. 157. 235. 237. 49. 118. 255.
      208. 58. 118. 255. 183. 65. 116. 254. 145. 67. 103. 251. 110. 68.
      81. 248. 91. 74. 52. 240. 93. 84. 27. 235. 122. 106. 8. 230. 156.
      133. 4. 225. 182. 143. 13. 221. 202. 148. 33. 217. 210. 140. 63.
      216. 219. 129. 93. 218. 223. 102. 111. 226. 229. 76. 117. 236.
      237. 59. 113. 246. 247. 24. 187. 255. 208. 30. 176. 254. 179. 41.
      160. 251. 141. 54. 136. 250. 114. 67. 101. 246. 105. 79. 56. 242.
      111. 92. 28. 242. 134. 104. 7. 240. 151. 119. 3. 235. 166. 124. 8.
      235. 186. 123. 21. 232. 197. 112. 39. 230. 215. 91. 58. 231. 225.
      66. 69. 238. 233. 39. 68. 245. 244. 22. 59. 250. 251. 8. 226. 250.
      195. 18. 216. 247. 165. 35. 200. 244. 134. 59. 171. 242. 120. 82.
      130. 238. 128. 100. 69. 234. 138. 111. 30. 239. 154. 115. 9. 241.
      159. 116. 2. 241. 159. 108. 4. 243. 169. 100. 13. 240. 180. 84.
      26. 238. 208. 66. 37. 239. 224. 45. 44. 244. 236. 27. 40. 249.
      247. 13. 33. 253. 253. 25. 246. 233. 170. 46. 234. 229. 142. 76.
      223. 227. 123. 113. 205. 224. 126. 137. 165. 221. 145. 146. 102.
      222. 165. 144. 52. 228. 179. 136. 20. 232. 178. 126. 3. 234. 166.
      104. 3. 239. 167. 89. 9. 238. 172. 73. 20. 237. 203. 55. 31. 239.
      222. 42. 39. 245. 236. 32. 40. 250. 248. 26. 38. 254. 253. 47.
      252. 211. 121. 79. 245. 205. 101. 123. 231. 198. 94. 152. 216.
      192. 116. 172. 185. 188. 150. 177. 129. 196. 180. 171. 72. 210.
      195. 158. 32. 220. 194. 138. 10. 224. 180. 113. 5. 228. 171. 88.
      10. 227. 164. 69. 22. 228. 194. 56. 36. 232. 218. 50. 50. 241.
      233. 51. 57. 248. 245. 49. 58. 252. 252. 78. 253. 167. 59. 122.
      246. 155. 55. 157. 233. 143. 60. 182. 220. 132. 95. 194. 196. 125.
      143. 195. 148. 136. 182. 187. 95. 160. 201. 170. 48. 185. 203.
      147. 18. 198. 189. 116. 9. 209. 172. 85. 14. 209. 151. 70. 29.
      214. 175. 67. 53. 221. 206. 75. 75. 230. 226. 86. 91. 243. 240.
      96. 97. 249. 249. 110. 249. 124. 19. 150. 243. 109. 22. 181. 231.
      91. 32. 199. 221. 72. 71. 206. 203. 61. 128. 204. 168. 73. 174.
      192. 121. 96. 198. 173. 68. 128. 202. 142. 28. 144. 188. 107. 14.
      160. 164. 80. 21. 162. 135. 75. 44. 178. 148. 85. 77. 199. 180.
      108. 114. 218. 213. 132. 133. 229. 229. 140. 137. 241. 242. 128.
      236. 84. 2. 164. 231. 74. 4. 191. 225. 56. 16. 206. 217. 38. 47.
      209. 203. 29. 102. 204. 177. 30. 156. 190. 134. 41. 186. 163. 78.
      64. 191. 129. 34. 78. 176. 89. 17. 94. 142. 70. 25. 98. 104. 74.
      51. 125. 111. 98. 93. 157. 141. 130. 131. 190. 186. 153. 149. 214.
      214. 165. 157. 226. 227. 127. 217. 55. 0. 163. 215. 46. 1. 187.
      212. 34. 6. 199. 206. 20. 31. 202. 193. 11. 74. 194. 170. 11. 126.
      175. 131. 16. 159. 138. 77. 29. 164. 97. 34. 35. 145. 63. 17. 45.
      110. 50. 24. 47. 71. 63. 48. 72. 70. 96. 89. 104. 97. 132. 127.
      143. 141. 155. 146. 178. 183. 168. 156. 200. 209. 109. 175. 37. 0.
      144. 181. 31. 1. 169. 184. 24. 3. 181. 183. 12. 19. 182. 174. 6.
      46. 170. 154. 5. 87. 145. 115. 5. 122. 105. 69. 11. 129. 66. 30.
      12. 106. 40. 15. 15. 73. 35. 19. 18. 43. 49. 40. 34. 38. 80. 75.
      57. 54. 117. 108. 88. 92. 139. 132. 124. 135. 154. 137. 150. 169.</_>
    <_>
      120. 47. 114. 157. 120. 56. 114. 154. 110. 64. 111. 145. 95. 62.
      105. 126. 67. 54. 89. 93. 35. 37. 60. 53. 13. 18. 34. 20. 3. 9.
      13. 5. 7. 0. 6. 8. 20. 0. 12. 36. 48. 10. 22. 70. 82. 33. 45. 108.
      112. 64. 64. 136. 139. 98. 83. 148. 156. 126. 104. 155. 168. 143.
      125. 154. 141. 58. 172. 185. 140. 69. 167. 181. 130. 76. 158. 171.
      109. 75. 146. 147. 78. 65. 125. 113. 44. 46. 86. 69. 17. 22. 49.
      28. 5. 10. 18. 8. 16. 0. 9. 16. 40. 3. 21. 55. 76. 14. 42. 98.
      111. 46. 74. 138. 142. 81. 102. 161. 158. 116. 126. 176. 174. 143.
      144. 183. 183. 160. 161. 185. 150. 66. 214. 207. 148. 76. 206.
      203. 142. 84. 196. 191. 121. 82. 178. 167. 88. 70. 149. 133. 50.
      49. 108. 83. 24. 25. 65. 38. 15. 11. 22. 21. 43. 0. 13. 43. 77. 4.
      34. 91. 115. 19. 66. 130. 145. 53. 106. 164. 164. 93. 139. 187.
      177. 128. 159. 200. 185. 150. 180. 207. 190. 170. 197. 210. 151.
      91. 242. 222. 148. 93. 234. 216. 141. 92. 222. 202. 120. 84. 202.
      178. 87. 68. 172. 143. 50. 48. 127. 96. 32. 23. 75. 58. 39. 10.
      25. 52. 79. 1. 15. 87. 123. 6. 47. 132. 151. 24. 86. 163. 173. 59.
      135. 192. 185. 98. 166. 208. 189. 131. 190. 220. 189. 152. 209.
      227. 187. 169. 225. 232. 140. 131. 251. 226. 137. 124. 246. 220.
      127. 110. 237. 205. 105. 97. 215. 182. 77. 72. 182. 147. 55. 45.
      132. 105. 55. 21. 78. 86. 82. 8. 25. 101. 128. 1. 24. 138. 159. 7.
      62. 170. 184. 28. 107. 193. 197. 61. 156. 211. 199. 98. 190. 225.
      195. 128. 213. 234. 186. 147. 230. 241. 175. 158. 244. 246. 113.
      175. 253. 226. 114. 160. 249. 218. 109. 144. 240. 204. 99. 122.
      218. 182. 84. 93. 184. 152. 81. 55. 131. 129. 101. 31. 77. 130.
      134. 13. 26. 149. 167. 5. 33. 181. 193. 9. 72. 203. 207. 28. 123.
      219. 212. 58. 170. 229. 208. 90. 203. 238. 197. 115. 228. 244.
      178. 133. 245. 248. 157. 143. 251. 252. 85. 217. 252. 221. 95.
      200. 247. 211. 100. 181. 237. 199. 102. 155. 211. 180. 104. 125.
