<?xml version="1.0"?>
<opencv_storage>
<my_svm type_id="opencv-ml-svm">
  <svm_type>C_SVC</svm_type>
  <kernel><type>LINEAR</type></kernel>
  <C>1.0000000000000001e-01</C>
  <term_criteria><epsilon>1.1920928955078125e-07</epsilon>
    <iterations>2147483647</iterations></term_criteria>
  <var_all>1024</var_all>
  <var_count>1024</var_count>
  <class_count>6</class_count>
  <class_labels type_id="opencv-matrix">
    <rows>1</rows>
    <cols>6</cols>
    <dt>i</dt>
    <data>
      48 98 99 109 115 122</data></class_labels>
  <sv_total>15</sv_total>
  <support_vectors>
    <_>
      -1.17837981e-05 -1.11226200e-05 -1.28026868e-05 -1.35954442e-05
      -1.36508561e-05 -1.34149641e-05 -1.40708089e-05 -1.38216092e-05
      -1.46069824e-05 -1.55683592e-05 -1.47913452e-05 -1.34522834e-05
      -1.48858198e-05 -1.65823458e-05 -1.46274879e-05 -1.21332587e-05
      -1.46458178e-05 -1.65096862e-05 -1.38200930e-05 -1.00688321e-05
      -1.37983652e-05 -1.58283037e-05 -1.25369643e-05 -7.27555107e-06
      -1.17120271e-05 -1.44564710e-05 -1.08780687e-05 -6.72324450e-06
      -1.03126304e-05 -1.12192320e-05 -8.61133958e-06 -8.33825197e-06
      -9.97200095e-06 -8.52029189e-06 -7.06399896e-06 -1.11323789e-05
      -1.07582409e-05 -6.76249056e-06 -5.83801921e-06 -1.38560899e-05
      -1.27466637e-05 -6.07551283e-06 -5.06177048e-06 -1.64154608e-05
      -1.35613172e-05 -6.91965624e-06 -6.02308728e-06 -1.68962652e-05
      -1.41482496e-05 -9.14172961e-06 -7.77301011e-06 -1.73533190e-05
      -1.41613318e-05 -1.13249798e-05 -9.54426287e-06 -1.67405906e-05
      -1.34198863e-05 -1.27334897e-05 -1.05102772e-05 -1.57776849e-05
      -1.21991689e-05 -1.31105535e-05 -1.10392675e-05 -1.40278207e-05
      -1.25846345e-05 -1.35007549e-05 -1.43507359e-05 -1.41613755e-05
      -1.43316802e-05 -1.56656188e-05 -1.53969268e-05 -1.39117337e-05
      -1.52420134e-05 -1.76962967e-05 -1.59525898e-05 -1.31654124e-05
      -1.56545520e-05 -1.85299941e-05 -1.57905015e-05 -1.13866936e-05
      -1.51978174e-05 -1.82278454e-05 -1.49170874e-05 -9.58770670e-06
      -1.41402106e-05 -1.73930894e-05 -1.37358229e-05 -7.37287792e-06
      -1.23536529e-05 -1.57586746e-05 -1.18771077e-05 -7.70602946e-06
      -1.17034151e-05 -1.28472748e-05 -1.00119287e-05 -1.00688521e-05
      -1.19576307e-05 -9.38173980e-06 -7.68903010e-06 -1.30893295e-05
      -1.36236486e-05 -7.49495030e-06 -6.55814893e-06 -1.62096185e-05
      -1.49334301e-05 -6.52464678e-06 -6.68298981e-06 -1.79400558e-05
      -1.58333060e-05 -7.51086691e-06 -7.97163739e-06 -1.83512475e-05
      -1.59490337e-05 -9.38587254e-06 -1.00384668e-05 -1.88473277e-05
      -1.54931950e-05 -1.15299827e-05 -1.21745743e-05 -1.84908731e-05
      -1.40966922e-05 -1.26162704e-05 -1.32209916e-05 -1.73608896e-05
      -1.27854855e-05 -1.32090308e-05 -1.37812312e-05 -1.55654798e-05
      -1.31647976e-05 -1.59089959e-05 -1.51619215e-05 -1.39082367e-05
      -1.45598879e-05 -1.75955556e-05 -1.60180098e-05 -1.31395727e-05
      -1.55449143e-05 -1.94463773e-05 -1.65513738e-05 -1.18517009e-05
      -1.60100390e-05 -2.00119212e-05 -1.65427555e-05 -1.05382205e-05
      -1.56395781e-05 -1.98385023e-05 -1.59971951e-05 -9.03831369e-06
      -1.48076433e-05 -1.89183811e-05 -1.51070108e-05 -7.57957878e-06
      -1.32699406e-05 -1.69801460e-05 -1.32109772e-05 -8.95712219e-06
      -1.34092634e-05 -1.39788654e-05 -1.10941910e-05 -1.18129265e-05
      -1.46935745e-05 -1.09327175e-05 -9.22488198e-06 -1.53746823e-05
      -1.58359981e-05 -8.19417983e-06 -7.64553715e-06 -1.77721249e-05
      -1.69817922e-05 -6.88485034e-06 -8.12499366e-06 -1.93780379e-05
      -1.73845565e-05 -7.67026904e-06 -9.59023600e-06 -1.98586949e-05
      -1.70737476e-05 -9.00453688e-06 -1.16290366e-05 -2.02653609e-05
      -1.61795197e-05 -1.08319100e-05 -1.34877582e-05 -1.97320242e-05
      -1.48528152e-05 -1.21671110e-05 -1.47622541e-05 -1.83237480e-05
      -1.31802690e-05 -1.26506402e-05 -1.49942298e-05 -1.66135997e-05
      -1.32451214e-05 -1.77809852e-05 -1.56219830e-05 -1.24038634e-05
      -1.47182900e-05 -1.89715101e-05 -1.62282395e-05 -1.16688170e-05
      -1.56529113e-05 -2.05806773e-05 -1.67317176e-05 -1.06871094e-05
      -1.61796579e-05 -2.12246086e-05 -1.68852785e-05 -9.60020861e-06
      -1.60202162e-05 -2.10148155e-05 -1.69692576e-05 -8.93138895e-06
      -1.55618745e-05 -2.00721042e-05 -1.64341927e-05 -8.49217668e-06
      -1.47169194e-05 -1.81741016e-05 -1.48921026e-05 -1.04864012e-05
      -1.58339917e-05 -1.54847185e-05 -1.26305004e-05 -1.39734457e-05
      -1.68386778e-05 -1.23799073e-05 -1.06707048e-05 -1.67492381e-05
      -1.78256851e-05 -9.67691722e-06 -9.64342780e-06 -1.90052961e-05
      -1.83967277e-05 -7.45793932e-06 -9.78388289e-06 -2.05503984e-05
      -1.85104909e-05 -7.97978555e-06 -1.13272426e-05 -2.11656497e-05
      -1.77778802e-05 -8.54314385e-06 -1.30236513e-05 -2.11884781e-05
      -1.64142948e-05 -9.92765672e-06 -1.45283439e-05 -2.00897539e-05
      -1.48691433e-05 -1.09859693e-05 -1.54465379e-05 -1.86201705e-05
      -1.31359993e-05 -1.12005810e-05 -1.53270357e-05 -1.67931321e-05
      -1.31205634e-05 -1.82286858e-05 -1.52355542e-05 -1.05469308e-05
      -1.47057253e-05 -1.93668584e-05 -1.59441879e-05 -1.01289961e-05
      -1.56758451e-05 -2.09782047e-05 -1.67291528e-05 -9.76126830e-06
      -1.65113779e-05 -2.16971057e-05 -1.73761582e-05 -9.39588426e-06
      -1.66153004e-05 -2.15722557e-05 -1.78352184e-05 -9.84551843e-06
      -1.63827244e-05 -2.07682042e-05 -1.77977417e-05 -1.04165001e-05
      -1.63673794e-05 -1.93546093e-05 -1.67684157e-05 -1.26676141e-05
      -1.71780757e-05 -1.68862662e-05 -1.47008877e-05 -1.55718517e-05
      -1.83279935e-05 -1.40142693e-05 -1.27334315e-05 -1.80028492e-05
      -1.91085473e-05 -1.12832386e-05 -1.16338761e-05 -1.98824873e-05
      -1.94915283e-05 -9.03139517e-06 -1.16041547e-05 -2.11144270e-05
      -1.92139814e-05 -8.66932533e-06 -1.29490181e-05 -2.12342184e-05
      -1.81600262e-05 -8.65845323e-06 -1.41450528e-05 -2.07810353e-05
      -1.66380942e-05 -9.21963783e-06 -1.48917507e-05 -1.96577948e-05
      -1.49490934e-05 -9.59442605e-06 -1.51769054e-05 -1.81511932e-05
      -1.29616301e-05 -9.56434087e-06 -1.47845058e-05 -1.62767519e-05
      -1.24085782e-05 -1.71197735e-05 -1.43167172e-05 -9.35884509e-06
      -1.40153124e-05 -1.83419706e-05 -1.55278740e-05 -9.54405186e-06
      -1.55574962e-05 -2.00610721e-05 -1.66034897e-05 -9.84062990e-06
      -1.65740184e-05 -2.11860952e-05 -1.77371330e-05 -1.02588665e-05
      -1.70370658e-05 -2.12969426e-05 -1.87642527e-05 -1.10634037e-05
      -1.70980002e-05 -2.09079026e-05 -1.90730279e-05 -1.21903431e-05
      -1.75266814e-05 -1.98053949e-05 -1.83545362e-05 -1.43915895e-05
      -1.84355704e-05 -1.79202816e-05 -1.67562903e-05 -1.65317851e-05
      -1.92797233e-05 -1.55394373e-05 -1.48040053e-05 -1.83059456e-05
      -2.00366085e-05 -1.34297670e-05 -1.35238579e-05 -1.96503752e-05
      -2.01266066e-05 -1.11681275e-05 -1.33011299e-05 -2.03136242e-05
      -1.94599761e-05 -1.04234277e-05 -1.43782308e-05 -2.02996525e-05
      -1.83847624e-05 -9.89319778e-06 -1.47971768e-05 -1.97797763e-05
      -1.67263825e-05 -9.72156522e-06 -1.47396777e-05 -1.85621320e-05
      -1.49625548e-05 -9.38629637e-06 -1.45354215e-05 -1.71178781e-05
      -1.29363480e-05 -8.98723465e-06 -1.36934359e-05 -1.52494276e-05
      -1.16565407e-05 -1.50373708e-05 -1.33926587e-05 -9.15217970e-06
      -1.35585597e-05 -1.63635468e-05 -1.51455324e-05 -9.86785381e-06
      -1.51951144e-05 -1.77037782e-05 -1.65361198e-05 -1.06226153e-05
      -1.65293914e-05 -1.94222612e-05 -1.82806743e-05 -1.14828172e-05
      -1.71521933e-05 -2.02755818e-05 -1.94563272e-05 -1.26198274e-05
      -1.75982314e-05 -2.02086394e-05 -2.00578779e-05 -1.41991823e-05
      -1.82458043e-05 -1.96594829e-05 -1.96968358e-05 -1.59955162e-05
      -1.90240062e-05 -1.84847522e-05 -1.82980912e-05 -1.71194606e-05
      -1.98810121e-05 -1.70213680e-05 -1.67411745e-05 -1.79156887e-05
      -2.02556912e-05 -1.55676353e-05 -1.56261394e-05 -1.85601293e-05
      -2.02619703e-05 -1.40504208e-05 -1.49648858e-05 -1.88663726e-05
      -1.96584515e-05 -1.29643176e-05 -1.54453191e-05 -1.87834594e-05
      -1.85972494e-05 -1.21375933e-05 -1.52988305e-05 -1.82280928e-05
      -1.69020859e-05 -1.13651395e-05 -1.45648519e-05 -1.70355743e-05
      -1.50311880e-05 -1.02798804e-05 -1.37788338e-05 -1.55747693e-05
      -1.30986573e-05 -9.73154056e-06 -1.27895628e-05 -1.36387516e-05
      -1.11695017e-05 -1.24039734e-05 -1.33605408e-05 -9.27713609e-06
      -1.28086131e-05 -1.35604041e-05 -1.54532845e-05 -1.04418641e-05
      -1.44240585e-05 -1.46652510e-05 -1.71029624e-05 -1.15647072e-05
      -1.58576440e-05 -1.62351007e-05 -1.87436581e-05 -1.27496769e-05
      -1.68651186e-05 -1.76976573e-05 -1.97893587e-05 -1.43333100e-05
      -1.78745831e-05 -1.87575715e-05 -2.02546653e-05 -1.61648786e-05
      -1.84186683e-05 -1.88558442e-05 -2.02050069e-05 -1.72633900e-05
      -1.93277665e-05 -1.84444070e-05 -1.89878465e-05 -1.75992172e-05
      -1.98772268e-05 -1.82611275e-05 -1.80749703e-05 -1.75911518e-05
      -2.03522450e-05 -1.78563532e-05 -1.72766704e-05 -1.76017256e-05
      -2.04044700e-05 -1.69083141e-05 -1.65122146e-05 -1.75800396e-05
      -1.98325997e-05 -1.56920087e-05 -1.59275005e-05 -1.71972752e-05
      -1.86271791e-05 -1.46707243e-05 -1.53856727e-05 -1.63790173e-05
      -1.67918479e-05 -1.38089954e-05 -1.45174281e-05 -1.51103186e-05
      -1.47780356e-05 -1.23827167e-05 -1.34317415e-05 -1.37247453e-05
      -1.26853893e-05 -1.12449525e-05 -1.23112277e-05 -1.19403949e-05
      -9.87214935e-06 -1.06224797e-05 -1.42450081e-05 -8.50776814e-06
      -1.14207496e-05 -1.11021700e-05 -1.63880977e-05 -1.03771781e-05
      -1.27543535e-05 -1.19958349e-05 -1.80683946e-05 -1.24092721e-05
      -1.50558762e-05 -1.32154000e-05 -1.91890540e-05 -1.39706217e-05
      -1.65494548e-05 -1.49402640e-05 -1.98567650e-05 -1.58119801e-05
      -1.78715327e-05 -1.68265815e-05 -2.00005961e-05 -1.73051321e-05
      -1.86980251e-05 -1.79065592e-05 -1.98494618e-05 -1.79285926e-05
      -1.94798486e-05 -1.85046083e-05 -1.91961135e-05 -1.77891561e-05
      -2.02303181e-05 -1.92074313e-05 -1.85993140e-05 -1.73987864e-05
      -2.05328797e-05 -1.98858106e-05 -1.84166638e-05 -1.70090934e-05
      -2.05204396e-05 -1.95576777e-05 -1.74014258e-05 -1.62636334e-05
      -1.97524241e-05 -1.81350879e-05 -1.64241519e-05 -1.51853401e-05
      -1.83010543e-05 -1.70321782e-05 -1.55019698e-05 -1.41464334e-05
      -1.62849756e-05 -1.61444786e-05 -1.45348431e-05 -1.30185908e-05
      -1.42441613e-05 -1.47330875e-05 -1.37691977e-05 -1.19669130e-05
      -1.23014006e-05 -1.34550182e-05 -1.28947104e-05 -1.06100215e-05
      -1.04335950e-05 -9.17179204e-06 -1.47869769e-05 -9.50806862e-06
      -1.16496030e-05 -9.54390907e-06 -1.68700735e-05 -1.14919912e-05
      -1.26280083e-05 -1.02096037e-05 -1.85582776e-05 -1.34388320e-05
      -1.48844420e-05 -1.11049740e-05 -1.94278673e-05 -1.47253177e-05
      -1.63453606e-05 -1.29188265e-05 -1.94778513e-05 -1.66019399e-05
      -1.78542832e-05 -1.52622488e-05 -1.93058950e-05 -1.77717448e-05
      -1.88695758e-05 -1.69800278e-05 -1.90337178e-05 -1.83291450e-05
      -1.99726146e-05 -1.82957465e-05 -1.87728801e-05 -1.80680909e-05
      -2.05303877e-05 -1.97315221e-05 -1.85561330e-05 -1.75145797e-05
      -2.06034892e-05 -2.09501668e-05 -1.84971359e-05 -1.65682104e-05
      -2.00912855e-05 -2.13230815e-05 -1.79531580e-05 -1.52031471e-05
      -1.90209230e-05 -2.03430754e-05 -1.65575329e-05 -1.36975787e-05
      -1.75455843e-05 -1.88020549e-05 -1.55209909e-05 -1.27153407e-05
      -1.56189872e-05 -1.71220745e-05 -1.47223336e-05 -1.20369523e-05
      -1.34775846e-05 -1.55973594e-05 -1.41470346e-05 -1.16523152e-05
      -1.18350954e-05 -1.38007117e-05 -1.36142908e-05 -1.13383157e-05
      -1.03570592e-05 -7.98494057e-06 -1.49640109e-05 -1.04074234e-05
      -1.14587547e-05 -8.69208634e-06 -1.72828622e-05 -1.20972163e-05
      -1.21501216e-05 -9.33443062e-06 -1.88326594e-05 -1.37420411e-05
      -1.43676598e-05 -1.00330317e-05 -1.93971864e-05 -1.48044528e-05
      -1.59069314e-05 -1.11522650e-05 -1.90143182e-05 -1.66609661e-05
      -1.74241850e-05 -1.33928888e-05 -1.83827196e-05 -1.78637674e-05
      -1.85778608e-05 -1.56988808e-05 -1.78273149e-05 -1.81908163e-05
      -1.93953529e-05 -1.75371188e-05 -1.77504553e-05 -1.79944327e-05
      -1.98705238e-05 -1.93435753e-05 -1.79851177e-05 -1.70794810e-05
      -1.96233650e-05 -2.09840109e-05 -1.80790248e-05 -1.54931058e-05
      -1.90351020e-05 -2.20634665e-05 -1.77078182e-05 -1.35593382e-05
      -1.79105737e-05 -2.14800984e-05 -1.64996582e-05 -1.20872364e-05
      -1.64256944e-05 -2.00761442e-05 -1.53802666e-05 -1.15163011e-05
      -1.47040837e-05 -1.87825935e-05 -1.45358717e-05 -1.18093731e-05
      -1.28771735e-05 -1.74534689e-05 -1.29693262e-05 -1.22646570e-05
      -1.13851074e-05 -1.55762991e-05 -1.25207207e-05 -1.26702371e-05
      -1.02144886e-05 -7.86964847e-06 -1.50061260e-05 -1.07451906e-05
      -1.11701520e-05 -8.83191115e-06 -1.71784359e-05 -1.21090789e-05
      -1.18211801e-05 -9.78396474e-06 -1.87088281e-05 -1.35857899e-05
      -1.39534186e-05 -1.03537268e-05 -1.88969061e-05 -1.44658243e-05
      -1.54305362e-05 -1.08210061e-05 -1.81654923e-05 -1.61714797e-05
      -1.67504186e-05 -1.23154250e-05 -1.72282198e-05 -1.73127137e-05
      -1.75316545e-05 -1.41068640e-05 -1.64001267e-05 -1.75351088e-05
      -1.81205760e-05 -1.63000132e-05 -1.61558510e-05 -1.70407166e-05
      -1.81591913e-05 -1.81806336e-05 -1.65235142e-05 -1.57306476e-05
      -1.79714880e-05 -2.01950552e-05 -1.69498326e-05 -1.36553126e-05
      -1.75896730e-05 -2.15164764e-05 -1.68797760e-05 -1.17165737e-05
      -1.69808955e-05 -2.15941545e-05 -1.60499621e-05 -1.09887333e-05
      -1.58360181e-05 -2.07673856e-05 -1.55421367e-05 -1.13827218e-05
      -1.41968076e-05 -1.95089669e-05 -1.52113917e-05 -1.23080226e-05
      -1.22922529e-05 -1.85068602e-05 -1.40403845e-05 -1.32454106e-05
      -1.06526513e-05 -1.68355728e-05 -1.38128435e-05 -1.38113483e-05
      -9.64374067e-06 -8.03606417e-06 -1.43932957e-05 -1.06369889e-05
      -1.06880825e-05 -9.17111902e-06 -1.63728091e-05 -1.17508353e-05
      -1.12808248e-05 -1.03286420e-05 -1.77037946e-05 -1.29824020e-05
      -1.33122703e-05 -1.07916676e-05 -1.77612164e-05 -1.37472425e-05
      -1.47548626e-05 -1.08472968e-05 -1.70070907e-05 -1.52904177e-05
      -1.56453243e-05 -1.12993648e-05 -1.58893672e-05 -1.62163542e-05
      -1.58780040e-05 -1.26687128e-05 -1.48540576e-05 -1.62790184e-05
      -1.57854429e-05 -1.44599999e-05 -1.45100976e-05 -1.53484616e-05
      -1.57639170e-05 -1.63624172e-05 -1.50964888e-05 -1.37865936e-05
      -1.57566574e-05 -1.85987865e-05 -1.54692334e-05 -1.15409312e-05
      -1.58125531e-05 -2.03470900e-05 -1.54393474e-05 -1.03907369e-05
      -1.55656999e-05 -2.08755027e-05 -1.52111161e-05 -1.05158233e-05
      -1.47582832e-05 -2.06581844e-05 -1.52633565e-05 -1.15573548e-05
      -1.33418362e-05 -1.97769587e-05 -1.55149100e-05 -1.28413494e-05
      -1.14441573e-05 -1.89678522e-05 -1.48955223e-05 -1.39133035e-05
      -9.78623302e-06 -1.73627541e-05 -1.50049909e-05 -1.43244552e-05
      -9.29851467e-06 -8.16501961e-06 -1.33340864e-05 -1.00145407e-05
      -1.00133448e-05 -9.16388854e-06 -1.46446246e-05 -1.08706563e-05
      -1.06634170e-05 -1.03087241e-05 -1.55578982e-05 -1.19238057e-05
      -1.26164796e-05 -1.07085407e-05 -1.59644424e-05 -1.23880309e-05
      -1.37601428e-05 -1.05663921e-05 -1.52429175e-05 -1.37892057e-05
      -1.43140869e-05 -1.04533265e-05 -1.42422623e-05 -1.46758275e-05
      -1.39382246e-05 -1.11649269e-05 -1.31782290e-05 -1.43726493e-05
      -1.34456259e-05 -1.27324492e-05 -1.28019310e-05 -1.32146042e-05
      -1.31846391e-05 -1.44205078e-05 -1.33663980e-05 -1.14877039e-05
      -1.35867094e-05 -1.68970964e-05 -1.34042011e-05 -9.65694744e-06
      -1.40818456e-05 -1.88001977e-05 -1.38004661e-05 -9.22434083e-06
      -1.41539676e-05 -1.95269531e-05 -1.40091788e-05 -9.94634229e-06
      -1.36338258e-05 -2.01106195e-05 -1.47784822e-05 -1.15082830e-05
      -1.24042099e-05 -1.95214670e-05 -1.57851955e-05 -1.28502761e-05
      -1.09543180e-05 -1.88914037e-05 -1.56300393e-05 -1.39043641e-05
      -9.20317598e-06 -1.74542947e-05 -1.60224226e-05 -1.44779888e-05
      -8.70942131e-06 -8.02996237e-06 -1.10742731e-05 -9.10423660e-06
      -9.32240710e-06 -8.77832554e-06 -1.21628673e-05 -9.84371854e-06
      -9.82527035e-06 -9.85706174e-06 -1.32274845e-05 -1.06509151e-05
      -1.14807490e-05 -1.00544285e-05 -1.35766195e-05 -1.10402061e-05
      -1.23469345e-05 -9.84341114e-06 -1.29968930e-05 -1.20266486e-05
      -1.24891967e-05 -9.34782747e-06 -1.22483771e-05 -1.26581972e-05
      -1.19160159e-05 -9.89372984e-06 -1.12932503e-05 -1.20769782e-05
      -1.11774871e-05 -1.11408608e-05 -1.09319863e-05 -1.09266093e-05
      -1.10537449e-05 -1.26609193e-05 -1.13217839e-05 -9.47876470e-06
      -1.15690073e-05 -1.51169361e-05 -1.12894322e-05 -8.20512105e-06
      -1.23341897e-05 -1.70107305e-05 -1.20541781e-05 -8.31241323e-06
      -1.27040930e-05 -1.81059859e-05 -1.27292951e-05 -9.34670243e-06
      -1.25361539e-05 -1.90240244e-05 -1.42496410e-05 -1.12079406e-05
      -1.18207008e-05 -1.90302526e-05 -1.53881192e-05 -1.28797274e-05
      -1.08452596e-05 -1.84723685e-05 -1.59546289e-05 -1.40898246e-05
      -9.43116629e-06 -1.71025076e-05 -1.64719022e-05 -1.46145940e-05
      -8.09106768e-06 -7.64477227e-06 -9.26677149e-06 -8.06525350e-06
      -8.48972650e-06 -8.10262100e-06 -9.87405838e-06 -8.64776393e-06
      -9.00100986e-06 -8.98495909e-06 -1.05756253e-05 -9.20385173e-06
      -1.00831166e-05 -8.94316781e-06 -1.08527393e-05 -9.42971292e-06
      -1.05587833e-05 -8.58782914e-06 -1.03537177e-05 -1.01798969e-05
      -1.03773309e-05 -8.16835927e-06 -9.82597248e-06 -1.04810151e-05
      -9.67317283e-06 -8.42071495e-06 -9.00006580e-06 -9.72681937e-06
      -9.01422118e-06 -9.57932389e-06 -8.76605463e-06 -8.76325976e-06
      -8.90507090e-06 -1.10680421e-05 -8.87027363e-06 -7.76345314e-06
      -9.75914190e-06 -1.32691057e-05 -9.11338702e-06 -6.79942150e-06
      -1.07308615e-05 -1.52323391e-05 -1.01679398e-05 -7.21257311e-06
      -1.11061699e-05 -1.68844654e-05 -1.16869660e-05 -8.52190624e-06
      -1.12290481e-05 -1.78987084e-05 -1.35772279e-05 -1.06761117e-05
      -1.10480296e-05 -1.84078963e-05 -1.51909071e-05 -1.25301931e-05
      -1.06319576e-05 -1.79625349e-05 -1.58737494e-05 -1.37024163e-05
      -9.70419842e-06 -1.66014233e-05 -1.64439298e-05 -1.44000578e-05</_>
    <_>
      -9.26078246e-06 -8.09439189e-06 -8.69921587e-06 -8.17472119e-06
      -1.06015559e-05 -9.76251613e-06 -9.52623122e-06 -9.28387817e-06
      -1.18375019e-05 -1.12280377e-05 -1.01844698e-05 -9.72161160e-06
      -1.24339540e-05 -1.20414379e-05 -1.01143723e-05 -9.55883115e-06
      -1.34692200e-05 -1.27498797e-05 -9.62261583e-06 -1.00247307e-05
      -1.60305790e-05 -1.50513970e-05 -1.06547277e-05 -9.97897041e-06
      -1.65847196e-05 -1.54727895e-05 -1.03640159e-05 -1.14044433e-05
      -1.68984043e-05 -1.55980306e-05 -1.03125949e-05 -1.23493437e-05
      -1.70886615e-05 -1.56549595e-05 -1.06826783e-05 -1.29969012e-05
      -1.72192485e-05 -1.56645365e-05 -1.11556474e-05 -1.37259231e-05
      -1.75099103e-05 -1.57555060e-05 -1.12897869e-05 -1.38231171e-05
      -1.74858160e-05 -1.66479458e-05 -1.25340594e-05 -1.37915340e-05
      -1.71381453e-05 -1.65338752e-05 -1.27491849e-05 -1.32316027e-05
      -1.64114099e-05 -1.60917498e-05 -1.31690476e-05 -1.26866371e-05
      -1.50512160e-05 -1.55694233e-05 -1.34418215e-05 -1.20703708e-05
      -1.30383050e-05 -1.43200550e-05 -1.32052182e-05 -1.09980401e-05
      -1.22958836e-05 -1.05065928e-05 -1.02910017e-05 -1.04671672e-05
      -1.30272720e-05 -1.21899393e-05 -1.09294742e-05 -1.06335174e-05
      -1.42830440e-05 -1.36665894e-05 -1.13504475e-05 -1.08887925e-05
      -1.53643505e-05 -1.46253778e-05 -1.11997515e-05 -1.10859173e-05
      -1.62939359e-05 -1.56373808e-05 -1.11204954e-05 -1.13872156e-05
      -1.85178160e-05 -1.77019538e-05 -1.14923650e-05 -1.10241508e-05
      -1.92635580e-05 -1.80238148e-05 -1.14516724e-05 -1.24356275e-05
      -1.99360529e-05 -1.82428630e-05 -1.15101375e-05 -1.33280255e-05
      -2.02806714e-05 -1.84928249e-05 -1.19562255e-05 -1.40882639e-05
      -2.05592769e-05 -1.83465818e-05 -1.23600539e-05 -1.48109466e-05
      -2.05735105e-05 -1.82632248e-05 -1.25079696e-05 -1.50187807e-05
      -2.04770804e-05 -1.87788191e-05 -1.35753144e-05 -1.49049238e-05
      -1.98001871e-05 -1.83678621e-05 -1.37529105e-05 -1.43907373e-05
      -1.88369522e-05 -1.77759248e-05 -1.40328648e-05 -1.37232992e-05
      -1.72262044e-05 -1.64384674e-05 -1.38544528e-05 -1.27528847e-05
      -1.59822102e-05 -1.48896588e-05 -1.34710581e-05 -1.16490492e-05
      -1.31178449e-05 -1.15430694e-05 -1.06975231e-05 -1.08490012e-05
      -1.39201702e-05 -1.31781107e-05 -1.13565666e-05 -1.09978228e-05
      -1.56829628e-05 -1.45544245e-05 -1.16253223e-05 -1.17055697e-05
      -1.64796002e-05 -1.55185735e-05 -1.14085860e-05 -1.15188641e-05
      -1.85865974e-05 -1.66430618e-05 -1.12334410e-05 -1.31653514e-05
      -1.99687838e-05 -1.86470625e-05 -1.17317868e-05 -1.21660069e-05
      -2.06947334e-05 -1.91564559e-05 -1.18254202e-05 -1.33994617e-05
      -2.13006115e-05 -1.92145253e-05 -1.21686653e-05 -1.42195349e-05
      -2.17767865e-05 -1.94103959e-05 -1.31890001e-05 -1.45429358e-05
      -2.20883030e-05 -1.94475906e-05 -1.35232413e-05 -1.52998055e-05
      -2.21153241e-05 -1.93880296e-05 -1.36985800e-05 -1.56489532e-05
      -2.19518006e-05 -1.96304991e-05 -1.47042419e-05 -1.58606272e-05
      -2.12390441e-05 -1.89654056e-05 -1.49302577e-05 -1.53719266e-05
      -2.02742904e-05 -1.82005315e-05 -1.50231190e-05 -1.46467246e-05
      -1.86433899e-05 -1.72145319e-05 -1.49663674e-05 -1.37253028e-05
      -1.75187943e-05 -1.57608229e-05 -1.43431389e-05 -1.25310316e-05
      -1.37194847e-05 -1.20821560e-05 -1.16649198e-05 -1.10880765e-05
      -1.49645120e-05 -1.37000661e-05 -1.20776967e-05 -1.17966529e-05
      -1.65969814e-05 -1.52105749e-05 -1.23352092e-05 -1.21035637e-05
      -1.87417463e-05 -1.62025262e-05 -1.20050108e-05 -1.32882979e-05
      -1.98043326e-05 -1.70008825e-05 -1.19680808e-05 -1.38021887e-05
      -2.10714716e-05 -1.90350238e-05 -1.28294532e-05 -1.29974305e-05
      -2.19342346e-05 -1.96530091e-05 -1.32235436e-05 -1.40098964e-05
      -2.26757747e-05 -1.98802445e-05 -1.36270719e-05 -1.47946685e-05
      -2.30797959e-05 -1.98391699e-05 -1.43283914e-05 -1.50366941e-05
      -2.31822578e-05 -1.99049682e-05 -1.46170369e-05 -1.61874705e-05
      -2.30778496e-05 -1.97480840e-05 -1.48550253e-05 -1.64854064e-05
      -2.28599947e-05 -2.01039838e-05 -1.54226600e-05 -1.63320656e-05
      -2.21841947e-05 -1.97065419e-05 -1.57726736e-05 -1.58800412e-05
      -2.11771639e-05 -1.89630300e-05 -1.60423715e-05 -1.52685989e-05
      -1.96030869e-05 -1.78012961e-05 -1.60884283e-05 -1.46100347e-05
      -1.82924541e-05 -1.62186097e-05 -1.55589096e-05 -1.33951826e-05
      -1.43620409e-05 -1.22090178e-05 -1.22540832e-05 -1.19341103e-05
      -1.54187164e-05 -1.38464866e-05 -1.22791098e-05 -1.20957202e-05
      -1.78057780e-05 -1.51136128e-05 -1.24568842e-05 -1.34847051e-05
      -1.92230673e-05 -1.62053348e-05 -1.22523334e-05 -1.39499862e-05
      -2.05470333e-05 -1.70384210e-05 -1.21003841e-05 -1.45007743e-05
      -2.17857014e-05 -1.88151043e-05 -1.30724366e-05 -1.38427677e-05
      -2.28962635e-05 -1.93818651e-05 -1.34710499e-05 -1.46153752e-05
      -2.35079751e-05 -1.97452409e-05 -1.41506189e-05 -1.53118508e-05
      -2.39395122e-05 -1.98463022e-05 -1.47884166e-05 -1.55814541e-05
      -2.40175905e-05 -1.98961679e-05 -1.53126421e-05 -1.66516675e-05
      -2.38833200e-05 -1.98777889e-05 -1.55779016e-05 -1.67727885e-05
      -2.31971590e-05 -2.02179326e-05 -1.61856842e-05 -1.73932785e-05
      -2.23233401e-05 -1.96461988e-05 -1.66085483e-05 -1.70103758e-05
      -2.13906897e-05 -1.88815320e-05 -1.69580071e-05 -1.64159173e-05
      -1.98404050e-05 -1.80991701e-05 -1.70249332e-05 -1.57416634e-05
      -1.86720135e-05 -1.68100505e-05 -1.63694913e-05 -1.45002441e-05
      -1.38613832e-05 -1.15549947e-05 -1.25944080e-05 -1.15087932e-05
      -1.56085316e-05 -1.30130884e-05 -1.26469431e-05 -1.26886898e-05
      -1.73296139e-05 -1.41584933e-05 -1.27388303e-05 -1.31235156e-05
      -1.89686834e-05 -1.52021521e-05 -1.24240569e-05 -1.39552058e-05
      -2.03335512e-05 -1.60536638e-05 -1.21993517e-05 -1.44206515e-05
      -2.18003752e-05 -1.77077964e-05 -1.32066998e-05 -1.43451271e-05
      -2.27232886e-05 -1.82469939e-05 -1.38406103e-05 -1.51951936e-05
      -2.35134175e-05 -1.85774043e-05 -1.43527250e-05 -1.59059546e-05
      -2.39003184e-05 -1.87576443e-05 -1.50108890e-05 -1.71624306e-05
      -2.38816847e-05 -1.90079281e-05 -1.56928181e-05 -1.77680195e-05
      -2.36242158e-05 -1.90531591e-05 -1.61521220e-05 -1.77595830e-05
      -2.29750221e-05 -1.90699302e-05 -1.68212555e-05 -1.77129587e-05
      -2.19938738e-05 -1.86053257e-05 -1.72782748e-05 -1.73548597e-05
      -2.07431367e-05 -1.80543302e-05 -1.76085414e-05 -1.68922579e-05
      -1.93547639e-05 -1.71980064e-05 -1.76994745e-05 -1.60750496e-05
      -1.83475895e-05 -1.62396154e-05 -1.70838084e-05 -1.47405544e-05
      -1.36830859e-05 -1.03649390e-05 -1.18992402e-05 -1.18853650e-05
      -1.48433874e-05 -1.10406509e-05 -1.19366114e-05 -1.26698269e-05
      -1.63730256e-05 -1.15166076e-05 -1.21514186e-05 -1.33792892e-05
      -1.79768176e-05 -1.29218924e-05 -1.19773531e-05 -1.43043580e-05
      -1.95926459e-05 -1.35616592e-05 -1.22284164e-05 -1.51992845e-05
      -2.06914337e-05 -1.51410950e-05 -1.33700059e-05 -1.50550059e-05
      -2.18310834e-05 -1.60197851e-05 -1.39585354e-05 -1.56227416e-05
      -2.26412740e-05 -1.63864734e-05 -1.42366935e-05 -1.70848180e-05
      -2.30688784e-05 -1.67310591e-05 -1.48038607e-05 -1.74603101e-05
      -2.30496426e-05 -1.70914136e-05 -1.49213502e-05 -1.78930313e-05
      -2.27234032e-05 -1.72577365e-05 -1.54949539e-05 -1.80039951e-05
      -2.19589510e-05 -1.73925291e-05 -1.69219547e-05 -1.79727540e-05
      -2.10888884e-05 -1.71983938e-05 -1.70501607e-05 -1.75128735e-05
      -1.97857771e-05 -1.64735302e-05 -1.73284479e-05 -1.67990456e-05
      -1.87452715e-05 -1.53388046e-05 -1.73120388e-05 -1.58569528e-05
      -1.77319216e-05 -1.44092392e-05 -1.65019428e-05 -1.47743249e-05
      -1.28765378e-05 -9.89318596e-06 -1.15844268e-05 -1.17445452e-05
      -1.40112343e-05 -1.04889032e-05 -1.19708429e-05 -1.25446386e-05
      -1.55076996e-05 -1.09185294e-05 -1.20736249e-05 -1.35327346e-05
      -1.72322689e-05 -1.15705125e-05 -1.23267018e-05 -1.46495813e-05
      -1.86757734e-05 -1.22065039e-05 -1.24503649e-05 -1.52826742e-05
      -2.00271952e-05 -1.26204359e-05 -1.29943110e-05 -1.51554732e-05
      -2.10465205e-05 -1.30176877e-05 -1.33474732e-05 -1.66370137e-05
      -2.17656689e-05 -1.32246660e-05 -1.34196198e-05 -1.70871263e-05
      -2.21355458e-05 -1.36498056e-05 -1.38771047e-05 -1.75850400e-05
      -2.20504044e-05 -1.41369628e-05 -1.41178070e-05 -1.81096457e-05
      -2.15945529e-05 -1.45955073e-05 -1.48468798e-05 -1.82691165e-05
      -2.08422243e-05 -1.47678138e-05 -1.55510606e-05 -1.81568266e-05
      -1.99443093e-05 -1.49840826e-05 -1.56610204e-05 -1.75087898e-05
      -1.86887737e-05 -1.49794987e-05 -1.59334959e-05 -1.66995342e-05
      -1.77530419e-05 -1.48607005e-05 -1.57319228e-05 -1.60830950e-05
      -1.68378319e-05 -1.46468010e-05 -1.45032809e-05 -1.50179148e-05
      -1.21991761e-05 -9.50338745e-06 -1.22910305e-05 -1.10922801e-05
      -1.32374953e-05 -9.86188115e-06 -1.26333443e-05 -1.19200904e-05
      -1.46047278e-05 -1.02342874e-05 -1.32016676e-05 -1.28900410e-05
      -1.61664702e-05 -1.04456049e-05 -1.33624471e-05 -1.38961113e-05
      -1.73359222e-05 -1.07915184e-05 -1.35941300e-05 -1.43834041e-05
      -1.86439720e-05 -1.11509671e-05 -1.38202140e-05 -1.51117765e-05
      -1.97669615e-05 -1.14690365e-05 -1.38723026e-05 -1.64003432e-05
      -2.04661010e-05 -1.14083032e-05 -1.32743244e-05 -1.68609786e-05
      -2.06287368e-05 -1.18452945e-05 -1.36678836e-05 -1.74172819e-05
      -2.02007250e-05 -1.23266736e-05 -1.39967633e-05 -1.79617873e-05
      -1.97874197e-05 -1.28109568e-05 -1.49282396e-05 -1.80851093e-05
      -1.90462742e-05 -1.35055152e-05 -1.56688166e-05 -1.78828413e-05
      -1.82548210e-05 -1.32958712e-05 -1.58058920e-05 -1.73624157e-05
      -1.69701525e-05 -1.34247402e-05 -1.61759526e-05 -1.65898691e-05
      -1.55750276e-05 -1.34055363e-05 -1.56396927e-05 -1.52240309e-05
      -1.48871986e-05 -1.33346930e-05 -1.46698458e-05 -1.41340406e-05
      -1.05541376e-05 -7.91394177e-06 -1.14637241e-05 -1.14493714e-05
      -1.13228116e-05 -8.92260050e-06 -1.24233611e-05 -1.20908644e-05
      -1.35200025e-05 -9.10462586e-06 -1.33798749e-05 -1.29963564e-05
      -1.46256234e-05 -9.36865399e-06 -1.37556226e-05 -1.36007948e-05
      -1.58350504e-05 -9.48152774e-06 -1.40533775e-05 -1.53595211e-05
      -1.71905085e-05 -9.61271689e-06 -1.39327467e-05 -1.59170922e-05
      -1.79503168e-05 -9.64730680e-06 -1.37734623e-05 -1.64796566e-05
      -1.84636901e-05 -9.90214357e-06 -1.32416098e-05 -1.67505641e-05
      -1.86351790e-05 -1.03682169e-05 -1.35674136e-05 -1.73114367e-05
      -1.85045810e-05 -1.11136651e-05 -1.38410060e-05 -1.78385617e-05
      -1.82520271e-05 -1.16439433e-05 -1.47823621e-05 -1.78178507e-05
      -1.77901984e-05 -1.22908023e-05 -1.55453490e-05 -1.75924797e-05
      -1.64031444e-05 -1.20035547e-05 -1.55305479e-05 -1.64308767e-05
      -1.52896228e-05 -1.22386355e-05 -1.56561364e-05 -1.57193936e-05
      -1.45361164e-05 -1.22973697e-05 -1.50188316e-05 -1.49557472e-05
      -1.36408416e-05 -1.22880701e-05 -1.41220989e-05 -1.37817151e-05
      -1.06764810e-05 -9.01029125e-06 -1.22729280e-05 -1.20175682e-05
      -1.16302390e-05 -9.67068809e-06 -1.32747982e-05 -1.29496066e-05
      -1.32559626e-05 -9.61188653e-06 -1.40283082e-05 -1.35442260e-05
      -1.43064080e-05 -9.52736627e-06 -1.44071182e-05 -1.41840574e-05
      -1.51101713e-05 -9.36850302e-06 -1.46049370e-05 -1.55061189e-05
      -1.59820192e-05 -9.17516627e-06 -1.40567172e-05 -1.59918491e-05
      -1.63395016e-05 -8.72540204e-06 -1.36822755e-05 -1.62291162e-05
      -1.65372130e-05 -8.74292164e-06 -1.29686186e-05 -1.63686273e-05
      -1.69195519e-05 -8.61946228e-06 -1.33164940e-05 -1.68771658e-05
      -1.69419072e-05 -9.18886235e-06 -1.38388568e-05 -1.73189328e-05
      -1.68824208e-05 -9.81800440e-06 -1.45340928e-05 -1.74365796e-05
      -1.59747706e-05 -1.04493347e-05 -1.50462329e-05 -1.68758579e-05
      -1.55271809e-05 -1.08875975e-05 -1.49245870e-05 -1.62367724e-05
      -1.42610979e-05 -1.11372083e-05 -1.44419228e-05 -1.51804797e-05
      -1.36024992e-05 -1.11909940e-05 -1.38333144e-05 -1.43115130e-05
      -1.30726021e-05 -1.10618603e-05 -1.33206440e-05 -1.34734155e-05
      -1.11604859e-05 -1.07778178e-05 -1.26474170e-05 -1.25439756e-05
      -1.21296698e-05 -1.12224998e-05 -1.33154554e-05 -1.36354956e-05
      -1.31062498e-05 -1.12323678e-05 -1.38766291e-05 -1.43731131e-05
      -1.36653780e-05 -1.11039963e-05 -1.42270219e-05 -1.48247382e-05
      -1.46551038e-05 -1.14719760e-05 -1.49192128e-05 -1.56779079e-05
      -1.49772122e-05 -1.10186747e-05 -1.44466831e-05 -1.59164101e-05
      -1.51339818e-05 -1.06396665e-05 -1.38126816e-05 -1.60442669e-05
      -1.51648019e-05 -1.00194693e-05 -1.31783081e-05 -1.61569005e-05
      -1.52300445e-05 -1.01821088e-05 -1.34454758e-05 -1.65184447e-05
      -1.59740393e-05 -1.05291647e-05 -1.37520465e-05 -1.68883071e-05
      -1.58040239e-05 -1.08637232e-05 -1.42681474e-05 -1.66088812e-05
      -1.59188094e-05 -1.09386283e-05 -1.44896549e-05 -1.63258974e-05
      -1.55204634e-05 -1.11753607e-05 -1.39532149e-05 -1.54998525e-05
      -1.47580831e-05 -1.11173067e-05 -1.32350924e-05 -1.47163028e-05
      -1.42809404e-05 -1.10443079e-05 -1.25745028e-05 -1.42247554e-05
      -1.36150529e-05 -1.09431976e-05 -1.21535386e-05 -1.34965921e-05
      -1.16662723e-05 -1.13179740e-05 -1.27274689e-05 -1.30261315e-05
      -1.25391462e-05 -1.18802700e-05 -1.34791908e-05 -1.40870316e-05
      -1.33907088e-05 -1.20643645e-05 -1.40133143e-05 -1.47669607e-05
      -1.38187106e-05 -1.20508339e-05 -1.44349224e-05 -1.49532480e-05
      -1.45806207e-05 -1.25430643e-05 -1.50815949e-05 -1.55081470e-05
      -1.49357211e-05 -1.22230767e-05 -1.45379927e-05 -1.57998893e-05
      -1.51593258e-05 -1.19133838e-05 -1.36962553e-05 -1.58408548e-05
      -1.49486868e-05 -1.12049811e-05 -1.30235076e-05 -1.57980558e-05
      -1.52847388e-05 -1.11779646e-05 -1.36027502e-05 -1.61582593e-05
      -1.55189064e-05 -1.11777690e-05 -1.34269594e-05 -1.61136304e-05
      -1.58673829e-05 -1.10102910e-05 -1.34735283e-05 -1.60162272e-05
      -1.55206253e-05 -1.07775450e-05 -1.32119958e-05 -1.52163657e-05
      -1.53155033e-05 -1.06439984e-05 -1.24889339e-05 -1.48534928e-05
      -1.44775086e-05 -1.03908787e-05 -1.15849998e-05 -1.42137987e-05
      -1.39330778e-05 -1.01440246e-05 -1.10288775e-05 -1.35891441e-05
      -1.35494010e-05 -9.84466806e-06 -1.07461474e-05 -1.29103864e-05
      -1.17024529e-05 -1.13991155e-05 -1.25411889e-05 -1.26958794e-05
      -1.24058279e-05 -1.21200601e-05 -1.32462101e-05 -1.37329143e-05
      -1.31992028e-05 -1.23880282e-05 -1.40613838e-05 -1.42957851e-05
      -1.35598802e-05 -1.24789267e-05 -1.43252582e-05 -1.44038668e-05
      -1.44025289e-05 -1.31436909e-05 -1.50320384e-05 -1.48976242e-05
      -1.49578827e-05 -1.30720846e-05 -1.44885998e-05 -1.52082075e-05
      -1.53805522e-05 -1.28540760e-05 -1.39322219e-05 -1.54551326e-05
      -1.58378789e-05 -1.26249242e-05 -1.33032509e-05 -1.55931666e-05
      -1.56656934e-05 -1.23801310e-05 -1.32364266e-05 -1.51881350e-05
      -1.61041680e-05 -1.20867908e-05 -1.31786774e-05 -1.54097870e-05
      -1.58925141e-05 -1.14207014e-05 -1.28664042e-05 -1.46810371e-05
      -1.53982837e-05 -1.08170188e-05 -1.22370675e-05 -1.43915331e-05
      -1.47887004e-05 -1.04274222e-05 -1.12165881e-05 -1.40935344e-05
      -1.39376025e-05 -9.85030420e-06 -1.01937248e-05 -1.32086097e-05
      -1.34535176e-05 -9.36693777e-06 -9.73414808e-06 -1.24196295e-05
      -1.29798600e-05 -8.57256964e-06 -9.65277832e-06 -1.21924977e-05
      -1.24128619e-05 -1.23603977e-05 -1.29454465e-05 -1.30340914e-05
      -1.30930111e-05 -1.31555325e-05 -1.35726723e-05 -1.39058648e-05
      -1.38918831e-05 -1.35515793e-05 -1.43637990e-05 -1.43519455e-05
      -1.42083372e-05 -1.37087118e-05 -1.47772589e-05 -1.43803036e-05
      -1.49142270e-05 -1.44237156e-05 -1.53447090e-05 -1.46037073e-05
      -1.54900372e-05 -1.42590734e-05 -1.47986893e-05 -1.51406648e-05
      -1.61321259e-05 -1.41203063e-05 -1.41898945e-05 -1.53395922e-05
      -1.66393565e-05 -1.39879130e-05 -1.34105012e-05 -1.53602068e-05
      -1.64413595e-05 -1.37498682e-05 -1.30862245e-05 -1.48767576e-05
      -1.66768896e-05 -1.33397889e-05 -1.27537187e-05 -1.47799019e-05
      -1.65960300e-05 -1.26745153e-05 -1.22138181e-05 -1.40487400e-05
      -1.57145987e-05 -1.20251052e-05 -1.12835596e-05 -1.39803642e-05
      -1.50876567e-05 -1.15054172e-05 -9.97588995e-06 -1.34769780e-05
      -1.43141733e-05 -1.08906652e-05 -9.08466063e-06 -1.24610988e-05
      -1.37363395e-05 -1.03770681e-05 -8.73730733e-06 -1.20863024e-05
      -1.29930386e-05 -9.67982760e-06 -8.71902557e-06 -1.16530173e-05
      -1.27904214e-05 -1.29987247e-05 -1.32325240e-05 -1.30974558e-05
      -1.35441269e-05 -1.39460744e-05 -1.39838758e-05 -1.39520480e-05
      -1.43519419e-05 -1.43511988e-05 -1.46222874e-05 -1.44016030e-05
      -1.47549135e-05 -1.45917093e-05 -1.49870530e-05 -1.42921681e-05
      -1.54894169e-05 -1.53918481e-05 -1.54158133e-05 -1.45726644e-05
      -1.63510686e-05 -1.54036406e-05 -1.49520774e-05 -1.50473161e-05
      -1.69597261e-05 -1.52186831e-05 -1.42814697e-05 -1.54363315e-05
      -1.74223878e-05 -1.51526820e-05 -1.33492285e-05 -1.53297897e-05
      -1.72904402e-05 -1.47046048e-05 -1.27292660e-05 -1.47487917e-05
      -1.70206695e-05 -1.40345483e-05 -1.23993623e-05 -1.42593090e-05
      -1.64684334e-05 -1.30682329e-05 -1.14642662e-05 -1.34673819e-05
      -1.53571800e-05 -1.23152804e-05 -1.04391320e-05 -1.32351679e-05
      -1.46879511e-05 -1.17917452e-05 -9.17213583e-06 -1.24676299e-05
      -1.39417434e-05 -1.11060235e-05 -8.44824990e-06 -1.19236256e-05
      -1.30190865e-05 -1.07644964e-05 -8.30462341e-06 -1.13299502e-05
      -1.23860727e-05 -1.03665516e-05 -8.25463121e-06 -1.09448138e-05</_>
    <_>
      -9.91795423e-06 -7.04428339e-06 -9.26885241e-06 -1.03645825e-05
      -1.17699292e-05 -8.34518232e-06 -9.62237300e-06 -1.20535396e-05
      -1.36393965e-05 -9.67722008e-06 -9.56154599e-06 -1.37639718e-05
      -1.53799356e-05 -1.10911724e-05 -9.30525675e-06 -1.49418765e-05
      -1.69243503e-05 -1.19487177e-05 -8.89782496e-06 -1.51717268e-05
      -1.79142717e-05 -1.26845143e-05 -8.37975858e-06 -1.50636988e-05
      -1.83620323e-05 -1.32104515e-05 -8.04289357e-06 -1.42244944e-05
      -1.84693417e-05 -1.33417061e-05 -7.72532258e-06 -1.17920690e-05
      -1.85319095e-05 -1.43340940e-05 -7.37356868e-06 -1.13089136e-05
      -1.80494262e-05 -1.53561432e-05 -7.49101673e-06 -9.78800472e-06
      -1.74136221e-05 -1.65531801e-05 -8.61034187e-06 -8.63595960e-06
      -1.66874670e-05 -1.71651009e-05 -9.65477830e-06 -7.68099926e-06
      -1.61647058e-05 -1.72934342e-05 -1.10983538e-05 -7.38111476e-06
      -1.53799301e-05 -1.71668325e-05 -1.18845173e-05 -7.26414191e-06
      -1.42037807e-05 -1.66458885e-05 -1.21849262e-05 -7.10582526e-06
      -1.26436498e-05 -1.59854608e-05 -1.20352543e-05 -7.10761287e-06
      -1.15071371e-05 -7.55585916e-06 -1.10637129e-05 -1.20252225e-05
      -1.35247965e-05 -1.04347209e-05 -1.13569740e-05 -1.38211781e-05
      -1.56908973e-05 -1.19842152e-05 -1.13490250e-05 -1.56303377e-05
      -1.77782276e-05 -1.36026110e-05 -1.11912050e-05 -1.70257481e-05
      -1.95550547e-05 -1.48933914e-05 -1.05533345e-05 -1.78846731e-05
      -2.09620575e-05 -1.58026633e-05 -9.69735629e-06 -1.79471153e-05
      -2.16293811e-05 -1.62786801e-05 -9.59834870e-06 -1.72858163e-05
      -2.17947108e-05 -1.64162357e-05 -9.07016238e-06 -1.49072957e-05
      -2.14292122e-05 -1.67757280e-05 -9.05795696e-06 -1.33908470e-05
      -2.09613027e-05 -1.79223152e-05 -8.76038121e-06 -1.28247457e-05
      -2.03255895e-05 -1.89540224e-05 -1.03641632e-05 -1.14987733e-05
      -1.96085584e-05 -1.97866339e-05 -1.17985546e-05 -1.03497359e-05
      -1.89193270e-05 -1.99229271e-05 -1.31837996e-05 -1.00221296e-05
      -1.78277187e-05 -1.96255096e-05 -1.41932514e-05 -9.48382967e-06
      -1.61792304e-05 -1.89443999e-05 -1.43426587e-05 -9.49039531e-06
      -1.41254313e-05 -1.79247836e-05 -1.40746306e-05 -9.55022733e-06
      -1.18251364e-05 -9.17850866e-06 -1.23963482e-05 -1.31218731e-05
      -1.38924115e-05 -1.11205691e-05 -1.26916766e-05 -1.48324189e-05
      -1.61385651e-05 -1.28923311e-05 -1.27006442e-05 -1.64618887e-05
      -1.83098964e-05 -1.47332239e-05 -1.22457413e-05 -1.77740512e-05
      -2.01039511e-05 -1.61959342e-05 -1.15691819e-05 -1.84964065e-05
      -2.12981031e-05 -1.69550094e-05 -1.07888345e-05 -1.85133831e-05
      -2.18805071e-05 -1.71712854e-05 -1.05293766e-05 -1.75883360e-05
      -2.19305857e-05 -1.71201955e-05 -9.73374063e-06 -1.49898333e-05
      -2.15927776e-05 -1.72048876e-05 -9.48635170e-06 -1.33523026e-05
      -2.10758844e-05 -1.82122149e-05 -9.46194723e-06 -1.30061781e-05
      -2.05448559e-05 -1.92508287e-05 -1.12951057e-05 -1.17320778e-05
      -1.99611059e-05 -2.01219682e-05 -1.31902325e-05 -1.10371266e-05
      -1.92896296e-05 -2.05329252e-05 -1.47360215e-05 -1.08083486e-05
      -1.83064294e-05 -2.03856580e-05 -1.58178464e-05 -1.04974988e-05
      -1.67230446e-05 -1.97850150e-05 -1.60955569e-05 -1.06577691e-05
      -1.48686622e-05 -1.87734149e-05 -1.57546019e-05 -1.07359083e-05
      -1.22862011e-05 -1.00037478e-05 -1.56080951e-05 -1.45692484e-05
      -1.41126138e-05 -1.18364742e-05 -1.55282996e-05 -1.58239654e-05
      -1.60238596e-05 -1.37149555e-05 -1.51050544e-05 -1.71240627e-05
      -1.80108727e-05 -1.56609858e-05 -1.45288968e-05 -1.80361221e-05
      -1.95602679e-05 -1.66819282e-05 -1.35862629e-05 -1.83498469e-05
      -2.07441171e-05 -1.74215456e-05 -1.26436516e-05 -1.82400690e-05
      -2.13709736e-05 -1.77548936e-05 -1.20331588e-05 -1.72065011e-05
      -2.13419862e-05 -1.75437362e-05 -1.07803926e-05 -1.46177135e-05
      -2.09876980e-05 -1.73165517e-05 -9.85852239e-06 -1.30602803e-05
      -2.05118322e-05 -1.81606974e-05 -1.01022806e-05 -1.27364137e-05
      -2.00959985e-05 -1.91212512e-05 -1.23669342e-05 -1.18622420e-05
      -1.97343306e-05 -1.99279220e-05 -1.43274419e-05 -1.15538414e-05
      -1.92284660e-05 -2.06177465e-05 -1.60957316e-05 -1.18274356e-05
      -1.84240362e-05 -2.06452569e-05 -1.72228974e-05 -1.15398207e-05
      -1.70608710e-05 -2.02780975e-05 -1.76697158e-05 -1.19016568e-05
      -1.53494693e-05 -1.94346940e-05 -1.75621481e-05 -1.19184306e-05
      -1.24504459e-05 -1.09201901e-05 -1.79341696e-05 -1.58145740e-05
      -1.38885407e-05 -1.26593950e-05 -1.76744506e-05 -1.64359917e-05
      -1.54302306e-05 -1.45609874e-05 -1.70227177e-05 -1.70489056e-05
      -1.70298026e-05 -1.60039017e-05 -1.60366017e-05 -1.75794848e-05
      -1.84167729e-05 -1.69880223e-05 -1.49226207e-05 -1.77479942e-05
      -1.94296917e-05 -1.76585545e-05 -1.35887276e-05 -1.73904664e-05
      -1.98546950e-05 -1.79291401e-05 -1.27186677e-05 -1.63630230e-05
      -1.99274637e-05 -1.78066130e-05 -1.14373552e-05 -1.37554989e-05
      -1.95916946e-05 -1.73910048e-05 -1.02612494e-05 -1.19782208e-05
      -1.93080687e-05 -1.79095568e-05 -1.06875714e-05 -1.21196299e-05
      -1.92002335e-05 -1.83251323e-05 -1.31358438e-05 -1.21025078e-05
      -1.89895491e-05 -1.89785387e-05 -1.52106959e-05 -1.23705640e-05
      -1.86085545e-05 -1.95553712e-05 -1.72412838e-05 -1.27257626e-05
      -1.78073060e-05 -1.97914160e-05 -1.83888860e-05 -1.32906353e-05
      -1.66064765e-05 -1.95885295e-05 -1.88774266e-05 -1.39329841e-05
      -1.50656724e-05 -1.88929207e-05 -1.89974744e-05 -1.41884539e-05
      -1.20923178e-05 -1.18523913e-05 -1.96887249e-05 -1.53895671e-05
      -1.34470320e-05 -1.34428974e-05 -1.91747731e-05 -1.57951545e-05
      -1.45650583e-05 -1.48245090e-05 -1.83808952e-05 -1.59919091e-05
      -1.56691476e-05 -1.59685242e-05 -1.72635664e-05 -1.60618529e-05
      -1.64402427e-05 -1.67709495e-05 -1.59560605e-05 -1.57795894e-05
      -1.70587991e-05 -1.72465716e-05 -1.43271709e-05 -1.50395899e-05
      -1.72220243e-05 -1.76275807e-05 -1.30489743e-05 -1.39209860e-05
      -1.71912925e-05 -1.75786136e-05 -1.17457412e-05 -1.24169401e-05
      -1.71664378e-05 -1.70805070e-05 -1.01759206e-05 -1.08003505e-05
      -1.73083899e-05 -1.70588792e-05 -1.10882893e-05 -1.17903364e-05
      -1.74350898e-05 -1.68507468e-05 -1.36247872e-05 -1.22796328e-05
      -1.74872330e-05 -1.71730389e-05 -1.59112733e-05 -1.29889195e-05
      -1.72443451e-05 -1.78607006e-05 -1.78504433e-05 -1.37408206e-05
      -1.66064001e-05 -1.82111671e-05 -1.90285809e-05 -1.48411327e-05
      -1.56469578e-05 -1.82089443e-05 -1.99399819e-05 -1.56568822e-05
      -1.45425802e-05 -1.77741767e-05 -2.00942504e-05 -1.60503132e-05
      -1.04749661e-05 -1.18498274e-05 -2.00183913e-05 -1.69881205e-05
      -1.15470375e-05 -1.26890436e-05 -1.93635460e-05 -1.71855463e-05
      -1.22048550e-05 -1.35885357e-05 -1.85416866e-05 -1.68877832e-05
      -1.39693066e-05 -1.43293237e-05 -1.73984536e-05 -1.63563418e-05
      -1.44587602e-05 -1.50159694e-05 -1.60114723e-05 -1.54658046e-05
      -1.49119496e-05 -1.63054319e-05 -1.46495795e-05 -1.42724220e-05
      -1.49474599e-05 -1.68549923e-05 -1.28486308e-05 -1.29148139e-05
      -1.50197766e-05 -1.67655107e-05 -1.12968110e-05 -1.14848790e-05
      -1.50642036e-05 -1.62833057e-05 -9.85884981e-06 -1.01334408e-05
      -1.53501787e-05 -1.59916035e-05 -1.11700319e-05 -1.14969907e-05
      -1.56213064e-05 -1.56966253e-05 -1.37913376e-05 -1.22330412e-05
      -1.57086506e-05 -1.55193466e-05 -1.61747503e-05 -1.31537026e-05
      -1.57484374e-05 -1.61204480e-05 -1.81246360e-05 -1.44474452e-05
      -1.53464680e-05 -1.64454705e-05 -1.94908989e-05 -1.57782506e-05
      -1.47096189e-05 -1.64518260e-05 -2.02507563e-05 -1.68255501e-05
      -1.39980311e-05 -1.62523811e-05 -2.04699882e-05 -1.73324934e-05
      -1.10635992e-05 -1.35464506e-05 -2.09906539e-05 -1.79499057e-05
      -1.18665803e-05 -1.40638685e-05 -2.05389606e-05 -1.79310573e-05
      -1.25006736e-05 -1.45786344e-05 -1.96801866e-05 -1.75552250e-05
      -1.26475998e-05 -1.49716607e-05 -1.85268709e-05 -1.68851184e-05
      -1.26711120e-05 -1.53166147e-05 -1.67182407e-05 -1.58068524e-05
      -1.34038019e-05 -1.52575067e-05 -1.41462288e-05 -1.43258449e-05
      -1.31703400e-05 -1.58325875e-05 -1.22958863e-05 -1.25313782e-05
      -1.32233035e-05 -1.53153524e-05 -1.02586964e-05 -1.10896426e-05
      -1.33531275e-05 -1.47382743e-05 -9.22271283e-06 -1.08541208e-05
      -1.36446542e-05 -1.44062888e-05 -1.08184659e-05 -1.16165365e-05
      -1.42446570e-05 -1.43515053e-05 -1.37249353e-05 -1.25431679e-05
      -1.47290984e-05 -1.44224514e-05 -1.62126798e-05 -1.36329809e-05
      -1.51762360e-05 -1.51386521e-05 -1.81468313e-05 -1.51512968e-05
      -1.51586282e-05 -1.55136477e-05 -1.96120272e-05 -1.64736484e-05
      -1.46713282e-05 -1.56052993e-05 -2.04456646e-05 -1.75538134e-05
      -1.40950851e-05 -1.53075016e-05 -2.07249486e-05 -1.79730650e-05
      -1.14715813e-05 -1.49848720e-05 -2.09690788e-05 -1.82812364e-05
      -1.21597159e-05 -1.53115434e-05 -2.09199316e-05 -1.83430311e-05
      -1.26961704e-05 -1.55198959e-05 -2.03591771e-05 -1.80137049e-05
      -1.28844285e-05 -1.55115049e-05 -1.89504208e-05 -1.72342570e-05
      -1.26382265e-05 -1.52275143e-05 -1.69771611e-05 -1.60931777e-05
      -1.23091477e-05 -1.46431830e-05 -1.39941067e-05 -1.43751549e-05
      -1.16299352e-05 -1.42114968e-05 -1.14253462e-05 -1.22892934e-05
      -1.18073367e-05 -1.33458616e-05 -8.91089348e-06 -1.14245322e-05
      -1.18626003e-05 -1.25794031e-05 -8.33658851e-06 -1.10929368e-05
      -1.23447608e-05 -1.24496873e-05 -1.02898503e-05 -1.17256368e-05
      -1.32349360e-05 -1.28232723e-05 -1.33866833e-05 -1.26836094e-05
      -1.39520953e-05 -1.33000194e-05 -1.61697462e-05 -1.41420442e-05
      -1.47779865e-05 -1.42633889e-05 -1.83071734e-05 -1.59917690e-05
      -1.50838241e-05 -1.48378467e-05 -1.97673962e-05 -1.74232464e-05
      -1.49858379e-05 -1.51206586e-05 -2.07201792e-05 -1.84535729e-05
      -1.45959921e-05 -1.48940771e-05 -2.10641629e-05 -1.89209513e-05
      -1.14783679e-05 -1.66296977e-05 -2.06029126e-05 -1.78358823e-05
      -1.21538496e-05 -1.66901500e-05 -2.06486784e-05 -1.79298149e-05
      -1.26287332e-05 -1.66435329e-05 -2.02099291e-05 -1.77124675e-05
      -1.28228739e-05 -1.62502020e-05 -1.88182858e-05 -1.68112529e-05
      -1.26108462e-05 -1.53337933e-05 -1.67406124e-05 -1.55602920e-05
      -1.21171224e-05 -1.40082075e-05 -1.35298214e-05 -1.37538582e-05
      -1.17287736e-05 -1.24018443e-05 -1.06768857e-05 -1.22531701e-05
      -1.13725100e-05 -1.11284999e-05 -7.97834855e-06 -1.15221883e-05
      -1.14533532e-05 -1.04094088e-05 -7.73366992e-06 -1.14831228e-05
      -1.19976648e-05 -1.05060553e-05 -9.72032831e-06 -1.19342503e-05
      -1.30429880e-05 -1.12984626e-05 -1.28502597e-05 -1.31738343e-05
      -1.40548182e-05 -1.21976582e-05 -1.57678223e-05 -1.51542090e-05
      -1.50803326e-05 -1.32276473e-05 -1.79329945e-05 -1.71163229e-05
      -1.55985363e-05 -1.38951509e-05 -1.94901513e-05 -1.85005119e-05
      -1.56529932e-05 -1.43271955e-05 -2.04140852e-05 -1.94324002e-05
      -1.53514520e-05 -1.41790515e-05 -2.07446101e-05 -1.95641314e-05
      -1.12454445e-05 -1.76058256e-05 -1.98089729e-05 -1.65775546e-05
      -1.18254193e-05 -1.77231195e-05 -1.98823909e-05 -1.68336483e-05
      -1.22981337e-05 -1.74702072e-05 -1.94117674e-05 -1.65333513e-05
      -1.24176313e-05 -1.68448914e-05 -1.81232172e-05 -1.56909555e-05
      -1.27694993e-05 -1.55972848e-05 -1.59855717e-05 -1.49646548e-05
      -1.22614965e-05 -1.40462125e-05 -1.31122251e-05 -1.37050947e-05
      -1.18378221e-05 -1.21417124e-05 -1.04610563e-05 -1.24222415e-05
      -1.17229802e-05 -1.07311889e-05 -8.05496802e-06 -1.19483948e-05
      -1.20275272e-05 -9.59412228e-06 -7.73358352e-06 -1.19264232e-05
      -1.23573282e-05 -9.27310612e-06 -9.30573242e-06 -1.24628505e-05
      -1.33376261e-05 -9.81883841e-06 -1.21369758e-05 -1.39183148e-05
      -1.47564951e-05 -1.08017539e-05 -1.51447894e-05 -1.62281267e-05
      -1.58489165e-05 -1.19076567e-05 -1.74822308e-05 -1.81310152e-05
      -1.63535788e-05 -1.27347712e-05 -1.89348375e-05 -1.94786735e-05
      -1.64338944e-05 -1.31952193e-05 -1.96734618e-05 -1.99876686e-05
      -1.60046766e-05 -1.31677280e-05 -1.99496772e-05 -1.98639864e-05
      -1.06766229e-05 -1.77880611e-05 -1.83615157e-05 -1.45891245e-05
      -1.12979251e-05 -1.79627041e-05 -1.84341843e-05 -1.47901383e-05
      -1.24228582e-05 -1.81214600e-05 -1.84449837e-05 -1.49205398e-05
      -1.31799798e-05 -1.76367448e-05 -1.74275247e-05 -1.44666574e-05
      -1.37152538e-05 -1.66031787e-05 -1.56569695e-05 -1.38291825e-05
      -1.37291700e-05 -1.50454653e-05 -1.31520856e-05 -1.32656796e-05
      -1.35456712e-05 -1.31383613e-05 -1.06261505e-05 -1.24432026e-05
      -1.33448521e-05 -1.14221939e-05 -8.62304569e-06 -1.24779190e-05
      -1.35285218e-05 -1.03374277e-05 -8.23081336e-06 -1.30705293e-05
      -1.39413241e-05 -9.62623653e-06 -9.27706697e-06 -1.40084921e-05
      -1.48453209e-05 -9.95098526e-06 -1.14018503e-05 -1.56560309e-05
      -1.60193176e-05 -1.05245736e-05 -1.41831679e-05 -1.77563925e-05
      -1.67904491e-05 -1.09282082e-05 -1.62693013e-05 -1.91926265e-05
      -1.69261948e-05 -1.12358348e-05 -1.78789978e-05 -1.99575643e-05
      -1.66709560e-05 -1.10758310e-05 -1.84986857e-05 -1.99135666e-05
      -1.60117761e-05 -1.11205891e-05 -1.85291319e-05 -1.94200529e-05
      -9.88014563e-06 -1.68077277e-05 -1.61797579e-05 -1.25995093e-05
      -1.07561491e-05 -1.71468055e-05 -1.64348457e-05 -1.25862816e-05
      -1.22461261e-05 -1.76490757e-05 -1.67591988e-05 -1.27619587e-05
      -1.35562368e-05 -1.75381883e-05 -1.61269145e-05 -1.25686820e-05
      -1.43849720e-05 -1.69934574e-05 -1.49897560e-05 -1.24609969e-05
      -1.47101646e-05 -1.57858867e-05 -1.30480275e-05 -1.21764979e-05
      -1.50265132e-05 -1.38672667e-05 -1.10085493e-05 -1.21364037e-05
      -1.51842996e-05 -1.23957234e-05 -8.91402033e-06 -1.28223037e-05
      -1.50583928e-05 -1.12390835e-05 -8.30704539e-06 -1.34180400e-05
      -1.53179735e-05 -1.04572900e-05 -8.75080059e-06 -1.49584484e-05
      -1.54957306e-05 -1.08664572e-05 -1.06861953e-05 -1.67191465e-05
      -1.65976871e-05 -1.07986343e-05 -1.26630612e-05 -1.86093348e-05
      -1.68666666e-05 -1.05995796e-05 -1.46761540e-05 -1.95664470e-05
      -1.66841892e-05 -1.04662195e-05 -1.60318559e-05 -1.97786740e-05
      -1.61556654e-05 -1.00223269e-05 -1.65275069e-05 -1.92908683e-05
      -1.51812283e-05 -9.96053677e-06 -1.64756129e-05 -1.83212724e-05
      -8.99710903e-06 -1.53763340e-05 -1.32896266e-05 -1.01700289e-05
      -1.02001850e-05 -1.58147996e-05 -1.40367347e-05 -1.01348869e-05
      -1.19900769e-05 -1.65695365e-05 -1.48985046e-05 -1.07953983e-05
      -1.37054876e-05 -1.69951454e-05 -1.49065281e-05 -1.09137527e-05
      -1.47822557e-05 -1.68599872e-05 -1.42836279e-05 -1.13688902e-05
      -1.56093283e-05 -1.56913720e-05 -1.30068947e-05 -1.19374527e-05
      -1.58600014e-05 -1.46131088e-05 -1.08935610e-05 -1.20277427e-05
      -1.61467742e-05 -1.36673343e-05 -9.13335862e-06 -1.26044952e-05
      -1.66373684e-05 -1.26438663e-05 -8.52225639e-06 -1.41588735e-05
      -1.68542483e-05 -1.16633018e-05 -8.53416441e-06 -1.60421423e-05
      -1.68088700e-05 -1.11271011e-05 -9.21646642e-06 -1.73999142e-05
      -1.70612620e-05 -1.03910606e-05 -1.11530435e-05 -1.86151137e-05
      -1.65266720e-05 -9.47888475e-06 -1.27290714e-05 -1.89813982e-05
      -1.56841324e-05 -8.85111876e-06 -1.37969373e-05 -1.84603268e-05
      -1.46501061e-05 -8.11485552e-06 -1.41169285e-05 -1.74326760e-05
      -1.32883215e-05 -7.95042888e-06 -1.38216119e-05 -1.59126466e-05
      -8.36170693e-06 -1.35938526e-05 -1.05853223e-05 -8.05372292e-06
      -9.62604554e-06 -1.42928729e-05 -1.15691937e-05 -8.03366493e-06
      -1.17693753e-05 -1.54271802e-05 -1.30978788e-05 -8.94967252e-06
      -1.40580360e-05 -1.63963869e-05 -1.35785440e-05 -9.57055181e-06
      -1.56728402e-05 -1.68400202e-05 -1.36220524e-05 -1.06462048e-05
      -1.69925424e-05 -1.67663857e-05 -1.29460213e-05 -1.19010028e-05
      -1.78966075e-05 -1.62603374e-05 -1.15277599e-05 -1.26057221e-05
      -1.82251515e-05 -1.56089573e-05 -1.00098196e-05 -1.36175131e-05
      -1.84885794e-05 -1.47165038e-05 -9.22532308e-06 -1.53292385e-05
      -1.83598659e-05 -1.33938238e-05 -8.78686205e-06 -1.70239982e-05
      -1.80561219e-05 -1.19064816e-05 -8.93022025e-06 -1.81862615e-05
      -1.77450838e-05 -1.06474990e-05 -1.01694905e-05 -1.91510117e-05
      -1.67118978e-05 -9.25862332e-06 -1.14004952e-05 -1.89504044e-05
      -1.54838708e-05 -8.12300550e-06 -1.21927515e-05 -1.78540377e-05
      -1.39813628e-05 -6.97728728e-06 -1.22808160e-05 -1.62676406e-05
      -1.22416614e-05 -6.58119961e-06 -1.19106471e-05 -1.43284733e-05
      -6.62648381e-06 -1.07955257e-05 -7.98540532e-06 -5.21010952e-06
      -8.10067559e-06 -1.19693186e-05 -9.09283699e-06 -5.38678160e-06
      -1.06630469e-05 -1.35597593e-05 -1.11090494e-05 -6.76274249e-06
      -1.34438296e-05 -1.50835131e-05 -1.22114516e-05 -8.06831486e-06
      -1.57831983e-05 -1.63260556e-05 -1.27618077e-05 -9.92248624e-06
      -1.78683276e-05 -1.72383279e-05 -1.26461027e-05 -1.16750971e-05
      -1.90573828e-05 -1.76404410e-05 -1.18262233e-05 -1.27467811e-05
      -1.96666315e-05 -1.71729171e-05 -1.07655933e-05 -1.44594669e-05
      -1.97342106e-05 -1.62912020e-05 -9.73858096e-06 -1.61760527e-05
      -1.94480654e-05 -1.48594863e-05 -9.04918215e-06 -1.78466744e-05
      -1.88348586e-05 -1.30679964e-05 -8.76618560e-06 -1.90097198e-05
      -1.77884813e-05 -1.08501363e-05 -9.11939787e-06 -1.93515716e-05
      -1.62495671e-05 -8.95100493e-06 -9.82224992e-06 -1.86761044e-05
      -1.44984488e-05 -7.35329149e-06 -1.02043832e-05 -1.71415140e-05
      -1.25813485e-05 -5.74252863e-06 -1.01109781e-05 -1.52954381e-05
      -1.06239686e-05 -4.97623159e-06 -9.52347546e-06 -1.29731980e-05</_>
    <_>
      -1.60061722e-06 -2.69358424e-07 -3.01047635e-07 -2.29244506e-06
      -5.46795627e-06 -3.88299168e-06 -3.77842480e-06 -6.42627037e-06
      -7.27292900e-06 -4.57818078e-06 -4.35904576e-06 -9.05503020e-06
      -9.41804592e-06 -5.26900976e-06 -4.88301976e-06 -1.16315123e-05
      -1.12368753e-05 -5.90334412e-06 -5.19072046e-06 -1.36362705e-05
      -1.32917112e-05 -6.96715733e-06 -6.35581182e-06 -1.59926240e-05
      -1.52868379e-05 -8.56861061e-06 -7.21249762e-06 -1.79897834e-05
      -1.67768230e-05 -1.03497296e-05 -8.88058821e-06 -1.98772523e-05
      -1.82783460e-05 -1.24292555e-05 -1.02990534e-05 -2.14847605e-05
      -1.93616434e-05 -1.44398400e-05 -1.16303936e-05 -2.29886082e-05
      -1.98461548e-05 -1.61406242e-05 -1.29341179e-05 -2.26329121e-05
      -2.00124232e-05 -1.72759446e-05 -1.40607572e-05 -2.12522682e-05
      -1.91719664e-05 -1.79446743e-05 -1.46361999e-05 -1.91895506e-05
      -1.76624962e-05 -1.81497344e-05 -1.50107135e-05 -1.68394035e-05
      -1.50703063e-05 -1.72621294e-05 -1.48376530e-05 -1.41181645e-05
      -9.42744282e-06 -1.28288857e-05 -9.93143203e-06 -8.90634328e-06
      -2.49596360e-06 -1.19972560e-06 -1.48111064e-06 -3.32115224e-06
      -6.87340798e-06 -4.74575927e-06 -5.07057257e-06 -8.06058597e-06
      -8.62428169e-06 -5.54059488e-06 -5.52041820e-06 -1.08479881e-05
      -1.05524396e-05 -6.07498032e-06 -5.92535662e-06 -1.29391537e-05
      -1.25277420e-05 -6.87729971e-06 -6.42547229e-06 -1.49636098e-05
      -1.45192134e-05 -7.81486051e-06 -7.17163130e-06 -1.72696400e-05
      -1.64111480e-05 -8.84632755e-06 -8.08548430e-06 -1.94512813e-05
      -1.77944366e-05 -1.01466449e-05 -9.20988532e-06 -2.13137882e-05
      -1.89285147e-05 -1.18172475e-05 -1.06672105e-05 -2.31111135e-05
      -1.95397824e-05 -1.38695268e-05 -1.22417487e-05 -2.40313584e-05
      -1.99215556e-05 -1.57760060e-05 -1.36389808e-05 -2.34721902e-05
      -1.91563322e-05 -1.67434937e-05 -1.47858509e-05 -2.19029334e-05
      -1.78322971e-05 -1.73797071e-05 -1.56398237e-05 -1.98458256e-05
      -1.58322346e-05 -1.75008136e-05 -1.63078057e-05 -1.77780421e-05
      -1.38020941e-05 -1.67726357e-05 -1.61363132e-05 -1.52618304e-05
      -8.77425828e-06 -1.27247185e-05 -1.11978707e-05 -1.02108797e-05
      -4.09798076e-06 -2.20053084e-06 -2.92186110e-06 -5.09703932e-06
      -8.33856120e-06 -5.77353421e-06 -6.49596041e-06 -9.75265903e-06
      -1.02328686e-05 -6.45666432e-06 -6.77808839e-06 -1.21933463e-05
      -1.20339109e-05 -6.96760571e-06 -7.12095607e-06 -1.42295876e-05
      -1.39603735e-05 -7.66969788e-06 -7.31847103e-06 -1.64917201e-05
      -1.57792110e-05 -8.26235555e-06 -7.77701825e-06 -1.90665942e-05
      -1.75653240e-05 -8.97035170e-06 -8.70250733e-06 -2.13466501e-05
      -1.88092708e-05 -9.91047182e-06 -9.75902822e-06 -2.32512921e-05
      -1.94314853e-05 -1.09988705e-05 -1.09987941e-05 -2.45842020e-05
      -1.95793400e-05 -1.26348777e-05 -1.27091398e-05 -2.45765532e-05
      -1.88623053e-05 -1.46256716e-05 -1.43130674e-05 -2.36738997e-05
      -1.76458580e-05 -1.61808966e-05 -1.56795413e-05 -2.21313330e-05
      -1.59655538e-05 -1.68649167e-05 -1.68151018e-05 -2.01924140e-05
      -1.41949085e-05 -1.66628597e-05 -1.75722344e-05 -1.82997301e-05
      -1.23268774e-05 -1.60921845e-05 -1.74468223e-05 -1.62032320e-05
      -7.92100764e-06 -1.25722345e-05 -1.25436836e-05 -1.13570377e-05
      -5.36440757e-06 -3.43206671e-06 -4.52422046e-06 -6.62259527e-06
      -9.68499353e-06 -6.91968307e-06 -7.86382680e-06 -1.07682845e-05
      -1.16164683e-05 -7.47018566e-06 -7.97578286e-06 -1.32312889e-05
      -1.35123091e-05 -7.89490969e-06 -8.26677933e-06 -1.54284917e-05
      -1.53220135e-05 -8.38484266e-06 -8.21106278e-06 -1.79955241e-05
      -1.69303894e-05 -8.71863085e-06 -8.35257015e-06 -2.06615459e-05
      -1.81769228e-05 -8.94680761e-06 -9.10459312e-06 -2.33174069e-05
      -1.89981110e-05 -9.50250524e-06 -1.00607731e-05 -2.49613586e-05
      -1.92605130e-05 -1.03775037e-05 -1.13593078e-05 -2.52972732e-05
      -1.87702499e-05 -1.17812287e-05 -1.29883174e-05 -2.43599316e-05
      -1.75259302e-05 -1.33223202e-05 -1.47806431e-05 -2.34230265e-05
      -1.57881605e-05 -1.51568829e-05 -1.63937966e-05 -2.19446465e-05
      -1.40723614e-05 -1.59606134e-05 -1.78562605e-05 -2.02401880e-05
      -1.24567405e-05 -1.60118725e-05 -1.87926653e-05 -1.87951646e-05
      -1.06552361e-05 -1.54928039e-05 -1.86947509e-05 -1.70988787e-05
      -6.89706349e-06 -1.24926764e-05 -1.37525285e-05 -1.25615006e-05
      -7.14073758e-06 -5.29865929e-06 -6.33417358e-06 -8.07151901e-06
      -1.13107126e-05 -8.53849724e-06 -9.30461829e-06 -1.19205251e-05
      -1.32080495e-05 -8.85193822e-06 -9.27740712e-06 -1.43971974e-05
      -1.51829972e-05 -8.87058286e-06 -9.18529531e-06 -1.69926116e-05
      -1.63468849e-05 -9.06733749e-06 -9.18949354e-06 -1.96317578e-05
      -1.77173479e-05 -9.05804700e-06 -9.23267362e-06 -2.24644118e-05
      -1.86398411e-05 -8.89758303e-06 -9.83111659e-06 -2.43610975e-05
      -1.91324234e-05 -8.93281685e-06 -1.05416802e-05 -2.50749490e-05
      -1.85745430e-05 -9.36277593e-06 -1.17557374e-05 -2.45294432e-05
      -1.75315163e-05 -1.04908013e-05 -1.31935685e-05 -2.37080330e-05
      -1.58020648e-05 -1.18367188e-05 -1.51248723e-05 -2.28106273e-05
      -1.36954559e-05 -1.34629372e-05 -1.70182284e-05 -2.15595610e-05
      -1.20141676e-05 -1.47738274e-05 -1.85977278e-05 -2.02806805e-05
      -1.04073397e-05 -1.52707726e-05 -1.96384390e-05 -1.92387506e-05
      -9.08608945e-06 -1.50477454e-05 -1.95832108e-05 -1.79920407e-05
      -5.93090863e-06 -1.24551698e-05 -1.44201113e-05 -1.37650495e-05
      -8.92242770e-06 -7.18730189e-06 -8.92751450e-06 -9.56381882e-06
      -1.29547479e-05 -1.00747266e-05 -1.11292993e-05 -1.31832549e-05
      -1.47994560e-05 -1.04020464e-05 -1.07129390e-05 -1.55328835e-05
      -1.62418419e-05 -1.02143704e-05 -1.02323002e-05 -1.81566484e-05
      -1.74014513e-05 -9.84027247e-06 -1.03264529e-05 -2.08105193e-05
      -1.81857831e-05 -9.42501083e-06 -1.03979010e-05 -2.28935933e-05
      -1.86287743e-05 -8.72273085e-06 -1.08903441e-05 -2.35223306e-05
      -1.83044122e-05 -8.28786688e-06 -1.13996466e-05 -2.34169802e-05
      -1.72753153e-05 -8.38835513e-06 -1.23792306e-05 -2.32767416e-05
      -1.54128684e-05 -9.16204772e-06 -1.34703541e-05 -2.26550856e-05
      -1.33583299e-05 -1.00677025e-05 -1.54802729e-05 -2.18185578e-05
      -1.11444206e-05 -1.16288147e-05 -1.75747264e-05 -2.09511309e-05
      -9.46094315e-06 -1.28260190e-05 -1.92599819e-05 -2.01309849e-05
      -8.23053415e-06 -1.36678345e-05 -2.00605537e-05 -1.94875483e-05
      -5.22317123e-06 -1.21351895e-05 -1.98675189e-05 -1.88060912e-05
      -4.72686133e-06 -1.22569709e-05 -1.48058880e-05 -1.44821852e-05
      -1.08301992e-05 -9.09937899e-06 -1.05741483e-05 -1.06559883e-05
      -1.44293745e-05 -1.16403880e-05 -1.26883424e-05 -1.40166030e-05
      -1.59422816e-05 -1.16540905e-05 -1.19440465e-05 -1.60613072e-05
      -1.70616095e-05 -1.15366265e-05 -1.12216558e-05 -1.81440573e-05
      -1.78278879e-05 -1.09584334e-05 -1.14122040e-05 -2.01972416e-05
      -1.82913682e-05 -1.02803533e-05 -1.18840389e-05 -2.11283823e-05
      -1.80849638e-05 -9.30599981e-06 -1.23946738e-05 -2.18480636e-05
      -1.70468957e-05 -8.40814482e-06 -1.27246503e-05 -2.21343016e-05
      -1.53070105e-05 -7.91520870e-06 -1.32343184e-05 -2.17741308e-05
      -1.33955346e-05 -8.13865063e-06 -1.39283002e-05 -2.11564766e-05
      -1.11472464e-05 -6.74409193e-06 -1.57813665e-05 -2.04014832e-05
      -9.19308695e-06 -8.33040940e-06 -1.78208920e-05 -2.00196118e-05
      -7.86019609e-06 -9.65552681e-06 -1.93464275e-05 -1.97020090e-05
      -6.92673757e-06 -1.03359298e-05 -2.01857638e-05 -1.94004260e-05
      -4.22580160e-06 -1.08948889e-05 -1.97498484e-05 -1.85681947e-05
      -3.76312505e-06 -1.13028718e-05 -1.50184769e-05 -1.46284356e-05
      -1.22765723e-05 -1.09913408e-05 -1.18829184e-05 -1.12808866e-05
      -1.53345336e-05 -1.31544530e-05 -1.36142862e-05 -1.39429039e-05
      -1.65467663e-05 -1.30255494e-05 -1.28173524e-05 -1.51241102e-05
      -1.74299566e-05 -1.27049179e-05 -1.20234217e-05 -1.61963217e-05
      -1.79230865e-05 -1.22215652e-05 -1.28175234e-05 -1.80745028e-05
      -1.77306792e-05 -1.14144605e-05 -1.36057606e-05 -1.96592118e-05
      -1.71371357e-05 -1.02918775e-05 -1.40479051e-05 -2.03917571e-05
      -1.58176153e-05 -9.08942184e-06 -1.43020588e-05 -2.05000706e-05
      -1.38402747e-05 -8.49014395e-06 -1.45033300e-05 -2.00467184e-05
      -1.18108237e-05 -8.28730845e-06 -1.48141153e-05 -1.92259158e-05
      -9.83284735e-06 -6.83437156e-06 -1.62190227e-05 -1.87373589e-05
      -6.15293811e-06 -8.18771514e-06 -1.79667986e-05 -1.85045101e-05
      -5.01747081e-06 -9.04311401e-06 -1.92921088e-05 -1.86964862e-05
      -4.17944284e-06 -9.50935282e-06 -2.01802613e-05 -1.89356651e-05
      -3.46252273e-06 -9.99931217e-06 -1.93867472e-05 -1.80811076e-05
      -3.21455286e-06 -1.02886188e-05 -1.53577403e-05 -1.47524934e-05
      -1.28663132e-05 -1.21395578e-05 -1.27316871e-05 -1.15246157e-05
      -1.37924690e-05 -1.21874873e-05 -1.21918265e-05 -1.18532735e-05
      -1.46977227e-05 -1.20588684e-05 -1.14031764e-05 -1.23052332e-05
      -1.52981320e-05 -1.17949785e-05 -1.06447333e-05 -1.26585837e-05
      -1.53931869e-05 -1.13984024e-05 -1.41722212e-05 -1.66047303e-05
      -1.50052247e-05 -1.07430151e-05 -1.53198180e-05 -1.82440526e-05
      -1.42951912e-05 -9.77700529e-06 -1.58538824e-05 -1.89013226e-05
      -1.30849439e-05 -8.71437351e-06 -1.60055170e-05 -1.88647209e-05
      -1.14694576e-05 -7.96939639e-06 -1.58642288e-05 -1.81378400e-05
      -9.86785381e-06 -7.63370736e-06 -1.58671501e-05 -1.72803066e-05
      -8.27257372e-06 -7.80911250e-06 -1.67993094e-05 -1.71427037e-05
      -6.76440413e-06 -8.65809307e-06 -1.81710857e-05 -1.72493073e-05
      -5.64058564e-06 -9.00189480e-06 -1.92934476e-05 -1.77444508e-05
      -4.72647844e-06 -9.23005700e-06 -2.01413259e-05 -1.81919277e-05
      -4.16535931e-06 -9.40653626e-06 -1.90490082e-05 -1.74416200e-05
      -3.70856446e-06 -9.59599311e-06 -1.59352239e-05 -1.49735988e-05
      -1.31418701e-05 -1.22558777e-05 -1.26011728e-05 -1.13942615e-05
      -1.38409441e-05 -1.24502694e-05 -1.21541470e-05 -1.13816513e-05
      -1.47242208e-05 -1.26221967e-05 -1.17735899e-05 -1.14609875e-05
      -1.54498448e-05 -1.28746324e-05 -1.15861349e-05 -1.14698842e-05
      -1.58972853e-05 -1.30359012e-05 -1.52227576e-05 -1.48301642e-05
      -1.59867068e-05 -1.28317042e-05 -1.67836915e-05 -1.62689794e-05
      -1.54049812e-05 -1.22055353e-05 -1.73393182e-05 -1.66878817e-05
      -1.43444859e-05 -1.12475509e-05 -1.74338329e-05 -1.67806957e-05
      -1.28910333e-05 -1.03724551e-05 -1.72761611e-05 -1.62660072e-05
      -1.12600910e-05 -9.64696574e-06 -1.70139956e-05 -1.57903432e-05
      -9.77151012e-06 -9.40433165e-06 -1.74807465e-05 -1.59430474e-05
      -8.34492312e-06 -9.83566952e-06 -1.85867702e-05 -1.65695492e-05
      -7.06743458e-06 -9.73482111e-06 -1.97314876e-05 -1.72390264e-05
      -6.09581957e-06 -9.57476095e-06 -2.02012397e-05 -1.74844845e-05
      -5.26385202e-06 -9.49381138e-06 -1.88578306e-05 -1.65953097e-05
      -4.70915347e-06 -9.36199558e-06 -1.66239588e-05 -1.52195780e-05
      -1.27444155e-05 -1.16277988e-05 -1.19054530e-05 -1.05994659e-05
      -1.32877258e-05 -1.18388007e-05 -1.14960849e-05 -1.02968706e-05
      -1.41158589e-05 -1.21763915e-05 -1.13609312e-05 -1.00009156e-05
      -1.61769567e-05 -1.38733913e-05 -1.27773510e-05 -1.07943579e-05
      -1.73668413e-05 -1.48454665e-05 -1.54632762e-05 -1.27951143e-05
      -1.82751864e-05 -1.55051894e-05 -1.73565022e-05 -1.40505053e-05
      -1.85721656e-05 -1.57940030e-05 -1.83302200e-05 -1.44611140e-05
      -1.81900887e-05 -1.54003028e-05 -1.84888158e-05 -1.43539191e-05
      -1.71805441e-05 -1.45331314e-05 -1.83860193e-05 -1.46592583e-05
      -1.55736197e-05 -1.35595992e-05 -1.80916086e-05 -1.48707250e-05
      -1.36878170e-05 -1.27392841e-05 -1.81227988e-05 -1.55342514e-05
      -1.18481985e-05 -1.24079870e-05 -1.90370156e-05 -1.64828780e-05
      -1.03764351e-05 -1.17513182e-05 -2.01967105e-05 -1.71372794e-05
      -7.97971552e-06 -1.02957092e-05 -2.00953200e-05 -1.70612511e-05
      -6.95912877e-06 -9.87895692e-06 -1.86106045e-05 -1.61083899e-05
      -6.13421389e-06 -9.61566184e-06 -1.72510317e-05 -1.53486108e-05
      -1.12170728e-05 -1.04348192e-05 -1.02794766e-05 -9.04934950e-06
      -1.17303262e-05 -1.06005837e-05 -1.01702744e-05 -8.60280670e-06
      -1.25652405e-05 -1.11062682e-05 -1.01317264e-05 -8.12427606e-06
      -1.51541190e-05 -1.30465814e-05 -1.18945873e-05 -8.75962814e-06
      -1.71747088e-05 -1.47706851e-05 -1.48846457e-05 -1.05515828e-05
      -1.88045942e-05 -1.62821725e-05 -1.70539261e-05 -1.16572528e-05
      -1.99403294e-05 -1.73300050e-05 -1.82458771e-05 -1.21850962e-05
      -2.02494757e-05 -1.76330377e-05 -1.88414688e-05 -1.27586363e-05
      -1.97472782e-05 -1.72199507e-05 -1.89589391e-05 -1.36893032e-05
      -1.86507095e-05 -1.64511657e-05 -1.87252408e-05 -1.45236872e-05
      -1.67297658e-05 -1.53547808e-05 -1.85618210e-05 -1.55200451e-05
      -1.47948858e-05 -1.42849694e-05 -1.91368927e-05 -1.65464662e-05
      -1.26715167e-05 -1.29322661e-05 -1.99522783e-05 -1.71800457e-05
      -1.09913226e-05 -1.18314283e-05 -1.98007183e-05 -1.69949071e-05
      -8.99652605e-06 -1.03242146e-05 -1.82269196e-05 -1.49082389e-05
      -8.01858187e-06 -9.81864923e-06 -1.75825407e-05 -1.55756297e-05
      -9.49882815e-06 -9.27078872e-06 -8.66505434e-06 -7.02576517e-06
      -1.00048437e-05 -9.38186986e-06 -8.72110559e-06 -6.72312581e-06
      -1.08452714e-05 -9.86780924e-06 -8.85743975e-06 -6.39532391e-06
      -1.38265341e-05 -1.19706538e-05 -1.07851547e-05 -7.08480866e-06
      -1.61599710e-05 -1.40880138e-05 -1.36915587e-05 -8.96605343e-06
      -1.85460340e-05 -1.62180040e-05 -1.60283726e-05 -1.01503692e-05
      -2.00019458e-05 -1.80414427e-05 -1.75756977e-05 -1.09228340e-05
      -2.12015166e-05 -1.90213977e-05 -1.84019063e-05 -1.18344851e-05
      -2.14348674e-05 -1.93043797e-05 -1.89110251e-05 -1.30740045e-05
      -2.06350687e-05 -1.88351241e-05 -1.88042814e-05 -1.44001160e-05
      -1.94814402e-05 -1.74590932e-05 -1.87282058e-05 -1.54586287e-05
      -1.73868357e-05 -1.59007395e-05 -1.92344614e-05 -1.65343954e-05
      -1.51187587e-05 -1.40028415e-05 -1.93938140e-05 -1.72119398e-05
      -1.29149785e-05 -1.24810294e-05 -1.90823375e-05 -1.69250234e-05
      -1.08542954e-05 -1.08280401e-05 -1.70160583e-05 -1.47755345e-05
      -9.83837890e-06 -1.01116639e-05 -1.75221667e-05 -1.57251288e-05
      -7.61919864e-06 -8.19165325e-06 -7.35985304e-06 -5.63288540e-06
      -8.34781622e-06 -8.40186931e-06 -7.47352260e-06 -5.43835858e-06
      -9.24721735e-06 -8.83480516e-06 -7.58413034e-06 -5.14859585e-06
      -1.24960379e-05 -1.11907984e-05 -9.57498378e-06 -6.02143427e-06
      -1.50908672e-05 -1.34489101e-05 -1.22869023e-05 -7.95231972e-06
      -1.72807977e-05 -1.57881259e-05 -1.45011500e-05 -9.14129305e-06
      -1.94252571e-05 -1.75879522e-05 -1.61836597e-05 -1.02891199e-05
      -2.08775909e-05 -1.90821775e-05 -1.73433309e-05 -1.13011483e-05
      -2.16373701e-05 -1.98931830e-05 -1.81815158e-05 -1.27118592e-05
      -2.17068646e-05 -2.00240829e-05 -1.85161625e-05 -1.41099581e-05
      -2.11415281e-05 -1.92248226e-05 -1.85332010e-05 -1.52391412e-05
      -1.97780228e-05 -1.71675747e-05 -1.88549984e-05 -1.63291461e-05
      -1.74249635e-05 -1.51033328e-05 -1.87683945e-05 -1.69410214e-05
      -1.48266317e-05 -1.30462622e-05 -1.84155251e-05 -1.67747385e-05
      -1.27255935e-05 -1.13437882e-05 -1.66123082e-05 -1.49010712e-05
      -1.15085904e-05 -1.03460570e-05 -1.71481915e-05 -1.55600883e-05
      -6.70792770e-06 -7.05262573e-06 -6.39484369e-06 -4.86186400e-06
      -7.34367313e-06 -7.38941844e-06 -6.52179324e-06 -4.78073707e-06
      -8.24721246e-06 -7.87363842e-06 -6.53303823e-06 -4.62594744e-06
      -1.13432288e-05 -1.03046814e-05 -8.56765200e-06 -5.56576151e-06
      -1.39323447e-05 -1.25332263e-05 -1.08141803e-05 -7.35712365e-06
      -1.62397901e-05 -1.47652836e-05 -1.29475238e-05 -8.63755668e-06
      -1.83928296e-05 -1.67747421e-05 -1.46817938e-05 -9.83198970e-06
      -2.00571958e-05 -1.83836582e-05 -1.60692689e-05 -1.09023013e-05
      -2.12334780e-05 -1.96007732e-05 -1.71599277e-05 -1.22642896e-05
      -2.17126271e-05 -2.01458952e-05 -1.77819093e-05 -1.36573772e-05
      -2.16148583e-05 -1.97227528e-05 -1.78384071e-05 -1.47179653e-05
      -2.05358519e-05 -1.83797038e-05 -1.81635696e-05 -1.57297418e-05
      -1.86863199e-05 -1.59064621e-05 -1.80602347e-05 -1.64246430e-05
      -1.63330878e-05 -1.34769871e-05 -1.75168261e-05 -1.66185891e-05
      -1.45009672e-05 -1.17365735e-05 -1.59524534e-05 -1.50605247e-05
      -1.32327723e-05 -1.06436119e-05 -1.65847650e-05 -1.54590198e-05
      -6.05800142e-06 -6.54560654e-06 -6.04802290e-06 -4.24952441e-06
      -6.73631939e-06 -6.76816944e-06 -6.06868070e-06 -4.17999490e-06
      -7.27915904e-06 -7.12970041e-06 -5.91627577e-06 -4.14498709e-06
      -1.00913658e-05 -9.32706462e-06 -7.66738776e-06 -5.11695998e-06
      -1.26006944e-05 -1.15558141e-05 -9.62851391e-06 -6.93000584e-06
      -1.47825403e-05 -1.35106493e-05 -1.15954044e-05 -8.34387902e-06
      -1.69775412e-05 -1.56235692e-05 -1.32697605e-05 -9.53502422e-06
      -1.89111979e-05 -1.72418368e-05 -1.47765641e-05 -1.05952540e-05
      -2.02968367e-05 -1.86673824e-05 -1.60096351e-05 -1.18927210e-05
      -2.09590580e-05 -1.95504745e-05 -1.67328635e-05 -1.31378883e-05
      -2.14140182e-05 -1.95170032e-05 -1.69026061e-05 -1.40772745e-05
      -2.09345344e-05 -1.86065699e-05 -1.71803094e-05 -1.51576487e-05
      -1.94346248e-05 -1.65578458e-05 -1.70591593e-05 -1.59155661e-05
      -1.72496329e-05 -1.39752274e-05 -1.65760521e-05 -1.64658795e-05
      -1.56983842e-05 -1.20947107e-05 -1.49274283e-05 -1.51118493e-05
      -1.44961450e-05 -1.09994380e-05 -1.59722767e-05 -1.55323814e-05</_>
    <_>
      -4.83838558e-05 0. -1.03437058e-04 -5.86184797e-05 -1.12085218e-06
      -1.01997546e-06 -1.02082486e-04 -4.91348292e-05 -1.03280137e-04
      -5.84503505e-05 -2.54942624e-05 -2.05115930e-06 -6.27019763e-05
      -6.74942421e-05 -5.97617509e-05 -2.52191739e-06 -1.95028269e-06
      -1.83819748e-06 -2.81333882e-06 -6.60473743e-05 -5.95263700e-05
      -2.10720191e-06 -2.80213021e-06 -2.85817282e-06 -2.84696443e-06
      -2.01837756e-05 -1.86904144e-05 -5.78062100e-05 -2.85817282e-06
      -2.84696443e-06 -2.15203613e-06 -2.35378957e-06 -1.91499639e-05
      -5.78622494e-05 -2.17445313e-06 -2.18566174e-06 -2.10720191e-06
      -2.28653835e-06 -2.14082752e-06 -2.11841052e-06 -1.82698898e-06
      -1.97269969e-06 -2.07357652e-06 -1.99511669e-06 -1.43469072e-06
      -1.69248676e-06 -1.84940598e-06 -1.81578048e-06 -1.13206067e-06
      -1.36743961e-06 -1.56919293e-06 -1.54677593e-06 0. -1.09843506e-06
      -1.24414589e-06 -1.23293739e-06 0. 0. -1.12085212e-08
      -1.12085212e-08 -1.12085212e-08 -1.12085212e-08 -2.24170424e-08
      -2.24170424e-08 -4.83614385e-05 -2.24170424e-08 -1.03437058e-04
      -5.86296883e-05 -1.06480957e-06 -9.86349846e-07 -1.02071281e-04
      -4.91348292e-05 -1.03134429e-04 -5.83718938e-05 -2.54942624e-05
      -2.03995091e-06 -1.52435894e-06 -1.37864811e-06 -2.51070878e-06
      -2.48829178e-06 -1.78215487e-06 -1.62523554e-06 -2.79092183e-06
      -2.82454744e-06 -1.96149131e-06 -1.86061447e-06 -2.79092183e-06
      -2.83575582e-06 -2.09599352e-06 -2.06236791e-06 -2.35378957e-06
      -2.64521100e-06 -2.12961913e-06 -2.09599352e-06 -2.18566174e-06
      -2.36499795e-06 -2.07357652e-06 -2.08478491e-06 -2.33137234e-06
      -2.33137234e-06 -1.86061447e-06 -1.96149131e-06 -9.81377816e-05
      -5.50212389e-05 -1.58040154e-06 -1.79336337e-06 -2.10720191e-06
      -2.07357652e-06 -3.18049351e-05 -6.36573313e-05 -5.90892378e-05
      -1.84940598e-06 -1.07601807e-06 -1.23293739e-06 -1.56919293e-06
      -3.20851468e-05 -5.72398312e-05 -1.06480957e-06 -1.26656289e-06
      -1.24414589e-06 -3.36255646e-08 -3.36255646e-08 -3.36255646e-08
      -3.36255646e-08 -4.48340849e-08 -4.48340849e-08 -4.48340849e-08
      -4.48340849e-08 -4.83278127e-05 -5.60426052e-08 -1.03425853e-04
      -5.86521055e-05 -1.00876696e-06 -9.41515793e-07 -1.02060068e-04
      -4.91460341e-05 -1.03033555e-04 -5.82822249e-05 -2.54830538e-05
      -2.03995091e-06 -5.79390507e-05 -6.33434902e-05 -5.97057078e-05
      -2.38741495e-06 -1.54677593e-06 -1.41227372e-06 -2.75729622e-06
      -2.77971321e-06 -1.70369526e-06 -1.59161004e-06 -2.76850483e-06
      -2.81333882e-06 -1.82698898e-06 -1.73732076e-06 -2.36499795e-06
      -2.53312578e-06 -1.84940598e-06 -1.82698898e-06 -2.25291274e-06
      -2.37620657e-06 -1.79336337e-06 -1.80457187e-06 -2.51070878e-06
      -2.52191739e-06 -1.59161004e-06 -1.69248676e-06 -9.83843711e-05
      -5.51669473e-05 -1.40106511e-06 -1.55798443e-06 -2.12961913e-06
      -2.11841052e-06 -8.39947024e-05 -6.34107419e-05 -5.91004464e-05
      -1.87182309e-06 -1.01997546e-06 -1.12085218e-06 -1.58040154e-06
      -8.44094175e-05 -5.72734571e-05 -1.00876696e-06 -1.27777139e-06
      -1.26656289e-06 -5.60426052e-08 -5.60426052e-08 -6.72511291e-08
      -6.72511291e-08 -6.72511291e-08 -6.72511291e-08 -7.84596494e-08
      -7.84596494e-08 -4.83053955e-05 -7.84596494e-08 -1.03414641e-04
      -5.86633141e-05 -9.52724292e-07 -9.19098738e-07 -1.02060068e-04
      -4.91460341e-05 -1.02932674e-04 -5.82149733e-05 -2.54830538e-05
      -2.03995091e-06 -1.10117609e-04 -6.32201991e-05 -5.95487872e-05
      -2.32016396e-06 -1.24414589e-06 -1.21052028e-06 -2.65641961e-06
      -2.73487922e-06 -1.38985661e-06 -1.35623111e-06 -2.74608760e-06
      -2.77971321e-06 -1.51315032e-06 -1.42348222e-06 -2.38741495e-06
      -2.49950017e-06 -1.53556743e-06 -1.51315032e-06 -2.32016396e-06
      -2.38741495e-06 -1.44589922e-06 -1.46831633e-06 -2.55554278e-06
      -2.55554278e-06 -1.36743961e-06 -1.38985661e-06 -9.84292055e-05
      -5.53687023e-05 -1.18810328e-06 -1.25535439e-06 -2.15203613e-06
      -2.14082752e-06 -1.36206887e-04 -6.32650335e-05 -5.91004464e-05
      -1.88303159e-06 -9.63932848e-07 -1.03118396e-06 -1.60281854e-06
      -1.36733695e-04 -5.72958743e-05 -9.52724292e-07 -1.28897989e-06
      -1.27777139e-06 -8.96681698e-08 -8.96681698e-08 -8.96681698e-08
      -8.96681698e-08 -1.00876690e-07 -1.00876690e-07 -1.00876690e-07
      -1.00876690e-07 -4.82941869e-05 -1.12085210e-07 -1.03403436e-04
      -5.86745227e-05 -9.07890239e-07 -8.85473185e-07 -1.02048863e-04
      -4.91460341e-05 -1.02865422e-04 -5.81477216e-05 -2.54718452e-05
      -2.02874230e-06 -1.00876696e-06 -9.97558345e-07 -2.29774696e-06
      -2.29774696e-06 -1.07601807e-06 -1.05360095e-06 -2.64521100e-06
      -2.65641961e-06 -1.15447767e-06 -1.10964356e-06 -2.73487922e-06
      -2.75729622e-06 -1.18810328e-06 -1.16568617e-06 -2.39862356e-06
      -2.48829178e-06 -1.40167103e-04 -1.40155884e-04 -1.41299155e-04
      -1.41355209e-04 -1.17689478e-06 -1.17689478e-06 -2.63400239e-06
      -2.63400239e-06 -1.10964356e-06 -1.14326917e-06 -2.54433439e-06
      -2.53312578e-06 -1.04239246e-06 -1.08722656e-06 -2.17445313e-06
      -2.16324452e-06 -9.75141347e-07 -1.56490319e-06 -1.89424009e-06
      -1.89424009e-06 -9.07890239e-07 -9.52724292e-07 -1.61402704e-06
      -4.52082495e-05 -1.12085210e-07 -9.07890239e-07 -1.30018850e-06
      -1.30018850e-06 -1.12085210e-07 -3.49874608e-05 -1.23293731e-07
      -1.23293731e-07 -1.23293731e-07 -1.23293731e-07 -1.34502258e-07
      -1.34502258e-07 -4.75432171e-05 -1.34502258e-07 -1.03369806e-04
      -5.86857313e-05 -1.45710771e-07 -1.45710771e-07 -1.02015234e-04
      -4.91572428e-05 -1.02047205e-04 -5.73631260e-05 -2.54270108e-05
      -2.00632530e-06 -2.57685242e-05 -6.39134669e-05 -6.49196081e-05
      -5.56670420e-05 -2.57685242e-05 -2.74033064e-05 -2.70885012e-05
      -2.92682107e-05 -2.74145150e-05 -2.46898762e-05 -2.93690882e-05
      -3.42734384e-05 -2.52348054e-05 -7.86377277e-05 -3.53331325e-06
      -2.44345756e-06 -1.79336340e-07 -1.79336340e-07 -2.40983218e-06
      -2.40983218e-06 -1.79336340e-07 -1.79336340e-07 -2.66762800e-06
      -2.66762800e-06 -1.90544867e-07 -1.90544867e-07 -2.56675139e-06
      -2.56675139e-06 -1.90544867e-07 -1.90544867e-07 -2.19687013e-06
      -2.19687013e-06 -5.74191690e-05 -5.41496011e-05 -5.69319454e-05
      -6.45721375e-05 -6.12336589e-05 -5.41496011e-05 -5.88538605e-05
      -2.77929757e-05 -2.63694947e-05 -2.63694947e-05 -3.29059985e-05
      -2.74679296e-05 -2.58245673e-05 -2.63694947e-05 -2.63807033e-05
      -2.63807033e-05 -3.18299790e-05 -2.63807033e-05 -2.63919119e-05
      -3.18411876e-05 -4.76440946e-05 -2.35378948e-07 -1.03381019e-04
      -5.86969400e-05 -2.46587462e-07 -2.46587462e-07 -1.02015234e-04
      -4.91684514e-05 -1.02148078e-04 -5.74640035e-05 -2.54382194e-05
      -2.00632530e-06 -9.61650803e-05 -6.56491247e-05 -5.94815356e-05
      -2.26412135e-06 -2.57795989e-07 -2.57795989e-07 -2.57795978e-06
      -2.81895645e-05 -5.42168527e-05 -5.74864207e-05 -2.88353694e-05
      -2.88353694e-05 -2.64255377e-05 -3.18748134e-05 -2.85999904e-05
      -2.85999904e-05 -2.64367463e-05 -2.64367463e-05 -2.85663646e-05
      -2.85663646e-05 -2.64367463e-05 -2.64367463e-05 -3.42846470e-05
      -2.93802968e-05 -2.53580984e-05 -2.64479531e-05 -2.81895645e-05
      -6.63345054e-05 -5.36943407e-05 -2.75378097e-05 -2.78084754e-05
      -2.94432575e-05 -2.70040910e-05 -2.59142344e-05 -2.91518372e-05
      -2.64271985e-05 -2.53693070e-05 -2.91838005e-05 -2.72480484e-05
      -2.88940410e-05 -2.70152996e-05 -2.53805156e-05 -3.01925684e-05
      -3.29172071e-05 -2.53805156e-05 -2.81051543e-05 -3.25047125e-07
      -2.70265082e-05 -2.75714356e-05 -3.25047125e-07 -3.36255624e-07
      -3.36255624e-07 -5.15594656e-05 -3.36255624e-07 -1.03381019e-04
      -5.86969400e-05 -3.47464152e-07 -3.47464152e-07 -4.09945351e-05
      -5.29829485e-05 -1.02248952e-04 -5.75648774e-05 -2.54382194e-05
      -2.01753392e-06 -9.62659615e-05 -8.04630545e-05 -6.00264648e-05
      -2.27532973e-06 -3.58672679e-07 -3.58672679e-07 -2.58916839e-06
      -9.84964572e-05 -5.81322238e-05 -3.69881207e-07 -2.69004499e-06
      -2.69004499e-06 -3.69881207e-07 -3.69881207e-07 -2.45466617e-06
      -2.45466617e-06 -3.81089734e-07 -3.81089734e-07 -2.42104056e-06
      -2.42104056e-06 -3.81089734e-07 -3.81089734e-07 -2.69004499e-06
      -2.69004499e-06 -3.92298233e-07 -3.92298233e-07 -2.58916839e-06
      -2.58916839e-06 -3.92298233e-07 -3.92298233e-07 -2.20807874e-06
      -2.20807874e-06 -4.03506760e-07 -4.03506760e-07 -1.90544858e-06
      -1.91665708e-06 -4.03506760e-07 -4.03506760e-07 -1.64765265e-06
      -1.64765265e-06 -4.14715288e-07 -4.14715288e-07 -1.31139700e-06
      -1.32260550e-06 -4.14715288e-07 -4.14715288e-07 -4.25923815e-07
      -4.25923815e-07 -4.25923815e-07 -4.25923815e-07 -4.37132343e-07
      -4.37132343e-07 -4.78458460e-05 -4.37132343e-07 -1.03392224e-04
      -5.87081486e-05 -4.48340842e-07 -4.48340842e-07 -1.02026446e-04
      -4.91796600e-05 -1.02349833e-04 -5.76657549e-05 -2.54494280e-05
      -2.01753392e-06 -4.59549369e-07 -4.59549369e-07 -2.27532973e-06
      -2.27532973e-06 -4.59549369e-07 -4.59549369e-07 -2.60037700e-06
      -2.60037700e-06 -4.70757897e-07 -4.70757897e-07 -2.70125361e-06
      -2.70125361e-06 -4.70757897e-07 -4.70757897e-07 -2.45466617e-06
      -2.45466617e-06 -4.81966424e-07 -4.81966424e-07 -2.42104056e-06
      -2.42104056e-06 -4.81966424e-07 -4.81966424e-07 -2.70125361e-06
      -2.70125361e-06 -4.93174923e-07 -4.93174923e-07 -2.60037700e-06
      -2.60037700e-06 -4.93174923e-07 -4.93174923e-07 -2.20807874e-06
      -2.20807874e-06 -5.04383479e-07 -5.04383479e-07 -1.91665708e-06
      -1.91665708e-06 -5.04383479e-07 -5.04383479e-07 -1.64765265e-06
      -1.65886115e-06 -5.15591978e-07 -5.15591978e-07 -1.32260550e-06
      -1.32260550e-06 -5.15591978e-07 -5.15591978e-07 -5.26800477e-07
      -5.26800477e-07 -5.26800477e-07 -5.26800477e-07 -5.38009033e-07
      -5.38009033e-07 -4.79467235e-05 -5.38009033e-07 -1.03392224e-04
      -5.87081486e-05 -5.49217532e-07 -5.49217532e-07 -1.02037651e-04
      -4.91796600e-05 -1.02450707e-04 -5.77666324e-05 -2.54494280e-05
      -2.02874230e-06 -5.60426088e-07 -5.60426088e-07 -2.27532973e-06
      -2.28653835e-06 -5.60426088e-07 -5.60426088e-07 -2.61158539e-06
      -2.61158539e-06 -5.71634587e-07 -5.71634587e-07 -2.71246222e-06
      -2.71246222e-06 -5.71634587e-07 -5.71634587e-07 -2.46587479e-06
      -2.46587479e-06 -5.82843086e-07 -5.82843086e-07 -2.43224918e-06
      -2.43224918e-06 -5.82843086e-07 -5.82843086e-07 -2.71246222e-06
      -2.71246222e-06 -5.94051642e-07 -5.94051642e-07 -2.61158539e-06
      -2.61158539e-06 -5.94051642e-07 -5.94051642e-07 -2.21928713e-06
      -2.21928713e-06 -6.05260141e-07 -6.05260141e-07 -1.91665708e-06
      -1.92786570e-06 -6.05260141e-07 -6.05260141e-07 -1.65886115e-06
      -1.65886115e-06 -6.16468697e-07 -6.16468697e-07 -1.32260550e-06
      -1.33381400e-06 -6.16468697e-07 -6.16468697e-07 -6.27677196e-07
      -6.27677196e-07 -6.27677196e-07 -6.27677196e-07 -6.38885695e-07
      -6.38885695e-07 -4.80476010e-05 -6.38885695e-07 -1.03403436e-04
      -5.87193572e-05 -6.50094250e-07 -6.50094250e-07 -1.02037651e-04
      -4.91908686e-05 -1.02551588e-04 -5.78675099e-05 -2.54606366e-05
      -2.02874230e-06 -6.61302749e-07 -6.61302749e-07 -2.28653835e-06
      -2.28653835e-06 -6.61302749e-07 -6.61302749e-07 -2.62279400e-06
      -2.62279400e-06 -6.72511248e-07 -6.72511248e-07 -2.72367060e-06
      -2.72367060e-06 -6.72511248e-07 -6.72511248e-07 -2.46587479e-06
      -2.46587479e-06 -6.83719804e-07 -6.83719804e-07 -2.43224918e-06
      -2.43224918e-06 -6.83719804e-07 -6.83719804e-07 -2.72367060e-06
      -2.72367060e-06 -6.94928303e-07 -6.94928303e-07 -2.62279400e-06
      -2.62279400e-06 -6.94928303e-07 -6.94928303e-07 -2.21928713e-06
      -2.21928713e-06 -7.06136859e-07 -7.06136859e-07 -1.92786570e-06
      -1.92786570e-06 -7.06136859e-07 -7.06136859e-07 -1.65886115e-06
      -1.67006965e-06 -7.17345358e-07 -7.17345358e-07 -1.33381400e-06
      -1.33381400e-06 -7.17345358e-07 -7.17345358e-07 -7.28553857e-07
      -7.28553857e-07 -7.28553857e-07 -7.28553857e-07 -7.39762413e-07
      -7.39762413e-07 -4.81484785e-05 -9.19098738e-07 -1.03358601e-04
      -5.86745227e-05 -9.19098738e-07 -9.63932848e-07 -1.01992817e-04
      -4.91348292e-05 -1.02876635e-04 -5.82485991e-05 -2.54270108e-05
      -1.98390831e-06 -1.04239246e-06 -1.08722656e-06 -2.24170435e-06
      -2.24170435e-06 -1.10964356e-06 -1.14326917e-06 -2.54433439e-06
      -2.54433439e-06 -1.17689478e-06 -1.17689478e-06 -2.63400239e-06
      -2.63400239e-06 -1.21052028e-06 -1.18810328e-06 -2.34258096e-06
      -2.39862356e-06 -1.18810328e-06 -1.16568617e-06 -2.39862356e-06
      -2.48829178e-06 -1.14326917e-06 -1.10964356e-06 -2.73487922e-06
      -2.75729622e-06 -1.07601807e-06 -1.05360095e-06 -2.64521100e-06
      -2.65641961e-06 -1.00876696e-06 -9.97558345e-07 -2.23049574e-06
      -2.23049574e-06 -9.41515793e-07 -9.30307237e-07 -1.93907408e-06
      -1.92786570e-06 -8.96681684e-07 -8.85473185e-07 -1.67006965e-06
      -1.62523554e-06 -8.85473185e-07 -7.39762413e-07 -1.33381400e-06
      -1.30018850e-06 -7.50970912e-07 -7.50970912e-07 -7.50970912e-07
      -7.50970912e-07 -7.62179468e-07 -7.62179468e-07 -7.62179468e-07
      -7.62179468e-07 -4.81821044e-05 -9.86349846e-07 -1.03347389e-04
      -5.86633141e-05 -9.75141347e-07 -1.05360095e-06 -1.01981612e-04
      -4.91236206e-05 -1.02977509e-04 -5.83718938e-05 -2.54158022e-05
      -1.97269969e-06 -1.19931178e-06 -1.25535439e-06 -2.17445313e-06
      -2.16324452e-06 -1.35623111e-06 -1.38985661e-06 -2.53312578e-06
      -2.49950017e-06 -1.45710771e-06 -1.46831633e-06 -2.55554278e-06
      -2.55554278e-06 -1.54677593e-06 -1.51315032e-06 -2.32016396e-06
      -2.38741495e-06 -1.52435894e-06 -1.43469072e-06 -2.37620657e-06
      -2.49950017e-06 -1.38985661e-06 -1.35623111e-06 -2.74608760e-06
      -2.77971321e-06 -1.25535439e-06 -1.21052028e-06 -2.65641961e-06
      -2.73487922e-06 -1.12085218e-06 -1.08722656e-06 -2.24170435e-06
      -2.24170435e-06 -1.01997546e-06 -9.86349846e-07 -1.95028269e-06
      -1.93907408e-06 -9.41515793e-07 -8.96681684e-07 -1.67006965e-06
      -1.62523554e-06 -8.96681684e-07 -7.73387967e-07 -1.34502250e-06
      -1.28897989e-06 -7.73387967e-07 -7.73387967e-07 -7.84596466e-07
      -7.84596466e-07 -7.84596466e-07 -7.84596466e-07 -7.95805022e-07
      -7.95805022e-07 -4.82045216e-05 -1.04239246e-06 -1.03336184e-04
      -5.86408969e-05 -1.04239246e-06 -1.15447767e-06 -1.01981612e-04
      -4.91124119e-05 -1.03100800e-04 -5.85848538e-05 -2.54045935e-05
      -1.89424009e-06 -1.41227372e-06 -1.55798443e-06 -2.15203613e-06
      -2.12961913e-06 -1.60281854e-06 -1.70369526e-06 -2.47708317e-06
      -2.30895535e-06 -1.80457187e-06 -1.81578048e-06 -2.51070878e-06
      -2.52191739e-06 -1.83819748e-06 -1.81578048e-06 -2.25291274e-06
      -2.37620657e-06 -1.82698898e-06 -1.74852937e-06 -2.37620657e-06
      -2.53312578e-06 -1.70369526e-06 -1.59161004e-06 -2.76850483e-06
      -2.81333882e-06 -1.54677593e-06 -1.41227372e-06 -2.75729622e-06
      -2.77971321e-06 -1.26656289e-06 -1.22172878e-06 -2.29774696e-06
      -2.25291274e-06 -1.09843506e-06 -1.05360095e-06 -1.97269969e-06
      -1.93907408e-06 -9.86349846e-07 -9.30307237e-07 -1.68127815e-06
      -1.61402704e-06 -9.07890239e-07 -7.95805022e-07 -1.34502250e-06
      -1.27777139e-06 -8.07013521e-07 -8.07013521e-07 -8.07013521e-07
      -8.07013521e-07 -8.18222077e-07 -8.18222077e-07 -8.18222077e-07
      -8.18222077e-07 -4.82381474e-05 -1.12085218e-06 -1.03324972e-04
      -5.86184797e-05 -1.09843506e-06 -1.27777139e-06 -1.01959195e-04
      -4.90899947e-05 -1.03257720e-04 -5.87866089e-05 -2.53149246e-05
      -1.87182309e-06 -1.60281854e-06 -1.80457187e-06 -2.12961913e-06
      -2.08478491e-06 -1.86061447e-06 -1.96149131e-06 -2.23049574e-06
      -2.16324452e-06 -2.07357652e-06 -2.08478491e-06 -2.33137234e-06
      -2.34258096e-06 -2.14082752e-06 -2.09599352e-06 -2.18566174e-06
      -2.36499795e-06 -2.09599352e-06 -2.06236791e-06 -2.36499795e-06
      -2.64521100e-06 -1.96149131e-06 -1.86061447e-06 -2.79092183e-06
      -2.83575582e-06 -1.78215487e-06 -1.62523554e-06 -2.79092183e-06
      -2.82454744e-06 -1.50194182e-06 -1.37864811e-06 -2.47708317e-06
      -2.32016396e-06 -1.22172878e-06 -1.13206067e-06 -1.98390831e-06
      -1.93907408e-06 -1.03118396e-06 -9.63932848e-07 -1.68127815e-06
      -1.61402704e-06 -9.30307237e-07 -8.29430576e-07 -1.34502250e-06
      -1.25535439e-06 -8.29430576e-07 -8.29430576e-07 -8.40639075e-07
      -8.40639075e-07 -8.40639075e-07 -8.40639075e-07 -8.51847631e-07
      -8.51847631e-07 -4.82605610e-05 -1.19931178e-06 -1.03302555e-04
      -5.85960624e-05 -1.16568617e-06 -1.42348222e-06 -1.01947990e-04
      -4.89891172e-05 -1.03425853e-04 -5.89323172e-05 -2.53037160e-05
      -1.84940598e-06 -1.83819748e-06 -1.98390831e-06 -2.08478491e-06
      -2.05115930e-06 -2.11841052e-06 -2.29774696e-06 -2.14082752e-06
      -2.11841052e-06 -2.80213021e-06 -2.82454744e-06 -2.17445313e-06
      -2.18566174e-06 -2.85817282e-06 -2.84696443e-06 -2.15203613e-06
      -2.35378957e-06 -2.84696443e-06 -2.74608760e-06 -2.35378957e-06
      -2.76850483e-06 -2.30895535e-06 -2.10720191e-06 -2.80213021e-06
      -2.85817282e-06 -1.95028269e-06 -1.83819748e-06 -2.81333882e-06
      -2.83575582e-06 -1.63644415e-06 -1.55798443e-06 -2.49950017e-06
      -2.47708317e-06 -1.34502250e-06 -1.22172878e-06 -1.99511669e-06
      -1.95028269e-06 -1.08722656e-06 -9.97558345e-07 -1.69248676e-06
      -1.60281854e-06 -9.41515793e-07 -8.51847631e-07 -1.36743961e-06
      -1.24414589e-06 -8.63056130e-07 -8.63056130e-07 -8.63056130e-07
      -8.63056130e-07 -8.74264686e-07 -8.74264686e-07 -8.74264686e-07
      -8.74264686e-07</_>
    <_>
      9.79862816e-05 7.71411142e-05 7.00511009e-05 8.71398443e-05
      9.98469477e-05 7.57942253e-05 8.06815660e-05 7.65946534e-05
      1.07077976e-04 8.40140056e-05 9.68093736e-05 7.55465007e-05
      1.04398438e-04 7.82564894e-05 1.04278530e-04 6.42584637e-05
      3.83848828e-06 6.45320542e-05 1.01409423e-04 -4.53520770e-05
      -2.87851817e-05 4.52864842e-05 9.14465054e-05 -7.40370961e-05
      -8.51085424e-05 1.74314373e-05 7.14924900e-05 -7.98124602e-05
      -1.12309695e-04 -2.67703890e-05 3.98430384e-05 -5.74090445e-05
      -1.12000074e-04 -4.75037668e-05 1.52648881e-05 -1.48862737e-05
      -8.64905014e-05 -6.19012644e-05 1.39942301e-06 2.95580794e-05
      -3.02509870e-05 -5.74467995e-05 5.08485800e-06 9.53316121e-05
      1.92462776e-05 -1.19674201e-04 -7.45055804e-05 1.31296256e-04
      5.87127433e-05 -7.27477163e-05 -5.45616604e-05 1.47716884e-04
      8.89404619e-05 -1.42121298e-05 -2.84106936e-05 1.45243364e-04
      1.06008527e-04 2.84498710e-05 -6.59959414e-06 1.42083227e-04
      1.22149213e-04 4.93214575e-05 1.53005149e-05 1.25326667e-04
      8.00928101e-05 4.94330634e-05 5.84196787e-05 5.70954253e-05
      8.42917725e-05 5.36320404e-05 7.56694499e-05 4.33987807e-05
      9.06587156e-05 6.20602877e-05 1.03420316e-04 4.33046735e-05
      6.83766893e-06 5.89936499e-05 1.18077020e-04 -5.11454782e-05
      -4.41908596e-05 1.99085753e-05 9.36333672e-05 -1.05616266e-04
      -8.78883147e-05 -6.18423564e-06 1.02580372e-04 -1.10744957e-04
      -1.51428569e-04 -4.16253206e-05 7.35832364e-05 -1.11111091e-04
      -1.83061755e-04 -8.61889785e-05 4.27230807e-05 -7.57087473e-05
      -1.87272177e-04 -1.40622928e-04 -5.45876719e-06 -2.28297758e-05
      -1.57602699e-04 -1.61189440e-04 -2.74410868e-05 4.63249889e-05
      -1.15651477e-04 -1.65667589e-04 -1.28627762e-05 1.01598482e-04
      -6.76957934e-05 -2.14338666e-04 -9.00347586e-05 1.39995187e-04
      -2.36622291e-05 -1.60862211e-04 -6.00635140e-05 1.63656805e-04
      1.10760466e-05 -9.19575541e-05 -1.95043340e-05 1.69269493e-04
      3.44525579e-05 -7.08869356e-06 4.44857651e-05 1.89785147e-04
      4.73315777e-05 2.96661801e-05 6.79627556e-05 1.68720988e-04
      1.06987027e-04 7.40503310e-05 7.63233620e-05 6.44023748e-05
      1.17121141e-04 7.62753189e-05 9.29610615e-05 4.71251769e-05
      4.73200562e-05 8.94701298e-05 1.25902734e-04 -3.52619390e-05
      3.64049629e-05 8.68183706e-05 1.47535815e-04 -5.97203652e-05
      -1.44468841e-05 5.09454330e-05 1.34255271e-04 -1.10613277e-04
      -6.34415992e-05 1.79088383e-05 1.43729470e-04 -1.33323803e-04
      -1.26302562e-04 -2.40118407e-05 1.15339775e-04 -1.21050492e-04
      -1.55829170e-04 -7.44777935e-05 7.34860150e-05 -7.20035387e-05
      -1.50623222e-04 -1.20685516e-04 1.48530789e-05 2.45797200e-05
      -1.41114549e-04 -1.74616871e-04 -2.91505930e-05 8.08312398e-05
      -1.09083390e-04 -1.88111633e-04 -2.37029490e-05 1.39975396e-04
      -7.74113723e-05 -2.37973160e-04 -9.61062906e-05 1.55492220e-04
      -4.78132642e-05 -1.95844070e-04 -6.84425759e-05 1.76291840e-04
      -2.50752037e-05 -1.32736532e-04 -3.08576673e-05 1.83049051e-04
      -1.09609036e-05 -7.60979165e-05 2.92577297e-05 1.92925145e-04
      -3.70284806e-06 -3.85093335e-05 5.35770378e-05 1.70503641e-04
      1.14095295e-04 9.67865635e-05 9.72078560e-05 6.69714427e-05
      5.39629291e-05 9.66393927e-05 3.76433345e-05 -4.46674894e-05
      3.98071279e-05 9.27911533e-05 6.38222700e-05 -6.53247698e-05
      2.45614046e-05 9.08691800e-05 8.15190724e-05 -8.95581616e-05
      -5.53884411e-06 7.33873239e-05 7.03370097e-05 -1.14236129e-04
      -4.87794314e-05 4.03145605e-05 6.57815253e-05 -1.24202386e-04
      -1.01723141e-04 -2.94634060e-06 4.08536107e-05 -9.44524800e-05
      -1.15003983e-04 -5.42261187e-05 4.10881421e-06 -2.54997958e-05
      -1.19251832e-04 -1.02012709e-04 -3.39073413e-05 5.85811031e-05
      -1.09395907e-04 -1.43348327e-04 -6.17949918e-05 9.82161000e-05
      -9.40146710e-05 -1.83835000e-04 -7.26682119e-05 1.43411249e-04
      -7.48473540e-05 -2.42647366e-04 -7.32050030e-05 1.68157145e-04
      -6.02156251e-05 -2.18535075e-04 -6.36202531e-05 1.81032636e-04
      -4.93189218e-05 -1.79529263e-04 -4.24999525e-05 1.72726359e-04
      -4.24085229e-05 -1.33560578e-04 -1.76444064e-05 1.55398899e-04
      -4.00743520e-05 -1.00277510e-04 -5.65296250e-06 1.33467984e-04
      1.79074541e-05 8.99004226e-05 4.56659545e-05 -5.96765422e-05
      2.02286174e-05 8.91701202e-05 4.92287982e-05 -8.23497321e-05
      2.56791209e-05 9.90868648e-05 6.98828444e-05 -9.94812362e-05
      1.53186593e-05 9.31897812e-05 8.24324816e-05 -1.15297807e-04
      -9.35481421e-06 8.10756173e-05 7.76005400e-05 -1.18565811e-04
      -4.58727773e-05 5.69848271e-05 7.84409131e-05 -1.01223784e-04
      -8.53334132e-05 2.38673820e-05 6.51684823e-05 -5.37307023e-05
      -9.80573750e-05 -2.42308670e-05 3.70335983e-05 1.12759681e-05
      -9.42443512e-05 -7.17643343e-05 8.32658202e-07 9.66275111e-05
      -9.04729095e-05 -1.12515678e-04 -3.47378809e-05 1.21092431e-04
      -8.02255818e-05 -1.49080937e-04 -4.85377932e-05 1.53076879e-04
      -6.74554685e-05 -2.15396416e-04 -4.88619808e-05 1.50157095e-04
      -6.09099407e-05 -2.09576785e-04 -5.80696833e-05 1.46471488e-04
      -6.43948079e-05 -1.90438979e-04 -5.83377805e-05 1.31169683e-04
      -6.48601417e-05 -1.72448694e-04 -5.71849487e-05 1.11878719e-04
      -7.07674408e-05 -1.58636947e-04 -5.60567205e-05 8.79142099e-05
      -1.11399559e-05 8.21761496e-05 1.21288585e-05 -1.02555234e-04
      -8.15417934e-06 8.04841693e-05 1.01103469e-05 -1.13754773e-04
      6.18815466e-06 9.50312533e-05 3.41277046e-05 -1.19848446e-04
      1.43164652e-06 9.48314046e-05 5.59584769e-05 -1.17794239e-04
      -2.01712810e-05 8.21083740e-05 7.29713938e-05 -1.11777932e-04
      -5.28996461e-05 6.44612301e-05 7.92571445e-05 -7.12019610e-05
      -7.36474758e-05 4.74828521e-05 7.78999020e-05 -1.23949740e-05
      -7.76437664e-05 1.37187362e-05 6.41515726e-05 4.68136532e-05
      -7.54014764e-05 -2.38104294e-05 3.47288806e-05 8.24398521e-05
      -6.23939777e-05 -6.03720873e-05 -2.61286527e-06 1.03003709e-04
      -5.45723306e-05 -9.75416260e-05 -2.00171889e-05 1.17644922e-04
      -5.67568968e-05 -1.04162536e-04 -2.39198507e-05 1.13082911e-04
      -5.50619479e-05 -1.04980318e-04 -4.09744898e-05 1.03739148e-04
      -6.19326311e-05 -9.81606645e-05 -6.48972928e-05 8.06740863e-05
      -7.12014080e-05 -8.89808580e-05 -8.15877502e-05 6.34218595e-05
      -7.89292535e-05 -8.83478715e-05 -1.00008947e-04 4.34186368e-05
      -4.20415163e-05 6.41574297e-05 -2.26265420e-05 -1.07162727e-04
      -2.37982695e-05 6.23979140e-05 -1.54853187e-05 -1.09179447e-04
      -1.94987515e-05 7.09714732e-05 1.10095948e-06 -1.06251813e-04
      -2.15463897e-05 7.80862028e-05 3.39565522e-05 -9.78516618e-05
      -2.79780143e-05 8.14556479e-05 5.71702403e-05 -7.51171756e-05
      -3.97181975e-05 7.24087004e-05 6.93482216e-05 -2.96415219e-05
      -5.27758275e-05 6.90961315e-05 7.62607306e-05 2.38757129e-05
      -5.71339770e-05 5.44018512e-05 8.18427579e-05 5.36189873e-05
      -5.07579243e-05 3.38953214e-05 6.78020879e-05 7.64018623e-05
      -4.03030826e-05 7.59487466e-06 3.69601912e-05 7.71277264e-05
      -3.55319098e-05 -2.34029940e-05 1.12205807e-05 7.41498588e-05
      -3.34949473e-05 -3.99562778e-05 -1.34781442e-06 6.46021435e-05
      -3.13966084e-05 -5.02055118e-05 4.60644405e-05 5.67948155e-05
      -3.94322196e-05 -5.82010216e-05 1.24284179e-05 4.01326070e-05
      -5.57901876e-05 -7.34058340e-05 -1.60780528e-05 2.27956134e-05
      -7.27268707e-05 -8.22113579e-05 -4.36149639e-05 -3.04714990e-06
      -5.16387263e-05 4.93127736e-05 -3.62412065e-05 -1.02835314e-04
      -3.45386361e-05 4.68397411e-05 -2.89480722e-05 -9.69235552e-05
      -3.43836327e-05 4.89074228e-05 -1.62746419e-05 -8.57877458e-05
      -3.08042218e-05 5.36175903e-05 1.26595833e-05 -6.75454139e-05
      -2.81079429e-05 6.05132846e-05 3.39178405e-05 -3.83695224e-05
      -3.37793172e-05 7.01802128e-05 5.09445199e-05 1.22622787e-05
      -3.75837699e-05 8.27816766e-05 7.08526859e-05 3.80200509e-05
      -3.30584044e-05 8.37819534e-05 8.91283198e-05 5.68446449e-05
      -2.98762534e-05 8.83816174e-05 9.07477006e-05 6.05983441e-05
      -1.89855909e-05 7.90394042e-05 7.17212315e-05 3.98627271e-05
      -6.75250749e-06 5.05167955e-05 5.21973452e-05 3.38894424e-05
      1.76379331e-07 2.37769109e-05 2.61238984e-05 2.04191856e-05
      -3.26369650e-06 7.17824605e-06 5.80935230e-05 1.15233725e-05
      -1.85846984e-05 -5.70266138e-06 2.39783367e-05 -8.82662334e-06
      -3.55555458e-05 -1.76402209e-05 -1.20906325e-05 -3.62278697e-05
      -5.82297034e-05 -4.29470019e-05 -4.13001217e-05 -6.52469680e-05
      -6.96745483e-05 3.89720262e-05 -3.94721646e-05 -1.00696314e-04
      -5.70615994e-05 3.06748698e-05 -3.29353461e-05 -7.87239478e-05
      -5.76028469e-05 2.60234228e-05 -2.87584789e-05 -5.29594472e-05
      -3.02638491e-05 2.97242368e-05 -3.14239060e-06 -2.79546293e-05
      -1.92331499e-05 4.03836602e-05 1.83606535e-05 2.86056934e-06
      -1.47500614e-05 5.77433457e-05 3.62629908e-05 3.61991551e-05
      -1.72597829e-05 8.57205523e-05 5.27788761e-05 5.05044809e-05
      -1.26586847e-05 1.06145366e-04 8.12041617e-05 5.65497321e-05
      -4.52743552e-06 1.27957057e-04 8.69076757e-05 4.20757715e-05
      1.11300751e-05 1.40740987e-04 8.85831323e-05 1.60796571e-05
      2.44105850e-05 1.27507315e-04 7.29781677e-05 -7.58471469e-06
      2.87120929e-05 9.49637033e-05 5.31991282e-05 -2.95185637e-05
      2.23378283e-05 6.59243888e-05 7.97141620e-05 -4.43690078e-05
      7.16286058e-06 5.22714763e-05 4.30544605e-05 -6.81542006e-05
      -1.20155682e-05 3.23235909e-05 1.48653653e-05 -8.37398911e-05
      -3.97515287e-05 9.19597096e-06 -1.48691615e-05 -9.54492643e-05
