<?xml version="1.0"?>
<opencv_storage>
<my_svm type_id="opencv-ml-svm">
  <svm_type>C_SVC</svm_type>
  <kernel><type>RBF</type>
    <gamma>1.0000000000000001e-05</gamma></kernel>
  <C>5.0000000000000000e-01</C>
  <term_criteria><epsilon>1.1920928955078125e-07</epsilon>
    <iterations>2147483647</iterations></term_criteria>
  <var_all>1152</var_all>
  <var_count>1152</var_count>
  <class_count>10</class_count>
  <class_labels type_id="opencv-matrix">
    <rows>1</rows>
    <cols>10</cols>
    <dt>i</dt>
    <data>
      48 49 50 51 52 53 54 55 56 57</data></class_labels>
  <sv_total>66</sv_total>
  <support_vectors>
    <_>
      0. 0. 0. 2. 0. 0. 0. 0. 5. 13. 11. 16. 9. 9. 0. 5. 15. 25. 19. 25.
      15. 14. 1. 14. 31. 43. 27. 31. 22. 20. 6. 30. 47. 59. 30. 35. 25.
      23. 11. 47. 57. 65. 27. 35. 27. 31. 22. 62. 54. 57. 15. 28. 27.
      36. 31. 65. 41. 41. 9. 25. 25. 38. 33. 54. 25. 25. 4. 20. 20. 33.
      28. 38. 11. 11. 1. 14. 14. 23. 19. 20. 3. 3. 0. 7. 7. 11. 7. 7. 0.
      0. 0. 0. 0. 0. 0. 0. 1. 3. 3. 7. 5. 5. 1. 1. 8. 15. 13. 23. 16.
      16. 2. 8. 16. 25. 21. 31. 22. 21. 3. 16. 29. 40. 27. 37. 27. 25.
      7. 28. 41. 50. 29. 37. 28. 27. 10. 40. 46. 53. 23. 31. 25. 29. 20.
      49. 46. 47. 15. 30. 29. 38. 30. 55. 37. 37. 10. 30. 30. 42. 33.
      48. 24. 24. 7. 28. 28. 38. 29. 36. 12. 12. 3. 21. 21. 29. 20. 22.
      5. 5. 2. 13. 13. 16. 9. 9. 0. 0. 0. 0. 0. 0. 0. 0. 4. 6. 6. 14.
      11. 11. 4. 4. 10. 16. 16. 30. 24. 23. 5. 10. 17. 25. 21. 37. 29.
      28. 7. 16. 25. 34. 26. 41. 33. 32. 9. 24. 32. 40. 26. 39. 31. 30.
      10. 31. 34. 39. 19. 27. 22. 25. 15. 36. 36. 37. 14. 31. 30. 37.
      27. 43. 31. 31. 11. 35. 35. 44. 30. 40. 23. 23. 9. 34. 34. 44. 28.
      33. 14. 14. 6. 27. 27. 35. 21. 21. 8. 8. 4. 18. 18. 22. 10. 10. 0.
      0. 0. 0. 0. 0. 0. 0. 9. 11. 11. 22. 20. 20. 6. 9. 14. 20. 20. 40.
      34. 33. 8. 14. 18. 25. 23. 45. 37. 37. 9. 17. 21. 29. 25. 47. 39.
      38. 10. 21. 23. 29. 23. 40. 33. 33. 10. 22. 19. 23. 14. 22. 18.
      20. 10. 21. 25. 25. 13. 33. 32. 38. 23. 30. 25. 25. 13. 41. 41.
      48. 27. 32. 22. 22. 12. 42. 42. 50. 27. 29. 16. 16. 9. 36. 36. 41.
      21. 21. 10. 10. 7. 27. 27. 29. 12. 12. 0. 0. 0. 0. 0. 0. 0. 0. 12.
      14. 12. 30. 27. 27. 11. 12. 15. 18. 17. 42. 38. 40. 12. 16. 15.
      19. 18. 44. 40. 41. 12. 16. 14. 18. 17. 42. 38. 39. 11. 15. 10.
      13. 12. 32. 29. 29. 7. 11. 1. 2. 2. 9. 7. 8. 0. 1. 10. 10. 8. 27.
      27. 29. 11. 11. 14. 14. 12. 40. 40. 42. 17. 17. 16. 16. 13. 45.
      45. 48. 19. 19. 14. 14. 12. 40. 40. 42. 16. 16. 11. 11. 9. 31. 31.
      33. 12. 12. 0. 0. 0. 0. 0. 0. 0. 0. 14. 15. 14. 33. 31. 31. 14.
      15. 16. 18. 16. 43. 41. 42. 15. 17. 15. 18. 16. 44. 42. 43. 15.
      17. 14. 16. 14. 41. 39. 41. 13. 15. 9. 11. 10. 30. 29. 30. 9. 10.
      0. 0. 0. 6. 6. 6. 0. 0. 9. 9. 9. 28. 28. 28. 10. 10. 14. 14. 13.
      41. 41. 42. 14. 14. 15. 15. 15. 47. 47. 47. 16. 16. 14. 14. 13.
      41. 41. 42. 14. 14. 10. 10. 10. 33. 33. 33. 11. 11. 0. 0. 0. 0. 0.
      0. 0. 0. 12. 14. 12. 30. 30. 31. 14. 15. 15. 17. 14. 42. 40. 43.
      16. 18. 15. 17. 14. 43. 41. 44. 17. 18. 14. 15. 12. 40. 39. 42.
      15. 17. 9. 11. 8. 30. 28. 31. 11. 12. 0. 0. 0. 7. 6. 7. 1. 1. 9.
      10. 10. 28. 28. 28. 8. 9. 14. 15. 15. 42. 41. 41. 12. 14. 15. 17.
      17. 47. 46. 46. 14. 15. 14. 15. 15. 42. 41. 41. 12. 14. 10. 11.
      11. 33. 33. 33. 9. 10. 0. 0. 0. 0. 0. 0. 0. 0. 11. 11. 9. 23. 23.
      25. 11. 12. 15. 16. 10. 37. 36. 41. 18. 20. 16. 17. 11. 39. 38.
      44. 20. 22. 16. 17. 9. 38. 37. 43. 19. 22. 12. 13. 7. 29. 28. 33.
      15. 17. 5. 7. 2. 11. 10. 12. 4. 8. 13. 16. 15. 31. 27. 27. 7. 13.
      17. 21. 20. 44. 39. 39. 10. 17. 18. 23. 22. 49. 43. 43. 12. 18.
      15. 19. 19. 42. 38. 38. 10. 15. 10. 12. 12. 31. 29. 29. 8. 10. 0.
      0. 0. 0. 0. 0. 0. 0. 6. 6. 4. 15. 15. 17. 9. 9. 14. 14. 7. 29. 29.
      35. 18. 20. 19. 19. 7. 34. 34. 41. 23. 26. 25. 25. 9. 36. 36. 44.
      25. 33. 28. 29. 10. 32. 32. 39. 23. 36. 27. 31. 12. 23. 20. 24.
      14. 32. 31. 38. 24. 36. 30. 30. 11. 32. 29. 37. 28. 45. 37. 37.
      11. 29. 23. 31. 27. 46. 38. 38. 10. 23. 16. 22. 20. 38. 31. 31. 8.
      16. 9. 11. 11. 25. 23. 23. 5. 9. 0. 0. 0. 0. 0. 0. 0. 0. 3. 3. 3.
      7. 7. 9. 4. 4. 10. 10. 3. 21. 21. 25. 14. 15. 17. 17. 5. 26. 26.
      33. 20. 25. 27. 27. 8. 30. 30. 38. 24. 35. 34. 35. 11. 30. 29. 36.
      24. 42. 37. 41. 16. 27. 23. 27. 18. 42. 38. 46. 26. 35. 27. 28.
      12. 39. 32. 42. 29. 40. 30. 30. 10. 32. 23. 32. 26. 38. 29. 29. 7.
      23. 14. 20. 18. 29. 22. 22. 5. 14. 7. 9. 9. 18. 15. 15. 3. 7. 0.
      0. 0. 0. 0. 0. 0. 0. 0. 0. 0. 1. 1. 3. 1. 1. 8. 8. 1. 13. 13. 18.
      11. 12. 16. 16. 3. 18. 18. 25. 17. 24. 29. 29. 7. 23. 23. 33. 24.
      37. 40. 41. 11. 27. 25. 34. 25. 48. 47. 51. 20. 29. 24. 30. 22.
      53. 44. 53. 28. 34. 24. 27. 14. 46. 35. 46. 29. 35. 24. 24. 9. 35.
      23. 33. 24. 31. 21. 21. 5. 23. 11. 18. 16. 22. 15. 15. 3. 11. 4.
      6. 6. 12. 8. 8. 1. 4. 0. 0. 0. 0. 0. 0. 0. 0. 0. 0. 0. 0. 0. 0. 0.
      0. 5. 5. 0. 7. 7. 11. 7. 9. 15. 15. 1. 11. 11. 19. 14. 20. 30. 30.
      6. 17. 17. 25. 22. 38. 43. 44. 12. 23. 22. 30. 23. 51. 52. 57. 22.
      30. 25. 30. 23. 57. 49. 57. 28. 31. 22. 25. 15. 51. 36. 46. 27.
      28. 19. 19. 7. 36. 22. 30. 20. 22. 14. 14. 4. 22. 9. 15. 12. 14.
      7. 7. 1. 9. 1. 3. 3. 5. 3. 3. 0. 1. 0. 0. 0. 0. 0. 0. 0. 0.</_>
    <_>
      2. 5. 5. 7. 5. 5. 2. 2. 9. 16. 15. 20. 13. 11. 1. 7. 19. 30. 22.
      28. 17. 14. 4. 15. 33. 47. 30. 36. 23. 20. 7. 30. 49. 62. 33. 39.
      27. 23. 14. 46. 55. 65. 27. 35. 27. 30. 25. 59. 55. 57. 17. 31.
      30. 39. 35. 65. 43. 43. 9. 28. 28. 41. 36. 57. 27. 27. 4. 23. 23.
      36. 30. 39. 12. 12. 1. 15. 15. 25. 19. 22. 3. 3. 0. 9. 9. 11. 7.
      9. 0. 0. 0. 0. 0. 0. 0. 0. 5. 9. 9. 15. 11. 11. 3. 5. 11. 19. 18.
      27. 20. 18. 4. 9. 18. 30. 24. 35. 23. 21. 4. 15. 29. 42. 29. 40.
      27. 23. 8. 25. 38. 49. 29. 37. 27. 24. 10. 36. 41. 48. 20. 28. 21.
      23. 17. 43. 43. 46. 14. 30. 28. 37. 29. 51. 36. 36. 9. 31. 31. 43.
      33. 48. 24. 24. 5. 29. 29. 41. 28. 36. 14. 14. 3. 22. 22. 30. 20.
      22. 6. 6. 2. 15. 15. 18. 9. 11. 0. 0. 0. 0. 0. 0. 0. 0. 9. 12. 12.
      22. 19. 19. 4. 9. 14. 22. 21. 35. 27. 25. 5. 12. 19. 29. 25. 40.
      30. 28. 7. 17. 25. 36. 27. 42. 31. 28. 8. 22. 29. 39. 25. 36. 27.
      25. 9. 27. 28. 33. 13. 20. 15. 17. 12. 29. 32. 34. 11. 30. 28. 35.
      24. 39. 29. 29. 10. 34. 34. 44. 28. 38. 23. 23. 9. 35. 35. 44. 26.
      32. 15. 15. 7. 29. 29. 36. 20. 22. 8. 8. 4. 21. 21. 23. 11. 11. 0.
      0. 0. 0. 0. 0. 0. 0. 12. 17. 17. 33. 28. 28. 7. 12. 16. 24. 23.
      44. 37. 36. 9. 16. 19. 27. 25. 47. 38. 37. 9. 17. 19. 28. 24. 44.
      35. 34. 8. 18. 17. 24. 18. 33. 26. 25. 6. 16. 11. 14. 5. 10. 7. 8.
      4. 11. 19. 19. 8. 28. 27. 32. 17. 23. 21. 21. 10. 38. 38. 45. 23.
      27. 20. 20. 11. 43. 43. 49. 24. 26. 16. 16. 10. 37. 37. 42. 20.
      21. 10. 10. 8. 28. 28. 30. 12. 12. 0. 0. 0. 0. 0. 0. 0. 0. 15. 19.
      19. 41. 38. 38. 11. 15. 16. 21. 21. 48. 43. 43. 12. 16. 16. 21.
      21. 48. 43. 43. 12. 16. 14. 18. 18. 43. 39. 39. 11. 14. 10. 13.
      13. 30. 28. 28. 7. 10. 0. 0. 0. 3. 2. 2. 0. 0. 10. 10. 8. 28. 28.
      29. 11. 11. 14. 14. 12. 41. 41. 42. 16. 16. 16. 16. 14. 46. 46.
      48. 18. 18. 14. 14. 12. 41. 41. 42. 16. 16. 11. 11. 9. 33. 33. 34.
      12. 12. 0. 0. 0. 0. 0. 0. 0. 0. 15. 17. 17. 44. 41. 41. 12. 15.
      16. 20. 20. 49. 46. 46. 14. 16. 16. 19. 19. 48. 45. 45. 13. 16.
      14. 17. 17. 43. 40. 40. 12. 14. 10. 11. 11. 29. 28. 28. 8. 10. 0.
      0. 0. 1. 0. 0. 0. 0. 9. 9. 9. 28. 28. 28. 9. 9. 14. 14. 14. 42.
      42. 42. 14. 14. 15. 15. 15. 47. 47. 47. 15. 15. 14. 14. 14. 42.
      42. 42. 14. 14. 10. 10. 10. 33. 33. 33. 10. 10. 0. 0. 0. 0. 0. 0.
      0. 0. 15. 15. 14. 43. 41. 43. 15. 17. 16. 16. 15. 46. 46. 48. 17.
      18. 16. 16. 15. 45. 44. 46. 17. 18. 14. 14. 13. 40. 39. 41. 15.
      16. 10. 10. 9. 27. 27. 28. 10. 11. 0. 0. 0. 0. 0. 0. 0. 0. 9. 9.
      9. 28. 28. 28. 9. 9. 14. 14. 14. 42. 42. 42. 14. 14. 15. 15. 15.
      47. 47. 47. 15. 15. 14. 14. 14. 42. 42. 42. 14. 14. 10. 10. 10.
      33. 33. 33. 10. 10. 0. 0. 0. 0. 0. 0. 0. 0. 14. 12. 11. 36. 38.
      41. 17. 17. 15. 15. 11. 42. 43. 47. 20. 20. 15. 14. 12. 41. 42.
      47. 20. 20. 14. 13. 10. 37. 38. 42. 18. 18. 9. 9. 7. 26. 26. 30.
      12. 12. 0. 0. 0. 2. 2. 2. 0. 0. 10. 11. 11. 29. 28. 28. 9. 10. 14.
      16. 16. 42. 41. 41. 13. 14. 16. 18. 18. 48. 47. 47. 15. 16. 14.
      16. 16. 42. 41. 41. 13. 14. 11. 12. 12. 34. 33. 33. 10. 11. 0. 0.
      0. 0. 0. 0. 0. 0. 11. 11. 7. 27. 28. 33. 15. 15. 16. 14. 9. 34.
      36. 43. 22. 23. 20. 18. 9. 36. 38. 46. 25. 28. 24. 22. 10. 36. 37.
      46. 26. 32. 24. 23. 10. 29. 31. 38. 23. 31. 20. 20. 9. 14. 13. 16.
      12. 22. 26. 30. 22. 38. 33. 34. 14. 26. 26. 31. 26. 48. 43. 43.
      15. 26. 23. 28. 26. 51. 45. 45. 14. 23. 17. 21. 21. 43. 38. 38.
      11. 17. 10. 14. 14. 31. 29. 29. 8. 10. 0. 0. 0. 0. 0. 0. 0. 0. 7.
      6. 4. 17. 17. 22. 12. 12. 14. 11. 5. 24. 25. 34. 20. 22. 20. 18.
      7. 28. 29. 39. 24. 29. 28. 26. 9. 30. 31. 41. 27. 38. 34. 33. 11.
      27. 28. 37. 26. 42. 34. 35. 13. 19. 18. 22. 17. 38. 38. 43. 25.
      37. 31. 32. 16. 38. 33. 41. 29. 45. 37. 37. 14. 33. 26. 33. 27.
      45. 37. 37. 11. 26. 16. 22. 21. 36. 30. 30. 8. 16. 9. 12. 12. 24.
      22. 22. 5. 9. 0. 0. 0. 0. 0. 0. 0. 0. 5. 3. 1. 9. 9. 15. 9. 9. 12.
      11. 2. 16. 18. 26. 18. 20. 21. 18. 4. 21. 23. 33. 23. 30. 33. 30.
      8. 24. 27. 38. 28. 43. 43. 41. 11. 25. 27. 37. 29. 53. 47. 49. 17.
      24. 22. 28. 22. 53. 48. 55. 29. 37. 30. 31. 17. 49. 40. 49. 31.
      42. 33. 33. 12. 40. 28. 37. 28. 41. 30. 30. 9. 28. 16. 23. 21. 31.
      23. 23. 5. 16. 6. 11. 11. 20. 16. 16. 4. 6. 0. 0. 0. 0. 0. 0. 0.
      0. 2. 2. 0. 5. 5. 7. 2. 2. 9. 9. 1. 11. 13. 18. 13. 15. 20. 19. 4.
      17. 17. 27. 19. 28. 35. 35. 7. 22. 23. 33. 27. 46. 51. 49. 12. 25.
      27. 35. 30. 60. 59. 62. 20. 28. 25. 31. 25. 65. 57. 67. 31. 36.
      28. 30. 17. 59. 46. 57. 33. 38. 27. 27. 11. 46. 30. 41. 28. 35.
      23. 23. 6. 30. 14. 23. 19. 25. 15. 15. 3. 14. 5. 9. 9. 13. 9. 9.
      1. 5. 0. 0. 0. 0. 0. 0. 0. 0.</_>
    <_>
      0. 0. 0. 2. 0. 0. 0. 0. 5. 11. 9. 13. 9. 9. 0. 5. 14. 25. 20. 25.
      14. 14. 1. 14. 30. 43. 30. 33. 20. 20. 4. 30. 46. 59. 35. 38. 25.
      25. 9. 46. 55. 65. 31. 35. 25. 30. 19. 59. 54. 57. 20. 28. 25. 36.
      30. 65. 44. 43. 9. 22. 23. 36. 33. 57. 28. 27. 4. 19. 20. 33. 30.
      43. 14. 12. 1. 12. 14. 23. 20. 25. 5. 5. 0. 9. 9. 13. 9. 11. 0. 0.
      0. 0. 0. 0. 0. 0. 0. 0. 0. 5. 3. 3. 0. 0. 8. 12. 12. 20. 16. 16.
      2. 8. 16. 25. 22. 31. 22. 22. 3. 16. 28. 40. 30. 40. 28. 28. 7.
      28. 40. 51. 34. 41. 29. 29. 10. 40. 47. 55. 30. 34. 25. 29. 17.
      49. 44. 47. 17. 27. 24. 34. 28. 54. 38. 37. 9. 25. 27. 40. 33. 50.
      27. 25. 5. 24. 25. 38. 30. 40. 15. 15. 2. 20. 20. 31. 23. 25. 8.
      8. 1. 15. 15. 22. 13. 15. 1. 1. 0. 3. 3. 5. 1. 1. 0. 1. 1. 9. 7.
      7. 0. 0. 10. 15. 15. 28. 22. 22. 4. 10. 17. 26. 23. 37. 28. 28. 6.
      17. 26. 37. 30. 44. 33. 33. 8. 26. 33. 43. 31. 42. 32. 32. 11. 33.
      36. 43. 26. 31. 24. 27. 15. 38. 33. 35. 13. 24. 22. 29. 22. 40.
      31. 30. 9. 29. 30. 40. 30. 41. 24. 23. 7. 30. 31. 42. 29. 35. 16.
      16. 5. 27. 27. 37. 24. 26. 10. 10. 4. 22. 22. 28. 16. 16. 4. 4. 3.
      9. 9. 11. 4. 4. 3. 4. 4. 15. 14. 14. 3. 3. 12. 17. 17. 36. 31. 31.
      7. 12. 18. 25. 24. 45. 37. 37. 9. 18. 23. 32. 29. 49. 40. 40. 11.
      23. 25. 33. 28. 44. 36. 36. 11. 25. 23. 28. 21. 27. 22. 24. 11.
      24. 20. 21. 9. 21. 19. 25. 17. 25. 23. 22. 9. 33. 34. 42. 26. 31.
      21. 21. 9. 38. 39. 48. 28. 30. 17. 17. 9. 36. 36. 44. 24. 25. 14.
      14. 8. 33. 33. 37. 18. 20. 7. 7. 6. 17. 17. 19. 9. 9. 6. 7. 7. 20.
      19. 20. 6. 6. 14. 17. 17. 41. 37. 37. 10. 14. 16. 20. 19. 45. 41.
      41. 12. 16. 16. 20. 19. 45. 41. 41. 12. 16. 12. 16. 16. 36. 32.
      33. 9. 13. 5. 7. 7. 15. 13. 13. 3. 5. 2. 2. 0. 11. 11. 12. 4. 4.
      11. 11. 7. 31. 31. 35. 14. 14. 15. 15. 10. 41. 41. 45. 19. 19. 16.
      16. 12. 41. 41. 45. 19. 19. 15. 15. 11. 38. 38. 42. 18. 18. 11.
      11. 11. 23. 23. 25. 12. 12. 7. 9. 7. 22. 22. 22. 7. 9. 14. 15. 14.
      40. 38. 40. 12. 15. 15. 16. 15. 43. 42. 43. 14. 16. 14. 16. 15.
      43. 41. 43. 14. 16. 11. 12. 11. 34. 32. 33. 11. 12. 4. 4. 4. 13.
      12. 13. 4. 4. 0. 0. 0. 9. 9. 10. 0. 0. 9. 9. 8. 32. 32. 33. 10.
      10. 14. 14. 12. 42. 42. 44. 15. 15. 15. 15. 14. 44. 44. 45. 16.
      16. 15. 15. 14. 42. 42. 43. 16. 16. 14. 14. 12. 28. 28. 28. 14.
      14. 7. 7. 7. 22. 20. 22. 7. 7. 14. 14. 12. 40. 38. 40. 14. 15. 15.
      16. 14. 43. 42. 43. 15. 16. 14. 16. 14. 43. 41. 43. 15. 16. 11.
      12. 11. 33. 33. 34. 12. 13. 4. 4. 4. 13. 13. 13. 4. 4. 0. 0. 0. 9.
      9. 9. 0. 0. 9. 10. 10. 33. 32. 32. 9. 9. 14. 14. 14. 43. 43. 43.
      13. 14. 15. 16. 16. 45. 45. 45. 15. 15. 16. 16. 16. 43. 43. 43.
      15. 16. 14. 14. 14. 30. 28. 28. 14. 14. 4. 4. 4. 17. 17. 19. 6. 6.
      14. 14. 9. 36. 36. 40. 17. 17. 15. 15. 10. 40. 40. 45. 20. 20. 16.
      16. 11. 41. 41. 46. 21. 21. 13. 13. 8. 33. 33. 37. 18. 18. 6. 6.
      3. 15. 15. 17. 9. 9. 1. 3. 3. 12. 10. 11. 0. 2. 10. 14. 14. 34.
      31. 31. 7. 10. 14. 18. 18. 45. 41. 41. 11. 14. 16. 19. 19. 45. 42.
      42. 12. 16. 15. 18. 18. 43. 40. 40. 12. 15. 12. 12. 12. 27. 25.
      25. 11. 12. 1. 1. 1. 11. 11. 12. 3. 3. 11. 11. 5. 29. 29. 34. 16.
      16. 17. 17. 8. 34. 34. 41. 22. 25. 25. 25. 10. 38. 38. 46. 27. 33.
      30. 30. 11. 34. 34. 42. 26. 37. 31. 31. 11. 23. 22. 27. 21. 36.
      27. 31. 15. 22. 19. 20. 9. 28. 29. 35. 23. 39. 33. 33. 11. 29. 25.
      32. 25. 45. 39. 39. 11. 25. 19. 26. 23. 43. 37. 37. 10. 19. 14.
      20. 18. 37. 33. 33. 8. 14. 9. 9. 9. 20. 19. 19. 7. 9. 0. 0. 0. 4.
      4. 6. 0. 0. 8. 8. 3. 20. 20. 24. 12. 14. 16. 16. 5. 25. 25. 33.
      20. 24. 27. 27. 9. 30. 30. 39. 26. 36. 35. 35. 11. 30. 30. 38. 28.
      44. 41. 41. 14. 24. 24. 29. 25. 47. 39. 43. 20. 25. 21. 23. 13.
      40. 36. 43. 26. 36. 29. 29. 11. 36. 28. 37. 26. 39. 31. 31. 9. 28.
      19. 26. 22. 35. 27. 27. 7. 19. 10. 17. 16. 29. 23. 23. 4. 10. 4.
      6. 6. 12. 11. 11. 4. 4. 0. 0. 0. 1. 1. 3. 0. 0. 6. 6. 1. 12. 12.
      18. 11. 12. 15. 15. 3. 18. 18. 25. 18. 23. 28. 28. 7. 24. 24. 33.
      25. 37. 41. 41. 11. 25. 25. 35. 29. 50. 50. 50. 15. 24. 24. 30.
      28. 57. 50. 56. 24. 28. 23. 25. 17. 51. 43. 51. 28. 35. 27. 27.
      12. 43. 31. 41. 27. 34. 25. 25. 8. 31. 18. 27. 21. 28. 20. 20. 4.
      18. 8. 15. 15. 22. 15. 15. 1. 8. 1. 3. 3. 7. 5. 5. 1. 1. 0. 0. 0.
      0. 0. 0. 0. 0. 3. 3. 0. 5. 5. 11. 9. 9. 14. 14. 1. 11. 11. 19. 17.
      22. 28. 28. 4. 15. 15. 25. 23. 38. 44. 44. 11. 20. 20. 30. 28. 54.
      57. 57. 15. 23. 23. 30. 30. 65. 60. 65. 27. 30. 25. 27. 20. 60.
      49. 57. 28. 31. 23. 23. 12. 49. 33. 43. 25. 28. 19. 19. 7. 33. 17.
      25. 17. 20. 12. 12. 3. 17. 5. 13. 11. 13. 7. 7. 0. 5. 0. 0. 0. 0.
      0. 0. 0. 0.</_>
    <_>
      0. 0. 0. 2. 0. 0. 0. 0. 9. 15. 13. 16. 9. 9. 0. 9. 19. 28. 22. 27.
      15. 15. 3. 19. 31. 43. 28. 35. 22. 23. 7. 33. 46. 57. 31. 38. 27.
      28. 12. 47. 54. 62. 27. 36. 28. 33. 22. 60. 51. 54. 15. 28. 27.
      35. 28. 59. 39. 39. 9. 25. 23. 35. 28. 49. 25. 25. 6. 19. 19. 28.
      22. 33. 11. 11. 1. 12. 12. 19. 14. 17. 3. 3. 0. 5. 5. 9. 5. 5. 0.
      0. 0. 0. 0. 0. 0. 0. 3. 3. 3. 7. 5. 5. 1. 3. 11. 18. 16. 25. 18.
      18. 4. 11. 20. 29. 23. 33. 23. 23. 5. 20. 30. 41. 29. 41. 29. 30.
      9. 31. 41. 51. 30. 41. 30. 31. 12. 43. 46. 53. 24. 34. 27. 31. 18.
      50. 44. 47. 15. 31. 28. 36. 27. 51. 36. 36. 11. 30. 30. 38. 28.
      44. 25. 25. 8. 27. 27. 35. 22. 33. 12. 12. 4. 20. 20. 25. 15. 18.
      5. 5. 2. 12. 12. 15. 6. 6. 0. 0. 0. 0. 0. 0. 0. 0. 6. 6. 6. 14.
      11. 11. 4. 6. 12. 18. 18. 31. 25. 25. 7. 12. 20. 28. 24. 39. 31.
      31. 8. 20. 27. 37. 28. 44. 35. 36. 11. 28. 34. 43. 27. 41. 32. 34.
      13. 35. 35. 41. 20. 30. 24. 28. 15. 39. 36. 38. 13. 31. 29. 37.
      25. 44. 32. 32. 11. 34. 34. 42. 28. 40. 24. 24. 9. 33. 33. 41. 25.
      32. 14. 14. 6. 26. 26. 32. 19. 21. 7. 7. 4. 18. 18. 21. 10. 10. 0.
      0. 0. 0. 0. 0. 0. 0. 9. 11. 11. 20. 19. 19. 9. 9. 16. 21. 20. 40.
      35. 35. 10. 16. 21. 27. 24. 46. 40. 40. 12. 21. 25. 32. 26. 49.
      42. 43. 13. 25. 27. 34. 24. 43. 36. 37. 12. 28. 24. 28. 15. 25.
      21. 24. 10. 26. 29. 30. 12. 31. 30. 36. 23. 35. 28. 28. 12. 39.
      38. 46. 27. 36. 24. 24. 11. 40. 40. 47. 26. 32. 16. 17. 9. 34. 33.
      40. 21. 23. 10. 10. 7. 25. 24. 29. 14. 14. 0. 0. 0. 1. 0. 1. 0. 0.
      12. 12. 12. 27. 25. 25. 12. 12. 16. 18. 17. 43. 41. 41. 15. 16.
      16. 19. 19. 45. 43. 44. 15. 17. 15. 18. 18. 45. 42. 43. 13. 16.
      11. 13. 13. 34. 33. 33. 9. 11. 1. 3. 3. 12. 11. 12. 1. 2. 10. 11.
      8. 25. 24. 27. 12. 13. 14. 16. 11. 37. 36. 41. 18. 20. 16. 18. 13.
      43. 41. 46. 21. 22. 14. 16. 11. 38. 37. 41. 18. 19. 11. 12. 9. 30.
      29. 33. 14. 15. 0. 0. 0. 1. 1. 1. 0. 0. 12. 12. 11. 27. 27. 27.
      12. 12. 15. 15. 14. 41. 41. 43. 16. 16. 15. 16. 14. 44. 44. 45.
      17. 17. 14. 14. 13. 42. 42. 44. 15. 15. 10. 10. 9. 32. 32. 34. 11.
      11. 1. 1. 1. 10. 10. 11. 2. 2. 10. 11. 9. 25. 24. 26. 11. 12. 14.
      16. 13. 38. 37. 40. 16. 18. 16. 18. 15. 44. 42. 46. 18. 20. 14.
      16. 13. 40. 38. 41. 16. 18. 11. 12. 10. 33. 30. 34. 12. 14. 0. 0.
      0. 1. 1. 1. 0. 0. 9. 9. 7. 23. 23. 23. 9. 9. 14. 14. 11. 40. 40.
      42. 15. 15. 15. 15. 13. 43. 43. 45. 16. 16. 14. 14. 12. 42. 42.
      44. 16. 16. 11. 11. 9. 33. 33. 34. 12. 12. 3. 3. 3. 12. 12. 13. 4.
      4. 10. 11. 10. 26. 24. 25. 9. 11. 14. 17. 14. 39. 37. 39. 14. 16.
      16. 19. 16. 45. 42. 44. 16. 19. 14. 17. 14. 40. 37. 40. 14. 16.
      11. 12. 11. 33. 30. 33. 10. 12. 0. 0. 0. 1. 1. 1. 0. 0. 4. 4. 4.
      17. 17. 19. 6. 6. 14. 14. 9. 36. 36. 41. 17. 17. 17. 17. 11. 41.
      41. 45. 21. 22. 18. 18. 11. 41. 41. 47. 22. 23. 15. 16. 9. 33. 33.
      38. 18. 20. 10. 11. 5. 16. 15. 18. 10. 13. 13. 17. 14. 28. 24. 24.
      7. 13. 16. 22. 19. 41. 36. 36. 10. 16. 17. 23. 21. 47. 41. 41. 11.
      17. 15. 20. 18. 41. 36. 36. 10. 15. 10. 14. 12. 31. 28. 28. 7. 10.
      0. 0. 0. 1. 0. 1. 0. 0. 1. 1. 1. 11. 11. 12. 3. 3. 11. 11. 7. 29.
      29. 34. 16. 17. 19. 19. 9. 35. 35. 41. 22. 25. 26. 26. 11. 38. 38.
      46. 27. 34. 30. 31. 12. 35. 34. 41. 26. 38. 30. 33. 13. 25. 22.
      27. 19. 36. 29. 36. 21. 34. 28. 29. 11. 30. 27. 35. 25. 43. 35.
      34. 10. 26. 22. 30. 24. 44. 36. 35. 9. 21. 15. 21. 19. 36. 30. 29.
      7. 14. 8. 11. 11. 25. 22. 22. 4. 8. 0. 0. 0. 0. 0. 0. 0. 0. 0. 0.
      0. 6. 6. 6. 0. 0. 9. 9. 3. 20. 20. 25. 12. 14. 17. 17. 6. 26. 26.
      33. 20. 24. 27. 27. 9. 30. 30. 39. 26. 36. 35. 36. 12. 31. 30. 38.
      27. 43. 39. 42. 16. 27. 23. 29. 22. 45. 35. 43. 22. 32. 25. 26.
      12. 37. 30. 38. 25. 37. 28. 28. 9. 29. 21. 30. 22. 35. 27. 26. 7.
      20. 13. 18. 16. 27. 21. 20. 5. 12. 5. 9. 9. 18. 15. 14. 3. 4. 0.
      0. 0. 0. 0. 0. 0. 0. 0. 0. 0. 3. 3. 3. 0. 0. 6. 6. 2. 13. 13. 18.
      11. 12. 16. 16. 4. 18. 18. 25. 17. 23. 28. 28. 7. 23. 23. 33. 25.
      37. 38. 41. 12. 27. 25. 34. 27. 48. 46. 49. 18. 28. 23. 29. 24.
      53. 42. 49. 24. 30. 23. 24. 14. 43. 33. 42. 24. 31. 22. 22. 8. 33.
      21. 30. 21. 28. 20. 18. 4. 20. 10. 16. 12. 20. 14. 12. 2. 9. 4. 6.
      6. 12. 8. 8. 1. 2. 0. 0. 0. 0. 0. 0. 0. 0. 0. 0. 0. 0. 0. 0. 0. 0.
      5. 5. 0. 5. 5. 11. 7. 9. 14. 14. 1. 11. 11. 17. 15. 20. 28. 28. 4.
      15. 15. 25. 23. 36. 41. 43. 11. 22. 20. 28. 27. 51. 49. 54. 19.
      27. 22. 28. 23. 57. 46. 52. 23. 28. 20. 22. 14. 47. 33. 43. 22.
      25. 17. 17. 7. 33. 19. 27. 17. 20. 12. 11. 3. 19. 7. 12. 9. 11. 7.
      6. 1. 7. 1. 3. 3. 5. 3. 1. 0. 0. 0. 0. 0. 0. 0. 0. 0. 0.</_>
    <_>
      0. 0. 0. 2. 0. 0. 0. 0. 5. 11. 11. 15. 9. 9. 0. 3. 15. 23. 19. 23.
      14. 14. 3. 14. 30. 41. 27. 31. 20. 19. 7. 28. 43. 54. 30. 35. 25.
      25. 12. 44. 54. 63. 30. 33. 25. 27. 17. 57. 55. 59. 20. 28. 25.
      33. 27. 63. 44. 46. 14. 27. 25. 35. 27. 54. 31. 30. 7. 22. 22. 31.
      23. 41. 17. 15. 4. 14. 15. 23. 15. 23. 5. 5. 0. 9. 11. 16. 9. 11.
      0. 0. 0. 0. 0. 2. 0. 0. 1. 1. 1. 7. 5. 5. 0. 1. 8. 15. 15. 23. 16.
      15. 2. 6. 17. 27. 21. 30. 21. 20. 4. 16. 29. 41. 28. 37. 27. 25.
      8. 28. 40. 50. 30. 38. 28. 28. 11. 40. 47. 55. 27. 31. 24. 25. 15.
      48. 48. 50. 17. 27. 24. 31. 24. 55. 41. 41. 12. 29. 28. 37. 28.
      50. 29. 29. 8. 27. 27. 37. 25. 40. 18. 17. 4. 21. 22. 29. 20. 27.
      8. 6. 1. 15. 16. 23. 13. 15. 0. 0. 0. 3. 3. 5. 1. 1. 4. 4. 4. 12.
      11. 11. 3. 4. 10. 16. 16. 30. 23. 23. 4. 10. 18. 26. 22. 37. 28.
      28. 7. 17. 27. 37. 27. 42. 32. 31. 9. 26. 33. 42. 27. 39. 30. 31.
      11. 33. 36. 43. 22. 28. 21. 22. 12. 37. 37. 38. 14. 22. 21. 26.
      20. 42. 34. 34. 12. 30. 30. 38. 26. 42. 27. 26. 9. 31. 31. 41. 26.
      36. 18. 18. 6. 27. 28. 36. 21. 26. 10. 9. 3. 23. 23. 30. 16. 17.
      3. 3. 1. 11. 11. 14. 4. 4. 7. 9. 9. 20. 17. 17. 6. 7. 14. 20. 20.
      38. 33. 33. 9. 14. 19. 26. 23. 44. 37. 37. 10. 19. 25. 33. 26. 47.
      39. 39. 11. 24. 27. 35. 24. 42. 34. 34. 11. 27. 26. 31. 17. 24.
      19. 20. 8. 26. 26. 27. 10. 17. 16. 20. 15. 30. 27. 27. 11. 32. 32.
      39. 23. 34. 24. 24. 10. 37. 38. 46. 26. 32. 19. 18. 8. 36. 37. 44.
      23. 26. 12. 12. 7. 33. 34. 40. 20. 20. 6. 6. 4. 22. 22. 25. 9. 9.
      11. 12. 12. 25. 25. 25. 11. 11. 15. 18. 18. 43. 40. 40. 12. 15.
      16. 19. 19. 46. 42. 42. 12. 16. 15. 19. 19. 45. 41. 41. 11. 15.
      11. 14. 14. 35. 32. 32. 8. 11. 2. 4. 4. 12. 11. 11. 0. 2. 2. 2. 1.
      5. 5. 6. 3. 3. 10. 10. 7. 28. 28. 31. 14. 14. 14. 14. 9. 38. 38.
      43. 19. 19. 15. 15. 10. 41. 41. 46. 20. 20. 14. 14. 10. 41. 41.
      46. 18. 18. 11. 11. 7. 31. 31. 35. 12. 12. 14. 14. 14. 28. 28. 28.
      12. 14. 15. 16. 16. 43. 42. 42. 14. 15. 15. 16. 16. 45. 44. 44.
      14. 15. 14. 15. 15. 44. 42. 42. 12. 14. 9. 10. 10. 33. 32. 32. 8.
      9. 0. 0. 0. 10. 9. 9. 0. 0. 0. 0. 0. 1. 1. 2. 1. 1. 9. 9. 8. 27.
      27. 29. 11. 11. 14. 14. 11. 40. 40. 42. 16. 16. 15. 15. 13. 44.
      44. 47. 18. 18. 15. 15. 12. 46. 46. 48. 17. 17. 12. 12. 11. 39.
      39. 41. 15. 15. 12. 12. 12. 28. 28. 28. 14. 14. 15. 15. 14. 42.
      42. 43. 16. 16. 15. 15. 14. 44. 44. 45. 16. 16. 14. 14. 13. 42.
      42. 44. 15. 15. 9. 9. 9. 32. 32. 33. 10. 10. 0. 0. 0. 10. 10. 10.
      1. 1. 0. 0. 0. 1. 0. 0. 0. 0. 9. 11. 11. 29. 27. 27. 8. 10. 14.
      16. 15. 41. 39. 40. 12. 14. 15. 18. 17. 46. 44. 45. 14. 16. 15.
      17. 17. 47. 46. 46. 14. 16. 14. 15. 15. 43. 41. 41. 12. 14. 11.
      11. 9. 23. 23. 25. 11. 11. 15. 15. 11. 40. 40. 43. 18. 18. 16. 16.
      12. 42. 42. 46. 20. 20. 15. 15. 11. 41. 41. 45. 19. 19. 11. 11. 8.
      32. 32. 35. 15. 15. 3. 3. 1. 11. 11. 13. 5. 5. 2. 2. 2. 5. 4. 4.
      1. 2. 10. 13. 13. 31. 28. 28. 7. 10. 14. 18. 18. 43. 39. 39. 10.
      14. 15. 19. 19. 46. 42. 42. 11. 15. 15. 18. 18. 46. 42. 42. 10.
      15. 11. 14. 14. 36. 35. 35. 9. 11. 6. 6. 6. 17. 17. 19. 7. 7. 14.
      14. 8. 33. 33. 37. 18. 18. 19. 18. 10. 36. 37. 44. 24. 26. 25. 24.
      11. 38. 39. 47. 27. 33. 29. 28. 11. 33. 34. 41. 25. 36. 28. 27. 9.
      19. 19. 24. 18. 33. 27. 30. 14. 17. 14. 15. 10. 28. 29. 35. 23.
      37. 31. 31. 11. 29. 25. 33. 25. 45. 37. 37. 10. 25. 19. 26. 23.
      44. 37. 37. 9. 19. 14. 20. 20. 41. 34. 34. 7. 14. 7. 11. 11. 27.
      25. 25. 4. 7. 3. 3. 3. 9. 9. 11. 4. 4. 11. 11. 4. 23. 23. 29. 16.
      16. 18. 17. 6. 27. 28. 36. 23. 26. 27. 26. 9. 31. 31. 41. 28. 37.
      35. 34. 11. 29. 30. 39. 28. 44. 39. 38. 12. 21. 21. 27. 23. 45.
      38. 42. 19. 22. 19. 20. 14. 40. 36. 44. 25. 36. 29. 28. 12. 35.
      28. 37. 25. 39. 31. 30. 9. 27. 19. 27. 21. 36. 28. 27. 6. 18. 11.
      17. 16. 30. 24. 23. 3. 10. 4. 6. 6. 17. 14. 14. 1. 4. 0. 0. 0. 3.
      3. 5. 1. 1. 8. 8. 1. 15. 15. 22. 13. 15. 17. 16. 3. 20. 20. 29.
      21. 25. 29. 28. 8. 24. 25. 36. 28. 41. 41. 40. 11. 25. 27. 37. 30.
      51. 49. 49. 15. 23. 23. 30. 28. 57. 50. 54. 23. 27. 23. 24. 18.
      51. 44. 51. 28. 35. 27. 25. 12. 43. 31. 41. 25. 35. 25. 24. 8. 30.
      18. 27. 20. 29. 21. 20. 4. 17. 9. 16. 13. 23. 16. 15. 1. 8. 1. 3.
      3. 9. 5. 5. 0. 1. 0. 0. 0. 0. 0. 2. 0. 0. 5. 5. 0. 9. 9. 13. 9.
      11. 15. 14. 3. 12. 14. 22. 19. 23. 30. 28. 6. 19. 19. 30. 27. 41.
      46. 44. 12. 22. 23. 33. 30. 55. 57. 57. 17. 23. 23. 31. 30. 65.
      59. 63. 27. 28. 25. 27. 20. 60. 49. 57. 27. 31. 25. 23. 14. 47.
      33. 41. 23. 30. 22. 20. 9. 31. 17. 25. 15. 22. 15. 14. 4. 17. 7.
      11. 9. 15. 11. 9. 1. 5. 0. 0. 0. 2. 2. 2. 0. 0.</_>
    <_>
      0. 0. 0. 0. 0. 0. 0. 0. 0. 0. 0. 0. 0. 0. 0. 0. 0. 0. 0. 0. 0. 0.
      0. 0. 4. 6. 3. 3. 3. 3. 1. 4. 12. 14. 7. 7. 6. 6. 3. 12. 20. 22.
      9. 12. 9. 11. 7. 22. 22. 23. 9. 12. 11. 12. 9. 23. 19. 20. 7. 9.
      9. 11. 9. 20. 11. 11. 3. 4. 4. 7. 6. 12. 3. 3. 0. 1. 1. 3. 3. 3.
      0. 0. 0. 0. 0. 0. 0. 0. 0. 0. 0. 0. 0. 0. 0. 0. 0. 0. 0. 0. 0. 0.
      0. 0. 0. 0. 0. 0. 0. 0. 0. 0. 1. 2. 1. 2. 1. 1. 0. 0. 8. 10. 5. 7.
      4. 3. 1. 7. 17. 21. 10. 12. 8. 8. 3. 17. 27. 31. 15. 22. 17. 18.
      10. 28. 29. 33. 15. 23. 20. 22. 12. 31. 24. 27. 11. 20. 17. 21.
      12. 28. 14. 15. 7. 14. 12. 15. 9. 16. 4. 5. 2. 7. 7. 8. 4. 7. 0.
      0. 0. 0. 0. 0. 0. 0. 0. 0. 0. 0. 0. 0. 0. 0. 0. 0. 0. 0. 0. 0. 0.
      0. 0. 0. 0. 0. 0. 0. 0. 0. 1. 3. 2. 3. 2. 1. 0. 1. 8. 11. 6. 8. 5.
      4. 1. 8. 18. 22. 11. 13. 9. 8. 4. 17. 30. 35. 18. 28. 23. 24. 12.
      31. 32. 37. 19. 32. 27. 29. 15. 34. 28. 31. 16. 29. 26. 29. 15.
      31. 17. 19. 10. 22. 20. 23. 11. 19. 7. 8. 5. 13. 12. 14. 6. 9. 0.
      0. 0. 0. 0. 0. 0. 0. 0. 0. 0. 0. 0. 0. 0. 0. 0. 0. 0. 0. 0. 0. 0.
      0. 0. 0. 0. 0. 0. 0. 0. 0. 1. 3. 2. 3. 2. 1. 0. 1. 8. 11. 6. 8. 5.
      4. 1. 7. 17. 21. 11. 13. 9. 8. 3. 16. 30. 35. 20. 34. 29. 29. 13.
      31. 33. 38. 22. 42. 36. 38. 17. 35. 29. 33. 19. 40. 36. 39. 18.
      32. 19. 21. 13. 32. 29. 32. 14. 21. 9. 10. 7. 20. 19. 20. 8. 10.
      0. 0. 0. 0. 0. 0. 0. 0. 0. 0. 0. 0. 0. 0. 0. 0. 0. 0. 0. 0. 0. 0.
      0. 0. 0. 0. 0. 0. 0. 0. 0. 0. 1. 2. 1. 2. 1. 1. 0. 0. 6. 9. 5. 6.
      4. 3. 1. 5. 13. 16. 8. 10. 7. 6. 2. 12. 25. 31. 19. 37. 31. 32.
      12. 26. 29. 35. 23. 47. 41. 42. 16. 31. 27. 31. 22. 47. 43. 45.
      17. 29. 19. 22. 17. 39. 36. 38. 14. 21. 10. 12. 10. 25. 23. 24. 9.
      11. 0. 0. 0. 0. 0. 0. 0. 0. 0. 0. 0. 0. 0. 0. 0. 0. 0. 0. 0. 0. 0.
      0. 0. 0. 0. 0. 0. 0. 0. 0. 0. 0. 0. 1. 1. 1. 1. 0. 0. 0. 2. 3. 1.
      2. 1. 1. 0. 1. 2. 4. 2. 5. 3. 3. 0. 2. 12. 16. 13. 32. 29. 28. 8.
      12. 16. 20. 18. 44. 40. 40. 11. 16. 17. 20. 19. 47. 44. 44. 13.
      17. 14. 16. 16. 40. 38. 38. 11. 14. 9. 11. 11. 26. 24. 24. 8. 10.
      0. 0. 0. 0. 0. 0. 0. 0. 0. 0. 0. 0. 0. 0. 0. 0. 0. 0. 0. 0. 0. 0.
      0. 0. 0. 0. 0. 0. 0. 0. 0. 0. 0. 0. 0. 0. 0. 0. 0. 0. 0. 0. 0. 0.
      0. 0. 0. 0. 1. 1. 1. 5. 4. 4. 0. 1. 10. 12. 12. 31. 28. 28. 7. 10.
      14. 17. 17. 43. 39. 39. 10. 14. 15. 19. 19. 46. 42. 42. 11. 15.
      13. 16. 16. 39. 36. 36. 10. 13. 8. 10. 10. 23. 21. 21. 6. 8. 0. 0.
      0. 0. 0. 0. 0. 0. 0. 0. 0. 0. 0. 0. 0. 0. 0. 0. 0. 0. 0. 0. 0. 0.
      0. 0. 0. 0. 0. 0. 0. 0. 0. 0. 0. 0. 0. 0. 0. 0. 0. 0. 0. 0. 0. 0.
      0. 0. 3. 3. 3. 10. 9. 9. 2. 3. 11. 13. 13. 33. 30. 30. 8. 11. 14.
      17. 17. 44. 40. 40. 11. 14. 15. 18. 18. 45. 42. 42. 11. 15. 12.
      15. 15. 37. 34. 34. 9. 12. 6. 8. 8. 18. 17. 17. 4. 6. 0. 0. 0. 0.
      0. 0. 0. 0. 0. 0. 0. 0. 0. 0. 0. 0. 0. 0. 0. 0. 0. 0. 0. 0. 0. 0.
      0. 0. 0. 0. 0. 0. 0. 0. 0. 0. 0. 0. 0. 0. 0. 0. 0. 0. 0. 0. 0. 0.
      5. 7. 7. 15. 13. 13. 3. 5. 12. 17. 17. 36. 31. 31. 8. 12. 15. 21.
      21. 45. 40. 40. 10. 15. 15. 20. 20. 45. 40. 40. 10. 15. 11. 15.
      15. 35. 31. 31. 7. 11. 4. 5. 5. 13. 12. 12. 2. 4. 0. 0. 0. 0. 0.
      0. 0. 0. 0. 0. 0. 0. 0. 0. 0. 0. 0. 0. 0. 0. 0. 0. 0. 0. 0. 0. 0.
      0. 0. 0. 0. 0. 0. 0. 0. 0. 0. 0. 0. 0. 0. 0. 0. 0. 0. 0. 0. 0. 7.
      10. 9. 16. 14. 13. 4. 7. 12. 17. 16. 33. 28. 28. 7. 12. 15. 20.
      19. 40. 35. 34. 8. 14. 14. 19. 18. 39. 33. 33. 8. 13. 10. 14. 13.
      29. 25. 25. 6. 9. 2. 2. 2. 9. 8. 8. 1. 2. 0. 0. 0. 0. 0. 0. 0. 0.
      0. 0. 0. 0. 0. 0. 0. 0. 0. 0. 0. 0. 0. 0. 0. 0. 0. 0. 0. 0. 0. 0.
      0. 0. 0. 0. 0. 0. 0. 0. 0. 0. 0. 0. 0. 0. 0. 0. 0. 0. 8. 11. 10.
      16. 12. 12. 3. 7. 12. 18. 16. 30. 24. 23. 5. 11. 14. 21. 18. 36.
      29. 28. 5. 12. 12. 18. 17. 34. 28. 27. 5. 11. 8. 12. 11. 25. 21.
      20. 3. 8. 0. 0. 0. 5. 4. 4. 0. 0. 0. 0. 0. 0. 0. 0. 0. 0. 0. 0. 0.
      0. 0. 0. 0. 0. 0. 0. 0. 0. 0. 0. 0. 0. 0. 0. 0. 0. 0. 0. 0. 0. 0.
      0. 0. 0. 0. 0. 0. 0. 0. 0. 0. 0. 0. 0. 0. 0. 7. 12. 9. 15. 11. 11.
      3. 6. 11. 17. 15. 27. 20. 19. 3. 9. 12. 20. 17. 31. 23. 22. 4. 11.
      11. 17. 15. 28. 22. 20. 3. 9. 7. 12. 9. 20. 15. 15. 3. 6. 0. 0. 0.
      3. 3. 3. 0. 0. 0. 0. 0. 0. 0. 0. 0. 0. 0. 0. 0. 0. 0. 0. 0. 0.</_>
    <_>
      0. 0. 0. 0. 0. 0. 0. 0. 0. 0. 0. 0. 0. 0. 0. 0. 1. 3. 1. 3. 1. 0.
      0. 1. 9. 14. 7. 7. 4. 3. 0. 7. 19. 27. 14. 15. 7. 7. 1. 19. 30.
      38. 20. 27. 19. 20. 9. 31. 33. 39. 20. 30. 22. 23. 12. 35. 28. 31.
      15. 25. 22. 23. 12. 30. 17. 19. 9. 17. 15. 17. 9. 19. 6. 6. 3. 9.
      9. 9. 6. 7. 0. 0. 0. 0. 0. 0. 0. 0. 0. 0. 0. 0. 0. 0. 0. 0. 0. 0.
      0. 0. 0. 0. 0. 0. 0. 0. 0. 0. 0. 0. 0. 0. 2. 4. 2. 3. 1. 1. 0. 2.
      9. 14. 8. 9. 4. 3. 0. 9. 20. 27. 15. 16. 9. 8. 1. 18. 31. 40. 22.
      33. 24. 25. 10. 33. 35. 42. 23. 37. 30. 33. 14. 36. 29. 34. 18.
      34. 30. 33. 15. 31. 18. 21. 11. 24. 23. 25. 12. 21. 8. 8. 4. 14.
      14. 15. 8. 9. 0. 0. 0. 0. 0. 0. 0. 0. 0. 0. 0. 0. 0. 0. 0. 0. 0.
      0. 0. 0. 0. 0. 0. 0. 0. 0. 0. 0. 0. 0. 0. 0. 3. 4. 3. 3. 1. 1. 0.
      2. 9. 14. 8. 9. 5. 4. 0. 8. 18. 25. 14. 15. 8. 7. 2. 17. 31. 38.
      23. 37. 29. 29. 12. 31. 34. 40. 25. 44. 37. 38. 16. 35. 30. 33.
      20. 41. 38. 40. 17. 31. 20. 21. 13. 32. 30. 32. 14. 21. 9. 9. 7.
      19. 19. 20. 9. 11. 0. 0. 0. 0. 0. 0. 0. 0. 0. 0. 0. 0. 0. 0. 0. 0.
      0. 0. 0. 0. 0. 0. 0. 0. 0. 0. 0. 0. 0. 0. 0. 0. 2. 4. 2. 3. 1. 1.
      0. 2. 8. 12. 7. 8. 4. 3. 0. 7. 15. 21. 12. 13. 7. 6. 1. 14. 29.
      35. 23. 40. 33. 33. 12. 29. 33. 39. 26. 50. 43. 44. 17. 33. 29.
      33. 23. 49. 45. 47. 18. 30. 20. 22. 16. 40. 38. 39. 15. 21. 11.
      11. 9. 25. 24. 25. 10. 11. 0. 0. 0. 0. 0. 0. 0. 0. 0. 0. 0. 0. 0.
      0. 0. 0. 0. 0. 0. 0. 0. 0. 0. 0. 0. 0. 0. 0. 0. 0. 0. 0. 1. 2. 1.
      2. 1. 0. 0. 1. 5. 7. 5. 5. 3. 2. 0. 5. 9. 12. 7. 8. 4. 4. 0. 8.
      20. 25. 19. 38. 32. 32. 10. 20. 24. 29. 23. 49. 44. 44. 14. 24.
      22. 26. 22. 51. 47. 48. 16. 23. 16. 19. 17. 43. 40. 41. 13. 17.
      10. 11. 11. 28. 27. 27. 9. 10. 0. 0. 0. 0. 0. 0. 0. 0. 0. 0. 0. 0.
      0. 0. 0. 0. 0. 0. 0. 0. 0. 0. 0. 0. 0. 0. 0. 0. 0. 0. 0. 0. 0. 0.
      0. 0. 0. 0. 0. 0. 0. 0. 0. 0. 0. 0. 0. 0. 0. 0. 0. 1. 1. 1. 0. 0.
      9. 11. 11. 29. 27. 27. 7. 9. 14. 17. 17. 42. 39. 39. 10. 14. 15.
      19. 19. 47. 44. 44. 12. 15. 14. 17. 17. 41. 38. 38. 10. 14. 9. 11.
      11. 27. 25. 25. 7. 9. 0. 0. 0. 0. 0. 0. 0. 0. 0. 0. 0. 0. 0. 0. 0.
      0. 0. 0. 0. 0. 0. 0. 0. 0. 0. 0. 0. 0. 0. 0. 0. 0. 0. 0. 0. 0. 0.
      0. 0. 0. 0. 0. 0. 0. 0. 0. 0. 0. 0. 1. 1. 4. 3. 3. 0. 0. 10. 13.
      13. 31. 27. 27. 7. 10. 14. 19. 19. 43. 39. 39. 10. 14. 16. 21. 21.
      47. 42. 42. 11. 16. 14. 18. 18. 40. 36. 36. 10. 14. 9. 11. 11. 24.
      22. 22. 6. 9. 0. 0. 0. 0. 0. 0. 0. 0. 0. 0. 0. 0. 0. 0. 0. 0. 0.
      0. 0. 0. 0. 0. 0. 0. 0. 0. 0. 0. 0. 0. 0. 0. 0. 0. 0. 0. 0. 0. 0.
      0. 0. 0. 0. 0. 0. 0. 0. 0. 2. 3. 3. 8. 7. 7. 2. 2. 11. 14. 14. 33.
      29. 29. 8. 11. 15. 19. 19. 44. 40. 40. 10. 15. 16. 21. 21. 46. 42.
      42. 11. 16. 13. 17. 17. 39. 35. 35. 9. 13. 7. 10. 10. 20. 19. 19.
      5. 7. 0. 0. 0. 0. 0. 0. 0. 0. 0. 0. 0. 0. 0. 0. 0. 0. 0. 0. 0. 0.
      0. 0. 0. 0. 0. 0. 0. 0. 0. 0. 0. 0. 0. 0. 0. 0. 0. 0. 0. 0. 0. 0.
      0. 0. 0. 0. 0. 0. 4. 5. 5. 11. 10. 11. 4. 5. 12. 14. 14. 32. 30.
      31. 11. 14. 15. 19. 18. 41. 38. 41. 14. 18. 16. 19. 18. 42. 39.
      41. 14. 18. 12. 15. 15. 34. 31. 33. 11. 15. 5. 6. 6. 15. 14. 15.
      5. 6. 0. 0. 0. 0. 0. 0. 0. 0. 0. 0. 0. 0. 0. 0. 0. 0. 0. 0. 0. 0.
      0. 0. 0. 0. 0. 0. 0. 0. 0. 0. 0. 0. 0. 0. 0. 0. 0. 0. 0. 0. 0. 0.
      0. 0. 0. 0. 0. 0. 5. 6. 5. 11. 11. 12. 5. 6. 11. 12. 12. 26. 26.
      30. 12. 16. 14. 15. 15. 33. 32. 37. 16. 20. 14. 15. 14. 32. 32.
      37. 16. 20. 11. 11. 11. 25. 25. 29. 12. 16. 4. 3. 3. 9. 9. 12. 5.
      6. 0. 0. 0. 0. 0. 0. 0. 0. 0. 0. 0. 0. 0. 0. 0. 0. 0. 0. 0. 0. 0.
      0. 0. 0. 0. 0. 0. 0. 0. 0. 0. 0. 0. 0. 0. 0. 0. 0. 0. 0. 0. 0. 0.
      0. 0. 0. 0. 0. 4. 5. 5. 9. 10. 11. 4. 7. 10. 10. 9. 21. 22. 27.
      12. 17. 12. 12. 11. 25. 27. 34. 16. 21. 12. 11. 10. 24. 27. 34.
      16. 21. 9. 8. 8. 18. 20. 27. 12. 16. 2. 1. 1. 5. 7. 9. 4. 5. 0. 0.
      0. 0. 0. 0. 0. 0. 0. 0. 0. 0. 0. 0. 0. 0. 0. 0. 0. 0. 0. 0. 0. 0.
      0. 0. 0. 0. 0. 0. 0. 0. 0. 0. 0. 0. 0. 0. 0. 0. 0. 0. 0. 0. 0. 0.
      0. 0. 4. 4. 4. 7. 7. 9. 4. 6. 9. 7. 6. 14. 17. 23. 14. 17. 11. 7.
      7. 17. 20. 30. 17. 22. 11. 7. 6. 15. 20. 30. 17. 22. 7. 4. 4. 12.
      15. 23. 14. 17. 1. 0. 0. 3. 4. 9. 6. 6. 0. 0. 0. 0. 0. 0. 0. 0. 0.
      0. 0. 0. 0. 0. 0. 0.</_>
    <_>
      0. 0. 0. 0. 0. 0. 0. 0. 0. 0. 0. 0. 0. 0. 0. 0. 1. 6. 4. 6. 1. 1.
      0. 1. 11. 17. 11. 12. 6. 4. 0. 7. 23. 31. 17. 19. 11. 9. 4. 20.
      33. 41. 22. 28. 20. 20. 12. 33. 35. 41. 20. 28. 23. 25. 14. 36.
      28. 30. 12. 22. 20. 23. 14. 30. 15. 15. 7. 15. 15. 17. 11. 19. 4.
      4. 3. 7. 7. 9. 4. 6. 0. 0. 0. 0. 0. 0. 0. 0. 0. 0. 0. 0. 0. 0. 0.
      0. 0. 0. 0. 0. 0. 0. 0. 0. 0. 0. 0. 0. 0. 0. 0. 0. 3. 7. 5. 9. 4.
      3. 0. 2. 11. 18. 12. 16. 9. 8. 1. 10. 23. 31. 18. 22. 14. 12. 5.
      22. 35. 43. 24. 36. 29. 29. 14. 34. 36. 42. 23. 38. 33. 34. 17.
      37. 29. 30. 15. 30. 29. 31. 17. 31. 17. 17. 9. 22. 22. 24. 12. 20.
      5. 5. 4. 14. 14. 14. 5. 8. 0. 0. 0. 0. 0. 0. 0. 0. 0. 0. 0. 0. 0.
      0. 0. 0. 0. 0. 0. 0. 0. 0. 0. 0. 0. 0. 0. 1. 0. 1. 0. 0. 4. 7. 6.
      9. 5. 4. 0. 2. 11. 18. 13. 17. 9. 9. 1. 9. 21. 29. 18. 22. 13. 13.
      5. 19. 33. 40. 25. 41. 33. 33. 15. 32. 35. 40. 24. 44. 39. 40. 18.
      36. 29. 30. 17. 38. 37. 38. 18. 31. 18. 18. 11. 30. 30. 31. 14.
      20. 8. 8. 6. 19. 19. 19. 8. 9. 0. 0. 0. 0. 0. 0. 0. 0. 0. 0. 0. 0.
      0. 0. 0. 0. 0. 0. 0. 0. 0. 0. 0. 0. 0. 0. 0. 1. 0. 1. 0. 0. 3. 6.
      5. 9. 5. 5. 0. 2. 10. 15. 11. 16. 9. 8. 1. 8. 18. 24. 15. 20. 12.
      12. 4. 16. 30. 36. 24. 44. 37. 37. 15. 29. 33. 38. 25. 51. 46. 46.
      19. 33. 28. 29. 19. 46. 45. 46. 19. 29. 19. 19. 14. 38. 37. 38.
      16. 20. 9. 10. 8. 25. 24. 25. 9. 10. 0. 0. 0. 0. 0. 0. 0. 0. 0. 0.
      0. 0. 0. 0. 0. 0. 0. 0. 0. 0. 0. 0. 0. 0. 0. 0. 0. 0. 0. 1. 0. 0.
      2. 4. 4. 7. 4. 4. 0. 2. 6. 9. 7. 11. 6. 6. 1. 5. 10. 14. 10. 15.
      9. 9. 2. 9. 20. 25. 20. 42. 35. 35. 11. 20. 23. 28. 23. 51. 45.
      45. 15. 23. 21. 24. 20. 49. 46. 46. 16. 21. 16. 18. 16. 41. 39.
      39. 13. 16. 9. 10. 10. 27. 26. 26. 8. 10. 0. 0. 0. 0. 0. 0. 0. 0.
      0. 0. 0. 0. 0. 0. 0. 0. 0. 0. 0. 0. 0. 0. 0. 0. 0. 0. 0. 0. 0. 0.
      0. 0. 0. 0. 0. 2. 1. 2. 0. 0. 1. 1. 0. 2. 2. 2. 0. 1. 3. 5. 4. 9.
      7. 7. 1. 3. 12. 15. 15. 34. 30. 31. 8. 12. 16. 20. 20. 45. 40. 40.
      11. 16. 16. 20. 20. 47. 42. 42. 11. 16. 13. 17. 17. 39. 36. 36. 9.
      13. 7. 9. 9. 22. 21. 21. 5. 7. 0. 0. 0. 0. 0. 0. 0. 0. 0. 0. 0. 0.
      0. 0. 0. 0. 0. 0. 0. 0. 0. 0. 0. 0. 0. 0. 0. 0. 0. 0. 0. 0. 0. 0.
      0. 0. 0. 0. 0. 0. 0. 0. 0. 0. 0. 0. 0. 0. 4. 6. 6. 12. 11. 11. 3.
      4. 12. 16. 16. 35. 31. 31. 8. 12. 15. 21. 21. 45. 40. 40. 10. 15.
      15. 21. 21. 46. 40. 40. 10. 15. 12. 16. 16. 37. 32. 32. 8. 12. 5.
      7. 7. 16. 15. 15. 3. 5. 0. 0. 0. 0. 0. 0. 0. 0. 0. 0. 0. 0. 0. 0.
      0. 0. 0. 0. 0. 0. 0. 0. 0. 0. 0. 0. 0. 0. 0. 0. 0. 0. 0. 0. 0. 0.
      0. 0. 0. 0. 0. 0. 0. 0. 0. 0. 0. 0. 7. 9. 9. 19. 17. 17. 4. 7. 13.
      18. 18. 38. 33. 33. 8. 13. 16. 22. 22. 46. 40. 40. 10. 16. 15. 21.
      21. 44. 38. 38. 9. 15. 11. 16. 16. 34. 29. 29. 7. 11. 3. 4. 4. 9.
      8. 8. 1. 3. 0. 0. 0. 0. 0. 0. 0. 0. 0. 0. 0. 0. 0. 0. 0. 0. 0. 0.
      0. 0. 0. 0. 0. 0. 0. 0. 0. 0. 0. 0. 0. 0. 0. 0. 0. 0. 0. 0. 0. 0.
      0. 0. 0. 0. 0. 0. 0. 0. 8. 11. 10. 23. 20. 21. 5. 8. 13. 17. 17.
      38. 33. 34. 8. 13. 15. 20. 20. 45. 39. 39. 9. 15. 14. 19. 18. 41.
      35. 36. 8. 14. 10. 13. 13. 29. 25. 26. 6. 10. 1. 1. 1. 4. 3. 3. 0.
      1. 0. 0. 0. 0. 0. 0. 0. 0. 0. 0. 0. 0. 0. 0. 0. 0. 0. 0. 0. 0. 0.
      0. 0. 0. 0. 0. 0. 0. 0. 0. 0. 0. 0. 0. 0. 0. 0. 0. 0. 0. 0. 0. 0.
      0. 0. 0. 0. 0. 7. 9. 9. 21. 19. 19. 5. 7. 11. 13. 13. 32. 28. 29.
      7. 11. 12. 15. 14. 36. 32. 33. 8. 12. 11. 13. 13. 32. 29. 29. 7.
      11. 7. 9. 9. 22. 20. 20. 5. 7. 0. 0. 0. 1. 0. 0. 0. 0. 0. 0. 0. 0.
      0. 0. 0. 0. 0. 0. 0. 0. 0. 0. 0. 0. 0. 0. 0. 0. 0. 0. 0. 0. 0. 0.
      0. 0. 0. 0. 0. 0. 0. 0. 0. 0. 0. 0. 0. 0. 0. 0. 0. 0. 0. 0. 0. 0.
      5. 7. 5. 17. 16. 16. 3. 5. 8. 10. 9. 25. 23. 24. 5. 8. 9. 11. 10.
      29. 27. 28. 7. 9. 8. 10. 9. 25. 23. 24. 5. 8. 5. 7. 5. 17. 16. 16.
      3. 5. 0. 0. 0. 0. 0. 0. 0. 0. 0. 0. 0. 0. 0. 0. 0. 0. 0. 0. 0. 0.
      0. 0. 0. 0. 0. 0. 0. 0. 0. 0. 0. 0. 0. 0. 0. 0. 0. 0. 0. 0. 0. 0.
      0. 0. 0. 0. 0. 0. 0. 0. 0. 0. 0. 0. 0. 0. 4. 4. 4. 12. 11. 11. 1.
      4. 6. 7. 6. 19. 15. 17. 3. 6. 7. 9. 7. 22. 19. 20. 3. 7. 6. 7. 6.
      19. 15. 17. 3. 6. 4. 4. 4. 12. 11. 11. 1. 4. 0. 0. 0. 0. 0. 0. 0.
      0. 0. 0. 0. 0. 0. 0. 0. 0. 0. 0. 0. 0. 0. 0. 0. 0.</_>
    <_>
      0. 0. 0. 0. 0. 0. 0. 0. 0. 0. 0. 0. 0. 0. 0. 0. 1. 3. 1. 1. 1. 1.
      0. 1. 6. 12. 9. 9. 4. 4. 0. 6. 17. 23. 15. 15. 7. 7. 1. 17. 28.
      41. 28. 35. 22. 22. 7. 30. 33. 46. 30. 39. 27. 28. 9. 33. 28. 39.
      27. 36. 27. 27. 11. 28. 19. 25. 17. 27. 20. 20. 7. 19. 7. 11. 9.
      15. 11. 12. 4. 7. 0. 0. 0. 0. 0. 0. 0. 0. 0. 0. 0. 0. 0. 0. 0. 0.
      0. 0. 0. 0. 0. 0. 0. 0. 0. 0. 0. 0. 0. 0. 0. 0. 2. 5. 4. 4. 2. 1.
      0. 1. 9. 16. 12. 12. 7. 5. 0. 8. 20. 29. 20. 20. 10. 9. 2. 18. 33.
      47. 33. 42. 29. 28. 10. 33. 36. 49. 34. 49. 36. 35. 12. 36. 30.
      40. 28. 44. 34. 35. 14. 31. 20. 25. 18. 33. 27. 28. 11. 21. 8. 11.
      10. 20. 16. 17. 5. 9. 0. 0. 0. 0. 0. 0. 0. 0. 0. 0. 0. 0. 0. 0. 0.
      0. 0. 0. 0. 0. 0. 0. 0. 0. 0. 0. 0. 0. 0. 0. 0. 0. 3. 6. 5. 5. 2.
      1. 0. 2. 10. 17. 13. 14. 7. 5. 0. 8. 19. 29. 20. 21. 11. 9. 2. 18.
      33. 45. 32. 46. 33. 33. 12. 32. 36. 47. 34. 54. 42. 42. 16. 36.
      31. 38. 28. 49. 41. 42. 17. 32. 20. 25. 18. 37. 33. 34. 14. 21. 9.
      12. 10. 23. 21. 21. 8. 10. 0. 0. 0. 0. 0. 0. 0. 0. 0. 0. 0. 0. 0.
      0. 0. 0. 0. 0. 0. 0. 0. 0. 0. 0. 0. 0. 0. 0. 0. 0. 0. 0. 3. 6. 5.
      5. 2. 1. 0. 2. 9. 16. 12. 13. 6. 5. 0. 8. 17. 26. 18. 19. 10. 8.
      2. 15. 31. 43. 31. 49. 37. 36. 12. 30. 34. 45. 34. 58. 47. 47. 17.
      34. 30. 37. 28. 55. 48. 49. 18. 31. 21. 25. 20. 43. 39. 40. 15.
      22. 10. 13. 12. 28. 25. 26. 9. 11. 0. 0. 0. 0. 0. 0. 0. 0. 0. 0.
      0. 0. 0. 0. 0. 0. 0. 0. 0. 0. 0. 0. 0. 0. 0. 0. 0. 0. 0. 0. 0. 0.
      2. 5. 3. 4. 2. 1. 0. 1. 7. 12. 9. 10. 5. 3. 0. 5. 11. 18. 13. 14.
      7. 5. 1. 10. 23. 30. 24. 43. 35. 34. 11. 22. 26. 33. 27. 53. 46.
      46. 15. 26. 23. 27. 23. 52. 48. 49. 17. 24. 17. 19. 17. 43. 40.
      41. 14. 18. 10. 11. 10. 28. 26. 27. 9. 10. 0. 0. 0. 0. 0. 0. 0. 0.
      0. 0. 0. 0. 0. 0. 0. 0. 0. 0. 0. 0. 0. 0. 0. 0. 0. 0. 0. 0. 0. 0.
      0. 0. 1. 2. 1. 1. 0. 0. 0. 0. 1. 3. 2. 2. 1. 0. 0. 0. 1. 3. 2. 4.
      2. 1. 0. 0. 11. 14. 13. 32. 28. 27. 7. 10. 15. 19. 18. 44. 39. 39.
      10. 14. 15. 19. 19. 47. 44. 44. 12. 15. 14. 17. 17. 41. 38. 38.
      10. 14. 9. 11. 11. 27. 25. 25. 7. 9. 0. 0. 0. 0. 0. 0. 0. 0. 0. 0.
      0. 0. 0. 0. 0. 0. 0. 0. 0. 0. 0. 0. 0. 0. 0. 0. 0. 0. 0. 0. 0. 0.
      0. 0. 0. 0. 0. 0. 0. 0. 0. 0. 0. 0. 0. 0. 0. 0. 0. 1. 1. 4. 3. 3.
      0. 0. 10. 13. 13. 31. 27. 27. 7. 10. 14. 19. 19. 43. 39. 39. 10.
      14. 16. 21. 21. 47. 42. 42. 11. 16. 14. 18. 18. 40. 36. 36. 10.
      14. 9. 11. 11. 24. 22. 22. 6. 9. 0. 0. 0. 0. 0. 0. 0. 0. 0. 0. 0.
      0. 0. 0. 0. 0. 0. 0. 0. 0. 0. 0. 0. 0. 0. 0. 0. 0. 0. 0. 0. 0. 0.
      0. 0. 0. 0. 0. 0. 0. 0. 0. 0. 0. 0. 0. 0. 0. 2. 3. 3. 8. 7. 7. 2.
      2. 11. 14. 14. 33. 29. 29. 8. 11. 15. 19. 19. 44. 40. 40. 10. 15.
      16. 21. 21. 46. 42. 42. 11. 16. 13. 17. 17. 39. 35. 35. 9. 13. 7.
      10. 10. 20. 19. 19. 5. 7. 0. 0. 0. 0. 0. 0. 0. 0. 0. 0. 0. 0. 0.
      0. 0. 0. 0. 0. 0. 0. 0. 0. 0. 0. 0. 0. 0. 0. 0. 0. 0. 0. 0. 0. 0.
      0. 0. 0. 0. 0. 0. 0. 0. 0. 0. 0. 0. 0. 4. 4. 4. 11. 10. 10. 3. 4.
      11. 13. 13. 32. 29. 29. 8. 11. 14. 17. 17. 41. 37. 38. 10. 14. 14.
      18. 17. 42. 38. 38. 11. 14. 11. 14. 14. 34. 31. 31. 8. 11. 5. 6.
      6. 15. 14. 14. 3. 5. 0. 0. 0. 0. 0. 0. 0. 0. 0. 0. 0. 0. 0. 0. 0.
      0. 0. 0. 0. 0. 0. 0. 0. 0. 0. 0. 0. 0. 0. 0. 0. 0. 0. 0. 0. 0. 0.
      0. 0. 0. 0. 0. 0. 0. 0. 0. 0. 0. 4. 5. 4. 11. 10. 10. 3. 4. 9. 11.
      10. 26. 24. 24. 7. 9. 12. 14. 13. 33. 30. 31. 8. 12. 11. 13. 13.
      33. 29. 30. 8. 11. 9. 10. 10. 25. 23. 24. 6. 9. 3. 3. 3. 10. 9. 9.
      2. 3. 0. 0. 0. 0. 0. 0. 0. 0. 0. 0. 0. 0. 0. 0. 0. 0. 0. 0. 0. 0.
      0. 0. 0. 0. 0. 0. 0. 0. 0. 0. 0. 0. 0. 0. 0. 0. 0. 0. 0. 0. 0. 0.
      0. 0. 0. 0. 0. 0. 4. 4. 3. 9. 8. 9. 3. 4. 8. 8. 8. 21. 18. 20. 5.
      8. 9. 10. 9. 25. 23. 24. 7. 9. 8. 9. 9. 24. 22. 23. 5. 8. 5. 7. 5.
      18. 17. 17. 4. 5. 1. 1. 1. 5. 4. 4. 0. 1. 0. 0. 0. 0. 0. 0. 0. 0.
      0. 0. 0. 0. 0. 0. 0. 0. 0. 0. 0. 0. 0. 0. 0. 0. 0. 0. 0. 0. 0. 0.
      0. 0. 0. 0. 0. 0. 0. 0. 0. 0. 0. 0. 0. 0. 0. 0. 0. 0. 3. 3. 3. 6.
      6. 7. 3. 3. 4. 4. 3. 14. 12. 14. 3. 4. 6. 6. 4. 17. 15. 17. 4. 6.
      4. 4. 3. 15. 14. 15. 3. 4. 3. 3. 3. 12. 11. 12. 3. 3. 0. 0. 0. 3.
      3. 3. 0. 0. 0. 0. 0. 0. 0. 0. 0. 0. 0. 0. 0. 0. 0. 0. 0. 0.</_>
    <_>
      0. 0. 0. 0. 0. 0. 0. 0. 0. 0. 0. 0. 0. 0. 0. 0. 1. 4. 4. 4. 1. 1.
      0. 1. 9. 14. 11. 11. 6. 6. 1. 9. 20. 27. 15. 15. 9. 9. 3. 20. 33.
      39. 20. 22. 15. 17. 11. 35. 35. 41. 19. 25. 19. 20. 12. 38. 30.
      31. 12. 19. 17. 19. 12. 31. 19. 19. 7. 14. 12. 14. 9. 20. 7. 7. 3.
      7. 7. 9. 4. 9. 0. 0. 0. 1. 1. 1. 0. 0. 0. 0. 0. 0. 0. 0. 0. 0. 0.
      0. 0. 0. 0. 0. 0. 0. 0. 1. 1. 2. 1. 1. 0. 0. 5. 10. 9. 11. 8. 8.
      0. 5. 15. 22. 17. 21. 12. 12. 2. 15. 25. 35. 24. 27. 17. 17. 5.
      25. 40. 49. 30. 37. 28. 28. 12. 41. 41. 48. 28. 37. 30. 31. 16.
      43. 34. 36. 18. 29. 25. 28. 15. 35. 21. 23. 11. 22. 20. 22. 11.
      23. 9. 10. 5. 14. 12. 14. 7. 10. 0. 0. 0. 1. 1. 2. 0. 0. 0. 0. 0.
      0. 0. 0. 0. 0. 0. 0. 0. 0. 0. 0. 0. 0. 1. 2. 1. 4. 3. 3. 1. 2. 8.
      13. 12. 16. 12. 13. 3. 9. 17. 25. 20. 25. 18. 19. 5. 18. 27. 37.
      26. 31. 22. 23. 8. 29. 41. 51. 34. 46. 37. 38. 17. 43. 42. 49. 31.
      46. 39. 41. 19. 44. 34. 37. 21. 38. 34. 36. 18. 36. 22. 24. 15.
      30. 28. 30. 14. 24. 11. 12. 8. 19. 18. 19. 8. 12. 0. 0. 0. 2. 1.
      2. 0. 0. 0. 0. 0. 0. 0. 0. 0. 0. 0. 0. 0. 0. 0. 0. 0. 0. 2. 2. 2.
      5. 4. 5. 2. 2. 8. 13. 12. 18. 13. 15. 4. 10. 17. 25. 20. 27. 20.
      22. 6. 19. 26. 35. 25. 32. 24. 25. 9. 28. 40. 49. 35. 52. 44. 46.
      19. 42. 41. 48. 33. 55. 48. 49. 20. 43. 34. 38. 24. 48. 44. 45.
      20. 35. 23. 26. 18. 39. 37. 38. 16. 24. 12. 14. 10. 26. 24. 25.
      10. 13. 0. 0. 0. 2. 1. 2. 0. 0. 0. 0. 0. 0. 0. 0. 0. 0. 0. 0. 0.
      0. 0. 0. 0. 0. 2. 2. 2. 5. 3. 5. 2. 2. 7. 11. 10. 16. 12. 14. 4.
      9. 14. 19. 16. 23. 17. 19. 6. 16. 19. 25. 19. 26. 20. 22. 8. 21.
      32. 39. 31. 52. 45. 46. 17. 33. 33. 39. 31. 57. 51. 52. 19. 34.
      28. 32. 25. 53. 49. 50. 19. 29. 20. 23. 20. 45. 42. 43. 16. 21.
      12. 14. 12. 30. 28. 29. 10. 12. 0. 0. 0. 1. 1. 1. 0. 0. 0. 0. 0.
      0. 0. 0. 0. 0. 0. 0. 0. 0. 0. 0. 0. 0. 1. 2. 1. 3. 3. 4. 1. 2. 4.
      5. 4. 9. 8. 9. 3. 5. 5. 7. 6. 12. 10. 12. 4. 7. 5. 7. 6. 12. 10.
      12. 4. 7. 14. 18. 17. 38. 36. 37. 11. 16. 16. 20. 20. 46. 44. 44.
      13. 17. 16. 20. 20. 48. 45. 45. 13. 16. 14. 18. 18. 42. 40. 40.
      12. 14. 10. 12. 12. 29. 27. 27. 8. 10. 0. 0. 0. 0. 0. 0. 0. 0. 0.
      0. 0. 0. 0. 0. 0. 0. 0. 0. 0. 0. 0. 0. 0. 0. 0. 0. 0. 1. 1. 1. 1.
      1. 1. 1. 0. 2. 2. 3. 1. 2. 1. 1. 0. 2. 3. 4. 2. 2. 1. 1. 0. 4. 4.
      5. 2. 2. 11. 13. 13. 32. 31. 31. 10. 12. 15. 18. 18. 44. 42. 42.
      12. 16. 17. 20. 20. 49. 45. 45. 14. 17. 15. 18. 18. 42. 40. 40.
      12. 15. 10. 12. 12. 28. 26. 26. 8. 10. 0. 0. 0. 0. 0. 0. 0. 0. 0.
      0. 0. 0. 0. 0. 0. 0. 0. 0. 0. 0. 0. 0. 0. 0. 0. 0. 0. 0. 0. 0. 0.
      0. 0. 0. 0. 0. 0. 0. 0. 0. 0. 0. 0. 0. 0. 0. 0. 0. 0. 0. 0. 3. 3.
      3. 0. 0. 10. 13. 13. 31. 28. 28. 7. 10. 15. 19. 19. 44. 40. 40.
      11. 15. 17. 22. 22. 48. 44. 44. 12. 17. 15. 19. 19. 41. 38. 38.
      11. 15. 10. 12. 12. 26. 24. 24. 7. 10. 0. 0. 0. 0. 0. 0. 0. 0. 0.
      0. 0. 0. 0. 0. 0. 0. 0. 0. 0. 0. 0. 0. 0. 0. 0. 0. 0. 0. 0. 0. 0.
      0. 0. 0. 0. 0. 0. 0. 0. 0. 0. 0. 0. 0. 0. 0. 0. 0. 1. 3. 3. 7. 5.
      4. 0. 0. 11. 15. 15. 31. 26. 25. 6. 9. 15. 21. 20. 42. 35. 34. 8.
      14. 16. 22. 22. 45. 38. 37. 10. 15. 14. 19. 18. 37. 32. 31. 8. 13.
      8. 10. 10. 20. 18. 18. 6. 8. 0. 0. 0. 0. 0. 0. 0. 0. 0. 0. 0. 0.
      0. 0. 0. 0. 0. 0. 0. 0. 0. 0. 0. 0. 0. 0. 0. 0. 0. 0. 0. 0. 0. 0.
      0. 0. 0. 0. 0. 0. 0. 0. 0. 0. 0. 0. 0. 0. 2. 4. 4. 8. 6. 5. 0. 1.
      9. 14. 13. 26. 21. 19. 4. 7. 12. 19. 18. 35. 28. 26. 6. 10. 13.
      19. 18. 36. 29. 27. 7. 11. 10. 15. 15. 29. 24. 23. 6. 9. 5. 7. 7.
      14. 12. 12. 4. 5. 0. 0. 0. 0. 0. 0. 0. 0. 0. 0. 0. 0. 0. 0. 0. 0.
      0. 0. 0. 0. 0. 0. 0. 0. 0. 0. 0. 0. 0. 0. 0. 0. 0. 0. 0. 0. 0. 0.
      0. 0. 0. 0. 0. 0. 0. 0. 0. 0. 2. 5. 4. 9. 5. 4. 0. 1. 7. 14. 12.
      22. 16. 14. 2. 5. 9. 17. 16. 28. 21. 18. 3. 7. 10. 16. 16. 28. 21.
      18. 3. 8. 8. 12. 12. 22. 16. 15. 3. 7. 3. 4. 4. 8. 7. 7. 2. 3. 0.
      0. 0. 0. 0. 0. 0. 0. 0. 0. 0. 0. 0. 0. 0. 0. 0. 0. 0. 0. 0. 0. 0.
      0. 0. 0. 0. 0. 0. 0. 0. 0. 0. 0. 0. 0. 0. 0. 0. 0. 0. 0. 0. 0. 0.
      0. 0. 0. 1. 6. 4. 7. 4. 3. 0. 0. 4. 11. 11. 17. 11. 7. 0. 3. 6.
      14. 12. 20. 14. 11. 1. 4. 6. 12. 12. 20. 12. 11. 1. 4. 4. 9. 9.
      15. 9. 7. 1. 3. 1. 1. 1. 4. 3. 3. 0. 1. 0. 0. 0. 0. 0. 0. 0. 0. 0.
      0. 0. 0. 0. 0. 0. 0.</_>
    <_>
      0. 0. 0. 0. 0. 0. 0. 0. 0. 0. 0. 0. 0. 0. 0. 0. 3. 6. 3. 3. 1. 1.
      0. 3. 11. 15. 9. 9. 4. 4. 0. 11. 22. 28. 14. 14. 9. 9. 3. 22. 31.
      39. 22. 27. 19. 19. 7. 31. 31. 39. 22. 30. 22. 22. 11. 31. 25. 30.
      17. 25. 20. 20. 9. 23. 15. 19. 11. 19. 15. 14. 7. 14. 4. 6. 4. 11.
      9. 7. 3. 4. 0. 0. 0. 0. 0. 0. 0. 0. 0. 0. 0. 0. 0. 0. 0. 0. 0. 0.
      0. 0. 0. 0. 0. 0. 0. 1. 0. 1. 0. 1. 0. 0. 5. 9. 5. 7. 3. 4. 0. 5.
      14. 20. 12. 14. 8. 8. 1. 14. 24. 33. 18. 20. 11. 12. 3. 24. 35.
      44. 27. 36. 27. 28. 10. 35. 36. 44. 27. 40. 31. 31. 14. 36. 28.
      33. 21. 35. 30. 29. 14. 28. 17. 20. 14. 25. 23. 23. 10. 17. 7. 8.
      7. 15. 14. 14. 5. 7. 0. 0. 0. 0. 0. 0. 0. 0. 0. 0. 0. 0. 0. 0. 0.
      0. 0. 0. 0. 0. 0. 0. 0. 0. 1. 1. 1. 2. 1. 1. 0. 1. 6. 10. 6. 8. 4.
      5. 0. 6. 15. 21. 13. 15. 8. 9. 1. 15. 24. 32. 19. 21. 12. 13. 4.
      24. 36. 44. 28. 42. 32. 33. 13. 36. 36. 44. 29. 46. 39. 39. 16.
      36. 29. 33. 23. 42. 38. 38. 17. 29. 19. 21. 15. 33. 31. 30. 13.
      19. 8. 9. 8. 20. 19. 19. 7. 8. 0. 0. 0. 0. 0. 0. 0. 0. 0. 0. 0. 0.
      0. 0. 0. 0. 0. 0. 0. 0. 0. 0. 0. 0. 1. 1. 1. 2. 1. 1. 0. 1. 6. 9.
      6. 8. 4. 5. 0. 6. 13. 19. 12. 14. 8. 9. 1. 13. 22. 29. 18. 19. 11.
      12. 3. 22. 34. 42. 29. 46. 37. 38. 14. 34. 35. 42. 30. 53. 46. 46.
      18. 36. 29. 33. 25. 51. 46. 47. 19. 30. 20. 22. 18. 41. 38. 38.
      15. 20. 10. 11. 10. 26. 25. 24. 9. 10. 0. 0. 0. 0. 0. 0. 0. 0. 0.
      0. 0. 0. 0. 0. 0. 0. 0. 0. 0. 0. 0. 0. 0. 0. 1. 1. 0. 1. 1. 1. 0.
      1. 5. 7. 5. 6. 3. 4. 0. 5. 10. 14. 9. 11. 6. 7. 0. 10. 15. 20. 13.
      16. 9. 10. 2. 15. 26. 31. 24. 44. 37. 38. 13. 26. 28. 32. 26. 53.
      47. 48. 17. 28. 24. 27. 23. 52. 49. 50. 18. 25. 18. 19. 17. 43.
      41. 42. 15. 18. 10. 11. 10. 27. 26. 26. 9. 10. 0. 0. 0. 0. 0. 0.
      0. 0. 0. 0. 0. 0. 0. 0. 0. 0. 0. 0. 0. 0. 0. 0. 0. 0. 0. 0. 0. 1.
      0. 1. 0. 0. 1. 2. 1. 2. 1. 1. 0. 1. 1. 2. 2. 3. 1. 2. 0. 1. 2. 3.
      3. 7. 4. 5. 0. 2. 11. 14. 13. 33. 29. 30. 7. 11. 14. 18. 18. 44.
      40. 40. 11. 14. 15. 18. 18. 46. 44. 44. 12. 15. 13. 16. 16. 40.
      37. 37. 11. 13. 9. 10. 10. 24. 23. 23. 7. 9. 0. 0. 0. 0. 0. 0. 0.
      0. 0. 0. 0. 0. 0. 0. 0. 0. 0. 0. 0. 0. 0. 0. 0. 0. 0. 0. 0. 0. 0.
      0. 0. 0. 0. 0. 0. 0. 0. 0. 0. 0. 0. 0. 0. 0. 0. 0. 0. 0. 2. 2. 2.
      8. 6. 6. 1. 2. 10. 13. 13. 32. 29. 29. 7. 10. 14. 18. 18. 43. 39.
      39. 10. 14. 15. 19. 19. 46. 42. 42. 11. 15. 13. 16. 16. 38. 35.
      35. 9. 13. 7. 9. 9. 20. 19. 19. 5. 7. 0. 0. 0. 0. 0. 0. 0. 0. 0.
      0. 0. 0. 0. 0. 0. 0. 0. 0. 0. 0. 0. 0. 0. 0. 0. 0. 0. 0. 0. 0. 0.
      0. 0. 0. 0. 0. 0. 0. 0. 0. 0. 0. 0. 0. 0. 0. 0. 0. 4. 5. 5. 13.
      12. 12. 2. 4. 11. 15. 15. 35. 31. 31. 7. 11. 14. 19. 19. 44. 40.
      40. 10. 14. 15. 19. 19. 45. 40. 40. 10. 15. 12. 15. 15. 35. 32.
      32. 8. 12. 5. 6. 6. 15. 13. 13. 3. 5. 0. 0. 0. 0. 0. 0. 0. 0. 0.
      0. 0. 0. 0. 0. 0. 0. 0. 0. 0. 0. 0. 0. 0. 0. 0. 0. 0. 0. 0. 0. 0.
      0. 0. 0. 0. 0. 0. 0. 0. 0. 0. 0. 0. 0. 0. 0. 0. 0. 5. 7. 6. 16.
      14. 14. 3. 5. 11. 14. 13. 32. 28. 29. 7. 11. 13. 17. 16. 39. 35.
      35. 8. 13. 13. 16. 16. 38. 34. 34. 8. 13. 9. 12. 12. 29. 25. 26.
      6. 9. 3. 3. 3. 9. 7. 7. 2. 3. 0. 0. 0. 0. 0. 0. 0. 0. 0. 0. 0. 0.
      0. 0. 0. 0. 0. 0. 0. 0. 0. 0. 0. 0. 0. 0. 0. 0. 0. 0. 0. 0. 0. 0.
      0. 0. 0. 0. 0. 0. 0. 0. 0. 0. 0. 0. 0. 0. 5. 6. 6. 14. 12. 13. 3.
      5. 9. 11. 10. 25. 22. 23. 5. 9. 10. 13. 12. 30. 26. 27. 6. 10. 9.
      12. 11. 28. 25. 25. 6. 9. 7. 9. 8. 21. 18. 19. 4. 7. 1. 1. 1. 4.
      3. 3. 0. 1. 0. 0. 0. 0. 0. 0. 0. 0. 0. 0. 0. 0. 0. 0. 0. 0. 0. 0.
      0. 0. 0. 0. 0. 0. 0. 0. 0. 0. 0. 0. 0. 0. 0. 0. 0. 0. 0. 0. 0. 0.
      0. 0. 0. 0. 0. 0. 0. 0. 4. 5. 4. 11. 10. 11. 2. 4. 7. 8. 7. 18.
      16. 17. 3. 7. 7. 9. 8. 22. 20. 21. 4. 7. 7. 8. 7. 20. 17. 18. 3.
      7. 4. 5. 4. 14. 12. 12. 2. 4. 0. 0. 0. 1. 1. 1. 0. 0. 0. 0. 0. 0.
      0. 0. 0. 0. 0. 0. 0. 0. 0. 0. 0. 0. 0. 0. 0. 0. 0. 0. 0. 0. 0. 0.
      0. 0. 0. 0. 0. 0. 0. 0. 0. 0. 0. 0. 0. 0. 0. 0. 0. 0. 0. 0. 0. 0.
      3. 3. 1. 7. 6. 7. 1. 3. 3. 4. 3. 11. 9. 11. 1. 3. 4. 4. 4. 14. 11.
      12. 1. 4. 3. 4. 3. 11. 9. 11. 1. 3. 3. 3. 1. 7. 6. 7. 1. 3. 0. 0.
      0. 0. 0. 0. 0. 0. 0. 0. 0. 0. 0. 0. 0. 0. 0. 0. 0. 0. 0. 0. 0. 0.</_>
    <_>
      0. 0. 0. 0. 0. 0. 0. 0. 5. 9. 3. 5. 1. 1. 0. 5. 15. 20. 9. 11. 6.
      6. 1. 17. 31. 38. 15. 17. 12. 12. 6. 31. 46. 52. 20. 22. 17. 17.
      12. 47. 55. 59. 20. 27. 23. 27. 22. 60. 49. 51. 14. 23. 23. 30.
      27. 57. 35. 35. 7. 20. 20. 27. 23. 43. 20. 20. 3. 14. 14. 20. 17.
      27. 7. 7. 1. 7. 7. 12. 9. 11. 0. 0. 0. 1. 1. 3. 1. 1. 0. 0. 0. 0.
      0. 0. 0. 0. 0. 0. 0. 0. 0. 0. 0. 0. 5. 8. 4. 5. 2. 2. 0. 5. 14.
      18. 9. 9. 5. 5. 1. 15. 27. 33. 14. 15. 10. 10. 5. 28. 40. 44. 17.
      18. 15. 15. 10. 41. 47. 50. 17. 24. 21. 24. 20. 51. 44. 46. 14.
      27. 25. 33. 25. 51. 34. 35. 9. 24. 24. 33. 24. 42. 21. 22. 7. 21.
      20. 28. 20. 29. 9. 10. 3. 14. 14. 18. 11. 15. 2. 4. 2. 6. 6. 8. 4.
      4. 0. 0. 0. 0. 0. 0. 0. 0. 0. 0. 0. 0. 0. 0. 0. 0. 3. 7. 3. 3. 2.
      2. 0. 4. 11. 15. 7. 8. 5. 5. 1. 12. 21. 26. 11. 12. 9. 9. 4. 22.
      30. 34. 14. 15. 12. 12. 8. 32. 37. 41. 15. 22. 19. 23. 16. 42. 37.
      40. 15. 29. 27. 33. 22. 44. 30. 33. 13. 31. 28. 35. 22. 38. 21.
      24. 10. 28. 25. 32. 18. 28. 11. 14. 7. 20. 18. 23. 12. 16. 3. 5.
      3. 9. 8. 10. 3. 5. 0. 0. 0. 0. 0. 0. 0. 0. 0. 0. 0. 0. 0. 0. 0. 0.
      3. 4. 2. 3. 1. 1. 0. 3. 8. 11. 5. 6. 4. 4. 1. 9. 15. 18. 8. 9. 6.
      6. 3. 16. 22. 26. 11. 12. 9. 9. 5. 23. 31. 37. 17. 24. 19. 21. 12.
      34. 33. 41. 21. 36. 29. 34. 18. 39. 30. 38. 21. 40. 32. 38. 19.
      36. 22. 30. 18. 36. 30. 35. 16. 28. 13. 18. 12. 26. 21. 25. 11.
      17. 4. 5. 4. 10. 9. 10. 4. 5. 0. 0. 0. 0. 0. 0. 0. 0. 0. 0. 0. 0.
      0. 0. 0. 0. 1. 1. 0. 1. 0. 0. 0. 1. 1. 2. 1. 1. 1. 1. 0. 2. 3. 5.
      3. 4. 2. 1. 0. 3. 7. 12. 9. 10. 5. 4. 0. 7. 14. 25. 20. 25. 14.
      15. 2. 14. 19. 33. 27. 39. 26. 27. 7. 21. 21. 35. 28. 43. 30. 32.
      9. 24. 17. 28. 22. 37. 27. 29. 9. 21. 11. 17. 13. 25. 19. 21. 7.
      13. 3. 5. 3. 9. 8. 9. 3. 4. 0. 0. 0. 0. 0. 0. 0. 0. 0. 0. 0. 0. 0.
      0. 0. 0. 0. 0. 0. 0. 0. 0. 0. 0. 1. 3. 3. 3. 1. 1. 0. 1. 5. 11.
      11. 11. 5. 4. 0. 5. 12. 23. 21. 21. 10. 9. 0. 11. 19. 36. 33. 35.
      18. 17. 0. 17. 22. 42. 37. 44. 25. 24. 2. 21. 20. 37. 32. 41. 25.
      24. 3. 19. 14. 25. 22. 31. 20. 20. 3. 14. 7. 13. 11. 18. 13. 12.
      2. 8. 2. 3. 2. 5. 4. 4. 1. 2. 0. 0. 0. 0. 0. 0. 0. 0. 0. 0. 0. 0.
      0. 0. 0. 0. 1. 1. 1. 2. 1. 1. 0. 1. 5. 8. 8. 10. 6. 6. 1. 4. 10.
      20. 19. 22. 12. 11. 1. 9. 17. 33. 30. 33. 17. 16. 1. 16. 23. 43.
      39. 43. 23. 21. 1. 21. 22. 43. 39. 42. 23. 21. 0. 20. 17. 32. 29.
      33. 18. 16. 0. 16. 10. 19. 17. 21. 12. 11. 0. 9. 4. 8. 7. 10. 6.
      5. 0. 3. 0. 0. 0. 1. 1. 1. 0. 0. 0. 0. 0. 0. 0. 0. 0. 0. 0. 0. 0.
      0. 0. 0. 0. 0. 3. 3. 3. 7. 5. 5. 2. 3. 8. 13. 12. 19. 14. 14. 4.
      8. 15. 25. 24. 33. 22. 21. 4. 14. 21. 37. 34. 43. 26. 25. 4. 20.
      24. 44. 38. 45. 26. 24. 3. 23. 22. 40. 32. 35. 19. 17. 0. 21. 17.
      29. 21. 21. 10. 9. 0. 16. 11. 17. 10. 11. 5. 5. 0. 11. 5. 7. 3. 3.
      1. 1. 0. 5. 1. 1. 0. 0. 0. 0. 0. 2. 0. 0. 0. 0. 0. 0. 0. 0. 0. 0.
      0. 0. 0. 0. 0. 0. 4. 5. 4. 10. 9. 9. 4. 5. 15. 19. 15. 26. 21. 21.
      8. 15. 27. 37. 27. 41. 31. 31. 12. 27. 37. 51. 37. 50. 36. 36. 13.
      37. 43. 57. 38. 49. 34. 34. 13. 42. 41. 53. 31. 35. 24. 23. 10.
      41. 32. 39. 19. 20. 13. 13. 7. 32. 22. 25. 10. 10. 8. 8. 5. 23.
      13. 13. 3. 4. 4. 4. 3. 13. 5. 7. 1. 2. 2. 2. 1. 7. 0. 0. 0. 0. 0.
      0. 0. 0. 0. 0. 0. 0. 0. 0. 0. 0. 5. 5. 5. 11. 10. 10. 4. 5. 16.
      20. 14. 26. 22. 23. 10. 17. 29. 35. 23. 37. 31. 32. 15. 30. 39.
      48. 29. 43. 35. 36. 17. 40. 46. 54. 30. 41. 33. 34. 18. 47. 46.
      52. 25. 29. 23. 23. 14. 46. 37. 40. 16. 16. 14. 14. 11. 38. 27.
      29. 10. 11. 10. 10. 8. 28. 17. 18. 5. 6. 6. 6. 5. 18. 8. 9. 2. 2.
      2. 2. 2. 9. 0. 1. 0. 0. 0. 0. 0. 1. 0. 0. 0. 0. 0. 0. 0. 0. 5. 5.
      5. 11. 9. 11. 5. 6. 16. 17. 10. 22. 21. 22. 11. 17. 30. 31. 16.
      30. 29. 30. 17. 31. 42. 46. 22. 36. 34. 35. 21. 44. 51. 55. 24.
      36. 33. 34. 22. 53. 54. 57. 23. 27. 24. 24. 18. 54. 46. 48. 18.
      18. 16. 16. 14. 46. 34. 36. 12. 14. 12. 12. 10. 34. 21. 22. 5. 7.
      7. 7. 5. 22. 9. 11. 2. 4. 4. 4. 2. 11. 0. 1. 0. 0. 0. 0. 0. 1. 0.
      0. 0. 0. 0. 0. 0. 0. 3. 3. 3. 7. 7. 9. 3. 5. 15. 15. 7. 15. 15.
      19. 11. 17. 30. 30. 12. 23. 23. 27. 17. 33. 46. 47. 20. 31. 30.
      31. 22. 47. 57. 59. 25. 33. 31. 33. 23. 59. 62. 63. 25. 28. 25.
      27. 22. 62. 52. 54. 22. 22. 20. 20. 17. 52. 38. 41. 15. 17. 15.
      15. 12. 38. 23. 23. 7. 9. 9. 9. 7. 23. 11. 13. 3. 3. 3. 3. 3. 13.
      0. 2. 0. 0. 0. 0. 0. 0.</_>
    <_>
      2. 5. 0. 2. 0. 0. 0. 2. 9. 16. 9. 11. 5. 5. 0. 11. 22. 30. 15. 17.
      11. 11. 3. 23. 36. 47. 25. 25. 15. 15. 6. 38. 47. 57. 27. 30. 20.
      23. 12. 51. 54. 62. 25. 35. 28. 33. 23. 62. 46. 49. 15. 31. 28.
      36. 28. 55. 33. 35. 9. 27. 25. 33. 23. 41. 19. 19. 3. 19. 19. 25.
      17. 25. 7. 7. 1. 11. 11. 14. 7. 11. 0. 0. 0. 1. 1. 1. 0. 0. 0. 0.
      0. 0. 0. 0. 0. 0. 1. 3. 1. 1. 1. 1. 0. 3. 9. 15. 9. 9. 5. 5. 0. 9.
      18. 27. 14. 15. 9. 9. 2. 20. 30. 40. 21. 22. 14. 14. 4. 31. 40.
      48. 22. 25. 17. 20. 11. 42. 47. 53. 23. 34. 28. 33. 23. 53. 42.
      43. 16. 35. 31. 40. 27. 49. 30. 31. 11. 33. 31. 38. 24. 38. 18.
      18. 5. 25. 25. 31. 18. 25. 8. 8. 3. 16. 16. 20. 9. 11. 0. 0. 0. 4.
      4. 4. 0. 0. 0. 0. 0. 0. 0. 0. 0. 0. 1. 3. 1. 1. 1. 1. 0. 3. 7. 12.
      7. 8. 4. 4. 0. 8. 15. 21. 11. 12. 8. 8. 2. 16. 24. 31. 16. 17. 11.
      11. 4. 24. 30. 37. 17. 20. 13. 15. 8. 32. 39. 44. 22. 33. 27. 31.
      19. 43. 36. 39. 19. 38. 34. 40. 23. 42. 28. 32. 16. 39. 35. 41.
      21. 34. 19. 21. 11. 32. 30. 35. 17. 24. 10. 11. 7. 22. 20. 23. 9.
      12. 0. 0. 0. 4. 3. 4. 0. 0. 0. 0. 0. 0. 0. 0. 0. 0. 1. 3. 0. 1. 1.
      1. 0. 1. 5. 9. 4. 5. 3. 3. 0. 5. 11. 15. 8. 9. 5. 5. 1. 12. 16.
      21. 11. 12. 8. 8. 2. 17. 22. 28. 15. 17. 11. 11. 6. 23. 32. 40.
      26. 35. 27. 29. 15. 34. 32. 40. 27. 45. 37. 40. 18. 35. 27. 36.
      25. 47. 39. 43. 18. 31. 20. 27. 19. 40. 34. 37. 14. 23. 10. 14.
      11. 25. 22. 24. 8. 12. 0. 0. 0. 4. 4. 4. 0. 0. 0. 0. 0. 0. 0. 0.
      0. 0. 0. 1. 0. 0. 0. 0. 0. 1. 1. 2. 0. 1. 1. 1. 0. 1. 1. 3. 1. 2.
      1. 1. 0. 2. 3. 7. 4. 5. 2. 2. 0. 4. 7. 14. 12. 12. 6. 5. 0. 7. 16.
      29. 26. 32. 21. 20. 4. 15. 20. 34. 31. 44. 31. 30. 6. 19. 20. 33.
      30. 46. 34. 33. 7. 19. 15. 24. 22. 37. 29. 29. 6. 15. 8. 12. 11.
      22. 19. 19. 4. 8. 0. 0. 0. 3. 3. 3. 0. 0. 0. 0. 0. 0. 0. 0. 0. 0.
      0. 0. 0. 0. 0. 0. 0. 0. 0. 0. 0. 0. 0. 0. 0. 0. 2. 4. 4. 4. 2. 1.
      0. 1. 6. 13. 11. 12. 6. 5. 0. 5. 12. 24. 22. 23. 11. 9. 0. 10. 20.
      38. 34. 39. 22. 20. 2. 18. 22. 41. 37. 45. 27. 25. 2. 20. 19. 34.
      31. 40. 26. 24. 3. 17. 12. 22. 20. 28. 19. 19. 2. 12. 5. 9. 9. 15.
      11. 11. 2. 5. 0. 0. 0. 2. 1. 1. 0. 0. 0. 0. 0. 0. 0. 0. 0. 0. 0.
      0. 0. 0. 0. 0. 0. 0. 0. 1. 1. 2. 1. 1. 0. 0. 5. 9. 8. 12. 7. 7. 0.
      4. 11. 20. 18. 23. 13. 12. 1. 9. 17. 32. 29. 34. 19. 17. 1. 15.
      22. 41. 37. 43. 24. 22. 1. 20. 21. 40. 36. 41. 22. 20. 0. 19. 15.
      29. 26. 29. 16. 15. 0. 14. 8. 16. 15. 18. 10. 9. 0. 8. 3. 6. 5. 7.
      4. 4. 0. 3. 0. 0. 0. 0. 0. 0. 0. 0. 0. 0. 0. 0. 0. 0. 0. 0. 0. 0.
      0. 0. 0. 0. 0. 0. 2. 3. 3. 7. 5. 5. 2. 2. 8. 13. 12. 21. 15. 15.
      3. 8. 14. 24. 23. 34. 23. 22. 4. 13. 20. 34. 31. 43. 28. 26. 4.
      18. 21. 38. 33. 43. 27. 24. 3. 19. 18. 32. 27. 32. 18. 16. 0. 16.
      11. 20. 16. 17. 8. 7. 0. 11. 6. 11. 7. 8. 4. 3. 0. 6. 2. 4. 1. 1.
      1. 1. 0. 3. 1. 1. 0. 0. 0. 0. 0. 1. 0. 0. 0. 0. 0. 0. 0. 0. 0. 0.
      0. 0. 0. 0. 0. 0. 3. 4. 3. 9. 8. 9. 3. 4. 13. 18. 14. 26. 21. 22.
      8. 14. 25. 34. 24. 40. 31. 31. 12. 26. 35. 46. 31. 47. 35. 36. 14.
      35. 39. 50. 32. 45. 33. 33. 13. 39. 37. 46. 25. 32. 23. 22. 10.
      37. 27. 32. 14. 16. 11. 11. 6. 27. 17. 20. 7. 8. 6. 6. 4. 18. 9.
      11. 3. 4. 3. 3. 2. 10. 4. 4. 1. 1. 1. 1. 1. 4. 0. 0. 0. 0. 0. 0.
      0. 0. 0. 0. 0. 0. 0. 0. 0. 0. 4. 4. 4. 9. 9. 10. 4. 4. 15. 18. 12.
      25. 21. 23. 10. 16. 26. 31. 19. 35. 30. 32. 15. 28. 37. 42. 23.
      39. 33. 35. 18. 39. 43. 49. 25. 38. 31. 33. 18. 44. 42. 48. 20.
      27. 22. 22. 14. 44. 33. 36. 13. 14. 12. 12. 9. 33. 23. 25. 9. 10.
      8. 8. 6. 24. 13. 15. 5. 6. 5. 5. 3. 14. 5. 7. 1. 2. 2. 2. 1. 7. 0.
      0. 0. 0. 0. 0. 0. 0. 0. 0. 0. 0. 0. 0. 0. 0. 4. 4. 4. 9. 8. 9. 4.
      5. 14. 15. 8. 20. 18. 22. 10. 16. 27. 28. 14. 28. 27. 30. 17. 30.
      41. 42. 17. 33. 31. 35. 21. 43. 49. 51. 21. 34. 30. 33. 22. 53.
      51. 55. 20. 25. 23. 24. 17. 54. 42. 46. 16. 17. 15. 15. 11. 43.
      29. 33. 11. 12. 10. 10. 8. 30. 16. 18. 7. 8. 5. 5. 3. 17. 6. 8. 1.
      2. 2. 2. 1. 8. 0. 0. 0. 0. 0. 0. 0. 0. 0. 0. 0. 0. 0. 0. 0. 0. 3.
      3. 1. 5. 5. 7. 3. 3. 12. 12. 4. 14. 14. 17. 11. 15. 28. 28. 9. 20.
      20. 25. 17. 31. 44. 44. 15. 27. 27. 30. 22. 47. 55. 57. 20. 30.
      28. 31. 23. 59. 60. 63. 22. 27. 25. 25. 20. 62. 49. 52. 19. 20.
      17. 17. 14. 51. 35. 38. 14. 15. 12. 12. 9. 35. 19. 22. 7. 9. 7. 7.
      4. 19. 7. 9. 1. 3. 3. 3. 1. 9. 0. 0. 0. 0. 0. 0. 0. 0.</_>
    <_>
      10. 15. 10. 12. 7. 7. 0. 7. 18. 28. 18. 22. 13. 13. 1. 18. 30. 41.
      25. 28. 17. 15. 4. 28. 41. 55. 31. 35. 22. 22. 7. 43. 51. 63. 31.
      36. 23. 28. 14. 54. 49. 57. 20. 31. 25. 35. 23. 60. 43. 46. 12.
      30. 25. 38. 30. 55. 30. 31. 6. 23. 22. 36. 28. 44. 17. 17. 1. 15.
      17. 27. 22. 28. 7. 6. 1. 9. 9. 15. 11. 12. 1. 1. 0. 1. 1. 3. 1. 1.
      0. 0. 0. 0. 0. 0. 0. 0. 9. 13. 11. 13. 9. 7. 1. 7. 16. 25. 18. 20.
      12. 11. 2. 16. 25. 35. 22. 25. 16. 15. 3. 24. 35. 47. 28. 31. 20.
      18. 7. 35. 41. 51. 27. 31. 21. 23. 11. 43. 40. 46. 17. 28. 22. 30.
      20. 48. 36. 38. 12. 31. 28. 38. 27. 47. 28. 29. 9. 29. 28. 40. 27.
      38. 18. 18. 5. 23. 23. 33. 21. 28. 9. 9. 4. 16. 16. 21. 12. 14. 4.
      4. 2. 6. 6. 8. 4. 4. 0. 0. 0. 0. 0. 0. 0. 0. 7. 12. 9. 12. 7. 6.
      1. 6. 14. 21. 15. 17. 10. 9. 2. 12. 20. 28. 19. 22. 13. 12. 3. 19.
      27. 36. 22. 25. 16. 15. 5. 26. 31. 39. 21. 24. 16. 18. 9. 32. 31.
      37. 17. 26. 21. 26. 16. 37. 31. 35. 17. 34. 30. 38. 22. 39. 26.
      30. 15. 35. 32. 40. 23. 35. 19. 22. 12. 31. 28. 36. 19. 27. 11.
      13. 9. 22. 20. 25. 12. 16. 3. 4. 3. 9. 8. 9. 4. 4. 0. 0. 0. 0. 0.
      0. 0. 0. 4. 9. 7. 9. 6. 4. 0. 4. 10. 15. 11. 14. 8. 7. 1. 9. 14.
      20. 14. 16. 10. 9. 2. 13. 17. 24. 16. 18. 11. 11. 3. 17. 20. 27.
      16. 19. 12. 12. 5. 20. 23. 31. 19. 27. 19. 22. 10. 26. 26. 35. 23.
      39. 31. 35. 16. 30. 24. 33. 24. 43. 34. 39. 18. 29. 20. 27. 21.
      39. 32. 36. 16. 25. 12. 17. 14. 27. 22. 26. 10. 16. 4. 4. 4. 10.
      8. 10. 3. 4. 0. 0. 0. 0. 0. 0. 0. 0. 1. 3. 3. 4. 3. 1. 0. 1. 2. 4.
      3. 4. 3. 2. 0. 1. 2. 5. 4. 5. 3. 3. 0. 1. 4. 8. 7. 8. 5. 4. 0. 3.
      7. 15. 13. 14. 7. 5. 0. 5. 13. 25. 23. 27. 16. 14. 2. 12. 19. 34.
      31. 41. 27. 26. 6. 18. 20. 34. 31. 44. 31. 31. 7. 20. 16. 26. 25.
      37. 27. 28. 7. 16. 10. 15. 14. 24. 19. 20. 6. 11. 3. 3. 3. 8. 7.
      8. 3. 3. 0. 0. 0. 0. 0. 0. 0. 0. 0. 0. 0. 0. 0. 0. 0. 0. 0. 0. 0.
      0. 0. 0. 0. 0. 2. 4. 4. 4. 2. 1. 0. 1. 7. 13. 11. 12. 6. 5. 0. 6.
      13. 24. 21. 23. 11. 8. 0. 10. 20. 37. 33. 37. 20. 17. 1. 16. 22.
      41. 37. 44. 26. 23. 2. 19. 19. 35. 33. 40. 24. 22. 3. 17. 13. 24.
      23. 30. 19. 18. 2. 11. 7. 12. 12. 17. 12. 12. 2. 7. 1. 2. 2. 4. 3.
      3. 1. 1. 0. 0. 0. 0. 0. 0. 0. 0. 0. 0. 0. 0. 0. 0. 0. 0. 1. 3. 3.
      4. 2. 2. 0. 1. 6. 12. 11. 13. 7. 7. 0. 5. 13. 23. 21. 24. 13. 12.
      1. 11. 18. 35. 31. 35. 18. 15. 1. 16. 23. 44. 39. 43. 23. 19. 1.
      20. 21. 40. 36. 40. 21. 18. 1. 18. 16. 30. 27. 30. 16. 14. 1. 13.
      8. 18. 16. 19. 10. 9. 0. 7. 3. 7. 7. 8. 5. 5. 0. 3. 0. 0. 0. 1. 0.
      0. 0. 0. 0. 0. 0. 0. 0. 0. 0. 0. 0. 0. 0. 0. 0. 0. 0. 0. 4. 7. 7.
      11. 9. 9. 1. 4. 10. 17. 17. 24. 16. 15. 2. 9. 17. 30. 28. 36. 23.
      21. 3. 15. 21. 39. 35. 44. 26. 23. 3. 19. 22. 41. 37. 43. 24. 22.
      2. 19. 16. 31. 27. 29. 15. 12. 0. 13. 10. 19. 16. 17. 9. 7. 0. 8.
      4. 8. 8. 8. 4. 3. 0. 3. 1. 2. 2. 2. 1. 1. 0. 1. 0. 0. 0. 0. 0. 0.
      0. 0. 0. 0. 0. 0. 0. 0. 0. 0. 0. 0. 0. 0. 0. 0. 0. 0. 8. 11. 9.
      18. 15. 16. 5. 9. 19. 27. 21. 32. 24. 25. 8. 20. 32. 44. 32. 46.
      33. 34. 12. 32. 40. 55. 39. 51. 36. 36. 13. 40. 43. 57. 38. 47.
      32. 32. 12. 43. 37. 47. 27. 28. 18. 17. 8. 36. 29. 34. 16. 17. 12.
      12. 7. 29. 20. 23. 9. 9. 8. 8. 5. 21. 13. 13. 4. 4. 4. 4. 4. 13.
      7. 8. 2. 2. 2. 2. 2. 8. 1. 1. 0. 0. 0. 0. 0. 1. 0. 0. 0. 0. 0. 0.
      0. 0. 9. 12. 9. 20. 16. 18. 7. 11. 22. 28. 19. 32. 26. 28. 11. 24.
      34. 43. 27. 42. 33. 35. 16. 36. 43. 52. 31. 45. 35. 36. 17. 44.
      47. 56. 30. 40. 31. 32. 16. 48. 43. 48. 21. 22. 17. 16. 12. 43.
      36. 39. 14. 15. 13. 13. 10. 37. 28. 30. 10. 11. 10. 10. 8. 29. 19.
      20. 6. 7. 7. 7. 6. 20. 10. 11. 2. 3. 3. 3. 2. 11. 3. 3. 0. 1. 1.
      1. 0. 3. 0. 0. 0. 0. 0. 0. 0. 0. 11. 12. 8. 19. 18. 19. 8. 13. 22.
      25. 15. 28. 24. 28. 14. 25. 36. 41. 21. 36. 33. 36. 20. 40. 48.
      54. 25. 40. 34. 37. 21. 50. 55. 60. 27. 36. 31. 33. 21. 57. 54.
      56. 22. 22. 18. 18. 15. 54. 48. 50. 17. 18. 16. 16. 14. 48. 37.
      40. 14. 14. 12. 12. 10. 38. 24. 25. 7. 8. 8. 8. 7. 25. 13. 15. 4.
      5. 5. 5. 4. 15. 3. 5. 0. 1. 1. 1. 0. 5. 0. 0. 0. 0. 0. 0. 0. 0. 9.
      9. 3. 15. 13. 16. 9. 11. 22. 22. 9. 22. 20. 23. 14. 25. 38. 38.
      15. 28. 28. 31. 22. 43. 51. 54. 22. 33. 31. 35. 23. 55. 62. 65.
      25. 33. 30. 33. 23. 63. 63. 67. 23. 23. 22. 22. 19. 63. 57. 60.
      20. 22. 19. 19. 15. 57. 44. 47. 15. 17. 15. 15. 12. 46. 30. 31. 9.
      11. 11. 11. 9. 31. 16. 18. 3. 5. 5. 5. 3. 18. 5. 5. 0. 2. 2. 2. 0.
      5.</_>
    <_>
      0. 2. 0. 0. 0. 0. 0. 2. 11. 13. 5. 5. 3. 3. 1. 11. 20. 27. 14. 15.
      9. 7. 3. 20. 36. 46. 22. 23. 15. 14. 7. 36. 49. 59. 25. 28. 20.
      20. 14. 51. 57. 63. 25. 28. 23. 28. 23. 62. 52. 55. 17. 30. 28.
      39. 33. 63. 43. 41. 9. 25. 27. 39. 35. 55. 27. 25. 4. 20. 22. 35.
      28. 39. 12. 12. 1. 14. 14. 23. 17. 22. 5. 5. 0. 9. 9. 13. 7. 9. 0.
      0. 0. 0. 0. 0. 0. 0. 0. 1. 0. 0. 0. 0. 0. 1. 8. 12. 4. 5. 4. 4. 1.
      9. 16. 22. 10. 11. 7. 7. 2. 16. 28. 35. 16. 17. 11. 10. 4. 28. 37.
      44. 20. 21. 15. 15. 10. 38. 42. 47. 18. 21. 16. 21. 17. 46. 42.
      43. 15. 29. 27. 36. 28. 50. 35. 35. 9. 29. 29. 41. 30. 47. 24. 24.
      7. 27. 28. 38. 27. 35. 14. 14. 4. 21. 21. 29. 18. 22. 6. 6. 2. 15.
      15. 18. 9. 11. 0. 0. 0. 0. 0. 0. 0. 0. 0. 1. 0. 0. 0. 0. 0. 1. 7.
      8. 3. 3. 2. 2. 1. 7. 12. 16. 8. 9. 5. 5. 1. 12. 20. 25. 12. 13. 8.
      7. 3. 20. 26. 31. 13. 15. 10. 10. 6. 26. 30. 34. 14. 16. 12. 16.
      12. 32. 32. 36. 16. 30. 26. 33. 21. 39. 29. 33. 15. 34. 31. 39.
      24. 38. 23. 27. 14. 34. 31. 39. 22. 31. 15. 18. 11. 28. 25. 30.
      16. 21. 8. 10. 7. 20. 17. 18. 8. 10. 0. 0. 0. 0. 0. 0. 0. 0. 0. 0.
      0. 0. 0. 0. 0. 0. 4. 5. 2. 2. 2. 2. 0. 4. 7. 10. 5. 5. 3. 3. 1. 8.
      10. 13. 6. 6. 4. 3. 1. 10. 13. 16. 7. 8. 4. 4. 1. 13. 17. 22. 12.
      14. 8. 9. 5. 17. 22. 30. 19. 33. 24. 27. 13. 24. 23. 32. 22. 40.
      31. 35. 16. 27. 21. 30. 22. 42. 33. 37. 17. 25. 15. 22. 17. 33.
      27. 30. 13. 18. 8. 11. 8. 21. 17. 18. 8. 10. 0. 0. 0. 0. 0. 0. 0.
      0. 0. 0. 0. 0. 0. 0. 0. 0. 0. 0. 0. 0. 0. 0. 0. 0. 0. 0. 0. 0. 0.
      0. 0. 0. 1. 2. 2. 2. 1. 1. 0. 1. 5. 10. 8. 8. 3. 3. 0. 5. 11. 20.
      18. 19. 9. 8. 0. 10. 18. 33. 30. 39. 24. 22. 4. 17. 20. 36. 32.
      45. 29. 27. 6. 19. 17. 30. 28. 41. 28. 27. 6. 16. 11. 19. 18. 30.
      21. 21. 6. 10. 5. 9. 8. 16. 12. 14. 4. 5. 0. 0. 0. 0. 0. 0. 0. 0.
      0. 0. 0. 0. 0. 0. 0. 0. 0. 0. 0. 0. 0. 0. 0. 0. 1. 4. 3. 3. 1. 0.
      0. 1. 6. 11. 10. 10. 4. 2. 0. 4. 12. 22. 19. 19. 8. 6. 0. 10. 18.
      34. 30. 31. 14. 11. 0. 15. 22. 42. 37. 42. 22. 19. 1. 18. 20. 38.
      35. 41. 23. 20. 1. 16. 14. 28. 26. 33. 20. 17. 1. 11. 7. 16. 15.
      21. 13. 11. 1. 5. 3. 5. 5. 9. 7. 5. 1. 2. 0. 0. 0. 0. 0. 0. 0. 0.
      0. 0. 0. 0. 0. 0. 0. 0. 1. 2. 2. 4. 2. 2. 0. 1. 5. 10. 9. 12. 6.
      5. 0. 4. 10. 20. 18. 21. 10. 8. 0. 8. 17. 33. 29. 31. 15. 12. 0.
      15. 22. 42. 37. 39. 19. 15. 0. 18. 22. 42. 37. 39. 18. 15. 0. 18.
      17. 34. 30. 32. 15. 13. 0. 14. 10. 22. 20. 22. 11. 9. 0. 8. 4. 10.
      10. 11. 5. 4. 0. 2. 1. 2. 2. 2. 1. 1. 0. 0. 0. 0. 0. 0. 0. 0. 0.
      0. 0. 0. 0. 0. 0. 0. 0. 0. 3. 5. 5. 11. 9. 9. 1. 3. 8. 15. 15. 22.
      15. 13. 2. 7. 15. 27. 25. 32. 20. 17. 2. 12. 20. 37. 33. 40. 23.
      20. 2. 17. 22. 41. 37. 42. 22. 19. 1. 18. 17. 34. 29. 30. 13. 10.
      0. 14. 12. 22. 19. 20. 9. 7. 0. 10. 6. 12. 10. 11. 5. 4. 0. 5. 1.
      3. 3. 3. 1. 1. 0. 0. 0. 0. 0. 0. 0. 0. 0. 0. 0. 0. 0. 0. 0. 0. 0.
      0. 0. 0. 0. 0. 0. 0. 0. 0. 8. 10. 8. 17. 14. 16. 4. 9. 16. 24. 18.
      30. 23. 24. 9. 17. 26. 38. 29. 43. 30. 31. 12. 26. 34. 49. 37. 49.
      33. 33. 13. 33. 37. 52. 37. 46. 30. 30. 13. 36. 33. 44. 28. 28.
      17. 16. 9. 32. 26. 32. 18. 18. 12. 12. 7. 26. 18. 21. 10. 10. 8.
      8. 5. 19. 11. 12. 3. 4. 4. 4. 3. 11. 4. 5. 1. 2. 2. 2. 1. 5. 0. 0.
      0. 0. 0. 0. 0. 0. 0. 0. 0. 0. 0. 0. 0. 0. 9. 11. 9. 18. 16. 17. 7.
      10. 19. 26. 17. 31. 24. 27. 12. 21. 30. 40. 25. 41. 31. 34. 16.
      33. 39. 49. 29. 43. 33. 35. 18. 41. 43. 52. 28. 38. 29. 31. 18.
      44. 40. 46. 21. 22. 16. 16. 13. 40. 33. 36. 14. 15. 12. 12. 10.
      34. 25. 27. 10. 10. 9. 9. 7. 26. 16. 17. 5. 6. 6. 6. 4. 16. 8. 8.
      2. 2. 2. 2. 2. 8. 0. 1. 0. 0. 0. 0. 0. 1. 0. 0. 0. 0. 0. 0. 0. 0.
      9. 12. 8. 19. 16. 19. 8. 12. 20. 24. 14. 28. 23. 28. 14. 24. 34.
      38. 18. 36. 31. 36. 20. 38. 44. 49. 23. 38. 33. 38. 23. 49. 51.
      56. 24. 35. 30. 35. 22. 56. 51. 54. 20. 21. 18. 20. 17. 53. 44.
      47. 17. 17. 16. 16. 12. 46. 34. 36. 12. 14. 11. 11. 9. 34. 21. 22.
      7. 8. 7. 7. 5. 22. 11. 12. 2. 4. 4. 4. 2. 12. 0. 1. 0. 0. 0. 0. 0.
      1. 0. 0. 0. 0. 0. 0. 0. 0. 9. 11. 5. 15. 13. 15. 7. 11. 20. 22. 9.
      22. 19. 25. 15. 25. 36. 38. 14. 28. 27. 33. 22. 43. 51. 54. 19.
      33. 30. 36. 27. 57. 62. 65. 23. 33. 30. 35. 25. 67. 63. 67. 22.
      23. 22. 23. 20. 65. 55. 59. 20. 22. 19. 19. 15. 55. 41. 44. 15.
      15. 14. 14. 11. 41. 25. 27. 7. 9. 9. 9. 6. 25. 13. 13. 3. 3. 3. 3.
      3. 13. 0. 2. 0. 0. 0. 0. 0. 2.</_>
    <_>
      2. 7. 5. 5. 2. 0. 0. 0. 13. 20. 15. 16. 7. 5. 0. 9. 22. 33. 22.
      23. 12. 9. 1. 20. 38. 51. 28. 28. 17. 15. 6. 36. 49. 60. 28. 31.
      20. 22. 14. 51. 52. 57. 22. 28. 25. 33. 25. 62. 44. 43. 12. 22.
      23. 35. 30. 55. 30. 27. 6. 17. 19. 31. 27. 43. 14. 12. 1. 11. 14.
      23. 19. 25. 4. 3. 0. 6. 7. 12. 9. 9. 0. 0. 0. 1. 1. 1. 0. 0. 0. 0.
      0. 0. 0. 0. 0. 0. 3. 7. 5. 5. 1. 0. 0. 1. 11. 19. 13. 15. 6. 4. 0.
      9. 20. 29. 20. 20. 10. 8. 2. 17. 31. 42. 24. 25. 15. 12. 5. 30.
      41. 50. 24. 27. 18. 18. 11. 42. 44. 48. 20. 27. 23. 30. 23. 51.
      38. 38. 12. 25. 27. 37. 28. 49. 28. 27. 8. 23. 25. 36. 27. 40. 16.
      15. 4. 18. 21. 30. 21. 25. 7. 5. 3. 12. 12. 18. 11. 12. 1. 1. 1.
      5. 4. 5. 1. 2. 0. 0. 0. 0. 0. 0. 0. 0. 3. 6. 4. 6. 1. 0. 0. 1. 9.
      15. 10. 11. 5. 3. 0. 7. 16. 24. 15. 16. 8. 6. 1. 14. 25. 33. 19.
      20. 12. 10. 4. 23. 31. 38. 19. 21. 14. 14. 9. 31. 35. 39. 18. 25.
      22. 28. 19. 41. 33. 34. 15. 31. 29. 38. 25. 41. 26. 27. 12. 31.
      30. 40. 25. 35. 17. 18. 10. 27. 26. 35. 20. 25. 9. 10. 7. 19. 18.
      23. 11. 14. 2. 2. 1. 8. 7. 8. 2. 2. 0. 0. 0. 0. 0. 0. 0. 0. 1. 4.
      3. 4. 1. 0. 0. 0. 7. 11. 8. 9. 3. 2. 0. 4. 11. 17. 11. 12. 6. 4.
      1. 10. 16. 22. 14. 15. 8. 7. 3. 15. 22. 28. 16. 18. 11. 11. 6. 22.
      29. 36. 21. 29. 22. 26. 15. 33. 30. 37. 24. 39. 32. 39. 20. 37.
      27. 34. 23. 42. 35. 43. 21. 34. 21. 27. 19. 38. 32. 38. 17. 27.
      11. 15. 12. 25. 22. 26. 11. 15. 2. 2. 2. 8. 7. 8. 2. 2. 0. 0. 0.
      0. 0. 0. 0. 0. 1. 1. 1. 1. 0. 0. 0. 0. 1. 3. 2. 2. 1. 0. 0. 0. 2.
      5. 3. 4. 1. 0. 0. 1. 5. 9. 6. 7. 3. 1. 0. 3. 10. 17. 12. 13. 5. 3.
      0. 8. 18. 30. 24. 29. 18. 17. 4. 18. 24. 37. 31. 43. 29. 30. 8.
      25. 24. 37. 30. 45. 32. 35. 10. 26. 18. 28. 23. 39. 29. 31. 9. 20.
      10. 15. 13. 25. 20. 22. 7. 12. 2. 2. 2. 8. 7. 8. 1. 2. 0. 0. 0. 0.
      0. 0. 0. 0. 0. 0. 0. 0. 0. 0. 0. 0. 0. 0. 0. 1. 0. 0. 0. 0. 2. 5.
      5. 6. 2. 1. 0. 1. 7. 14. 12. 13. 6. 3. 0. 5. 14. 26. 21. 22. 10.
      7. 0. 11. 22. 39. 33. 36. 19. 17. 2. 20. 25. 43. 37. 43. 26. 24.
      3. 24. 22. 37. 31. 39. 25. 25. 4. 22. 15. 25. 23. 31. 21. 21. 3.
      15. 7. 13. 11. 18. 13. 14. 3. 8. 1. 2. 1. 4. 3. 4. 1. 1. 0. 0. 0.
      0. 0. 0. 0. 0. 0. 0. 0. 0. 0. 0. 0. 0. 2. 3. 3. 5. 3. 3. 0. 2. 5.
      12. 12. 15. 8. 7. 0. 3. 12. 23. 21. 25. 13. 10. 1. 9. 19. 34. 30.
      33. 17. 13. 1. 15. 25. 44. 38. 41. 21. 18. 2. 21. 23. 41. 35. 38.
      20. 17. 1. 21. 18. 31. 26. 29. 16. 16. 1. 18. 11. 19. 17. 20. 12.
      12. 1. 11. 4. 8. 7. 10. 6. 6. 0. 4. 0. 0. 0. 1. 1. 1. 0. 0. 0. 0.
      0. 0. 0. 0. 0. 0. 0. 0. 0. 0. 0. 0. 0. 0. 4. 7. 7. 14. 10. 10. 2.
      4. 9. 17. 17. 25. 17. 15. 2. 7. 15. 28. 26. 36. 22. 19. 3. 13. 20.
      37. 33. 42. 24. 21. 3. 17. 22. 40. 35. 41. 23. 19. 2. 19. 17. 31.
      26. 27. 12. 10. 0. 15. 12. 20. 16. 16. 8. 7. 0. 11. 6. 10. 9. 9.
      4. 4. 0. 6. 1. 3. 3. 3. 1. 1. 0. 1. 0. 0. 0. 0. 0. 0. 0. 0. 0. 0.
      0. 0. 0. 0. 0. 0. 0. 0. 0. 0. 0. 0. 0. 0. 7. 10. 8. 18. 15. 16. 5.
      9. 16. 24. 19. 32. 23. 25. 9. 17. 28. 40. 28. 43. 31. 32. 13. 29.
      36. 50. 34. 47. 33. 33. 14. 36. 39. 53. 33. 42. 29. 28. 13. 39.
      34. 43. 22. 24. 15. 14. 8. 32. 25. 29. 13. 13. 10. 9. 6. 25. 15.
      17. 7. 7. 6. 6. 4. 16. 8. 8. 2. 3. 3. 3. 2. 8. 2. 2. 0. 1. 1. 1.
      0. 2. 0. 0. 0. 0. 0. 0. 0. 0. 0. 0. 0. 0. 0. 0. 0. 0. 8. 11. 8.
      18. 15. 18. 7. 10. 18. 24. 16. 30. 24. 27. 12. 21. 29. 37. 22. 38.
      31. 34. 17. 33. 37. 46. 26. 40. 32. 34. 18. 40. 43. 50. 25. 36.
      28. 30. 17. 45. 38. 43. 18. 19. 15. 15. 11. 38. 30. 32. 11. 12.
      11. 11. 8. 31. 20. 22. 8. 8. 7. 7. 5. 21. 11. 12. 3. 4. 4. 4. 3.
      12. 3. 4. 1. 1. 1. 1. 1. 4. 0. 0. 0. 0. 0. 0. 0. 0. 0. 0. 0. 0. 0.
      0. 0. 0. 8. 11. 6. 16. 15. 19. 8. 12. 18. 22. 10. 24. 22. 27. 14.
      23. 31. 36. 16. 31. 29. 35. 20. 37. 43. 48. 21. 35. 30. 36. 22.
      48. 51. 56. 23. 33. 29. 33. 22. 55. 49. 53. 18. 20. 17. 17. 15.
      50. 40. 42. 15. 16. 14. 14. 10. 41. 27. 29. 10. 11. 9. 9. 7. 28.
      15. 16. 4. 5. 5. 5. 4. 16. 5. 5. 1. 1. 1. 1. 1. 5. 0. 0. 0. 0. 0.
      0. 0. 0. 0. 0. 0. 0. 0. 0. 0. 0. 7. 7. 1. 11. 11. 15. 9. 11. 17.
      19. 6. 17. 17. 22. 15. 23. 33. 35. 11. 25. 23. 30. 22. 39. 47. 51.
      17. 30. 27. 33. 25. 54. 59. 62. 22. 31. 28. 33. 25. 63. 59. 62.
      22. 23. 20. 22. 17. 60. 47. 51. 17. 19. 17. 17. 12. 49. 31. 35.
      12. 12. 11. 11. 7. 33. 17. 19. 4. 6. 6. 6. 4. 19. 5. 7. 1. 1. 1.
      1. 1. 7. 0. 0. 0. 0. 0. 0. 0. 0.</_>
    <_>
      0. 0. 0. 0. 0. 0. 0. 0. 5. 11. 5. 7. 3. 3. 0. 7. 17. 25. 12. 14.
      9. 9. 1. 19. 33. 43. 20. 22. 14. 14. 6. 35. 49. 59. 27. 28. 20.
      20. 12. 51. 59. 65. 25. 33. 27. 33. 25. 65. 54. 55. 19. 31. 30.
      41. 33. 65. 39. 39. 11. 28. 28. 41. 33. 54. 23. 23. 4. 22. 22. 35.
      27. 36. 9. 9. 1. 14. 14. 22. 17. 19. 3. 3. 0. 5. 5. 9. 5. 5. 0. 0.
      0. 0. 0. 0. 0. 0. 0. 0. 0. 0. 0. 0. 0. 0. 5. 9. 5. 5. 4. 4. 0. 5.
      14. 20. 10. 11. 7. 7. 1. 15. 25. 33. 16. 17. 11. 11. 4. 27. 37.
      44. 21. 22. 15. 16. 9. 38. 43. 48. 20. 24. 20. 25. 18. 49. 42. 43.
      15. 30. 29. 38. 28. 51. 33. 33. 10. 30. 31. 42. 29. 44. 22. 21. 7.
      28. 29. 38. 25. 33. 11. 10. 3. 21. 22. 29. 17. 18. 5. 5. 2. 12.
      12. 15. 6. 6. 0. 0. 0. 0. 0. 0. 0. 0. 0. 0. 0. 0. 0. 0. 0. 0. 3.
      7. 3. 4. 2. 2. 0. 4. 10. 14. 8. 9. 6. 6. 1. 11. 18. 23. 12. 13. 8.
      8. 3. 19. 26. 31. 14. 15. 11. 11. 6. 26. 31. 35. 15. 20. 15. 19.
      13. 35. 33. 36. 17. 32. 28. 35. 22. 40. 28. 31. 15. 36. 33. 41.
      24. 37. 22. 24. 13. 35. 32. 40. 22. 29. 13. 15. 10. 28. 26. 31.
      16. 19. 7. 8. 5. 17. 16. 17. 7. 8. 0. 0. 0. 0. 0. 0. 0. 0. 0. 0.
      0. 0. 0. 0. 0. 0. 2. 4. 2. 2. 1. 1. 0. 2. 6. 8. 5. 6. 4. 4. 1. 6.
      9. 12. 7. 7. 5. 5. 1. 10. 13. 16. 9. 10. 6. 6. 2. 13. 18. 25. 15.
      18. 11. 14. 5. 20. 24. 32. 22. 36. 27. 32. 13. 28. 24. 33. 24. 43.
      33. 39. 15. 29. 21. 30. 23. 43. 35. 40. 16. 26. 15. 20. 16. 33.
      28. 32. 12. 19. 7. 9. 7. 18. 17. 18. 7. 8. 0. 0. 0. 0. 0. 0. 0. 0.
      0. 0. 0. 0. 0. 0. 0. 0. 0. 0. 0. 0. 0. 0. 0. 0. 0. 0. 0. 0. 0. 0.
      0. 0. 2. 4. 3. 3. 1. 1. 0. 1. 6. 11. 9. 10. 5. 4. 0. 6. 13. 24.
      21. 22. 11. 11. 0. 12. 21. 36. 32. 41. 26. 26. 4. 21. 22. 38. 34.
      46. 31. 32. 6. 23. 19. 30. 28. 42. 30. 31. 7. 20. 12. 19. 18. 30.
      23. 24. 6. 13. 5. 8. 7. 16. 14. 15. 4. 7. 0. 0. 0. 0. 0. 0. 0. 0.
      0. 0. 0. 0. 0. 0. 0. 0. 0. 0. 0. 0. 0. 0. 0. 0. 1. 3. 3. 4. 2. 2.
      0. 1. 6. 11. 10. 12. 6. 6. 0. 5. 12. 23. 19. 21. 11. 10. 0. 12.
      19. 36. 32. 34. 17. 16. 0. 18. 24. 43. 39. 45. 25. 24. 1. 23. 22.
      39. 36. 42. 25. 25. 2. 21. 16. 28. 26. 33. 21. 21. 2. 16. 9. 16.
      16. 21. 14. 14. 2. 9. 3. 4. 4. 9. 8. 8. 1. 3. 0. 0. 0. 0. 0. 0. 0.
      0. 0. 0. 0. 0. 0. 0. 0. 0. 0. 0. 0. 1. 1. 1. 0. 0. 4. 7. 7. 11. 7.
      7. 1. 4. 10. 19. 18. 23. 14. 14. 1. 10. 18. 31. 28. 34. 20. 19. 1.
      17. 23. 42. 38. 43. 24. 23. 1. 22. 24. 44. 39. 43. 24. 23. 1. 23.
      18. 34. 30. 32. 17. 16. 0. 18. 11. 22. 20. 21. 11. 11. 0. 11. 5.
      10. 10. 11. 6. 6. 0. 5. 1. 2. 2. 2. 1. 1. 0. 1. 0. 0. 0. 0. 0. 0.
      0. 0. 0. 0. 0. 0. 0. 0. 0. 0. 0. 0. 0. 3. 3. 3. 0. 0. 7. 11. 11.
      19. 15. 15. 3. 7. 14. 23. 22. 34. 24. 24. 5. 14. 21. 34. 31. 43.
      30. 29. 5. 20. 23. 40. 36. 46. 30. 29. 5. 23. 22. 37. 32. 37. 22.
      22. 3. 21. 13. 23. 18. 19. 10. 9. 0. 13. 7. 12. 9. 9. 4. 4. 0. 8.
      2. 5. 3. 3. 1. 1. 0. 3. 0. 1. 0. 0. 0. 0. 0. 1. 0. 0. 0. 0. 0. 0.
      0. 0. 0. 0. 0. 0. 0. 0. 0. 0. 0. 0. 0. 4. 4. 4. 0. 0. 11. 15. 13.
      24. 20. 21. 7. 12. 24. 32. 25. 40. 32. 33. 11. 25. 35. 46. 33. 49.
      38. 39. 15. 36. 42. 52. 34. 47. 37. 37. 16. 42. 42. 51. 30. 36.
      28. 28. 14. 42. 29. 34. 15. 17. 12. 12. 7. 29. 19. 22. 8. 9. 7. 7.
      4. 20. 10. 12. 4. 5. 4. 4. 2. 11. 4. 5. 2. 2. 2. 2. 0. 5. 0. 0. 0.
      0. 0. 0. 0. 0. 0. 0. 0. 0. 0. 0. 0. 0. 0. 0. 0. 5. 4. 5. 0. 0. 12.
      15. 11. 23. 21. 22. 8. 13. 25. 30. 20. 36. 31. 33. 14. 27. 37. 42.
      26. 42. 36. 38. 19. 39. 45. 50. 27. 40. 35. 37. 20. 47. 48. 52.
      26. 31. 27. 28. 19. 49. 35. 37. 14. 15. 13. 13. 10. 35. 25. 28.
      10. 11. 9. 9. 7. 26. 15. 17. 6. 7. 6. 6. 3. 16. 7. 9. 3. 3. 2. 2.
      1. 8. 0. 1. 0. 0. 0. 0. 0. 1. 0. 0. 0. 0. 0. 0. 0. 0. 0. 0. 0. 5.
      4. 5. 0. 0. 11. 12. 8. 20. 18. 20. 9. 12. 25. 27. 14. 29. 28. 30.
      16. 28. 41. 42. 20. 35. 34. 36. 22. 43. 53. 54. 23. 35. 34. 36.
      24. 55. 57. 60. 24. 29. 28. 28. 23. 58. 46. 48. 17. 17. 16. 16.
      12. 46. 33. 36. 12. 14. 11. 11. 8. 34. 18. 22. 8. 9. 7. 7. 4. 20.
      8. 11. 4. 5. 4. 4. 1. 9. 0. 1. 0. 0. 0. 0. 0. 1. 0. 0. 0. 0. 0. 0.
      0. 0. 0. 0. 0. 3. 3. 3. 0. 0. 11. 11. 4. 14. 14. 15. 7. 12. 27.
      27. 11. 22. 22. 25. 15. 28. 43. 43. 17. 28. 28. 30. 22. 46. 59.
      59. 22. 30. 30. 33. 25. 60. 65. 67. 25. 30. 28. 28. 25. 67. 54.
      57. 20. 20. 19. 19. 15. 54. 38. 43. 15. 17. 14. 14. 11. 39. 22.
      25. 9. 11. 9. 9. 4. 23. 9. 13. 5. 5. 3. 3. 1. 11. 0. 2. 0. 0. 0.
      0. 0. 0.</_>
    <_>
      0. 0. 0. 0. 0. 0. 0. 0. 7. 13. 9. 9. 5. 3. 0. 7. 20. 27. 15. 15.
      9. 9. 3. 19. 36. 44. 22. 23. 15. 14. 7. 35. 51. 57. 25. 27. 20.
      19. 12. 51. 60. 63. 23. 28. 25. 28. 25. 63. 54. 54. 15. 27. 27.
      35. 33. 63. 41. 41. 11. 23. 23. 35. 31. 51. 25. 25. 6. 19. 19. 30.
      25. 35. 11. 11. 1. 12. 12. 20. 15. 19. 1. 1. 0. 5. 5. 7. 5. 5. 0.
      0. 0. 0. 0. 0. 0. 0. 0. 1. 0. 1. 0. 0. 0. 0. 6. 12. 8. 9. 4. 4. 0.
      5. 17. 23. 12. 14. 8. 7. 2. 16. 30. 37. 18. 20. 12. 11. 5. 29. 43.
      49. 22. 22. 16. 16. 10. 42. 50. 54. 20. 24. 21. 24. 21. 54. 48.
      48. 15. 29. 29. 37. 30. 56. 37. 37. 11. 30. 30. 40. 31. 47. 24.
      24. 8. 27. 27. 36. 27. 34. 12. 12. 4. 20. 20. 27. 18. 20. 5. 5. 2.
      12. 12. 13. 6. 6. 0. 0. 0. 0. 0. 0. 0. 0. 0. 1. 0. 1. 0. 0. 0. 0.
      5. 9. 5. 7. 3. 2. 0. 4. 13. 18. 10. 11. 7. 6. 2. 12. 23. 29. 14.
      15. 10. 9. 5. 22. 33. 37. 17. 17. 13. 12. 8. 32. 38. 42. 17. 20.
      16. 19. 16. 42. 40. 42. 17. 32. 29. 36. 26. 47. 34. 36. 16. 36.
      33. 41. 27. 42. 25. 27. 13. 34. 32. 40. 24. 32. 14. 16. 9. 27. 25.
      31. 17. 20. 7. 8. 5. 17. 16. 18. 8. 9. 0. 0. 0. 0. 0. 0. 0. 0. 0.
      0. 0. 0. 0. 0. 0. 0. 3. 7. 4. 4. 2. 1. 0. 3. 9. 13. 7. 8. 5. 4. 1.
      8. 16. 20. 10. 11. 7. 6. 3. 15. 23. 27. 13. 13. 9. 8. 6. 22. 30.
      36. 18. 20. 14. 16. 11. 32. 35. 42. 24. 38. 31. 35. 20. 40. 32.
      40. 25. 44. 37. 42. 22. 38. 26. 33. 23. 44. 36. 42. 20. 32. 17.
      22. 16. 34. 29. 33. 15. 21. 8. 9. 8. 20. 18. 20. 8. 9. 0. 0. 0. 0.
      0. 0. 0. 0. 0. 0. 0. 0. 0. 0. 0. 0. 0. 1. 0. 0. 0. 0. 0. 0. 1. 1.
      0. 1. 0. 0. 0. 0. 2. 4. 2. 3. 1. 0. 0. 0. 4. 10. 7. 8. 3. 0. 0. 2.
      10. 20. 17. 18. 7. 5. 1. 8. 18. 32. 28. 38. 24. 23. 6. 18. 21. 35.
      31. 45. 31. 31. 9. 21. 19. 30. 27. 42. 31. 33. 10. 21. 14. 20. 17.
      31. 25. 27. 8. 15. 7. 9. 8. 18. 16. 17. 5. 8. 0. 0. 0. 0. 0. 0. 0.
      0. 0. 0. 0. 0. 0. 0. 0. 0. 0. 0. 0. 0. 0. 0. 0. 0. 2. 4. 3. 3. 1.
      1. 0. 2. 6. 12. 10. 10. 4. 3. 0. 5. 11. 22. 19. 19. 8. 5. 0. 8.
      17. 34. 30. 30. 13. 10. 0. 14. 22. 41. 37. 42. 23. 19. 2. 19. 20.
      37. 34. 42. 24. 22. 2. 17. 16. 28. 26. 34. 22. 21. 3. 15. 10. 16.
      15. 23. 16. 16. 2. 10. 3. 5. 5. 11. 9. 9. 2. 3. 0. 0. 0. 0. 0. 0.
      0. 0. 0. 0. 0. 0. 0. 0. 0. 0. 1. 2. 2. 3. 2. 2. 0. 1. 6. 10. 9.
      11. 7. 7. 0. 6. 11. 22. 19. 22. 12. 10. 0. 10. 17. 33. 29. 31. 15.
      12. 0. 14. 22. 43. 38. 39. 19. 15. 0. 18. 22. 43. 38. 40. 19. 15.
      0. 18. 17. 34. 30. 33. 16. 13. 0. 14. 11. 22. 20. 22. 12. 11. 0.
      10. 6. 11. 10. 13. 7. 7. 0. 6. 1. 2. 2. 4. 2. 2. 0. 1. 0. 0. 0. 0.
      0. 0. 0. 0. 0. 0. 0. 0. 0. 0. 0. 0. 3. 5. 5. 10. 9. 9. 2. 3. 10.
      15. 14. 21. 15. 15. 2. 10. 16. 28. 25. 34. 22. 21. 3. 15. 21. 38.
      34. 41. 24. 22. 2. 18. 23. 42. 37. 43. 23. 20. 2. 20. 18. 35. 31.
      31. 14. 11. 0. 15. 12. 23. 21. 21. 9. 7. 0. 9. 6. 12. 11. 11. 5.
      4. 0. 5. 2. 4. 4. 4. 2. 2. 0. 2. 0. 0. 0. 0. 0. 0. 0. 0. 0. 0. 0.
      0. 0. 0. 0. 0. 0. 0. 0. 0. 0. 0. 0. 0. 7. 9. 8. 17. 15. 15. 4. 8.
      18. 24. 18. 31. 25. 26. 9. 19. 31. 41. 30. 44. 34. 34. 12. 31. 40.
      54. 38. 50. 36. 36. 13. 40. 44. 58. 37. 46. 32. 32. 13. 43. 39.
      50. 28. 29. 18. 17. 9. 38. 28. 34. 16. 17. 12. 10. 7. 28. 18. 20.
      8. 8. 7. 6. 5. 18. 9. 10. 3. 3. 3. 3. 3. 10. 3. 4. 1. 1. 1. 1. 1.
      4. 0. 0. 0. 0. 0. 0. 0. 0. 0. 0. 0. 0. 0. 0. 0. 0. 8. 10. 8. 18.
      17. 17. 7. 9. 20. 25. 18. 31. 27. 28. 11. 22. 34. 41. 27. 43. 35.
      37. 16. 35. 44. 52. 31. 45. 37. 39. 18. 45. 49. 56. 30. 40. 33.
      34. 18. 50. 45. 50. 21. 22. 18. 19. 14. 46. 35. 37. 13. 14. 13.
      13. 11. 36. 24. 25. 7. 8. 8. 8. 7. 25. 14. 14. 4. 5. 5. 5. 4. 14.
      5. 5. 1. 2. 2. 2. 1. 5. 0. 0. 0. 0. 0. 0. 0. 0. 0. 0. 0. 0. 0. 0.
      0. 0. 9. 9. 8. 19. 18. 19. 8. 11. 21. 23. 14. 29. 27. 28. 12. 22.
      35. 37. 20. 37. 34. 36. 18. 37. 48. 50. 23. 38. 36. 38. 22. 49.
      56. 58. 24. 35. 33. 34. 23. 57. 54. 56. 18. 20. 18. 20. 17. 55.
      44. 46. 14. 15. 15. 15. 14. 46. 31. 33. 9. 10. 10. 10. 9. 33. 18.
      18. 5. 5. 5. 5. 5. 18. 8. 8. 1. 2. 2. 2. 1. 8. 0. 0. 0. 0. 0. 0.
      0. 0. 0. 0. 0. 0. 0. 0. 0. 0. 7. 7. 5. 15. 15. 16. 7. 9. 20. 20.
      9. 22. 22. 25. 14. 22. 36. 36. 15. 30. 30. 33. 20. 39. 52. 52. 20.
      33. 33. 36. 25. 54. 63. 63. 22. 31. 31. 33. 27. 65. 65. 65. 20.
      22. 22. 22. 22. 65. 54. 54. 17. 17. 17. 17. 17. 54. 38. 39. 11.
      12. 12. 12. 11. 39. 22. 22. 6. 7. 7. 7. 6. 22. 9. 9. 1. 3. 3. 3.
      1. 9. 0. 0. 0. 0. 0. 0. 0. 0.</_>
    <_>
      2. 7. 5. 7. 5. 2. 0. 2. 9. 18. 15. 18. 9. 7. 0. 7. 20. 31. 20. 23.
      14. 11. 3. 19. 35. 47. 28. 31. 19. 15. 4. 31. 46. 59. 30. 35. 22.
      22. 11. 46. 52. 60. 23. 30. 22. 27. 20. 57. 49. 52. 15. 28. 25.
      35. 28. 59. 36. 38. 9. 25. 23. 35. 28. 47. 23. 23. 3. 19. 19. 30.
      23. 33. 11. 11. 1. 12. 12. 19. 14. 17. 3. 3. 1. 7. 7. 9. 5. 5. 0.
      0. 0. 0. 0. 0. 0. 0. 3. 9. 7. 9. 5. 3. 0. 1. 9. 19. 15. 19. 11. 8.
      0. 6. 18. 29. 21. 24. 14. 11. 2. 16. 30. 42. 27. 30. 17. 15. 4.
      27. 40. 50. 28. 31. 20. 20. 9. 38. 43. 49. 21. 25. 18. 23. 17. 47.
      43. 46. 15. 30. 28. 36. 27. 51. 34. 35. 10. 31. 29. 40. 27. 43.
      23. 23. 7. 27. 27. 36. 24. 33. 12. 12. 4. 21. 21. 25. 15. 18. 5.
      5. 4. 13. 13. 16. 6. 8. 0. 0. 0. 0. 0. 0. 0. 0. 3. 7. 6. 9. 6. 4.
      0. 1. 9. 17. 14. 17. 9. 7. 0. 5. 16. 25. 18. 22. 13. 10. 2. 13.
      24. 34. 23. 26. 15. 13. 4. 21. 30. 40. 23. 26. 17. 16. 8. 29. 33.
      39. 17. 21. 15. 18. 13. 36. 36. 40. 16. 32. 28. 34. 22. 41. 30.
      34. 15. 36. 32. 39. 24. 37. 23. 26. 12. 34. 31. 37. 22. 29. 14.
      17. 10. 27. 25. 29. 15. 18. 7. 8. 7. 18. 17. 18. 8. 9. 0. 0. 0. 0.
      0. 0. 0. 0. 3. 7. 6. 9. 4. 3. 0. 1. 7. 14. 11. 15. 8. 5. 0. 4. 12.
      20. 15. 18. 10. 8. 1. 10. 17. 25. 18. 21. 12. 10. 3. 15. 22. 30.
      18. 22. 13. 12. 5. 20. 26. 33. 18. 22. 13. 15. 9. 27. 31. 39. 23.
      38. 29. 32. 17. 34. 29. 38. 24. 44. 35. 38. 19. 32. 24. 32. 21.
      43. 35. 38. 18. 27. 16. 21. 15. 33. 28. 30. 13. 18. 8. 9. 8. 21.
      18. 20. 7. 8. 0. 0. 0. 0. 0. 0. 0. 0. 3. 4. 4. 6. 3. 1. 0. 1. 3.
      7. 5. 8. 4. 3. 0. 1. 3. 7. 7. 9. 5. 4. 0. 2. 6. 12. 10. 13. 7. 6.
      0. 5. 10. 17. 14. 17. 9. 8. 1. 8. 14. 24. 20. 22. 11. 10. 1. 13.
      21. 34. 29. 39. 26. 24. 6. 19. 22. 36. 31. 45. 31. 30. 8. 21. 18.
      29. 25. 41. 30. 29. 9. 17. 12. 18. 17. 30. 23. 23. 7. 11. 5. 8. 7.
      17. 16. 15. 4. 5. 0. 0. 0. 0. 0. 0. 0. 0. 0. 0. 0. 0. 0. 0. 0. 0.
      0. 1. 0. 1. 0. 0. 0. 0. 2. 5. 5. 6. 3. 2. 0. 2. 8. 15. 13. 14. 7.
      7. 0. 7. 15. 26. 22. 24. 13. 12. 1. 14. 21. 37. 33. 34. 18. 16. 1.
      20. 25. 44. 38. 44. 26. 23. 3. 23. 22. 38. 34. 41. 25. 22. 4. 19.
      15. 26. 24. 32. 21. 18. 3. 13. 8. 15. 14. 21. 14. 13. 2. 7. 3. 4.
      4. 10. 8. 8. 2. 2. 0. 0. 0. 0. 0. 0. 0. 0. 0. 0. 0. 0. 0. 0. 0. 0.
      0. 0. 0. 1. 1. 1. 0. 0. 4. 9. 9. 12. 7. 7. 0. 4. 12. 22. 21. 24.
      14. 14. 1. 12. 20. 35. 31. 36. 20. 20. 2. 19. 25. 45. 40. 44. 24.
      23. 2. 24. 25. 45. 40. 44. 24. 22. 2. 24. 19. 34. 30. 32. 17. 15.
      2. 17. 11. 21. 18. 21. 11. 9. 1. 9. 5. 10. 9. 11. 6. 5. 0. 4. 1.
      2. 2. 3. 2. 1. 0. 0. 0. 0. 0. 0. 0. 0. 0. 0. 0. 0. 0. 0. 0. 0. 0.
      0. 2. 2. 2. 5. 4. 4. 1. 2. 8. 13. 13. 21. 15. 15. 3. 8. 15. 26.
      25. 35. 24. 24. 4. 16. 22. 38. 35. 45. 29. 29. 4. 22. 25. 43. 39.
      47. 29. 29. 4. 25. 21. 37. 33. 37. 21. 21. 2. 21. 13. 23. 20. 20.
      11. 10. 1. 12. 6. 11. 10. 10. 5. 5. 0. 6. 1. 3. 3. 3. 1. 1. 0. 1.
      0. 0. 0. 0. 0. 0. 0. 0. 0. 0. 0. 0. 0. 0. 0. 0. 0. 0. 0. 0. 0. 0.
      0. 0. 3. 4. 4. 9. 8. 8. 2. 3. 14. 20. 16. 27. 21. 22. 7. 15. 27.
      37. 29. 43. 32. 33. 11. 28. 38. 51. 37. 51. 38. 38. 14. 39. 43.
      56. 38. 49. 36. 36. 14. 44. 41. 51. 30. 35. 25. 26. 12. 42. 31.
      35. 17. 17. 13. 13. 9. 31. 20. 22. 8. 9. 8. 8. 6. 21. 11. 12. 3.
      4. 4. 4. 3. 12. 4. 5. 1. 2. 2. 2. 1. 5. 0. 0. 0. 0. 0. 0. 0. 0. 0.
      0. 0. 0. 0. 0. 0. 0. 4. 5. 5. 10. 9. 9. 3. 4. 16. 20. 15. 27. 22.
      23. 9. 16. 28. 35. 23. 38. 31. 32. 14. 29. 38. 46. 28. 42. 35. 36.
      17. 40. 45. 52. 27. 39. 33. 34. 18. 46. 45. 49. 21. 26. 23. 23.
      16. 47. 36. 37. 13. 13. 12. 12. 11. 37. 27. 27. 8. 9. 9. 9. 8. 27.
      16. 17. 5. 6. 6. 6. 5. 17. 8. 8. 2. 2. 2. 2. 2. 8. 0. 1. 0. 0. 0.
      0. 0. 1. 0. 0. 0. 0. 0. 0. 0. 0. 5. 6. 5. 11. 9. 9. 4. 4. 16. 18.
      11. 23. 20. 21. 10. 16. 29. 33. 17. 31. 29. 29. 16. 30. 42. 46.
      21. 36. 33. 34. 21. 43. 53. 55. 22. 34. 31. 33. 22. 54. 56. 56.
      20. 24. 23. 24. 21. 57. 48. 48. 15. 16. 16. 16. 15. 48. 35. 36.
      10. 11. 11. 11. 10. 36. 21. 22. 5. 7. 7. 7. 5. 22. 11. 12. 2. 4.
      4. 4. 2. 12. 0. 1. 0. 0. 0. 0. 0. 1. 0. 0. 0. 0. 0. 0. 0. 0. 5. 5.
      5. 9. 7. 7. 3. 3. 15. 17. 9. 17. 15. 17. 11. 15. 31. 31. 14. 25.
      23. 25. 17. 31. 46. 47. 19. 30. 28. 30. 22. 47. 60. 60. 22. 30.
      30. 31. 25. 60. 65. 65. 20. 25. 25. 25. 23. 67. 57. 57. 17. 19.
      19. 19. 17. 57. 43. 43. 12. 14. 14. 14. 12. 43. 25. 27. 7. 9. 9.
      9. 7. 27. 13. 13. 3. 3. 3. 3. 3. 13. 0. 2. 0. 0. 0. 0. 0. 2.</_>
    <_>
      0. 0. 0. 0. 0. 0. 0. 0. 7. 9. 3. 5. 3. 1. 1. 7. 20. 22. 9. 9. 7.
      6. 4. 19. 36. 39. 14. 15. 12. 11. 11. 35. 52. 55. 20. 22. 19. 19.
      15. 51. 59. 63. 25. 33. 28. 30. 22. 60. 49. 52. 20. 31. 27. 31.
      22. 54. 33. 38. 15. 27. 23. 27. 17. 38. 17. 20. 9. 19. 15. 19. 11.
      20. 4. 6. 3. 9. 7. 9. 4. 6. 0. 0. 0. 0. 0. 0. 0. 0. 0. 0. 0. 0. 0.
      0. 0. 0. 0. 0. 0. 0. 0. 0. 0. 0. 6. 8. 4. 4. 2. 1. 1. 5. 17. 18.
      7. 8. 5. 5. 4. 16. 30. 33. 11. 12. 10. 9. 8. 29. 46. 49. 20. 23.
      20. 20. 15. 44. 53. 58. 25. 36. 30. 33. 20. 54. 46. 50. 23. 37.
      31. 35. 20. 48. 31. 36. 20. 33. 28. 31. 15. 35. 17. 21. 12. 24.
      20. 22. 10. 20. 4. 5. 3. 10. 8. 9. 3. 5. 0. 0. 0. 0. 0. 0. 0. 0.
      0. 0. 0. 0. 0. 0. 0. 0. 0. 0. 0. 0. 0. 0. 0. 0. 4. 5. 2. 3. 2. 1.
      1. 4. 13. 14. 6. 6. 5. 4. 3. 12. 24. 26. 10. 10. 8. 7. 7. 23. 39.
      43. 20. 25. 21. 20. 13. 38. 45. 53. 27. 40. 33. 34. 17. 47. 40.
      48. 27. 42. 35. 37. 17. 43. 29. 37. 23. 38. 31. 34. 14. 32. 16.
      22. 15. 27. 22. 24. 9. 19. 3. 5. 4. 9. 7. 8. 3. 5. 0. 0. 0. 0. 0.
      0. 0. 0. 0. 0. 0. 0. 0. 0. 0. 0. 0. 0. 0. 0. 0. 0. 0. 0. 3. 4. 1.
      2. 1. 1. 0. 2. 9. 10. 4. 4. 3. 3. 2. 8. 19. 22. 9. 9. 7. 6. 5. 18.
      35. 41. 21. 29. 23. 23. 13. 36. 45. 55. 29. 46. 37. 40. 21. 49.
      44. 53. 30. 50. 40. 46. 23. 49. 34. 43. 25. 45. 36. 42. 20. 40.
      20. 26. 16. 31. 26. 31. 14. 25. 5. 7. 3. 9. 8. 10. 4. 7. 0. 0. 0.
      0. 0. 0. 0. 0. 0. 0. 0. 0. 0. 0. 0. 0. 0. 0. 0. 0. 0. 0. 0. 0. 0.
      0. 0. 0. 0. 0. 0. 0. 0. 0. 0. 0. 0. 0. 0. 0. 4. 6. 3. 3. 2. 1. 0.
      3. 15. 20. 14. 21. 16. 17. 7. 16. 25. 33. 21. 36. 28. 33. 16. 29.
      29. 38. 23. 43. 35. 43. 22. 37. 27. 34. 20. 40. 33. 42. 23. 36.
      18. 21. 12. 28. 24. 33. 19. 26. 6. 6. 2. 8. 8. 13. 9. 11. 1. 0. 0.
      1. 1. 3. 2. 2. 0. 0. 0. 0. 0. 0. 0. 0. 0. 0. 0. 0. 0. 0. 0. 0. 0.
      0. 0. 0. 0. 0. 0. 0. 0. 0. 0. 0. 0. 0. 0. 0. 4. 6. 3. 4. 2. 1. 0.
      4. 14. 19. 12. 18. 14. 15. 8. 16. 23. 30. 16. 29. 23. 28. 17. 29.
      29. 35. 18. 39. 33. 43. 27. 39. 28. 31. 16. 38. 34. 46. 29. 39.
      19. 20. 9. 28. 27. 38. 25. 30. 9. 7. 2. 12. 14. 20. 14. 16. 3. 2.
      1. 7. 8. 10. 5. 5. 0. 0. 0. 0. 0. 0. 0. 0. 0. 0. 0. 0. 0. 0. 0. 0.
      0. 0. 0. 0. 0. 0. 0. 0. 0. 0. 0. 0. 0. 0. 0. 0. 3. 5. 3. 3. 2. 1.
      0. 3. 10. 13. 7. 12. 8. 10. 6. 11. 18. 22. 10. 18. 14. 19. 14. 23.
      26. 29. 14. 33. 30. 40. 25. 35. 26. 29. 14. 37. 34. 46. 29. 38.
      20. 21. 11. 32. 32. 43. 26. 32. 12. 12. 6. 21. 22. 29. 17. 20. 5.
      5. 4. 15. 15. 18. 9. 9. 0. 0. 0. 0. 0. 0. 0. 0. 0. 0. 0. 0. 0. 0.
      0. 0. 0. 0. 0. 0. 0. 0. 0. 0. 0. 0. 0. 0. 0. 0. 0. 0. 2. 2. 1. 2.
      1. 1. 0. 1. 5. 6. 3. 5. 3. 4. 3. 5. 12. 15. 7. 12. 8. 12. 9. 15.
      22. 27. 17. 32. 27. 34. 19. 30. 26. 31. 20. 40. 34. 43. 23. 34.
      23. 27. 19. 39. 35. 43. 22. 32. 17. 20. 15. 31. 28. 34. 16. 23. 8.
      9. 9. 20. 18. 22. 9. 11. 0. 0. 0. 0. 0. 0. 0. 0. 0. 0. 0. 0. 0. 0.
      0. 0. 3. 2. 0. 1. 1. 2. 1. 4. 9. 8. 2. 3. 3. 4. 4. 10. 16. 15. 4.
      5. 6. 7. 6. 17. 21. 22. 8. 8. 8. 8. 7. 22. 26. 30. 15. 15. 11. 12.
      8. 27. 30. 38. 25. 35. 27. 28. 13. 33. 28. 37. 28. 41. 32. 35. 14.
      31. 22. 31. 26. 41. 33. 36. 13. 26. 15. 21. 18. 32. 27. 29. 11.
      19. 8. 10. 10. 21. 18. 21. 7. 10. 0. 0. 0. 0. 0. 0. 0. 0. 0. 0. 0.
      0. 0. 0. 0. 0. 4. 4. 1. 1. 2. 3. 2. 5. 13. 12. 3. 4. 5. 6. 6. 14.
      23. 22. 7. 7. 8. 10. 9. 25. 31. 32. 12. 12. 11. 12. 11. 32. 36.
      41. 19. 20. 14. 15. 10. 36. 36. 46. 29. 35. 25. 24. 10. 35. 29.
      41. 30. 39. 27. 27. 8. 29. 21. 32. 27. 37. 26. 26. 6. 21. 13. 20.
      18. 27. 20. 20. 4. 13. 5. 9. 9. 16. 14. 14. 3. 5. 0. 0. 0. 0. 0.
      0. 0. 0. 0. 0. 0. 0. 0. 0. 0. 0. 6. 5. 1. 1. 2. 4. 4. 8. 17. 16.
      4. 5. 5. 8. 7. 18. 30. 29. 8. 9. 10. 12. 11. 33. 41. 42. 15. 16.
      15. 16. 15. 43. 47. 53. 23. 24. 18. 18. 14. 47. 42. 53. 30. 33.
      22. 21. 10. 41. 31. 43. 29. 34. 21. 20. 5. 30. 20. 31. 24. 29. 17.
      17. 3. 18. 10. 17. 15. 18. 11. 11. 1. 10. 4. 6. 6. 9. 6. 6. 1. 4.
      0. 0. 0. 0. 0. 0. 0. 0. 0. 0. 0. 0. 0. 0. 0. 0. 7. 7. 1. 1. 3. 5.
      3. 9. 20. 19. 4. 6. 7. 9. 9. 22. 36. 35. 11. 11. 12. 15. 14. 39.
      49. 51. 17. 19. 17. 19. 17. 51. 54. 60. 27. 27. 20. 22. 15. 55.
      46. 55. 30. 30. 19. 17. 11. 44. 31. 43. 25. 25. 14. 14. 4. 30. 17.
      27. 19. 19. 9. 9. 1. 15. 6. 12. 9. 9. 4. 4. 0. 6. 1. 3. 1. 1. 1.
      1. 0. 1. 0. 0. 0. 0. 0. 0. 0. 0.</_>
    <_>
      0. 0. 0. 0. 0. 0. 0. 0. 7. 11. 3. 5. 3. 3. 0. 9. 20. 25. 9. 11. 7.
      7. 4. 22. 36. 41. 14. 17. 14. 15. 11. 39. 52. 55. 19. 22. 19. 22.
      19. 55. 63. 68. 25. 35. 31. 38. 27. 70. 55. 59. 22. 33. 31. 38.
      28. 63. 39. 43. 19. 30. 28. 35. 22. 47. 23. 27. 14. 22. 20. 23.
      14. 28. 9. 11. 6. 12. 11. 14. 6. 12. 0. 0. 0. 0. 0. 0. 0. 0. 0. 0.
      0. 0. 0. 0. 0. 0. 0. 0. 0. 0. 0. 0. 0. 0. 5. 8. 2. 4. 2. 2. 0. 6.
      15. 17. 7. 8. 5. 5. 3. 16. 27. 29. 9. 12. 10. 11. 8. 29. 38. 42.
      15. 18. 15. 17. 12. 42. 50. 56. 24. 35. 29. 34. 21. 55. 46. 51.
      24. 37. 33. 36. 22. 51. 35. 42. 22. 36. 30. 35. 18. 40. 22. 28.
      17. 28. 23. 25. 11. 25. 9. 11. 9. 15. 12. 15. 5. 11. 0. 0. 0. 0.
      0. 0. 0. 0. 0. 0. 0. 0. 0. 0. 0. 0. 0. 0. 0. 0. 0. 0. 0. 0. 3. 5.
      2. 2. 1. 1. 0. 4. 10. 13. 4. 5. 4. 4. 2. 11. 20. 23. 8. 9. 8. 9.
      6. 22. 33. 38. 17. 21. 17. 18. 11. 35. 44. 53. 28. 40. 33. 35. 19.
      48. 43. 51. 30. 44. 37. 40. 20. 46. 34. 42. 28. 42. 35. 37. 18.
      37. 21. 28. 21. 32. 26. 27. 12. 23. 8. 11. 9. 15. 12. 13. 5. 9. 0.
      0. 0. 0. 0. 0. 0. 0. 0. 0. 0. 0. 0. 0. 0. 0. 0. 0. 0. 0. 0. 0. 0.
      0. 1. 2. 1. 1. 1. 1. 0. 2. 6. 7. 3. 3. 2. 2. 0. 6. 15. 17. 7. 8.
      6. 5. 3. 15. 29. 34. 18. 24. 19. 20. 11. 31. 42. 52. 30. 45. 36.
      40. 22. 46. 43. 54. 34. 52. 42. 47. 25. 48. 36. 45. 30. 48. 39.
      45. 24. 41. 23. 30. 21. 35. 29. 33. 17. 27. 8. 11. 8. 14. 11. 13.
      6. 10. 0. 0. 0. 0. 0. 0. 0. 0. 0. 0. 0. 0. 0. 0. 0. 0. 0. 0. 0. 0.
      0. 0. 0. 0. 0. 0. 0. 0. 0. 0. 0. 0. 3. 4. 2. 2. 1. 1. 0. 2. 11.
      13. 7. 7. 5. 4. 2. 10. 23. 29. 18. 24. 18. 19. 11. 24. 35. 44. 27.
      41. 32. 36. 21. 38. 40. 50. 30. 50. 40. 47. 28. 47. 35. 43. 25.
      46. 38. 46. 28. 43. 23. 29. 16. 34. 28. 36. 22. 31. 11. 13. 5. 14.
      12. 16. 11. 15. 2. 2. 0. 2. 2. 4. 3. 4. 0. 0. 0. 0. 0. 0. 0. 0. 0.
      0. 0. 0. 0. 0. 0. 0. 0. 0. 0. 0. 0. 0. 0. 0. 3. 4. 2. 3. 1. 1. 0.
      2. 11. 14. 7. 8. 5. 4. 2. 10. 23. 28. 17. 23. 18. 19. 11. 25. 33.
      40. 22. 34. 27. 32. 21. 38. 40. 47. 25. 44. 37. 45. 31. 49. 36.
      41. 20. 42. 37. 48. 33. 46. 26. 29. 13. 34. 30. 40. 27. 35. 13.
      14. 4. 17. 16. 23. 15. 19. 5. 5. 2. 10. 10. 12. 7. 9. 0. 0. 0. 1.
      1. 3. 0. 0. 0. 0. 0. 0. 0. 0. 0. 0. 0. 0. 0. 0. 0. 0. 0. 0. 3. 3.
      2. 2. 1. 1. 0. 2. 9. 11. 6. 6. 4. 3. 2. 8. 18. 21. 12. 17. 13. 14.
      9. 19. 25. 29. 14. 23. 19. 24. 18. 30. 35. 38. 17. 36. 32. 41. 31.
      44. 33. 35. 15. 40. 38. 49. 34. 44. 26. 27. 11. 36. 36. 46. 30.
      36. 16. 16. 6. 25. 25. 32. 19. 23. 9. 9. 4. 20. 20. 23. 10. 12. 0.
      0. 0. 4. 4. 6. 0. 0. 0. 0. 0. 0. 0. 0. 0. 0. 0. 0. 0. 0. 0. 0. 0.
      0. 1. 2. 1. 1. 1. 0. 0. 1. 4. 5. 3. 3. 2. 1. 0. 3. 7. 9. 4. 6. 5.
      5. 4. 8. 12. 13. 4. 9. 7. 11. 10. 15. 23. 27. 13. 27. 24. 31. 22.
      31. 26. 30. 15. 38. 35. 43. 26. 35. 25. 28. 15. 41. 38. 46. 25.
      33. 19. 22. 13. 36. 32. 38. 18. 24. 12. 14. 10. 29. 27. 29. 10.
      15. 0. 0. 0. 6. 6. 7. 0. 0. 1. 3. 0. 1. 1. 1. 1. 3. 7. 8. 1. 3. 3.
      4. 3. 9. 11. 12. 2. 5. 5. 7. 6. 14. 16. 17. 4. 7. 7. 9. 9. 18. 19.
      20. 7. 10. 9. 11. 10. 21. 21. 23. 11. 13. 10. 11. 9. 21. 28. 34.
      23. 32. 25. 27. 15. 30. 29. 37. 27. 44. 35. 38. 16. 32. 26. 34.
      26. 46. 38. 41. 16. 29. 19. 26. 20. 40. 33. 36. 13. 22. 12. 16.
      12. 30. 27. 29. 9. 14. 0. 0. 0. 7. 6. 6. 0. 0. 3. 4. 0. 1. 1. 3.
      3. 6. 10. 11. 1. 4. 4. 7. 5. 14. 18. 19. 3. 7. 7. 10. 10. 22. 27.
      27. 7. 11. 11. 14. 13. 30. 33. 34. 11. 14. 13. 16. 14. 36. 34. 38.
      17. 18. 14. 14. 12. 35. 36. 44. 28. 33. 24. 24. 11. 35. 31. 42.
      31. 41. 30. 29. 9. 30. 24. 34. 29. 42. 31. 30. 7. 23. 15. 23. 21.
      34. 26. 25. 5. 15. 8. 12. 12. 24. 20. 20. 3. 8. 0. 0. 0. 6. 4. 4.
      0. 0. 5. 5. 0. 1. 1. 5. 3. 7. 15. 15. 1. 6. 6. 9. 8. 19. 24. 25.
      4. 9. 9. 14. 12. 29. 36. 37. 9. 14. 14. 18. 17. 42. 46. 48. 14.
      18. 17. 21. 18. 50. 48. 53. 22. 23. 17. 18. 15. 48. 44. 55. 31.
      35. 24. 24. 11. 44. 36. 49. 34. 40. 25. 24. 8. 35. 24. 37. 29. 36.
      24. 23. 4. 23. 14. 23. 20. 28. 18. 17. 2. 12. 6. 12. 11. 18. 12.
      12. 1. 6. 0. 0. 0. 3. 1. 1. 0. 0. 5. 7. 0. 2. 2. 5. 5. 10. 16. 18.
      1. 7. 7. 11. 9. 22. 30. 30. 4. 11. 11. 15. 15. 36. 46. 46. 11. 17.
      17. 22. 20. 52. 57. 60. 17. 22. 20. 25. 22. 62. 60. 65. 25. 28.
      22. 22. 19. 60. 52. 65. 33. 35. 23. 23. 12. 52. 39. 54. 33. 35.
      20. 19. 6. 38. 25. 39. 28. 30. 15. 15. 1. 23. 12. 22. 19. 20. 11.
      9. 0. 11. 3. 9. 9. 11. 5. 5. 0. 3. 0. 0. 0. 0. 0. 0. 0. 0.</_>
    <_>
      0. 0. 0. 0. 0. 0. 0. 0. 9. 11. 1. 3. 3. 3. 1. 11. 23. 25. 7. 7. 7.
      7. 7. 25. 41. 43. 12. 14. 14. 14. 12. 43. 59. 60. 20. 27. 27. 28.
      22. 62. 65. 70. 28. 41. 38. 39. 28. 68. 54. 59. 27. 43. 36. 39.
      27. 57. 36. 43. 22. 36. 31. 33. 20. 39. 19. 23. 14. 27. 22. 23.
      12. 22. 6. 7. 6. 11. 7. 7. 3. 6. 0. 0. 0. 0. 0. 0. 0. 0. 0. 0. 0.
      0. 0. 0. 0. 0. 0. 0. 0. 0. 0. 0. 0. 0. 6. 8. 1. 2. 2. 2. 1. 8. 16.
      17. 4. 5. 5. 5. 4. 17. 29. 30. 8. 9. 9. 9. 8. 30. 43. 47. 17. 24.
      23. 24. 15. 46. 50. 57. 27. 41. 35. 37. 21. 54. 43. 51. 28. 44.
      37. 38. 20. 46. 31. 38. 23. 40. 33. 34. 16. 33. 17. 23. 16. 28.
      22. 24. 10. 18. 4. 7. 5. 9. 7. 7. 3. 4. 0. 0. 0. 0. 0. 0. 0. 0. 0.
      0. 0. 0. 0. 0. 0. 0. 0. 0. 0. 0. 0. 0. 0. 0. 4. 4. 1. 1. 1. 1. 1.
      4. 11. 11. 3. 3. 3. 3. 3. 11. 20. 21. 6. 8. 7. 7. 5. 20. 33. 38.
      18. 26. 21. 23. 12. 35. 40. 49. 27. 41. 33. 35. 16. 42. 36. 46.
      29. 45. 36. 38. 16. 38. 27. 36. 25. 40. 32. 34. 13. 29. 16. 22.
      17. 28. 22. 23. 9. 17. 4. 6. 4. 8. 6. 6. 2. 4. 0. 0. 0. 0. 0. 0.
      0. 0. 0. 0. 0. 0. 0. 0. 0. 0. 0. 0. 0. 0. 0. 0. 0. 0. 1. 1. 0. 0.
      0. 0. 0. 1. 3. 3. 0. 0. 0. 0. 0. 3. 7. 8. 2. 3. 1. 1. 0. 7. 18.
      23. 13. 21. 16. 18. 6. 20. 28. 36. 22. 36. 28. 33. 14. 32. 30. 39.
      26. 43. 34. 40. 18. 36. 27. 35. 24. 39. 32. 38. 18. 32. 18. 23.
      16. 27. 23. 28. 14. 23. 6. 7. 4. 7. 6. 8. 5. 8. 0. 0. 0. 0. 0. 0.
      0. 1. 0. 0. 0. 0. 0. 0. 0. 0. 0. 0. 0. 0. 0. 0. 0. 0. 0. 0. 0. 0.
      0. 0. 0. 0. 0. 0. 0. 0. 0. 0. 0. 0. 1. 3. 2. 3. 1. 1. 0. 1. 11.
      16. 13. 19. 14. 16. 6. 13. 20. 26. 19. 29. 23. 28. 14. 25. 26. 32.
      22. 37. 30. 39. 21. 35. 26. 31. 19. 35. 30. 40. 23. 36. 19. 22.
      12. 25. 23. 31. 19. 29. 8. 8. 2. 9. 9. 14. 11. 13. 2. 2. 0. 4. 4.
      5. 4. 4. 0. 0. 0. 0. 0. 0. 0. 0. 0. 0. 0. 0. 0. 0. 0. 0. 0. 0. 0.
      0. 0. 0. 0. 0. 0. 0. 0. 0. 0. 0. 0. 0. 1. 2. 2. 3. 1. 1. 0. 1. 9.
      12. 9. 13. 10. 12. 6. 11. 17. 21. 13. 19. 16. 22. 14. 23. 26. 29.
      16. 31. 28. 38. 26. 37. 27. 29. 14. 32. 30. 43. 29. 40. 22. 23.
      10. 27. 27. 38. 27. 35. 12. 11. 3. 15. 16. 23. 17. 20. 5. 5. 1.
      10. 10. 14. 9. 9. 0. 0. 0. 0. 0. 0. 0. 0. 0. 0. 0. 0. 0. 0. 0. 0.
      0. 0. 0. 0. 0. 0. 0. 0. 0. 0. 0. 0. 0. 0. 0. 0. 1. 1. 1. 2. 1. 1.
      0. 0. 6. 7. 4. 6. 5. 7. 4. 8. 12. 13. 6. 10. 8. 14. 11. 18. 23.
      24. 11. 26. 25. 35. 25. 33. 26. 27. 12. 32. 31. 44. 29. 38. 23.
      24. 10. 32. 32. 43. 28. 35. 15. 16. 7. 25. 25. 32. 20. 23. 8. 9.
      4. 18. 18. 22. 11. 12. 0. 0. 0. 1. 0. 1. 0. 0. 0. 0. 0. 0. 0. 0.
      0. 0. 0. 0. 0. 0. 0. 0. 0. 0. 0. 0. 0. 0. 0. 0. 0. 0. 0. 0. 0. 0.
      0. 0. 0. 0. 2. 1. 0. 0. 1. 2. 2. 3. 7. 7. 2. 3. 3. 6. 6. 10. 20.
      22. 11. 25. 23. 29. 19. 27. 25. 28. 15. 36. 32. 41. 24. 34. 25.
      29. 17. 40. 36. 44. 24. 34. 19. 23. 14. 34. 30. 37. 18. 25. 11.
      14. 9. 27. 23. 27. 11. 15. 0. 0. 0. 1. 1. 1. 0. 0. 0. 0. 0. 0. 0.
      0. 0. 0. 4. 4. 0. 2. 2. 2. 2. 5. 10. 10. 2. 4. 4. 5. 4. 12. 17.
      17. 4. 6. 6. 7. 7. 19. 22. 24. 8. 9. 8. 9. 8. 23. 26. 29. 12. 13.
      9. 9. 8. 26. 31. 39. 23. 33. 26. 26. 14. 33. 30. 39. 25. 42. 33.
      35. 15. 32. 25. 34. 24. 43. 34. 37. 15. 28. 18. 25. 18. 36. 29.
      32. 12. 21. 10. 15. 11. 25. 22. 24. 9. 14. 0. 0. 0. 1. 1. 1. 0. 0.
      0. 1. 0. 0. 0. 0. 0. 1. 7. 7. 1. 2. 2. 3. 3. 8. 15. 15. 3. 6. 6.
      7. 6. 17. 25. 26. 7. 9. 9. 11. 10. 27. 33. 35. 11. 14. 12. 13. 12.
      34. 36. 41. 17. 18. 14. 13. 11. 36. 37. 46. 27. 33. 24. 22. 11.
      36. 31. 42. 28. 38. 27. 26. 10. 30. 23. 34. 25. 37. 27. 26. 8. 23.
      15. 22. 18. 29. 21. 22. 6. 15. 8. 11. 10. 20. 15. 16. 3. 8. 0. 0.
      0. 1. 0. 1. 0. 0. 0. 1. 0. 0. 0. 0. 0. 1. 8. 9. 1. 4. 4. 5. 4. 12.
      20. 21. 4. 7. 7. 9. 8. 22. 33. 34. 8. 11. 11. 14. 12. 36. 43. 46.
      15. 17. 16. 17. 16. 46. 48. 54. 22. 23. 17. 17. 15. 48. 44. 55.
      30. 34. 23. 21. 11. 42. 34. 47. 30. 35. 23. 21. 8. 31. 22. 34. 25.
      31. 21. 18. 4. 21. 12. 20. 16. 22. 15. 14. 2. 11. 5. 9. 9. 13. 9.
      9. 1. 5. 0. 0. 0. 0. 0. 0. 0. 0. 0. 2. 0. 0. 0. 0. 0. 2. 11. 11.
      1. 3. 3. 5. 5. 13. 23. 23. 4. 9. 9. 11. 9. 27. 39. 41. 11. 14. 14.
      17. 15. 43. 52. 55. 17. 22. 19. 20. 19. 54. 57. 63. 25. 28. 20.
      20. 17. 57. 49. 60. 31. 31. 22. 19. 12. 47. 35. 47. 28. 30. 19.
      15. 7. 33. 20. 31. 22. 23. 14. 12. 3. 19. 9. 15. 12. 14. 7. 7. 1.
      9. 3. 5. 5. 7. 3. 3. 0. 3. 0. 0. 0. 0. 0. 0. 0. 0.</_>
    <_>
      0. 0. 0. 0. 0. 0. 0. 0. 7. 7. 1. 1. 1. 1. 1. 7. 19. 20. 6. 7. 7.
      7. 6. 20. 36. 38. 11. 12. 12. 12. 11. 38. 54. 57. 19. 25. 25. 27.
      22. 57. 65. 70. 30. 41. 38. 41. 30. 70. 57. 63. 30. 44. 38. 43.
      30. 62. 41. 47. 25. 39. 31. 36. 23. 44. 23. 28. 17. 28. 22. 25.
      15. 25. 7. 11. 9. 12. 7. 7. 4. 7. 0. 0. 0. 0. 0. 0. 0. 0. 0. 0. 0.
      0. 0. 0. 0. 0. 0. 0. 0. 0. 0. 0. 0. 0. 4. 5. 1. 1. 1. 1. 1. 5. 14.
      15. 3. 4. 4. 4. 3. 15. 25. 27. 8. 8. 8. 8. 8. 27. 41. 43. 16. 24.
      23. 25. 17. 43. 51. 57. 27. 42. 36. 40. 24. 55. 47. 55. 29. 47.
      40. 43. 25. 50. 35. 42. 25. 42. 35. 37. 21. 37. 21. 27. 18. 30.
      24. 27. 14. 23. 7. 9. 8. 10. 8. 8. 3. 7. 0. 0. 0. 0. 0. 0. 0. 0.
      0. 0. 0. 0. 0. 0. 0. 0. 0. 0. 0. 0. 0. 0. 0. 0. 2. 3. 0. 1. 1. 1.
      0. 3. 9. 9. 2. 3. 3. 3. 2. 10. 19. 20. 5. 6. 6. 6. 5. 20. 34. 38.
