<?xml version="1.0"?>
<opencv_storage>
<my_svm type_id="opencv-ml-svm">
  <svm_type>C_SVC</svm_type>
  <kernel><type>LINEAR</type></kernel>
  <C>1.0000000000000001e-01</C>
  <term_criteria><epsilon>1.1920928955078125e-07</epsilon>
    <iterations>2147483647</iterations></term_criteria>
  <var_all>1024</var_all>
  <var_count>1024</var_count>
  <class_count>10</class_count>
  <class_labels type_id="opencv-matrix">
    <rows>1</rows>
    <cols>10</cols>
    <dt>i</dt>
    <data>
      48 49 50 51 52 53 54 55 56 57</data></class_labels>
  <sv_total>72</sv_total>
  <support_vectors>
    <_>
      85. 55. 33. 73. 91. 68. 29. 81. 101. 83. 22. 87. 108. 95. 16. 98.
      115. 106. 10. 111. 121. 119. 0. 115. 137. 125. 0. 101. 163. 130.
      0. 80. 190. 131. 0. 57. 208. 126. 1. 38. 216. 121. 11. 14. 209.
      114. 20. 7. 192. 107. 29. 9. 165. 103. 34. 12. 140. 97. 41. 14.
      117. 91. 48. 18. 108. 60. 66. 98. 118. 76. 53. 109. 124. 90. 39.
      120. 131. 111. 30. 135. 139. 127. 19. 151. 149. 146. 1. 152. 173.
      160. 1. 128. 202. 170. 1. 93. 226. 171. 7. 66. 238. 164. 8. 41.
      244. 154. 16. 16. 240. 145. 28. 11. 229. 135. 37. 18. 211. 129.
      47. 25. 186. 127. 58. 32. 158. 127. 70. 36. 135. 63. 106. 139.
      142. 78. 83. 154. 147. 94. 60. 165. 150. 116. 42. 178. 155. 134.
      30. 188. 167. 158. 10. 182. 191. 177. 8. 149. 219. 189. 2. 104.
      236. 192. 9. 70. 247. 185. 13. 42. 250. 176. 24. 15. 249. 168. 35.
      17. 244. 165. 49. 27. 230. 166. 64. 35. 214. 167. 80. 45. 190.
      174. 96. 57. 149. 59. 186. 184. 151. 73. 132. 197. 151. 88. 90.
      204. 151. 105. 62. 212. 156. 127. 41. 215. 169. 157. 19. 202. 194.
      179. 12. 163. 223. 195. 2. 108. 241. 200. 12. 71. 249. 196. 20.
      42. 252. 187. 31. 18. 251. 182. 45. 28. 246. 183. 64. 38. 234.
      188. 84. 54. 220. 194. 110. 71. 196. 205. 143. 87. 141. 51. 242.
      218. 139. 61. 202. 224. 136. 75. 136. 228. 134. 89. 86. 229. 143.
      112. 57. 228. 158. 144. 30. 213. 187. 172. 19. 168. 220. 192. 2.
      105. 238. 198. 15. 68. 247. 196. 27. 40. 250. 188. 37. 23. 248.
      185. 59. 38. 242. 190. 83. 56. 226. 196. 113. 78. 204. 203. 155.
      104. 176. 213. 198. 143. 114. 46. 254. 236. 112. 55. 240. 238.
      112. 67. 191. 238. 113. 79. 120. 237. 119. 95. 76. 231. 135. 123.
      39. 210. 166. 152. 28. 161. 201. 174. 9. 99. 225. 182. 19. 62.
      237. 182. 33. 39. 243. 178. 49. 31. 237. 179. 77. 52. 224. 184.
      109. 76. 197. 191. 157. 107. 163. 195. 207. 157. 129. 201. 235.
      206. 84. 61. 255. 246. 85. 66. 250. 244. 89. 72. 222. 239. 95. 82.
      155. 232. 105. 92. 92. 222. 123. 116. 53. 187. 148. 140. 35. 132.
      179. 156. 15. 85. 204. 164. 20. 55. 218. 167. 38. 43. 222. 164.
      58. 44. 212. 166. 91. 74. 186. 170. 142. 105. 148. 172. 198. 157.
      114. 169. 234. 210. 89. 166. 251. 240. 60. 99. 255. 248. 66. 93.
      252. 241. 73. 92. 230. 229. 83. 96. 177. 214. 94. 102. 110. 183.
      112. 113. 65. 133. 128. 126. 43. 93. 148. 134. 22. 65. 164. 140.
      22. 45. 175. 142. 42. 48. 175. 138. 65. 60. 159. 136. 106. 93.
      130. 137. 170. 141. 102. 132. 223. 197. 81. 125. 248. 233. 64.
      117. 254. 251. 44. 176. 254. 242. 55. 159. 249. 227. 69. 146. 228.
      201. 84. 138. 181. 168. 102. 133. 119. 128. 123. 134. 73. 90. 141.
      144. 50. 70. 153. 146. 28. 49. 162. 145. 22. 43. 162. 142. 43. 56.
      155. 129. 68. 77. 133. 121. 115. 120. 110. 111. 181. 174. 87. 100.
      231. 219. 69. 88. 252. 244. 53. 79. 255. 253. 56. 235. 249. 219.
      72. 221. 236. 190. 89. 203. 211. 150. 117. 189. 167. 114. 146.
      180. 116. 86. 173. 178. 75. 62. 186. 184. 51. 46. 193. 185. 31.
      36. 193. 181. 23. 45. 184. 172. 40. 69. 171. 152. 63. 97. 148.
      125. 107. 153. 121. 103. 173. 203. 98. 85. 227. 231. 81. 71. 250.
      248. 69. 57. 255. 254. 78. 252. 225. 162. 97. 243. 206. 126. 124.
      227. 175. 96. 161. 212. 136. 74. 192. 204. 99. 54. 210. 199. 70.
      34. 217. 207. 48. 25. 215. 209. 32. 26. 213. 206. 21. 47. 200.
      194. 36. 75. 183. 169. 54. 113. 160. 133. 90. 173. 131. 103. 143.
      215. 111. 82. 203. 235. 95. 65. 239. 247. 86. 51. 253. 253. 107.
      253. 181. 94. 138. 245. 160. 79. 175. 229. 131. 63. 207. 215. 104.
      48. 225. 208. 82. 34. 233. 209. 59. 21. 234. 220. 40. 13. 232.
      224. 29. 26. 228. 221. 18. 50. 217. 212. 30. 78. 201. 185. 41.
      120. 178. 147. 71. 179. 152. 110. 102. 218. 130. 84. 153. 235.
      118. 67. 208. 245. 109. 52. 239. 251. 145. 247. 132. 58. 180. 233.
      117. 50. 214. 217. 98. 39. 231. 202. 81. 32. 242. 199. 64. 24.
      245. 207. 47. 12. 243. 220. 32. 9. 237. 226. 24. 26. 230. 225. 14.
      51. 221. 216. 21. 79. 205. 193. 31. 122. 183. 159. 52. 180. 161.
      122. 75. 216. 144. 91. 103. 232. 130. 76. 147. 241. 124. 59. 195.
      246. 163. 222. 97. 33. 200. 206. 87. 29. 227. 188. 77. 23. 240.
      177. 62. 16. 245. 180. 49. 10. 246. 193. 37. 2. 243. 209. 25. 3.
      233. 219. 17. 25. 226. 218. 11. 50. 214. 211. 13. 77. 198. 191.
      20. 118. 176. 158. 37. 172. 156. 125. 53. 208. 140. 99. 72. 224.
      129. 82. 94. 230. 124. 67. 126. 234. 161. 162. 74. 15. 197. 150.
      68. 13. 223. 144. 58. 10. 236. 141. 46. 8. 241. 150. 36. 7. 239.
      169. 27. 3. 232. 189. 14. 3. 223. 199. 11. 24. 211. 200. 8. 46.
      195. 194. 3. 72. 177. 174. 4. 106. 156. 145. 23. 153. 137. 119.
      33. 189. 123. 96. 47. 205. 116. 80. 63. 210. 109. 67. 80. 213.
      138. 100. 56. 4. 171. 101. 52. 4. 199. 101. 44. 4. 216. 104. 35.
      5. 221. 115. 27. 5. 217. 128. 17. 5. 205. 147. 5. 6. 187. 159. 6.
      21. 171. 160. 6. 40. 154. 154. 6. 61. 139. 137. 7. 88. 122. 118.
      17. 122. 108. 100. 26. 149. 100. 86. 34. 165. 92. 74. 44. 170. 88.
      61. 54. 168.</_>
    <_>
      84. 40. 0. 108. 95. 59. 0. 113. 104. 76. 0. 112. 123. 96. 0. 102.
      138. 120. 1. 86. 150. 140. 1. 68. 159. 152. 1. 44. 164. 161. 1.
      26. 165. 162. 2. 2. 167. 155. 2. 2. 172. 144. 11. 3. 172. 126. 13.
      3. 167. 102. 16. 3. 158. 86. 18. 3. 143. 76. 22. 4. 125. 66. 24.
      4. 108. 45. 50. 146. 122. 64. 39. 149. 137. 85. 31. 146. 152. 110.
      23. 132. 173. 142. 16. 104. 187. 170. 4. 79. 194. 188. 4. 55. 199.
      195. 5. 31. 201. 197. 11. 12. 205. 190. 11. 5. 213. 178. 14. 5.
      215. 156. 17. 5. 214. 133. 22. 6. 203. 114. 26. 6. 185. 103. 30.
      6. 163. 101. 32. 6. 143. 48. 82. 192. 150. 68. 68. 193. 166. 89.
      53. 185. 181. 120. 36. 163. 195. 151. 25. 129. 207. 184. 13. 90.
      216. 204. 11. 62. 221. 215. 7. 35. 223. 218. 13. 14. 228. 210. 16.
      7. 234. 196. 21. 7. 238. 180. 28. 12. 240. 164. 35. 15. 233. 148.
      41. 19. 218. 146. 49. 24. 191. 153. 56. 28. 168. 47. 131. 232.
      177. 67. 99. 227. 186. 87. 79. 214. 197. 119. 59. 185. 209. 152.
      38. 145. 220. 187. 19. 98. 224. 209. 15. 68. 228. 222. 7. 38. 230.
      226. 15. 16. 235. 221. 20. 12. 243. 208. 29. 14. 245. 198. 40. 21.
      246. 189. 54. 29. 241. 188. 63. 37. 226. 194. 74. 46. 199. 214.
      81. 58. 176. 42. 196. 248. 182. 62. 151. 245. 191. 83. 111. 231.
      200. 108. 82. 199. 210. 145. 58. 155. 219. 179. 28. 105. 222. 201.
      19. 72. 224. 215. 8. 41. 226. 221. 17. 18. 231. 219. 26. 15. 236.
      212. 38. 21. 238. 209. 59. 34. 237. 209. 75. 49. 228. 218. 87. 63.
      206. 233. 99. 78. 181. 246. 118. 89. 159. 37. 247. 251. 169. 57.
      207. 249. 179. 76. 154. 239. 190. 97. 105. 206. 196. 130. 76. 160.
      201. 159. 39. 107. 202. 183. 26. 75. 204. 193. 8. 43. 205. 200.
      18. 19. 211. 202. 34. 20. 214. 201. 52. 30. 213. 207. 77. 53. 204.
      216. 98. 73. 189. 228. 125. 91. 166. 243. 147. 115. 142. 250. 175.
      141. 130. 61. 254. 253. 142. 66. 243. 251. 156. 77. 190. 239. 170.
      92. 135. 202. 176. 111. 90. 154. 176. 134. 54. 101. 173. 148. 33.
      72. 172. 159. 13. 42. 171. 165. 20. 27. 175. 173. 39. 37. 177.
      177. 62. 56. 171. 187. 92. 78. 158. 198. 129. 100. 140. 213. 167.
      133. 120. 227. 204. 166. 98. 241. 235. 197. 97. 93. 254. 253. 110.
      88. 248. 248. 129. 88. 212. 229. 140. 95. 153. 189. 145. 100. 103.
      139. 144. 112. 67. 92. 139. 123. 45. 66. 136. 126. 23. 44. 133.
      129. 25. 43. 134. 131. 46. 63. 133. 137. 70. 79. 127. 147. 106.
      106. 112. 160. 157. 139. 98. 171. 206. 175. 83. 179. 246. 206. 71.
      188. 253. 237. 77. 154. 254. 249. 91. 139. 247. 236. 108. 127.
      213. 203. 127. 118. 164. 162. 135. 115. 114. 116. 134. 115. 77.
      78. 130. 116. 56. 60. 124. 113. 32. 47. 121. 110. 30. 61. 118.
      109. 51. 84. 114. 109. 75. 107. 104. 115. 117. 145. 96. 122. 174.
      179. 81. 124. 232. 208. 69. 125. 252. 236. 58. 126. 255. 249. 74.
      231. 250. 224. 92. 205. 234. 195. 117. 183. 198. 165. 141. 166.
      157. 130. 155. 157. 118. 95. 160. 149. 83. 65. 157. 147. 64. 54.
      149. 143. 43. 56. 146. 134. 37. 78. 141. 125. 54. 107. 136. 112.
      75. 144. 123. 106. 116. 182. 106. 99. 174. 210. 93. 95. 233. 232.
      82. 85. 253. 245. 71. 80. 255. 250. 80. 252. 219. 165. 101. 248.
      194. 143. 132. 231. 170. 119. 162. 208. 140. 94. 182. 196. 109.
      72. 192. 191. 84. 48. 192. 188. 69. 47. 189. 181. 51. 61. 181.
      169. 43. 87. 173. 148. 55. 127. 161. 131. 70. 167. 144. 111. 104.
      202. 128. 96. 156. 227. 109. 81. 217. 239. 97. 66. 251. 245. 87.
      55. 255. 246. 89. 255. 169. 101. 117. 252. 151. 91. 149. 247. 136.
      79. 184. 237. 114. 65. 208. 230. 97. 49. 225. 229. 80. 34. 230.
      227. 67. 42. 229. 225. 53. 61. 224. 212. 45. 89. 212. 190. 51.
      128. 195. 163. 62. 169. 178. 132. 88. 200. 153. 103. 126. 225.
      137. 83. 177. 235. 121. 64. 229. 240. 105. 47. 251. 238. 99. 254.
      124. 65. 132. 252. 113. 60. 168. 249. 100. 52. 199. 244. 91. 40.
      225. 241. 82. 32. 239. 242. 71. 25. 244. 244. 60. 36. 244. 243.
      48. 57. 240. 233. 41. 81. 232. 216. 44. 111. 216. 187. 52. 147.
      193. 152. 73. 182. 174. 121. 94. 205. 150. 90. 128. 222. 135. 69.
      170. 226. 119. 50. 211. 221. 105. 250. 93. 33. 138. 247. 86. 31.
      172. 242. 80. 27. 200. 235. 73. 23. 223. 234. 64. 18. 236. 237.
      58. 17. 242. 240. 46. 30. 242. 241. 39. 45. 238. 234. 36. 67. 230.
      220. 36. 90. 217. 193. 38. 122. 194. 162. 55. 148. 176. 128. 69.
      178. 151. 96. 86. 192. 135. 73. 110. 197. 116. 53. 138. 191. 102.
      219. 74. 8. 131. 215. 70. 8. 161. 210. 63. 9. 185. 207. 57. 9.
      203. 211. 48. 9. 217. 218. 41. 14. 223. 220. 34. 23. 223. 222. 31.
      33. 220. 217. 28. 51. 211. 203. 27. 72. 198. 183. 27. 93. 180.
      153. 35. 117. 161. 123. 44. 142. 141. 94. 59. 158. 122. 71. 74.
      163. 102. 52. 85. 155. 94. 154. 60. 9. 113. 160. 57. 10. 138. 164.
      49. 10. 156. 168. 40. 10. 171. 174. 33. 10. 180. 180. 29. 12. 186.
      183. 24. 17. 186. 186. 22. 24. 184. 184. 21. 32. 178. 175. 20. 50.
      168. 158. 22. 70. 150. 136. 25. 85. 137. 107. 29. 103. 119. 84.
      35. 120. 100. 65. 42. 124. 88. 46. 50. 121.</_>
    <_>
      86. 45. 38. 146. 111. 64. 30. 157. 139. 89. 22. 169. 167. 122. 12.
      168. 193. 156. 8. 154. 215. 188. 0. 123. 229. 212. 0. 81. 239.
      228. 18. 48. 241. 234. 30. 26. 239. 231. 44. 0. 233. 216. 57. 0.
      221. 196. 67. 5. 207. 175. 68. 6. 189. 151. 65. 7. 173. 132. 62.
      8. 150. 117. 61. 10. 109. 49. 75. 175. 132. 69. 56. 183. 155. 97.
      40. 188. 179. 130. 27. 183. 203. 160. 14. 165. 223. 191. 1. 134.
      235. 214. 1. 85. 241. 230. 18. 48. 242. 239. 32. 26. 242. 239. 47.
      1. 240. 229. 63. 1. 232. 214. 72. 7. 220. 197. 78. 10. 205. 177.
      80. 17. 186. 163. 83. 24. 167. 154. 88. 31. 122. 49. 143. 194.
      144. 69. 110. 200. 164. 98. 73. 201. 186. 131. 50. 190. 206. 160.
      34. 168. 223. 190. 12. 131. 231. 211. 8. 82. 237. 226. 18. 47.
      238. 237. 31. 24. 237. 240. 46. 5. 238. 237. 63. 5. 232. 230. 77.
      11. 223. 218. 89. 21. 208. 207. 100. 32. 189. 198. 113. 42. 171.
      192. 126. 55. 127. 45. 209. 210. 145. 65. 170. 210. 162. 90. 125.
      205. 182. 123. 82. 189. 200. 155. 52. 160. 213. 182. 25. 121. 219.
      203. 15. 74. 224. 216. 16. 43. 225. 226. 28. 21. 225. 233. 42. 6.
      224. 235. 60. 9. 217. 238. 79. 24. 209. 234. 101. 37. 195. 227.
      120. 53. 177. 222. 143. 71. 156. 221. 163. 96. 117. 38. 250. 219.
      133. 54. 228. 213. 149. 75. 177. 202. 167. 108. 125. 182. 181.
      140. 76. 153. 193. 166. 38. 112. 199. 183. 23. 67. 202. 195. 12.
      39. 202. 204. 23. 17. 201. 212. 37. 9. 199. 220. 54. 19. 190. 230.
      81. 38. 179. 235. 112. 58. 164. 236. 143. 86. 146. 234. 173. 119.
      126. 233. 201. 149. 97. 49. 255. 227. 114. 58. 250. 215. 131. 71.
      220. 199. 147. 94. 163. 175. 157. 118. 109. 142. 166. 140. 54. 97.
      170. 154. 34. 57. 171. 161. 11. 34. 169. 172. 17. 13. 166. 180.
      35. 21. 161. 193. 50. 35. 154. 207. 85. 61. 143. 218. 124. 96.
      126. 225. 162. 137. 108. 224. 201. 174. 87. 219. 240. 205. 72. 89.
      255. 234. 88. 84. 254. 214. 107. 83. 244. 192. 119. 87. 187. 162.
      128. 98. 131. 124. 128. 104. 68. 77. 121. 111. 40. 48. 119. 115.
      14. 25. 116. 118. 12. 14. 116. 134. 32. 33. 115. 148. 50. 51. 108.
      169. 93. 93. 99. 183. 142. 139. 85. 191. 184. 179. 70. 190. 227.
      218. 60. 185. 249. 248. 59. 156. 255. 228. 73. 139. 253. 206. 95.
      120. 245. 179. 111. 111. 194. 148. 117. 102. 140. 107. 116. 96.
      76. 64. 106. 93. 46. 39. 99. 90. 18. 20. 91. 91. 11. 22. 88. 100.
      31. 46. 86. 112. 52. 73. 82. 127. 100. 130. 73. 141. 151. 176. 66.
      146. 200. 218. 56. 145. 244. 248. 46. 138. 252. 252. 64. 231. 253.
      207. 86. 202. 249. 185. 116. 176. 229. 158. 133. 153. 184. 129.
      138. 135. 138. 87. 133. 115. 79. 52. 118. 103. 48. 33. 105. 93.
      21. 19. 95. 88. 14. 31. 92. 89. 33. 63. 92. 94. 53. 104. 91. 101.
      103. 159. 87. 106. 155. 208. 81. 107. 204. 245. 71. 101. 246. 251.
      65. 90. 253. 254. 75. 252. 243. 173. 110. 247. 224. 152. 140. 222.
      196. 130. 159. 193. 164. 99. 173. 172. 127. 67. 171. 150. 81. 39.
      158. 141. 53. 25. 146. 134. 28. 23. 136. 123. 20. 44. 130. 117.
      32. 84. 125. 110. 49. 137. 121. 100. 98. 187. 118. 90. 147. 232.
      112. 80. 194. 249. 102. 69. 243. 252. 92. 59. 251. 255. 94. 254.
      192. 120. 132. 251. 178. 105. 164. 246. 161. 85. 192. 225. 141.
      65. 208. 204. 114. 45. 214. 189. 77. 27. 209. 185. 54. 19. 198.
      181. 34. 30. 186. 176. 23. 57. 178. 162. 29. 105. 172. 147. 43.
      156. 160. 124. 80. 203. 153. 104. 127. 241. 144. 84. 172. 249.
      135. 68. 212. 251. 120. 55. 247. 254. 107. 253. 148. 69. 145. 250.
      141. 61. 180. 246. 129. 52. 211. 233. 114. 41. 235. 219. 95. 30.
      244. 215. 72. 19. 244. 217. 55. 16. 240. 217. 37. 36. 226. 211.
      27. 68. 213. 197. 26. 119. 200. 176. 35. 170. 186. 149. 62. 208.
      175. 121. 97. 236. 159. 98. 137. 245. 151. 74. 174. 248. 142. 58.
      210. 250. 109. 247. 114. 36. 147. 242. 109. 33. 181. 226. 101. 28.
      213. 217. 91. 22. 241. 216. 82. 16. 247. 222. 70. 9. 248. 231. 56.
      15. 246. 236. 40. 41. 243. 229. 29. 74. 230. 212. 22. 125. 211.
      187. 24. 174. 195. 157. 44. 204. 178. 135. 66. 220. 165. 108. 94.
      227. 152. 83. 128. 232. 144. 66. 157. 236. 99. 196. 78. 10. 135.
      191. 78. 10. 167. 187. 74. 9. 196. 188. 72. 7. 221. 195. 70. 6.
      242. 209. 67. 6. 245. 221. 55. 15. 243. 228. 41. 43. 238. 223. 29.
      76. 222. 206. 20. 122. 203. 180. 13. 165. 184. 152. 29. 188. 169.
      124. 42. 198. 152. 102. 59. 197. 139. 78. 79. 194. 129. 63. 105.
      191. 75. 136. 56. 2. 106. 137. 59. 2. 136. 142. 58. 2. 161. 149.
      60. 2. 185. 163. 62. 3. 206. 182. 60. 3. 215. 197. 51. 15. 216.
      205. 39. 41. 210. 199. 28. 70. 198. 184. 16. 113. 180. 158. 8.
      148. 159. 133. 17. 165. 144. 106. 26. 168. 126. 83. 36. 158. 113.
      66. 47. 153. 102. 53. 61. 145. 57. 76. 40. 3. 77. 84. 43. 3. 103.
      96. 44. 4. 128. 110. 47. 4. 150. 129. 50. 4. 170. 150. 51. 4. 178.
      166. 45. 13. 181. 174. 36. 37. 177. 171. 25. 62. 168. 155. 13. 92.
      151. 134. 5. 122. 132. 104. 7. 138. 113. 79. 11. 136. 95. 64. 20.
      123. 80. 51. 27. 115. 71. 42. 35. 103.</_>
    <_>
      77. 29. 16. 94. 88. 39. 13. 100. 99. 54. 10. 104. 113. 74. 7. 100.
      130. 96. 5. 83. 143. 119. 0. 62. 152. 141. 0. 38. 156. 152. 0. 25.
      160. 158. 12. 9. 161. 158. 20. 0. 158. 153. 29. 1. 153. 140. 37.
      4. 144. 122. 43. 6. 133. 102. 45. 7. 121. 89. 43. 9. 111. 78. 40.
      11. 103. 34. 40. 135. 115. 47. 32. 142. 128. 64. 24. 141. 144. 83.
      17. 128. 156. 107. 12. 102. 173. 138. 7. 77. 182. 163. 11. 50.
      191. 178. 15. 35. 196. 190. 22. 25. 197. 190. 30. 21. 194. 183.
      37. 19. 187. 171. 48. 17. 179. 153. 57. 15. 170. 135. 60. 18. 162.
      115. 62. 20. 154. 104. 63. 26. 141. 40. 76. 189. 150. 53. 58. 188.
      160. 72. 41. 178. 172. 94. 29. 157. 183. 121. 22. 123. 198. 153.
      16. 93. 208. 177. 20. 67. 217. 194. 23. 55. 221. 204. 31. 44. 222.
      208. 39. 38. 220. 203. 47. 31. 217. 197. 60. 27. 210. 182. 68. 24.
      204. 167. 77. 27. 198. 155. 83. 34. 193. 148. 92. 44. 164. 41.
      132. 228. 167. 55. 97. 220. 173. 73. 70. 202. 179. 95. 48. 176.
      188. 119. 35. 139. 200. 149. 26. 105. 213. 171. 28. 88. 223. 185.
      32. 80. 227. 199. 42. 69. 228. 205. 50. 61. 226. 207. 58. 47. 223.
      207. 68. 36. 217. 202. 80. 33. 211. 198. 92. 41. 205. 195. 108.
      55. 200. 192. 132. 75. 158. 37. 213. 243. 160. 51. 156. 232. 163.
      70. 108. 212. 170. 90. 77. 180. 179. 112. 56. 146. 196. 138. 37.
      118. 210. 156. 39. 107. 223. 169. 44. 104. 229. 180. 52. 97. 229.
      192. 63. 85. 226. 199. 66. 66. 219. 208. 79. 53. 206. 213. 91. 49.
      196. 213. 109. 65. 183. 215. 145. 87. 176. 214. 186. 120. 128. 35.
      249. 249. 131. 49. 218. 237. 138. 68. 160. 214. 150. 89. 109. 181.
      164. 110. 81. 149. 184. 131. 54. 129. 201. 143. 50. 125. 217. 150.
      52. 128. 225. 157. 59. 116. 226. 175. 68. 101. 224. 190. 73. 81.
      210. 206. 86. 69. 187. 218. 102. 70. 165. 222. 137. 93. 144. 223.
      186. 131. 130. 218. 232. 188. 91. 40. 253. 251. 97. 55. 241. 238.
      107. 74. 201. 212. 127. 94. 149. 178. 147. 112. 105. 147. 166.
      124. 71. 126. 181. 129. 59. 125. 195. 127. 56. 127. 203. 129. 57.
      115. 207. 147. 66. 103. 202. 166. 71. 86. 188. 192. 90. 84. 163.
      212. 113. 95. 136. 218. 159. 132. 106. 215. 220. 187. 91. 200.
      248. 238. 61. 65. 254. 250. 71. 72. 246. 233. 85. 88. 219. 200.
      103. 101. 171. 165. 124. 116. 123. 135. 143. 121. 82. 109. 154.
      116. 63. 103. 161. 110. 51. 101. 168. 106. 46. 95. 172. 120. 56.
      92. 170. 140. 64. 84. 157. 164. 89. 98. 137. 185. 122. 124. 107.
      191. 180. 177. 84. 184. 236. 231. 65. 163. 252. 252. 47. 109. 253.
      242. 61. 108. 244. 216. 79. 115. 221. 176. 99. 125. 178. 139. 117.
      134. 134. 108. 134. 130. 87. 86. 140. 122. 63. 78. 142. 111. 45.
      72. 145. 104. 34. 67. 148. 110. 42. 74. 148. 120. 51. 82. 139.
      136. 84. 111. 118. 145. 127. 161. 96. 145. 193. 220. 73. 135. 242.
      249. 53. 112. 254. 254. 50. 189. 251. 216. 70. 174. 238. 174. 94.
      168. 212. 137. 119. 169. 173. 105. 146. 172. 130. 83. 162. 165.
      88. 62. 166. 159. 60. 51. 165. 152. 39. 45. 167. 142. 26. 46. 168.
      140. 31. 62. 166. 138. 42. 82. 157. 133. 76. 129. 141. 124. 117.
      191. 114. 110. 184. 240. 92. 96. 239. 252. 72. 78. 253. 255. 69.
      241. 243. 154. 93. 226. 224. 118. 120. 215. 193. 95. 155. 209.
      155. 75. 185. 209. 117. 57. 204. 206. 81. 38. 211. 207. 54. 30.
      210. 204. 33. 26. 211. 197. 19. 31. 209. 189. 21. 48. 205. 174.
      30. 80. 194. 149. 61. 136. 175. 122. 98. 201. 146. 99. 154. 244.
      116. 79. 221. 254. 97. 60. 250. 255. 87. 251. 230. 93. 112. 242.
      206. 74. 151. 231. 171. 58. 190. 225. 137. 44. 219. 227. 100. 33.
      234. 229. 71. 22. 239. 235. 46. 17. 240. 238. 29. 14. 241. 237.
      17. 25. 239. 230. 16. 43. 234. 216. 22. 73. 224. 179. 45. 126.
      203. 139. 75. 195. 177. 101. 113. 241. 148. 76. 174. 253. 123. 52.
      227. 255. 99. 250. 209. 52. 132. 243. 182. 43. 175. 234. 151. 33.
      214. 231. 114. 27. 235. 234. 85. 20. 245. 240. 59. 13. 248. 245.
      36. 10. 249. 247. 24. 11. 250. 248. 15. 21. 248. 245. 12. 36. 245.
      236. 16. 64. 239. 208. 32. 106. 225. 162. 53. 169. 202. 113. 82.
      230. 177. 81. 118. 251. 152. 57. 168. 255. 98. 236. 169. 28. 131.
      228. 151. 24. 172. 222. 123. 19. 211. 222. 96. 14. 232. 227. 69.
      10. 243. 236. 46. 6. 247. 242. 30. 4. 247. 246. 19. 8. 247. 246.
      12. 18. 246. 244. 8. 28. 244. 237. 9. 49. 237. 215. 23. 87. 224.
      173. 35. 136. 205. 126. 54. 199. 181. 90. 80. 240. 161. 65. 106.
      252. 86. 186. 125. 14. 111. 182. 114. 11. 150. 181. 98. 9. 186.
      189. 78. 6. 214. 199. 56. 4. 228. 216. 36. 1. 233. 225. 23. 1.
      235. 231. 13. 6. 235. 233. 8. 13. 232. 230. 5. 21. 229. 221. 1.
      38. 219. 196. 15. 66. 203. 159. 23. 100. 184. 119. 34. 151. 164.
      89. 49. 201. 146. 64. 67. 233. 67. 121. 91. 2. 90. 126. 85. 2.
      114. 134. 75. 2. 144. 143. 59. 2. 167. 155. 41. 3. 185. 170. 27.
      3. 194. 183. 18. 3. 198. 191. 7. 5. 197. 195. 5. 8. 193. 192. 4.
      14. 187. 180. 3. 28. 176. 159. 10. 48. 162. 133. 18. 76. 147. 102.
      25. 105. 133. 79. 32. 142. 117. 58. 42. 175.</_>
    <_>
      63. 40. 69. 63. 74. 49. 62. 76. 90. 61. 53. 87. 106. 78. 40. 95.
      123. 92. 28. 98. 141. 113. 18. 92. 154. 136. 14. 75. 163. 152. 26.
      54. 165. 157. 36. 35. 164. 153. 45. 18. 155. 140. 54. 0. 139. 118.
      55. 0. 117. 103. 55. 0. 99. 92. 56. 0. 82. 86. 60. 1. 67. 80. 60.
      1. 85. 51. 107. 86. 99. 64. 94. 98. 116. 81. 78. 110. 143. 100.
      56. 117. 163. 124. 39. 117. 178. 152. 24. 108. 189. 173. 16. 84.
      198. 186. 27. 57. 201. 191. 39. 38. 201. 188. 51. 19. 196. 177.
      60. 1. 182. 161. 67. 7. 164. 144. 69. 9. 138. 132. 76. 11. 111.
      125. 82. 13. 87. 121. 88. 19. 105. 57. 172. 109. 123. 77. 150.
      120. 147. 96. 116. 133. 168. 120. 85. 139. 185. 150. 56. 133. 199.
      174. 35. 115. 210. 193. 21. 89. 218. 206. 29. 61. 222. 213. 40.
      39. 226. 210. 52. 19. 223. 200. 65. 1. 211. 188. 76. 10. 193. 178.
      85. 15. 170. 172. 96. 23. 138. 169. 112. 31. 104. 171. 124. 37.
      119. 63. 234. 135. 140. 82. 206. 144. 162. 107. 171. 149. 182.
      136. 123. 148. 199. 165. 81. 135. 213. 187. 49. 113. 221. 206. 29.
      84. 229. 216. 30. 56. 234. 224. 36. 35. 237. 223. 50. 17. 237.
      217. 65. 7. 229. 212. 80. 17. 212. 205. 96. 26. 184. 202. 116. 38.
      153. 204. 145. 52. 114. 209. 165. 66. 121. 58. 252. 162. 140. 79.
      246. 160. 160. 106. 215. 156. 181. 137. 166. 146. 198. 167. 110.
      126. 212. 190. 67. 100. 219. 207. 37. 73. 226. 216. 30. 47. 232.
      222. 32. 31. 235. 225. 44. 15. 236. 221. 61. 12. 229. 220. 83. 30.
      211. 218. 109. 43. 183. 219. 143. 62. 149. 223. 174. 82. 111. 231.
      200. 105. 109. 55. 255. 185. 120. 77. 253. 174. 142. 100. 245.
      159. 164. 131. 204. 138. 182. 159. 146. 112. 195. 181. 85. 83.
      203. 194. 48. 59. 208. 202. 32. 38. 214. 207. 27. 22. 216. 210.
      42. 15. 217. 214. 61. 20. 208. 216. 91. 41. 190. 218. 128. 63.
      164. 221. 168. 90. 127. 225. 203. 124. 93. 228. 236. 163. 87. 70.
      255. 207. 94. 84. 254. 184. 109. 101. 251. 161. 128. 122. 230.
      130. 147. 143. 171. 97. 161. 159. 101. 68. 169. 167. 59. 46. 173.
      171. 33. 28. 177. 175. 25. 15. 180. 180. 42. 21. 179. 186. 66. 32.
      172. 197. 103. 57. 155. 202. 151. 89. 127. 205. 192. 126. 97. 204.
      233. 172. 72. 204. 249. 211. 62. 108. 255. 224. 69. 112. 254. 192.
      80. 117. 252. 160. 94. 129. 236. 118. 110. 134. 179. 86. 122. 136.
      110. 53. 131. 137. 66. 34. 135. 135. 34. 16. 139. 138. 22. 12.
      141. 148. 44. 27. 140. 157. 71. 41. 132. 169. 119. 75. 114. 176.
      175. 112. 94. 177. 220. 159. 73. 173. 247. 203. 54. 166. 252. 241.
      40. 170. 255. 221. 47. 163. 253. 187. 59. 157. 250. 151. 77. 152.
      228. 108. 91. 145. 174. 75. 104. 134. 107. 43. 113. 129. 66. 29.
      116. 121. 33. 10. 119. 119. 24. 14. 118. 126. 49. 34. 115. 133.
      79. 52. 105. 139. 136. 89. 91. 142. 191. 133. 75. 137. 238. 179.
      58. 127. 251. 223. 46. 114. 254. 248. 48. 229. 253. 199. 64. 213.
      250. 168. 81. 198. 239. 131. 102. 188. 200. 93. 122. 178. 154. 65.
      141. 166. 95. 36. 150. 161. 58. 24. 154. 156. 32. 8. 155. 153. 25.
      20. 151. 153. 51. 41. 143. 149. 81. 65. 125. 141. 142. 107. 106.
      128. 197. 156. 88. 111. 241. 198. 70. 93. 252. 237. 57. 78. 254.
      250. 68. 248. 245. 158. 89. 239. 232. 127. 114. 225. 201. 97. 146.
      211. 167. 71. 169. 202. 122. 49. 183. 195. 79. 28. 191. 194. 50.
      18. 194. 193. 27. 6. 193. 191. 25. 23. 187. 186. 46. 45. 176. 176.
      74. 74. 158. 156. 128. 118. 132. 129. 182. 170. 105. 99. 231. 209.
      88. 77. 251. 239. 74. 55. 253. 250. 95. 249. 210. 103. 130. 241.
      188. 86. 166. 230. 162. 68. 195. 219. 125. 51. 217. 219. 91. 35.
      233. 222. 60. 20. 238. 231. 38. 12. 238. 235. 22. 2. 236. 234. 21.
      24. 230. 227. 39. 47. 214. 209. 59. 80. 190. 181. 99. 131. 162.
      144. 148. 180. 130. 102. 192. 218. 104. 72. 235. 243. 90. 48. 251.
      249. 126. 240. 173. 62. 168. 227. 152. 53. 203. 214. 121. 42. 233.
      212. 92. 33. 244. 220. 69. 23. 247. 233. 44. 13. 248. 241. 26. 9.
      247. 245. 16. 2. 246. 245. 18. 23. 243. 242. 31. 47. 234. 228. 44.
      84. 207. 196. 73. 137. 176. 155. 103. 187. 144. 108. 147. 227.
      115. 72. 185. 243. 100. 45. 226. 248. 146. 201. 134. 33. 184. 189.
      115. 28. 220. 184. 93. 22. 242. 190. 72. 16. 246. 205. 52. 11.
      249. 225. 34. 8. 247. 238. 19. 7. 246. 243. 11. 2. 244. 244. 12.
      20. 240. 240. 21. 45. 231. 226. 30. 83. 205. 196. 50. 134. 175.
      157. 70. 185. 142. 111. 95. 224. 113. 76. 129. 240. 98. 48. 165.
      244. 147. 151. 97. 13. 183. 145. 87. 10. 215. 149. 70. 9. 237.
      160. 53. 8. 242. 179. 37. 7. 242. 199. 25. 2. 239. 215. 10. 3.
      235. 228. 8. 3. 232. 230. 9. 17. 224. 222. 11. 43. 209. 206. 14.
      78. 186. 180. 31. 124. 158. 145. 42. 175. 125. 102. 58. 208. 101.
      71. 79. 227. 88. 46. 101. 232. 132. 96. 73. 3. 167. 98. 67. 3.
      194. 106. 54. 4. 213. 123. 41. 4. 217. 148. 29. 4. 215. 170. 17.
      4. 208. 183. 5. 5. 200. 192. 5. 5. 197. 195. 6. 13. 189. 189. 6.
      37. 178. 177. 6. 68. 158. 154. 14. 104. 130. 120. 26. 150. 102.
      90. 36. 181. 83. 64. 50. 196. 71. 43. 64. 197.</_>
    <_>
      72. 40. 36. 86. 82. 49. 29. 92. 96. 62. 21. 99. 111. 76. 15. 101.
      129. 97. 10. 96. 148. 118. 0. 79. 154. 138. 0. 59. 162. 150. 0.
      41. 165. 154. 18. 25. 163. 152. 30. 0. 157. 146. 42. 1. 144. 133.
      50. 1. 125. 125. 61. 1. 104. 113. 65. 1. 86. 103. 64. 2. 74. 96.
      63. 2. 98. 48. 67. 121. 110. 61. 54. 127. 128. 77. 45. 132. 151.
      98. 36. 130. 170. 124. 27. 119. 184. 153. 16. 93. 193. 175. 11.
      68. 199. 185. 8. 46. 201. 192. 22. 28. 200. 190. 35. 2. 196. 183.
      49. 2. 180. 177. 64. 8. 165. 170. 76. 10. 140. 161. 82. 14. 116.
      152. 85. 19. 97. 144. 85. 23. 126. 53. 120. 163. 142. 69. 95. 166.
      159. 87. 75. 166. 176. 114. 60. 155. 193. 146. 47. 134. 208. 172.
      33. 102. 213. 195. 23. 70. 217. 207. 14. 47. 219. 211. 24. 28.
      218. 212. 39. 7. 214. 210. 55. 7. 206. 209. 76. 13. 186. 208. 94.
      20. 167. 203. 107. 30. 140. 199. 117. 37. 115. 196. 123. 43. 143.
      56. 197. 195. 156. 74. 161. 191. 172. 97. 126. 181. 188. 124. 93.
      168. 206. 155. 69. 141. 215. 182. 47. 101. 222. 206. 34. 69. 226.
      214. 20. 46. 227. 221. 26. 25. 226. 223. 42. 9. 224. 224. 62. 13.
      213. 226. 87. 26. 198. 229. 116. 38. 174. 230. 140. 48. 150. 231.
      158. 59. 122. 232. 171. 71. 139. 55. 249. 215. 153. 73. 228. 205.
      168. 95. 186. 188. 181. 125. 144. 167. 200. 156. 100. 131. 211.
      181. 63. 92. 216. 204. 44. 63. 220. 211. 26. 41. 221. 217. 26. 20.
      220. 222. 45. 14. 215. 225. 67. 22. 207. 231. 100. 40. 186. 235.
      139. 53. 166. 237. 171. 72. 137. 239. 198. 93. 112. 241. 216. 118.
      114. 60. 255. 227. 126. 75. 251. 209. 142. 97. 235. 182. 160. 121.
      189. 154. 176. 149. 133. 116. 189. 172. 79. 79. 198. 186. 51. 51.
      202. 196. 31. 35. 202. 202. 25. 15. 200. 208. 47. 20. 194. 210.
      70. 33. 179. 218. 114. 52. 164. 224. 163. 78. 137. 228. 203. 108.
      111. 230. 233. 148. 90. 231. 247. 180. 80. 84. 255. 229. 89. 92.
      253. 204. 100. 105. 248. 171. 117. 121. 215. 134. 134. 135. 159.
      98. 151. 149. 91. 66. 158. 157. 58. 46. 163. 161. 33. 27. 164.
      165. 22. 11. 162. 169. 46. 30. 156. 174. 72. 44. 146. 181. 120.
      73. 127. 187. 175. 109. 105. 191. 222. 158. 86. 189. 247. 201. 70.
      188. 252. 235. 54. 132. 255. 226. 62. 133. 253. 194. 71. 135. 248.
      156. 83. 136. 217. 115. 98. 134. 162. 80. 108. 129. 94. 50. 117.
      127. 59. 36. 121. 124. 34. 17. 123. 124. 17. 12. 122. 127. 44. 37.
      120. 131. 68. 54. 113. 136. 118. 92. 102. 140. 178. 144. 87. 138.
      229. 195. 73. 132. 250. 236. 60. 128. 254. 250. 50. 207. 254. 210.
      58. 196. 251. 172. 67. 185. 241. 132. 78. 173. 207. 95. 88. 157.
      153. 67. 99. 135. 90. 42. 104. 123. 57. 29. 106. 113. 33. 12. 110.
      107. 14. 17. 112. 109. 40. 43. 113. 107. 61. 66. 109. 105. 106.
      112. 104. 101. 168. 171. 93. 96. 222. 223. 81. 87. 249. 248. 70.
      81. 254. 253. 68. 247. 248. 179. 77. 242. 238. 145. 88. 232. 217.
      106. 102. 216. 183. 78. 117. 198. 141. 54. 130. 173. 88. 35. 139.
      161. 57. 23. 143. 149. 36. 9. 147. 141. 13. 24. 149. 136. 35. 48.
      152. 128. 50. 77. 151. 114. 90. 131. 146. 99. 145. 192. 131. 84.
      200. 237. 116. 71. 243. 251. 102. 60. 252. 255. 101. 252. 216.
      137. 115. 250. 204. 105. 130. 246. 184. 80. 150. 240. 162. 58.
      167. 228. 126. 43. 178. 210. 86. 24. 183. 199. 57. 15. 185. 190.
      38. 6. 189. 180. 15. 29. 192. 176. 27. 51. 193. 164. 41. 85. 192.
      142. 71. 147. 184. 115. 109. 202. 173. 91. 166. 241. 160. 74. 213.
      251. 147. 61. 246. 254. 142. 252. 178. 95. 158. 249. 168. 75. 176.
      247. 155. 58. 195. 245. 138. 45. 211. 241. 111. 32. 224. 236. 82.
      16. 230. 235. 56. 10. 232. 233. 39. 3. 234. 227. 18. 32. 234. 219.
      18. 55. 232. 205. 31. 89. 228. 175. 52. 150. 218. 143. 79. 203.
      206. 108. 118. 238. 190. 84. 167. 250. 179. 69. 209. 253. 160.
      245. 145. 65. 177. 239. 136. 51. 197. 237. 128. 42. 214. 238. 119.
      31. 231. 240. 100. 21. 240. 242. 78. 9. 244. 243. 56. 7. 245. 244.
      39. 3. 246. 242. 21. 34. 246. 236. 12. 56. 244. 223. 19. 89. 238.
      194. 40. 147. 230. 160. 57. 194. 214. 122. 81. 229. 201. 94. 112.
      245. 191. 75. 151. 249. 152. 201. 110. 44. 170. 199. 106. 37. 187.
      203. 104. 29. 208. 212. 99. 19. 225. 223. 88. 11. 236. 233. 72. 3.
      242. 237. 52. 3. 243. 240. 39. 4. 244. 239. 23. 34. 243. 234. 8.
      53. 239. 219. 11. 85. 234. 190. 28. 130. 220. 155. 41. 174. 205.
      120. 55. 205. 187. 91. 74. 221. 178. 73. 94. 233. 123. 139. 83.
      30. 141. 143. 83. 25. 159. 153. 82. 18. 177. 169. 81. 12. 197.
      185. 76. 8. 212. 204. 66. 4. 221. 213. 49. 4. 225. 220. 37. 4.
      227. 219. 22. 31. 225. 212. 5. 49. 218. 197. 5. 77. 209. 169. 16.
      111. 193. 135. 27. 148. 174. 103. 38. 169. 159. 80. 48. 179. 148.
      65. 59. 184. 91. 83. 64. 21. 103. 90. 63. 17. 119. 103. 64. 13.
      137. 122. 65. 9. 157. 145. 62. 7. 173. 164. 53. 5. 182. 175. 43.
      5. 188. 182. 32. 6. 191. 183. 19. 28. 187. 177. 6. 45. 180. 165.
      6. 66. 170. 138. 10. 89. 154. 108. 16. 110. 133. 84. 24. 125. 119.
      68. 32. 129. 107. 52. 38. 129.</_>
    <_>
      88. 36. 22. 132. 104. 58. 16. 130. 123. 82. 12. 114. 139. 104. 8.
      95. 147. 121. 5. 89. 148. 134. 0. 93. 150. 128. 5. 113. 164. 115.
      10. 136. 187. 104. 15. 141. 211. 95. 25. 115. 218. 90. 35. 80.
      203. 87. 43. 49. 167. 87. 50. 23. 120. 86. 57. 6. 84. 82. 60. 7.
      55. 79. 59. 8. 110. 40. 56. 180. 132. 64. 42. 175. 154. 90. 28.
      153. 174. 118. 16. 123. 183. 146. 9. 107. 185. 163. 0. 105. 186.
      160. 5. 120. 193. 145. 11. 138. 211. 131. 17. 140. 232. 119. 28.
      113. 240. 116. 43. 77. 230. 116. 54. 48. 201. 122. 68. 23. 153.
      131. 74. 9. 106. 135. 80. 11. 72. 138. 79. 12. 131. 39. 97. 224.
      153. 64. 73. 217. 177. 92. 51. 195. 194. 122. 33. 162. 200. 154.
      19. 133. 202. 174. 7. 118. 200. 175. 8. 121. 204. 164. 12. 131.
      219. 150. 19. 125. 237. 142. 33. 100. 245. 143. 52. 71. 241. 154.
      71. 44. 218. 172. 88. 24. 176. 189. 99. 16. 123. 199. 108. 20. 86.
      210. 109. 25. 137. 35. 168. 246. 157. 56. 119. 239. 178. 83. 84.
      220. 194. 113. 56. 190. 204. 145. 35. 155. 208. 172. 15. 130. 209.
      182. 12. 117. 213. 179. 13. 112. 223. 172. 21. 100. 237. 168. 37.
      81. 244. 175. 62. 58. 239. 192. 84. 40. 219. 212. 106. 30. 180.
      229. 126. 30. 129. 243. 139. 38. 89. 249. 142. 47. 125. 32. 235.
      250. 140. 47. 184. 248. 160. 70. 124. 234. 178. 94. 85. 211. 193.
      125. 57. 179. 201. 157. 29. 141. 206. 178. 18. 112. 213. 186. 14.
      93. 219. 189. 24. 76. 229. 191. 44. 61. 233. 196. 71. 47. 224.
      214. 99. 43. 198. 231. 132. 44. 158. 246. 156. 53. 113. 251. 171.
      68. 79. 254. 180. 78. 100. 52. 252. 251. 112. 55. 226. 249. 127.
      68. 170. 241. 148. 85. 116. 225. 167. 109. 80. 196. 184. 137. 46.
      151. 193. 162. 29. 109. 199. 176. 17. 77. 204. 188. 26. 57. 209.
      194. 51. 46. 205. 201. 83. 42. 190. 215. 122. 52. 158. 231. 163.
      66. 118. 244. 191. 81. 89. 251. 204. 101. 63. 254. 215. 126. 74.
      88. 254. 250. 87. 78. 242. 248. 102. 77. 197. 240. 122. 88. 144.
      226. 146. 103. 98. 198. 165. 124. 61. 148. 176. 148. 37. 99. 184.
      164. 21. 66. 186. 177. 30. 41. 185. 183. 58. 36. 174. 190. 94. 46.
      151. 199. 144. 71. 119. 211. 191. 91. 90. 222. 216. 117. 67. 235.
      233. 149. 46. 249. 245. 188. 50. 158. 252. 246. 65. 126. 238. 234.
      81. 108. 200. 225. 100. 101. 155. 210. 120. 106. 110. 182. 140.
      116. 70. 129. 152. 134. 43. 85. 161. 142. 23. 50. 163. 154. 32.
      32. 161. 159. 61. 36. 149. 161. 96. 54. 127. 165. 159. 87. 97.
      166. 207. 115. 73. 169. 236. 152. 50. 178. 250. 191. 33. 192. 253.
      225. 48. 234. 245. 220. 63. 197. 219. 203. 80. 163. 187. 190. 101.
      141. 147. 171. 124. 136. 107. 141. 143. 135. 70. 98. 155. 143. 42.
      69. 164. 149. 23. 39. 167. 150. 30. 28. 165. 147. 59. 39. 156.
      137. 94. 65. 134. 129. 157. 99. 103. 117. 210. 138. 75. 108. 243.
      181. 53. 103. 252. 216. 34. 106. 255. 244. 65. 253. 212. 177. 81.
      242. 188. 155. 103. 214. 160. 138. 132. 192. 130. 119. 162. 183.
      96. 97. 185. 179. 67. 72. 195. 187. 40. 49. 203. 189. 22. 26. 207.
      185. 27. 25. 208. 173. 52. 40. 202. 152. 83. 69. 182. 127. 140.
      108. 146. 102. 197. 152. 107. 83. 242. 195. 76. 70. 253. 226. 54.
      63. 255. 248. 91. 255. 170. 121. 111. 251. 153. 105. 136. 235.
      133. 92. 166. 217. 110. 77. 194. 209. 86. 64. 212. 205. 61. 44.
      220. 212. 38. 27. 227. 214. 22. 15. 231. 207. 25. 18. 232. 195.
      41. 37. 230. 168. 67. 69. 215. 133. 111. 109. 184. 97. 166. 157.
      139. 72. 222. 199. 102. 49. 252. 228. 74. 33. 255. 247. 121. 253.
      139. 76. 145. 250. 130. 68. 173. 238. 114. 55. 197. 225. 96. 45.
      218. 222. 78. 34. 233. 223. 59. 21. 238. 229. 39. 14. 243. 232.
      24. 8. 245. 228. 21. 13. 247. 216. 29. 34. 244. 192. 45. 66. 233.
      151. 79. 105. 209. 111. 118. 156. 169. 76. 180. 200. 128. 51. 236.
      227. 95. 31. 254. 240. 147. 249. 114. 48. 173. 239. 112. 38. 196.
      228. 102. 31. 217. 223. 91. 24. 232. 224. 75. 16. 242. 227. 62.
      11. 243. 234. 45. 7. 247. 237. 27. 4. 247. 235. 20. 10. 248. 226.
      19. 29. 246. 205. 27. 62. 236. 170. 55. 98. 217. 125. 85. 150.
      186. 89. 128. 196. 143. 60. 188. 221. 110. 36. 236. 229. 149. 206.
      92. 26. 177. 202. 94. 19. 198. 202. 90. 14. 218. 205. 84. 10. 230.
      213. 73. 7. 238. 221. 64. 4. 239. 227. 48. 3. 241. 231. 31. 3.
      240. 230. 20. 6. 241. 224. 13. 26. 237. 206. 15. 54. 228. 176. 35.
      91. 210. 135. 57. 137. 181. 95. 86. 182. 142. 67. 120. 203. 111.
      41. 167. 208. 133. 136. 72. 14. 159. 145. 75. 11. 183. 158. 75. 9.
      201. 172. 73. 6. 215. 187. 69. 4. 221. 198. 60. 0. 223. 208. 47.
      0. 222. 213. 31. 1. 221. 214. 18. 4. 220. 207. 10. 22. 216. 193.
      6. 49. 206. 165. 18. 78. 189. 127. 34. 115. 161. 93. 53. 151. 129.
      66. 74. 170. 98. 41. 96. 171. 105. 93. 51. 1. 124. 104. 59. 1.
      144. 117. 62. 1. 162. 134. 63. 2. 173. 146. 60. 2. 181. 159. 53.
      2. 181. 166. 42. 2. 179. 169. 28. 3. 175. 171. 17. 3. 174. 168. 9.
      17. 169. 156. 5. 38. 160. 135. 13. 65. 144. 107. 20. 92. 123. 82.
      32. 114. 101. 58. 45. 128. 82. 37. 56. 126.</_>
    <_>
      48. 31. 35. 108. 54. 46. 31. 127. 65. 55. 26. 145. 80. 70. 21.
      157. 98. 80. 15. 167. 125. 86. 11. 173. 150. 87. 0. 166. 174. 88.
      0. 151. 198. 90. 0. 126. 209. 92. 0. 92. 213. 94. 8. 63. 206. 96.
      14. 34. 190. 94. 20. 21. 165. 94. 27. 1. 137. 96. 36. 1. 109. 102.
      45. 1. 62. 40. 74. 146. 73. 53. 65. 163. 83. 70. 52. 185. 103. 86.
      40. 194. 126. 102. 26. 199. 153. 112. 17. 199. 181. 117. 9. 189.
      207. 120. 7. 168. 227. 123. 7. 137. 235. 126. 10. 101. 238. 127.
      15. 68. 235. 128. 22. 38. 224. 128. 32. 23. 205. 131. 45. 14. 173.
      139. 54. 18. 142. 149. 68. 21. 76. 44. 136. 175. 87. 59. 114. 194.
      99. 77. 91. 211. 119. 96. 69. 216. 141. 116. 49. 216. 171. 133.
      29. 209. 198. 139. 17. 192. 220. 143. 11. 169. 236. 145. 9. 135.
      243. 147. 13. 99. 246. 150. 20. 67. 245. 154. 32. 39. 237. 160.
      48. 28. 225. 170. 64. 24. 197. 185. 79. 33. 163. 200. 97. 43. 84.
      45. 206. 198. 98. 61. 175. 211. 109. 79. 141. 223. 133. 103. 105.
      225. 151. 127. 74. 219. 178. 145. 46. 205. 206. 157. 26. 179. 225.
      164. 16. 152. 237. 167. 10. 116. 244. 169. 18. 87. 247. 171. 27.
      60. 246. 177. 49. 42. 241. 187. 67. 41. 230. 201. 88. 47. 203.
      218. 113. 61. 171. 231. 138. 78. 84. 41. 247. 205. 97. 55. 229.
      215. 110. 77. 193. 224. 133. 101. 148. 222. 154. 130. 105. 211.
      179. 152. 65. 189. 202. 169. 39. 153. 220. 177. 22. 122. 232. 180.
      12. 88. 238. 184. 23. 68. 242. 184. 38. 50. 240. 192. 64. 48. 234.
      203. 90. 56. 219. 217. 121. 76. 191. 231. 152. 100. 157. 240. 180.
      127. 75. 51. 255. 204. 86. 59. 248. 212. 101. 74. 228. 218. 121.
      95. 189. 214. 144. 122. 138. 197. 168. 147. 83. 162. 189. 166. 51.
      125. 203. 175. 29. 89. 215. 178. 13. 60. 222. 183. 29. 50. 226.
      183. 49. 44. 223. 192. 82. 57. 212. 204. 120. 81. 191. 216. 160.
      113. 159. 228. 196. 150. 129. 235. 222. 183. 58. 76. 255. 203. 71.
      73. 253. 206. 85. 78. 239. 207. 103. 89. 208. 200. 121. 107. 160.
      176. 141. 130. 100. 140. 156. 144. 63. 98. 167. 153. 35. 66. 176.
      156. 12. 38. 184. 161. 34. 36. 188. 162. 56. 46. 181. 172. 102.
      75. 169. 182. 149. 110. 146. 195. 195. 153. 118. 205. 228. 196.
      92. 210. 244. 227. 48. 129. 255. 201. 58. 107. 251. 198. 73. 96.
      238. 192. 88. 93. 212. 181. 104. 100. 166. 155. 118. 108. 106.
      113. 128. 123. 69. 74. 134. 131. 39. 43. 137. 132. 10. 16. 140.
      134. 38. 30. 140. 136. 66. 51. 135. 142. 116. 91. 123. 149. 172.
      139. 103. 156. 219. 186. 83. 159. 242. 224. 65. 159. 253. 244. 54.
      187. 252. 190. 70. 155. 243. 179. 84. 130. 229. 173. 99. 112. 202.
      161. 108. 107. 161. 135. 117. 106. 105. 97. 120. 114. 67. 64. 122.
      118. 39. 37. 125. 117. 8. 16. 124. 119. 40. 36. 119. 117. 68. 62.
      112. 116. 125. 108. 99. 115. 181. 161. 81. 111. 228. 208. 66. 106.
      248. 237. 50. 101. 254. 250. 87. 229. 235. 170. 107. 199. 222.
      159. 131. 166. 204. 150. 148. 146. 176. 136. 160. 139. 142. 112.
      163. 135. 95. 80. 162. 143. 61. 52. 158. 148. 35. 31. 154. 148. 7.
      21. 151. 146. 37. 47. 143. 137. 66. 79. 132. 123. 119. 134. 111.
      106. 177. 186. 91. 89. 227. 227. 73. 75. 248. 246. 56. 60. 254.
      253. 130. 240. 201. 134. 157. 219. 186. 124. 182. 190. 168. 113.
      202. 172. 145. 100. 211. 164. 115. 81. 213. 165. 79. 57. 208. 177.
      50. 40. 201. 187. 28. 23. 196. 188. 1. 24. 187. 182. 32. 53. 174.
      167. 54. 95. 156. 143. 104. 154. 133. 114. 158. 207. 104. 85. 209.
      236. 82. 62. 239. 249. 69. 43. 251. 254. 168. 236. 158. 94. 200.
      216. 144. 85. 226. 193. 132. 78. 238. 180. 109. 69. 243. 185. 86.
      55. 243. 196. 59. 42. 240. 210. 37. 26. 234. 221. 22. 18. 230.
      223. 2. 29. 221. 218. 25. 64. 208. 202. 45. 110. 184. 170. 82.
      174. 152. 132. 128. 224. 118. 89. 173. 245. 92. 57. 214. 252. 77.
      35. 237. 255. 191. 215. 124. 58. 223. 193. 111. 52. 241. 176. 98.
      49. 249. 174. 81. 42. 251. 186. 63. 34. 251. 204. 44. 24. 249.
      221. 25. 18. 245. 233. 16. 13. 241. 234. 2. 33. 233. 232. 19. 71.
      220. 218. 30. 126. 195. 185. 58. 190. 158. 141. 90. 233. 121. 97.
      129. 248. 93. 63. 165. 253. 78. 36. 200. 254. 193. 170. 91. 31.
      225. 155. 82. 27. 242. 147. 72. 24. 250. 151. 56. 22. 252. 171.
      44. 19. 252. 194. 28. 15. 249. 217. 17. 11. 245. 230. 12. 8. 239.
      232. 2. 33. 231. 229. 14. 72. 215. 213. 20. 129. 188. 179. 41.
      191. 149. 138. 61. 232. 110. 93. 85. 247. 84. 59. 114. 250. 71.
      34. 142. 250. 175. 115. 67. 17. 210. 109. 60. 15. 233. 111. 51.
      12. 244. 124. 41. 9. 247. 144. 27. 7. 246. 172. 19. 2. 242. 197.
      10. 3. 234. 213. 8. 3. 226. 217. 3. 32. 214. 212. 9. 70. 197. 194.
      11. 120. 165. 162. 23. 178. 131. 122. 37. 220. 95. 83. 52. 236.
      72. 53. 72. 241. 57. 30. 90. 239. 147. 75. 47. 3. 178. 76. 42. 4.
      207. 80. 33. 4. 226. 93. 25. 4. 231. 115. 19. 4. 230. 140. 13. 5.
      221. 163. 5. 5. 210. 180. 5. 6. 199. 188. 6. 28. 183. 182. 6. 62.
      164. 164. 6. 105. 138. 136. 14. 155. 104. 102. 20. 195. 77. 71.
      30. 214. 55. 47. 43. 217. 46. 25. 53. 209.</_>
    <_>
      61. 48. 62. 70. 73. 58. 64. 75. 80. 70. 65. 79. 90. 79. 62. 77.
      96. 86. 59. 73. 91. 89. 55. 64. 79. 83. 52. 54. 67. 75. 47. 45.
      52. 62. 43. 37. 39. 47. 38. 34. 0. 38. 33. 32. 0. 0. 0. 1. 1. 1.
      1. 2. 2. 2. 2. 3. 3. 3. 3. 4. 4. 4. 4. 5. 94. 59. 75. 113. 108.
      73. 81. 118. 119. 90. 87. 120. 126. 104. 91. 116. 128. 116. 95.
      103. 122. 118. 96. 85. 107. 112. 89. 72. 82. 99. 77. 56. 64. 76.
      67. 46. 46. 58. 52. 40. 5. 44. 39. 34. 5. 5. 6. 6. 6. 6. 7. 7. 7.
      7. 8. 8. 8. 8. 9. 9. 9. 9. 10. 10. 131. 69. 105. 155. 149. 86.
      114. 160. 158. 112. 119. 161. 164. 131. 124. 154. 165. 146. 127.
      137. 158. 150. 128. 118. 137. 139. 121. 98. 109. 120. 105. 74. 78.
      97. 85. 58. 53. 69. 66. 47. 10. 49. 45. 37. 10. 11. 11. 11. 11.
      12. 12. 12. 12. 13. 13. 13. 13. 14. 14. 14. 14. 15. 15. 15. 166.
      77. 148. 185. 175. 101. 152. 190. 185. 128. 155. 189. 192. 153.
      159. 180. 191. 163. 161. 169. 180. 168. 162. 150. 163. 160. 155.
      121. 129. 138. 133. 95. 94. 109. 107. 70. 61. 76. 76. 54. 15. 53.
      50. 40. 16. 16. 16. 16. 17. 17. 17. 17. 18. 18. 18. 18. 19. 19.
      19. 19. 20. 20. 20. 20. 189. 83. 178. 211. 200. 111. 176. 214.
      206. 144. 177. 210. 211. 165. 179. 202. 212. 175. 181. 187. 204.
      181. 180. 170. 187. 175. 173. 144. 162. 164. 156. 110. 133. 144.
      124. 80. 107. 118. 86. 60. 92. 102. 53. 42. 93. 93. 32. 21. 94.
      93. 33. 21. 95. 93. 35. 21. 97. 92. 38. 21. 98. 92. 41. 22. 203.
      85. 207. 236. 210. 115. 202. 233. 219. 148. 198. 226. 226. 170.
      196. 214. 228. 181. 197. 199. 221. 191. 194. 178. 204. 188. 182.
      156. 182. 177. 164. 121. 166. 167. 129. 88. 149. 153. 91. 62. 135.
      145. 55. 42. 137. 136. 36. 33. 138. 138. 42. 37. 139. 138. 50. 43.
      141. 140. 60. 49. 145. 143. 68. 55. 204. 100. 237. 243. 209. 121.
      221. 238. 218. 151. 207. 227. 228. 171. 202. 213. 235. 186. 200.
      199. 231. 197. 194. 179. 220. 199. 179. 159. 205. 197. 160. 126.
      195. 192. 123. 99. 187. 186. 84. 72. 184. 185. 50. 55. 187. 186.
      44. 51. 189. 188. 56. 56. 190. 190. 71. 67. 191. 191. 87. 78. 193.
      192. 104. 95. 205. 134. 249. 243. 210. 151. 231. 232. 221. 168.
      210. 215. 231. 183. 201. 203. 240. 201. 193. 189. 242. 209. 177.
      171. 239. 216. 167. 154. 232. 218. 142. 131. 225. 216. 105. 113.
      222. 216. 74. 97. 223. 219. 45. 80. 224. 222. 51. 76. 226. 225.
      70. 78. 227. 227. 94. 91. 228. 228. 117. 110. 229. 229. 140. 130.
      205. 169. 252. 238. 209. 172. 229. 217. 219. 183. 205. 201. 231.
      199. 188. 183. 241. 211. 173. 170. 246. 224. 158. 157. 246. 233.
      141. 145. 244. 237. 115. 134. 243. 238. 81. 130. 244. 239. 60.
      123. 246. 241. 39. 111. 249. 245. 59. 103. 251. 248. 80. 102. 251.
      250. 111. 116. 251. 252. 144. 137. 250. 252. 167. 162. 213. 194.
      242. 218. 217. 196. 214. 198. 224. 202. 192. 175. 234. 208. 170.
      160. 241. 223. 152. 143. 245. 232. 123. 130. 248. 239. 106. 132.
      249. 240. 82. 142. 252. 240. 64. 152. 253. 242. 45. 152. 253. 247.
      33. 139. 255. 253. 63. 127. 255. 253. 88. 120. 255. 254. 122. 132.
      254. 255. 156. 156. 254. 254. 176. 176. 227. 208. 223. 195. 230.
      207. 197. 173. 235. 212. 171. 153. 238. 222. 146. 126. 241. 230.
      117. 110. 243. 236. 82. 108. 244. 239. 71. 125. 246. 237. 56. 150.
      248. 236. 43. 163. 248. 237. 32. 167. 250. 240. 22. 157. 251. 242.
      63. 141. 250. 245. 87. 129. 249. 247. 120. 136. 247. 247. 154.
      157. 244. 245. 174. 178. 230. 209. 196. 166. 233. 208. 172. 145.
      233. 212. 147. 117. 234. 217. 115. 96. 234. 224. 86. 78. 236. 225.
      61. 89. 235. 225. 51. 116. 235. 222. 43. 147. 234. 214. 35. 164.
      232. 211. 22. 168. 230. 213. 22. 159. 229. 215. 57. 140. 226. 220.
      79. 124. 223. 221. 108. 127. 220. 220. 136. 146. 215. 216. 162.
      169. 217. 198. 165. 125. 219. 198. 142. 106. 218. 201. 114. 84.
      215. 203. 84. 68. 213. 206. 65. 58. 212. 206. 40. 75. 208. 204.
      37. 103. 207. 200. 34. 132. 206. 193. 32. 153. 203. 185. 23. 157.
      200. 182. 23. 148. 196. 182. 50. 127. 193. 184. 68. 111. 188. 184.
      88. 109. 184. 183. 113. 119. 180. 179. 133. 143. 195. 172. 128.
      82. 195. 172. 108. 73. 194. 173. 83. 61. 190. 174. 66. 48. 186.
      177. 48. 46. 181. 176. 23. 66. 178. 174. 23. 85. 174. 169. 24.
      112. 171. 159. 24. 129. 168. 149. 24. 133. 161. 140. 24. 123. 154.
      136. 42. 105. 148. 135. 53. 90. 141. 135. 68. 83. 134. 134. 81.
      89. 132. 130. 100. 107. 165. 142. 92. 52. 166. 143. 77. 47. 163.
      146. 65. 41. 161. 149. 51. 36. 158. 151. 40. 38. 155. 150. 25. 54.
      151. 147. 25. 71. 147. 135. 25. 87. 139. 125. 25. 101. 131. 115.
      26. 103. 122. 104. 26. 98. 114. 101. 35. 81. 106. 100. 41. 69.
      102. 98. 49. 63. 99. 96. 57. 63. 97. 90. 67. 72. 125. 100. 66. 26.
      126. 102. 57. 26. 124. 104. 49. 27. 122. 110. 41. 27. 119. 114.
      35. 34. 117. 113. 27. 44. 112. 109. 27. 54. 106. 101. 28. 65. 99.
      88. 28. 72. 84. 74. 28. 74. 71. 59. 28. 69. 57. 46. 29. 60. 44.
      36. 29. 48. 36. 29. 29. 39. 30. 30. 30. 30. 31. 31. 31. 31.</_>
    <_>
      56. 47. 44. 60. 69. 60. 48. 69. 80. 74. 54. 75. 90. 85. 56. 76.
      98. 94. 55. 71. 100. 98. 54. 63. 91. 93. 48. 52. 80. 82. 45. 43.
      67. 70. 39. 0. 51. 55. 37. 0. 38. 40. 34. 0. 0. 1. 1. 1. 1. 2. 2.
      2. 2. 3. 3. 3. 3. 4. 4. 4. 4. 5. 5. 5. 69. 57. 85. 75. 84. 74. 92.
      83. 102. 91. 99. 92. 114. 108. 99. 97. 126. 121. 96. 93. 128. 126.
      89. 84. 120. 121. 82. 75. 102. 105. 74. 63. 81. 85. 62. 47. 61.
      65. 51. 41. 44. 46. 41. 36. 5. 6. 6. 6. 6. 7. 7. 7. 7. 8. 8. 8. 8.
      9. 9. 9. 9. 10. 10. 10. 89. 67. 120. 97. 109. 87. 128. 108. 131.
      110. 135. 121. 145. 132. 134. 126. 159. 145. 129. 124. 160. 153.
      123. 112. 147. 144. 109. 102. 130. 129. 97. 86. 103. 104. 80. 68.
      76. 77. 65. 56. 52. 52. 49. 43. 10. 11. 11. 11. 11. 12. 12. 12.
      12. 13. 13. 13. 13. 14. 14. 14. 14. 15. 15. 15. 112. 74. 157. 124.
      135. 98. 166. 134. 158. 127. 171. 145. 173. 147. 169. 153. 189.
      166. 163. 152. 191. 170. 155. 143. 177. 164. 141. 131. 155. 144.
      123. 111. 124. 119. 101. 88. 88. 84. 78. 70. 58. 58. 59. 50. 15.
      16. 16. 16. 16. 17. 17. 17. 17. 18. 18. 18. 18. 19. 19. 19. 19.
      20. 20. 20. 138. 77. 198. 143. 158. 105. 201. 157. 176. 136. 203.
      166. 198. 161. 201. 171. 206. 179. 196. 173. 211. 193. 180. 168.
      202. 188. 164. 159. 188. 167. 141. 138. 157. 144. 114. 107. 128.
      122. 88. 82. 106. 104. 65. 57. 95. 94. 34. 20. 95. 94. 37. 21. 96.
      91. 42. 21. 95. 90. 46. 21. 95. 88. 52. 21. 157. 77. 229. 162.
      169. 105. 230. 169. 192. 137. 229. 179. 203. 162. 224. 190. 221.
      187. 209. 193. 228. 198. 199. 191. 223. 197. 178. 175. 204. 186.
      154. 156. 187. 167. 127. 125. 160. 152. 94. 92. 142. 141. 68. 62.
      137. 136. 39. 35. 137. 135. 48. 39. 137. 133. 60. 46. 138. 132.
      72. 53. 138. 130. 81. 59. 165. 81. 254. 176. 177. 104. 252. 179.
      195. 133. 243. 189. 205. 160. 230. 194. 226. 181. 216. 196. 236.
      199. 200. 196. 234. 201. 180. 181. 225. 199. 155. 161. 204. 194.
      127. 130. 195. 182. 93. 96. 178. 177. 66. 62. 175. 174. 50. 43.
      174. 172. 67. 53. 175. 171. 83. 66. 175. 170. 103. 78. 174. 168.
      122. 89. 182. 122. 255. 186. 193. 133. 255. 181. 200. 151. 245.
      180. 212. 170. 226. 182. 230. 197. 206. 189. 245. 206. 191. 189.
      251. 219. 168. 173. 244. 221. 142. 154. 233. 220. 113. 125. 225.
      218. 84. 90. 217. 215. 60. 58. 214. 213. 61. 54. 213. 211. 82. 71.
      213. 210. 108. 89. 212. 207. 134. 110. 210. 205. 159. 131. 196.
      159. 255. 182. 199. 162. 254. 174. 202. 172. 236. 167. 216. 194.
      209. 165. 232. 204. 195. 166. 247. 221. 165. 164. 254. 230. 146.
      156. 253. 236. 125. 136. 251. 240. 99. 107. 243. 240. 72. 79. 241.
      239. 50. 49. 238. 237. 70. 64. 237. 235. 97. 85. 235. 233. 129.
      111. 234. 231. 160. 140. 232. 229. 190. 163. 205. 197. 255. 172.
      206. 197. 250. 161. 209. 200. 219. 146. 220. 204. 192. 140. 231.
      220. 163. 139. 245. 228. 135. 134. 253. 240. 120. 126. 254. 244.
      100. 109. 253. 247. 79. 87. 252. 249. 57. 66. 251. 249. 42. 43.
      249. 248. 76. 71. 247. 247. 106. 100. 246. 245. 140. 131. 244.
      242. 173. 162. 242. 241. 202. 193. 222. 220. 253. 161. 221. 219.
      223. 143. 222. 219. 194. 129. 227. 222. 158. 113. 233. 228. 130.
      107. 243. 234. 99. 101. 250. 242. 86. 91. 252. 246. 73. 80. 252.
      248. 59. 66. 251. 249. 42. 50. 250. 250. 34. 36. 248. 248. 77. 75.
      246. 246. 106. 105. 244. 243. 142. 139. 242. 241. 176. 170. 241.
      237. 203. 201. 225. 226. 216. 139. 224. 224. 192. 123. 222. 223.
      158. 103. 225. 224. 127. 87. 227. 227. 100. 78. 231. 229. 71. 68.
      235. 232. 63. 62. 239. 235. 53. 55. 240. 238. 44. 45. 239. 238.
      35. 38. 238. 239. 22. 22. 237. 236. 72. 73. 234. 233. 101. 102.
      232. 231. 132. 136. 228. 227. 163. 167. 226. 223. 195. 198. 211.
      214. 171. 110. 208. 210. 146. 96. 207. 208. 123. 79. 207. 208. 93.
      65. 208. 210. 73. 53. 211. 212. 45. 38. 214. 214. 41. 37. 216.
      215. 38. 35. 217. 217. 35. 33. 218. 217. 22. 22. 218. 218. 23. 23.
      215. 215. 64. 67. 213. 212. 87. 92. 209. 207. 112. 124. 205. 203.
      141. 153. 202. 200. 165. 178. 191. 192. 125. 86. 190. 190. 106.
      76. 188. 188. 86. 63. 187. 187. 68. 51. 186. 186. 51. 41. 183.
      183. 23. 23. 183. 183. 24. 24. 184. 184. 24. 24. 184. 184. 25. 25.
      185. 185. 25. 25. 185. 185. 26. 26. 181. 180. 54. 59. 179. 178.
      72. 79. 177. 176. 90. 103. 172. 169. 111. 128. 168. 164. 132. 148.
      156. 156. 78. 64. 155. 154. 69. 57. 154. 153. 58. 47. 152. 152.
      47. 42. 151. 151. 39. 36. 148. 148. 26. 26. 148. 149. 27. 27. 149.
      149. 27. 27. 149. 150. 28. 28. 150. 150. 28. 28. 150. 151. 29. 29.
      147. 147. 44. 48. 146. 145. 56. 64. 144. 143. 70. 81. 142. 139.
      83. 101. 140. 133. 98. 113. 122. 115. 49. 29. 121. 115. 45. 29.
      120. 119. 40. 30. 119. 118. 37. 30. 119. 115. 34. 30. 115. 116.
      30. 31. 116. 116. 31. 31. 116. 117. 31. 32. 117. 117. 32. 32. 117.
      118. 32. 33. 118. 118. 33. 33. 114. 114. 36. 40. 113. 112. 40. 49.
      111. 110. 46. 61. 109. 107. 55. 73. 108. 104. 61. 83.</_>
    <_>
      47. 40. 0. 61. 58. 52. 0. 70. 71. 65. 31. 77. 82. 76. 34. 77. 88.
      82. 37. 74. 90. 84. 40. 65. 84. 79. 42. 53. 74. 72. 40. 41. 58.
      58. 37. 0. 45. 46. 34. 0. 33. 35. 31. 1. 1. 1. 1. 2. 2. 2. 2. 3.
      3. 3. 3. 4. 4. 4. 4. 5. 5. 5. 5. 6. 69. 48. 56. 86. 85. 63. 60.
      100. 102. 79. 63. 109. 120. 95. 64. 113. 124. 105. 66. 107. 126.
      110. 67. 97. 120. 103. 67. 82. 102. 89. 61. 68. 78. 73. 54. 49.
      57. 55. 46. 41. 38. 39. 36. 33. 6. 6. 6. 7. 7. 7. 7. 8. 8. 8. 8.
      9. 9. 9. 9. 10. 10. 10. 10. 11. 91. 55. 96. 114. 115. 76. 98. 127.
      133. 97. 100. 141. 151. 117. 99. 144. 159. 128. 99. 139. 159. 133.
      99. 126. 148. 125. 96. 110. 126. 112. 84. 88. 100. 87. 73. 65. 71.
      64. 56. 52. 44. 44. 42. 37. 11. 11. 11. 12. 12. 12. 12. 13. 13.
      13. 13. 14. 14. 14. 14. 15. 15. 15. 15. 16. 121. 60. 139. 140.
      143. 83. 141. 157. 161. 110. 142. 167. 179. 130. 138. 172. 189.
      146. 136. 167. 189. 152. 132. 157. 174. 144. 123. 137. 151. 123.
      111. 112. 120. 100. 90. 80. 81. 71. 69. 62. 49. 47. 48. 43. 16.
      16. 16. 17. 17. 17. 17. 18. 18. 18. 18. 19. 19. 19. 19. 20. 20.
      20. 20. 21. 147. 68. 183. 164. 166. 95. 184. 184. 189. 122. 179.
      193. 203. 147. 173. 195. 215. 161. 168. 191. 217. 168. 162. 176.
      199. 163. 152. 157. 177. 152. 131. 128. 151. 131. 106. 96. 121.
      113. 78. 71. 102. 101. 53. 47. 94. 92. 30. 21. 94. 91. 32. 21. 94.
      89. 35. 21. 93. 86. 38. 22. 94. 83. 42. 22. 165. 73. 220. 190.
      186. 101. 218. 198. 202. 128. 209. 205. 221. 155. 202. 207. 228.
      169. 195. 201. 228. 183. 187. 190. 221. 179. 166. 165. 197. 168.
      146. 139. 173. 158. 119. 104. 154. 146. 83. 76. 140. 138. 54. 49.
      135. 134. 35. 31. 135. 133. 43. 34. 135. 131. 52. 39. 136. 128.
      61. 46. 136. 125. 70. 50. 185. 80. 250. 208. 195. 109. 242. 211.
      210. 136. 230. 213. 225. 160. 222. 209. 238. 180. 208. 201. 240.
      191. 196. 189. 228. 193. 174. 164. 215. 190. 149. 137. 197. 186.
      119. 103. 185. 178. 81. 73. 175. 174. 50. 47. 172. 171. 45. 39.
      171. 169. 57. 48. 172. 168. 75. 60. 172. 166. 89. 72. 171. 163.
      105. 83. 194. 113. 255. 235. 202. 131. 254. 226. 218. 155. 242.
      220. 228. 176. 226. 206. 243. 196. 212. 194. 249. 207. 194. 175.
      245. 219. 167. 154. 234. 220. 142. 123. 225. 219. 108. 93. 220.
      215. 74. 66. 214. 213. 45. 43. 212. 210. 55. 51. 211. 207. 75. 68.
      210. 206. 97. 87. 209. 204. 121. 109. 208. 200. 142. 127. 198.
      140. 255. 254. 205. 153. 253. 241. 219. 169. 237. 222. 227. 193.
      221. 199. 243. 209. 199. 184. 252. 224. 180. 158. 253. 231. 155.
      132. 248. 238. 124. 105. 244. 239. 90. 78. 239. 238. 62. 55. 237.
      237. 38. 36. 235. 233. 63. 61. 234. 232. 87. 84. 232. 229. 120.
      114. 231. 227. 146. 140. 229. 225. 167. 162. 203. 163. 254. 255.
      205. 170. 240. 251. 217. 187. 222. 223. 225. 201. 200. 195. 240.
      221. 185. 165. 247. 230. 158. 135. 253. 242. 130. 105. 253. 246.
      103. 81. 252. 248. 72. 62. 251. 249. 48. 43. 250. 249. 32. 32.
      247. 247. 69. 70. 246. 245. 98. 101. 245. 243. 129. 132. 244. 240.
      160. 163. 241. 234. 188. 191. 203. 185. 232. 255. 204. 186. 219.
      252. 211. 194. 197. 223. 223. 206. 184. 191. 231. 224. 160. 156.
      242. 233. 134. 117. 248. 243. 107. 79. 251. 246. 81. 56. 252. 248.
      54. 44. 251. 249. 36. 32. 250. 250. 22. 22. 247. 246. 70. 76. 245.
      244. 99. 108. 244. 241. 132. 144. 241. 238. 162. 176. 239. 229.
      190. 204. 196. 188. 200. 254. 196. 187. 188. 239. 200. 192. 170.
      212. 211. 201. 156. 183. 222. 218. 137. 145. 227. 224. 111. 102.
      232. 230. 85. 65. 235. 234. 64. 42. 237. 235. 36. 34. 236. 236.
      23. 23. 236. 236. 23. 23. 233. 233. 67. 75. 231. 230. 92. 106.
      229. 226. 122. 142. 226. 223. 154. 173. 224. 218. 178. 202. 180.
      176. 165. 227. 180. 173. 156. 214. 186. 177. 143. 192. 193. 188.
      129. 161. 198. 197. 115. 127. 206. 203. 89. 88. 213. 210. 72. 51.
      215. 214. 54. 30. 216. 216. 31. 24. 216. 216. 24. 24. 217. 217.
      24. 25. 214. 213. 57. 69. 212. 208. 80. 97. 207. 205. 107. 129.
      204. 198. 133. 160. 199. 192. 156. 187. 154. 155. 129. 192. 153.
      152. 121. 183. 157. 153. 115. 161. 162. 159. 103. 138. 169. 164.
      90. 108. 175. 171. 75. 77. 178. 177. 59. 44. 181. 181. 46. 25.
      181. 181. 25. 25. 182. 182. 26. 26. 182. 182. 26. 26. 179. 178.
      50. 59. 177. 175. 68. 82. 174. 170. 86. 111. 170. 164. 107. 137.
      166. 158. 125. 159. 124. 126. 93. 153. 122. 122. 88. 144. 127.
      123. 85. 130. 134. 130. 80. 112. 141. 138. 74. 86. 145. 143. 62.
      64. 148. 147. 52. 38. 149. 149. 40. 27. 149. 150. 27. 27. 150.
      150. 27. 28. 150. 151. 28. 28. 148. 148. 41. 50. 147. 145. 53. 67.
      145. 141. 66. 85. 143. 134. 78. 106. 139. 125. 91. 124. 92. 96.
      57. 109. 91. 92. 59. 104. 95. 93. 60. 95. 101. 98. 59. 79. 106.
      104. 56. 66. 113. 111. 49. 51. 116. 115. 41. 33. 117. 117. 35. 28.
      118. 118. 29. 29. 118. 118. 29. 29. 119. 119. 30. 30. 116. 116.
      33. 39. 116. 114. 37. 51. 114. 110. 45. 63. 112. 104. 53. 77. 108.
      98. 58. 87.</_>
    <_>
      62. 52. 52. 71. 71. 62. 54. 77. 83. 75. 55. 82. 88. 86. 54. 79.
      95. 93. 50. 71. 95. 96. 46. 61. 88. 89. 45. 50. 77. 82. 42. 37.
      63. 65. 39. 0. 51. 54. 36. 0. 38. 40. 34. 0. 0. 1. 1. 1. 1. 2. 2.
      2. 2. 3. 3. 3. 3. 4. 4. 4. 4. 5. 5. 5. 83. 61. 86. 95. 96. 76. 86.
      103. 109. 93. 85. 106. 122. 109. 82. 105. 126. 123. 78. 97. 125.
      125. 75. 85. 118. 121. 72. 70. 99. 103. 66. 57. 79. 84. 60. 45.
      60. 62. 51. 41. 42. 44. 41. 35. 5. 6. 6. 6. 6. 7. 7. 7. 7. 8. 8.
      8. 8. 9. 9. 9. 9. 10. 10. 10. 102. 70. 131. 121. 122. 89. 130.
      129. 136. 118. 127. 135. 152. 134. 121. 133. 158. 150. 111. 125.
      157. 155. 108. 107. 142. 143. 104. 91. 124. 127. 96. 73. 96. 100.
      84. 59. 69. 72. 65. 49. 47. 53. 53. 39. 10. 11. 11. 11. 11. 12.
      12. 12. 12. 13. 13. 13. 13. 14. 14. 14. 14. 15. 15. 15. 126. 79.
      175. 141. 142. 103. 170. 156. 162. 130. 166. 161. 174. 156. 158.
      160. 186. 166. 151. 151. 183. 172. 144. 134. 166. 164. 138. 119.
      140. 142. 128. 93. 111. 115. 106. 72. 80. 83. 84. 59. 54. 56. 60.
      44. 15. 16. 16. 16. 16. 17. 17. 17. 17. 18. 18. 18. 18. 19. 19.
      19. 19. 20. 20. 20. 143. 84. 222. 162. 162. 110. 211. 169. 177.
      139. 202. 175. 196. 164. 194. 173. 201. 187. 187. 165. 201. 193.
      178. 155. 194. 188. 167. 135. 167. 165. 157. 110. 141. 140. 129.
      87. 120. 120. 99. 66. 100. 101. 67. 47. 91. 90. 33. 20. 92. 91.
      34. 21. 92. 91. 37. 21. 93. 90. 40. 21. 94. 90. 43. 21. 159. 82.
      254. 178. 168. 108. 244. 185. 188. 139. 233. 187. 199. 165. 221.
      183. 208. 189. 205. 172. 213. 198. 201. 163. 204. 196. 194. 145.
      193. 184. 172. 124. 166. 163. 143. 97. 153. 149. 107. 72. 137.
      137. 74. 50. 133. 132. 37. 36. 134. 132. 45. 41. 134. 132. 55. 48.
      136. 133. 64. 56. 137. 133. 71. 62. 163. 76. 255. 197. 168. 102.
      254. 192. 184. 132. 248. 186. 198. 161. 231. 175. 207. 185. 224.
      168. 222. 199. 212. 161. 220. 200. 200. 145. 204. 198. 179. 126.
      197. 192. 150. 99. 187. 179. 108. 73. 173. 174. 73. 47. 172. 171.
      46. 43. 173. 171. 60. 56. 174. 171. 76. 68. 176. 171. 92. 85. 177.
      170. 109. 98. 179. 112. 255. 206. 184. 128. 255. 196. 190. 150.
      248. 176. 200. 170. 230. 164. 216. 195. 219. 158. 230. 206. 204.
      146. 234. 220. 195. 136. 232. 224. 169. 119. 228. 222. 138. 90.
      223. 219. 101. 68. 215. 216. 67. 43. 214. 213. 57. 56. 215. 212.
      79. 74. 216. 211. 103. 97. 218. 210. 129. 123. 220. 208. 154. 140.
      196. 151. 255. 223. 194. 158. 254. 198. 197. 167. 234. 169. 202.
      191. 213. 154. 224. 203. 200. 137. 235. 225. 190. 126. 245. 233.
      168. 120. 246. 238. 152. 100. 245. 242. 123. 81. 244. 242. 86. 61.
      241. 242. 58. 38. 240. 238. 67. 65. 240. 237. 94. 89. 240. 235.
      128. 124. 241. 233. 160. 155. 241. 231. 190. 183. 207. 192. 254.
      222. 203. 193. 235. 193. 203. 197. 207. 160. 212. 202. 191. 131.
      228. 221. 169. 115. 239. 231. 157. 97. 248. 243. 138. 89. 253.
      246. 122. 81. 253. 249. 94. 64. 253. 251. 67. 53. 251. 251. 46.
      34. 250. 249. 75. 73. 250. 247. 106. 105. 249. 245. 142. 140. 247.
      243. 178. 176. 245. 236. 208. 205. 227. 219. 234. 205. 225. 217.
      204. 178. 223. 220. 179. 145. 226. 225. 157. 118. 232. 230. 135.
      92. 243. 237. 117. 70. 247. 244. 102. 65. 252. 247. 87. 59. 253.
      250. 68. 50. 252. 251. 52. 41. 252. 252. 37. 22. 250. 249. 77. 78.
      248. 246. 110. 111. 246. 243. 151. 153. 244. 236. 189. 191. 238.
      230. 221. 223. 228. 229. 201. 188. 227. 227. 173. 159. 226. 226.
      144. 128. 226. 227. 122. 98. 229. 229. 100. 74. 232. 231. 77. 51.
      236. 234. 68. 47. 238. 237. 58. 43. 241. 239. 46. 38. 242. 239.
      36. 35. 239. 240. 22. 22. 237. 236. 75. 76. 235. 233. 105. 107.
      232. 229. 141. 145. 228. 224. 176. 185. 225. 209. 205. 213. 212.
      221. 164. 153. 209. 215. 139. 129. 207. 210. 117. 102. 206. 209.
      88. 78. 208. 210. 70. 57. 210. 211. 48. 22. 214. 214. 44. 23. 217.
      216. 38. 23. 217. 217. 35. 23. 219. 218. 23. 24. 218. 218. 24. 24.
      215. 214. 66. 69. 211. 209. 94. 98. 206. 203. 127. 131. 202. 199.
      159. 163. 199. 191. 189. 195. 190. 195. 127. 116. 188. 192. 106.
      98. 186. 189. 87. 80. 185. 186. 66. 63. 183. 184. 53. 48. 180.
      180. 24. 25. 180. 180. 25. 25. 181. 181. 25. 26. 181. 181. 26. 26.
      182. 182. 26. 27. 182. 182. 27. 27. 177. 177. 57. 61. 175. 174.
      80. 83. 170. 167. 104. 108. 165. 162. 130. 136. 160. 154. 156.
      161. 155. 159. 88. 80. 153. 156. 78. 69. 152. 154. 64. 58. 150.
      152. 55. 48. 149. 149. 42. 39. 146. 146. 27. 28. 146. 147. 28. 28.
      147. 147. 28. 29. 147. 148. 29. 29. 148. 148. 29. 30. 148. 149.
      30. 30. 144. 144. 49. 51. 143. 141. 63. 64. 139. 138. 81. 85. 135.
      131. 99. 104. 130. 125. 118. 124. 120. 123. 58. 49. 119. 121. 55.
      44. 117. 119. 45. 40. 116. 117. 39. 36. 116. 116. 35. 34. 112.
      112. 30. 31. 113. 113. 31. 31. 113. 113. 31. 32. 114. 114. 32. 32.
      114. 114. 32. 33. 115. 115. 33. 33. 112. 111. 40. 42. 110. 109.
      49. 52. 107. 105. 59. 63. 104. 101. 69. 74. 101. 95. 81. 87.</_>
    <_>
      53. 47. 64. 59. 64. 57. 67. 66. 75. 72. 67. 69. 84. 83. 65. 69.
      92. 92. 60. 65. 94. 96. 55. 58. 86. 90. 51. 50. 77. 80. 45. 44.
      62. 66. 42. 37. 48. 49. 38. 34. 38. 39. 34. 33. 0. 0. 0. 0. 1. 1.
      1. 1. 2. 2. 2. 2. 3. 3. 3. 3. 4. 4. 4. 4. 81. 56. 86. 91. 95. 72.
      92. 98. 107. 91. 95. 101. 113. 107. 93. 100. 117. 115. 88. 94.
      117. 116. 84. 82. 111. 113. 81. 71. 98. 103. 73. 58. 79. 82. 65.
      47. 58. 61. 52. 41. 42. 45. 42. 36. 5. 5. 5. 5. 6. 6. 6. 6. 7. 7.
      7. 7. 8. 8. 8. 8. 9. 9. 9. 9. 114. 68. 107. 122. 124. 86. 111.
      128. 135. 109. 115. 130. 143. 126. 112. 128. 154. 136. 110. 122.
      154. 141. 108. 114. 140. 135. 105. 104. 124. 120. 95. 87. 104.
      101. 81. 72. 76. 74. 64. 56. 50. 49. 48. 44. 10. 10. 10. 10. 11.
      11. 11. 11. 12. 12. 12. 12. 13. 13. 13. 13. 14. 14. 14. 14. 141.
      76. 131. 155. 156. 100. 134. 162. 167. 121. 137. 165. 178. 141.
      134. 161. 189. 159. 131. 153. 188. 165. 129. 139. 172. 158. 125.
      127. 144. 136. 112. 110. 118. 112. 99. 93. 89. 83. 77. 71. 58. 54.
      54. 50. 15. 15. 15. 15. 16. 16. 16. 16. 17. 17. 17. 17. 18. 18.
      18. 18. 19. 19. 19. 19. 173. 79. 164. 190. 188. 106. 163. 194.
      200. 129. 161. 196. 215. 156. 155. 191. 225. 175. 151. 177. 227.
      189. 145. 167. 212. 182. 140. 153. 183. 160. 127. 130. 146. 134.
      109. 109. 120. 113. 85. 84. 102. 98. 61. 57. 87. 88. 32. 20. 88.
      88. 33. 20. 89. 90. 35. 20. 90. 93. 39. 20. 91. 95. 40. 21. 199.
      77. 201. 221. 210. 105. 191. 223. 221. 129. 177. 220. 236. 157.
      167. 211. 251. 183. 162. 198. 253. 195. 157. 189. 248. 193. 152.
      169. 212. 174. 132. 144. 175. 157. 115. 120. 147. 136. 90. 96.
      130. 127. 62. 63. 121. 122. 37. 35. 122. 123. 43. 39. 123. 125.
      50. 45. 125. 127. 60. 52. 126. 129. 70. 59. 208. 71. 252. 247.
      212. 99. 218. 232. 219. 124. 192. 221. 227. 152. 170. 208. 250.
      176. 161. 196. 254. 197. 155. 190. 254. 202. 145. 172. 241. 194.
      130. 151. 209. 184. 111. 123. 186. 168. 85. 97. 166. 163. 57. 64.
      159. 160. 45. 41. 160. 162. 56. 52. 162. 164. 73. 67. 163. 166.
      89. 80. 165. 170. 105. 94. 191. 79. 255. 250. 191. 97. 249. 222.
      192. 118. 196. 202. 201. 142. 166. 188. 223. 171. 153. 174. 251.
      195. 139. 168. 254. 210. 133. 159. 252. 213. 119. 138. 233. 207.
      103. 116. 215. 199. 78. 91. 199. 195. 51. 59. 194. 194. 54. 49.
      195. 197. 76. 68. 197. 200. 101. 87. 199. 208. 119. 108. 202. 215.
      138. 124. 176. 112. 255. 240. 173. 118. 253. 203. 175. 132. 193.
      176. 188. 154. 158. 158. 210. 177. 136. 145. 238. 203. 121. 139.
      253. 223. 116. 132. 254. 233. 106. 120. 253. 236. 85. 103. 248.
      231. 66. 78. 235. 229. 43. 51. 229. 229. 66. 60. 230. 233. 93. 84.
      232. 239. 118. 110. 237. 248. 144. 133. 240. 252. 175. 160. 170.
      142. 255. 224. 167. 143. 240. 187. 168. 152. 178. 156. 174. 164.
      139. 131. 193. 185. 119. 117. 217. 201. 101. 109. 239. 220. 97.
      107. 251. 234. 83. 97. 251. 241. 68. 80. 250. 245. 52. 61. 247.
      243. 36. 43. 244. 245. 73. 69. 245. 247. 104. 98. 246. 249. 132.
      126. 247. 250. 169. 158. 248. 252. 214. 193. 187. 187. 255. 201.
      185. 184. 207. 166. 185. 184. 159. 135. 190. 189. 125. 111. 200.
      198. 102. 96. 217. 214. 74. 78. 231. 226. 69. 75. 246. 237. 60.
      68. 249. 242. 49. 57. 249. 246. 40. 46. 246. 245. 21. 36. 244.
      244. 77. 74. 242. 242. 108. 106. 239. 239. 138. 133. 237. 237.
      178. 171. 232. 233. 228. 217. 211. 219. 215. 172. 208. 216. 171.
      142. 203. 213. 135. 117. 209. 213. 108. 94. 214. 218. 83. 70. 221.
      225. 55. 42. 229. 230. 53. 41. 238. 238. 46. 39. 241. 242. 41. 35.
      244. 243. 36. 33. 243. 243. 21. 21. 241. 240. 74. 75. 238. 236.
      105. 106. 232. 228. 133. 134. 226. 222. 170. 171. 220. 216. 216.
      217. 226. 234. 165. 142. 223. 227. 137. 123. 220. 224. 114. 103.
      219. 222. 87. 78. 222. 224. 65. 55. 225. 225. 38. 22. 228. 228.
      37. 22. 231. 231. 35. 22. 234. 234. 34. 22. 235. 235. 33. 23. 235.
      236. 23. 23. 230. 230. 67. 70. 227. 226. 96. 100. 224. 219. 121.
      128. 218. 211. 151. 161. 211. 198. 185. 197. 218. 216. 128. 116.
      214. 213. 110. 102. 212. 210. 92. 82. 209. 209. 70. 63. 207. 207.
      51. 47. 204. 204. 23. 24. 204. 204. 24. 24. 205. 205. 24. 25. 205.
      205. 25. 25. 206. 206. 25. 26. 206. 206. 26. 26. 203. 202. 56. 63.
      200. 198. 79. 89. 196. 192. 104. 115. 192. 186. 126. 140. 186.
      173. 144. 169. 190. 183. 102. 85. 187. 183. 86. 75. 186. 182. 72.
      61. 184. 182. 55. 48. 182. 181. 44. 40. 178. 179. 26. 27. 179.
      179. 27. 27. 179. 180. 27. 28. 180. 180. 28. 28. 180. 181. 28. 29.
      181. 181. 29. 29. 177. 176. 46. 53. 174. 173. 62. 76. 172. 169.
      81. 100. 168. 163. 99. 119. 164. 156. 114. 138. 157. 146. 73. 54.
      155. 146. 63. 48. 154. 147. 53. 43. 153. 147. 44. 38. 152. 148.
      37. 34. 148. 148. 29. 30. 148. 149. 30. 30. 149. 149. 30. 31. 149.
      150. 31. 31. 150. 150. 31. 32. 150. 151. 32. 32. 147. 146. 40. 46.
      145. 143. 47. 62. 143. 141. 59. 80. 140. 137. 71. 99. 137. 131.
      82. 113.</_>
    <_>
      74. 62. 0. 75. 85. 73. 0. 80. 94. 86. 42. 85. 101. 95. 44. 84.
      108. 101. 48. 79. 108. 102. 52. 69. 100. 96. 53. 58. 90. 87. 52.
      47. 75. 72. 48. 0. 61. 57. 44. 0. 48. 46. 41. 1. 1. 1. 1. 2. 2. 2.
      2. 3. 3. 3. 3. 4. 4. 4. 4. 5. 5. 5. 5. 6. 94. 71. 78. 95. 109. 88.
      79. 104. 121. 106. 83. 110. 136. 119. 83. 109. 139. 134. 82. 101.
      139. 135. 84. 92. 135. 124. 81. 80. 115. 111. 76. 68. 95. 90. 68.
      56. 75. 69. 58. 50. 55. 53. 49. 43. 6. 6. 6. 7. 7. 7. 7. 8. 8. 8.
      8. 9. 9. 9. 9. 10. 10. 10. 10. 11. 131. 84. 96. 132. 142. 103. 99.
      138. 161. 130. 104. 143. 169. 143. 104. 142. 173. 155. 103. 138.
      173. 162. 102. 129. 166. 150. 98. 112. 145. 135. 92. 93. 117. 108.
      82. 76. 90. 81. 68. 63. 64. 59. 55. 49. 11. 11. 11. 12. 12. 12.
      12. 13. 13. 13. 13. 14. 14. 14. 14. 15. 15. 15. 15. 16. 167. 91.
      117. 168. 175. 114. 123. 172. 183. 141. 132. 175. 198. 164. 130.
      174. 201. 172. 125. 170. 200. 174. 122. 163. 185. 169. 118. 141.
      169. 149. 111. 116. 139. 120. 95. 93. 102. 91. 79. 73. 70. 65. 63.
      54. 16. 16. 16. 17. 17. 17. 17. 18. 18. 18. 18. 19. 19. 19. 19.
      20. 20. 20. 20. 21. 188. 97. 153. 191. 200. 124. 153. 198. 206.
      150. 154. 200. 211. 170. 150. 199. 215. 178. 144. 193. 212. 180.
      140. 179. 203. 175. 137. 168. 179. 162. 120. 140. 152. 132. 106.
      112. 113. 96. 86. 85. 74. 67. 66. 58. 21. 21. 21. 22. 22. 22. 22.
      23. 23. 23. 23. 24. 24. 24. 24. 25. 25. 25. 25. 26. 207. 103. 178.
      210. 212. 133. 175. 212. 227. 156. 172. 213. 233. 173. 166. 211.
      235. 182. 157. 206. 233. 186. 148. 199. 213. 180. 141. 178. 198.
      170. 130. 155. 171. 149. 110. 122. 140. 131. 87. 89. 114. 113. 67.
      61. 104. 105. 42. 40. 105. 105. 45. 42. 106. 107. 51. 45. 107.
      110. 56. 50. 108. 111. 62. 53. 220. 117. 201. 233. 228. 138. 193.
      230. 232. 164. 180. 229. 237. 174. 171. 225. 240. 182. 164. 211.
      236. 187. 145. 202. 226. 182. 137. 181. 203. 176. 119. 163. 181.
      168. 101. 129. 166. 154. 84. 89. 149. 147. 65. 58. 143. 143. 51.
      45. 144. 144. 63. 52. 145. 146. 76. 60. 146. 149. 89. 68. 147.
      152. 99. 77. 228. 153. 218. 237. 231. 167. 203. 232. 235. 176.
      190. 227. 240. 189. 174. 214. 248. 200. 161. 207. 248. 202. 138.
      199. 234. 202. 124. 177. 219. 201. 107. 152. 205. 197. 89. 116.
      198. 191. 74. 83. 189. 188. 59. 54. 185. 186. 61. 55. 186. 187.
      79. 67. 187. 190. 96. 82. 189. 192. 115. 97. 190. 195. 136. 113.
      227. 179. 231. 232. 229. 185. 208. 222. 234. 199. 193. 208. 239.
      204. 173. 202. 250. 210. 151. 196. 251. 221. 123. 178. 248. 226.
      110. 165. 236. 226. 91. 137. 230. 223. 72. 102. 224. 220. 63. 71.
      217. 216. 51. 48. 215. 216. 69. 64. 216. 218. 91. 80. 217. 221.
      115. 100. 218. 224. 142. 122. 219. 225. 165. 142. 224. 203. 229.
      210. 227. 205. 205. 201. 231. 209. 183. 189. 238. 224. 167. 177.
      249. 230. 140. 169. 254. 235. 109. 152. 255. 239. 92. 136. 251.
      243. 76. 111. 249. 245. 57. 86. 247. 246. 50. 60. 245. 245. 44.
      43. 243. 244. 77. 70. 243. 245. 99. 93. 242. 246. 134. 117. 241.
      247. 161. 144. 241. 247. 176. 168. 226. 214. 208. 194. 228. 220.
      192. 177. 231. 228. 171. 166. 237. 232. 146. 148. 248. 238. 119.
      137. 254. 247. 88. 114. 255. 250. 73. 98. 255. 252. 59. 82. 255.
      252. 26. 65. 254. 253. 26. 47. 253. 254. 26. 27. 253. 253. 78. 77.
      252. 252. 103. 99. 251. 251. 136. 134. 250. 250. 165. 161. 249.
      249. 179. 176. 215. 214. 184. 167. 218. 219. 171. 147. 225. 225.
      148. 133. 230. 229. 125. 112. 234. 233. 100. 94. 238. 236. 75. 78.
      242. 239. 65. 67. 246. 241. 52. 56. 246. 242. 27. 47. 243. 244.
      27. 27. 244. 244. 28. 28. 242. 241. 74. 77. 240. 240. 97. 100.
      239. 238. 126. 134. 237. 236. 151. 163. 235. 234. 172. 177. 204.
      204. 162. 131. 204. 205. 139. 112. 206. 206. 118. 93. 207. 208.
      98. 78. 209. 210. 83. 64. 213. 213. 62. 45. 217. 216. 54. 42. 221.
      221. 46. 41. 223. 222. 28. 28. 222. 222. 29. 29. 223. 223. 29. 29.
      220. 219. 66. 72. 217. 215. 86. 94. 214. 212. 109. 121. 211. 209.
      135. 147. 209. 207. 151. 170. 185. 181. 114. 97. 184. 181. 98. 87.
      184. 182. 87. 73. 186. 184. 71. 62. 190. 188. 61. 51. 192. 191.
      46. 30. 194. 194. 43. 30. 195. 195. 41. 30. 197. 196. 30. 31. 196.
      196. 31. 31. 197. 197. 31. 32. 195. 194. 57. 66. 193. 192. 71. 85.
      191. 188. 88. 107. 187. 183. 106. 133. 183. 180. 120. 148. 165.
      155. 81. 66. 164. 156. 72. 60. 163. 156. 64. 53. 162. 157. 55. 47.
      160. 157. 46. 43. 157. 158. 32. 32. 158. 158. 32. 33. 158. 159.
      33. 33. 159. 159. 33. 34. 159. 160. 34. 34. 160. 160. 34. 35. 156.
      155. 49. 56. 154. 154. 57. 70. 153. 151. 69. 88. 150. 145. 80.
      105. 146. 141. 90. 120. 133. 116. 59. 35. 132. 118. 54. 35. 131.
      121. 49. 35. 130. 123. 44. 36. 129. 125. 41. 36. 126. 126. 36. 36.
      126. 127. 37. 37. 127. 127. 37. 37. 127. 128. 38. 38. 128. 128.
      38. 38. 128. 129. 39. 39. 125. 124. 39. 50. 123. 122. 39. 60. 121.
      119. 40. 70. 118. 115. 40. 81. 116. 113. 40. 92.</_>
    <_>
      52. 33. 63. 56. 63. 45. 61. 50. 72. 57. 57. 39. 71. 59. 52. 30.
      60. 50. 42. 20. 42. 33. 32. 12. 28. 17. 21. 11. 23. 3. 12. 25. 30.
      2. 7. 57. 43. 5. 4. 95. 65. 24. 2. 136. 90. 55. 7. 158. 117. 92.
      14. 159. 143. 131. 31. 144. 166. 161. 55. 124. 180. 180. 84. 104.
      80. 52. 143. 88. 99. 70. 133. 80. 112. 86. 122. 66. 112. 88. 109.
      53. 95. 77. 90. 36. 72. 54. 68. 28. 54. 27. 44. 29. 47. 8. 32. 51.
      58. 2. 26. 96. 79. 8. 19. 147. 102. 30. 16. 185. 126. 64. 21. 198.
      147. 108. 31. 197. 169. 150. 54. 187. 186. 179. 89. 171. 195. 194.
      136. 159. 104. 66. 215. 123. 130. 91. 207. 113. 144. 112. 196. 97.
      146. 116. 182. 78. 130. 99. 157. 59. 100. 68. 125. 47. 78. 36. 86.
      49. 73. 13. 67. 78. 88. 3. 61. 137. 115. 11. 55. 187. 140. 34. 49.
      209. 154. 70. 53. 218. 168. 114. 62. 216. 179. 153. 91. 210. 189.
      180. 139. 203. 195. 193. 189. 202. 113. 71. 246. 150. 140. 97.
      237. 142. 155. 120. 229. 129. 159. 124. 219. 107. 143. 106. 204.
      85. 119. 73. 179. 71. 98. 39. 142. 73. 97. 14. 124. 108. 121. 4.
      118. 167. 144. 11. 111. 203. 163. 33. 105. 220. 170. 65. 108. 226.
      171. 102. 117. 226. 173. 135. 145. 221. 174. 157. 187. 220. 177.
      173. 216. 225. 94. 76. 255. 167. 122. 96. 252. 158. 141. 116. 246.
      146. 145. 120. 236. 131. 139. 101. 225. 112. 123. 69. 206. 98.
      113. 36. 186. 101. 122. 13. 177. 135. 145. 4. 176. 185. 166. 10.
      175. 211. 177. 30. 174. 224. 175. 56. 175. 230. 165. 80. 179. 230.
      150. 102. 194. 229. 141. 116. 214. 231. 132. 124. 233. 238. 64.
      103. 255. 176. 85. 111. 254. 168. 105. 119. 251. 160. 121. 117.
      242. 149. 125. 99. 232. 138. 126. 68. 218. 128. 130. 37. 208. 131.
      142. 14. 207. 154. 163. 5. 210. 191. 176. 9. 214. 213. 181. 25.
      215. 224. 171. 42. 216. 231. 151. 59. 217. 233. 127. 67. 221. 235.
      101. 70. 230. 240. 83. 69. 244. 247. 34. 167. 255. 178. 49. 155.
      254. 170. 67. 148. 249. 165. 89. 136. 240. 159. 109. 115. 229.
      153. 129. 79. 218. 148. 145. 44. 214. 154. 161. 20. 217. 172. 177.
      6. 222. 195. 182. 7. 228. 213. 181. 17. 231. 223. 165. 31. 234.
      232. 137. 39. 234. 236. 102. 41. 236. 240. 70. 39. 241. 245. 48.
      34. 250. 250. 14. 221. 254. 173. 27. 211. 249. 160. 47. 197. 237.
      155. 77. 182. 227. 156. 110. 151. 219. 158. 143. 105. 211. 163.
      167. 62. 213. 174. 182. 29. 219. 183. 189. 9. 227. 200. 187. 3.
      234. 214. 178. 8. 239. 223. 151. 16. 243. 233. 115. 21. 243. 238.
      75. 18. 244. 242. 40. 13. 248. 248. 19. 6. 251. 252. 6. 247. 241.
      141. 19. 236. 228. 129. 41. 225. 216. 128. 76. 209. 205. 135. 121.
      183. 198. 148. 160. 132. 193. 166. 186. 77. 200. 184. 196. 37.
      212. 193. 197. 12. 223. 204. 190. 2. 232. 215. 172. 5. 239. 222.
      137. 11. 244. 232. 93. 15. 246. 238. 58. 13. 246. 243. 29. 9. 249.
      248. 10. 3. 253. 252. 20. 254. 212. 97. 36. 250. 196. 87. 65. 240.
      180. 91. 107. 226. 166. 106. 149. 203. 158. 133. 186. 156. 157.
      165. 200. 92. 175. 190. 205. 46. 192. 200. 202. 17. 212. 210. 191.
      5. 224. 215. 168. 8. 231. 221. 128. 18. 239. 229. 87. 24. 242.
      235. 58. 27. 245. 241. 35. 23. 249. 247. 23. 17. 253. 252. 37.
      255. 164. 51. 60. 253. 147. 44. 93. 245. 134. 54. 133. 230. 123.
      73. 169. 209. 118. 109. 194. 162. 120. 153. 204. 92. 137. 188.
      206. 46. 160. 199. 199. 20. 191. 208. 183. 10. 208. 210. 150. 18.
      217. 213. 110. 32. 227. 220. 80. 43. 233. 228. 62. 48. 238. 235.
      50. 45. 245. 243. 43. 38. 251. 251. 59. 253. 113. 19. 89. 250.
      110. 16. 127. 242. 106. 27. 162. 228. 95. 51. 188. 206. 89. 92.
      201. 162. 86. 146. 206. 91. 94. 185. 203. 46. 114. 196. 190. 22.
      146. 199. 164. 16. 172. 197. 129. 31. 189. 192. 96. 55. 207. 201.
      84. 74. 218. 212. 82. 83. 227. 223. 82. 81. 237. 235. 83. 72. 248.
      247. 75. 244. 88. 1. 114. 241. 93. 1. 152. 234. 94. 12. 184. 222.
      85. 38. 198. 202. 74. 82. 207. 163. 63. 140. 205. 93. 64. 178.
      195. 48. 74. 188. 171. 25. 95. 184. 134. 22. 118. 168. 103. 41.
      136. 152. 90. 74. 169. 162. 96. 103. 194. 183. 114. 120. 211. 204.
      127. 119. 226. 222. 131. 107. 239. 237. 79. 219. 71. 0. 122. 220.
      81. 1. 161. 217. 84. 7. 191. 209. 77. 34. 202. 192. 63. 76. 205.
      155. 48. 130. 198. 94. 41. 164. 178. 49. 43. 169. 138. 26. 56.
      152. 98. 24. 69. 123. 78. 45. 83. 98. 79. 81. 117. 104. 103. 116.
      151. 132. 133. 134. 184. 170. 152. 135. 208. 201. 157. 127. 225.
      224. 69. 172. 53. 0. 109. 185. 62. 0. 149. 190. 66. 6. 181. 188.
      61. 29. 192. 174. 50. 64. 193. 140. 35. 108. 181. 87. 26. 139.
      147. 44. 22. 138. 101. 23. 25. 115. 66. 21. 33. 82. 57. 40. 40.
      58. 68. 75. 67. 60. 99. 107. 100. 81. 134. 128. 138. 121. 154.
      132. 176. 164. 161. 125. 201. 199. 56. 100. 35. 0. 87. 125. 45. 1.
      126. 141. 51. 4. 156. 148. 46. 24. 173. 142. 37. 52. 170. 118. 26.
      85. 149. 75. 15. 106. 111. 38. 10. 100. 65. 18. 9. 76. 40. 15. 15.
      47. 35. 32. 22. 28. 53. 60. 38. 28. 84. 86. 61. 42. 119. 105. 90.
      72. 139. 110. 126. 111. 144. 104. 156. 153.</_>
    <_>
      55. 29. 80. 47. 66. 41. 72. 42. 69. 51. 60. 32. 60. 56. 48. 20.
      43. 47. 40. 12. 26. 34. 24. 8. 16. 16. 11. 14. 18. 4. 3. 34. 31.
      3. 1. 62. 54. 9. 0. 86. 74. 28. 0. 97. 90. 54. 0. 82. 102. 80. 2.
      63. 113. 105. 6. 41. 120. 122. 16. 28. 123. 132. 29. 22. 83. 46.
      162. 80. 99. 66. 147. 73. 105. 79. 131. 57. 94. 84. 112. 42. 70.
      76. 88. 27. 45. 53. 58. 21. 35. 28. 33. 32. 42. 10. 17. 66. 65. 7.
      6. 109. 97. 18. 2. 135. 122. 46. 1. 143. 137. 87. 2. 132. 148.
      124. 8. 106. 155. 147. 21. 77. 160. 162. 43. 61. 164. 174. 69. 60.
      110. 62. 229. 120. 126. 83. 215. 110. 130. 104. 192. 92. 120. 110.
      167. 72. 95. 98. 142. 52. 71. 71. 106. 46. 63. 39. 64. 65. 79. 15.
      37. 112. 114. 12. 17. 153. 145. 29. 8. 179. 163. 68. 6. 189. 177.
      119. 14. 175. 188. 153. 27. 152. 194. 177. 52. 130. 197. 198. 88.
      119. 202. 209. 126. 123. 117. 67. 251. 150. 131. 91. 244. 141.
      135. 111. 234. 128. 127. 117. 220. 108. 106. 104. 191. 83. 85. 76.
      150. 79. 89. 41. 113. 101. 117. 15. 78. 145. 149. 15. 50. 187.
      177. 34. 36. 216. 199. 78. 30. 223. 209. 131. 42. 215. 213. 165.
      64. 194. 214. 193. 98. 172. 213. 209. 139. 168. 213. 219. 175.
      178. 98. 56. 255. 176. 115. 77. 254. 168. 121. 94. 248. 156. 115.
      99. 239. 141. 101. 87. 225. 126. 99. 63. 185. 122. 116. 33. 151.
      136. 144. 12. 125. 170. 175. 13. 99. 209. 204. 32. 81. 229. 217.
      77. 78. 232. 221. 126. 93. 231. 219. 159. 118. 225. 214. 179. 148.
      216. 207. 195. 186. 217. 203. 204. 223. 228. 67. 40. 255. 208. 80.
      56. 254. 197. 93. 73. 252. 184. 97. 78. 245. 170. 102. 71. 234.
      160. 118. 49. 207. 154. 137. 27. 181. 164. 164. 9. 161. 192. 195.
      11. 147. 220. 213. 25. 137. 233. 222. 60. 134. 238. 222. 104. 148.
      241. 215. 134. 163. 237. 201. 150. 192. 236. 180. 157. 224. 238.
      167. 160. 241. 244. 37. 48. 255. 227. 49. 57. 254. 217. 68. 65.
      252. 206. 84. 68. 244. 196. 108. 59. 235. 186. 131. 43. 216. 176.
      153. 22. 205. 184. 175. 7. 195. 201. 198. 7. 189. 221. 210. 16.
      187. 233. 216. 40. 185. 241. 211. 70. 198. 244. 196. 91. 208. 245.
      169. 103. 226. 246. 146. 106. 237. 247. 123. 102. 248. 251. 19.
      96. 255. 233. 39. 92. 253. 225. 64. 91. 247. 215. 96. 85. 238.
      206. 128. 75. 228. 202. 151. 53. 211. 194. 168. 30. 210. 197. 182.
      11. 210. 205. 196. 5. 214. 218. 203. 7. 219. 231. 202. 20. 222.
      239. 190. 37. 228. 246. 167. 47. 231. 248. 138. 52. 237. 249. 104.
      48. 245. 250. 70. 44. 251. 253. 10. 161. 254. 230. 31. 150. 249.
      218. 65. 137. 239. 205. 108. 125. 227. 200. 141. 102. 208. 199.
      163. 71. 193. 196. 177. 39. 203. 201. 185. 15. 211. 203. 188. 4.
      224. 212. 183. 3. 230. 226. 173. 10. 232. 234. 156. 18. 236. 242.
      129. 25. 240. 247. 89. 23. 242. 249. 49. 17. 248. 250. 22. 10.
      252. 253. 23. 223. 250. 212. 54. 207. 240. 191. 95. 191. 225. 176.
      133. 169. 199. 174. 161. 143. 170. 181. 178. 107. 160. 190. 189.
      58. 173. 202. 188. 27. 194. 204. 178. 8. 217. 210. 169. 5. 229.
      219. 154. 13. 232. 227. 133. 26. 236. 235. 107. 36. 240. 242. 75.
      38. 243. 246. 51. 32. 247. 249. 35. 24. 252. 253. 38. 242. 241.
      162. 72. 233. 227. 146. 111. 224. 200. 136. 145. 199. 164. 142.
      169. 165. 136. 158. 184. 127. 127. 176. 189. 75. 140. 198. 185.
      35. 161. 204. 171. 14. 192. 206. 155. 12. 212. 206. 133. 24. 221.
      207. 110. 44. 229. 223. 88. 59. 232. 230. 74. 67. 238. 237. 67.
      62. 243. 245. 61. 51. 250. 251. 55. 243. 226. 107. 91. 240. 205.
      86. 129. 231. 171. 81. 155. 214. 138. 100. 172. 180. 105. 134.
      183. 142. 89. 165. 184. 89. 100. 193. 173. 44. 125. 200. 158. 21.
      153. 197. 135. 19. 171. 182. 111. 40. 182. 171. 92. 69. 200. 181.
      86. 93. 212. 201. 94. 105. 226. 221. 103. 100. 234. 235. 109. 88.
      243. 246. 75. 239. 195. 45. 116. 235. 174. 38. 144. 230. 149. 43.
      166. 218. 114. 69. 180. 191. 76. 115. 187. 155. 57. 157. 178. 107.
      58. 186. 162. 55. 76. 193. 140. 29. 103. 180. 114. 26. 122. 158.
      90. 48. 132. 135. 86. 82. 151. 139. 101. 116. 166. 156. 124. 130.
      188. 183. 139. 129. 208. 218. 148. 120. 228. 236. 87. 222. 154.
      13. 128. 224. 142. 9. 154. 220. 121. 19. 173. 211. 84. 45. 182.
      190. 53. 94. 179. 158. 36. 141. 166. 114. 33. 168. 144. 62. 41.
      172. 115. 31. 55. 157. 83. 26. 66. 127. 72. 47. 74. 93. 82. 81.
      95. 90. 113. 118. 117. 111. 140. 132. 138. 143. 159. 134. 159.
      181. 166. 128. 183. 220. 85. 174. 112. 2. 124. 186. 103. 1. 149.
      190. 82. 9. 165. 187. 59. 33. 170. 172. 36. 74. 163. 149. 21. 121.
      147. 109. 17. 144. 118. 58. 18. 145. 79. 30. 23. 125. 54. 20. 28.
      84. 49. 38. 30. 50. 73. 68. 45. 44. 109. 98. 61. 63. 140. 119. 81.
      100. 159. 123. 108. 143. 167. 119. 130. 179. 77. 121. 64. 1. 112.
      138. 61. 0. 136. 152. 51. 5. 152. 157. 37. 24. 156. 151. 20. 56.
      146. 133. 11. 92. 124. 96. 6. 116. 85. 50. 4. 113. 50. 22. 3. 87.
      34. 14. 4. 52. 35. 25. 5. 25. 57. 46. 13. 19. 95. 73. 23. 31. 129.
      90. 39. 59. 146. 97. 53. 101. 152. 96. 70. 139.</_>
    <_>
      136. 77. 126. 127. 149. 92. 105. 121. 156. 103. 86. 108. 145. 100.
      73. 88. 125. 81. 57. 66. 87. 57. 42. 45. 51. 31. 27. 28. 37. 12.
      21. 43. 43. 9. 18. 67. 70. 22. 16. 97. 104. 51. 13. 119. 136. 89.
      13. 122. 158. 129. 17. 107. 173. 157. 26. 85. 182. 179. 45. 72.
      190. 195. 68. 68. 150. 85. 194. 151. 169. 104. 167. 146. 177. 115.
      139. 139. 169. 111. 116. 123. 142. 93. 89. 94. 108. 66. 65. 69.
      71. 36. 48. 51. 55. 14. 41. 69. 67. 12. 40. 98. 97. 25. 39. 133.
      134. 60. 33. 153. 165. 108. 30. 155. 186. 145. 33. 140. 203. 180.
      50. 124. 210. 207. 75. 112. 217. 222. 110. 114. 152. 83. 241. 177.
      171. 103. 228. 174. 180. 112. 195. 167. 173. 109. 164. 144. 147.
      90. 132. 123. 117. 64. 99. 90. 82. 35. 78. 75. 76. 14. 74. 94. 93.
      11. 74. 130. 129. 27. 73. 167. 162. 65. 62. 188. 189. 115. 56.
      192. 210. 154. 59. 178. 218. 188. 80. 163. 220. 213. 117. 157.
      220. 226. 157. 165. 135. 72. 252. 196. 150. 86. 245. 192. 162. 94.
      236. 183. 157. 92. 211. 166. 138. 76. 169. 139. 116. 52. 132. 110.
      92. 27. 119. 97. 98. 10. 118. 120. 122. 9. 120. 152. 152. 26. 121.
      191. 182. 61. 106. 216. 208. 109. 96. 221. 218. 147. 98. 212. 218.
      179. 125. 202. 211. 200. 160. 204. 205. 211. 209. 219. 95. 61.
      255. 215. 114. 75. 251. 203. 124. 80. 244. 189. 123. 78. 234. 171.
      116. 63. 200. 146. 104. 43. 161. 125. 102. 22. 151. 119. 120. 7.
      158. 138. 143. 6. 163. 170. 173. 23. 166. 209. 197. 53. 144. 227.
      213. 95. 137. 232. 216. 135. 137. 231. 204. 160. 165. 231. 186.
      172. 205. 236. 170. 176. 237. 240. 56. 79. 255. 223. 71. 87. 253.
      207. 83. 89. 247. 186. 90. 80. 239. 168. 100. 64. 222. 149. 107.
      41. 185. 136. 122. 21. 181. 138. 142. 5. 192. 160. 169. 4. 199.
      185. 191. 19. 203. 219. 210. 44. 183. 231. 214. 78. 174. 237. 207.
      113. 177. 238. 183. 134. 209. 241. 159. 140. 235. 244. 135. 138.
      245. 248. 31. 133. 255. 226. 46. 132. 252. 198. 63. 129. 247. 175.
      79. 111. 239. 158. 104. 84. 225. 146. 126. 52. 194. 143. 142. 25.
      201. 156. 166. 7. 217. 176. 182. 1. 223. 193. 195. 12. 227. 219.
      204. 30. 214. 229. 197. 57. 208. 238. 181. 82. 213. 241. 153. 102.
      233. 245. 128. 105. 242. 248. 92. 99. 250. 252. 19. 204. 253. 210.
      35. 191. 249. 177. 61. 176. 242. 153. 91. 149. 235. 141. 128. 117.
      213. 144. 150. 72. 190. 154. 170. 38. 206. 175. 184. 11. 224. 189.
      188. 1. 230. 196. 187. 5. 233. 212. 180. 17. 227. 220. 166. 32.
      226. 234. 141. 49. 230. 240. 110. 56. 240. 246. 77. 56. 247. 251.
      48. 50. 252. 254. 38. 242. 247. 178. 62. 237. 241. 145. 99. 226.
      232. 132. 134. 190. 212. 131. 164. 144. 185. 148. 186. 93. 176.
      174. 199. 49. 193. 196. 198. 18. 220. 206. 187. 2. 229. 198. 173.
      2. 233. 199. 152. 8. 228. 198. 130. 20. 228. 223. 103. 28. 235.
      238. 72. 35. 243. 246. 46. 36. 249. 251. 25. 29. 254. 255. 63.
      249. 234. 130. 101. 245. 222. 110. 140. 237. 193. 107. 175. 211.
      172. 125. 202. 161. 154. 156. 217. 103. 154. 190. 217. 52. 178.
      215. 202. 20. 207. 216. 178. 3. 219. 194. 151. 1. 224. 184. 126.
      6. 215. 175. 93. 14. 221. 199. 70. 23. 233. 232. 49. 28. 242. 243.
      34. 30. 249. 250. 24. 27. 254. 254. 91. 251. 187. 74. 135. 246.
      172. 70. 172. 238. 149. 80. 206. 208. 133. 116. 222. 153. 127.
      161. 225. 96. 131. 200. 215. 48. 155. 221. 187. 19. 182. 214. 155.
      4. 193. 184. 126. 0. 197. 163. 90. 6. 185. 143. 63. 16. 196. 170.
      46. 24. 225. 216. 39. 34. 239. 239. 37. 39. 248. 248. 38. 38. 253.
      253. 118. 246. 139. 29. 160. 240. 129. 39. 197. 228. 111. 66. 224.
      183. 94. 111. 229. 136. 89. 162. 225. 81. 101. 205. 201. 40. 128.
      221. 167. 16. 147. 208. 130. 4. 158. 168. 91. 2. 159. 137. 62. 11.
      145. 114. 47. 24. 164. 137. 44. 43. 195. 181. 50. 55. 232. 230.
      58. 62. 243. 243. 67. 60. 250. 250. 131. 235. 95. 6. 174. 223. 88.
      22. 212. 189. 76. 54. 229. 151. 64. 106. 230. 113. 60. 159. 218.
      70. 71. 200. 184. 32. 88. 214. 142. 13. 109. 191. 102. 3. 115.
      146. 67. 4. 114. 113. 47. 17. 105. 81. 44. 37. 128. 105. 52. 58.
      161. 147. 71. 78. 206. 201. 87. 87. 236. 236. 100. 85. 244. 244.
      131. 179. 59. 0. 171. 165. 55. 15. 209. 141. 49. 48. 227. 117. 42.
      96. 224. 83. 40. 143. 202. 53. 44. 180. 163. 25. 54. 188. 118. 10.
      68. 168. 73. 3. 69. 127. 45. 5. 68. 82. 34. 20. 64. 55. 42. 41.
      85. 73. 59. 69. 123. 115. 84. 88. 162. 159. 106. 101. 203. 205.
      120. 101. 231. 234. 112. 113. 33. 0. 148. 107. 32. 12. 181. 96.
      26. 41. 201. 79. 22. 79. 194. 61. 20. 124. 171. 42. 21. 150. 133.
      21. 26. 155. 86. 8. 33. 134. 47. 2. 34. 91. 23. 5. 36. 54. 23. 19.
      36. 30. 35. 40. 54. 46. 57. 65. 81. 76. 84. 84. 119. 118. 108. 98.
      148. 156. 121. 99. 179. 192. 86. 58. 15. 0. 124. 59. 15. 9. 148.
      58. 13. 29. 168. 53. 10. 60. 164. 45. 8. 95. 140. 31. 7. 121. 106.
      18. 8. 122. 66. 7. 10. 100. 31. 1. 9. 65. 16. 3. 11. 37. 17. 15.
      14. 18. 29. 32. 28. 24. 51. 53. 50. 47. 77. 74. 75. 77. 97. 82.
      102. 112. 109. 83. 127. 141.</_>
    <_>
      52. 25. 88. 46. 62. 35. 84. 50. 65. 46. 73. 48. 60. 54. 57. 41.
      45. 50. 39. 32. 28. 37. 28. 21. 14. 23. 13. 14. 10. 9. 5. 14. 16.
      4. 2. 27. 31. 6. 0. 44. 54. 18. 0. 65. 83. 36. 2. 84. 101. 60. 6.
      87. 117. 86. 18. 81. 125. 103. 31. 68. 128. 117. 48. 58. 81. 36.
      152. 82. 92. 55. 148. 87. 98. 74. 139. 85. 90. 84. 125. 74. 67.
      79. 100. 54. 42. 58. 67. 36. 26. 35. 33. 28. 25. 17. 18. 31. 37.
      8. 7. 58. 70. 11. 2. 93. 106. 30. 2. 122. 132. 59. 7. 134. 149.
      94. 17. 135. 158. 124. 35. 130. 162. 138. 64. 122. 164. 149. 98.
      113. 100. 47. 210. 112. 115. 71. 205. 118. 121. 91. 195. 116. 112.
      102. 177. 104. 89. 99. 151. 85. 59. 77. 120. 59. 40. 44. 70. 50.
      47. 22. 41. 63. 79. 12. 27. 108. 122. 20. 19. 141. 149. 46. 16.
      163. 172. 90. 24. 178. 186. 128. 38. 178. 193. 151. 72. 170. 196.
      166. 113. 160. 194. 178. 145. 158. 106. 50. 243. 137. 121. 77.
      241. 139. 126. 97. 235. 135. 119. 108. 222. 126. 94. 103. 196.
      104. 68. 83. 159. 84. 57. 47. 120. 78. 77. 24. 93. 99. 118. 16.
      75. 142. 153. 26. 64. 177. 182. 61. 58. 198. 200. 109. 69. 210.
      211. 141. 88. 209. 213. 165. 123. 204. 210. 181. 155. 199. 206.
      190. 189. 200. 91. 49. 253. 155. 106. 74. 251. 153. 111. 91. 248.
      147. 102. 100. 242. 134. 86. 92. 225. 116. 67. 71. 194. 96. 73.
      38. 157. 99. 104. 21. 142. 128. 143. 15. 132. 167. 180. 29. 130.
      200. 204. 66. 125. 221. 216. 114. 129. 228. 220. 144. 139. 228.
      217. 165. 160. 224. 208. 180. 195. 225. 198. 184. 222. 230. 59.
      61. 255. 172. 72. 82. 254. 161. 79. 94. 253. 152. 76. 98. 247.
      137. 65. 87. 237. 123. 67. 62. 214. 111. 89. 34. 188. 123. 127.
      17. 182. 148. 160. 11. 180. 184. 191. 27. 182. 214. 211. 62. 177.
      227. 217. 107. 177. 233. 214. 136. 183. 235. 204. 154. 199. 236.
      190. 161. 223. 238. 175. 163. 240. 243. 30. 113. 255. 182. 36.
      120. 255. 169. 44. 124. 254. 156. 49. 118. 249. 142. 57. 97. 238.
      133. 80. 63. 219. 131. 108. 33. 206. 143. 140. 14. 211. 165. 168.
      6. 216. 191. 191. 22. 221. 215. 202. 46. 216. 224. 202. 86. 215.
      232. 194. 116. 218. 237. 176. 131. 227. 240. 153. 136. 240. 245.
      133. 133. 247. 249. 13. 172. 255. 184. 19. 170. 254. 169. 29. 164.
      251. 157. 43. 153. 245. 150. 69. 129. 231. 151. 102. 88. 213. 156.
      132. 40. 212. 171. 155. 16. 222. 185. 175. 4. 230. 198. 186. 13.
      234. 213. 188. 30. 232. 220. 180. 55. 231. 229. 160. 82. 232. 236.
      138. 95. 239. 243. 111. 98. 246. 247. 82. 91. 250. 251. 3. 222.
      254. 171. 7. 218. 252. 157. 25. 208. 245. 154. 51. 189. 234. 158.
      94. 157. 215. 173. 131. 114. 195. 189. 156. 56. 201. 203. 174. 20.
      220. 209. 181. 3. 230. 209. 179. 6. 237. 212. 167. 17. 235. 211.
      146. 30. 235. 221. 124. 43. 237. 232. 87. 52. 244. 243. 51. 51.
      249. 248. 29. 44. 253. 252. 19. 244. 250. 145. 32. 241. 244. 140.
      62. 233. 231. 147. 101. 219. 210. 165. 137. 188. 183. 192. 163.
      141. 166. 214. 183. 86. 181. 225. 189. 33. 201. 225. 184. 5. 219.
      217. 168. 4. 229. 207. 148. 10. 229. 197. 122. 22. 230. 209. 89.
      35. 236. 226. 61. 42. 244. 241. 43. 45. 250. 248. 34. 38. 253.
      252. 39. 250. 239. 107. 65. 246. 226. 110. 105. 242. 203. 132.
      136. 228. 176. 162. 164. 200. 147. 199. 187. 155. 134. 224. 197.
      99. 146. 234. 197. 40. 169. 233. 185. 9. 190. 221. 159. 5. 206.
      202. 131. 11. 208. 185. 95. 25. 217. 192. 68. 38. 227. 216. 54.
      52. 239. 236. 53. 56. 246. 246. 53. 52. 252. 251. 78. 249. 212.
      55. 109. 245. 192. 66. 139. 239. 167. 106. 162. 227. 141. 150.
      186. 201. 114. 193. 199. 159. 95. 223. 205. 109. 103. 234. 196.
      51. 127. 233. 178. 15. 144. 219. 147. 7. 162. 192. 115. 15. 169.
      166. 83. 32. 186. 170. 69. 53. 207. 196. 71. 72. 228. 223. 85. 80.
      242. 241. 90. 76. 248. 247. 109. 242. 168. 20. 138. 238. 154. 31.
      164. 231. 134. 70. 185. 220. 108. 128. 198. 197. 76. 175. 207.
      161. 55. 212. 203. 117. 53. 226. 188. 61. 68. 226. 161. 21. 89.
      208. 130. 10. 112. 175. 96. 20. 125. 145. 76. 40. 146. 145. 81.
      70. 174. 171. 93. 92. 203. 205. 112. 101. 224. 229. 121. 97. 238.
      240. 126. 218. 129. 4. 152. 218. 120. 11. 179. 213. 100. 39. 195.
      204. 75. 97. 202. 187. 45. 149. 201. 158. 29. 187. 191. 119. 23.
      207. 168. 64. 27. 206. 138. 24. 37. 183. 102. 12. 56. 148. 72. 21.
      71. 118. 64. 42. 105. 115. 85. 75. 136. 140. 105. 96. 166. 176.
      124. 107. 193. 205. 130. 104. 215. 223. 126. 172. 80. 1. 152. 179.
      75. 3. 176. 181. 60. 24. 190. 179. 41. 63. 193. 167. 26. 119. 187.
      146. 15. 154. 171. 110. 8. 174. 142. 60. 9. 173. 107. 23. 12. 151.
      69. 10. 22. 117. 49. 18. 32. 83. 56. 37. 57. 80. 81. 63. 92. 110.
      103. 88. 127. 143. 121. 96. 150. 173. 127. 95. 170. 194. 114. 119.
      43. 0. 140. 133. 39. 0. 159. 143. 33. 9. 173. 150. 23. 34. 174.
      144. 12. 74. 163. 129. 5. 116. 144. 93. 1. 135. 113. 49. 1. 135.
      73. 19. 1. 115. 41. 8. 3. 79. 34. 13. 8. 48. 42. 28. 26. 45. 66.
      48. 47. 73. 90. 66. 77. 110. 105. 78. 101. 137. 111. 78. 123. 156.</_>
    <_>
      72. 28. 57. 79. 82. 41. 49. 73. 85. 53. 45. 56. 78. 60. 42. 36.
      60. 55. 37. 19. 38. 41. 28. 9. 24. 25. 16. 7. 16. 10. 6. 23. 26.
      8. 2. 47. 46. 20. 0. 76. 80. 51. 0. 98. 125. 99. 2. 99. 158. 142.
      6. 81. 181. 173. 17. 62. 196. 188. 32. 48. 204. 197. 53. 45. 110.
      44. 134. 131. 125. 64. 119. 120. 130. 83. 107. 96. 122. 93. 99.
      64. 94. 85. 87. 35. 65. 65. 65. 22. 42. 36. 39. 23. 37. 15. 21.
      51. 50. 11. 7. 94. 79. 25. 1. 135. 117. 60. 1. 151. 150. 117. 4.
      149. 178. 161. 14. 133. 196. 189. 33. 105. 207. 205. 62. 92. 213.
      211. 99. 92. 138. 57. 207. 166. 153. 83. 193. 154. 158. 107. 183.
      131. 147. 121. 174. 90. 123. 112. 159. 54. 87. 84. 130. 36. 63.
      48. 89. 43. 62. 21. 53. 86. 83. 14. 27. 141. 119. 27. 10. 179.
      146. 66. 5. 193. 171. 126. 13. 192. 188. 169. 29. 176. 200. 197.
      61. 155. 208. 210. 108. 144. 212. 216. 153. 152. 148. 61. 234.
      190. 162. 88. 228. 177. 166. 115. 223. 149. 156. 127. 219. 109.
      133. 119. 210. 71. 101. 90. 187. 54. 81. 52. 152. 70. 90. 23. 112.
      127. 120. 15. 71. 177. 147. 26. 43. 205. 167. 62. 31. 213. 179.
      118. 42. 212. 186. 162. 64. 201. 191. 189. 109. 190. 195. 204.
      161. 189. 197. 211. 198. 200. 135. 58. 252. 201. 146. 82. 247.
      184. 149. 103. 243. 155. 139. 114. 237. 115. 118. 103. 230. 77.
      97. 76. 218. 68. 88. 44. 202. 90. 106. 18. 176. 147. 137. 12. 139.
      191. 161. 23. 114. 213. 173. 52. 95. 219. 175. 100. 102. 219. 173.
      140. 124. 214. 168. 168. 163. 211. 162. 184. 201. 215. 161. 192.
      222. 223. 95. 67. 255. 207. 103. 83. 254. 185. 107. 98. 251. 151.
      101. 100. 248. 112. 86. 87. 244. 82. 80. 61. 232. 77. 86. 33. 225.
      106. 113. 12. 215. 158. 139. 7. 199. 193. 160. 17. 185. 212. 167.
      43. 172. 217. 163. 81. 174. 220. 152. 120. 184. 220. 136. 140.
      207. 222. 121. 153. 224. 227. 105. 157. 235. 237. 49. 118. 255.
      208. 58. 118. 255. 183. 65. 116. 254. 145. 67. 103. 251. 110. 68.
      81. 248. 91. 74. 52. 240. 93. 84. 27. 235. 122. 106. 8. 230. 156.
      133. 4. 225. 182. 143. 13. 221. 202. 148. 33. 217. 210. 140. 63.
      216. 219. 129. 93. 218. 223. 102. 111. 226. 229. 76. 117. 236.
      237. 59. 113. 246. 247. 24. 187. 255. 208. 30. 176. 254. 179. 41.
      160. 251. 141. 54. 136. 250. 114. 67. 101. 246. 105. 79. 56. 242.
      111. 92. 28. 242. 134. 104. 7. 240. 151. 119. 3. 235. 166. 124. 8.
      235. 186. 123. 21. 232. 197. 112. 39. 230. 215. 91. 58. 231. 225.
      66. 69. 238. 233. 39. 68. 245. 244. 22. 59. 250. 251. 8. 226. 250.
      195. 18. 216. 247. 165. 35. 200. 244. 134. 59. 171. 242. 120. 82.
      130. 238. 128. 100. 69. 234. 138. 111. 30. 239. 154. 115. 9. 241.
      159. 116. 2. 241. 159. 108. 4. 243. 169. 100. 13. 240. 180. 84.
      26. 238. 208. 66. 37. 239. 224. 45. 44. 244. 236. 27. 40. 249.
      247. 13. 33. 253. 253. 25. 246. 233. 170. 46. 234. 229. 142. 76.
      223. 227. 123. 113. 205. 224. 126. 137. 165. 221. 145. 146. 102.
      222. 165. 144. 52. 228. 179. 136. 20. 232. 178. 126. 3. 234. 166.
      104. 3. 239. 167. 89. 9. 238. 172. 73. 20. 237. 203. 55. 31. 239.
      222. 42. 39. 245. 236. 32. 40. 250. 248. 26. 38. 254. 253. 47.
      252. 211. 121. 79. 245. 205. 101. 123. 231. 198. 94. 152. 216.
      192. 116. 172. 185. 188. 150. 177. 129. 196. 180. 171. 72. 210.
      195. 158. 32. 220. 194. 138. 10. 224. 180. 113. 5. 228. 171. 88.
      10. 227. 164. 69. 22. 228. 194. 56. 36. 232. 218. 50. 50. 241.
      233. 51. 57. 248. 245. 49. 58. 252. 252. 78. 253. 167. 59. 122.
      246. 155. 55. 157. 233. 143. 60. 182. 220. 132. 95. 194. 196. 125.
      143. 195. 148. 136. 182. 187. 95. 160. 201. 170. 48. 185. 203.
      147. 18. 198. 189. 116. 9. 209. 172. 85. 14. 209. 151. 70. 29.
      214. 175. 67. 53. 221. 206. 75. 75. 230. 226. 86. 91. 243. 240.
      96. 97. 249. 249. 110. 249. 124. 19. 150. 243. 109. 22. 181. 231.
      91. 32. 199. 221. 72. 71. 206. 203. 61. 128. 204. 168. 73. 174.
      192. 121. 96. 198. 173. 68. 128. 202. 142. 28. 144. 188. 107. 14.
      160. 164. 80. 21. 162. 135. 75. 44. 178. 148. 85. 77. 199. 180.
      108. 114. 218. 213. 132. 133. 229. 229. 140. 137. 241. 242. 128.
      236. 84. 2. 164. 231. 74. 4. 191. 225. 56. 16. 206. 217. 38. 47.
      209. 203. 29. 102. 204. 177. 30. 156. 190. 134. 41. 186. 163. 78.
      64. 191. 129. 34. 78. 176. 89. 17. 94. 142. 70. 25. 98. 104. 74.
      51. 125. 111. 98. 93. 157. 141. 130. 131. 190. 186. 153. 149. 214.
      214. 165. 157. 226. 227. 127. 217. 55. 0. 163. 215. 46. 1. 187.
      212. 34. 6. 199. 206. 20. 31. 202. 193. 11. 74. 194. 170. 11. 126.
      175. 131. 16. 159. 138. 77. 29. 164. 97. 34. 35. 145. 63. 17. 45.
      110. 50. 24. 47. 71. 63. 48. 72. 70. 96. 89. 104. 97. 132. 127.
      143. 141. 155. 146. 178. 183. 168. 156. 200. 209. 109. 175. 37. 0.
      144. 181. 31. 1. 169. 184. 24. 3. 181. 183. 12. 19. 182. 174. 6.
      46. 170. 154. 5. 87. 145. 115. 5. 122. 105. 69. 11. 129. 66. 30.
      12. 106. 40. 15. 15. 73. 35. 19. 18. 43. 49. 40. 34. 38. 80. 75.
      57. 54. 117. 108. 88. 92. 139. 132. 124. 135. 154. 137. 150. 169.</_>
    <_>
      76. 37. 21. 85. 74. 44. 19. 76. 66. 45. 15. 54. 48. 43. 13. 35.
      32. 31. 9. 18. 16. 16. 3. 6. 9. 4. 1. 6. 14. 3. 1. 16. 32. 10. 0.
      32. 57. 26. 0. 53. 84. 44. 0. 79. 110. 70. 1. 94. 126. 86. 5. 110.
      143. 102. 20. 123. 154. 116. 35. 130. 163. 125. 55. 132. 111. 59.
      65. 139. 109. 72. 55. 121. 97. 77. 46. 99. 80. 68. 39. 72. 47. 47.
      29. 40. 28. 29. 18. 23. 22. 12. 11. 20. 30. 7. 8. 34. 58. 17. 5.
      58. 93. 38. 4. 90. 123. 69. 2. 112. 148. 94. 7. 128. 163. 114. 17.
      147. 173. 127. 36. 160. 179. 143. 66. 172. 185. 155. 97. 177. 146.
      80. 127. 189. 137. 91. 117. 172. 121. 96. 105. 144. 99. 88. 87.
      109. 68. 68. 69. 73. 41. 39. 43. 42. 38. 17. 30. 42. 60. 12. 25.
      68. 98. 24. 21. 98. 137. 50. 20. 131. 167. 87. 14. 153. 184. 119.
      22. 167. 192. 139. 35. 178. 193. 152. 64. 190. 193. 163. 105. 201.
      192. 174. 145. 207. 162. 83. 198. 220. 153. 99. 183. 205. 133.
      107. 166. 180. 108. 98. 146. 143. 78. 79. 118. 101. 50. 44. 86.
      69. 56. 22. 73. 70. 87. 13. 62. 101. 132. 27. 53. 136. 174. 57.
      48. 174. 196. 95. 37. 188. 204. 126. 43. 199. 204. 148. 64. 204.
      199. 159. 102. 211. 190. 167. 149. 220. 182. 175. 191. 225. 158.
      78. 233. 234. 145. 89. 224. 221. 122. 96. 214. 201. 96. 89. 200.
      165. 73. 71. 172. 122. 59. 41. 138. 91. 80. 19. 123. 96. 116. 11.
      118. 128. 162. 23. 111. 168. 194. 51. 106. 199. 207. 88. 85. 208.
      209. 120. 87. 213. 203. 141. 108. 216. 187. 150. 146. 221. 171.
      155. 190. 229. 154. 159. 221. 239. 125. 62. 250. 241. 113. 79.
      247. 227. 93. 82. 239. 209. 73. 79. 226. 175. 56. 57. 211. 135.
      60. 33. 187. 105. 89. 14. 182. 115. 132. 6. 181. 151. 176. 15.
      176. 186. 201. 40. 166. 212. 209. 75. 145. 220. 206. 104. 141.
      223. 193. 121. 154. 225. 168. 127. 188. 231. 139. 128. 218. 239.
      113. 126. 238. 247. 84. 69. 255. 244. 78. 81. 252. 228. 64. 83.
      248. 208. 52. 81. 241. 175. 55. 61. 227. 141. 71. 37. 217. 115.
