<?xml version="1.0"?>
<opencv_storage>
<my_svm type_id="opencv-ml-svm">
  <svm_type>C_SVC</svm_type>
  <kernel><type>LINEAR</type></kernel>
  <C>1.0000000000000001e-01</C>
  <term_criteria><epsilon>1.1920928955078125e-07</epsilon>
    <iterations>2147483647</iterations></term_criteria>
  <var_all>1024</var_all>
  <var_count>1024</var_count>
  <class_count>10</class_count>
  <class_labels type_id="opencv-matrix">
    <rows>1</rows>
    <cols>10</cols>
    <dt>i</dt>
    <data>
      48 49 50 51 52 53 54 55 56 57</data></class_labels>
  <sv_total>504</sv_total>
  <support_vectors>
    <_>
      18. 14. 0. 35. 26. 20. 0. 51. 37. 30. 0. 63. 49. 42. 0. 77. 60.
      54. 1. 91. 72. 66. 1. 101. 79. 74. 1. 107. 87. 84. 1. 110. 93. 90.
      2. 103. 105. 100. 2. 88. 119. 108. 14. 71. 129. 114. 22. 53. 132.
      114. 31. 35. 131. 113. 39. 21. 124. 111. 47. 17. 113. 110. 54. 13.
      28. 16. 24. 76. 36. 26. 22. 92. 49. 39. 19. 109. 66. 53. 16. 124.
      81. 70. 13. 134. 95. 88. 12. 142. 109. 102. 2. 147. 121. 116. 2.
      147. 133. 130. 11. 139. 149. 139. 12. 126. 163. 149. 19. 100. 171.
      153. 30. 76. 174. 155. 42. 56. 168. 154. 55. 40. 158. 151. 68. 38.
      144. 152. 78. 36. 37. 20. 46. 117. 47. 29. 43. 138. 65. 44. 39.
      155. 85. 63. 30. 171. 104. 83. 23. 184. 125. 105. 15. 188. 138.
      127. 3. 189. 152. 142. 3. 185. 167. 156. 12. 174. 184. 170. 16.
      155. 203. 179. 28. 131. 211. 187. 43. 103. 213. 191. 61. 82. 206.
      192. 80. 65. 189. 192. 96. 63. 169. 195. 115. 64. 46. 23. 83. 161.
      59. 33. 76. 183. 79. 49. 69. 204. 101. 69. 58. 219. 126. 89. 46.
      227. 145. 117. 34. 228. 162. 141. 24. 223. 177. 161. 18. 216. 196.
      176. 15. 201. 215. 194. 22. 180. 229. 203. 34. 158. 235. 211. 56.
      136. 235. 216. 78. 118. 228. 218. 102. 104. 212. 220. 128. 104.
      190. 224. 147. 108. 67. 26. 130. 205. 75. 34. 122. 225. 94. 50.
      107. 239. 116. 70. 88. 244. 137. 91. 71. 245. 157. 120. 55. 243.
      175. 144. 36. 238. 193. 165. 29. 228. 210. 182. 27. 214. 226. 198.
      33. 198. 237. 206. 48. 181. 241. 212. 73. 169. 240. 217. 96. 159.
      233. 222. 128. 150. 220. 224. 151. 153. 199. 231. 175. 158. 84.
      27. 186. 232. 89. 35. 175. 242. 106. 47. 157. 247. 127. 65. 132.
      248. 143. 86. 105. 249. 162. 112. 78. 246. 177. 134. 53. 241. 194.
      156. 40. 230. 211. 171. 38. 221. 225. 182. 45. 213. 235. 187. 60.
      210. 238. 194. 87. 210. 237. 199. 113. 209. 232. 203. 140. 207.
      220. 208. 167. 208. 205. 214. 193. 212. 104. 51. 234. 239. 111.
      57. 225. 243. 124. 66. 204. 246. 135. 76. 172. 247. 150. 89. 137.
      247. 163. 108. 101. 244. 173. 127. 69. 238. 185. 138. 50. 229.
      200. 148. 48. 224. 215. 153. 57. 226. 226. 154. 72. 233. 230. 156.
      93. 240. 231. 160. 117. 242. 228. 164. 141. 241. 221. 166. 164.
      242. 210. 171. 186. 242. 126. 91. 250. 235. 130. 92. 246. 236.
      135. 94. 233. 237. 146. 97. 200. 238. 155. 103. 159. 236. 161.
      109. 116. 234. 167. 116. 78. 232. 177. 120. 57. 231. 191. 123. 55.
      234. 207. 125. 64. 243. 220. 121. 77. 248. 225. 121. 93. 251. 229.
      122. 110. 252. 227. 123. 128. 251. 223. 122. 144. 250. 219. 124.
      159. 248. 145. 144. 254. 224. 150. 140. 251. 218. 157. 139. 243.
      214. 164. 137. 214. 213. 168. 134. 166. 216. 170. 131. 119. 221.
      172. 125. 82. 229. 178. 115. 56. 239. 189. 106. 58. 245. 206. 98.
      66. 251. 217. 90. 74. 253. 222. 88. 86. 254. 223. 85. 90. 254.
      222. 82. 97. 252. 219. 77. 110. 249. 211. 75. 117. 244. 161. 197.
      253. 201. 168. 188. 249. 188. 178. 181. 240. 180. 184. 177. 207.
      183. 187. 170. 160. 195. 186. 160. 111. 212. 186. 146. 73. 234.
      190. 130. 50. 246. 199. 112. 52. 252. 209. 96. 59. 255. 217. 86.
      67. 255. 218. 74. 70. 255. 216. 68. 70. 253. 209. 60. 71. 248.
      200. 52. 73. 241. 192. 44. 75. 226. 172. 233. 245. 165. 184. 223.
      240. 156. 196. 215. 221. 154. 200. 207. 183. 163. 203. 198. 141.
      182. 202. 181. 95. 208. 198. 164. 64. 237. 196. 140. 40. 249. 197.
      118. 41. 253. 201. 97. 46. 255. 201. 81. 52. 254. 197. 67. 52.
      252. 189. 57. 48. 244. 178. 47. 45. 227. 165. 36. 44. 202. 154.
      31. 42. 176. 179. 239. 219. 133. 193. 230. 204. 132. 199. 222.
      181. 137. 205. 215. 152. 152. 205. 206. 119. 176. 204. 191. 81.
      202. 197. 173. 54. 231. 193. 149. 32. 245. 185. 126. 30. 250. 180.
      100. 33. 250. 173. 80. 35. 247. 162. 62. 33. 236. 150. 51. 29.
      208. 136. 41. 23. 174. 125. 31. 17. 147. 112. 27. 3. 123. 176.
      227. 168. 106. 187. 218. 158. 113. 195. 209. 143. 129. 196. 202.
      123. 148. 195. 194. 94. 169. 192. 180. 65. 190. 182. 165. 43. 213.
      175. 143. 25. 230. 163. 118. 19. 236. 151. 93. 23. 232. 136. 72.
      25. 217. 122. 54. 24. 185. 106. 41. 20. 151. 91. 32. 16. 120. 79.
      24. 12. 94. 68. 20. 3. 73. 160. 190. 128. 80. 169. 183. 120. 92.
      174. 178. 112. 114. 172. 173. 95. 134. 170. 167. 77. 153. 166.
      159. 55. 166. 157. 146. 38. 179. 148. 129. 21. 188. 132. 102. 4.
      191. 118. 82. 4. 179. 98. 59. 4. 162. 84. 43. 4. 133. 69. 32. 5.
      103. 56. 26. 5. 75. 44. 17. 5. 59. 38. 15. 5. 40. 138. 148. 87.
      62. 145. 145. 85. 80. 149. 143. 81. 99. 146. 140. 72. 121. 142.
      135. 60. 133. 135. 131. 45. 139. 129. 119. 32. 142. 115. 101. 21.
      141. 97. 83. 6. 136. 83. 63. 6. 127. 64. 45. 6. 107. 49. 31. 6.
      86. 37. 22. 7. 61. 27. 15. 7. 41. 19. 7. 7. 28. 14. 8. 8. 14. 109.
      99. 61. 51. 114. 99. 62. 67. 115. 100. 62. 85. 111. 99. 58. 98.
      105. 96. 50. 108. 98. 92. 39. 107. 90. 87. 28. 102. 84. 74. 18.
      95. 71. 61. 8. 89. 58. 48. 8. 79. 42. 34. 9. 68. 29. 25. 9. 53.
      21. 17. 9. 37. 13. 13. 9. 25. 10. 10. 10. 18. 10. 11. 11. 11.</_>
    <_>
      0. 0. 0. 0. 1. 1. 17. 1. 18. 1. 36. 18. 35. 2. 61. 36. 57. 2. 85.
      67. 86. 21. 123. 110. 121. 39. 153. 163. 158. 69. 179. 210. 196.
      116. 185. 222. 216. 184. 184. 220. 221. 225. 169. 203. 217. 241.
      150. 163. 197. 245. 138. 136. 158. 242. 130. 115. 117. 229. 109.
      100. 83. 200. 98. 91. 16. 2. 2. 16. 21. 3. 20. 21. 26. 3. 46. 27.
      46. 3. 75. 47. 66. 3. 106. 77. 92. 19. 150. 116. 126. 33. 186.
      162. 155. 62. 202. 205. 183. 97. 202. 215. 195. 153. 195. 214.
      198. 207. 185. 199. 186. 226. 166. 178. 157. 232. 160. 156. 126.
      227. 153. 144. 92. 212. 137. 130. 66. 175. 122. 114. 19. 4. 20.
      19. 26. 4. 30. 26. 36. 4. 62. 37. 58. 4. 91. 59. 78. 5. 133. 84.
      102. 17. 186. 118. 129. 29. 213. 157. 149. 53. 221. 190. 163. 85.
      219. 204. 170. 129. 216. 207. 162. 174. 209. 197. 147. 204. 197.
      188. 122. 210. 192. 182. 94. 201. 188. 174. 71. 177. 164. 158. 51.
      139. 146. 141. 23. 5. 28. 23. 33. 5. 42. 34. 49. 5. 77. 51. 69. 6.
      113. 71. 89. 6. 161. 96. 111. 16. 211. 128. 133. 24. 227. 154.
      145. 49. 234. 180. 151. 77. 233. 188. 148. 110. 232. 194. 137.
      148. 228. 194. 117. 172. 223. 198. 92. 178. 220. 200. 73. 159.
      213. 198. 55. 135. 193. 187. 35. 106. 169. 161. 27. 6. 38. 30. 43.
      6. 60. 47. 63. 7. 94. 65. 83. 7. 140. 87. 104. 7. 190. 113. 125.
      15. 224. 138. 137. 22. 236. 156. 144. 45. 242. 171. 141. 70. 243.
      178. 132. 102. 243. 187. 115. 132. 243. 192. 95. 148. 239. 204.
      76. 147. 236. 209. 58. 129. 230. 210. 40. 103. 216. 200. 27. 82.
      191. 179. 33. 7. 56. 37. 54. 8. 81. 59. 72. 8. 122. 79. 93. 8.
      170. 104. 117. 8. 212. 131. 134. 9. 231. 152. 142. 17. 241. 162.
      141. 41. 245. 173. 133. 64. 247. 171. 118. 89. 249. 182. 98. 113.
      250. 189. 79. 127. 248. 201. 61. 121. 245. 211. 42. 101. 240. 212.
      29. 81. 227. 205. 20. 63. 208. 182. 41. 9. 78. 49. 61. 9. 108. 68.
      79. 9. 153. 90. 99. 10. 205. 116. 120. 10. 226. 143. 134. 10. 238.
      161. 139. 16. 244. 172. 137. 35. 248. 177. 127. 57. 250. 170. 109.
      78. 252. 176. 90. 95. 253. 182. 72. 103. 252. 191. 56. 96. 251.
      203. 38. 82. 246. 204. 28. 64. 235. 192. 21. 45. 214. 168. 48. 10.
      103. 62. 64. 11. 140. 79. 82. 11. 189. 100. 98. 11. 221. 126. 114.
      11. 235. 149. 128. 12. 242. 166. 131. 15. 246. 179. 128. 30. 248.
      181. 117. 44. 251. 172. 105. 63. 254. 172. 89. 75. 255. 173. 74.
      80. 254. 181. 59. 76. 253. 187. 44. 65. 249. 185. 33. 50. 238.
      171. 26. 35. 217. 147. 50. 22. 134. 75. 65. 23. 173. 90. 80. 23.
      212. 111. 93. 24. 231. 135. 106. 24. 239. 156. 115. 25. 244. 176.
      121. 27. 247. 186. 121. 32. 249. 187. 114. 38. 251. 180. 105. 47.
      254. 171. 93. 55. 255. 166. 81. 56. 255. 165. 67. 53. 253. 167.
      56. 45. 249. 160. 43. 34. 237. 146. 32. 28. 213. 124. 49. 40. 158.
      88. 61. 44. 195. 102. 73. 48. 222. 124. 86. 48. 234. 143. 94. 46.
      239. 161. 105. 46. 243. 183. 113. 44. 245. 193. 119. 43. 247. 193.
      119. 42. 250. 188. 115. 41. 253. 179. 107. 39. 255. 168. 96. 36.
      254. 159. 85. 32. 252. 155. 70. 29. 246. 144. 57. 24. 230. 125.
      43. 22. 196. 101. 41. 65. 176. 98. 50. 73. 206. 109. 63. 80. 223.
      131. 72. 80. 231. 146. 84. 78. 233. 164. 99. 75. 236. 190. 116.
      70. 239. 209. 132. 66. 242. 211. 139. 60. 247. 208. 141. 52. 250.
      196. 136. 40. 252. 185. 123. 29. 251. 165. 105. 22. 248. 151. 87.
      15. 238. 132. 68. 12. 215. 108. 53. 12. 164. 86. 32. 91. 167. 102.
      42. 107. 194. 112. 54. 120. 216. 130. 69. 124. 221. 147. 88. 120.
      220. 169. 111. 111. 223. 203. 138. 103. 226. 219. 157. 92. 229.
      224. 170. 83. 237. 222. 169. 69. 244. 214. 159. 54. 246. 199. 143.
      34. 244. 174. 120. 25. 236. 148. 96. 17. 219. 123. 76. 12. 180.
      95. 57. 13. 129. 74. 28. 119. 149. 95. 37. 145. 177. 104. 52. 164.
      198. 118. 74. 174. 207. 138. 100. 168. 203. 162. 136. 155. 202.
      207. 168. 140. 206. 225. 192. 123. 208. 233. 201. 104. 218. 232.
      196. 87. 228. 225. 183. 66. 232. 210. 155. 45. 227. 180. 127. 31.
      215. 144. 97. 18. 184. 112. 76. 13. 134. 84. 55. 13. 94. 64. 25.
      142. 128. 83. 39. 178. 149. 88. 59. 205. 175. 100. 87. 211. 184.
      124. 125. 209. 181. 156. 165. 194. 175. 206. 206. 177. 167. 228.
      218. 150. 167. 237. 220. 126. 183. 238. 213. 101. 199. 231. 191.
      77. 208. 217. 157. 53. 197. 181. 122. 34. 173. 135. 90. 18. 136.
      101. 68. 13. 97. 72. 48. 14. 67. 52. 25. 151. 107. 67. 47. 191.
      131. 71. 70. 218. 154. 84. 107. 226. 166. 108. 154. 225. 163. 145.
      202. 218. 154. 201. 224. 200. 142. 229. 230. 175. 135. 240. 229.
      142. 140. 241. 219. 112. 152. 234. 193. 85. 160. 217. 152. 58.
      150. 176. 110. 37. 130. 125. 82. 19. 99. 89. 60. 14. 73. 62. 38.
      14. 50. 40. 30. 151. 91. 52. 58. 195. 114. 55. 86. 223. 143. 68.
      133. 233. 159. 97. 189. 235. 160. 139. 224. 228. 146. 199. 237.
      214. 127. 230. 240. 189. 108. 240. 235. 152. 106. 241. 222. 119.
      110. 234. 190. 88. 118. 215. 145. 60. 109. 165. 99. 39. 93. 112.
      71. 20. 74. 81. 51. 14. 54. 51. 31. 15. 31. 31.</_>
    <_>
      0. 0. 0. 0. 24. 1. 1. 25. 37. 1. 1. 37. 49. 2. 2. 58. 60. 2. 2.
      81. 75. 3. 41. 110. 92. 3. 55. 144. 102. 3. 68. 187. 117. 37. 77.
      232. 130. 63. 84. 248. 153. 94. 94. 255. 174. 126. 113. 255. 194.
      162. 136. 253. 204. 195. 172. 246. 203. 222. 204. 236. 196. 237.
      234. 222. 3. 4. 4. 4. 31. 4. 27. 32. 48. 5. 33. 48. 61. 5. 39. 71.
      76. 5. 43. 98. 96. 5. 55. 127. 112. 6. 65. 170. 120. 6. 74. 207.
      127. 35. 83. 240. 139. 59. 93. 250. 150. 86. 103. 255. 164. 117.
      125. 254. 176. 144. 154. 250. 185. 173. 190. 244. 184. 196. 222.
      237. 176. 212. 242. 229. 29. 6. 6. 29. 45. 7. 34. 46. 64. 7. 40.
      64. 82. 7. 49. 92. 101. 7. 54. 119. 121. 8. 65. 154. 133. 8. 70.
      194. 145. 8. 77. 231. 148. 33. 87. 245. 149. 52. 98. 251. 148. 75.
      116. 253. 150. 102. 141. 250. 156. 124. 177. 246. 160. 147. 210.
      239. 158. 169. 239. 233. 153. 183. 249. 230. 63. 46. 53. 67. 72.
      47. 58. 74. 89. 47. 60. 91. 107. 44. 67. 114. 126. 39. 70. 142.
      148. 32. 75. 181. 166. 25. 77. 215. 171. 8. 79. 240. 170. 30. 88.
      247. 160. 45. 102. 249. 149. 66. 124. 248. 141. 88. 162. 244. 140.
      106. 197. 238. 142. 122. 234. 230. 140. 134. 247. 226. 138. 146.
      254. 226. 90. 66. 78. 99. 97. 68. 79. 104. 115. 68. 80. 118. 130.
      63. 82. 137. 156. 55. 85. 170. 178. 46. 86. 198. 191. 35. 83. 229.
      192. 9. 78. 241. 184. 26. 86. 243. 168. 38. 106. 242. 151. 56.
      133. 240. 137. 72. 178. 233. 132. 87. 220. 223. 132. 99. 242. 213.
      131. 109. 251. 210. 130. 116. 255. 213. 116. 84. 109. 131. 123.
      90. 105. 135. 139. 89. 101. 147. 162. 81. 98. 169. 185. 69. 97.
      193. 198. 57. 93. 214. 206. 42. 87. 233. 201. 9. 76. 236. 190. 23.
      83. 235. 172. 32. 109. 231. 155. 44. 143. 223. 142. 56. 188. 215.
      135. 66. 229. 208. 133. 73. 245. 203. 130. 80. 251. 200. 128. 83.
      253. 199. 135. 100. 138. 172. 147. 105. 129. 173. 167. 103. 121.
      181. 186. 96. 116. 193. 199. 82. 107. 207. 211. 66. 95. 221. 209.
      50. 86. 226. 201. 9. 73. 224. 189. 22. 81. 217. 174. 29. 108. 209.
      165. 40. 144. 208. 157. 49. 188. 209. 152. 56. 225. 208. 145. 61.
      241. 204. 137. 64. 245. 195. 129. 63. 246. 187. 150. 111. 174.
      202. 165. 115. 159. 199. 183. 114. 143. 200. 196. 105. 127. 207.
      206. 91. 115. 214. 208. 72. 95. 218. 203. 54. 81. 213. 194. 9. 64.
      206. 185. 10. 75. 202. 179. 27. 103. 205. 177. 36. 136. 211. 175.
      43. 176. 220. 169. 50. 205. 217. 155. 53. 224. 204. 140. 53. 228.
      190. 126. 52. 223. 171. 150. 110. 201. 228. 166. 114. 186. 220.
      183. 113. 165. 216. 193. 104. 141. 216. 198. 90. 120. 217. 197.
      71. 95. 211. 191. 54. 77. 207. 183. 10. 57. 202. 181. 10. 70. 205.
      186. 26. 96. 215. 191. 35. 125. 226. 189. 40. 157. 228. 179. 48.
      180. 221. 160. 50. 189. 199. 138. 51. 187. 178. 119. 49. 177. 152.
      137. 103. 225. 236. 154. 110. 200. 227. 170. 110. 181. 220. 182.
      101. 152. 215. 186. 89. 124. 212. 182. 71. 96. 209. 173. 54. 74.
      212. 173. 26. 51. 219. 180. 22. 62. 227. 191. 25. 85. 234. 197.
      31. 111. 236. 194. 38. 128. 232. 180. 41. 145. 213. 155. 44. 148.
      190. 128. 45. 143. 160. 107. 43. 131. 128. 120. 99. 235. 237. 135.
      104. 212. 227. 152. 104. 188. 218. 164. 98. 158. 214. 167. 88.
      126. 219. 164. 71. 95. 224. 163. 55. 73. 233. 168. 33. 42. 238.
      180. 23. 53. 241. 192. 23. 70. 242. 195. 26. 92. 239. 188. 31.
      105. 225. 169. 35. 115. 196. 139. 36. 117. 167. 117. 37. 111. 132.
      91. 36. 100. 108. 119. 108. 237. 235. 131. 113. 214. 225. 146.
      112. 189. 219. 155. 106. 158. 221. 158. 94. 125. 230. 156. 78. 93.
      238. 157. 62. 69. 244. 165. 42. 39. 247. 174. 28. 41. 247. 184.
      23. 57. 243. 184. 24. 69. 234. 171. 25. 80. 203. 146. 27. 85. 172.
      121. 28. 84. 136. 99. 29. 76. 112. 74. 27. 69. 87. 125. 122. 232.
      231. 139. 123. 206. 221. 153. 123. 182. 219. 161. 118. 149. 228.
      163. 106. 119. 239. 159. 91. 88. 246. 157. 72. 65. 251. 161. 51.
      34. 252. 166. 34. 32. 248. 168. 10. 41. 241. 162. 11. 52. 216.
      144. 11. 59. 179. 123. 11. 60. 140. 101. 11. 59. 112. 79. 12. 56.
      84. 58. 12. 50. 61. 151. 142. 218. 223. 166. 141. 193. 216. 175.
      138. 167. 222. 179. 129. 134. 235. 175. 118. 111. 244. 168. 100.
      78. 250. 159. 80. 59. 254. 154. 58. 28. 252. 151. 38. 24. 245.
      145. 12. 28. 230. 134. 12. 34. 192. 120. 13. 38. 149. 102. 13. 40.
      118. 82. 13. 39. 90. 62. 13. 36. 65. 44. 14. 33. 47. 185. 163.
      197. 210. 195. 159. 175. 211. 200. 153. 147. 227. 198. 143. 121.
      240. 192. 127. 97. 248. 177. 109. 67. 252. 161. 89. 52. 254. 146.
      62. 24. 249. 134. 43. 14. 238. 124. 14. 14. 202. 113. 15. 15. 163.
      97. 15. 15. 122. 79. 16. 16. 94. 61. 16. 16. 68. 46. 17. 17. 47.
      30. 17. 17. 30. 217. 178. 182. 201. 229. 171. 156. 210. 231. 164.
      129. 232. 224. 151. 108. 243. 205. 133. 85. 249. 187. 114. 57.
      253. 161. 93. 42. 252. 136. 67. 18. 243. 122. 48. 18. 218. 107.
      18. 18. 176. 92. 19. 19. 132. 76. 19. 19. 100. 60. 20. 20. 73. 45.
      20. 20. 51. 30. 21. 21. 31. 21. 21. 22. 22.</_>
    <_>
      9. 9. 0. 19. 14. 16. 8. 28. 20. 22. 10. 37. 26. 29. 13. 42. 29.
      35. 15. 46. 30. 36. 16. 48. 28. 33. 15. 55. 28. 29. 12. 68. 35.
      32. 10. 88. 51. 45. 7. 103. 73. 64. 0. 116. 94. 84. 13. 122. 112.
      97. 21. 120. 126. 108. 34. 112. 136. 115. 42. 98. 141. 118. 53.
      83. 27. 11. 0. 58. 40. 21. 12. 73. 50. 33. 18. 87. 58. 41. 25. 98.
      64. 47. 31. 105. 62. 49. 34. 112. 54. 44. 31. 120. 51. 40. 24.
      132. 56. 42. 17. 144. 74. 59. 11. 158. 97. 84. 0. 164. 122. 104.
      20. 164. 140. 123. 35. 156. 156. 135. 49. 142. 168. 142. 65. 125.
      178. 146. 79. 105. 56. 13. 25. 90. 74. 30. 35. 109. 86. 41. 41.
      129. 95. 53. 46. 143. 99. 61. 50. 153. 93. 64. 50. 162. 84. 57.
      44. 173. 74. 52. 36. 183. 76. 55. 24. 195. 92. 76. 15. 204. 118.
      100. 1. 206. 143. 125. 28. 200. 165. 143. 45. 190. 184. 159. 66.
      172. 197. 171. 86. 150. 206. 179. 103. 132. 93. 16. 58. 135. 110.
      36. 63. 157. 124. 48. 67. 180. 134. 62. 70. 197. 135. 72. 71. 209.
      125. 75. 67. 217. 107. 68. 58. 223. 94. 60. 45. 228. 92. 65. 32.
      234. 107. 85. 19. 235. 135. 108. 1. 234. 161. 138. 38. 227. 185.
      158. 60. 214. 203. 176. 86. 196. 216. 189. 109. 177. 226. 199.
      131. 159. 133. 29. 113. 177. 148. 43. 108. 202. 163. 55. 104. 225.
      170. 68. 99. 236. 166. 77. 91. 240. 152. 79. 83. 242. 132. 72. 71.
      244. 108. 65. 53. 245. 102. 67. 37. 246. 115. 87. 22. 244. 140.
      111. 15. 242. 167. 140. 54. 236. 190. 160. 83. 224. 209. 180. 112.
      207. 222. 194. 139. 192. 231. 207. 161. 181. 171. 66. 161. 212.
      188. 70. 151. 234. 199. 74. 140. 243. 203. 78. 127. 249. 195. 80.
      113. 252. 177. 79. 95. 254. 145. 69. 77. 253. 119. 60. 56. 252.
      105. 63. 38. 250. 114. 81. 26. 247. 138. 101. 25. 242. 163. 130.
      68. 235. 185. 149. 100. 224. 204. 168. 133. 211. 219. 186. 161.
      205. 227. 199. 188. 201. 208. 116. 208. 234. 221. 111. 193. 244.
      227. 104. 174. 251. 226. 96. 151. 254. 215. 88. 128. 255. 191. 76.
      101. 255. 155. 61. 78. 254. 119. 52. 53. 252. 100. 51. 34. 248.
      103. 66. 26. 243. 127. 85. 38. 236. 151. 107. 83. 228. 175. 127.
      117. 218. 193. 144. 150. 213. 209. 162. 183. 214. 219. 179. 210.
      218. 235. 160. 235. 239. 239. 154. 222. 247. 241. 144. 197. 253.
      238. 134. 169. 255. 231. 118. 139. 255. 205. 102. 102. 254. 166.
      88. 75. 250. 130. 78. 46. 246. 106. 71. 26. 239. 106. 72. 23. 233.
      126. 77. 44. 225. 146. 90. 91. 219. 168. 102. 128. 216. 186. 117.
      163. 219. 198. 133. 195. 222. 208. 145. 221. 227. 243. 198. 242.
      238. 247. 192. 232. 245. 248. 181. 210. 250. 245. 166. 178. 251.
      237. 150. 141. 250. 221. 137. 100. 246. 184. 124. 67. 240. 148.
      115. 39. 231. 130. 106. 18. 220. 124. 99. 21. 212. 138. 89. 49.
      213. 153. 84. 94. 217. 171. 82. 131. 222. 184. 87. 165. 226. 193.
      96. 196. 228. 196. 109. 220. 230. 248. 223. 241. 230. 251. 215.
      230. 237. 252. 207. 206. 241. 249. 194. 173. 241. 243. 182. 136.
      237. 233. 168. 92. 229. 206. 159. 57. 211. 176. 150. 30. 193. 158.
      141. 10. 188. 148. 130. 18. 196. 153. 113. 48. 211. 164. 92. 88.
      223. 176. 75. 122. 229. 184. 63. 152. 232. 187. 61. 180. 230. 186.
      69. 201. 226. 249. 228. 232. 204. 253. 223. 214. 211. 253. 217.
      188. 216. 251. 210. 154. 213. 246. 202. 121. 200. 238. 194. 80.
      181. 225. 189. 46. 160. 203. 183. 22. 153. 187. 173. 1. 165. 175.
      157. 14. 192. 169. 137. 41. 215. 174. 111. 75. 229. 178. 87. 103.
      233. 180. 64. 131. 231. 178. 50. 152. 224. 172. 47. 170. 212. 244.
      218. 201. 165. 247. 214. 181. 169. 249. 210. 156. 171. 248. 209.
      127. 164. 245. 207. 97. 149. 239. 205. 61. 132. 233. 203. 36. 120.
      217. 199. 17. 129. 202. 189. 1. 155. 187. 173. 10. 189. 176. 147.
      32. 213. 169. 121. 56. 224. 166. 91. 80. 225. 163. 62. 101. 218.
      157. 39. 118. 204. 147. 24. 133. 185. 232. 191. 159. 122. 237.
      190. 141. 123. 240. 191. 121. 120. 240. 192. 96. 113. 238. 194.
      73. 98. 236. 198. 43. 85. 229. 200. 24. 86. 216. 198. 12. 111.
      201. 190. 2. 144. 185. 174. 8. 177. 167. 147. 21. 197. 155. 119.
      39. 205. 145. 89. 54. 202. 139. 60. 70. 191. 129. 37. 82. 172.
      117. 22. 89. 147. 195. 151. 110. 81. 208. 152. 96. 81. 215. 157.
      82. 77. 220. 162. 63. 71. 221. 170. 45. 59. 220. 179. 27. 54. 212.
      182. 14. 70. 200. 182. 9. 97. 187. 175. 2. 128. 167. 158. 2. 154.
      148. 137. 11. 170. 134. 107. 17. 175. 121. 80. 23. 167. 109. 52.
      31. 154. 99. 30. 37. 136. 89. 19. 40. 115. 149. 110. 69. 47. 162.
      114. 57. 48. 172. 119. 44. 47. 179. 129. 32. 43. 183. 139. 20. 38.
      186. 146. 8. 39. 182. 155. 2. 55. 174. 156. 3. 82. 160. 149. 3.
      106. 143. 136. 3. 126. 124. 116. 8. 138. 105. 90. 12. 137. 90. 65.
      16. 128. 76. 42. 20. 114. 62. 23. 23. 94. 52. 14. 27. 73. 101. 57.
      33. 3. 114. 66. 27. 4. 123. 79. 19. 4. 134. 91. 13. 4. 142. 104.
      9. 4. 146. 117. 5. 18. 145. 125. 5. 40. 142. 126. 5. 59. 131. 123.
      5. 81. 116. 110. 6. 93. 95. 93. 6. 98. 78. 72. 6. 95. 59. 49. 6.
      85. 43. 31. 7. 69. 33. 17. 7. 51. 25. 11. 7. 34.</_>
    <_>
      93. 38. 138. 115. 139. 59. 123. 129. 173. 96. 91. 123. 196. 153.
      64. 99. 210. 190. 42. 72. 224. 208. 26. 54. 234. 223. 11. 40. 240.
      233. 3. 26. 244. 239. 3. 17. 246. 242. 4. 10. 247. 241. 14. 5.
      240. 239. 31. 9. 230. 237. 50. 16. 218. 236. 77. 25. 202. 234.
      130. 35. 184. 235. 166. 44. 101. 46. 187. 113. 142. 63. 174. 125.
      173. 96. 144. 122. 196. 149. 90. 106. 213. 185. 56. 83. 229. 205.
      35. 67. 241. 222. 18. 49. 247. 235. 8. 35. 249. 242. 6. 24. 249.
      245. 8. 14. 249. 244. 18. 9. 243. 242. 39. 19. 231. 239. 62. 29.
      217. 238. 109. 43. 199. 238. 163. 58. 178. 240. 195. 75. 98. 56.
      216. 102. 132. 68. 201. 115. 162. 91. 180. 117. 189. 138. 132.
      109. 207. 177. 74. 96. 225. 199. 47. 80. 238. 215. 27. 64. 244.
      226. 16. 46. 247. 233. 12. 30. 246. 237. 13. 23. 243. 235. 23. 20.
      234. 232. 47. 33. 222. 229. 78. 48. 204. 227. 146. 70. 186. 227.
      193. 101. 155. 229. 219. 141. 95. 74. 241. 87. 123. 77. 221. 98.
      150. 92. 198. 106. 180. 127. 161. 112. 201. 162. 102. 114. 218.
      188. 61. 107. 226. 202. 40. 82. 230. 212. 28. 58. 228. 216. 21.
      41. 226. 217. 20. 32. 222. 215. 29. 34. 217. 211. 55. 52. 207.
      209. 105. 78. 194. 206. 174. 129. 170. 205. 208. 166. 134. 205.
      243. 193. 91. 105. 251. 75. 112. 95. 234. 84. 136. 101. 209. 95.
      164. 120. 182. 110. 190. 148. 140. 123. 204. 172. 86. 125. 210.
      185. 56. 100. 208. 192. 42. 69. 203. 191. 32. 48. 200. 188. 30.
      43. 197. 183. 41. 48. 195. 180. 73. 76. 187. 178. 143. 133. 172.
      175. 196. 176. 146. 172. 229. 198. 116. 169. 254. 215. 99. 126.
      253. 77. 111. 110. 244. 83. 126. 107. 219. 94. 148. 116. 197. 112.
      175. 135. 171. 130. 190. 152. 131. 137. 192. 161. 81. 121. 184.
      156. 60. 86. 175. 145. 45. 67. 165. 133. 42. 65. 164. 121. 53. 78.
      167. 114. 98. 133. 166. 111. 168. 178. 158. 106. 207. 200. 144.
      100. 246. 217. 128. 92. 255. 231. 101. 110. 254. 87. 100. 93. 249.
      87. 103. 88. 230. 93. 118. 90. 211. 109. 140. 103. 195. 129. 154.
      114. 170. 142. 150. 113. 125. 137. 136. 94. 81. 118. 118. 75. 60.
      103. 113. 64. 53. 112. 122. 56. 70. 140. 142. 53. 124. 177. 152.
      52. 181. 200. 154. 50. 214. 215. 149. 47. 248. 225. 145. 46. 255.
      233. 104. 82. 254. 119. 93. 74. 252. 107. 89. 72. 245. 107. 97.
      73. 228. 117. 114. 80. 213. 136. 126. 85. 194. 151. 120. 82. 155.
      156. 106. 70. 111. 155. 94. 55. 71. 157. 102. 46. 64. 169. 124.
      39. 84. 184. 148. 34. 139. 199. 163. 32. 183. 212. 169. 28. 210.
      219. 166. 25. 236. 222. 163. 20. 252. 223. 119. 70. 255. 146. 98.
      65. 254. 127. 85. 63. 250. 116. 84. 63. 245. 120. 89. 66. 226.
      139. 96. 66. 203. 157. 92. 62. 175. 176. 86. 52. 130. 186. 86. 41.
      81. 197. 103. 33. 69. 204. 132. 26. 88. 214. 155. 22. 134. 220.
      169. 18. 174. 223. 171. 15. 198. 220. 165. 12. 214. 213. 160. 8.
      227. 204. 128. 95. 255. 159. 99. 80. 253. 137. 84. 72. 251. 122.
      82. 69. 248. 127. 88. 68. 232. 148. 99. 66. 206. 174. 105. 62.
      177. 195. 109. 54. 132. 209. 116. 45. 83. 224. 133. 37. 67. 236.
      153. 28. 79. 240. 167. 22. 108. 237. 173. 15. 143. 228. 167. 11.
      168. 216. 153. 6. 183. 200. 137. 0. 191. 186. 140. 158. 253. 154.
      117. 142. 250. 135. 104. 124. 247. 128. 108. 105. 237. 141. 119.
      90. 220. 168. 131. 80. 197. 193. 138. 71. 162. 211. 141. 63. 117.
      230. 143. 50. 72. 248. 149. 40. 61. 252. 159. 31. 65. 251. 164.
      23. 73. 245. 161. 15. 87. 225. 147. 10. 108. 203. 121. 5. 120.
      182. 91. 0. 124. 150. 149. 201. 238. 125. 138. 193. 228. 113. 134.
      179. 221. 119. 143. 160. 213. 146. 152. 139. 198. 181. 161. 115.
      170. 202. 164. 90. 128. 224. 162. 71. 85. 246. 156. 55. 61. 252.
      152. 43. 49. 253. 151. 31. 49. 250. 145. 21. 51. 236. 131. 13. 54.
      212. 104. 8. 58. 186. 75. 4. 59. 147. 59. 0. 55. 97. 157. 227.
      209. 77. 154. 218. 201. 79. 159. 205. 196. 100. 167. 194. 183.
      144. 176. 172. 158. 185. 179. 144. 115. 210. 179. 111. 76. 231.
      173. 79. 61. 248. 160. 60. 47. 251. 145. 43. 41. 250. 130. 30. 39.
      239. 108. 19. 37. 216. 83. 10. 37. 191. 65. 6. 38. 147. 48. 2. 37.
      88. 36. 0. 34. 57. 158. 241. 178. 51. 165. 232. 168. 60. 176. 221.
      153. 81. 184. 206. 131. 136. 188. 188. 92. 185. 187. 157. 66. 212.
      182. 118. 52. 231. 171. 79. 45. 242. 150. 58. 38. 243. 126. 40.
      33. 232. 97. 27. 27. 214. 73. 16. 25. 191. 57. 7. 21. 151. 45. 4.
      17. 89. 34. 2. 16. 57. 24. 1. 13. 39. 147. 235. 134. 29. 165. 233.
      122. 44. 180. 225. 102. 67. 189. 211. 76. 121. 192. 192. 59. 181.
      187. 159. 44. 206. 177. 110. 36. 221. 156. 71. 32. 224. 129. 51.
      30. 218. 89. 35. 27. 202. 68. 24. 23. 181. 49. 12. 17. 141. 38. 5.
      14. 85. 26. 3. 11. 53. 19. 1. 9. 36. 12. 1. 7. 22. 135. 220. 78.
      15. 160. 223. 74. 33. 179. 219. 68. 57. 189. 207. 54. 104. 190.
      189. 42. 170. 182. 151. 29. 199. 163. 94. 24. 208. 135. 62. 21.
      203. 97. 44. 22. 194. 69. 28. 20. 171. 50. 19. 17. 127. 36. 11.
      13. 76. 25. 3. 10. 51. 14. 2. 7. 31. 9. 1. 6. 18. 5. 2. 4. 7.</_>
    <_>
      42. 35. 0. 75. 49. 47. 0. 70. 56. 53. 0. 61. 60. 60. 0. 54. 66.
      65. 1. 52. 72. 71. 1. 59. 79. 77. 1. 69. 91. 86. 13. 77. 105. 94.
      14. 78. 122. 102. 16. 69. 131. 100. 18. 54. 131. 91. 20. 37. 122.
      79. 23. 22. 107. 67. 25. 1. 94. 54. 28. 2. 83. 47. 30. 2. 64. 51.
      46. 113. 73. 65. 35. 105. 84. 80. 29. 94. 94. 92. 21. 84. 105.
      102. 16. 82. 113. 110. 2. 88. 123. 119. 2. 99. 134. 126. 15. 109.
      152. 133. 20. 108. 173. 140. 26. 96. 184. 138. 32. 75. 185. 128.
      35. 52. 179. 115. 39. 29. 161. 100. 42. 3. 145. 90. 47. 3. 127.
      83. 49. 3. 91. 85. 82. 158. 101. 97. 71. 150. 116. 112. 59. 134.
      132. 130. 48. 121. 145. 143. 36. 113. 155. 152. 25. 117. 165. 158.
      18. 130. 180. 163. 20. 142. 195. 172. 26. 141. 213. 178. 34. 122.
      224. 176. 45. 93. 228. 162. 51. 64. 225. 150. 57. 38. 216. 135.
      62. 23. 204. 127. 72. 28. 184. 123. 80. 33. 115. 133. 131. 205.
      128. 145. 112. 193. 147. 160. 95. 177. 168. 180. 76. 156. 185.
      189. 58. 146. 197. 197. 38. 144. 205. 199. 25. 155. 212. 198. 26.
      170. 221. 199. 33. 164. 232. 202. 46. 143. 239. 200. 56. 106. 243.
      191. 67. 75. 244. 182. 76. 50. 241. 174. 88. 41. 234. 168. 101.
      53. 224. 170. 118. 66. 135. 191. 186. 226. 149. 200. 165. 218.
      170. 211. 141. 206. 189. 217. 113. 186. 208. 222. 87. 171. 216.
      222. 59. 161. 220. 218. 36. 172. 223. 212. 33. 182. 229. 209. 36.
      177. 235. 208. 51. 151. 243. 206. 63. 114. 248. 202. 81. 83. 251.
      198. 95. 62. 250. 194. 116. 65. 245. 197. 140. 87. 240. 206. 169.
      106. 146. 232. 227. 231. 156. 233. 213. 226. 177. 235. 188. 214.
      196. 238. 155. 196. 212. 236. 121. 179. 220. 231. 86. 166. 221.
      223. 57. 167. 220. 210. 44. 175. 221. 197. 40. 165. 228. 191. 53.
      142. 237. 189. 65. 107. 243. 190. 90. 87. 248. 192. 110. 79. 250.
      199. 142. 95. 248. 209. 181. 130. 243. 219. 215. 160. 144. 246.
      239. 224. 151. 246. 232. 218. 166. 247. 218. 207. 185. 245. 192.
      186. 203. 242. 154. 165. 213. 231. 114. 148. 214. 215. 77. 143.
      208. 187. 57. 144. 200. 164. 46. 136. 201. 154. 50. 120. 214. 152.
      59. 96. 227. 158. 91. 92. 236. 169. 122. 104. 240. 181. 166. 138.
      240. 198. 214. 183. 237. 216. 238. 217. 132. 252. 241. 205. 137.
      252. 237. 195. 151. 252. 230. 181. 175. 249. 213. 157. 195. 242.
      182. 137. 211. 229. 140. 119. 212. 202. 100. 106. 204. 160. 72.
      106. 187. 133. 50. 100. 177. 124. 47. 93. 178. 121. 50. 89. 189.
      129. 88. 107. 209. 136. 126. 143. 217. 151. 180. 190. 221. 173.
      228. 229. 219. 194. 249. 244. 112. 245. 232. 167. 120. 247. 230.
      156. 136. 249. 227. 142. 166. 246. 215. 124. 200. 239. 194. 103.
      220. 222. 157. 85. 227. 188. 119. 74. 222. 149. 86. 70. 207. 125.
      58. 67. 184. 117. 44. 74. 168. 116. 39. 93. 163. 119. 81. 137.
      175. 120. 124. 188. 184. 127. 183. 230. 190. 139. 231. 246. 191.
      154. 253. 254. 89. 229. 205. 118. 98. 233. 210. 109. 123. 236.
      211. 99. 161. 235. 207. 85. 209. 230. 190. 70. 233. 210. 164. 55.
      242. 179. 129. 42. 242. 150. 95. 37. 233. 138. 66. 44. 216. 138.
      45. 69. 192. 139. 32. 108. 174. 133. 74. 171. 162. 125. 114. 223.
      161. 117. 173. 244. 167. 112. 225. 254. 170. 117. 248. 255. 67.
      180. 149. 82. 81. 193. 160. 76. 111. 206. 173. 68. 159. 211. 178.
      56. 215. 204. 174. 43. 241. 187. 153. 31. 250. 171. 126. 18. 253.
      159. 96. 15. 249. 163. 68. 34. 240. 176. 45. 74. 225. 178. 27.
      128. 203. 169. 61. 194. 183. 148. 98. 234. 171. 125. 147. 253.
      163. 103. 203. 255. 162. 90. 235. 255. 46. 115. 97. 52. 62. 131.
      109. 48. 98. 146. 125. 40. 149. 157. 134. 32. 210. 159. 137. 24.
      239. 156. 129. 17. 252. 155. 108. 3. 254. 164. 87. 4. 253. 183.
      63. 38. 247. 199. 43. 80. 238. 204. 27. 134. 219. 192. 51. 201.
      196. 169. 78. 236. 176. 135. 116. 251. 159. 104. 157. 254. 153.
      79. 201. 255. 29. 64. 58. 27. 49. 78. 73. 26. 82. 92. 84. 23. 128.
      103. 96. 19. 185. 111. 102. 15. 228. 121. 99. 14. 244. 132. 89. 4.
      251. 153. 73. 4. 251. 181. 55. 38. 245. 201. 37. 77. 237. 208. 25.
      129. 219. 196. 39. 186. 193. 172. 57. 226. 168. 135. 83. 241. 150.
      101. 110. 247. 140. 73. 141. 250. 4. 30. 30. 5. 33. 41. 41. 5. 61.
      53. 52. 5. 99. 64. 62. 5. 145. 75. 68. 6. 193. 90. 69. 6. 224.
      105. 63. 6. 234. 132. 55. 6. 238. 158. 43. 34. 234. 182. 31. 68.
      223. 188. 21. 108. 202. 179. 28. 154. 174. 152. 37. 195. 144. 123.
      54. 217. 126. 92. 72. 225. 115. 66. 89. 226. 7. 16. 16. 7. 24. 22.
      22. 7. 45. 29. 28. 7. 71. 36. 34. 8. 104. 48. 40. 8. 141. 61. 43.
      8. 176. 81. 41. 8. 198. 104. 35. 9. 207. 130. 31. 30. 203. 147.
      24. 56. 187. 153. 17. 88. 162. 146. 19. 120. 139. 127. 23. 148.
      114. 102. 32. 167. 97. 76. 39. 175. 86. 55. 49. 172. 9. 9. 9. 10.
      18. 13. 13. 10. 31. 15. 14. 10. 48. 19. 17. 10. 70. 27. 19. 11.
      93. 40. 21. 11. 118. 58. 22. 11. 136. 78. 21. 11. 147. 98. 20. 24.
      148. 111. 17. 42. 139. 118. 14. 63. 124. 110. 13. 84. 103. 97. 12.
      101. 85. 80. 12. 109. 71. 60. 12. 111. 60. 44. 12. 107.</_>
    <_>
      77. 29. 16. 94. 88. 39. 13. 100. 99. 54. 10. 104. 113. 74. 7. 100.
      130. 96. 5. 83. 143. 119. 0. 62. 152. 141. 0. 38. 156. 152. 0. 25.
      160. 158. 12. 9. 161. 158. 20. 0. 158. 153. 29. 1. 153. 140. 37.
      4. 144. 122. 43. 6. 133. 102. 45. 7. 121. 89. 43. 9. 111. 78. 40.
      11. 103. 34. 40. 135. 115. 47. 32. 142. 128. 64. 24. 141. 144. 83.
      17. 128. 156. 107. 12. 102. 173. 138. 7. 77. 182. 163. 11. 50.
      191. 178. 15. 35. 196. 190. 22. 25. 197. 190. 30. 21. 194. 183.
      37. 19. 187. 171. 48. 17. 179. 153. 57. 15. 170. 135. 60. 18. 162.
      115. 62. 20. 154. 104. 63. 26. 141. 40. 76. 189. 150. 53. 58. 188.
      160. 72. 41. 178. 172. 94. 29. 157. 183. 121. 22. 123. 198. 153.
      16. 93. 208. 177. 20. 67. 217. 194. 23. 55. 221. 204. 31. 44. 222.
      208. 39. 38. 220. 203. 47. 31. 217. 197. 60. 27. 210. 182. 68. 24.
      204. 167. 77. 27. 198. 155. 83. 34. 193. 148. 92. 44. 164. 41.
      132. 228. 167. 55. 97. 220. 173. 73. 70. 202. 179. 95. 48. 176.
      188. 119. 35. 139. 200. 149. 26. 105. 213. 171. 28. 88. 223. 185.
      32. 80. 227. 199. 42. 69. 228. 205. 50. 61. 226. 207. 58. 47. 223.
      207. 68. 36. 217. 202. 80. 33. 211. 198. 92. 41. 205. 195. 108.
      55. 200. 192. 132. 75. 158. 37. 213. 243. 160. 51. 156. 232. 163.
      70. 108. 212. 170. 90. 77. 180. 179. 112. 56. 146. 196. 138. 37.
      118. 210. 156. 39. 107. 223. 169. 44. 104. 229. 180. 52. 97. 229.
      192. 63. 85. 226. 199. 66. 66. 219. 208. 79. 53. 206. 213. 91. 49.
      196. 213. 109. 65. 183. 215. 145. 87. 176. 214. 186. 120. 128. 35.
      249. 249. 131. 49. 218. 237. 138. 68. 160. 214. 150. 89. 109. 181.
      164. 110. 81. 149. 184. 131. 54. 129. 201. 143. 50. 125. 217. 150.
      52. 128. 225. 157. 59. 116. 226. 175. 68. 101. 224. 190. 73. 81.
      210. 206. 86. 69. 187. 218. 102. 70. 165. 222. 137. 93. 144. 223.
      186. 131. 130. 218. 232. 188. 91. 40. 253. 251. 97. 55. 241. 238.
      107. 74. 201. 212. 127. 94. 149. 178. 147. 112. 105. 147. 166.
      124. 71. 126. 181. 129. 59. 125. 195. 127. 56. 127. 203. 129. 57.
      115. 207. 147. 66. 103. 202. 166. 71. 86. 188. 192. 90. 84. 163.
      212. 113. 95. 136. 218. 159. 132. 106. 215. 220. 187. 91. 200.
      248. 238. 61. 65. 254. 250. 71. 72. 246. 233. 85. 88. 219. 200.
      103. 101. 171. 165. 124. 116. 123. 135. 143. 121. 82. 109. 154.
      116. 63. 103. 161. 110. 51. 101. 168. 106. 46. 95. 172. 120. 56.
      92. 170. 140. 64. 84. 157. 164. 89. 98. 137. 185. 122. 124. 107.
      191. 180. 177. 84. 184. 236. 231. 65. 163. 252. 252. 47. 109. 253.
      242. 61. 108. 244. 216. 79. 115. 221. 176. 99. 125. 178. 139. 117.
      134. 134. 108. 134. 130. 87. 86. 140. 122. 63. 78. 142. 111. 45.
      72. 145. 104. 34. 67. 148. 110. 42. 74. 148. 120. 51. 82. 139.
      136. 84. 111. 118. 145. 127. 161. 96. 145. 193. 220. 73. 135. 242.
      249. 53. 112. 254. 254. 50. 189. 251. 216. 70. 174. 238. 174. 94.
      168. 212. 137. 119. 169. 173. 105. 146. 172. 130. 83. 162. 165.
      88. 62. 166. 159. 60. 51. 165. 152. 39. 45. 167. 142. 26. 46. 168.
      140. 31. 62. 166. 138. 42. 82. 157. 133. 76. 129. 141. 124. 117.
      191. 114. 110. 184. 240. 92. 96. 239. 252. 72. 78. 253. 255. 69.
      241. 243. 154. 93. 226. 224. 118. 120. 215. 193. 95. 155. 209.
      155. 75. 185. 209. 117. 57. 204. 206. 81. 38. 211. 207. 54. 30.
      210. 204. 33. 26. 211. 197. 19. 31. 209. 189. 21. 48. 205. 174.
      30. 80. 194. 149. 61. 136. 175. 122. 98. 201. 146. 99. 154. 244.
      116. 79. 221. 254. 97. 60. 250. 255. 87. 251. 230. 93. 112. 242.
      206. 74. 151. 231. 171. 58. 190. 225. 137. 44. 219. 227. 100. 33.
      234. 229. 71. 22. 239. 235. 46. 17. 240. 238. 29. 14. 241. 237.
      17. 25. 239. 230. 16. 43. 234. 216. 22. 73. 224. 179. 45. 126.
      203. 139. 75. 195. 177. 101. 113. 241. 148. 76. 174. 253. 123. 52.
      227. 255. 99. 250. 209. 52. 132. 243. 182. 43. 175. 234. 151. 33.
      214. 231. 114. 27. 235. 234. 85. 20. 245. 240. 59. 13. 248. 245.
      36. 10. 249. 247. 24. 11. 250. 248. 15. 21. 248. 245. 12. 36. 245.
      236. 16. 64. 239. 208. 32. 106. 225. 162. 53. 169. 202. 113. 82.
      230. 177. 81. 118. 251. 152. 57. 168. 255. 98. 236. 169. 28. 131.
      228. 151. 24. 172. 222. 123. 19. 211. 222. 96. 14. 232. 227. 69.
      10. 243. 236. 46. 6. 247. 242. 30. 4. 247. 246. 19. 8. 247. 246.
      12. 18. 246. 244. 8. 28. 244. 237. 9. 49. 237. 215. 23. 87. 224.
      173. 35. 136. 205. 126. 54. 199. 181. 90. 80. 240. 161. 65. 106.
      252. 86. 186. 125. 14. 111. 182. 114. 11. 150. 181. 98. 9. 186.
      189. 78. 6. 214. 199. 56. 4. 228. 216. 36. 1. 233. 225. 23. 1.
      235. 231. 13. 6. 235. 233. 8. 13. 232. 230. 5. 21. 229. 221. 1.
      38. 219. 196. 15. 66. 203. 159. 23. 100. 184. 119. 34. 151. 164.
      89. 49. 201. 146. 64. 67. 233. 67. 121. 91. 2. 90. 126. 85. 2.
      114. 134. 75. 2. 144. 143. 59. 2. 167. 155. 41. 3. 185. 170. 27.
      3. 194. 183. 18. 3. 198. 191. 7. 5. 197. 195. 5. 8. 193. 192. 4.
      14. 187. 180. 3. 28. 176. 159. 10. 48. 162. 133. 18. 76. 147. 102.
      25. 105. 133. 79. 32. 142. 117. 58. 42. 175.</_>
    <_>
      0. 0. 0. 32. 0. 1. 1. 51. 1. 1. 2. 73. 2. 2. 2. 94. 3. 3. 3. 120.
      29. 3. 4. 150. 30. 4. 4. 179. 49. 41. 4. 204. 71. 67. 5. 223. 99.
      92. 5. 232. 133. 119. 53. 234. 162. 144. 78. 231. 186. 162. 98.
      219. 203. 177. 118. 200. 212. 185. 136. 176. 215. 191. 150. 158.
      34. 32. 5. 81. 39. 34. 5. 93. 41. 36. 6. 113. 45. 37. 6. 136. 43.
      36. 6. 160. 43. 33. 6. 187. 42. 30. 7. 214. 54. 44. 7. 230. 77.
      70. 7. 241. 105. 96. 30. 246. 138. 123. 65. 245. 166. 151. 93.
      237. 189. 171. 120. 227. 206. 184. 146. 208. 214. 195. 168. 185.
      216. 200. 184. 168. 69. 38. 7. 108. 71. 41. 8. 127. 72. 46. 8.
      150. 70. 48. 8. 174. 66. 43. 8. 198. 61. 39. 9. 220. 56. 34. 9.
      234. 61. 46. 9. 245. 81. 71. 9. 252. 106. 96. 40. 253. 138. 124.
      79. 250. 163. 153. 113. 243. 186. 171. 145. 229. 200. 186. 175.
      211. 209. 197. 199. 191. 211. 204. 216. 177. 90. 45. 73. 143. 94.
      50. 66. 164. 95. 54. 59. 187. 91. 55. 50. 210. 86. 53. 40. 226.
      79. 48. 31. 238. 69. 39. 10. 247. 67. 44. 10. 254. 82. 68. 33.
      255. 104. 91. 59. 255. 131. 118. 97. 250. 157. 144. 139. 239. 175.
      164. 173. 224. 188. 180. 205. 205. 195. 189. 225. 188. 197. 197.
      236. 182. 113. 49. 112. 175. 115. 56. 105. 195. 116. 60. 95. 216.
      111. 61. 83. 231. 102. 58. 70. 241. 89. 52. 52. 248. 78. 42. 35.
      253. 72. 41. 10. 254. 80. 60. 48. 254. 97. 84. 79. 249. 120. 106.
      119. 242. 141. 129. 161. 228. 159. 148. 199. 210. 169. 160. 227.
      190. 174. 171. 243. 179. 175. 176. 251. 176. 131. 53. 162. 196.
      135. 58. 153. 215. 134. 63. 135. 230. 127. 64. 114. 240. 115. 60.
      92. 247. 100. 53. 70. 250. 84. 43. 46. 250. 75. 40. 10. 248. 78.
      52. 57. 244. 91. 72. 92. 235. 110. 89. 139. 225. 128. 108. 182.
      209. 142. 123. 218. 188. 151. 134. 238. 174. 154. 142. 251. 168.
      152. 147. 255. 167. 140. 62. 209. 209. 143. 64. 193. 222. 142. 65.
      172. 233. 136. 64. 146. 240. 122. 59. 117. 244. 105. 52. 85. 244.
      86. 42. 55. 240. 78. 36. 11. 233. 84. 40. 67. 225. 99. 55. 105.
      214. 115. 71. 153. 200. 129. 84. 196. 185. 137. 94. 227. 173. 140.
      101. 244. 161. 136. 106. 253. 157. 130. 110. 255. 155. 138. 98.
      234. 210. 141. 90. 223. 219. 140. 83. 201. 227. 132. 76. 171. 231.
      118. 64. 138. 232. 101. 50. 96. 229. 86. 38. 63. 222. 83. 31. 11.
      212. 96. 30. 74. 201. 116. 38. 109. 195. 134. 49. 158. 190. 145.
      58. 198. 184. 150. 66. 226. 176. 146. 72. 242. 166. 139. 75. 249.
      157. 126. 76. 253. 145. 122. 142. 249. 203. 126. 128. 236. 208.
      125. 112. 219. 212. 120. 94. 187. 215. 107. 79. 149. 214. 93. 60.
      103. 208. 85. 45. 65. 201. 90. 39. 11. 198. 112. 31. 74. 199. 137.
      29. 107. 203. 156. 11. 152. 206. 164. 12. 187. 203. 166. 12. 216.
      194. 159. 12. 230. 181. 146. 12. 236. 161. 130. 13. 238. 143. 109.
      186. 254. 193. 115. 170. 243. 192. 116. 149. 224. 192. 112. 124.
      191. 193. 102. 101. 151. 194. 92. 81. 102. 197. 88. 63. 63. 202.
      100. 54. 13. 211. 125. 44. 67. 219. 152. 37. 98. 225. 170. 29.
      134. 226. 179. 28. 165. 221. 178. 13. 189. 211. 169. 13. 206. 190.
      154. 14. 212. 167. 133. 14. 213. 141. 122. 220. 251. 181. 128.
      204. 237. 177. 129. 180. 218. 179. 123. 154. 183. 183. 114. 124.
      143. 196. 102. 97. 95. 210. 98. 80. 55. 222. 108. 69. 14. 232.
      131. 56. 57. 237. 156. 47. 83. 241. 172. 33. 109. 237. 180. 29.
      135. 230. 177. 14. 156. 215. 165. 15. 164. 190. 149. 15. 169. 163.
      126. 15. 167. 135. 147. 235. 242. 169. 155. 223. 228. 170. 155.
      201. 202. 178. 147. 174. 168. 193. 133. 144. 128. 213. 119. 114.
      85. 229. 107. 91. 47. 239. 110. 82. 15. 246. 126. 66. 48. 249.
      148. 54. 65. 247. 160. 38. 85. 242. 167. 31. 100. 228. 162. 16.
      114. 207. 151. 16. 121. 178. 133. 16. 122. 149. 113. 16. 121. 119.
      178. 243. 226. 158. 183. 231. 208. 166. 182. 213. 180. 184. 173.
      185. 147. 207. 157. 159. 111. 228. 137. 125. 74. 241. 117. 103.
      35. 248. 108. 87. 17. 252. 118. 73. 33. 252. 132. 59. 46. 246.
      141. 42. 58. 235. 144. 34. 68. 217. 140. 17. 76. 189. 127. 17. 80.
      158. 111. 17. 81. 125. 95. 18. 77. 99. 202. 240. 202. 145. 207.
      229. 181. 165. 205. 213. 156. 192. 194. 188. 123. 217. 172. 161.
      93. 234. 148. 132. 57. 246. 121. 107. 18. 251. 104. 90. 18. 252.
      103. 76. 18. 248. 110. 62. 19. 238. 116. 47. 19. 224. 117. 35. 19.
      196. 111. 19. 20. 163. 101. 20. 20. 130. 88. 20. 21. 100. 77. 21.
      21. 80. 217. 232. 173. 139. 220. 222. 155. 163. 217. 205. 129.
      194. 204. 183. 104. 221. 181. 159. 82. 235. 154. 131. 49. 245.
      121. 106. 21. 247. 97. 89. 22. 245. 88. 73. 22. 236. 89. 61. 22.
      223. 88. 47. 22. 199. 87. 36. 23. 165. 82. 23. 23. 132. 75. 23.
      24. 99. 62. 24. 24. 74. 51. 24. 25. 51. 221. 218. 148. 127. 224.
      207. 130. 160. 220. 191. 109. 192. 206. 172. 87. 218. 182. 152.
      69. 233. 153. 124. 37. 239. 117. 103. 25. 239. 87. 86. 25. 233.
      75. 68. 25. 221. 68. 57. 26. 198. 62. 44. 26. 170. 56. 35. 26.
      137. 50. 26. 27. 104. 45. 27. 27. 77. 37. 27. 28. 51. 32. 28. 28.
      32.</_>
    <_>
      0. 0. 0. 0. 1. 1. 1. 1. 2. 2. 2. 2. 3. 3. 3. 28. 20. 21. 3. 39.
      26. 27. 4. 56. 38. 38. 4. 73. 53. 53. 4. 85. 69. 69. 4. 95. 83.
      83. 5. 96. 100. 97. 5. 89. 113. 108. 17. 75. 122. 112. 19. 59.
      126. 112. 23. 44. 127. 110. 28. 25. 122. 106. 32. 5. 31. 20. 5.
      34. 40. 28. 6. 40. 47. 36. 6. 48. 52. 43. 6. 59. 57. 52. 6. 71.
      61. 56. 7. 88. 68. 66. 7. 106. 77. 76. 7. 120. 93. 93. 17. 131.
      113. 111. 20. 132. 135. 125. 23. 121. 149. 138. 32. 107. 163. 143.
      39. 86. 169. 143. 46. 73. 167. 141. 52. 58. 158. 137. 58. 54. 71.
      60. 50. 68. 74. 64. 42. 70. 79. 68. 35. 75. 82. 72. 28. 87. 86.
      76. 22. 100. 88. 82. 7. 123. 94. 90. 8. 145. 104. 102. 8. 163.
      117. 115. 18. 177. 142. 136. 24. 174. 167. 150. 33. 155. 190. 164.
      47. 136. 206. 172. 58. 114. 210. 173. 71. 99. 207. 172. 80. 86.
      195. 171. 91. 85. 98. 91. 74. 96. 104. 92. 63. 96. 110. 94. 51.
      104. 114. 96. 39. 116. 116. 101. 29. 136. 118. 108. 8. 161. 123.
      114. 8. 191. 130. 125. 9. 212. 145. 141. 20. 218. 168. 156. 31.
      214. 199. 175. 42. 195. 219. 188. 63. 166. 230. 192. 78. 144. 232.
      194. 98. 129. 229. 196. 115. 117. 220. 200. 133. 118. 128. 135.
      103. 132. 137. 133. 88. 130. 144. 129. 73. 138. 148. 128. 57. 151.
      151. 131. 43. 176. 151. 134. 24. 206. 150. 139. 19. 225. 154. 146.
      17. 236. 165. 156. 26. 239. 189. 173. 40. 233. 215. 184. 54. 221.
      231. 193. 77. 202. 241. 197. 100. 180. 244. 200. 123. 169. 240.
      204. 148. 160. 229. 209. 175. 161. 158. 185. 140. 168. 171. 178.
      119. 163. 180. 167. 99. 170. 186. 159. 80. 186. 188. 155. 62. 208.
      184. 152. 40. 226. 179. 152. 30. 241. 176. 157. 23. 248. 180. 165.
      34. 248. 199. 175. 49. 243. 219. 179. 66. 233. 233. 184. 94. 222.
      243. 184. 119. 216. 245. 185. 148. 211. 241. 190. 181. 207. 231.
      199. 212. 209. 180. 228. 178. 201. 195. 218. 151. 191. 207. 208.
      129. 193. 213. 194. 107. 203. 214. 182. 81. 219. 209. 172. 55.
      232. 198. 166. 42. 243. 187. 162. 31. 248. 183. 162. 41. 249. 194.
      161. 57. 245. 212. 159. 75. 242. 226. 157. 105. 240. 236. 153.
      132. 239. 240. 153. 160. 237. 236. 157. 199. 234. 226. 165. 224.
      232. 190. 247. 210. 212. 209. 238. 187. 203. 220. 227. 157. 200.
      225. 215. 130. 203. 223. 201. 102. 216. 218. 181. 72. 226. 205.
      170. 52. 237. 188. 159. 37. 243. 178. 152. 48. 246. 183. 148. 65.
      249. 198. 142. 81. 249. 213. 134. 109. 251. 222. 125. 133. 252.
      227. 122. 158. 250. 223. 123. 191. 248. 217. 128. 218. 242. 192.
      251. 225. 208. 215. 246. 210. 195. 229. 237. 181. 187. 237. 227.
      149. 185. 235. 217. 116. 197. 228. 201. 83. 211. 214. 183. 59.
      225. 192. 165. 44. 238. 177. 150. 51. 247. 174. 141. 69. 251. 179.
      125. 84. 253. 189. 111. 106. 254. 200. 97. 122. 254. 205. 89. 142.
      253. 202. 86. 162. 250. 194. 90. 187. 242. 193. 250. 229. 186.
      220. 244. 216. 171. 235. 238. 192. 159. 244. 231. 156. 153. 242.
      223. 124. 164. 236. 214. 89. 183. 221. 196. 63. 213. 198. 177. 46.
      233. 178. 155. 51. 249. 167. 140. 67. 253. 166. 119. 79. 255. 169.
      100. 95. 255. 174. 81. 107. 255. 176. 70. 115. 252. 171. 58. 127.
      247. 164. 56. 142. 230. 196. 238. 220. 149. 221. 232. 206. 139.
      239. 230. 182. 126. 247. 228. 150. 121. 246. 224. 120. 135. 240.
      219. 88. 155. 224. 206. 61. 201. 202. 185. 44. 231. 175. 158. 45.
      250. 156. 137. 59. 254. 147. 114. 71. 255. 143. 90. 79. 254. 141.
      70. 84. 253. 140. 54. 87. 246. 135. 35. 92. 230. 129. 33. 99. 203.
      186. 208. 189. 113. 217. 207. 176. 105. 235. 210. 153. 93. 245.
      215. 133. 91. 245. 217. 108. 111. 239. 216. 78. 138. 222. 205. 54.
      182. 196. 182. 41. 222. 164. 154. 37. 244. 145. 131. 49. 252. 131.
      108. 56. 252. 117. 82. 62. 251. 112. 63. 64. 241. 110. 47. 62.
      221. 101. 22. 60. 193. 98. 9. 60. 154. 174. 160. 147. 83. 204.
      166. 140. 75. 224. 177. 124. 67. 234. 188. 109. 69. 234. 198. 87.
      91. 228. 202. 66. 118. 211. 190. 46. 160. 179. 170. 34. 204. 147.
      144. 31. 227. 126. 117. 37. 235. 110. 95. 42. 234. 95. 74. 45.
      223. 85. 55. 43. 205. 77. 41. 38. 172. 72. 18. 32. 144. 68. 9. 26.
      115. 146. 118. 112. 55. 173. 127. 105. 49. 197. 139. 94. 38. 211.
      149. 80. 48. 213. 162. 67. 74. 204. 170. 51. 102. 181. 161. 35.
      137. 152. 146. 26. 168. 127. 124. 21. 191. 107. 103. 24. 197. 87.
      80. 29. 189. 73. 61. 30. 169. 61. 45. 29. 146. 53. 34. 25. 120.
      45. 17. 23. 101. 41. 9. 18. 79. 116. 89. 76. 29. 138. 97. 72. 25.
      154. 109. 65. 22. 168. 121. 55. 37. 173. 134. 48. 62. 163. 139.
      35. 84. 147. 134. 24. 111. 126. 119. 19. 132. 104. 102. 10. 143.
      82. 81. 10. 145. 65. 64. 10. 136. 50. 47. 10. 121. 36. 33. 11.
      103. 30. 25. 11. 84. 19. 11. 11. 70. 18. 12. 12. 53. 93. 57. 46.
      12. 109. 67. 43. 12. 120. 77. 39. 13. 128. 90. 33. 30. 130. 99.
      27. 49. 124. 105. 21. 66. 113. 101. 13. 85. 97. 92. 13. 98. 78.
      78. 13. 106. 64. 65. 14. 103. 50. 50. 14. 92. 36. 36. 14. 76. 27.
      27. 14. 60. 21. 22. 15. 44. 15. 15. 15. 32. 16. 16. 16. 16.</_>
    <_>
      0. 0. 0. 0. 1. 1. 1. 1. 2. 2. 2. 2. 3. 3. 3. 23. 18. 18. 3. 30.
      27. 26. 4. 41. 38. 34. 4. 57. 55. 45. 4. 68. 70. 60. 4. 76. 86.
      76. 5. 81. 102. 90. 15. 80. 116. 106. 23. 73. 124. 118. 30. 61.
      128. 125. 39. 47. 127. 129. 49. 35. 124. 133. 58. 17. 16. 16. 5.
      31. 16. 17. 5. 42. 20. 21. 5. 51. 25. 26. 6. 65. 34. 33. 6. 75.
      45. 43. 6. 85. 62. 56. 6. 95. 80. 70. 7. 105. 99. 84. 7. 110. 119.
      103. 7. 116. 137. 120. 22. 112. 151. 140. 37. 103. 162. 155. 51.
      86. 165. 166. 67. 71. 163. 174. 81. 59. 157. 179. 93. 49. 32. 17.
      7. 53. 37. 20. 18. 69. 43. 27. 22. 81. 48. 36. 27. 99. 60. 48. 29.
      113. 74. 63. 31. 126. 92. 78. 29. 138. 110. 93. 26. 148. 134. 110.
      21. 152. 154. 130. 19. 152. 176. 150. 31. 146. 188. 174. 55. 132.
      199. 192. 73. 111. 202. 207. 97. 96. 197. 214. 117. 84. 187. 221.
      136. 78. 58. 24. 28. 91. 60. 29. 32. 107. 66. 40. 38. 123. 72. 51.
      44. 142. 83. 69. 50. 160. 99. 85. 54. 176. 121. 102. 49. 186. 144.
      119. 42. 193. 166. 136. 32. 195. 186. 156. 28. 190. 206. 178. 42.
      179. 214. 199. 71. 159. 222. 217. 98. 136. 223. 228. 129. 120.
      219. 235. 161. 111. 211. 241. 189. 109. 84. 37. 56. 136. 87. 46.
      56. 154. 96. 60. 58. 175. 103. 74. 65. 195. 114. 90. 72. 211. 130.
      108. 75. 224. 152. 126. 71. 227. 175. 141. 59. 227. 192. 157. 44.
      225. 208. 172. 37. 217. 217. 187. 52. 205. 222. 208. 86. 185. 226.
      225. 123. 164. 226. 233. 163. 149. 223. 241. 206. 143. 215. 248.
      231. 146. 108. 48. 97. 190. 115. 63. 94. 207. 124. 79. 90. 220.
      131. 94. 93. 230. 141. 111. 99. 237. 157. 129. 98. 241. 177. 145.
      91. 242. 191. 155. 76. 240. 204. 163. 57. 236. 210. 172. 46. 231.
      212. 183. 62. 224. 213. 198. 101. 210. 216. 213. 145. 194. 216.
      226. 193. 182. 214. 233. 231. 177. 209. 238. 251. 180. 139. 76.
      155. 228. 147. 87. 143. 234. 156. 101. 130. 239. 161. 117. 124.
      243. 167. 132. 123. 246. 177. 145. 118. 247. 186. 153. 106. 246.
      194. 157. 87. 242. 200. 155. 65. 238. 200. 158. 55. 236. 199. 163.
      68. 233. 197. 176. 108. 227. 200. 191. 153. 218. 202. 207. 205.
      207. 202. 214. 236. 199. 198. 218. 252. 200. 168. 112. 219. 244.
      180. 122. 198. 245. 188. 132. 174. 245. 191. 142. 154. 243. 190.
      150. 141. 242. 189. 156. 128. 241. 189. 156. 112. 239. 188. 151.
      88. 240. 185. 142. 67. 244. 183. 138. 58. 248. 182. 139. 70. 248.
      182. 150. 108. 245. 184. 165. 148. 235. 186. 180. 195. 224. 187.
      185. 228. 209. 183. 184. 247. 203. 197. 152. 250. 243. 210. 159.
      234. 239. 220. 164. 209. 235. 221. 169. 178. 232. 215. 170. 149.
      230. 206. 168. 125. 233. 194. 160. 106. 236. 184. 147. 83. 244.
      179. 133. 62. 250. 173. 123. 57. 253. 170. 119. 67. 253. 170. 127.
      100. 252. 171. 139. 134. 247. 169. 148. 169. 229. 167. 151. 201.
      208. 162. 147. 220. 187. 219. 196. 254. 228. 231. 197. 249. 222.
      237. 196. 225. 213. 237. 193. 183. 209. 232. 189. 146. 212. 221.
      181. 113. 225. 205. 166. 91. 235. 188. 149. 70. 249. 179. 131. 52.
      253. 170. 116. 50. 255. 166. 107. 61. 255. 164. 109. 88. 254. 160.
      117. 115. 249. 153. 122. 138. 226. 146. 122. 158. 192. 137. 114.
      168. 161. 230. 221. 254. 196. 243. 220. 245. 182. 249. 216. 217.
      173. 250. 211. 171. 171. 246. 206. 130. 184. 232. 194. 95. 211.
      215. 178. 72. 234. 195. 158. 54. 251. 181. 135. 40. 254. 167. 114.
      43. 255. 158. 98. 53. 255. 151. 94. 73. 252. 143. 95. 91. 237.
      132. 97. 105. 208. 121. 96. 114. 162. 109. 89. 118. 127. 229. 223.
      240. 154. 244. 223. 222. 140. 250. 219. 185. 135. 251. 216. 144.
      141. 248. 210. 107. 162. 234. 201. 74. 198. 215. 181. 52. 229.
      190. 160. 35. 247. 169. 134. 28. 252. 153. 109. 31. 253. 140. 89.
      41. 251. 128. 79. 57. 239. 118. 75. 69. 212. 104. 72. 77. 167. 92.
      71. 80. 126. 82. 66. 79. 96. 213. 203. 196. 116. 232. 205. 171.
      105. 242. 204. 142. 104. 246. 203. 110. 115. 240. 202. 83. 138.
      227. 191. 56. 177. 204. 172. 33. 212. 175. 150. 20. 230. 149. 125.
      17. 238. 131. 100. 24. 238. 115. 78. 30. 229. 102. 64. 40. 204.
      88. 54. 47. 164. 75. 46. 53. 127. 64. 45. 54. 94. 53. 41. 49. 68.
      180. 161. 135. 85. 203. 165. 120. 78. 218. 168. 102. 79. 224. 172.
      82. 89. 218. 173. 61. 111. 201. 165. 39. 143. 173. 148. 23. 174.
      145. 129. 8. 192. 121. 107. 8. 201. 103. 84. 18. 193. 87. 63. 22.
      178. 74. 46. 28. 147. 63. 33. 32. 117. 50. 24. 36. 89. 42. 22. 36.
      66. 34. 20. 34. 44. 140. 121. 85. 65. 159. 126. 77. 59. 175. 133.
      66. 61. 181. 137. 52. 73. 176. 139. 39. 90. 159. 134. 27. 112.
      137. 122. 16. 133. 113. 105. 8. 144. 92. 86. 8. 144. 77. 68. 9.
      135. 62. 48. 9. 120. 50. 33. 9. 98. 40. 23. 9. 77. 30. 10. 10. 59.
      26. 10. 10. 38. 21. 11. 11. 21. 100. 82. 43. 45. 113. 88. 39. 41.
      125. 97. 36. 44. 131. 104. 29. 55. 128. 106. 25. 69. 119. 104. 19.
      83. 101. 93. 15. 95. 82. 80. 11. 101. 64. 64. 11. 100. 47. 47. 12.
      92. 35. 35. 12. 81. 25. 25. 12. 67. 19. 19. 12. 51. 13. 13. 13.
      38. 13. 14. 14. 24. 14. 14. 15. 15.</_>
    <_>
      0. 0. 0. 0. 1. 1. 1. 1. 2. 2. 2. 2. 3. 3. 3. 3. 4. 4. 4. 27. 24.
      25. 4. 37. 32. 32. 5. 47. 45. 42. 5. 56. 58. 53. 5. 66. 75. 62. 5.
      74. 88. 71. 26. 79. 97. 78. 33. 82. 105. 83. 42. 80. 108. 87. 50.
      73. 106. 89. 56. 63. 102. 90. 60. 52. 6. 6. 6. 6. 7. 7. 7. 27. 7.
      8. 8. 40. 21. 21. 8. 52. 23. 23. 8. 70. 33. 34. 9. 85. 46. 46. 9.
      95. 61. 58. 9. 102. 79. 72. 9. 106. 96. 83. 10. 107. 112. 92. 28.
      106. 123. 99. 41. 105. 130. 105. 53. 101. 133. 111. 65. 92. 131.
      115. 77. 82. 129. 117. 85. 72. 10. 10. 10. 37. 11. 11. 11. 52. 11.
      12. 12. 71. 23. 23. 12. 91. 30. 30. 12. 114. 46. 45. 13. 130. 64.
      62. 13. 142. 88. 81. 13. 149. 111. 99. 13. 149. 132. 115. 20. 144.
      148. 126. 35. 138. 158. 132. 51. 131. 164. 137. 70. 124. 165. 143.
      90. 113. 162. 147. 107. 103. 156. 150. 118. 95. 29. 14. 14. 66.
      31. 14. 22. 88. 36. 20. 26. 112. 41. 28. 28. 135. 48. 41. 31. 161.
      63. 57. 33. 181. 86. 80. 31. 195. 113. 102. 28. 198. 137. 124. 25.
      192. 161. 139. 26. 179. 175. 151. 44. 167. 187. 157. 68. 153. 190.
      163. 93. 143. 189. 168. 117. 130. 185. 171. 140. 124. 178. 175.
      157. 120. 49. 14. 34. 110. 51. 21. 35. 129. 52. 30. 37. 154. 56.
      43. 40. 179. 63. 59. 44. 206. 82. 80. 47. 228. 106. 104. 45. 237.
      134. 127. 39. 236. 159. 145. 32. 227. 183. 160. 33. 210. 199. 170.
      50. 190. 208. 176. 82. 172. 210. 181. 114. 161. 208. 187. 144.
      152. 203. 190. 171. 150. 197. 193. 196. 152. 69. 15. 74. 148. 69.
      24. 65. 168. 70. 39. 60. 194. 73. 55. 60. 218. 81. 77. 64. 238.
      96. 99. 67. 251. 120. 123. 66. 253. 148. 142. 58. 252. 173. 158.
      47. 244. 198. 170. 45. 231. 213. 181. 59. 208. 221. 188. 96. 191.
      223. 192. 133. 178. 220. 193. 168. 173. 213. 196. 200. 174. 206.
      197. 228. 179. 93. 54. 116. 182. 94. 59. 100. 201. 96. 71. 90.
      222. 100. 86. 84. 238. 105. 107. 87. 250. 117. 125. 90. 255. 134.
      141. 89. 255. 155. 154. 79. 254. 177. 163. 63. 249. 200. 170. 57.
      238. 217. 178. 68. 221. 225. 182. 107. 208. 231. 185. 145. 202.
      227. 185. 182. 202. 220. 184. 218. 203. 211. 181. 241. 207. 121.
      98. 162. 205. 126. 101. 139. 218. 130. 114. 120. 233. 135. 128.
      110. 240. 136. 142. 108. 248. 142. 155. 109. 253. 150. 163. 109.
      253. 164. 165. 95. 252. 179. 164. 78. 248. 200. 165. 67. 241. 216.
      167. 73. 237. 225. 166. 111. 233. 232. 166. 147. 232. 231. 163.
      186. 232. 224. 159. 219. 230. 213. 155. 242. 226. 151. 146. 201.
      206. 159. 151. 171. 215. 168. 162. 146. 222. 173. 172. 128. 229.
      176. 185. 122. 235. 177. 192. 118. 239. 176. 190. 119. 243. 180.
      180. 110. 245. 188. 167. 89. 246. 201. 156. 74. 246. 214. 151. 75.
      247. 223. 144. 103. 248. 228. 139. 138. 248. 226. 133. 172. 246.
      219. 127. 204. 239. 209. 119. 230. 235. 175. 191. 225. 189. 191.
      196. 195. 194. 204. 205. 164. 197. 214. 216. 140. 199. 217. 223.
      129. 203. 216. 223. 123. 212. 210. 214. 122. 225. 204. 197. 112.
      236. 203. 172. 92. 243. 206. 153. 75. 250. 212. 136. 71. 253. 217.
      123. 91. 254. 218. 113. 122. 254. 215. 101. 150. 251. 205. 91.
      173. 241. 194. 81. 195. 230. 199. 222. 232. 156. 216. 227. 199.
      158. 233. 236. 169. 160. 240. 241. 140. 160. 244. 245. 126. 166.
      242. 242. 116. 180. 237. 235. 115. 200. 227. 211. 104. 224. 219.
      183. 86. 240. 214. 156. 69. 252. 211. 134. 62. 255. 207. 112. 76.
      255. 202. 94. 97. 254. 195. 79. 120. 247. 182. 64. 137. 234. 169.
      53. 152. 209. 207. 233. 215. 118. 226. 237. 187. 119. 239. 243.
      159. 121. 249. 249. 131. 122. 252. 251. 113. 132. 250. 249. 99.
      152. 245. 239. 95. 177. 235. 217. 88. 207. 222. 186. 73. 234. 210.
      154. 58. 245. 198. 127. 51. 251. 183. 97. 55. 250. 171. 74. 72.
      244. 160. 55. 86. 229. 147. 38. 97. 204. 135. 25. 108. 176. 201.
      221. 186. 81. 220. 230. 162. 83. 236. 238. 139. 84. 244. 243. 116.
      87. 247. 246. 94. 101. 247. 242. 80. 125. 240. 234. 75. 153. 231.
      211. 67. 183. 213. 178. 57. 209. 196. 149. 46. 226. 175. 118. 39.
      234. 157. 91. 38. 229. 141. 67. 48. 215. 128. 49. 55. 193. 114.
      36. 61. 167. 100. 22. 65. 141. 180. 194. 149. 47. 198. 202. 132.
      50. 212. 212. 115. 54. 224. 221. 93. 59. 229. 224. 76. 78. 228.
      220. 60. 100. 219. 209. 54. 128. 205. 188. 48. 154. 189. 161. 43.
      174. 169. 131. 36. 189. 148. 104. 31. 193. 127. 78. 29. 184. 109.
      56. 34. 169. 92. 42. 37. 147. 76. 30. 39. 124. 64. 20. 40. 102.
      153. 157. 110. 36. 165. 166. 98. 38. 177. 174. 85. 41. 187. 184.
      69. 44. 192. 188. 54. 57. 191. 186. 43. 77. 184. 174. 34. 98. 170.
      158. 29. 121. 155. 135. 27. 137. 136. 111. 24. 145. 116. 84. 21.
      145. 93. 62. 15. 138. 76. 44. 15. 125. 61. 32. 15. 108. 49. 25.
      16. 89. 42. 16. 16. 72. 121. 117. 77. 16. 129. 126. 70. 17. 138.
      134. 61. 17. 144. 140. 50. 22. 146. 143. 40. 35. 146. 143. 29. 51.
      141. 136. 20. 68. 133. 125. 17. 85. 119. 109. 17. 98. 103. 87. 18.
      104. 84. 66. 18. 103. 65. 48. 18. 94. 49. 35. 18. 83. 38. 26. 19.
      68. 27. 22. 19. 53. 24. 19. 19. 43.</_>
    <_>
      185. 86. 240. 229. 206. 128. 211. 215. 222. 168. 161. 189. 240.
      209. 109. 152. 251. 231. 59. 121. 254. 247. 23. 89. 255. 251. 12.
      57. 255. 252. 18. 33. 254. 253. 44. 16. 247. 253. 87. 6. 221. 254.
      137. 1. 176. 252. 176. 1. 120. 250. 199. 2. 67. 239. 193. 3. 27.
      217. 170. 4. 8. 182. 141. 4. 179. 60. 243. 233. 191. 92. 211. 220.
      208. 130. 159. 200. 220. 161. 109. 167. 233. 196. 63. 140. 245.
      215. 30. 112. 249. 226. 18. 79. 249. 233. 27. 50. 242. 237. 52.
      21. 223. 242. 91. 10. 188. 246. 136. 2. 140. 248. 170. 3. 89. 249.
      193. 6. 46. 245. 194. 7. 16. 232. 178. 8. 5. 212. 150. 8. 172. 34.
      248. 243. 178. 59. 216. 227. 186. 90. 164. 210. 203. 123. 113.
      184. 212. 149. 68. 156. 223. 176. 35. 130. 228. 196. 28. 96. 228.
      207. 37. 61. 217. 213. 60. 29. 196. 222. 98. 14. 150. 230. 139. 9.
      107. 238. 169. 11. 62. 245. 190. 14. 26. 246. 195. 17. 9. 242.
      185. 18. 2. 230. 164. 20. 155. 37. 252. 247. 159. 49. 225. 234.
      166. 69. 178. 216. 179. 92. 125. 196. 187. 116. 79. 166. 199. 137.
      41. 135. 203. 153. 34. 100. 201. 171. 44. 63. 184. 184. 69. 32.
      156. 202. 108. 20. 120. 215. 146. 18. 78. 224. 175. 24. 39. 236.
      191. 31. 16. 243. 198. 37. 6. 246. 192. 42. 5. 241. 182. 47. 131.
      65. 254. 250. 136. 64. 236. 234. 143. 70. 195. 216. 147. 80. 139.
      192. 152. 94. 91. 159. 155. 105. 49. 126. 155. 119. 37. 88. 151.
      135. 47. 55. 142. 148. 76. 33. 120. 168. 115. 32. 87. 190. 150.
      39. 55. 208. 180. 54. 28. 218. 197. 63. 15. 228. 201. 68. 11. 236.
      205. 77. 12. 239. 205. 83. 93. 124. 255. 244. 101. 111. 244. 225.
      108. 101. 209. 206. 114. 95. 154. 173. 113. 90. 107. 140. 110. 84.
      59. 99. 103. 85. 39. 65. 98. 94. 46. 42. 85. 106. 77. 35. 74. 126.
      118. 49. 54. 146. 157. 68. 38. 164. 187. 89. 26. 180. 204. 99. 22.
      200. 209. 105. 24. 210. 213. 114. 31. 219. 221. 127. 60. 189. 255.
      224. 70. 166. 244. 207. 80. 147. 212. 177. 84. 134. 165. 144. 80.
      121. 122. 110. 70. 99. 71. 68. 61. 81. 43. 40. 56. 73. 45. 30. 53.
      74. 71. 40. 53. 83. 116. 69. 52. 103. 157. 101. 51. 118. 193. 126.
      50. 131. 210. 136. 53. 143. 214. 143. 58. 154. 223. 147. 65. 169.
      234. 158. 30. 238. 251. 188. 43. 218. 237. 163. 55. 202. 211. 139.
      62. 181. 174. 109. 59. 160. 133. 78. 51. 133. 89. 43. 41. 103. 56.
      22. 39. 77. 54. 29. 41. 56. 75. 52. 53. 50. 117. 88. 64. 57. 160.
      128. 73. 66. 200. 150. 79. 75. 214. 162. 84. 81. 222. 167. 90. 93.
      230. 173. 95. 105. 240. 180. 14. 252. 240. 144. 22. 243. 223. 125.
      33. 227. 203. 102. 42. 215. 171. 76. 46. 201. 141. 48. 44. 169.
      105. 24. 44. 135. 72. 19. 50. 97. 67. 36. 56. 62. 82. 67. 75. 35.
      120. 110. 91. 25. 162. 146. 103. 26. 204. 173. 111. 28. 218. 181.
      116. 31. 226. 183. 117. 38. 232. 183. 116. 46. 237. 185. 13. 253.
      217. 110. 19. 249. 208. 95. 31. 239. 186. 78. 45. 229. 162. 55.
      57. 221. 142. 36. 66. 205. 115. 24. 79. 171. 87. 26. 86. 132. 84.
      51. 97. 88. 97. 85. 112. 47. 128. 128. 124. 20. 164. 160. 130. 12.
      204. 183. 133. 7. 219. 190. 132. 7. 225. 188. 129. 10. 226. 181.
      122. 11. 224. 174. 17. 250. 189. 81. 29. 246. 182. 72. 48. 241.
      168. 58. 67. 237. 149. 43. 87. 231. 133. 30. 108. 221. 117. 25.
      123. 203. 100. 35. 132. 163. 101. 64. 138. 123. 111. 102. 145. 76.
      135. 144. 148. 32. 165. 176. 147. 13. 199. 191. 145. 3. 213. 197.
      138. 0. 220. 186. 129. 0. 214. 172. 113. 0. 206. 152. 29. 232.
      154. 58. 48. 235. 151. 54. 72. 235. 146. 45. 98. 235. 136. 34.
      124. 234. 121. 23. 145. 229. 112. 25. 161. 218. 104. 40. 172. 197.
      107. 73. 175. 152. 118. 115. 174. 108. 142. 151. 167. 60. 162.
      181. 155. 27. 187. 195. 145. 10. 206. 191. 131. 3. 208. 178. 114.
      1. 194. 151. 94. 0. 172. 130. 47. 207. 122. 41. 71. 219. 127. 40.
      100. 227. 126. 36. 129. 233. 119. 28. 153. 236. 109. 21. 179. 235.
      104. 22. 198. 228. 102. 42. 201. 211. 106. 77. 200. 177. 119. 119.
      190. 132. 140. 157. 177. 83. 158. 185. 156. 45. 179. 197. 139. 19.
      189. 187. 118. 9. 186. 168. 95. 4. 165. 138. 69. 1. 142. 107. 62.
      175. 90. 23. 92. 202. 99. 25. 124. 219. 104. 23. 153. 231. 102.
      20. 183. 239. 96. 15. 207. 241. 93. 19. 216. 238. 94. 38. 217.
      224. 98. 74. 213. 198. 115. 122. 205. 149. 137. 161. 182. 106.
      154. 188. 156. 65. 170. 198. 131. 33. 177. 184. 104. 15. 167. 157.
      78. 7. 143. 125. 52. 2. 113. 88. 66. 141. 61. 14. 100. 174. 72.
      17. 134. 209. 82. 17. 170. 226. 85. 15. 204. 241. 83. 12. 220.
      248. 82. 16. 231. 248. 86. 36. 232. 238. 93. 74. 227. 212. 112.
      125. 214. 173. 134. 165. 192. 127. 153. 193. 158. 81. 163. 199.
      127. 48. 163. 180. 92. 21. 148. 148. 61. 11. 123. 111. 32. 4. 86.
      71. 63. 117. 38. 5. 97. 149. 51. 8. 134. 194. 64. 10. 175. 222.
      70. 9. 210. 245. 73. 6. 230. 251. 75. 13. 244. 253. 82. 34. 247.
      250. 91. 76. 242. 229. 114. 129. 225. 195. 141. 169. 202. 144.
      159. 194. 160. 96. 166. 192. 121. 58. 158. 171. 80. 27. 137. 138.
      49. 13. 106. 96. 21. 5. 66. 57.</_>
    <_>
      138. 17. 166. 224. 176. 37. 140. 239. 206. 86. 104. 245. 230. 154.
      64. 246. 243. 205. 40. 237. 250. 234. 29. 210. 252. 245. 35. 147.
      252. 249. 52. 68. 253. 248. 73. 22. 253. 244. 84. 7. 252. 234. 90.
      0. 251. 223. 87. 0. 247. 206. 87. 2. 239. 199. 88. 5. 222. 194.
      95. 9. 190. 197. 99. 12. 143. 23. 213. 225. 175. 37. 191. 238.
      201. 72. 151. 244. 220. 124. 98. 243. 232. 178. 57. 232. 240. 212.
      34. 203. 243. 228. 35. 141. 246. 236. 48. 63. 247. 236. 66. 21.
      249. 231. 75. 6. 251. 224. 81. 0. 250. 214. 87. 4. 247. 206. 98.
      10. 239. 207. 115. 15. 223. 215. 133. 23. 193. 222. 144. 30. 143.
      53. 238. 220. 167. 61. 222. 231. 186. 78. 189. 237. 201. 103. 132.
      234. 209. 138. 76. 223. 217. 174. 39. 188. 221. 197. 33. 123. 226.
      205. 41. 52. 232. 210. 52. 19. 240. 205. 60. 5. 244. 202. 71. 1.
      245. 200. 89. 9. 242. 203. 119. 17. 233. 214. 148. 28. 216. 225.
      178. 41. 184. 233. 197. 62. 134. 126. 248. 207. 148. 120. 236.
      218. 161. 112. 209. 221. 169. 105. 158. 216. 172. 108. 92. 198.
      173. 121. 41. 153. 175. 137. 29. 91. 183. 149. 30. 38. 200. 159.
      37. 15. 216. 160. 41. 2. 226. 162. 58. 2. 230. 174. 90. 14. 228.
      192. 137. 27. 217. 211. 182. 47. 194. 227. 212. 82. 158. 238. 227.
      120. 115. 201. 251. 188. 125. 186. 241. 191. 131. 165. 219. 187.
      131. 135. 172. 177. 125. 105. 103. 145. 116. 83. 43. 101. 107. 79.
      26. 54. 115. 81. 22. 26. 134. 89. 25. 11. 162. 94. 29. 1. 185.
      106. 45. 3. 196. 130. 96. 20. 194. 165. 161. 39. 178. 198. 208.
      77. 148. 219. 235. 125. 114. 231. 247. 169. 95. 237. 250. 156.
      109. 227. 240. 146. 117. 208. 217. 136. 115. 177. 172. 119. 98.
      126. 106. 91. 76. 72. 44. 58. 56. 42. 25. 32. 50. 31. 16. 18. 59.
      34. 14. 7. 82. 38. 19. 2. 110. 51. 42. 8. 127. 81. 110. 27. 128.
      122. 185. 55. 117. 162. 229. 105. 94. 192. 249. 158. 70. 208. 254.
      200. 88. 248. 241. 110. 111. 242. 229. 97. 127. 230. 204. 85. 128.
      204. 163. 74. 116. 157. 106. 59. 83. 90. 51. 39. 50. 42. 27. 26.
      31. 21. 14. 14. 28. 16. 11. 6. 34. 17. 17. 3. 46. 25. 48. 13. 60.
      40. 130. 33. 67. 70. 204. 69. 62. 103. 242. 122. 53. 135. 253.
      174. 42. 157. 255. 205. 97. 249. 225. 70. 129. 245. 209. 65. 156.
      235. 187. 64. 164. 216. 154. 65. 150. 179. 114. 60. 118. 116. 68.
      45. 70. 57. 36. 31. 34. 24. 19. 20. 18. 11. 13. 13. 18. 4. 20. 12.
      28. 11. 62. 22. 40. 21. 154. 44. 50. 32. 221. 84. 54. 48. 248.
      133. 52. 67. 254. 176. 45. 79. 255. 203. 113. 242. 196. 47. 151.
      239. 185. 60. 180. 229. 171. 76. 189. 215. 150. 93. 181. 184. 126.
      97. 146. 133. 92. 83. 94. 76. 55. 56. 43. 33. 30. 33. 24. 16. 24.
      23. 23. 5. 32. 22. 32. 4. 90. 36. 46. 10. 179. 67. 62. 15. 230.
      102. 71. 21. 251. 139. 72. 26. 254. 170. 67. 29. 255. 190. 117.
      218. 153. 44. 157. 217. 155. 74. 185. 212. 155. 105. 198. 201.
      151. 131. 191. 181. 141. 138. 165. 144. 118. 123. 121. 100. 78.
      85. 73. 58. 43. 50. 45. 31. 35. 36. 47. 19. 49. 39. 66. 12. 114.
      64. 87. 8. 192. 100. 101. 7. 233. 130. 108. 7. 250. 151. 102. 8.
      254. 165. 93. 9. 255. 173. 104. 167. 121. 54. 143. 177. 137. 92.
      177. 180. 149. 132. 191. 182. 160. 160. 189. 176. 159. 167. 173.
      158. 141. 147. 138. 127. 104. 109. 104. 91. 63. 71. 86. 59. 48.
      55. 93. 37. 69. 71. 113. 24. 129. 109. 130. 16. 197. 142. 140. 10.
      231. 163. 137. 4. 246. 170. 125. 1. 252. 164. 107. 0. 253. 155.
      82. 98. 99. 69. 122. 124. 127. 111. 155. 142. 148. 147. 178. 161.
      166. 174. 184. 173. 169. 176. 180. 175. 153. 156. 169. 162. 120.
      118. 152. 139. 77. 82. 145. 112. 61. 80. 150. 78. 80. 109. 161.
      46. 132. 150. 168. 30. 188. 179. 166. 18. 220. 187. 152. 10. 233.
      182. 132. 3. 241. 166. 107. 1. 241. 139. 66. 68. 89. 77. 100. 99.
      123. 118. 139. 129. 144. 149. 170. 160. 163. 170. 187. 182. 168.
      168. 196. 193. 152. 143. 199. 193. 123. 112. 196. 183. 80. 89.
      194. 163. 64. 101. 195. 128. 79. 142. 195. 85. 121. 183. 190. 49.
      168. 202. 180. 28. 199. 203. 159. 15. 211. 190. 128. 6. 214. 164.
      96. 3. 207. 124. 58. 65. 78. 74. 93. 100. 112. 108. 136. 136. 134.
      135. 175. 171. 149. 146. 199. 195. 153. 141. 213. 209. 140. 119.
      221. 215. 113. 95. 224. 210. 75. 88. 224. 200. 59. 122. 219. 171.
      68. 171. 214. 124. 94. 202. 202. 75. 129. 215. 186. 38. 156. 211.
      157. 20. 167. 193. 120. 9. 164. 159. 80. 5. 147. 111. 53. 72. 69.
      61. 91. 110. 97. 86. 140. 144. 119. 106. 183. 181. 133. 114. 210.
      204. 136. 102. 226. 223. 126. 81. 235. 227. 99. 74. 238. 226. 66.
      85. 237. 218. 46. 134. 232. 198. 51. 186. 225. 152. 63. 213. 206.
      96. 86. 220. 184. 47. 102. 213. 145. 25. 108. 189. 103. 12. 101.
      145. 63. 6. 83. 92. 56. 77. 56. 43. 95. 117. 79. 61. 146. 154. 96.
      73. 192. 188. 111. 75. 219. 212. 116. 65. 235. 228. 107. 51. 243.
      234. 84. 57. 246. 236. 55. 84. 244. 229. 38. 142. 240. 211. 35.
      195. 228. 172. 36. 218. 207. 113. 44. 222. 179. 57. 53. 208. 135.
      27. 54. 181. 88. 13. 49. 131. 49. 8. 40. 73.</_>
    <_>
      104. 18. 92. 181. 129. 35. 88. 200. 156. 66. 77. 214. 185. 109.
      59. 217. 213. 160. 42. 203. 237. 204. 26. 170. 246. 235. 16. 117.
      249. 245. 21. 60. 250. 247. 30. 24. 248. 246. 57. 4. 244. 242. 85.
      0. 225. 231. 100. 0. 193. 211. 105. 0. 155. 191. 101. 0. 113. 170.
      91. 1. 73. 144. 82. 1. 127. 19. 123. 211. 144. 30. 112. 220. 162.
      56. 98. 227. 183. 97. 81. 222. 205. 141. 53. 202. 224. 182. 31.
      165. 236. 212. 20. 113. 240. 232. 24. 58. 241. 238. 36. 24. 239.
      241. 66. 4. 229. 238. 96. 1. 209. 233. 115. 1. 185. 228. 125. 2.
      152. 217. 124. 2. 115. 204. 118. 2. 81. 186. 107. 2. 144. 34. 156.
      233. 153. 39. 141. 234. 168. 54. 121. 232. 180. 87. 98. 224. 195.
      124. 71. 199. 209. 162. 40. 159. 218. 191. 25. 107. 220. 211. 27.
      55. 221. 221. 42. 23. 216. 230. 78. 5. 207. 233. 107. 3. 190. 236.
      136. 3. 172. 239. 147. 4. 142. 238. 152. 5. 107. 234. 152. 8. 77.
      226. 148. 11. 148. 84. 187. 240. 154. 76. 170. 236. 162. 79. 147.
      228. 174. 92. 120. 214. 182. 115. 90. 189. 191. 145. 51. 149. 196.
      173. 31. 101. 196. 189. 33. 51. 195. 201. 47. 22. 188. 215. 87. 6.
      178. 226. 123. 3. 165. 236. 151. 7. 147. 243. 170. 13. 122. 245.
      179. 20. 94. 247. 184. 25. 65. 246. 186. 32. 139. 146. 213. 233.
      141. 131. 193. 223. 149. 117. 173. 209. 158. 114. 146. 195. 166.
      119. 111. 173. 171. 132. 71. 135. 171. 146. 42. 89. 165. 161. 37.
      45. 161. 175. 49. 20. 151. 192. 91. 7. 142. 209. 134. 8. 131. 230.
      167. 19. 113. 242. 188. 28. 94. 247. 204. 43. 72. 249. 214. 58.
      47. 251. 221. 78. 111. 213. 227. 207. 116. 194. 206. 194. 124.
      176. 186. 180. 134. 157. 161. 167. 138. 141. 130. 144. 138. 127.
      86. 105. 132. 121. 50. 70. 118. 125. 38. 36. 109. 135. 46. 16.
      100. 157. 89. 9. 95. 180. 133. 16. 88. 208. 173. 32. 78. 231. 200.
      55. 62. 242. 222. 86. 46. 247. 237. 110. 33. 250. 244. 137. 79.
      250. 223. 166. 87. 244. 205. 153. 97. 230. 187. 143. 109. 207.
      165. 130. 119. 181. 136. 106. 120. 151. 92. 82. 111. 128. 56. 47.
      100. 115. 39. 26. 89. 112. 41. 15. 83. 134. 82. 21. 74. 153. 119.
      34. 68. 179. 168. 67. 60. 202. 203. 101. 49. 218. 231. 136. 38.
      229. 245. 163. 28. 237. 251. 187. 48. 255. 201. 112. 62. 253. 189.
      103. 85. 251. 175. 96. 102. 243. 155. 87. 116. 219. 128. 71. 120.
      183. 93. 47. 114. 150. 59. 30. 102. 126. 42. 23. 92. 110. 39. 21.
      85. 118. 69. 37. 79. 131. 104. 64. 72. 148. 154. 104. 61. 164.
      196. 142. 49. 176. 232. 175. 38. 181. 249. 202. 27. 189. 253. 226.
      35. 255. 172. 63. 52. 255. 166. 59. 83. 253. 155. 56. 103. 252.
      140. 50. 124. 241. 118. 41. 133. 210. 91. 28. 131. 177. 62. 21.
      122. 148. 46. 22. 114. 132. 43. 29. 106. 125. 64. 62. 104. 119.
      91. 97. 99. 123. 140. 140. 90. 127. 186. 174. 76. 130. 229. 202.
      59. 130. 250. 225. 44. 133. 254. 242. 33. 254. 137. 32. 58. 255.
      138. 31. 90. 254. 136. 29. 120. 252. 126. 27. 146. 248. 105. 24.
      160. 235. 88. 17. 169. 208. 67. 16. 169. 184. 53. 25. 163. 169.
      50. 45. 158. 152. 67. 90. 151. 135. 84. 132. 140. 117. 125. 172.
      128. 103. 171. 199. 108. 95. 216. 220. 94. 85. 248. 238. 75. 81.
      254. 245. 40. 249. 102. 18. 69. 252. 110. 19. 102. 252. 113. 20.
      137. 251. 106. 19. 162. 246. 96. 18. 179. 239. 84. 14. 192. 224.
      68. 17. 198. 206. 60. 29. 197. 192. 63. 61. 193. 176. 74. 108.
      185. 149. 80. 154. 175. 123. 109. 190. 159. 98. 149. 214. 139. 80.
      197. 230. 121. 55. 241. 239. 103. 45. 253. 244. 44. 218. 76. 10.
      75. 235. 89. 11. 108. 243. 95. 13. 143. 243. 95. 15. 174. 240. 86.
      14. 192. 235. 77. 12. 208. 225. 66. 17. 216. 210. 64. 32. 217.
      201. 72. 69. 212. 182. 78. 117. 205. 157. 75. 163. 190. 127. 94.
      198. 176. 98. 122. 219. 156. 75. 168. 232. 143. 49. 212. 237. 128.
      37. 248. 240. 43. 164. 51. 7. 74. 187. 66. 9. 108. 206. 77. 12.
      145. 218. 83. 15. 177. 222. 73. 15. 199. 224. 68. 13. 216. 219.
      61. 17. 227. 208. 63. 30. 228. 198. 74. 68. 223. 180. 80. 116.
      212. 158. 73. 166. 197. 129. 83. 201. 181. 99. 96. 221. 167. 80.
      133. 231. 154. 52. 174. 234. 142. 40. 215. 234. 36. 112. 33. 5.
      63. 139. 44. 6. 99. 164. 52. 10. 137. 185. 57. 13. 172. 197. 53.
      14. 194. 206. 53. 12. 213. 207. 52. 14. 226. 200. 60. 27. 229.
      190. 73. 64. 225. 177. 79. 111. 215. 155. 70. 163. 200. 129. 65.
      198. 183. 101. 70. 219. 168. 84. 93. 228. 156. 57. 126. 227. 143.
      43. 164. 222. 28. 65. 23. 4. 51. 93. 29. 6. 88. 122. 36. 9. 121.
      150. 41. 10. 157. 171. 40. 11. 182. 183. 44. 10. 204. 188. 45. 11.
      217. 184. 56. 25. 223. 179. 71. 58. 220. 169. 76. 105. 211. 150.
      67. 158. 196. 126. 54. 191. 178. 99. 48. 210. 160. 82. 57. 215.
      147. 55. 81. 210. 134. 41. 106. 203. 22. 34. 12. 3. 39. 54. 18. 5.
      69. 86. 23. 6. 100. 114. 26. 8. 135. 138. 26. 9. 159. 153. 31. 8.
      178. 160. 37. 7. 194. 161. 48. 22. 203. 159. 65. 50. 205. 150. 70.
      97. 199. 139. 61. 145. 184. 116. 46. 177. 167. 93. 35. 193. 145.
      72. 34. 195. 129. 48. 38. 188. 110. 35. 54. 178.</_>
    <_>
      0. 0. 0. 33. 30. 30. 0. 39. 35. 36. 1. 46. 42. 41. 1. 55. 50. 48.
      1. 64. 59. 56. 1. 72. 70. 63. 2. 80. 79. 71. 2. 88. 91. 81. 2. 94.
      104. 90. 2. 98. 121. 99. 3. 102. 139. 113. 33. 100. 153. 126. 40.
      92. 163. 134. 49. 82. 167. 143. 57. 71. 165. 149. 65. 63. 50. 47.
      3. 62. 53. 51. 3. 67. 56. 55. 3. 73. 62. 59. 4. 83. 70. 66. 4. 92.
      80. 74. 4. 103. 91. 85. 4. 112. 105. 94. 5. 124. 121. 105. 5. 129.
      140. 116. 5. 133. 160. 128. 29. 133. 177. 145. 44. 127. 186. 159.
      54. 111. 192. 171. 68. 97. 192. 179. 83. 88. 189. 186. 95. 84. 68.
      61. 53. 87. 73. 69. 48. 93. 78. 74. 41. 103. 86. 83. 35. 117. 96.
      89. 29. 132. 108. 97. 5. 150. 122. 108. 6. 163. 140. 118. 6. 172.
      157. 130. 6. 175. 175. 145. 6. 173. 187. 154. 33. 168. 197. 169.
      52. 154. 207. 181. 68. 137. 210. 191. 88. 125. 209. 198. 109. 118.
      204. 208. 132. 119. 87. 86. 76. 120. 95. 92. 69. 129. 102. 98. 59.
      147. 113. 106. 50. 167. 126. 113. 42. 184. 141. 124. 31. 197. 157.
      133. 28. 203. 174. 146. 7. 209. 185. 156. 7. 205. 195. 167. 7.
      199. 205. 174. 38. 193. 215. 184. 60. 182. 219. 193. 82. 171. 222.
      201. 107. 166. 222. 210. 144. 169. 218. 217. 180. 178. 107. 110.
      122. 166. 119. 117. 105. 176. 129. 126. 90. 188. 145. 131. 74.
      202. 158. 141. 60. 216. 172. 148. 44. 223. 181. 154. 35. 226. 190.
      161. 7. 225. 196. 169. 8. 221. 203. 175. 8. 217. 214. 179. 41.
      211. 222. 186. 66. 203. 229. 194. 91. 201. 231. 199. 128. 206.
      232. 207. 174. 215. 230. 211. 210. 225. 124. 136. 196. 197. 138.
      143. 171. 202. 151. 148. 135. 212. 165. 152. 103. 220. 176. 157.
      79. 226. 183. 157. 56. 231. 187. 158. 42. 230. 191. 159. 8. 229.
      195. 161. 8. 225. 202. 165. 9. 223. 216. 170. 43. 222. 227. 177.
      69. 224. 234. 183. 96. 229. 238. 187. 134. 234. 240. 190. 183.
      239. 239. 191. 218. 244. 126. 158. 238. 213. 138. 156. 224. 213.
      150. 154. 192. 215. 162. 153. 144. 218. 170. 150. 100. 220. 172.
      146. 68. 224. 172. 139. 48. 224. 173. 135. 9. 223. 178. 132. 9.
      223. 191. 134. 9. 228. 211. 140. 41. 232. 229. 147. 65. 236. 237.
      152. 90. 241. 242. 155. 125. 246. 244. 155. 170. 248. 243. 151.
      203. 251. 113. 178. 253. 212. 120. 166. 244. 205. 129. 153. 227.
      201. 138. 143. 183. 198. 143. 130. 123. 200. 144. 119. 77. 205.
      142. 111. 53. 212. 146. 105. 10. 219. 155. 102. 10. 227. 178. 101.
      10. 235. 204. 104. 37. 241. 226. 109. 58. 245. 236. 111. 76. 248.
      241. 112. 100. 249. 242. 110. 130. 251. 242. 106. 165. 252. 96.
      200. 255. 201. 101. 182. 252. 190. 108. 160. 236. 179. 114. 136.
      200. 173. 116. 116. 135. 176. 117. 99. 84. 189. 115. 89. 54. 209.
      123. 83. 10. 226. 138. 76. 11. 237. 168. 75. 11. 245. 197. 77. 32.
      248. 220. 82. 49. 250. 232. 84. 62. 251. 235. 84. 78. 249. 235.
      80. 95. 247. 233. 75. 112. 245. 93. 228. 255. 185. 99. 213. 252.
      169. 107. 187. 237. 152. 114. 159. 202. 147. 116. 128. 137. 161.
      117. 101. 85. 190. 115. 87. 54. 221. 120. 74. 11. 239. 135. 67.
      11. 247. 164. 61. 12. 253. 189. 61. 28. 254. 209. 63. 38. 253.
      217. 64. 48. 249. 218. 64. 57. 245. 214. 61. 67. 236. 207. 57. 75.
      228. 99. 243. 253. 152. 111. 234. 246. 137. 125. 219. 230. 128.
      136. 193. 188. 131. 141. 160. 127. 164. 141. 122. 80. 204. 133.
      98. 52. 234. 131. 79. 12. 247. 137. 63. 12. 254. 151. 51. 12. 255.
      170. 46. 13. 254. 179. 44. 28. 250. 180. 44. 31. 243. 175. 43. 36.
      230. 162. 40. 42. 208. 149. 37. 47. 181. 122. 249. 240. 118. 142.
      244. 231. 110. 163. 235. 204. 109. 177. 220. 161. 125. 180. 194.
      110. 168. 177. 156. 73. 215. 162. 119. 49. 240. 149. 92. 13. 250.
      139. 72. 13. 254. 139. 55. 13. 255. 142. 46. 14. 252. 140. 40. 14.
      242. 131. 39. 14. 225. 121. 39. 14. 188. 108. 37. 15. 148. 97. 34.
      15. 114. 150. 250. 211. 89. 176. 246. 194. 88. 194. 241. 168. 94.
      206. 233. 127. 115. 208. 216. 93. 164. 199. 184. 66. 214. 182.
      144. 46. 238. 159. 104. 15. 247. 134. 79. 15. 251. 120. 58. 16.
      248. 112. 45. 16. 240. 103. 36. 16. 221. 94. 34. 16. 180. 85. 34.
      17. 130. 73. 32. 17. 97. 65. 31. 17. 76. 166. 246. 155. 67. 189.
      243. 142. 70. 206. 238. 121. 78. 217. 232. 98. 100. 216. 219. 77.
      145. 206. 192. 57. 195. 185. 151. 40. 227. 153. 109. 17. 237. 123.
      81. 18. 239. 102. 58. 18. 233. 89. 43. 18. 214. 77. 31. 18. 173.
      69. 30. 19. 124. 60. 29. 19. 90. 51. 29. 19. 70. 45. 28. 19. 53.
      164. 233. 107. 49. 185. 231. 101. 54. 200. 228. 93. 64. 210. 221.
      81. 87. 207. 208. 65. 118. 196. 182. 51. 163. 171. 146. 36. 196.
      136. 106. 20. 213. 106. 78. 20. 212. 86. 56. 20. 193. 71. 39. 20.
      158. 59. 27. 21. 114. 50. 21. 21. 86. 43. 21. 22. 62. 35. 22. 22.
      47. 30. 22. 23. 34. 148. 198. 85. 23. 167. 199. 82. 38. 181. 198.
      75. 52. 188. 195. 66. 71. 186. 184. 55. 95. 174. 160. 45. 123.
      147. 127. 32. 149. 115. 96. 23. 162. 91. 72. 23. 156. 72. 52. 24.
      132. 58. 38. 24. 104. 47. 27. 24. 81. 37. 24. 25. 60. 32. 25. 25.
      45. 27. 25. 26. 33. 26. 26. 26. 27.</_>
    <_>
      0. 0. 0. 0. 1. 1. 1. 1. 2. 2. 2. 2. 31. 3. 35. 31. 51. 3. 57. 51.
      81. 3. 84. 82. 118. 3. 109. 124. 165. 52. 132. 174. 215. 77. 155.
      218. 233. 111. 182. 234. 243. 147. 201. 239. 242. 180. 218. 231.
      229. 198. 229. 219. 205. 197. 232. 199. 158. 181. 227. 168. 117.
      155. 216. 136. 4. 4. 4. 4. 5. 5. 5. 5. 29. 6. 29. 29. 39. 6. 44.
      39. 63. 6. 69. 63. 92. 6. 97. 93. 128. 7. 126. 132. 170. 47. 152.
      177. 210. 68. 180. 213. 224. 95. 204. 226. 226. 119. 218. 227.
      220. 141. 230. 220. 202. 154. 241. 206. 163. 153. 242. 183. 127.
      142. 233. 156. 98. 125. 221. 131. 7. 7. 7. 8. 27. 8. 32. 27. 36.
      8. 39. 37. 50. 8. 60. 50. 76. 9. 86. 77. 105. 9. 115. 106. 140. 9.
      147. 142. 176. 40. 173. 182. 204. 56. 200. 208. 211. 75. 217. 217.
      206. 95. 227. 213. 189. 109. 241. 202. 157. 117. 249. 186. 126.
      116. 248. 162. 101. 109. 239. 141. 81. 98. 223. 121. 9. 10. 10.
      10. 32. 10. 41. 33. 45. 11. 54. 45. 65. 11. 79. 65. 91. 11. 106.
      91. 120. 11. 138. 121. 151. 12. 171. 153. 181. 34. 194. 184. 195.
      44. 210. 199. 193. 59. 222. 201. 171. 72. 233. 194. 145. 82. 246.
      176. 121. 87. 254. 161. 98. 86. 252. 142. 80. 83. 240. 127. 65.
      73. 221. 110. 27. 12. 35. 27. 38. 12. 56. 38. 57. 12. 73. 57. 79.
      28. 103. 79. 106. 33. 133. 107. 137. 38. 169. 137. 164. 44. 195.
      164. 183. 48. 206. 185. 183. 52. 217. 191. 166. 55. 225. 183. 143.
      58. 237. 170. 119. 61. 249. 157. 99. 62. 254. 144. 81. 61. 251.
      129. 67. 58. 235. 113. 54. 53. 212. 97. 32. 13. 47. 32. 46. 13.
      75. 46. 68. 13. 101. 68. 94. 34. 134. 94. 123. 43. 173. 123. 152.
      54. 204. 152. 175. 64. 214. 175. 186. 69. 216. 188. 172. 68. 219.
      181. 149. 63. 225. 169. 126. 53. 239. 156. 104. 43. 250. 146. 87.
      33. 253. 134. 70. 13. 245. 119. 57. 14. 228. 104. 46. 14. 197. 89.
      35. 14. 71. 36. 55. 14. 102. 55. 77. 28. 134. 77. 105. 42. 181.
      105. 135. 59. 214. 135. 167. 73. 225. 167. 190. 88. 226. 190. 193.
      95. 223. 194. 173. 94. 222. 185. 149. 85. 227. 170. 126. 69. 238.
      159. 107. 53. 247. 148. 90. 37. 246. 132. 74. 15. 234. 115. 62.
      15. 213. 96. 47. 15. 168. 78. 40. 45. 90. 41. 59. 51. 128. 60. 83.
      58. 172. 84. 111. 70. 217. 113. 144. 85. 232. 145. 177. 100. 242.
      178. 197. 114. 237. 198. 199. 122. 231. 202. 187. 118. 228. 196.
      161. 103. 230. 184. 136. 84. 238. 169. 114. 62. 243. 154. 96. 41.
      236. 133. 79. 15. 222. 112. 63. 16. 187. 92. 46. 16. 137. 71. 48.
      62. 113. 60. 66. 72. 158. 74. 88. 82. 207. 96. 117. 95. 232. 124.
      148. 109. 245. 154. 182. 125. 250. 188. 203. 139. 245. 205. 207.
      147. 241. 211. 199. 136. 236. 206. 177. 116. 235. 196. 150. 92.
      240. 180. 123. 67. 236. 158. 99. 42. 225. 131. 80. 16. 200. 108.
      61. 16. 151. 86. 42. 17. 112. 64. 56. 93. 132. 74. 71. 105. 179.
      89. 89. 119. 220. 108. 115. 130. 241. 133. 144. 139. 251. 160.
      178. 150. 253. 192. 203. 161. 249. 208. 211. 161. 247. 214. 207.
      143. 244. 212. 193. 120. 243. 204. 163. 93. 239. 187. 131. 67.
      228. 156. 102. 41. 207. 125. 80. 17. 162. 101. 58. 17. 120. 76.
      36. 17. 90. 54. 65. 122. 143. 93. 75. 142. 190. 108. 92. 162. 222.
      124. 112. 172. 238. 145. 135. 174. 246. 163. 164. 173. 250. 188.
      194. 169. 250. 203. 203. 159. 251. 210. 202. 136. 251. 209. 191.
      112. 247. 201. 162. 88. 237. 178. 130. 61. 219. 146. 100. 38. 177.
      114. 76. 18. 129. 89. 55. 18. 94. 67. 31. 18. 70. 44. 72. 157.
      146. 106. 85. 189. 185. 122. 99. 209. 215. 139. 118. 215. 228.
      155. 134. 210. 235. 166. 158. 197. 243. 180. 176. 174. 246. 195.
      188. 149. 253. 200. 184. 121. 254. 196. 168. 100. 249. 185. 144.
      75. 233. 159. 117. 52. 205. 128. 90. 33. 148. 99. 69. 18. 104. 76.
      47. 19. 71. 56. 19. 19. 52. 35. 78. 192. 140. 113. 91. 218. 171.
      130. 107. 230. 201. 147. 124. 232. 216. 159. 139. 226. 223. 165.
      154. 211. 231. 172. 164. 178. 242. 182. 166. 140. 252. 187. 157.
      107. 254. 179. 141. 87. 248. 163. 122. 66. 229. 138. 100. 43. 189.
      110. 78. 30. 127. 85. 60. 19. 84. 64. 43. 20. 51. 45. 20. 20. 40.
      30. 80. 208. 133. 111. 97. 230. 160. 127. 118. 244. 186. 141. 137.
      247. 200. 151. 155. 240. 212. 160. 167. 223. 224. 166. 167. 193.
      235. 175. 156. 138. 248. 179. 138. 98. 253. 170. 120. 74. 244.
      149. 101. 53. 221. 123. 83. 34. 165. 96. 64. 20. 110. 70. 49. 21.
      66. 49. 37. 21. 36. 37. 21. 21. 30. 22. 81. 215. 128. 103. 103.
      236. 153. 116. 129. 252. 176. 129. 160. 255. 195. 140. 186. 252.
      209. 152. 196. 234. 219. 168. 191. 209. 231. 184. 165. 150. 244.
      191. 135. 102. 245. 174. 108. 72. 234. 148. 86. 48. 208. 116. 66.
      29. 146. 87. 49. 22. 97. 59. 39. 22. 50. 40. 30. 22. 23. 31. 23.
      23. 23. 24. 83. 216. 125. 91. 110. 240. 151. 102. 145. 255. 179.
      114. 189. 255. 198. 131. 213. 255. 212. 150. 221. 248. 220. 175.
      214. 224. 229. 198. 190. 171. 238. 205. 143. 111. 237. 192. 104.
      78. 224. 153. 73. 49. 192. 115. 50. 24. 130. 82. 34. 24. 88. 48.
      28. 24. 42. 28. 25. 25. 25. 25. 26. 26. 26. 26.</_>
    <_>
      37. 0. 0. 38. 41. 36. 0. 50. 52. 39. 0. 62. 61. 42. 1. 84. 71. 46.
      1. 104. 80. 54. 1. 122. 88. 65. 1. 142. 96. 86. 2. 161. 108. 102.
      2. 184. 123. 119. 41. 193. 140. 136. 51. 190. 155. 152. 79. 171.
      169. 163. 96. 153. 177. 172. 115. 135. 173. 181. 131. 123. 164.
      186. 144. 110. 47. 2. 2. 50. 55. 39. 3. 66. 71. 43. 3. 86. 86. 48.
      3. 105. 95. 52. 3. 126. 104. 63. 4. 149. 110. 76. 4. 185. 117. 94.
      4. 214. 125. 111. 40. 224. 138. 130. 54. 226. 155. 147. 69. 223.
      175. 166. 95. 210. 197. 188. 115. 184. 204. 198. 132. 156. 202.
      204. 152. 141. 192. 209. 175. 128. 60. 4. 5. 87. 73. 40. 5. 99.
      90. 46. 5. 117. 103. 52. 5. 135. 116. 58. 6. 160. 125. 71. 6. 201.
      130. 85. 6. 225. 133. 100. 36. 233. 139. 118. 49. 238. 151. 136.
      67. 238. 169. 154. 85. 234. 196. 175. 109. 227. 214. 197. 127.
      214. 219. 207. 149. 186. 217. 214. 177. 161. 209. 218. 210. 148.
      91. 6. 7. 113. 97. 43. 7. 127. 111. 50. 7. 146. 124. 56. 7. 172.
      135. 64. 8. 212. 144. 76. 36. 229. 150. 89. 39. 239. 152. 103. 48.
      249. 153. 119. 61. 254. 160. 136. 81. 251. 183. 152. 97. 242. 204.
      168. 120. 234. 219. 188. 141. 225. 223. 198. 164. 211. 221. 206.
      201. 191. 216. 211. 224. 169. 112. 8. 69. 142. 120. 44. 64. 161.
      132. 51. 60. 195. 143. 57. 54. 221. 156. 65. 49. 231. 165. 77. 45.
      241. 168. 88. 47. 252. 166. 100. 55. 255. 163. 115. 74. 255. 167.
      127. 92. 254. 187. 139. 108. 246. 205. 151. 129. 237. 219. 158.
      147. 230. 222. 166. 172. 222. 220. 173. 205. 209. 215. 183. 224.
      193. 137. 72. 94. 182. 144. 68. 91. 211. 155. 64. 86. 226. 165.
      63. 76. 235. 176. 66. 63. 243. 187. 74. 55. 252. 185. 82. 54. 254.
      176. 93. 65. 255. 170. 103. 84. 255. 173. 113. 99. 253. 189. 121.
      114. 246. 206. 129. 132. 239. 216. 134. 147. 232. 220. 138. 164.
      227. 216. 142. 191. 218. 207. 144. 212. 202. 163. 97. 122. 219.
      171. 91. 116. 228. 184. 83. 107. 236. 190. 73. 95. 242. 192. 68.
      81. 250. 192. 66. 67. 253. 186. 72. 62. 254. 177. 80. 73. 252.
      174. 88. 89. 251. 182. 95. 103. 250. 194. 99. 114. 245. 206. 105.
      126. 240. 213. 109. 138. 235. 213. 111. 146. 228. 204. 114. 157.
      218. 192. 117. 170. 197. 194. 128. 148. 228. 200. 118. 139. 234.
      202. 106. 126. 240. 199. 92. 112. 244. 193. 78. 94. 248. 188. 62.
      77. 249. 179. 57. 67. 247. 176. 63. 74. 246. 183. 68. 89. 247.
      191. 72. 98. 249. 198. 74. 108. 245. 203. 76. 117. 240. 202. 77.
      121. 233. 194. 78. 125. 225. 178. 80. 130. 207. 161. 83. 134. 175.
      210. 168. 182. 230. 212. 149. 159. 233. 208. 132. 142. 237. 200.
      112. 124. 241. 189. 93. 104. 242. 178. 69. 82. 243. 172. 50. 68.
      244. 179. 45. 70. 245. 189. 44. 84. 248. 197. 42. 92. 248. 199.
      39. 96. 244. 196. 37. 99. 237. 185. 36. 101. 229. 167. 8. 102.
      215. 153. 8. 102. 178. 140. 9. 104. 150. 217. 222. 206. 227. 215.
      199. 181. 230. 208. 162. 153. 232. 196. 135. 131. 236. 180. 111.
      109. 240. 170. 85. 84. 244. 170. 53. 64. 247. 180. 41. 62. 251.
      190. 9. 73. 250. 195. 9. 79. 245. 191. 9. 81. 239. 174. 10. 82.
      231. 157. 10. 79. 218. 143. 10. 77. 183. 131. 10. 71. 148. 118.
      11. 69. 128. 215. 236. 213. 220. 212. 227. 187. 224. 203. 203.
      154. 229. 189. 157. 131. 235. 171. 126. 107. 241. 165. 97. 81.
      249. 167. 66. 56. 253. 173. 47. 52. 253. 181. 11. 57. 247. 178.
      11. 61. 239. 166. 11. 61. 230. 151. 12. 58. 217. 137. 12. 53. 180.
      123. 12. 48. 145. 109. 12. 40. 125. 96. 13. 38. 106. 210. 248.
      203. 194. 208. 235. 171. 207. 200. 221. 145. 223. 187. 179. 124.
      232. 168. 139. 101. 241. 162. 108. 75. 250. 160. 78. 51. 252. 162.
      53. 44. 246. 160. 13. 46. 238. 155. 13. 48. 228. 143. 13. 46. 209.
      127. 14. 44. 167. 114. 14. 40. 141. 98. 14. 37. 119. 87. 14. 15.
      98. 70. 15. 15. 83. 205. 251. 174. 159. 205. 237. 154. 182. 199.
      226. 133. 213. 185. 193. 115. 229. 165. 146. 93. 238. 156. 116.
      65. 243. 150. 87. 41. 242. 145. 57. 15. 236. 141. 16. 16. 226.
      133. 16. 16. 201. 120. 17. 17. 158. 106. 17. 17. 133. 92. 18. 18.
      112. 75. 18. 18. 93. 59. 19. 19. 75. 47. 19. 19. 58. 198. 243.
      148. 138. 200. 233. 134. 156. 195. 222. 119. 190. 177. 188. 101.
      221. 157. 146. 82. 231. 145. 116. 55. 234. 137. 90. 37. 231. 129.
      60. 20. 223. 122. 20. 20. 195. 113. 20. 21. 154. 100. 21. 21. 128.
      87. 21. 22. 107. 70. 22. 22. 88. 53. 22. 23. 67. 43. 23. 23. 51.
      23. 24. 24. 42. 181. 232. 129. 120. 186. 225. 118. 137. 180. 208.
      105. 159. 164. 169. 90. 196. 147. 140. 70. 217. 134. 113. 49. 220.
      121. 89. 24. 211. 110. 59. 24. 184. 101. 25. 25. 149. 91. 25. 25.
      124. 78. 26. 26. 102. 59. 26. 26. 80. 49. 27. 27. 60. 38. 27. 27.
      43. 28. 28. 28. 28. 29. 29. 29. 29. 158. 216. 110. 105. 163. 201.
      100. 121. 159. 174. 90. 140. 150. 151. 75. 158. 136. 130. 59. 176.
      122. 106. 42. 179. 107. 85. 30. 162. 94. 56. 30. 143. 83. 30. 30.
      123. 72. 31. 31. 98. 58. 31. 31. 79. 45. 32. 32. 56. 38. 32. 32.
      45. 33. 33. 33. 33. 34. 34. 34. 34. 35. 35. 35. 35.</_>
    <_>
      84. 52. 32. 115. 100. 58. 28. 126. 114. 69. 22. 137. 133. 78. 17.
      157. 154. 91. 12. 168. 173. 105. 0. 183. 191. 115. 0. 205. 217.
      129. 0. 219. 235. 148. 26. 225. 244. 174. 42. 214. 248. 200. 62.
      187. 246. 230. 95. 146. 236. 244. 125. 99. 216. 250. 149. 68. 180.
      251. 161. 51. 148. 252. 162. 46. 113. 70. 52. 160. 133. 80. 45.
      167. 154. 92. 38. 175. 172. 104. 30. 188. 185. 114. 24. 196. 197.
      123. 14. 210. 213. 130. 12. 223. 225. 139. 9. 226. 234. 151. 22.
      225. 238. 169. 38. 204. 240. 191. 57. 174. 235. 222. 92. 132. 220.
      241. 128. 93. 192. 249. 160. 75. 164. 252. 178. 69. 131. 254. 188.
      74. 144. 94. 89. 201. 166. 108. 73. 203. 181. 120. 56. 207. 198.
      127. 47. 217. 209. 135. 36. 220. 216. 139. 26. 224. 219. 138. 18.
      227. 221. 138. 11. 222. 224. 142. 19. 213. 224. 155. 34. 184. 219.
      172. 54. 155. 205. 198. 88. 117. 182. 230. 131. 91. 161. 243. 171.
      89. 131. 250. 201. 100. 106. 253. 222. 117. 163. 118. 152. 233.
      183. 134. 122. 231. 203. 146. 99. 228. 216. 150. 72. 227. 218.
      146. 52. 223. 214. 141. 36. 218. 206. 130. 27. 212. 196. 122. 15.
      197. 190. 118. 15. 182. 181. 123. 30. 156. 173. 137. 50. 124. 159.
      164. 88. 103. 138. 190. 137. 93. 117. 220. 186. 109. 98. 237. 229.
      134. 78. 246. 246. 167. 166. 136. 215. 247. 186. 157. 181. 238.
      203. 166. 147. 233. 211. 162. 109. 221. 204. 148. 74. 206. 189.
      129. 47. 189. 173. 111. 32. 175. 157. 96. 19. 160. 143. 87. 12.
      141. 130. 88. 27. 114. 120. 96. 47. 98. 110. 113. 86. 90. 99. 138.
      143. 102. 85. 164. 200. 132. 73. 184. 242. 170. 61. 201. 252. 208.
      151. 144. 249. 251. 172. 165. 234. 244. 185. 171. 195. 231. 186.
      163. 150. 205. 175. 139. 102. 177. 153. 110. 57. 149. 126. 86. 38.
      125. 105. 65. 23. 107. 90. 55. 10. 92. 85. 55. 22. 77. 81. 57. 44.
      74. 79. 67. 84. 87. 78. 84. 144. 112. 76. 101. 212. 156. 71. 115.
      248. 195. 65. 129. 255. 232. 120. 140. 254. 253. 141. 158. 249.
      247. 153. 162. 228. 225. 152. 148. 175. 183. 133. 119. 117. 145.
      107. 87. 65. 106. 83. 61. 41. 83. 63. 45. 25. 70. 58. 40. 9. 64.
      62. 38. 20. 67. 72. 39. 43. 82. 85. 43. 81. 107. 94. 48. 142. 139.
      98. 54. 209. 176. 94. 60. 249. 211. 88. 66. 255. 234. 86. 132.
      255. 254. 102. 141. 251. 246. 108. 137. 235. 215. 106. 121. 179.
      166. 93. 95. 119. 116. 75. 66. 65. 79. 59. 49. 40. 60. 53. 39. 24.
      60. 55. 34. 0. 70. 73. 33. 18. 90. 96. 31. 41. 118. 118. 30. 73.
      150. 135. 30. 125. 177. 142. 31. 189. 199. 136. 33. 239. 219. 124.
      35. 253. 231. 57. 136. 255. 253. 68. 128. 251. 245. 76. 116. 230.
      211. 78. 101. 170. 159. 74. 77. 110. 111. 67. 58. 59. 77. 64. 50.
      35. 68. 69. 45. 21. 82. 85. 44. 1. 107. 110. 43. 17. 143. 143. 41.
      36. 174. 168. 36. 59. 199. 181. 29. 102. 217. 182. 24. 155. 223.
      174. 18. 202. 221. 158. 13. 236. 217. 49. 161. 254. 252. 56. 135.
      247. 243. 66. 113. 212. 211. 75. 95. 154. 163. 83. 80. 95. 122.
      89. 69. 52. 104. 101. 68. 29. 104. 113. 66. 17. 128. 134. 64. 1.
      165. 161. 59. 14. 198. 185. 53. 28. 228. 205. 46. 47. 236. 214.
      37. 71. 237. 207. 28. 106. 232. 189. 21. 142. 216. 167. 14. 170.
      192. 51. 198. 250. 250. 63. 165. 233. 242. 79. 129. 187. 220. 97.
      108. 131. 182. 111. 98. 80. 158. 128. 91. 46. 144. 145. 96. 26.
      150. 163. 97. 13. 176. 179. 90. 1. 208. 196. 81. 12. 236. 214. 67.
      23. 245. 221. 53. 35. 247. 218. 43. 48. 241. 201. 33. 62. 226.
      178. 25. 82. 193. 153. 16. 100. 164. 71. 233. 240. 245. 91. 192.
      215. 240. 112. 160. 169. 232. 134. 133. 115. 209. 156. 122. 71.
      188. 172. 116. 42. 179. 184. 121. 22. 183. 195. 119. 10. 204. 207.
      109. 1. 228. 212. 94. 10. 239. 213. 75. 15. 244. 207. 56. 25. 239.
      191. 44. 31. 227. 171. 34. 40. 193. 145. 25. 46. 159. 116. 16. 51.
      121. 100. 245. 229. 239. 124. 218. 194. 241. 151. 180. 154. 238.
      171. 159. 105. 231. 185. 145. 63. 215. 197. 136. 39. 204. 206.
      135. 20. 202. 208. 127. 2. 210. 208. 112. 2. 222. 199. 93. 2. 230.
      187. 72. 11. 226. 173. 54. 13. 209. 153. 42. 16. 180. 125. 31. 20.
      147. 103. 23. 24. 111. 79. 14. 27. 84. 126. 248. 213. 235. 157.
      229. 179. 242. 178. 194. 140. 242. 194. 169. 97. 237. 202. 156.
      58. 226. 206. 140. 37. 210. 203. 132. 20. 196. 194. 119. 2. 191.
      184. 103. 3. 190. 169. 80. 3. 188. 146. 60. 3. 176. 123. 48. 3.
      155. 103. 37. 4. 123. 81. 27. 4. 97. 62. 19. 4. 70. 50. 13. 4. 53.
      152. 248. 193. 232. 176. 229. 165. 240. 193. 195. 124. 243. 202.
      168. 87. 238. 200. 147. 54. 223. 192. 127. 34. 197. 180. 114. 18.
      177. 167. 101. 5. 162. 149. 83. 5. 152. 126. 63. 5. 140. 104. 49.
      5. 120. 82. 40. 6. 99. 61. 29. 6. 76. 49. 21. 6. 56. 42. 15. 6.
      44. 33. 11. 7. 35. 168. 243. 177. 227. 190. 224. 149. 237. 200.
      187. 112. 241. 199. 158. 77. 234. 186. 130. 50. 210. 170. 109. 32.
      178. 151. 92. 17. 147. 127. 76. 7. 121. 108. 61. 7. 105. 86. 48.
      7. 89. 64. 39. 8. 72. 51. 29. 8. 55. 41. 23. 8. 45. 32. 16. 8. 37.
      26. 11. 9. 28. 19. 10. 9. 21.</_>
    <_>
      0. 0. 0. 0. 35. 1. 1. 35. 43. 1. 1. 49. 58. 2. 2. 70. 80. 2. 2.
      96. 97. 39. 3. 121. 116. 55. 3. 144. 134. 74. 3. 166. 150. 91. 46.
      197. 165. 108. 65. 223. 182. 123. 87. 237. 196. 137. 120. 243.
      202. 151. 143. 239. 199. 164. 166. 232. 187. 181. 201. 216. 177.
      204. 229. 197. 37. 3. 4. 37. 50. 4. 4. 51. 63. 4. 5. 69. 83. 5. 5.
      92. 100. 5. 6. 119. 121. 41. 6. 143. 135. 58. 6. 166. 150. 78. 6.
      196. 165. 94. 52. 222. 179. 110. 76. 238. 195. 125. 96. 246. 205.
      137. 128. 245. 205. 148. 150. 237. 195. 157. 175. 225. 181. 169.
      207. 209. 168. 183. 234. 192. 53. 7. 7. 53. 69. 7. 7. 70. 86. 8.
      8. 91. 105. 8. 8. 115. 126. 9. 9. 141. 141. 40. 9. 164. 154. 58.
      9. 197. 167. 78. 10. 224. 183. 94. 56. 239. 198. 110. 84. 250.
      207. 124. 106. 251. 209. 134. 136. 246. 206. 142. 157. 234. 191.
      148. 184. 219. 177. 155. 213. 205. 163. 162. 236. 188. 77. 40. 46.
      82. 92. 42. 47. 97. 109. 41. 48. 117. 129. 39. 49. 139. 145. 38.
      50. 161. 159. 42. 51. 193. 175. 57. 48. 222. 189. 73. 42. 241.
      205. 89. 63. 252. 210. 104. 87. 254. 214. 115. 112. 253. 214. 126.
      141. 246. 208. 131. 160. 233. 195. 134. 185. 217. 178. 138. 211.
      203. 165. 143. 232. 188. 94. 52. 71. 106. 112. 54. 73. 123. 130.
      53. 72. 139. 147. 50. 73. 157. 162. 44. 75. 184. 181. 44. 75. 216.
      199. 54. 69. 236. 209. 66. 61. 250. 215. 83. 68. 254. 220. 93. 89.
      255. 221. 102. 113. 252. 220. 109. 139. 245. 212. 113. 158. 233.
      202. 117. 178. 218. 183. 118. 200. 203. 169. 120. 215. 187. 110.
      62. 103. 132. 128. 65. 103. 145. 144. 65. 101. 159. 160. 60. 98.
      182. 179. 54. 97. 208. 202. 48. 95. 230. 212. 49. 87. 242. 221.
      55. 79. 252. 225. 67. 76. 253. 227. 81. 88. 253. 227. 86. 108.
      252. 224. 90. 133. 243. 215. 92. 150. 231. 204. 93. 163. 214. 184.
      91. 175. 198. 168. 90. 184. 180. 122. 71. 138. 149. 135. 75. 137.
      162. 151. 74. 133. 180. 168. 68. 127. 206. 187. 60. 122. 222. 208.
      51. 116. 235. 220. 46. 105. 242. 225. 44. 96. 248. 229. 53. 87.
      250. 229. 60. 93. 249. 229. 66. 104. 248. 223. 68. 124. 238. 212.
      69. 137. 228. 198. 67. 148. 210. 178. 64. 152. 186. 161. 59. 155.
      170. 124. 76. 174. 162. 136. 79. 169. 179. 151. 78. 158. 202. 166.
      72. 149. 218. 185. 62. 138. 231. 207. 52. 131. 238. 219. 41. 118.
      240. 226. 35. 107. 244. 230. 38. 100. 245. 230. 40. 99. 244. 226.
      43. 102. 241. 217. 45. 113. 233. 204. 47. 123. 219. 181. 45. 129.
      197. 163. 43. 131. 172. 149. 39. 130. 154. 118. 76. 222. 172. 132.
      79. 211. 189. 146. 79. 193. 210. 159. 73. 170. 226. 178. 63. 152.
      235. 201. 52. 138. 240. 213. 40. 125. 242. 223. 10. 116. 242. 227.
      10. 111. 240. 224. 10. 109. 238. 217. 11. 105. 233. 203. 11. 105.
      221. 180. 11. 104. 201. 161. 11. 104. 174. 147. 12. 101. 153. 132.
      12. 99. 136. 108. 77. 253. 174. 125. 80. 241. 194. 139. 80. 221.
      213. 155. 74. 187. 231. 173. 65. 158. 240. 194. 54. 141. 248. 209.
      42. 125. 248. 218. 33. 119. 243. 219. 12. 119. 237. 211. 12. 119.
      228. 199. 13. 112. 216. 176. 13. 102. 196. 156. 13. 94. 173. 142.
      13. 86. 152. 126. 14. 78. 134. 107. 14. 74. 114. 101. 98. 255.
      173. 121. 95. 254. 192. 136. 90. 232. 213. 153. 83. 198. 232. 172.
      71. 158. 244. 190. 57. 135. 251. 206. 45. 118. 249. 208. 34. 114.
      241. 206. 14. 120. 230. 190. 14. 122. 210. 171. 15. 114. 186. 152.
      15. 102. 163. 135. 15. 88. 146. 116. 15. 77. 128. 99. 16. 57. 108.
      82. 16. 55. 88. 110. 130. 255. 173. 129. 123. 254. 193. 144. 112.
      231. 216. 157. 99. 189. 234. 176. 85. 153. 247. 189. 67. 127. 251.
      196. 51. 107. 249. 192. 34. 103. 236. 180. 16. 111. 217. 164. 16.
      114. 185. 148. 17. 107. 159. 132. 17. 95. 140. 111. 17. 80. 122.
      90. 17. 60. 100. 77. 18. 18. 84. 59. 18. 18. 67. 126. 155. 255.
      172. 140. 145. 247. 191. 154. 133. 214. 215. 167. 117. 174. 234.
      182. 98. 143. 247. 190. 75. 111. 250. 186. 56. 93. 243. 177. 35.
      88. 228. 160. 19. 98. 200. 146. 19. 101. 164. 128. 19. 96. 140.
      106. 19. 85. 115. 85. 20. 70. 91. 63. 20. 55. 72. 49. 20. 20. 57.
      36. 21. 21. 41. 142. 191. 251. 171. 154. 170. 226. 192. 167. 151.
      190. 218. 179. 133. 156. 235. 188. 109. 129. 246. 188. 82. 95.
      247. 177. 59. 81. 235. 161. 37. 72. 211. 146. 21. 81. 176. 127.
      21. 84. 147. 103. 22. 81. 121. 84. 22. 70. 89. 64. 22. 58. 64. 43.
      22. 47. 44. 36. 23. 23. 36. 23. 23. 24. 24. 156. 227. 228. 169.
      171. 201. 199. 194. 183. 167. 165. 220. 194. 144. 140. 237. 195.
      120. 113. 244. 185. 85. 82. 239. 168. 61. 66. 224. 149. 37. 56.
      193. 130. 24. 62. 156. 106. 24. 66. 131. 83. 25. 62. 100. 61. 25.
      56. 71. 45. 25. 47. 46. 34. 25. 39. 34. 26. 26. 26. 26. 27. 27.
      27. 27. 176. 249. 204. 170. 191. 223. 171. 200. 203. 186. 147.
      225. 207. 153. 124. 239. 200. 127. 97. 245. 182. 89. 61. 236. 160.
      64. 48. 212. 142. 36. 28. 175. 117. 28. 28. 145. 92. 28. 29. 115.
      68. 29. 29. 86. 50. 29. 30. 59. 38. 30. 30. 38. 30. 31. 31. 31.
      31. 32. 32. 32. 32. 33. 33. 33.</_>
    <_>
      88. 36. 22. 132. 104. 58. 16. 130. 123. 82. 12. 114. 139. 104. 8.
      95. 147. 121. 5. 89. 148. 134. 0. 93. 150. 128. 5. 113. 164. 115.
      10. 136. 187. 104. 15. 141. 211. 95. 25. 115. 218. 90. 35. 80.
      203. 87. 43. 49. 167. 87. 50. 23. 120. 86. 57. 6. 84. 82. 60. 7.
      55. 79. 59. 8. 110. 40. 56. 180. 132. 64. 42. 175. 154. 90. 28.
      153. 174. 118. 16. 123. 183. 146. 9. 107. 185. 163. 0. 105. 186.
      160. 5. 120. 193. 145. 11. 138. 211. 131. 17. 140. 232. 119. 28.
      113. 240. 116. 43. 77. 230. 116. 54. 48. 201. 122. 68. 23. 153.
      131. 74. 9. 106. 135. 80. 11. 72. 138. 79. 12. 131. 39. 97. 224.
      153. 64. 73. 217. 177. 92. 51. 195. 194. 122. 33. 162. 200. 154.
      19. 133. 202. 174. 7. 118. 200. 175. 8. 121. 204. 164. 12. 131.
      219. 150. 19. 125. 237. 142. 33. 100. 245. 143. 52. 71. 241. 154.
      71. 44. 218. 172. 88. 24. 176. 189. 99. 16. 123. 199. 108. 20. 86.
      210. 109. 25. 137. 35. 168. 246. 157. 56. 119. 239. 178. 83. 84.
      220. 194. 113. 56. 190. 204. 145. 35. 155. 208. 172. 15. 130. 209.
      182. 12. 117. 213. 179. 13. 112. 223. 172. 21. 100. 237. 168. 37.
      81. 244. 175. 62. 58. 239. 192. 84. 40. 219. 212. 106. 30. 180.
      229. 126. 30. 129. 243. 139. 38. 89. 249. 142. 47. 125. 32. 235.
      250. 140. 47. 184. 248. 160. 70. 124. 234. 178. 94. 85. 211. 193.
      125. 57. 179. 201. 157. 29. 141. 206. 178. 18. 112. 213. 186. 14.
      93. 219. 189. 24. 76. 229. 191. 44. 61. 233. 196. 71. 47. 224.
      214. 99. 43. 198. 231. 132. 44. 158. 246. 156. 53. 113. 251. 171.
      68. 79. 254. 180. 78. 100. 52. 252. 251. 112. 55. 226. 249. 127.
      68. 170. 241. 148. 85. 116. 225. 167. 109. 80. 196. 184. 137. 46.
      151. 193. 162. 29. 109. 199. 176. 17. 77. 204. 188. 26. 57. 209.
      194. 51. 46. 205. 201. 83. 42. 190. 215. 122. 52. 158. 231. 163.
      66. 118. 244. 191. 81. 89. 251. 204. 101. 63. 254. 215. 126. 74.
      88. 254. 250. 87. 78. 242. 248. 102. 77. 197. 240. 122. 88. 144.
