<?xml version="1.0"?>
<opencv_storage>
<my_svm type_id="opencv-ml-svm">
  <svm_type>C_SVC</svm_type>
  <kernel><type>RBF</type>
    <gamma>1.0000000000000001e-05</gamma></kernel>
  <C>2.5000000000000000e+00</C>
  <term_criteria><epsilon>1.1920928955078125e-07</epsilon>
    <iterations>2147483647</iterations></term_criteria>
  <var_all>1152</var_all>
  <var_count>1152</var_count>
  <class_count>10</class_count>
  <class_labels type_id="opencv-matrix">
    <rows>1</rows>
    <cols>10</cols>
    <dt>i</dt>
    <data>
      48 49 50 51 52 53 54 55 56 57</data></class_labels>
  <sv_total>626</sv_total>
  <support_vectors>
    <_>
      0. 0. 0. 0. 0. 0. 0. 0. 0. 0. 0. 0. 0. 0. 0. 0. 3. 7. 7. 7. 3. 3.
      0. 3. 11. 25. 25. 27. 14. 14. 0. 11. 23. 44. 41. 43. 22. 22. 0.
      23. 39. 63. 49. 52. 30. 30. 4. 39. 52. 73. 47. 52. 33. 35. 12. 55.
      57. 68. 33. 41. 31. 41. 27. 67. 49. 51. 14. 25. 23. 36. 31. 62.
      35. 31. 4. 14. 17. 31. 30. 49. 22. 18. 0. 9. 13. 26. 26. 35. 10.
      7. 0. 5. 7. 17. 15. 20. 0. 0. 0. 0. 0. 0. 0. 0. 2. 5. 5. 5. 2. 2.
      0. 2. 8. 16. 16. 17. 9. 9. 0. 8. 16. 33. 33. 35. 18. 18. 0. 16.
      24. 47. 44. 47. 25. 25. 1. 24. 34. 56. 47. 50. 28. 28. 3. 34. 38.
      55. 38. 42. 25. 28. 8. 40. 38. 47. 23. 30. 22. 29. 18. 46. 33. 34.
      9. 16. 16. 25. 22. 42. 23. 22. 2. 10. 11. 22. 22. 34. 15. 12. 0.
      6. 9. 20. 19. 26. 7. 5. 0. 3. 5. 15. 13. 16. 0. 0. 0. 1. 1. 1. 0.
      0. 5. 10. 10. 14. 9. 9. 0. 5. 12. 23. 23. 26. 16. 16. 1. 12. 19.
      37. 37. 42. 24. 24. 1. 19. 24. 45. 44. 48. 27. 27. 1. 24. 27. 47.
      42. 45. 26. 26. 2. 27. 26. 39. 29. 32. 19. 20. 5. 27. 24. 30. 16.
      20. 14. 19. 11. 28. 20. 20. 6. 11. 11. 18. 15. 27. 16. 14. 2. 10.
      12. 20. 16. 25. 12. 9. 1. 9. 11. 21. 15. 21. 9. 6. 1. 9. 12. 20.
      12. 17. 3. 4. 4. 9. 6. 6. 0. 3. 9. 17. 17. 25. 17. 17. 1. 9. 16.
      29. 29. 37. 24. 24. 2. 16. 21. 40. 40. 48. 30. 30. 2. 21. 21. 40.
      40. 48. 29. 29. 2. 21. 16. 31. 31. 35. 20. 20. 1. 16. 8. 16. 16.
      17. 9. 9. 0. 8. 4. 6. 5. 7. 4. 6. 2. 5. 3. 2. 1. 4. 5. 8. 4. 6. 6.
      5. 3. 11. 12. 16. 8. 11. 9. 8. 4. 16. 17. 22. 10. 14. 11. 11. 7.
      22. 22. 28. 12. 17. 6. 9. 9. 19. 15. 15. 1. 6. 12. 22. 22. 36. 27.
      27. 3. 12. 18. 31. 31. 45. 32. 32. 4. 18. 20. 35. 35. 49. 33. 33.
      4. 20. 18. 32. 32. 42. 28. 28. 3. 18. 10. 19. 19. 23. 13. 13. 1.
      10. 3. 7. 7. 7. 3. 3. 0. 3. 0. 0. 0. 1. 0. 0. 0. 0. 2. 2. 2. 7. 7.
      7. 2. 3. 7. 7. 7. 19. 18. 19. 6. 8. 10. 10. 10. 28. 27. 29. 9. 12.
      14. 15. 14. 38. 36. 39. 12. 17. 9. 15. 15. 30. 25. 25. 3. 9. 15.
      25. 25. 44. 35. 35. 5. 15. 17. 28. 28. 47. 36. 36. 6. 17. 17. 28.
      28. 46. 34. 34. 5. 17. 13. 22. 22. 35. 26. 26. 4. 13. 4. 9. 9. 11.
      7. 7. 0. 4. 0. 1. 1. 1. 0. 0. 0. 0. 0. 0. 0. 0. 0. 0. 0. 0. 5. 6.
      6. 12. 11. 11. 3. 5. 10. 13. 13. 28. 25. 27. 7. 12. 15. 18. 18.
      41. 37. 38. 10. 17. 20. 25. 23. 55. 49. 52. 14. 22. 12. 19. 17.
      39. 33. 35. 7. 14. 15. 23. 22. 47. 38. 40. 9. 16. 16. 24. 23. 46.
      37. 39. 9. 17. 14. 22. 21. 41. 34. 35. 8. 15. 10. 16. 15. 28. 23.
      24. 5. 11. 1. 2. 2. 4. 2. 2. 0. 1. 0. 0. 0. 0. 0. 0. 0. 0. 1. 2.
      2. 3. 2. 2. 0. 1. 9. 14. 14. 21. 17. 17. 3. 9. 15. 23. 23. 38. 31.
      32. 7. 16. 20. 30. 29. 53. 43. 44. 10. 21. 25. 36. 35. 67. 55. 57.
      14. 27. 14. 20. 19. 44. 38. 41. 9. 15. 16. 22. 20. 47. 41. 43. 11.
      17. 15. 22. 20. 45. 39. 40. 11. 17. 14. 19. 17. 39. 34. 35. 10.
      15. 9. 13. 12. 24. 22. 22. 6. 10. 0. 0. 0. 0. 0. 0. 0. 0. 1. 1. 1.
      2. 1. 1. 0. 1. 5. 10. 10. 11. 6. 6. 0. 5. 14. 25. 25. 32. 21. 21.
      3. 14. 19. 33. 33. 46. 32. 32. 5. 19. 23. 40. 40. 57. 41. 41. 7.
      23. 25. 41. 41. 65. 47. 47. 7. 25. 17. 20. 14. 44. 39. 44. 15. 20.
      18. 22. 16. 46. 41. 46. 17. 23. 18. 22. 16. 43. 38. 43. 17. 23.
      16. 19. 14. 36. 33. 37. 15. 20. 11. 14. 9. 22. 21. 23. 11. 14. 2.
      3. 1. 2. 1. 1. 0. 2. 6. 10. 8. 9. 4. 4. 0. 5. 13. 23. 21. 23. 12.
      12. 0. 12. 21. 38. 36. 41. 24. 24. 2. 20. 23. 41. 40. 49. 31. 30.
      3. 22. 23. 42. 42. 54. 35. 34. 4. 22. 20. 38. 38. 52. 35. 35. 4.
      20. 15. 19. 11. 36. 31. 38. 15. 20. 17. 20. 11. 37. 35. 42. 20.
      25. 18. 20. 12. 35. 33. 40. 20. 25. 17. 18. 10. 30. 29. 36. 18.
      23. 16. 17. 9. 20. 20. 24. 14. 20. 11. 13. 7. 8. 7. 7. 3. 12. 17.
      24. 17. 18. 11. 10. 2. 16. 23. 38. 31. 33. 18. 18. 2. 23. 27. 46.
      41. 45. 25. 24. 2. 26. 23. 43. 41. 45. 25. 24. 2. 23. 20. 37. 37.
      43. 24. 23. 1. 18. 15. 30. 30. 35. 20. 20. 1. 15. 15. 16. 7. 30.
      28. 35. 18. 22. 18. 18. 8. 30. 30. 40. 22. 27. 18. 17. 8. 28. 29.
      38. 22. 28. 17. 16. 7. 24. 27. 35. 21. 25. 18. 18. 8. 18. 20. 24.
      16. 24. 17. 20. 10. 12. 10. 11. 4. 18. 24. 35. 23. 25. 15. 14. 3.
      23. 31. 48. 37. 41. 23. 22. 3. 30. 30. 51. 43. 46. 24. 23. 3. 29.
      23. 41. 38. 41. 21. 21. 1. 22. 15. 32. 32. 33. 16. 16. 0. 15. 9.
      18. 18. 20. 11. 11. 0. 9. 12. 15. 5. 22. 22. 30. 17. 20. 16. 15.
      5. 24. 26. 37. 22. 28. 17. 15. 4. 22. 25. 35. 23. 28. 17. 15. 4.
      20. 23. 33. 22. 27. 22. 20. 9. 17. 20. 27. 17. 30. 25. 28. 15. 17.
      15. 17. 7. 27. 33. 46. 31. 33. 20. 19. 4. 31. 38. 57. 41. 44. 25.
      23. 4. 36. 33. 52. 41. 43. 23. 22. 3. 31. 20. 36. 31. 33. 17. 15.
      1. 19. 9. 20. 20. 22. 9. 9. 0. 9. 2. 7. 7. 7. 2. 2. 0. 2.</_>
    <_>
      0. 0. 0. 0. 0. 0. 0. 0. 3. 5. 5. 7. 3. 3. 0. 3. 11. 22. 22. 28.
      17. 15. 1. 9. 15. 30. 30. 39. 23. 22. 1. 12. 17. 33. 31. 43. 25.
      22. 1. 14. 14. 28. 27. 36. 22. 19. 1. 11. 14. 23. 20. 35. 25. 23.
      6. 12. 11. 12. 9. 30. 27. 27. 9. 11. 11. 11. 9. 35. 33. 33. 11.
      12. 11. 11. 9. 31. 31. 33. 9. 11. 7. 7. 7. 28. 28. 30. 7. 9. 0. 0.
      0. 10. 10. 10. 0. 0. 0. 0. 0. 0. 0. 0. 0. 0. 5. 11. 11. 15. 9. 9.
      1. 5. 12. 24. 24. 33. 22. 21. 2. 11. 17. 33. 31. 43. 28. 27. 2.
      15. 17. 33. 31. 43. 28. 27. 2. 15. 14. 27. 25. 35. 22. 21. 2. 11.
      12. 18. 17. 29. 22. 22. 7. 11. 11. 12. 9. 30. 28. 30. 12. 14. 14.
      14. 9. 35. 35. 38. 15. 16. 12. 12. 9. 35. 34. 37. 15. 15. 11. 11.
      6. 32. 30. 34. 12. 13. 1. 1. 0. 13. 13. 15. 3. 3. 1. 3. 3. 4. 3.
      3. 1. 1. 9. 15. 15. 23. 17. 17. 3. 9. 15. 26. 26. 38. 27. 27. 4.
      15. 18. 32. 32. 46. 32. 31. 5. 17. 17. 31. 30. 44. 30. 29. 4. 16.
      12. 23. 22. 31. 21. 20. 2. 11. 10. 14. 13. 24. 19. 19. 6. 10. 12.
      13. 10. 31. 29. 32. 13. 14. 14. 15. 12. 38. 36. 40. 16. 18. 14.
      15. 11. 38. 36. 40. 16. 17. 12. 14. 9. 35. 33. 37. 14. 16. 4. 6.
      3. 17. 17. 20. 6. 7. 4. 6. 6. 12. 9. 9. 3. 4. 12. 20. 20. 34. 25.
      25. 5. 12. 17. 27. 27. 44. 34. 34. 6. 17. 18. 31. 31. 49. 37. 37.
      6. 18. 16. 27. 27. 43. 32. 32. 5. 16. 9. 17. 17. 26. 18. 18. 2. 9.
      7. 9. 9. 18. 15. 16. 5. 7. 12. 14. 11. 32. 30. 33. 13. 15. 15. 18.
      14. 41. 39. 42. 16. 19. 15. 18. 14. 42. 39. 43. 16. 19. 14. 17.
      12. 38. 36. 40. 15. 17. 7. 9. 6. 22. 20. 23. 7. 11. 9. 11. 11. 22.
      19. 19. 6. 9. 15. 22. 22. 42. 35. 35. 8. 15. 17. 25. 25. 46. 38.
      38. 9. 17. 17. 26. 26. 47. 38. 38. 8. 17. 13. 21. 21. 38. 30. 30.
      6. 13. 5. 9. 9. 16. 12. 12. 1. 5. 4. 6. 6. 13. 11. 12. 3. 5. 12.
      15. 13. 33. 29. 32. 10. 14. 15. 20. 17. 42. 37. 40. 14. 18. 15.
      20. 17. 42. 37. 41. 14. 19. 14. 18. 15. 40. 35. 37. 12. 17. 7. 11.
      7. 22. 20. 22. 7. 11. 12. 14. 14. 31. 30. 30. 9. 12. 15. 20. 20.
      46. 41. 41. 11. 15. 16. 21. 21. 46. 42. 42. 11. 16. 15. 20. 20.
      44. 39. 39. 10. 15. 11. 15. 15. 33. 29. 29. 7. 11. 2. 3. 3. 8. 7.
      7. 0. 2. 5. 7. 7. 15. 13. 14. 3. 5. 12. 18. 16. 35. 29. 31. 8. 13.
      15. 22. 20. 43. 37. 39. 10. 17. 15. 22. 19. 42. 36. 38. 10. 17.
      14. 20. 17. 38. 33. 35. 9. 15. 6. 9. 7. 19. 15. 17. 4. 7. 14. 15.
      15. 39. 38. 38. 12. 14. 16. 18. 18. 48. 44. 44. 12. 16. 16. 18.
      18. 47. 44. 44. 13. 16. 14. 16. 16. 43. 40. 40. 11. 14. 10. 11.
      11. 30. 28. 28. 8. 10. 0. 1. 1. 5. 3. 3. 0. 0. 7. 12. 12. 22. 18.
      18. 3. 7. 13. 21. 21. 39. 31. 31. 5. 13. 15. 25. 25. 46. 37. 37.
      7. 15. 14. 23. 23. 43. 35. 35. 6. 14. 11. 18. 18. 36. 29. 29. 5.
      11. 3. 4. 4. 11. 9. 9. 1. 3. 14. 15. 14. 41. 41. 41. 14. 15. 16.
      17. 16. 47. 46. 47. 16. 17. 15. 17. 15. 46. 45. 46. 15. 17. 14.
      15. 14. 41. 40. 41. 14. 15. 9. 10. 9. 28. 27. 28. 9. 10. 2. 3. 3.
      7. 6. 6. 1. 2. 10. 17. 17. 29. 23. 23. 4. 10. 15. 24. 24. 43. 34.
      34. 6. 15. 16. 26. 26. 47. 38. 38. 7. 16. 14. 22. 22. 41. 33. 33.
      6. 14. 9. 15. 15. 28. 23. 23. 3. 9. 0. 1. 1. 4. 3. 3. 0. 0. 14.
      14. 12. 39. 39. 41. 15. 15. 16. 16. 12. 46. 46. 48. 18. 18. 16.
      16. 13. 44. 44. 47. 19. 19. 14. 14. 11. 40. 40. 43. 17. 17. 10.
      11. 9. 29. 28. 31. 12. 12. 6. 10. 10. 16. 12. 13. 3. 7. 14. 23.
      23. 37. 27. 27. 5. 14. 18. 29. 29. 47. 36. 36. 6. 18. 18. 29. 29.
      48. 36. 36. 6. 18. 14. 22. 22. 38. 29. 29. 5. 14. 7. 10. 10. 20.
      15. 15. 2. 7. 0. 0. 0. 0. 0. 0. 0. 0. 12. 12. 9. 31. 31. 33. 14.
      14. 15. 15. 10. 37. 38. 43. 20. 21. 16. 15. 10. 38. 38. 43. 20.
      21. 15. 14. 9. 34. 35. 40. 19. 20. 13. 14. 9. 28. 27. 31. 14. 16.
      11. 18. 15. 24. 17. 18. 5. 12. 16. 28. 26. 38. 27. 26. 4. 16. 19.
      32. 31. 45. 32. 32. 5. 18. 17. 29. 28. 43. 31. 31. 5. 17. 12. 19.
      19. 30. 23. 23. 4. 12. 3. 5. 5. 11. 9. 9. 1. 3. 0. 0. 0. 0. 0. 0.
      0. 0. 11. 11. 7. 24. 24. 28. 13. 13. 15. 13. 8. 32. 33. 38. 20.
      22. 15. 15. 8. 33. 33. 40. 21. 22. 15. 14. 7. 30. 31. 38. 20. 22.
      14. 16. 9. 27. 25. 30. 15. 20. 15. 23. 18. 29. 21. 22. 7. 16. 17.
      30. 28. 38. 25. 24. 3. 16. 20. 33. 31. 43. 29. 28. 4. 18. 16. 28.
      27. 38. 27. 25. 3. 16. 9. 16. 16. 24. 17. 17. 2. 9. 1. 2. 2. 5. 4.
      4. 0. 1. 0. 0. 0. 0. 0. 0. 0. 0. 7. 7. 5. 17. 17. 20. 10. 10. 15.
      13. 5. 24. 26. 33. 20. 22. 15. 14. 4. 27. 27. 36. 22. 23. 15. 14.
      4. 25. 27. 36. 20. 23. 15. 19. 9. 27. 23. 30. 15. 22. 19. 28. 22.
      33. 23. 25. 7. 20. 19. 33. 30. 38. 23. 22. 3. 17. 19. 33. 30. 41.
      27. 25. 3. 17. 15. 27. 25. 35. 22. 22. 3. 14. 7. 12. 12. 19. 12.
      12. 1. 7. 0. 0. 0. 1. 0. 0. 0. 0. 0. 0. 0. 0. 0. 0. 0. 0.</_>
    <_>
      0. 0. 0. 0. 0. 0. 0. 0. 0. 0. 0. 0. 0. 0. 0. 0. 0. 1. 1. 3. 1. 1.
      0. 0. 7. 12. 9. 11. 6. 4. 0. 6. 17. 25. 14. 17. 11. 11. 4. 17. 28.
      36. 17. 22. 15. 19. 12. 31. 36. 43. 17. 25. 19. 25. 20. 43. 35.
      38. 11. 19. 17. 25. 22. 43. 23. 23. 4. 12. 12. 20. 20. 33. 12. 12.
      1. 7. 7. 12. 12. 19. 3. 3. 0. 3. 3. 5. 5. 7. 0. 0. 0. 0. 0. 0. 0.
      0. 0. 0. 0. 0. 0. 0. 0. 0. 0. 0. 0. 0. 0. 0. 0. 0. 2. 5. 5. 9. 5.
      5. 0. 2. 10. 17. 15. 20. 12. 11. 1. 9. 21. 29. 20. 27. 18. 18. 5.
      21. 31. 40. 22. 30. 22. 24. 12. 34. 38. 46. 20. 31. 24. 31. 22.
      46. 36. 38. 11. 24. 21. 31. 28. 47. 28. 28. 4. 18. 18. 29. 27. 38.
      17. 17. 2. 14. 14. 22. 20. 25. 8. 8. 1. 9. 9. 15. 12. 15. 1. 1. 0.
      3. 3. 5. 3. 3. 0. 0. 0. 0. 0. 0. 0. 0. 0. 0. 0. 1. 1. 1. 0. 0. 5.
      9. 9. 16. 12. 11. 2. 4. 12. 20. 18. 28. 20. 19. 3. 12. 22. 31. 23.
      35. 25. 25. 7. 22. 31. 40. 25. 36. 27. 30. 13. 32. 37. 44. 21. 34.
      27. 34. 22. 43. 35. 38. 12. 27. 25. 36. 29. 46. 29. 29. 7. 25. 24.
      36. 30. 41. 20. 20. 5. 22. 21. 31. 24. 30. 11. 12. 2. 17. 16. 24.
      17. 20. 4. 4. 1. 11. 11. 14. 7. 9. 0. 0. 0. 0. 0. 0. 0. 0. 1. 1.
      1. 4. 3. 3. 0. 1. 8. 13. 13. 24. 19. 18. 3. 7. 15. 24. 23. 37. 28.
      28. 5. 14. 22. 33. 27. 44. 33. 33. 8. 22. 29. 39. 27. 42. 33. 35.
      13. 30. 32. 39. 21. 35. 28. 34. 20. 38. 32. 35. 12. 31. 28. 39.
      28. 43. 29. 30. 9. 33. 31. 43. 31. 41. 22. 24. 9. 32. 30. 41. 27.
      33. 15. 16. 7. 28. 27. 35. 21. 24. 9. 9. 6. 22. 20. 23. 11. 12. 0.
      0. 0. 0. 0. 0. 0. 0. 4. 8. 8. 12. 9. 9. 1. 4. 12. 20. 20. 34. 26.
      25. 4. 12. 18. 29. 28. 46. 34. 34. 6. 17. 20. 32. 30. 48. 36. 36.
      7. 20. 21. 31. 26. 41. 32. 33. 9. 22. 19. 24. 15. 28. 22. 26. 13.
      23. 23. 25. 12. 32. 28. 37. 22. 30. 24. 27. 13. 39. 36. 45. 26.
      33. 22. 25. 14. 41. 38. 46. 25. 30. 17. 21. 12. 38. 35. 42. 21.
      25. 12. 15. 11. 30. 28. 33. 14. 17. 0. 0. 0. 3. 3. 3. 0. 0. 8. 11.
      11. 22. 17. 17. 3. 8. 14. 22. 22. 39. 31. 31. 7. 14. 18. 27. 27.
      48. 38. 38. 8. 18. 17. 27. 27. 46. 37. 37. 8. 17. 13. 20. 20. 34.
      27. 27. 6. 13. 5. 8. 7. 16. 13. 14. 3. 6. 11. 15. 11. 29. 25. 27.
      10. 13. 16. 21. 16. 40. 35. 38. 14. 19. 17. 23. 18. 44. 38. 42.
      16. 21. 17. 22. 17. 43. 38. 42. 16. 21. 14. 19. 15. 36. 31. 35.
      14. 17. 0. 0. 0. 6. 4. 6. 0. 0. 10. 15. 15. 30. 24. 25. 5. 10. 15.
      22. 22. 42. 35. 35. 9. 16. 18. 26. 25. 48. 40. 40. 10. 19. 17. 24.
      24. 43. 36. 36. 10. 17. 12. 18. 18. 29. 24. 23. 7. 12. 5. 9. 9.
      16. 10. 9. 1. 3. 12. 20. 19. 33. 25. 24. 6. 11. 16. 26. 24. 44.
      34. 33. 9. 15. 17. 27. 25. 45. 36. 36. 10. 17. 16. 24. 22. 43. 35.
      35. 10. 16. 12. 15. 15. 30. 27. 28. 9. 12. 0. 0. 0. 7. 6. 7. 0. 0.
      11. 16. 15. 34. 29. 31. 9. 14. 16. 21. 19. 42. 37. 39. 12. 18. 18.
      24. 22. 46. 40. 42. 14. 20. 16. 23. 21. 41. 35. 37. 12. 18. 13.
      21. 20. 31. 23. 23. 8. 13. 6. 16. 16. 21. 11. 7. 0. 3. 14. 28. 27.
      38. 24. 20. 3. 9. 16. 31. 30. 45. 30. 26. 5. 12. 16. 28. 27. 42.
      30. 27. 6. 13. 14. 21. 21. 35. 27. 25. 5. 11. 7. 12. 12. 22. 17.
      17. 4. 7. 0. 0. 0. 6. 6. 6. 0. 0. 12. 14. 10. 31. 29. 31. 11. 15.
      20. 23. 15. 39. 36. 39. 16. 24. 29. 32. 19. 44. 41. 44. 21. 33.
      33. 38. 23. 43. 38. 42. 20. 37. 32. 41. 27. 38. 29. 29. 16. 32.
      23. 37. 27. 30. 17. 13. 4. 19. 22. 39. 33. 40. 24. 18. 4. 16. 17.
      34. 32. 41. 24. 19. 3. 12. 12. 25. 24. 33. 21. 17. 3. 9. 9. 16.
      15. 23. 16. 15. 3. 8. 4. 6. 6. 11. 7. 7. 3. 4. 0. 0. 0. 4. 4. 4.
      0. 0. 9. 9. 4. 22. 22. 25. 11. 12. 19. 19. 9. 29. 29. 33. 17. 23.
      30. 30. 13. 35. 35. 39. 22. 34. 38. 40. 19. 37. 35. 39. 22. 42.
      38. 46. 26. 37. 29. 29. 18. 39. 31. 45. 30. 32. 19. 14. 7. 26. 23.
      39. 31. 35. 19. 14. 4. 18. 15. 30. 27. 32. 17. 12. 2. 10. 8. 18.
      18. 22. 12. 8. 1. 4. 4. 9. 9. 11. 7. 5. 1. 3. 1. 1. 1. 3. 1. 1. 0.
      1. 0. 0. 0. 1. 1. 1. 0. 0. 8. 8. 2. 16. 16. 20. 11. 12. 18. 18. 7.
      22. 22. 27. 16. 23. 33. 33. 11. 29. 29. 34. 22. 38. 44. 47. 20.
      35. 31. 36. 23. 49. 46. 55. 28. 38. 29. 30. 20. 47. 37. 50. 31.
      33. 20. 16. 8. 33. 24. 38. 29. 31. 16. 11. 4. 20. 12. 25. 22. 24.
      11. 7. 1. 8. 4. 11. 11. 12. 5. 2. 0. 1. 1. 4. 4. 4. 1. 1. 0. 1. 0.
      0. 0. 0. 0. 0. 0. 0. 0. 0. 0. 0. 0. 0. 0. 0. 7. 7. 1. 9. 9. 13. 7.
      9. 19. 19. 4. 15. 15. 20. 14. 23. 35. 35. 11. 22. 22. 27. 20. 39.
      49. 51. 20. 30. 28. 31. 22. 52. 51. 59. 28. 36. 28. 30. 20. 52.
      39. 51. 28. 28. 19. 15. 11. 38. 23. 35. 22. 23. 12. 11. 4. 20. 9.
      17. 14. 15. 7. 4. 1. 7. 1. 4. 4. 4. 1. 0. 0. 0. 0. 0. 0. 0. 0. 0.
      0. 0. 0. 0. 0. 0. 0. 0. 0. 0.</_>
    <_>
      0. 0. 0. 0. 0. 0. 0. 0. 0. 0. 0. 0. 0. 0. 0. 0. 0. 0. 0. 0. 0. 0.
      0. 0. 4. 6. 3. 4. 1. 1. 0. 4. 19. 22. 7. 9. 7. 6. 4. 17. 33. 36.
      11. 19. 15. 20. 17. 36. 43. 46. 12. 33. 30. 41. 31. 52. 41. 43.
      11. 36. 35. 47. 36. 55. 30. 30. 4. 30. 30. 44. 33. 44. 14. 14. 1.
      22. 22. 33. 22. 25. 5. 5. 0. 11. 11. 16. 9. 9. 0. 0. 0. 0. 0. 0.
      0. 0. 0. 0. 0. 0. 0. 0. 0. 0. 0. 0. 0. 0. 0. 0. 0. 0. 0. 0. 0. 0.
      0. 0. 0. 0. 3. 4. 2. 2. 1. 1. 0. 2. 12. 14. 5. 7. 4. 3. 2. 11. 21.
      23. 7. 12. 10. 14. 11. 24. 31. 33. 9. 30. 28. 36. 25. 40. 31. 33.
      9. 36. 35. 46. 31. 43. 24. 24. 5. 34. 34. 46. 30. 36. 14. 14. 3.
      25. 25. 35. 22. 23. 6. 6. 2. 18. 18. 22. 11. 11. 0. 0. 0. 0. 0. 0.
      0. 0. 0. 0. 0. 1. 1. 1. 0. 0. 1. 2. 1. 4. 3. 4. 0. 1. 2. 2. 2. 6.
      5. 5. 1. 2. 4. 5. 3. 8. 6. 6. 1. 4. 9. 11. 5. 9. 7. 7. 3. 9. 14.
      15. 5. 10. 9. 11. 8. 16. 22. 24. 8. 27. 26. 32. 21. 29. 24. 26. 9.
      36. 35. 43. 26. 34. 21. 22. 8. 37. 36. 46. 26. 31. 14. 14. 6. 31.
      30. 38. 20. 22. 8. 9. 4. 22. 22. 25. 11. 12. 0. 0. 0. 1. 0. 1. 0.
      0. 1. 3. 3. 7. 6. 6. 1. 1. 4. 5. 4. 14. 11. 12. 2. 4. 5. 6. 6. 15.
      13. 14. 3. 5. 5. 7. 6. 16. 13. 14. 3. 5. 4. 5. 4. 12. 10. 11. 2.
      4. 2. 2. 1. 5. 5. 6. 2. 3. 9. 11. 7. 23. 22. 26. 12. 14. 14. 16.
      11. 36. 34. 39. 17. 20. 15. 18. 12. 41. 38. 44. 19. 22. 13. 16.
      11. 36. 34. 39. 17. 19. 10. 11. 8. 29. 27. 30. 11. 14. 0. 0. 0. 1.
      1. 1. 0. 0. 4. 4. 4. 12. 11. 12. 4. 4. 8. 9. 8. 23. 21. 23. 7. 9.
      9. 11. 9. 26. 23. 25. 7. 10. 9. 11. 8. 25. 23. 25. 7. 10. 7. 8. 6.
      20. 18. 20. 5. 8. 2. 3. 2. 7. 7. 8. 1. 3. 9. 11. 9. 24. 22. 24.
      10. 12. 14. 17. 13. 37. 34. 38. 14. 17. 15. 19. 15. 43. 39. 43.
      16. 20. 14. 17. 13. 38. 35. 39. 14. 17. 10. 12. 10. 31. 28. 31.
      11. 14. 0. 0. 0. 1. 1. 1. 0. 0. 6. 6. 6. 17. 15. 17. 4. 6. 11. 12.
      10. 33. 30. 31. 10. 12. 12. 14. 12. 35. 32. 35. 11. 14. 12. 14.
      11. 35. 33. 35. 11. 14. 10. 11. 9. 28. 26. 28. 9. 11. 4. 4. 3. 11.
      10. 11. 3. 4. 9. 12. 10. 25. 22. 24. 8. 11. 14. 18. 15. 38. 34.
      36. 12. 16. 15. 21. 17. 44. 39. 42. 14. 19. 14. 18. 15. 39. 34.
      37. 12. 16. 10. 14. 11. 31. 28. 30. 9. 12. 0. 0. 0. 1. 1. 1. 0. 0.
      4. 6. 4. 20. 19. 19. 6. 6. 12. 14. 11. 38. 36. 38. 12. 14. 14. 16.
      13. 42. 40. 42. 14. 16. 15. 16. 14. 42. 40. 43. 15. 17. 12. 13.
      11. 33. 32. 34. 12. 13. 5. 6. 5. 15. 14. 15. 5. 6. 9. 13. 12. 26.
      22. 23. 7. 11. 14. 20. 17. 39. 33. 35. 10. 16. 15. 22. 20. 44. 38.
      40. 11. 18. 14. 19. 17. 39. 33. 36. 10. 16. 10. 15. 12. 31. 27.
      28. 8. 12. 0. 0. 0. 1. 0. 1. 0. 0. 4. 4. 3. 15. 15. 17. 4. 4. 12.
      12. 10. 37. 36. 38. 14. 15. 14. 15. 12. 41. 40. 43. 16. 17. 15.
      15. 13. 42. 42. 44. 17. 18. 12. 13. 10. 34. 34. 36. 14. 15. 8. 10.
      8. 21. 19. 20. 8. 9. 10. 16. 15. 30. 24. 25. 5. 11. 14. 22. 20.
      41. 33. 35. 8. 15. 15. 24. 22. 45. 37. 38. 9. 17. 13. 20. 18. 38.
      31. 33. 8. 14. 9. 12. 11. 27. 22. 23. 5. 10. 0. 0. 0. 0. 0. 0. 0.
      0. 1. 1. 0. 9. 9. 11. 1. 1. 11. 11. 7. 33. 33. 37. 15. 15. 14. 14.
      9. 38. 38. 43. 19. 19. 16. 16. 10. 41. 41. 46. 21. 22. 15. 15. 10.
      35. 35. 39. 18. 20. 15. 19. 14. 31. 27. 29. 12. 18. 14. 23. 21.
      35. 26. 27. 5. 15. 17. 28. 26. 44. 34. 35. 7. 18. 17. 27. 25. 45.
      35. 36. 7. 18. 13. 20. 19. 35. 28. 29. 6. 14. 7. 9. 9. 20. 16. 17.
      3. 7. 0. 0. 0. 0. 0. 0. 0. 0. 0. 0. 0. 4. 4. 6. 0. 0. 9. 9. 4. 27.
      27. 30. 12. 14. 14. 14. 7. 32. 32. 38. 18. 20. 16. 17. 8. 36. 36.
      41. 20. 23. 19. 22. 11. 35. 34. 38. 19. 25. 23. 30. 20. 39. 32.
      35. 15. 27. 20. 32. 27. 38. 27. 27. 5. 20. 21. 34. 30. 44. 31. 31.
      4. 20. 18. 30. 27. 41. 29. 29. 4. 18. 10. 18. 18. 29. 21. 21. 2.
      10. 3. 7. 7. 11. 9. 9. 1. 3. 0. 0. 0. 0. 0. 0. 0. 0. 0. 0. 0. 1.
      1. 3. 0. 0. 8. 8. 2. 20. 20. 26. 13. 13. 12. 14. 4. 27. 27. 34.
      17. 21. 16. 17. 5. 31. 30. 37. 21. 24. 22. 25. 10. 34. 31. 37. 20.
      29. 28. 38. 23. 43. 34. 37. 16. 33. 25. 38. 30. 41. 27. 27. 4. 24.
      23. 37. 31. 43. 29. 28. 3. 22. 18. 30. 27. 37. 25. 25. 3. 18. 8.
      16. 16. 23. 15. 15. 1. 8. 1. 2. 2. 5. 4. 4. 0. 1. 0. 0. 0. 0. 0.
      0. 0. 0. 0. 0. 0. 0. 0. 0. 0. 0. 7. 7. 0. 15. 15. 20. 13. 13. 12.
      14. 1. 20. 20. 28. 17. 22. 15. 19. 3. 27. 25. 33. 20. 25. 25. 31.
      11. 33. 28. 35. 20. 33. 33. 46. 27. 47. 36. 39. 17. 39. 30. 46.
      33. 43. 27. 27. 6. 30. 25. 39. 33. 41. 27. 25. 4. 25. 19. 30. 25.
      33. 20. 20. 3. 19. 6. 12. 12. 17. 11. 11. 0. 6. 0. 0. 0. 0. 0. 0.
      0. 0. 0. 0. 0. 0. 0. 0. 0. 0.</_>
    <_>
      0. 0. 0. 0. 0. 0. 0. 0. 0. 0. 0. 1. 0. 0. 0. 0. 4. 9. 9. 11. 6. 6.
      0. 4. 14. 25. 22. 27. 14. 12. 0. 12. 27. 44. 35. 41. 22. 19. 1.
      23. 41. 60. 41. 47. 27. 25. 6. 39. 52. 68. 38. 47. 30. 33. 17. 54.
      57. 67. 28. 49. 39. 49. 35. 65. 51. 52. 15. 41. 39. 52. 39. 63.
      36. 36. 9. 35. 35. 49. 36. 51. 24. 24. 5. 30. 30. 43. 30. 35. 12.
      12. 5. 22. 22. 30. 17. 20. 0. 0. 0. 0. 0. 0. 0. 0. 2. 6. 6. 8. 4.
      4. 0. 2. 9. 18. 17. 21. 11. 11. 0. 9. 17. 33. 30. 35. 18. 17. 0.
      16. 25. 44. 38. 44. 24. 22. 1. 23. 34. 53. 40. 44. 25. 24. 4. 31.
      37. 50. 30. 36. 23. 24. 11. 38. 42. 49. 22. 41. 34. 41. 28. 49.
      38. 41. 15. 41. 38. 48. 34. 49. 30. 30. 10. 37. 37. 49. 31. 41.
      22. 22. 8. 36. 36. 47. 27. 32. 15. 15. 7. 32. 32. 37. 20. 20. 1.
      3. 3. 4. 3. 3. 1. 1. 7. 14. 14. 17. 11. 11. 1. 8. 13. 25. 24. 30.
      18. 18. 2. 14. 19. 36. 35. 41. 25. 24. 2. 19. 24. 43. 38. 45. 26.
      25. 2. 23. 26. 42. 34. 39. 23. 22. 3. 25. 24. 35. 22. 27. 16. 17.
      7. 25. 30. 35. 18. 34. 30. 34. 21. 35. 29. 31. 14. 39. 38. 45. 27.
      37. 25. 26. 12. 41. 40. 48. 27. 33. 20. 21. 10. 41. 41. 48. 24.
      28. 15. 15. 9. 38. 36. 43. 19. 20. 9. 12. 11. 15. 11. 12. 6. 9.
      18. 27. 25. 34. 25. 27. 10. 20. 24. 38. 35. 46. 33. 34. 11. 26.
      28. 46. 42. 54. 37. 38. 11. 30. 26. 43. 40. 50. 33. 34. 9. 27. 16.
      29. 26. 32. 20. 20. 3. 16. 7. 13. 11. 13. 7. 6. 0. 7. 13. 17. 13.
      26. 23. 25. 12. 16. 16. 18. 14. 38. 36. 39. 17. 20. 18. 21. 16.
      44. 42. 46. 19. 22. 18. 21. 16. 48. 44. 49. 20. 22. 15. 19. 15.
      46. 43. 47. 17. 20. 20. 23. 22. 30. 23. 27. 14. 20. 33. 43. 38.
      55. 43. 47. 23. 35. 37. 51. 46. 63. 49. 53. 25. 40. 37. 53. 48.
      65. 50. 54. 24. 40. 30. 44. 40. 53. 40. 43. 18. 32. 12. 20. 19.
      25. 18. 20. 6. 13. 1. 4. 4. 5. 2. 2. 0. 1. 10. 13. 12. 24. 22. 22.
      8. 11. 15. 19. 18. 40. 36. 37. 12. 16. 17. 21. 20. 46. 42. 43. 13.
      18. 17. 22. 21. 49. 44. 46. 14. 18. 15. 20. 19. 47. 43. 44. 12.
      17. 30. 36. 31. 46. 38. 43. 25. 33. 46. 56. 49. 71. 60. 66. 36.
      50. 47. 60. 52. 74. 62. 68. 38. 52. 45. 59. 51. 72. 60. 66. 36.
      51. 34. 45. 39. 54. 45. 49. 27. 38. 10. 15. 13. 20. 16. 17. 7. 12.
      1. 2. 2. 4. 2. 2. 0. 1. 10. 15. 15. 27. 23. 23. 6. 11. 15. 21. 21.
      41. 35. 35. 8. 15. 16. 23. 23. 47. 40. 40. 9. 17. 16. 23. 23. 48.
      41. 41. 9. 16. 14. 19. 19. 43. 36. 36. 7. 14. 35. 41. 35. 55. 47.
      54. 30. 39. 47. 56. 48. 75. 66. 73. 42. 54. 48. 58. 49. 77. 67.
      74. 43. 55. 46. 55. 47. 72. 63. 69. 41. 52. 34. 41. 35. 52. 45.
      50. 30. 39. 8. 10. 9. 15. 13. 14. 7. 9. 3. 5. 5. 9. 6. 6. 0. 3.
      12. 19. 19. 32. 25. 24. 4. 11. 16. 25. 25. 44. 34. 34. 6. 15. 16.
      26. 26. 47. 36. 36. 7. 16. 15. 24. 24. 46. 36. 35. 5. 15. 11. 15.
      15. 31. 27. 27. 4. 11. 31. 38. 31. 55. 51. 55. 30. 36. 42. 51. 43.
      73. 64. 70. 38. 49. 43. 52. 44. 73. 64. 70. 39. 49. 41. 49. 42.
      67. 59. 65. 37. 46. 30. 36. 31. 48. 42. 46. 27. 34. 8. 11. 10. 15.
      12. 12. 5. 9. 7. 14. 14. 19. 12. 11. 1. 7. 14. 26. 26. 39. 27. 26.
      3. 14. 17. 31. 31. 47. 33. 32. 4. 16. 16. 29. 29. 45. 32. 32. 4.
      15. 12. 22. 22. 37. 28. 27. 4. 12. 6. 11. 11. 20. 15. 15. 1. 6.
      25. 30. 25. 52. 47. 52. 25. 31. 31. 37. 31. 62. 56. 61. 30. 37.
      31. 38. 32. 61. 55. 60. 30. 37. 29. 36. 30. 56. 50. 54. 27. 34.
      23. 29. 24. 41. 35. 38. 19. 27. 10. 17. 15. 19. 12. 12. 2. 10. 14.
      26. 24. 31. 19. 18. 1. 14. 19. 35. 34. 45. 29. 28. 3. 18. 19. 35.
      35. 48. 32. 31. 4. 18. 15. 28. 28. 40. 27. 26. 3. 14. 9. 17. 17.
      27. 20. 18. 2. 9. 3. 4. 4. 9. 7. 7. 1. 3. 17. 20. 15. 41. 38. 41.
      17. 20. 18. 23. 18. 46. 41. 46. 20. 23. 19. 23. 19. 44. 40. 44.
      19. 23. 19. 23. 18. 40. 36. 40. 17. 23. 18. 24. 17. 33. 28. 30.
      12. 21. 14. 23. 17. 20. 12. 12. 2. 15. 21. 35. 30. 36. 22. 22. 2.
      21. 22. 40. 35. 44. 27. 26. 3. 22. 19. 35. 33. 42. 26. 25. 2. 18.
      12. 23. 23. 30. 19. 18. 1. 11. 4. 10. 10. 16. 10. 9. 0. 4. 0. 0.
      0. 1. 1. 1. 0. 0. 11. 13. 9. 32. 30. 33. 11. 15. 12. 15. 11. 36.
      32. 36. 12. 15. 11. 14. 10. 34. 30. 34. 11. 15. 12. 15. 10. 31.
      28. 31. 11. 16. 16. 22. 12. 29. 24. 27. 8. 20. 18. 29. 21. 23. 15.
      15. 2. 20. 24. 41. 33. 38. 23. 23. 2. 24. 24. 42. 36. 42. 25. 24.
      2. 24. 18. 34. 31. 37. 22. 21. 2. 17. 9. 18. 18. 23. 14. 12. 1. 9.
      2. 5. 5. 8. 5. 4. 0. 2. 0. 0. 0. 0. 0. 0. 0. 0. 10. 10. 7. 25. 22.
      28. 7. 12. 11. 13. 7. 28. 26. 30. 9. 13. 9. 12. 7. 28. 23. 28. 9.
      12. 12. 15. 7. 27. 23. 27. 9. 15. 19. 25. 14. 28. 22. 25. 7. 22.
      23. 35. 23. 28. 17. 17. 3. 25. 27. 44. 33. 36. 23. 23. 3. 28. 25.
      43. 33. 38. 23. 23. 3. 27. 17. 31. 27. 30. 17. 17. 1. 17. 6. 14.
      14. 15. 7. 7. 0. 6. 0. 1. 1. 1. 0. 0. 0. 0. 0. 0. 0. 0. 0. 0. 0.
      0.</_>
    <_>
      0. 0. 0. 0. 0. 0. 0. 0. 5. 11. 11. 15. 9. 9. 0. 5. 14. 25. 20. 25.
      14. 14. 1. 14. 28. 43. 30. 35. 22. 22. 3. 28. 41. 60. 41. 46. 28.
      28. 6. 43. 52. 70. 43. 51. 33. 39. 19. 59. 54. 67. 33. 51. 39. 52.
      35. 67. 44. 52. 22. 46. 38. 55. 39. 62. 31. 36. 12. 38. 33. 51.
      36. 47. 17. 17. 3. 22. 22. 35. 27. 30. 7. 7. 0. 13. 13. 18. 13.
      13. 0. 0. 0. 0. 0. 0. 0. 0. 0. 0. 0. 3. 3. 3. 0. 0. 6. 12. 12. 22.
      15. 15. 2. 6. 15. 24. 22. 31. 22. 22. 3. 15. 27. 40. 31. 41. 28.
      28. 7. 27. 36. 51. 37. 46. 30. 31. 8. 36. 42. 56. 36. 44. 30. 35.
      16. 46. 41. 50. 24. 42. 33. 43. 29. 53. 36. 41. 17. 42. 36. 50.
      35. 50. 27. 29. 10. 37. 35. 49. 34. 41. 17. 17. 3. 27. 27. 38. 27.
      29. 8. 8. 1. 18. 18. 25. 15. 15. 0. 0. 0. 3. 3. 5. 1. 1. 1. 1. 1.
      7. 6. 6. 0. 1. 9. 15. 15. 28. 22. 22. 3. 9. 16. 26. 24. 37. 28.
      28. 5. 16. 25. 36. 30. 44. 33. 33. 7. 25. 29. 42. 33. 45. 32. 32.
      8. 30. 31. 42. 29. 36. 26. 29. 12. 33. 29. 36. 18. 33. 27. 34. 22.
      38. 28. 32. 15. 39. 35. 46. 29. 39. 23. 26. 12. 40. 36. 48. 29.
      35. 17. 18. 7. 32. 31. 41. 25. 27. 11. 11. 5. 25. 24. 30. 16. 17.
      3. 3. 3. 9. 7. 11. 3. 4. 4. 4. 4. 15. 14. 14. 3. 4. 12. 18. 18.
      37. 31. 31. 7. 12. 18. 25. 25. 45. 37. 37. 8. 18. 22. 31. 29. 49.
      40. 40. 10. 22. 22. 31. 27. 43. 34. 34. 9. 22. 16. 23. 19. 26. 20.
      20. 6. 17. 15. 18. 10. 23. 20. 24. 14. 20. 18. 20. 11. 35. 34. 40.
      22. 25. 18. 19. 12. 41. 39. 46. 24. 26. 16. 18. 11. 39. 37. 44.
      22. 23. 14. 15. 9. 34. 31. 37. 17. 18. 4. 4. 4. 14. 12. 14. 4. 4.
      6. 6. 6. 19. 17. 19. 6. 6. 14. 17. 16. 40. 36. 37. 10. 15. 15. 20.
      19. 44. 39. 41. 12. 17. 16. 21. 20. 45. 40. 41. 12. 17. 13. 17.
      16. 36. 32. 33. 9. 14. 6. 8. 8. 16. 14. 14. 3. 6. 6. 7. 6. 16. 15.
      16. 7. 8. 13. 14. 12. 35. 33. 35. 14. 16. 16. 18. 15. 43. 41. 44.
      17. 19. 15. 17. 14. 42. 40. 43. 16. 18. 12. 15. 12. 37. 36. 38.
      14. 16. 4. 6. 4. 17. 15. 17. 4. 6. 6. 7. 6. 20. 20. 20. 6. 7. 12.
      15. 12. 40. 37. 40. 12. 15. 14. 16. 14. 43. 41. 43. 14. 16. 15.
      16. 15. 43. 41. 43. 15. 16. 11. 13. 11. 34. 33. 34. 11. 13. 5. 5.
      5. 14. 13. 14. 5. 5. 7. 8. 8. 17. 16. 17. 6. 7. 13. 15. 15. 36.
      34. 35. 12. 14. 16. 19. 18. 45. 42. 43. 14. 17. 15. 18. 17. 43.
      41. 42. 13. 16. 12. 15. 14. 38. 36. 37. 11. 14. 3. 4. 4. 17. 15.
      15. 3. 4. 4. 6. 4. 19. 17. 19. 6. 6. 12. 12. 11. 36. 36. 40. 15.
      15. 14. 15. 12. 40. 39. 43. 17. 18. 15. 15. 13. 40. 40. 44. 17.
      18. 12. 12. 10. 32. 32. 35. 14. 15. 5. 5. 4. 14. 14. 15. 7. 7. 7.
      9. 8. 18. 17. 17. 6. 7. 12. 15. 14. 35. 32. 33. 9. 12. 15. 18. 17.
      42. 39. 39. 11. 15. 13. 16. 16. 40. 37. 37. 10. 13. 10. 14. 12.
      35. 31. 33. 8. 10. 1. 3. 3. 12. 11. 11. 1. 1. 3. 3. 1. 12. 12. 14.
      3. 3. 11. 11. 8. 33. 34. 37. 16. 16. 14. 14. 10. 37. 38. 44. 20.
      20. 16. 15. 10. 39. 40. 46. 22. 22. 13. 12. 9. 32. 33. 38. 18. 18.
      8. 7. 5. 16. 17. 20. 11. 11. 7. 8. 7. 16. 15. 16. 5. 7. 10. 12.
      11. 28. 26. 26. 7. 10. 11. 14. 13. 33. 30. 31. 8. 11. 10. 12. 11.
      31. 28. 29. 7. 10. 8. 9. 9. 25. 23. 24. 5. 8. 0. 0. 0. 6. 4. 4. 0.
      0. 0. 0. 0. 6. 6. 7. 0. 0. 10. 10. 5. 27. 28. 34. 16. 16. 15. 13.
      8. 34. 35. 42. 22. 22. 17. 15. 9. 37. 38. 46. 25. 25. 16. 14. 9.
      33. 34. 41. 22. 23. 11. 10. 6. 21. 21. 26. 15. 16. 6. 8. 6. 16.
      14. 16. 4. 7. 8. 10. 8. 22. 18. 20. 4. 8. 8. 10. 9. 24. 20. 22. 5.
      8. 7. 8. 7. 20. 18. 19. 4. 7. 4. 5. 5. 16. 14. 15. 3. 4. 0. 0. 0.
      3. 1. 1. 0. 0. 0. 0. 0. 3. 3. 4. 0. 0. 9. 8. 4. 20. 21. 25. 14.
      14. 14. 13. 7. 28. 29. 37. 21. 22. 20. 19. 9. 33. 35. 44. 27. 29.
      23. 23. 12. 35. 35. 44. 26. 32. 21. 22. 12. 28. 26. 33. 20. 27.
      14. 16. 10. 20. 16. 19. 7. 15. 10. 13. 10. 18. 13. 15. 3. 10. 7.
      9. 7. 16. 12. 13. 2. 6. 3. 4. 3. 10. 8. 9. 1. 3. 2. 3. 2. 8. 5. 7.
      1. 2. 0. 0. 0. 0. 0. 0. 0. 0. 0. 0. 0. 0. 0. 1. 0. 0. 6. 6. 4. 15.
      15. 20. 12. 12. 14. 12. 4. 22. 23. 33. 21. 22. 22. 21. 8. 29. 31.
      42. 28. 33. 29. 29. 12. 35. 34. 44. 29. 38. 28. 29. 14. 33. 29.
      37. 23. 35. 20. 22. 11. 22. 16. 20. 10. 21. 12. 15. 10. 16. 10.
      11. 3. 11. 5. 7. 5. 10. 5. 7. 1. 4. 1. 1. 0. 3. 2. 3. 0. 1. 0. 0.
      0. 1. 1. 1. 0. 0. 0. 0. 0. 0. 0. 0. 0. 0. 0. 0. 0. 0. 0. 0. 0. 0.
      5. 5. 1. 9. 9. 13. 9. 9. 14. 12. 3. 19. 20. 28. 19. 20. 25. 23. 7.
      27. 28. 39. 28. 35. 35. 36. 15. 38. 35. 46. 31. 44. 36. 39. 19.
      38. 33. 41. 27. 43. 27. 31. 17. 27. 20. 25. 14. 30. 15. 20. 14.
      17. 11. 11. 4. 14. 6. 7. 6. 9. 4. 4. 0. 4. 0. 0. 0. 0. 0. 0. 0. 0.
      0. 0. 0. 0. 0. 0. 0. 0. 0. 0. 0. 0. 0. 0. 0. 0.</_>
    <_>
      0. 0. 0. 0. 0. 0. 0. 0. 0. 0. 0. 0. 0. 0. 0. 0. 1. 3. 3. 4. 3. 3.
      0. 1. 15. 25. 22. 35. 27. 28. 9. 19. 31. 43. 33. 57. 46. 52. 23.
      38. 44. 55. 38. 81. 68. 83. 43. 59. 46. 55. 35. 81. 71. 89. 49.
      62. 36. 43. 22. 65. 59. 75. 44. 52. 17. 17. 4. 30. 30. 43. 27. 28.
      6. 6. 1. 15. 15. 20. 12. 12. 0. 0. 0. 0. 0. 0. 0. 0. 0. 0. 0. 0.
      0. 0. 0. 0. 0. 0. 0. 0. 0. 0. 0. 0. 0. 0. 0. 0. 0. 0. 0. 0. 3. 7.
      7. 10. 8. 8. 1. 3. 17. 25. 22. 40. 31. 34. 11. 20. 29. 40. 31. 61.
      49. 56. 23. 36. 41. 51. 35. 81. 69. 83. 40. 54. 42. 51. 31. 83.
      73. 90. 47. 58. 34. 37. 18. 63. 58. 75. 42. 49. 17. 17. 4. 34. 33.
      46. 28. 29. 8. 8. 2. 18. 18. 24. 15. 15. 1. 1. 0. 2. 2. 4. 1. 1.
      0. 0. 0. 0. 0. 0. 0. 0. 0. 0. 0. 0. 0. 0. 0. 0. 0. 0. 0. 0. 0. 0.
      0. 0. 6. 8. 8. 16. 14. 14. 3. 6. 18. 24. 22. 42. 35. 38. 13. 20.
      28. 36. 29. 61. 51. 57. 22. 32. 36. 44. 32. 77. 67. 79. 36. 47.
      38. 45. 27. 80. 71. 88. 43. 53. 30. 32. 15. 59. 55. 71. 40. 45.
      18. 18. 4. 36. 35. 48. 28. 29. 10. 10. 2. 22. 22. 30. 17. 17. 3.
      3. 0. 8. 8. 10. 5. 5. 0. 0. 0. 0. 0. 0. 0. 0. 0. 0. 0. 0. 0. 0. 0.
      0. 0. 0. 0. 0. 0. 0. 0. 0. 8. 11. 11. 24. 20. 20. 4. 8. 18. 24.
      22. 46. 40. 42. 14. 20. 24. 31. 27. 60. 52. 57. 20. 27. 29. 35.
      27. 69. 61. 70. 28. 36. 32. 37. 25. 74. 68. 81. 36. 43. 23. 25.
      12. 53. 50. 64. 33. 36. 17. 18. 8. 41. 39. 49. 25. 27. 12. 13. 6.
      29. 28. 35. 19. 20. 5. 7. 3. 15. 15. 17. 8. 9. 0. 0. 0. 0. 0. 0.
      0. 0. 0. 0. 0. 0. 0. 0. 0. 0. 0. 0. 0. 1. 1. 1. 0. 0. 10. 13. 12.
      28. 25. 26. 7. 10. 17. 21. 19. 45. 40. 43. 14. 19. 22. 27. 23. 56.
      50. 54. 18. 25. 23. 28. 22. 57. 51. 58. 22. 28. 27. 32. 22. 66.
      61. 70. 29. 35. 20. 22. 12. 47. 44. 54. 25. 28. 18. 19. 11. 44.
      41. 49. 23. 25. 13. 15. 9. 34. 32. 38. 18. 19. 9. 10. 7. 23. 22.
      25. 10. 12. 0. 0. 0. 0. 0. 0. 0. 0. 0. 0. 0. 0. 0. 0. 0. 0. 0. 0.
      0. 3. 2. 2. 0. 0. 10. 12. 11. 30. 26. 28. 8. 11. 14. 18. 17. 42.
      38. 40. 12. 16. 18. 22. 19. 49. 44. 47. 15. 20. 16. 20. 17. 44.
      40. 44. 14. 19. 22. 26. 20. 56. 52. 57. 22. 26. 16. 18. 12. 42.
      39. 44. 18. 20. 17. 19. 14. 45. 42. 47. 19. 22. 14. 16. 12. 38.
      35. 39. 16. 18. 10. 12. 9. 29. 27. 30. 11. 14. 0. 0. 0. 0. 0. 0.
      0. 0. 0. 0. 0. 0. 0. 0. 0. 0. 0. 0. 0. 3. 2. 3. 0. 0. 10. 12. 9.
      28. 25. 29. 10. 12. 14. 17. 14. 39. 36. 40. 15. 18. 16. 20. 15.
      43. 40. 44. 17. 21. 14. 17. 14. 37. 34. 38. 15. 18. 18. 22. 17.
      46. 43. 47. 18. 22. 12. 14. 11. 34. 31. 34. 11. 14. 14. 16. 13.
      38. 35. 38. 13. 16. 12. 14. 11. 34. 31. 34. 11. 14. 9. 10. 9. 27.
      24. 27. 9. 10. 0. 0. 0. 0. 0. 0. 0. 0. 0. 0. 0. 0. 0. 0. 0. 0. 0.
      0. 0. 3. 2. 3. 0. 0. 10. 11. 8. 27. 25. 29. 11. 13. 14. 17. 12.
      38. 35. 40. 16. 19. 16. 19. 14. 42. 39. 44. 18. 21. 14. 17. 12.
      36. 33. 38. 16. 19. 16. 19. 15. 40. 38. 40. 16. 19. 9. 10. 9. 26.
      24. 24. 7. 9. 10. 11. 10. 29. 27. 28. 8. 10. 9. 10. 9. 26. 24. 24.
      7. 9. 7. 8. 7. 20. 18. 20. 5. 7. 0. 0. 0. 0. 0. 0. 0. 0. 0. 0. 0.
      0. 0. 0. 0. 0. 0. 0. 0. 2. 1. 2. 0. 0. 9. 10. 6. 25. 23. 28. 12.
      13. 14. 16. 9. 36. 34. 41. 20. 21. 18. 20. 12. 41. 39. 46. 23. 25.
      17. 21. 13. 39. 35. 40. 21. 23. 17. 21. 14. 38. 34. 36. 18. 20. 8.
      11. 8. 20. 17. 16. 5. 7. 8. 10. 8. 20. 17. 16. 5. 6. 5. 7. 5. 16.
      14. 14. 4. 5. 3. 3. 3. 11. 10. 11. 3. 3. 0. 0. 0. 0. 0. 0. 0. 0.
      0. 0. 0. 0. 0. 0. 0. 0. 0. 0. 0. 1. 0. 1. 0. 0. 8. 8. 5. 20. 19.
      23. 11. 11. 15. 16. 8. 32. 30. 37. 20. 22. 22. 25. 14. 41. 37. 45.
      25. 29. 23. 29. 17. 42. 36. 42. 23. 29. 22. 28. 17. 37. 31. 34.
      19. 25. 12. 17. 11. 19. 13. 12. 6. 11. 7. 11. 8. 14. 9. 8. 2. 5.
      3. 4. 3. 8. 6. 5. 1. 2. 1. 1. 1. 4. 3. 4. 1. 1. 0. 0. 0. 0. 0. 0.
      0. 0. 0. 0. 0. 0. 0. 0. 0. 0. 0. 0. 0. 0. 0. 0. 0. 0. 7. 7. 2. 15.
      15. 18. 10. 10. 15. 15. 5. 28. 27. 35. 22. 23. 24. 27. 14. 40. 35.
      44. 28. 34. 28. 34. 18. 43. 36. 43. 27. 35. 25. 33. 20. 37. 29.
      34. 21. 29. 15. 22. 14. 18. 10. 10. 7. 14. 7. 12. 9. 10. 4. 2. 0.
      3. 1. 3. 2. 3. 1. 0. 0. 0. 0. 0. 0. 0. 0. 0. 0. 0. 0. 0. 0. 0. 0.
      0. 0. 0. 0. 0. 0. 0. 0. 0. 0. 0. 0. 0. 0. 0. 0. 0. 0. 0. 4. 4. 3.
      12. 12. 14. 7. 7. 15. 15. 6. 25. 23. 31. 20. 22. 28. 31. 17. 39.
      35. 43. 27. 35. 33. 41. 23. 46. 36. 44. 28. 39. 31. 41. 25. 43.
      31. 36. 22. 35. 20. 30. 19. 25. 15. 14. 9. 19. 9. 15. 12. 14. 6.
      3. 0. 6. 1. 3. 3. 3. 1. 0. 0. 0. 0. 0. 0. 0. 0. 0. 0. 0. 0. 0. 0.
      0. 0. 0. 0. 0.</_>
    <_>
      0. 0. 0. 0. 0. 0. 0. 0. 3. 11. 11. 11. 5. 3. 0. 3. 14. 25. 23. 27.
      14. 12. 0. 12. 27. 43. 33. 38. 22. 23. 6. 28. 36. 49. 33. 41. 28.
      35. 17. 44. 39. 47. 27. 38. 30. 44. 30. 55. 33. 33. 12. 23. 23.
      43. 35. 52. 22. 17. 1. 9. 14. 31. 31. 39. 11. 6. 0. 4. 7. 22. 20.
      22. 4. 3. 0. 3. 3. 9. 7. 9. 0. 0. 0. 0. 0. 1. 0. 0. 0. 0. 0. 0. 0.
      0. 0. 0. 1. 5. 5. 7. 5. 5. 0. 1. 8. 16. 16. 20. 12. 12. 1. 6. 15.
      29. 28. 34. 20. 18. 1. 15. 25. 42. 35. 42. 25. 25. 5. 25. 31. 44.
      34. 42. 28. 34. 15. 37. 34. 41. 24. 34. 27. 40. 25. 46. 30. 29.
      10. 23. 23. 42. 35. 48. 22. 17. 1. 14. 18. 37. 35. 41. 12. 9. 0.
      10. 14. 29. 27. 28. 7. 5. 0. 8. 9. 16. 14. 15. 2. 1. 0. 2. 4. 6.
      5. 5. 0. 0. 0. 0. 0. 0. 0. 0. 6. 7. 7. 15. 14. 14. 3. 6. 11. 20.
      20. 29. 21. 21. 3. 10. 17. 29. 29. 40. 27. 26. 4. 16. 23. 38. 33.
      45. 30. 30. 6. 23. 26. 38. 30. 41. 29. 33. 13. 30. 26. 32. 20. 28.
      22. 32. 21. 36. 25. 24. 9. 24. 25. 41. 32. 42. 21. 17. 3. 19. 24.
      41. 34. 39. 15. 12. 2. 18. 22. 37. 29. 30. 10. 8. 2. 15. 16. 25.
      18. 19. 4. 3. 1. 8. 9. 12. 8. 8. 0. 0. 0. 0. 0. 0. 0. 0. 9. 14.
      14. 28. 23. 23. 6. 9. 15. 23. 23. 40. 31. 30. 5. 14. 18. 30. 30.
      47. 35. 34. 6. 17. 20. 33. 32. 48. 34. 34. 7. 20. 20. 30. 27. 39.
      29. 31. 9. 22. 16. 21. 14. 20. 15. 23. 14. 23. 19. 19. 8. 24. 25.
      39. 28. 33. 20. 17. 5. 26. 29. 45. 33. 35. 18. 15. 6. 28. 30. 44.
      30. 32. 13. 12. 5. 24. 24. 34. 21. 22. 7. 7. 3. 16. 16. 21. 11.
      11. 0. 0. 0. 1. 0. 1. 0. 0. 12. 17. 17. 38. 33. 33. 9. 12. 16. 23.
      23. 47. 40. 40. 9. 16. 17. 25. 25. 48. 40. 40. 9. 17. 16. 24. 24.
      45. 36. 36. 8. 15. 11. 18. 18. 32. 26. 26. 6. 11. 4. 7. 5. 8. 5.
      8. 5. 7. 12. 12. 7. 22. 22. 29. 18. 20. 16. 17. 9. 33. 32. 42. 23.
      26. 17. 18. 11. 37. 36. 45. 25. 27. 15. 15. 9. 32. 31. 39. 20. 22.
      9. 10. 7. 24. 23. 28. 11. 14. 0. 0. 0. 1. 1. 1. 0. 0. 15. 17. 17.
      44. 41. 41. 11. 15. 16. 20. 20. 49. 46. 46. 12. 16. 16. 20. 20.
      48. 44. 44. 12. 16. 14. 18. 18. 42. 39. 39. 11. 14. 10. 12. 12.
      29. 27. 27. 7. 10. 0. 1. 1. 2. 1. 1. 0. 0. 10. 14. 12. 25. 22. 24.
      9. 13. 14. 19. 17. 37. 33. 37. 13. 19. 16. 22. 19. 42. 37. 41. 15.
      21. 14. 19. 16. 37. 33. 37. 13. 18. 10. 14. 11. 29. 25. 29. 10.
      14. 0. 0. 0. 1. 1. 1. 0. 0. 15. 17. 14. 43. 41. 43. 15. 17. 16.
      18. 15. 47. 44. 47. 16. 18. 16. 18. 15. 45. 44. 46. 16. 18. 14.
      16. 13. 40. 38. 41. 14. 16. 10. 11. 9. 28. 26. 28. 10. 11. 2. 6.
      6. 7. 3. 3. 0. 2. 12. 20. 19. 30. 22. 22. 5. 12. 16. 27. 26. 43.
      32. 33. 7. 17. 17. 28. 27. 46. 35. 36. 8. 18. 14. 23. 21. 39. 31.
      32. 7. 15. 9. 14. 12. 27. 22. 23. 5. 10. 0. 0. 0. 1. 1. 1. 0. 0.
      15. 15. 12. 39. 38. 41. 17. 19. 17. 18. 14. 44. 43. 48. 20. 22.
      18. 19. 13. 44. 42. 47. 20. 22. 17. 19. 13. 40. 38. 43. 18. 21.
      15. 19. 14. 33. 29. 31. 13. 17. 9. 18. 16. 18. 9. 9. 1. 8. 16. 31.
      29. 37. 22. 20. 2. 14. 19. 35. 34. 45. 29. 27. 3. 17. 17. 32. 31.
      44. 29. 28. 4. 16. 12. 22. 21. 33. 23. 23. 3. 12. 7. 10. 10. 18.
      15. 15. 2. 7. 0. 0. 0. 1. 0. 1. 0. 0. 12. 12. 7. 31. 31. 35. 17.
      17. 18. 18. 9. 37. 37. 43. 22. 24. 24. 24. 11. 39. 39. 46. 25. 31.
      28. 30. 14. 40. 38. 45. 24. 35. 28. 35. 19. 38. 32. 36. 19. 33.
      23. 36. 25. 30. 17. 17. 6. 23. 23. 42. 35. 41. 22. 20. 2. 21. 20.
      39. 36. 43. 24. 21. 1. 17. 15. 30. 29. 36. 21. 19. 1. 13. 9. 18.
      18. 24. 15. 14. 1. 8. 3. 7. 7. 10. 7. 7. 0. 3. 0. 0. 0. 0. 0. 0.
      0. 0. 9. 9. 4. 20. 20. 23. 12. 14. 16. 16. 7. 27. 27. 34. 20. 23.
      24. 24. 8. 30. 30. 37. 23. 31. 30. 33. 13. 34. 31. 39. 24. 38. 33.
      41. 21. 36. 29. 34. 19. 38. 29. 43. 28. 33. 19. 20. 8. 29. 25. 42.
      33. 36. 19. 16. 2. 22. 17. 34. 31. 34. 17. 14. 0. 15. 11. 23. 22.
      25. 13. 11. 0. 9. 5. 11. 11. 14. 7. 7. 0. 5. 1. 2. 2. 3. 2. 2. 0.
      1. 0. 0. 0. 0. 0. 0. 0. 0. 5. 5. 1. 13. 13. 15. 9. 11. 15. 15. 4.
      19. 19. 25. 16. 20. 23. 23. 5. 22. 22. 30. 22. 31. 33. 36. 12. 29.
      25. 34. 23. 41. 37. 46. 22. 35. 25. 31. 20. 43. 34. 48. 28. 34.
      20. 21. 10. 35. 25. 40. 29. 31. 16. 14. 3. 23. 15. 28. 24. 25. 11.
      9. 0. 11. 7. 15. 14. 15. 7. 4. 0. 4. 2. 4. 4. 5. 2. 2. 0. 1. 0. 0.
      0. 0. 0. 0. 0. 0. 0. 0. 0. 0. 0. 0. 0. 0. 2. 2. 2. 5. 5. 5. 2. 5.
      11. 11. 3. 11. 11. 15. 11. 16. 22. 22. 6. 15. 15. 22. 17. 28. 33.
      36. 14. 25. 20. 27. 19. 39. 39. 47. 22. 31. 23. 27. 17. 44. 35.
      46. 23. 30. 19. 20. 11. 36. 23. 35. 22. 23. 12. 11. 3. 22. 11. 20.
      15. 15. 6. 4. 0. 9. 3. 7. 6. 6. 1. 1. 0. 1. 0. 0. 0. 0. 0. 0. 0.
      0. 0. 0. 0. 0. 0. 0. 0. 0. 0. 0. 0. 0. 0. 0. 0. 0.</_>
    <_>
      2. 2. 2. 5. 2. 2. 0. 2. 9. 16. 16. 20. 13. 13. 3. 9. 23. 38. 33.
      41. 27. 30. 11. 27. 47. 67. 51. 60. 39. 43. 19. 51. 67. 89. 60.
      70. 47. 49. 23. 68. 75. 94. 55. 63. 46. 52. 31. 81. 71. 83. 36.
      52. 43. 54. 43. 84. 57. 62. 19. 39. 36. 52. 44. 75. 38. 38. 7. 31.
      30. 49. 43. 57. 22. 20. 1. 22. 23. 41. 35. 39. 13. 13. 1. 18. 18.
      28. 22. 24. 5. 5. 0. 7. 7. 10. 7. 7. 3. 3. 3. 7. 5. 7. 1. 3. 15.
      22. 18. 26. 18. 22. 9. 18. 31. 44. 35. 49. 36. 41. 20. 36. 51. 70.
      51. 68. 49. 55. 27. 57. 64. 84. 58. 74. 54. 58. 29. 69. 66. 83.
      51. 64. 47. 54. 30. 71. 56. 67. 33. 48. 38. 48. 34. 67. 44. 48.
      16. 37. 33. 47. 37. 58. 30. 31. 7. 33. 31. 48. 38. 47. 21. 20. 3.
      28. 28. 43. 33. 36. 13. 13. 2. 25. 25. 36. 25. 26. 7. 7. 1. 15.
      15. 20. 11. 11. 3. 4. 3. 7. 6. 7. 3. 4. 16. 22. 17. 28. 21. 25.
      12. 20. 32. 44. 34. 52. 40. 47. 23. 38. 49. 65. 49. 69. 53. 60.
      30. 56. 57. 75. 54. 73. 56. 62. 30. 63. 54. 69. 46. 60. 46. 52.
      27. 59. 42. 50. 28. 41. 32. 39. 24. 49. 33. 36. 13. 34. 31. 42.
      30. 44. 25. 25. 7. 34. 33. 47. 33. 38. 19. 19. 5. 32. 32. 45. 31.
      33. 15. 15. 4. 30. 30. 41. 25. 25. 9. 9. 4. 22. 22. 28. 15. 15. 3.
      4. 3. 7. 6. 7. 3. 4. 18. 23. 17. 31. 25. 30. 15. 22. 32. 42. 33.
      55. 45. 52. 25. 38. 43. 57. 45. 70. 56. 64. 30. 51. 44. 59. 46.
      70. 55. 62. 28. 51. 35. 47. 36. 53. 41. 46. 21. 40. 20. 26. 18.
      29. 22. 26. 12. 24. 17. 20. 10. 30. 27. 34. 19. 24. 17. 18. 8. 36.
      35. 44. 25. 26. 17. 19. 9. 39. 37. 47. 26. 27. 17. 18. 9. 38. 37.
      47. 24. 25. 12. 14. 7. 31. 30. 36. 17. 19. 3. 3. 3. 6. 4. 4. 1. 3.
      16. 21. 15. 31. 27. 30. 14. 20. 26. 34. 27. 50. 43. 48. 21. 31.
      34. 44. 35. 62. 52. 58. 24. 39. 33. 44. 35. 60. 50. 55. 22. 38.
      25. 34. 27. 44. 36. 39. 15. 29. 10. 15. 12. 18. 13. 14. 4. 11. 12.
      16. 12. 29. 25. 27. 11. 15. 14. 18. 13. 38. 34. 37. 15. 18. 15.
      20. 15. 42. 38. 42. 17. 20. 16. 20. 15. 43. 38. 43. 17. 21. 14.
      19. 14. 39. 35. 39. 15. 19. 0. 0. 0. 1. 1. 1. 0. 1. 14. 17. 14.
      29. 27. 29. 11. 16. 20. 26. 22. 44. 39. 41. 15. 23. 23. 31. 26.
      52. 45. 48. 18. 27. 22. 29. 25. 48. 41. 44. 16. 24. 15. 21. 18.
      34. 29. 31. 10. 17. 4. 7. 7. 11. 8. 8. 1. 4. 11. 16. 15. 29. 24.
      24. 8. 12. 15. 23. 20. 41. 34. 35. 11. 17. 16. 25. 22. 45. 37. 39.
      12. 18. 16. 24. 21. 44. 37. 40. 12. 18. 12. 19. 15. 38. 31. 33.
      11. 15. 0. 0. 0. 3. 3. 3. 0. 0. 10. 15. 15. 33. 29. 29. 7. 11. 14.
      20. 20. 42. 36. 36. 9. 14. 16. 23. 23. 47. 41. 41. 10. 17. 14. 20.
      20. 41. 36. 36. 9. 15. 10. 15. 15. 29. 24. 24. 6. 10. 4. 10. 10.
      13. 8. 7. 0. 4. 13. 24. 23. 34. 24. 23. 5. 13. 17. 30. 29. 45. 32.
      32. 7. 17. 17. 30. 29. 46. 34. 34. 8. 17. 16. 27. 25. 43. 33. 33.
      7. 16. 11. 17. 15. 30. 23. 23. 6. 11. 1. 1. 1. 7. 6. 6. 0. 1. 11.
      16. 16. 36. 31. 31. 7. 11. 14. 19. 19. 43. 37. 37. 8. 14. 15. 21.
      21. 46. 40. 40. 9. 15. 13. 19. 19. 40. 34. 34. 8. 13. 11. 19. 19.
      31. 24. 23. 5. 11. 9. 19. 19. 23. 12. 12. 0. 8. 17. 33. 33. 41.
      26. 24. 2. 15. 19. 37. 37. 48. 31. 29. 3. 18. 18. 33. 33. 44. 29.
      28. 3. 16. 14. 24. 24. 35. 24. 23. 3. 12. 6. 12. 12. 20. 14. 14.
      1. 6. 3. 3. 3. 12. 11. 12. 3. 3. 11. 15. 14. 35. 31. 33. 8. 12.
      14. 18. 17. 39. 36. 37. 10. 15. 17. 22. 20. 43. 39. 40. 10. 18.
      18. 26. 23. 42. 35. 35. 8. 19. 18. 29. 27. 37. 26. 25. 4. 17. 18.
      34. 32. 35. 18. 17. 0. 16. 22. 42. 41. 47. 26. 24. 1. 20. 20. 39.
      39. 46. 27. 25. 2. 18. 15. 29. 29. 36. 22. 21. 2. 14. 9. 18. 18.
      24. 15. 14. 1. 9. 3. 6. 6. 9. 6. 6. 0. 3. 3. 4. 3. 12. 11. 12. 3.
      4. 9. 11. 10. 28. 25. 28. 8. 11. 14. 17. 14. 33. 30. 32. 9. 15.
      20. 25. 19. 39. 34. 35. 10. 21. 24. 33. 26. 41. 33. 33. 9. 24. 25.
      40. 33. 41. 27. 25. 5. 24. 25. 44. 39. 41. 22. 20. 1. 23. 23. 43.
      40. 44. 24. 22. 1. 22. 17. 34. 33. 38. 20. 19. 1. 16. 11. 21. 21.
      25. 14. 14. 1. 10. 5. 10. 10. 12. 7. 7. 0. 5. 0. 1. 1. 1. 1. 1. 0.
      0. 3. 5. 3. 13. 11. 13. 3. 5. 8. 9. 8. 23. 22. 25. 8. 11. 12. 15.
      11. 28. 25. 27. 9. 15. 21. 27. 18. 35. 30. 31. 10. 22. 28. 38. 28.
      41. 31. 30. 9. 28. 30. 47. 37. 44. 27. 24. 4. 29. 29. 50. 41. 43.
      22. 20. 2. 27. 23. 42. 37. 40. 20. 18. 1. 21. 14. 28. 27. 29. 14.
      12. 0. 12. 7. 14. 14. 15. 8. 7. 0. 5. 1. 4. 4. 4. 1. 1. 0. 1. 0.
      0. 0. 0. 0. 0. 0. 0. 5. 5. 5. 10. 7. 10. 5. 5. 7. 7. 5. 15. 15.
      18. 5. 9. 12. 14. 9. 22. 19. 20. 7. 14. 23. 30. 19. 31. 25. 27. 9.
      25. 33. 46. 31. 41. 28. 28. 7. 33. 35. 54. 39. 46. 27. 23. 4. 33.
      31. 52. 41. 43. 22. 20. 3. 30. 22. 38. 33. 33. 17. 15. 1. 20. 9.
      20. 19. 20. 9. 7. 0. 9. 3. 6. 6. 6. 3. 3. 0. 3. 0. 0. 0. 0. 0. 0.
      0. 0. 0. 0. 0. 0. 0. 0. 0. 0.</_>
    <_>
      0. 0. 0. 0. 0. 0. 0. 0. 0. 0. 0. 0. 0. 0. 0. 0. 3. 6. 4. 6. 3. 3.
      0. 3. 11. 19. 15. 17. 9. 7. 0. 9. 27. 38. 27. 33. 22. 22. 9. 25.
      46. 59. 38. 47. 35. 39. 25. 51. 67. 79. 43. 59. 46. 55. 39. 76.
      73. 81. 38. 57. 47. 62. 51. 86. 63. 68. 27. 47. 43. 60. 51. 81.
      44. 46. 15. 31. 28. 43. 36. 57. 26. 28. 9. 20. 18. 28. 24. 35. 10.
      10. 2. 10. 7. 15. 12. 15. 0. 0. 0. 0. 0. 0. 0. 0. 1. 1. 1. 2. 1.
      1. 0. 1. 5. 10. 10. 14. 9. 8. 0. 4. 12. 23. 20. 25. 15. 12. 1. 10.
      25. 38. 30. 38. 25. 25. 9. 24. 43. 57. 38. 51. 37. 41. 23. 47. 60.
      73. 42. 57. 44. 54. 36. 68. 67. 74. 35. 55. 47. 61. 49. 80. 62.
      67. 28. 51. 46. 64. 51. 79. 46. 49. 18. 40. 35. 50. 40. 60. 29.
      32. 11. 29. 26. 38. 29. 41. 15. 15. 3. 18. 18. 28. 20. 22. 0. 0.
      0. 0. 0. 0. 0. 0. 3. 4. 4. 9. 7. 7. 1. 3. 8. 14. 14. 22. 16. 15.
      2. 8. 14. 25. 23. 33. 22. 20. 3. 12. 23. 36. 31. 43. 30. 29. 9.
      23. 37. 50. 36. 51. 38. 41. 20. 40. 49. 61. 36. 51. 39. 46. 30.
      56. 56. 62. 31. 48. 41. 53. 41. 67. 55. 59. 26. 52. 46. 63. 47.
      71. 44. 47. 19. 44. 39. 54. 40. 57. 30. 33. 12. 36. 34. 46. 31.
      42. 19. 19. 6. 30. 28. 39. 25. 28. 0. 0. 0. 0. 0. 0. 0. 0. 5. 9.
      9. 17. 14. 14. 2. 5. 11. 19. 19. 31. 23. 23. 3. 10. 16. 28. 27.
      42. 30. 28. 4. 15. 22. 35. 31. 48. 35. 34. 8. 21. 30. 43. 33. 51.
      38. 40. 17. 32. 37. 46. 29. 41. 32. 37. 23. 41. 42. 47. 24. 39.
      33. 43. 33. 51. 46. 50. 24. 51. 46. 60. 42. 60. 40. 43. 20. 49.
      45. 58. 39. 52. 31. 33. 15. 46. 44. 55. 34. 43. 22. 22. 11. 44.
      43. 54. 31. 33. 0. 0. 0. 1. 1. 1. 0. 0. 8. 14. 14. 25. 20. 20. 3.
      8. 13. 22. 22. 39. 30. 29. 4. 13. 15. 27. 27. 46. 35. 34. 5. 15.
      14. 25. 25. 44. 33. 33. 5. 14. 15. 24. 21. 37. 28. 29. 7. 16. 12.
      17. 12. 19. 14. 16. 7. 14. 16. 19. 10. 18. 14. 19. 13. 21. 26. 30.
      17. 40. 36. 44. 24. 34. 28. 31. 18. 47. 43. 51. 28. 36. 27. 29.
      17. 51. 48. 56. 28. 35. 25. 27. 15. 55. 54. 62. 30. 33. 3. 4. 4.
      9. 7. 7. 0. 3. 11. 18. 18. 35. 28. 28. 4. 11. 14. 23. 23. 42. 33.
      33. 5. 13. 15. 25. 25. 46. 36. 35. 6. 14. 13. 22. 22. 39. 30. 30.
      5. 12. 8. 14. 13. 23. 18. 18. 3. 8. 1. 2. 1. 2. 1. 1. 0. 1. 1. 3.
      2. 3. 2. 3. 0. 2. 11. 15. 12. 29. 25. 28. 10. 14. 15. 20. 16. 41.
      36. 39. 14. 19. 18. 24. 20. 51. 47. 50. 17. 23. 22. 28. 23. 60.
      54. 59. 20. 27. 6. 11. 11. 20. 17. 17. 3. 6. 14. 22. 22. 41. 33.
      33. 5. 14. 15. 24. 24. 45. 36. 36. 6. 15. 15. 24. 24. 45. 36. 36.
      6. 15. 12. 19. 19. 36. 29. 29. 5. 12. 5. 8. 8. 15. 12. 12. 2. 5.
      0. 0. 0. 0. 0. 0. 0. 0. 2. 6. 6. 7. 4. 3. 0. 2. 11. 19. 18. 32.
      24. 25. 5. 12. 15. 25. 24. 43. 33. 34. 8. 16. 18. 30. 28. 53. 42.
      43. 10. 20. 22. 33. 30. 59. 47. 49. 12. 22. 11. 15. 15. 31. 27.
      27. 4. 11. 15. 23. 23. 44. 37. 37. 7. 15. 16. 24. 24. 46. 38. 38.
      7. 16. 15. 23. 23. 44. 36. 36. 7. 15. 11. 18. 18. 33. 27. 27. 5.
      11. 3. 6. 6. 9. 6. 6. 0. 3. 3. 6. 5. 6. 3. 3. 0. 3. 8. 17. 16. 18.
      9. 9. 0. 8. 16. 29. 28. 38. 25. 24. 2. 16. 18. 33. 32. 46. 31. 31.
      4. 18. 20. 35. 34. 51. 36. 35. 4. 20. 17. 31. 30. 49. 36. 36. 6.
      17. 15. 20. 17. 41. 35. 38. 11. 17. 18. 25. 22. 47. 40. 42. 12.
      21. 19. 26. 22. 46. 39. 42. 13. 21. 18. 25. 20. 42. 35. 37. 11.
      21. 17. 23. 17. 32. 27. 28. 9. 19. 10. 15. 10. 12. 6. 6. 1. 10.
      15. 23. 17. 18. 9. 9. 1. 14. 20. 35. 29. 32. 17. 16. 1. 19. 23.
      41. 37. 44. 25. 24. 1. 21. 20. 38. 36. 44. 26. 24. 1. 18. 17. 34.
      31. 42. 25. 24. 1. 16. 12. 25. 25. 36. 23. 22. 1. 11. 17. 22. 15.
      38. 35. 38. 15. 20. 23. 28. 18. 43. 38. 43. 18. 28. 26. 31. 21.
      44. 39. 44. 20. 31. 31. 36. 22. 43. 37. 42. 20. 35. 33. 38. 22.
      36. 30. 33. 17. 36. 26. 33. 19. 20. 12. 12. 6. 26. 28. 40. 27. 28.
      16. 15. 4. 27. 28. 45. 35. 38. 20. 19. 2. 27. 24. 43. 37. 41. 22.
      20. 1. 23. 18. 34. 31. 36. 19. 18. 0. 16. 12. 25. 24. 29. 16. 15.
      0. 11. 7. 15. 15. 20. 11. 11. 0. 6. 16. 20. 13. 33. 30. 35. 16.
      22. 26. 29. 15. 40. 36. 43. 23. 33. 31. 35. 18. 42. 37. 44. 24.
      38. 40. 44. 22. 43. 37. 44. 25. 46. 44. 50. 25. 40. 33. 37. 22.
      49. 40. 48. 27. 28. 18. 18. 10. 40. 38. 53. 35. 36. 21. 20. 5. 37.
      34. 53. 38. 41. 22. 21. 3. 33. 24. 43. 35. 37. 20. 17. 1. 23. 15.
      29. 25. 28. 14. 12. 0. 14. 8. 18. 16. 19. 9. 9. 0. 8. 1. 7. 7. 9.
      3. 3. 0. 1. 17. 17. 10. 28. 25. 33. 17. 22. 28. 30. 13. 33. 32.
      41. 26. 37. 38. 41. 19. 39. 35. 44. 30. 46. 51. 55. 25. 43. 38.
      47. 31. 59. 59. 67. 31. 44. 36. 43. 28. 65. 54. 65. 36. 38. 25.
      27. 14. 54. 49. 65. 43. 43. 25. 23. 7. 47. 38. 55. 38. 39. 22. 20.
      4. 36. 23. 39. 30. 31. 15. 14. 1. 22. 11. 22. 19. 19. 9. 7. 0. 11.
      3. 9. 7. 9. 3. 3. 0. 3. 0. 0. 0. 0. 0. 0. 0. 0.</_>
    <_>
      0. 2. 0. 0. 0. 0. 0. 2. 9. 11. 0. 5. 5. 9. 7. 15. 20. 22. 1. 12.
      11. 19. 15. 30. 38. 43. 12. 28. 25. 36. 28. 51. 52. 55. 19. 39.
      35. 47. 38. 67. 55. 60. 20. 43. 38. 54. 44. 73. 47. 51. 17. 36.
      33. 47. 39. 62. 33. 35. 11. 25. 23. 35. 30. 46. 15. 15. 0. 9. 9.
      19. 19. 25. 6. 6. 0. 3. 3. 7. 7. 11. 1. 1. 0. 0. 0. 1. 1. 1. 0. 0.
      0. 0. 0. 0. 0. 0. 0. 1. 0. 0. 0. 0. 0. 1. 6. 6. 0. 2. 2. 6. 5. 11.
      17. 20. 4. 14. 11. 17. 12. 24. 34. 40. 17. 33. 28. 36. 24. 43. 46.
      53. 23. 43. 37. 48. 34. 57. 51. 57. 24. 47. 41. 55. 41. 66. 47.
      51. 21. 44. 40. 54. 42. 62. 34. 36. 10. 30. 28. 42. 35. 49. 20.
      20. 1. 16. 16. 28. 25. 31. 10. 10. 0. 10. 10. 17. 15. 17. 4. 4. 0.
      5. 5. 9. 6. 6. 0. 0. 0. 0. 0. 0. 0. 0. 0. 0. 0. 0. 0. 0. 0. 0. 3.
      4. 0. 2. 2. 3. 3. 7. 15. 19. 9. 17. 14. 18. 10. 19. 30. 37. 22.
      37. 30. 35. 19. 35. 40. 49. 28. 47. 39. 47. 27. 48. 45. 53. 28.
      50. 42. 53. 33. 56. 43. 49. 23. 48. 42. 55. 38. 57. 32. 34. 10.
      34. 32. 46. 35. 47. 21. 21. 2. 22. 22. 35. 29. 34. 13. 13. 1. 17.
      17. 26. 20. 22. 7. 7. 1. 11. 11. 17. 11. 11. 1. 1. 0. 3. 3. 4. 1.
      1. 0. 0. 0. 0. 0. 0. 0. 0. 1. 1. 0. 2. 1. 2. 0. 1. 12. 17. 13. 22.
      17. 19. 6. 14. 24. 33. 26. 42. 33. 35. 13. 26. 32. 43. 31. 51. 41.
      46. 19. 37. 37. 47. 30. 52. 42. 50. 26. 44. 37. 45. 23. 50. 43.
      55. 33. 49. 29. 31. 10. 38. 36. 49. 34. 43. 22. 22. 5. 31. 31. 44.
      30. 35. 16. 16. 5. 27. 27. 37. 23. 26. 10. 10. 4. 22. 22. 28. 15.
      16. 4. 4. 3. 9. 9. 11. 4. 4. 0. 0. 0. 0. 0. 0. 0. 0. 2. 2. 2. 7.
      5. 5. 1. 2. 10. 15. 15. 28. 23. 23. 5. 10. 15. 24. 24. 43. 34. 34.
      7. 15. 18. 28. 28. 48. 38. 39. 9. 18. 19. 28. 25. 44. 36. 38. 11.
      21. 19. 26. 18. 41. 35. 42. 18. 26. 19. 21. 9. 36. 34. 43. 23. 28.
      19. 21. 9. 38. 36. 46. 26. 29. 18. 19. 9. 36. 35. 43. 22. 25. 12.
      14. 9. 31. 30. 36. 17. 18. 6. 7. 6. 15. 15. 17. 6. 7. 0. 0. 0. 0.
      0. 0. 0. 0. 4. 4. 4. 11. 10. 10. 3. 4. 12. 16. 16. 33. 29. 29. 8.
      12. 16. 22. 22. 45. 39. 39. 10. 16. 16. 23. 23. 46. 40. 40. 9. 16.
      13. 19. 19. 38. 33. 33. 7. 13. 11. 16. 14. 33. 29. 31. 8. 13. 12.
      14. 11. 34. 32. 35. 13. 15. 15. 17. 13. 41. 39. 43. 17. 19. 15.
      17. 13. 41. 39. 43. 17. 19. 14. 16. 12. 37. 35. 38. 15. 17. 7. 7.
      7. 20. 19. 20. 7. 7. 0. 0. 0. 0. 0. 0. 0. 0. 7. 8. 8. 18. 16. 16.
      5. 7. 13. 16. 16. 36. 32. 32. 9. 13. 15. 20. 20. 45. 40. 40. 10.
      15. 15. 20. 20. 45. 40. 40. 10. 15. 11. 15. 15. 35. 31. 31. 7. 11.
      9. 13. 13. 29. 25. 25. 4. 9. 12. 16. 16. 36. 31. 32. 9. 13. 15.
      20. 19. 44. 39. 40. 11. 16. 15. 20. 19. 43. 39. 40. 11. 16. 14.
      17. 16. 40. 35. 36. 10. 14. 6. 7. 6. 19. 17. 17. 6. 6. 0. 0. 0. 0.
      0. 0. 0. 0. 9. 11. 11. 24. 22. 22. 7. 9. 13. 17. 17. 38. 35. 35.
      10. 13. 15. 19. 19. 46. 42. 42. 11. 15. 14. 18. 18. 43. 39. 39.
      10. 14. 10. 15. 15. 35. 30. 30. 7. 10. 9. 15. 15. 29. 23. 23. 3.
      8. 13. 22. 22. 39. 31. 30. 6. 13. 16. 25. 25. 46. 37. 37. 7. 15.
      14. 23. 23. 43. 35. 35. 7. 14. 11. 17. 17. 35. 29. 29. 5. 11. 3.
      4. 4. 12. 11. 11. 3. 3. 0. 0. 0. 0. 0. 0. 0. 0. 10. 12. 12. 27.
      24. 24. 7. 10. 13. 16. 16. 38. 34. 35. 9. 13. 15. 19. 18. 44. 40.
      40. 10. 15. 13. 16. 16. 40. 36. 37. 9. 13. 11. 16. 15. 36. 30. 31.
      7. 11. 10. 18. 18. 31. 23. 22. 3. 9. 15. 25. 25. 40. 29. 29. 4.
      14. 16. 27. 27. 44. 33. 32. 5. 15. 13. 23. 23. 39. 29. 29. 4. 13.
      9. 14. 14. 27. 21. 21. 3. 9. 0. 1. 1. 6. 4. 4. 0. 0. 0. 0. 0. 0.
      0. 0. 0. 0. 8. 10. 10. 23. 21. 21. 4. 8. 11. 14. 13. 31. 27. 28.
      7. 11. 12. 16. 15. 36. 31. 32. 7. 12. 11. 14. 13. 32. 28. 29. 7.
      11. 10. 16. 15. 32. 25. 26. 5. 10. 10. 18. 17. 28. 19. 19. 2. 9.
      13. 23. 22. 35. 24. 24. 3. 12. 13. 24. 23. 36. 25. 25. 3. 12. 11.
      19. 18. 30. 21. 21. 2. 10. 5. 10. 10. 17. 12. 12. 1. 5. 0. 0. 0.
      1. 1. 1. 0. 0. 0. 0. 0. 0. 0. 0. 0. 0. 6. 9. 8. 20. 18. 18. 4. 6.
      8. 11. 10. 25. 22. 23. 4. 8. 9. 12. 11. 29. 24. 25. 4. 9. 8. 11.
      10. 25. 22. 23. 4. 8. 9. 15. 14. 29. 22. 22. 3. 9. 8. 16. 15. 24.
      15. 15. 1. 8. 10. 21. 20. 30. 18. 18. 1. 10. 10. 21. 20. 29. 18.
      18. 1. 10. 8. 16. 15. 23. 14. 15. 1. 8. 2. 6. 6. 9. 5. 5. 0. 2. 0.
      0. 0. 0. 0. 0. 0. 0. 0. 0. 0. 0. 0. 0. 0. 0. 5. 5. 5. 15. 13. 13.
      1. 5. 6. 7. 6. 19. 15. 17. 3. 6. 7. 9. 7. 22. 19. 20. 3. 7. 6. 7.
      6. 19. 15. 17. 3. 6. 7. 12. 11. 25. 19. 19. 3. 7. 6. 12. 11. 19.
      11. 12. 0. 6. 7. 15. 14. 22. 14. 14. 0. 7. 7. 14. 12. 20. 12. 12.
      0. 6. 4. 11. 9. 15. 9. 9. 0. 4. 0. 1. 1. 1. 1. 1. 0. 0. 0. 0. 0.
      0. 0. 0. 0. 0.</_>
    <_>
      2. 7. 7. 10. 7. 5. 0. 2. 11. 22. 18. 22. 13. 11. 1. 11. 23. 35.
      25. 27. 17. 15. 4. 22. 38. 51. 31. 35. 22. 20. 7. 36. 49. 62. 31.
      36. 27. 28. 15. 52. 57. 63. 25. 31. 25. 31. 25. 63. 55. 59. 17.
      28. 25. 36. 35. 67. 47. 49. 12. 27. 25. 39. 38. 62. 36. 36. 6. 20.
      20. 36. 36. 51. 22. 22. 3. 14. 14. 23. 23. 33. 11. 11. 0. 9. 9.
      15. 15. 20. 2. 2. 0. 2. 2. 7. 7. 7. 15. 26. 22. 28. 16. 15. 5. 15.
      23. 37. 30. 37. 23. 23. 8. 22. 31. 46. 33. 40. 27. 27. 10. 31. 41.
      55. 36. 42. 29. 29. 12. 41. 46. 56. 31. 38. 28. 31. 18. 49. 48.
      53. 22. 28. 22. 29. 22. 54. 47. 49. 15. 24. 22. 33. 30. 56. 43.
      46. 11. 27. 25. 41. 38. 57. 36. 36. 7. 25. 25. 42. 38. 51. 25. 25.
      4. 21. 21. 34. 30. 38. 16. 16. 2. 16. 16. 27. 23. 27. 9. 9. 0. 11.
      11. 18. 15. 15. 22. 35. 30. 41. 30. 27. 11. 20. 28. 41. 35. 47.
      34. 34. 12. 28. 33. 46. 34. 46. 33. 34. 15. 34. 38. 49. 33. 43.
      31. 33. 15. 39. 38. 46. 26. 34. 27. 31. 18. 42. 37. 40. 17. 23.
      19. 25. 19. 42. 36. 37. 12. 19. 18. 26. 24. 43. 36. 37. 10. 24.
      23. 36. 34. 49. 34. 34. 7. 27. 27. 44. 39. 49. 27. 27. 5. 26. 26.
      41. 35. 41. 21. 21. 3. 24. 24. 38. 30. 34. 14. 14. 1. 20. 20. 31.
      23. 25. 30. 41. 36. 59. 46. 44. 15. 27. 31. 44. 37. 58. 46. 46.
      17. 33. 33. 44. 34. 51. 40. 42. 18. 35. 32. 41. 29. 41. 32. 34.
      15. 35. 29. 34. 21. 29. 24. 28. 16. 33. 25. 27. 12. 17. 14. 19.
      15. 29. 24. 25. 8. 14. 12. 19. 18. 29. 27. 27. 7. 19. 19. 30. 28.
      37. 30. 30. 7. 31. 31. 46. 37. 44. 27. 27. 7. 33. 33. 48. 37. 42.
      24. 24. 7. 36. 36. 50. 36. 38. 19. 19. 6. 36. 36. 47. 31. 31. 31.
      43. 35. 67. 55. 59. 23. 35. 29. 38. 29. 58. 49. 53. 23. 34. 25.
      31. 24. 46. 39. 43. 20. 29. 17. 21. 15. 29. 25. 29. 14. 21. 9. 10.
      7. 13. 12. 15. 8. 12. 3. 2. 0. 3. 3. 5. 3. 5. 3. 3. 0. 1. 1. 3. 3.
      4. 9. 9. 2. 8. 8. 13. 12. 14. 19. 19. 6. 29. 29. 38. 26. 28. 22.
      22. 8. 37. 37. 49. 31. 33. 24. 24. 10. 46. 46. 57. 35. 36. 22. 22.
      11. 49. 49. 60. 35. 35. 30. 36. 25. 65. 59. 67. 31. 38. 25. 30.
      20. 53. 48. 56. 28. 34. 20. 23. 14. 39. 36. 43. 22. 27. 12. 13. 7.
      22. 21. 26. 14. 18. 5. 4. 2. 6. 6. 10. 6. 8. 1. 1. 0. 2. 2. 3. 2.
      3. 0. 0. 0. 0. 0. 0. 0. 0. 1. 1. 0. 2. 2. 3. 3. 3. 11. 12. 8. 27.
      26. 30. 16. 16. 16. 17. 11. 38. 37. 42. 22. 22. 20. 22. 14. 49.
      47. 54. 27. 28. 23. 25. 15. 57. 55. 63. 31. 31. 25. 25. 11. 55.
      54. 70. 38. 39. 21. 21. 8. 43. 43. 57. 33. 34. 15. 15. 5. 32. 32.
      43. 25. 26. 9. 8. 1. 17. 18. 25. 16. 17. 2. 2. 0. 3. 3. 6. 5. 5.
      0. 0. 0. 0. 1. 1. 1. 1. 0. 0. 0. 0. 0. 0. 0. 0. 0. 0. 0. 0. 0. 0.
      0. 0. 10. 13. 10. 26. 24. 26. 11. 12. 14. 19. 15. 39. 35. 38. 15.
      18. 18. 24. 20. 51. 47. 49. 20. 23. 22. 28. 23. 60. 55. 59. 23.
      28. 23. 23. 6. 44. 44. 62. 41. 41. 22. 22. 4. 38. 38. 56. 41. 41.
      19. 19. 3. 30. 30. 46. 35. 35. 14. 14. 1. 21. 21. 33. 27. 27. 6.
      6. 0. 6. 6. 13. 12. 12. 1. 1. 0. 1. 1. 3. 3. 3. 0. 0. 0. 0. 0. 0.
      0. 0. 2. 5. 5. 5. 2. 2. 0. 2. 12. 20. 18. 31. 24. 24. 6. 13. 16.
      26. 24. 43. 34. 34. 10. 18. 20. 31. 29. 54. 44. 44. 12. 22. 23.
      35. 33. 62. 51. 51. 15. 25. 19. 19. 1. 30. 30. 47. 36. 36. 22. 22.
      1. 30. 30. 50. 42. 42. 24. 23. 2. 28. 28. 48. 41. 43. 25. 25. 3.
      25. 26. 44. 40. 44. 22. 22. 4. 16. 16. 29. 28. 34. 20. 20. 6. 11.
      12. 18. 18. 26. 19. 21. 11. 12. 10. 12. 10. 21. 20. 27. 20. 21.
      13. 14. 6. 20. 24. 37. 32. 41. 27. 27. 7. 25. 23. 38. 35. 47. 32.
      32. 7. 24. 22. 40. 37. 54. 37. 37. 7. 23. 20. 36. 33. 54. 39. 39.
      9. 22. 12. 12. 1. 19. 19. 30. 25. 25. 17. 17. 1. 22. 22. 38. 34.
      35. 23. 22. 2. 23. 23. 41. 38. 41. 29. 28. 4. 24. 24. 43. 41. 48.
      32. 31. 6. 19. 20. 35. 34. 47. 34. 33. 9. 16. 16. 24. 24. 42. 34.
      37. 16. 18. 15. 18. 15. 37. 34. 43. 27. 28. 18. 19. 9. 35. 32. 47.
      36. 41. 25. 25. 7. 32. 26. 43. 37. 43. 26. 26. 5. 26. 21. 38. 36.
      44. 27. 27. 3. 21. 15. 31. 30. 39. 25. 25. 3. 17. 7. 7. 0. 9. 9.
      16. 16. 16. 13. 13. 0. 15. 15. 27. 27. 27. 21. 21. 1. 17. 17. 35.
      34. 37. 31. 30. 3. 21. 22. 41. 41. 50. 41. 40. 8. 22. 23. 38. 38.
      57. 47. 46. 11. 20. 21. 30. 30. 56. 48. 51. 21. 23. 21. 24. 20.
      51. 46. 56. 33. 34. 23. 23. 12. 47. 38. 55. 40. 42. 25. 25. 7. 38.
      28. 44. 37. 41. 23. 23. 2. 28. 19. 36. 34. 40. 22. 22. 0. 19. 13.
      24. 24. 30. 16. 16. 0. 13. 2. 2. 0. 2. 2. 5. 5. 5. 9. 9. 0. 7. 7.
      16. 16. 16. 17. 17. 1. 11. 12. 25. 25. 30. 31. 30. 4. 17. 19. 35.
      35. 47. 46. 44. 9. 22. 22. 38. 38. 62. 57. 57. 14. 22. 23. 35. 35.
      70. 60. 65. 25. 28. 23. 28. 23. 67. 57. 68. 36. 38. 27. 27. 14.
      59. 44. 60. 39. 39. 23. 23. 7. 44. 28. 44. 35. 35. 19. 19. 3. 28.
      16. 32. 30. 30. 15. 15. 0. 16. 7. 17. 17. 17. 7. 7. 0. 7.</_>
    <_>
      0. 0. 0. 0. 0. 0. 0. 0. 3. 5. 3. 3. 1. 1. 0. 3. 9. 17. 15. 15. 7.
      7. 0. 9. 22. 36. 30. 30. 15. 15. 1. 22. 36. 54. 38. 38. 22. 22. 6.
      36. 47. 63. 38. 44. 30. 35. 17. 52. 49. 59. 28. 43. 33. 43. 27.
      57. 39. 43. 15. 31. 28. 39. 30. 51. 25. 25. 4. 22. 22. 31. 27. 36.
      11. 11. 1. 14. 14. 22. 17. 19. 3. 3. 1. 5. 5. 7. 5. 5. 0. 0. 0. 0.
      0. 0. 0. 0. 1. 3. 3. 5. 1. 1. 0. 1. 8. 15. 13. 15. 6. 6. 0. 8. 15.
      28. 25. 27. 14. 14. 0. 15. 24. 43. 38. 38. 21. 21. 2. 24. 35. 55.
      43. 43. 24. 24. 4. 35. 41. 56. 37. 43. 28. 33. 15. 46. 42. 51. 25.
      42. 33. 42. 28. 53. 37. 40. 14. 34. 31. 44. 35. 50. 27. 27. 5. 27.
      27. 40. 33. 40. 15. 15. 2. 20. 20. 30. 24. 25. 8. 8. 2. 11. 11.
      16. 13. 13. 0. 0. 0. 1. 1. 1. 1. 1. 6. 14. 14. 15. 7. 6. 0. 4. 12.
      24. 23. 25. 12. 11. 0. 11. 18. 35. 33. 35. 18. 17. 0. 17. 25. 46.
      42. 44. 23. 22. 2. 24. 31. 50. 42. 43. 24. 23. 4. 30. 32. 46. 32.
      37. 24. 27. 11. 36. 33. 41. 21. 35. 28. 37. 25. 42. 32. 34. 11.
      33. 31. 45. 34. 45. 25. 25. 5. 30. 30. 45. 35. 40. 17. 17. 3. 25.
      25. 38. 29. 30. 10. 10. 2. 17. 17. 25. 20. 20. 3. 3. 0. 6. 6. 9.
      6. 6. 12. 27. 27. 31. 17. 15. 0. 11. 17. 36. 35. 40. 21. 18. 0.
      16. 21. 42. 41. 45. 23. 21. 0. 20. 25. 47. 45. 47. 25. 23. 1. 23.
      24. 41. 37. 39. 21. 20. 3. 23. 22. 33. 26. 30. 19. 21. 8. 24. 23.
      28. 16. 28. 23. 30. 20. 30. 25. 26. 8. 32. 31. 44. 34. 39. 24. 24.
      5. 33. 33. 49. 38. 40. 19. 19. 3. 30. 30. 46. 34. 35. 15. 15. 2.
      24. 24. 37. 27. 27. 6. 6. 0. 14. 14. 22. 14. 14. 19. 36. 36. 49.
      30. 28. 1. 17. 21. 41. 41. 50. 29. 27. 1. 18. 20. 40. 40. 47. 27.
      25. 1. 18. 18. 36. 35. 39. 21. 19. 0. 16. 11. 23. 22. 23. 12. 10.
      0. 10. 6. 11. 10. 12. 6. 7. 0. 6. 6. 8. 4. 11. 9. 13. 8. 10. 11.
      11. 2. 20. 20. 29. 21. 21. 16. 16. 3. 30. 30. 43. 30. 30. 17. 17.
      3. 32. 32. 47. 32. 32. 17. 17. 3. 33. 33. 46. 31. 31. 12. 12. 1.
      25. 25. 36. 22. 22. 23. 41. 41. 63. 46. 44. 7. 22. 20. 37. 37. 55.
      37. 35. 4. 18. 16. 31. 31. 42. 28. 26. 3. 14. 10. 21. 21. 27. 16.
      14. 0. 8. 4. 9. 9. 10. 5. 3. 0. 3. 1. 2. 2. 2. 1. 1. 0. 1. 1. 1.
      0. 2. 2. 4. 3. 3. 7. 7. 0. 12. 12. 19. 14. 14. 14. 14. 2. 27. 27.
      38. 25. 25. 16. 16. 3. 33. 33. 46. 29. 29. 17. 17. 4. 37. 37. 51.
      31. 31. 15. 15. 4. 38. 38. 49. 28. 28. 25. 38. 36. 68. 55. 55. 15.
      25. 18. 29. 28. 53. 42. 42. 10. 18. 13. 21. 20. 37. 29. 28. 7. 13.
      5. 11. 11. 18. 12. 12. 1. 5. 0. 2. 2. 2. 1. 0. 0. 0. 0. 0. 0. 0.
      0. 0. 0. 0. 0. 0. 0. 0. 0. 0. 0. 0. 3. 3. 0. 6. 6. 9. 6. 6. 11.
      11. 3. 26. 26. 33. 18. 18. 14. 14. 5. 34. 34. 43. 23. 23. 17. 17.
      7. 43. 43. 53. 28. 28. 19. 19. 7. 47. 47. 59. 30. 30. 28. 35. 23.
      65. 59. 68. 30. 38. 21. 27. 17. 48. 43. 51. 23. 29. 15. 19. 12.
      33. 30. 35. 17. 21. 7. 9. 4. 14. 13. 16. 8. 11. 1. 1. 0. 0. 0. 1.
      1. 1. 0. 0. 0. 0. 0. 0. 0. 0. 0. 0. 0. 0. 0. 0. 0. 0. 1. 2. 1. 3.
      2. 3. 2. 2. 11. 13. 9. 27. 24. 29. 12. 15. 15. 18. 13. 38. 35. 40.
      17. 20. 18. 23. 16. 49. 44. 51. 22. 25. 22. 27. 19. 57. 52. 60.
      25. 30. 28. 30. 12. 52. 52. 67. 39. 43. 28. 28. 9. 42. 41. 55. 35.
      41. 25. 25. 7. 32. 31. 43. 30. 37. 20. 21. 2. 17. 17. 26. 22. 30.
      15. 15. 1. 6. 6. 11. 11. 20. 12. 12. 1. 3. 3. 4. 4. 14. 10. 11. 2.
      3. 2. 2. 1. 11. 12. 15. 8. 8. 3. 4. 0. 12. 20. 27. 20. 33. 25. 27.
      7. 22. 22. 31. 24. 44. 34. 37. 11. 25. 24. 34. 28. 54. 43. 47. 15.
      28. 23. 33. 28. 59. 49. 54. 17. 28. 25. 25. 6. 36. 36. 54. 38. 41.
      28. 28. 5. 33. 33. 48. 36. 43. 30. 30. 5. 27. 27. 42. 35. 45. 32.
      32. 5. 21. 21. 33. 30. 45. 32. 32. 6. 13. 13. 21. 21. 39. 32. 32.
      8. 11. 11. 14. 14. 35. 31. 33. 11. 13. 11. 12. 10. 33. 31. 37. 18.
      18. 12. 12. 6. 31. 32. 43. 29. 37. 26. 27. 8. 33. 28. 40. 31. 43.
      30. 32. 8. 29. 24. 38. 33. 49. 35. 36. 8. 27. 22. 33. 30. 49. 36.
      39. 9. 23. 22. 22. 1. 24. 24. 43. 35. 39. 29. 29. 2. 25. 25. 43.
      37. 45. 34. 34. 4. 24. 24. 41. 38. 51. 42. 42. 7. 23. 23. 38. 37.
      57. 46. 46. 9. 20. 20. 29. 29. 55. 48. 48. 12. 17. 17. 22. 22. 53.
      47. 50. 17. 20. 17. 20. 16. 50. 46. 54. 27. 27. 18. 18. 10. 46.
      42. 55. 35. 40. 27. 27. 8. 42. 33. 48. 35. 42. 27. 28. 5. 33. 26.
      41. 36. 44. 27. 29. 4. 26. 18. 33. 30. 41. 26. 28. 3. 20. 17. 17.
      0. 15. 15. 30. 28. 33. 28. 28. 1. 16. 16. 33. 33. 43. 36. 36. 3.
      20. 20. 38. 38. 54. 51. 51. 7. 25. 25. 41. 41. 67. 59. 59. 14. 25.
      25. 36. 36. 71. 67. 67. 19. 25. 25. 30. 30. 71. 67. 70. 25. 28.
      25. 28. 25. 70. 63. 73. 36. 36. 27. 27. 15. 63. 52. 68. 41. 43.
      27. 27. 9. 52. 36. 54. 39. 41. 23. 23. 4. 36. 26. 43. 35. 39. 20.
      20. 0. 26. 15. 30. 28. 30. 15. 15. 0. 15.</_>
    <_>
      0. 0. 0. 0. 0. 0. 0. 0. 0. 1. 1. 3. 1. 1. 0. 0. 9. 15. 12. 17. 11.
      11. 1. 9. 22. 31. 23. 28. 19. 19. 4. 22. 38. 49. 28. 38. 27. 28.
      11. 39. 49. 59. 28. 44. 35. 43. 27. 57. 46. 52. 20. 39. 33. 44.
      31. 57. 33. 35. 7. 25. 23. 36. 30. 46. 19. 19. 3. 17. 17. 28. 23.
      28. 6. 6. 0. 9. 9. 15. 11. 11. 0. 0. 0. 0. 0. 1. 0. 0. 0. 0. 0. 0.
      0. 0. 0. 0. 0. 0. 0. 0. 0. 0. 0. 0. 2. 4. 4. 9. 8. 8. 1. 2. 10.
      17. 15. 24. 17. 17. 2. 10. 22. 31. 24. 35. 25. 25. 5. 22. 34. 43.
      29. 41. 31. 33. 11. 35. 42. 50. 28. 47. 38. 44. 24. 49. 40. 46.
      20. 41. 36. 47. 30. 50. 30. 31. 9. 30. 29. 41. 30. 42. 18. 18. 4.
      24. 24. 34. 24. 28. 8. 8. 2. 15. 15. 21. 14. 14. 1. 1. 1. 4. 4. 5.
      2. 2. 0. 0. 0. 0. 0. 0. 0. 0. 0. 0. 0. 0. 0. 0. 0. 0. 4. 7. 7. 16.
      14. 14. 3. 4. 12. 18. 17. 31. 25. 25. 5. 12. 21. 29. 24. 41. 32.
      32. 8. 21. 29. 37. 27. 44. 35. 36. 12. 30. 34. 42. 25. 47. 40. 45.
      22. 40. 33. 37. 18. 41. 37. 45. 27. 41. 26. 27. 11. 35. 34. 43.
      28. 36. 18. 19. 8. 31. 30. 39. 24. 27. 10. 10. 5. 22. 21. 27. 15.
      15. 3. 3. 3. 8. 8. 9. 3. 4. 0. 0. 0. 0. 0. 0. 0. 0. 0. 0. 0. 0. 0.
      0. 0. 0. 8. 10. 10. 24. 21. 21. 4. 8. 14. 20. 19. 38. 32. 32. 7.
      14. 20. 28. 26. 48. 40. 40. 9. 20. 24. 31. 27. 48. 39. 40. 12. 24.
      27. 34. 25. 51. 44. 48. 20. 31. 25. 29. 18. 43. 39. 45. 23. 32.
      22. 24. 13. 42. 40. 47. 25. 30. 18. 19. 11. 39. 37. 44. 22. 25.
      12. 13. 8. 29. 28. 32. 15. 16. 4. 4. 4. 12. 11. 12. 4. 5. 0. 0. 0.
      0. 0. 0. 0. 0. 0. 0. 0. 0. 0. 0. 0. 0. 9. 12. 12. 30. 28. 28. 7.
      9. 13. 17. 17. 41. 36. 36. 9. 13. 15. 20. 20. 47. 42. 42. 10. 15.
      14. 18. 18. 42. 37. 37. 9. 14. 15. 19. 17. 44. 40. 41. 12. 16. 12.
      14. 12. 36. 33. 35. 13. 15. 15. 16. 14. 42. 40. 43. 16. 18. 14.
      16. 14. 42. 40. 43. 16. 17. 11. 13. 11. 33. 31. 33. 12. 13. 4. 5.
      4. 14. 14. 15. 4. 4. 0. 0. 0. 0. 0. 0. 0. 0. 0. 0. 0. 0. 0. 0. 0.
      0. 10. 12. 12. 33. 31. 31. 9. 10. 14. 16. 16. 42. 39. 39. 11. 14.
      15. 18. 18. 47. 45. 45. 13. 15. 14. 16. 16. 42. 39. 39. 11. 14.
      15. 19. 19. 45. 42. 42. 12. 16. 12. 15. 15. 36. 32. 33. 9. 12. 15.
      19. 18. 44. 40. 41. 11. 15. 14. 18. 18. 43. 39. 40. 11. 15. 11.
      14. 13. 33. 30. 31. 8. 11. 3. 4. 3. 12. 11. 12. 3. 3. 0. 0. 0. 0.
      0. 0. 0. 0. 0. 0. 0. 0. 0. 0. 0. 0. 10. 11. 11. 33. 31. 31. 9. 11.
      14. 15. 15. 41. 40. 40. 13. 14. 15. 17. 17. 47. 45. 45. 14. 16.
      14. 15. 15. 42. 40. 40. 13. 14. 17. 22. 22. 49. 45. 46. 13. 18.
      13. 19. 19. 38. 33. 33. 8. 13. 15. 22. 22. 46. 40. 40. 9. 15. 14.
      20. 20. 43. 37. 37. 8. 14. 10. 14. 14. 31. 28. 28. 6. 10. 1. 2. 2.
      9. 8. 8. 1. 1. 0. 0. 0. 0. 0. 0. 0. 0. 0. 0. 0. 0. 0. 0. 0. 0. 10.
      11. 10. 33. 31. 33. 10. 11. 14. 15. 13. 40. 39. 41. 14. 15. 15.
      17. 16. 46. 45. 46. 16. 17. 16. 20. 19. 46. 42. 44. 14. 17. 21.
      30. 29. 56. 48. 49. 14. 22. 16. 27. 27. 43. 33. 33. 6. 16. 17. 28.
      28. 48. 37. 37. 7. 17. 15. 23. 23. 42. 33. 33. 6. 15. 8. 12. 12.
      26. 22. 22. 4. 8. 0. 0. 0. 4. 3. 3. 0. 0. 0. 0. 0. 0. 0. 0. 0. 0.
      0. 0. 0. 0. 0. 0. 0. 0. 11. 11. 8. 30. 30. 33. 12. 12. 17. 17. 12.
      39. 39. 42. 18. 20. 23. 25. 18. 49. 47. 51. 22. 26. 27. 33. 26.
      55. 48. 51. 20. 29. 31. 43. 38. 64. 52. 54. 17. 32. 23. 37. 35.
      48. 33. 33. 6. 22. 19. 33. 32. 47. 33. 32. 4. 19. 13. 23. 23. 36.
      26. 26. 3. 13. 6. 10. 10. 19. 15. 15. 2. 6. 0. 0. 0. 2. 1. 1. 0.
      0. 0. 0. 0. 0. 0. 0. 0. 0. 0. 0. 0. 0. 0. 0. 0. 0. 9. 9. 5. 24.
      24. 27. 11. 11. 18. 18. 10. 33. 33. 36. 17. 21. 26. 28. 17. 44.
      41. 45. 21. 29. 32. 40. 28. 53. 44. 47. 20. 35. 34. 48. 38. 59.
      45. 47. 16. 36. 25. 41. 35. 43. 27. 27. 5. 24. 18. 32. 31. 39. 24.
      24. 2. 17. 10. 20. 20. 26. 17. 17. 1. 10. 4. 7. 7. 11. 8. 8. 1. 4.
      0. 0. 0. 0. 0. 0. 0. 0. 0. 0. 0. 0. 0. 0. 0. 0. 0. 0. 0. 0. 0. 0.
      0. 0. 8. 8. 4. 19. 19. 22. 11. 11. 18. 18. 8. 27. 27. 31. 16. 22.
      29. 33. 17. 40. 36. 41. 21. 33. 36. 47. 30. 51. 41. 44. 20. 40.
      37. 51. 37. 55. 41. 43. 16. 40. 27. 42. 34. 40. 24. 23. 4. 27. 16.
      29. 27. 33. 18. 18. 1. 15. 8. 15. 15. 18. 11. 11. 1. 8. 2. 3. 3.
      5. 3. 3. 0. 2. 0. 0. 0. 0. 0. 0. 0. 0. 0. 0. 0. 0. 0. 0. 0. 0. 0.
      0. 0. 0. 0. 0. 0. 0. 7. 7. 3. 15. 15. 16. 9. 9. 19. 19. 6. 22. 22.
      25. 15. 22. 31. 35. 17. 35. 31. 35. 19. 35. 39. 51. 30. 46. 36.
      39. 19. 43. 39. 52. 35. 47. 33. 35. 14. 41. 28. 43. 31. 33. 19.
      19. 4. 27. 14. 25. 23. 25. 12. 11. 0. 12. 4. 11. 11. 11. 4. 4. 0.
      4. 0. 0. 0. 1. 0. 0. 0. 0. 0. 0. 0. 0. 0. 0. 0. 0. 0. 0. 0. 0. 0.
      0. 0. 0.</_>
    <_>
      0. 5. 5. 5. 0. 0. 0. 0. 5. 15. 15. 15. 3. 0. 0. 1. 11. 28. 27. 27.
      9. 3. 0. 4. 23. 46. 38. 38. 15. 7. 1. 15. 39. 62. 44. 44. 20. 14.
      4. 31. 54. 71. 43. 43. 23. 19. 11. 49. 59. 68. 31. 39. 31. 35. 23.
      63. 55. 55. 22. 38. 36. 47. 33. 67. 41. 39. 14. 33. 36. 47. 33.
      54. 25. 22. 7. 27. 30. 41. 27. 36. 11. 9. 3. 20. 24. 33. 20. 20.
      5. 5. 2. 10. 10. 12. 5. 5. 5. 13. 13. 15. 7. 5. 0. 3. 9. 23. 23.
      26. 11. 5. 0. 4. 14. 34. 33. 35. 15. 8. 0. 8. 22. 46. 40. 42. 18.
      10. 1. 15. 30. 53. 40. 41. 20. 12. 3. 23. 37. 53. 31. 33. 17. 14.
      7. 33. 40. 47. 22. 30. 24. 27. 16. 43. 40. 40. 17. 36. 35. 42. 25.
      47. 31. 30. 14. 36. 38. 47. 27. 41. 22. 20. 9. 33. 34. 42. 23. 29.
      13. 12. 6. 27. 30. 37. 19. 19. 7. 7. 5. 16. 16. 18. 7. 7. 11. 22.
      22. 28. 15. 14. 0. 9. 16. 34. 34. 40. 20. 16. 0. 11. 19. 42. 40.
      47. 23. 18. 0. 13. 24. 48. 43. 50. 25. 18. 1. 17. 25. 45. 37. 42.
      21. 15. 2. 19. 26. 39. 26. 28. 15. 12. 4. 22. 25. 30. 15. 24. 20.
      21. 10. 26. 27. 28. 14. 34. 34. 38. 19. 32. 25. 24. 14. 39. 40.
      45. 22. 30. 19. 19. 12. 38. 38. 43. 20. 24. 14. 14. 10. 34. 34.
      38. 17. 18. 9. 9. 9. 20. 20. 22. 9. 11. 14. 27. 25. 33. 19. 19. 0.
      11. 20. 40. 38. 51. 29. 27. 2. 16. 22. 45. 43. 56. 32. 28. 2. 18.
      22. 45. 42. 56. 32. 28. 2. 17. 16. 33. 31. 41. 24. 19. 2. 11. 9.
      19. 17. 23. 13. 10. 1. 7. 5. 8. 6. 16. 14. 13. 2. 4. 10. 12. 11.
      33. 32. 33. 11. 12. 14. 16. 14. 42. 41. 43. 14. 16. 15. 17. 15.
      43. 42. 43. 15. 17. 14. 16. 15. 41. 38. 41. 14. 16. 11. 11. 11.
      23. 23. 25. 9. 11. 12. 25. 23. 33. 19. 19. 0. 12. 21. 38. 37. 54.
      35. 34. 3. 18. 22. 40. 38. 57. 38. 36. 5. 19. 21. 38. 37. 56. 38.
      35. 5. 18. 14. 26. 25. 40. 28. 25. 4. 11. 8. 14. 13. 22. 16. 15.
      2. 6. 4. 7. 6. 16. 14. 14. 2. 3. 11. 15. 15. 36. 33. 33. 8. 11.
      15. 19. 19. 45. 42. 42. 11. 15. 15. 19. 19. 45. 42. 42. 12. 15.
      14. 17. 17. 41. 38. 38. 11. 14. 9. 9. 9. 22. 20. 20. 7. 9. 9. 17.
      15. 27. 15. 17. 0. 9. 18. 30. 29. 50. 37. 38. 5. 18. 20. 32. 31.
      55. 42. 42. 8. 20. 20. 32. 31. 55. 43. 43. 8. 20. 14. 22. 21. 41.
      33. 33. 7. 14. 9. 14. 13. 25. 21. 20. 4. 8. 6. 11. 10. 21. 17. 16.
      2. 6. 13. 19. 19. 38. 32. 32. 7. 13. 16. 22. 22. 46. 39. 39. 9.
      16. 15. 21. 21. 44. 38. 38. 9. 15. 12. 18. 18. 38. 34. 34. 8. 12.
      4. 6. 6. 15. 14. 14. 4. 4. 4. 7. 6. 17. 11. 12. 0. 4. 15. 21. 21.
      44. 37. 38. 8. 15. 17. 24. 23. 50. 43. 43. 10. 17. 18. 25. 25. 52.
      45. 45. 11. 18. 14. 19. 19. 41. 36. 36. 10. 14. 11. 16. 16. 30.
      25. 25. 6. 11. 9. 16. 16. 26. 20. 20. 2. 9. 14. 23. 23. 41. 32.
      32. 5. 14. 16. 26. 26. 46. 36. 36. 6. 16. 14. 23. 23. 41. 33. 33.
      5. 14. 10. 16. 16. 31. 25. 25. 4. 10. 1. 3. 3. 7. 6. 6. 1. 1. 0.
      0. 0. 9. 9. 9. 0. 0. 10. 12. 12. 36. 35. 35. 9. 10. 14. 16. 16.
      43. 41. 41. 12. 14. 15. 18. 18. 46. 44. 44. 14. 15. 14. 16. 16.
      40. 38. 38. 12. 14. 14. 19. 19. 34. 29. 29. 8. 14. 12. 22. 22. 33.
      24. 24. 2. 12. 16. 28. 28. 45. 32. 32. 3. 16. 16. 28. 28. 46. 33.
      33. 4. 16. 13. 22. 22. 37. 27. 27. 3. 13. 7. 11. 11. 22. 16. 16.
      2. 7. 0. 0. 0. 3. 1. 1. 0. 0. 0. 0. 0. 12. 11. 12. 0. 0. 10. 11.
      11. 37. 36. 36. 9. 10. 14. 15. 14. 43. 41. 42. 12. 14. 15. 17. 16.
      45. 43. 44. 14. 15. 16. 20. 20. 44. 40. 40. 12. 16. 18. 27. 27.
      43. 34. 34. 9. 18. 15. 29. 29. 41. 27. 27. 1. 15. 18. 33. 33. 47.
      31. 31. 1. 18. 16. 30. 30. 43. 29. 29. 1. 16. 10. 19. 19. 29. 20.
      20. 1. 10. 3. 7. 7. 12. 9. 9. 0. 3. 0. 0. 0. 0. 0. 0. 0. 0. 0. 0.
      0. 11. 11. 12. 0. 0. 9. 9. 8. 31. 30. 31. 8. 9. 11. 11. 11. 36.
      35. 36. 11. 11. 14. 15. 14. 40. 37. 38. 12. 14. 17. 23. 21. 43.
      37. 37. 11. 17. 21. 32. 31. 46. 33. 33. 8. 20. 17. 33. 32. 41. 26.
      25. 0. 16. 17. 34. 33. 43. 27. 27. 1. 17. 14. 27. 26. 35. 23. 23.
      0. 14. 7. 14. 14. 19. 12. 12. 0. 7. 1. 3. 3. 4. 3. 3. 0. 1. 0. 0.
      0. 0. 0. 0. 0. 0. 0. 0. 0. 9. 9. 11. 0. 0. 8. 8. 6. 26. 26. 27. 6.
      8. 9. 9. 8. 30. 29. 30. 8. 9. 12. 14. 12. 35. 31. 33. 9. 12. 17.
      25. 22. 43. 35. 34. 8. 17. 22. 36. 34. 48. 33. 33. 5. 21. 18. 35.
      33. 42. 24. 23. 0. 17. 17. 34. 31. 40. 24. 23. 0. 16. 11. 23. 23.
      29. 18. 18. 0. 11. 4. 8. 8. 11. 7. 7. 0. 4. 0. 0. 0. 0. 0. 0. 0.
      0. 0. 0. 0. 0. 0. 0. 0. 0. 0. 0. 0. 7. 7. 7. 0. 0. 5. 5. 5. 20.
      20. 20. 5. 5. 7. 7. 6. 23. 22. 23. 6. 7. 11. 12. 11. 30. 25. 25.
      7. 11. 19. 28. 23. 43. 31. 30. 6. 17. 22. 38. 33. 46. 30. 28. 4.
      20. 19. 36. 33. 39. 22. 20. 0. 17. 15. 31. 30. 36. 20. 20. 0. 15.
      9. 20. 19. 23. 14. 14. 0. 9. 1. 4. 4. 6. 3. 3. 0. 1. 0. 0. 0. 0.
      0. 0. 0. 0. 0. 0. 0. 0. 0. 0. 0. 0.</_>
    <_>
      0. 0. 0. 0. 0. 0. 0. 0. 5. 13. 13. 16. 11. 11. 0. 5. 17. 28. 25.
      31. 20. 20. 3. 17. 31. 46. 33. 46. 31. 35. 12. 36. 44. 57. 35. 52.
      39. 49. 25. 54. 47. 57. 28. 47. 39. 51. 31. 60. 46. 47. 14. 35.
      31. 47. 38. 62. 43. 41. 6. 30. 30. 52. 47. 63. 41. 41. 6. 36. 36.
      60. 51. 63. 36. 36. 6. 35. 35. 55. 46. 55. 35. 35. 7. 37. 37. 60.
      49. 54. 28. 28. 5. 35. 35. 53. 43. 43. 1. 3. 3. 7. 5. 5. 0. 1. 9.
      18. 18. 26. 18. 18. 1. 9. 17. 30. 28. 37. 25. 25. 3. 17. 28. 42.
      34. 47. 33. 35. 9. 30. 36. 48. 33. 49. 36. 43. 20. 43. 35. 43. 24.
      40. 31. 41. 24. 46. 31. 34. 10. 24. 23. 35. 28. 44. 30. 29. 4. 21.
      22. 37. 34. 46. 33. 31. 7. 33. 34. 51. 41. 49. 29. 30. 8. 35. 35.
      51. 40. 46. 30. 32. 8. 41. 40. 58. 43. 47. 26. 28. 9. 41. 41. 58.
      41. 43. 4. 11. 11. 17. 12. 12. 0. 4. 12. 23. 23. 34. 23. 23. 2.
      12. 18. 32. 31. 42. 29. 29. 4. 18. 25. 39. 34. 48. 33. 35. 8. 26.
      28. 40. 30. 45. 33. 38. 15. 33. 25. 31. 19. 30. 24. 30. 17. 32.
      20. 21. 7. 17. 16. 24. 19. 29. 19. 18. 3. 14. 15. 25. 23. 30. 24.
      25. 7. 30. 30. 43. 32. 38. 24. 25. 8. 35. 34. 47. 33. 37. 25. 28.
      10. 43. 41. 56. 37. 41. 25. 27. 11. 47. 46. 62. 38. 41. 9. 17. 17.
      30. 22. 22. 3. 9. 16. 29. 29. 44. 31. 31. 3. 16. 18. 32. 32. 47.
      34. 34. 4. 18. 18. 32. 32. 47. 33. 34. 5. 19. 17. 28. 25. 37. 28.
      30. 8. 19. 10. 14. 11. 17. 13. 17. 8. 13. 5. 5. 2. 6. 6. 9. 7. 9.
      5. 4. 0. 5. 5. 9. 8. 9. 14. 15. 7. 25. 25. 31. 19. 22. 16. 19. 11.
      35. 33. 41. 22. 25. 21. 24. 14. 47. 43. 54. 28. 31. 23. 28. 17.
      57. 52. 65. 33. 36. 14. 25. 25. 44. 35. 35. 4. 14. 18. 31. 31. 50.
      37. 37. 5. 18. 17. 30. 30. 48. 35. 35. 5. 17. 16. 27. 27. 42. 31.
      31. 4. 16. 10. 17. 17. 25. 18. 18. 2. 10. 2. 4. 4. 6. 3. 3. 0. 2.
      0. 0. 0. 0. 0. 0. 0. 0. 0. 0. 0. 0. 0. 0. 0. 0. 10. 14. 11. 24.
      21. 23. 10. 14. 15. 20. 16. 38. 33. 37. 15. 20. 20. 27. 21. 50.
      44. 49. 20. 27. 23. 31. 25. 62. 54. 60. 23. 31. 19. 31. 31. 55.
      44. 44. 7. 19. 18. 30. 30. 54. 42. 42. 7. 18. 16. 26. 26. 46. 36.
      36. 6. 16. 13. 21. 21. 37. 28. 28. 4. 13. 5. 9. 9. 15. 11. 11. 1.
      5. 0. 0. 0. 1. 0. 0. 0. 0. 0. 0. 0. 0. 0. 0. 0. 0. 1. 2. 2. 3. 1.
      1. 0. 0. 11. 17. 16. 27. 21. 21. 6. 12. 15. 24. 22. 40. 31. 33. 9.
      17. 20. 30. 27. 53. 41. 44. 12. 22. 23. 36. 31. 63. 49. 54. 14.
      27. 22. 31. 31. 62. 52. 52. 11. 22. 18. 28. 28. 55. 47. 47. 10.
      18. 15. 23. 23. 45. 37. 37. 8. 15. 11. 17. 17. 33. 27. 27. 6. 11.
      2. 4. 4. 8. 5. 5. 0. 2. 0. 0. 0. 0. 0. 0. 0. 0. 0. 2. 2. 2. 0. 0.
      0. 0. 4. 9. 9. 10. 5. 3. 0. 2. 13. 24. 23. 32. 21. 19. 4. 12. 17.
      31. 29. 43. 30. 29. 5. 16. 21. 36. 34. 53. 37. 37. 7. 20. 22. 36.
      35. 59. 43. 44. 7. 22. 22. 28. 28. 65. 59. 59. 15. 22. 18. 24. 24.
      56. 50. 50. 12. 18. 15. 19. 19. 43. 38. 38. 10. 15. 10. 13. 13.
      30. 27. 27. 7. 10. 0. 1. 1. 2. 1. 1. 0. 0. 1. 2. 2. 2. 0. 0. 0. 0.
      3. 8. 8. 8. 3. 1. 0. 1. 8. 20. 18. 21. 10. 6. 0. 5. 16. 33. 31.
      38. 22. 18. 1. 12. 18. 36. 35. 45. 27. 24. 2. 15. 18. 36. 35. 48.
      30. 28. 2. 16. 17. 31. 31. 46. 31. 30. 3. 17. 25. 28. 23. 63. 60.
      65. 25. 28. 21. 24. 20. 54. 50. 55. 21. 24. 16. 18. 15. 41. 38.
      42. 16. 19. 12. 14. 10. 28. 26. 29. 11. 14. 3. 5. 2. 3. 1. 1. 0.
      2. 6. 12. 9. 9. 3. 1. 0. 4. 10. 22. 19. 19. 7. 3. 0. 6. 16. 33.
      29. 32. 14. 8. 0. 10. 19. 39. 37. 42. 21. 15. 0. 13. 17. 36. 34.
      40. 22. 17. 1. 13. 15. 31. 29. 36. 21. 18. 1. 11. 12. 23. 22. 28.
      19. 17. 1. 11. 22. 23. 15. 54. 51. 59. 27. 30. 20. 20. 14. 46. 43.
      50. 23. 25. 15. 16. 10. 35. 33. 38. 18. 20. 14. 15. 9. 26. 24. 28.
      13. 17. 9. 13. 7. 9. 5. 4. 2. 8. 13. 22. 16. 17. 7. 4. 1. 10. 18.
      33. 26. 28. 12. 6. 1. 12. 21. 41. 35. 37. 17. 10. 0. 14. 17. 38.
      35. 37. 17. 11. 0. 11. 13. 29. 27. 30. 15. 10. 0. 9. 9. 21. 20.
      22. 11. 9. 0. 7. 4. 11. 11. 12. 7. 6. 0. 4. 20. 20. 11. 45. 43.
      54. 30. 30. 18. 18. 8. 38. 37. 47. 25. 26. 14. 14. 7. 29. 28. 36.
      18. 20. 15. 17. 7. 24. 22. 27. 15. 20. 12. 20. 10. 14. 7. 5. 2.
      11. 18. 31. 22. 23. 10. 5. 1. 15. 23. 42. 33. 34. 15. 8. 1. 16.
      23. 44. 36. 38. 16. 9. 1. 16. 16. 35. 31. 33. 14. 8. 0. 10. 10.
      22. 20. 22. 9. 5. 0. 7. 5. 12. 11. 12. 6. 4. 0. 4. 1. 3. 3. 3. 1.
      1. 0. 1. 17. 17. 5. 35. 33. 45. 28. 30. 16. 16. 5. 30. 28. 41. 24.
      26. 12. 12. 3. 23. 22. 31. 19. 20. 17. 19. 7. 22. 19. 25. 15. 22.
      19. 27. 14. 19. 9. 9. 3. 15. 25. 39. 27. 28. 14. 7. 3. 19. 28. 47.
      35. 38. 17. 9. 1. 20. 25. 44. 35. 36. 15. 9. 1. 17. 14. 28. 25.
      25. 11. 6. 0. 9. 6. 14. 12. 12. 4. 3. 0. 3. 1. 3. 3. 3. 1. 1. 0.
      0. 0. 0. 0. 0. 0. 0. 0. 0.</_>
    <_>
      10. 17. 17. 20. 10. 10. 0. 10. 18. 32. 28. 30. 15. 13. 1. 15. 27.
      44. 35. 36. 19. 15. 1. 22. 39. 60. 44. 44. 23. 19. 4. 35. 49. 68.
      41. 44. 25. 23. 11. 47. 54. 67. 30. 36. 23. 27. 20. 57. 55. 60.
      20. 30. 25. 35. 30. 67. 52. 54. 12. 30. 30. 47. 43. 70. 41. 39. 6.
      27. 28. 47. 44. 60. 28. 27. 4. 22. 23. 39. 35. 44. 16. 16. 1. 16.
      18. 32. 28. 32. 7. 7. 0. 12. 12. 20. 17. 17. 15. 26. 24. 33. 22.
      22. 3. 15. 20. 36. 32. 38. 25. 22. 4. 19. 25. 42. 36. 42. 24. 22.
      3. 22. 33. 51. 40. 43. 24. 22. 4. 29. 35. 50. 33. 35. 20. 18. 8.
      34. 36. 46. 22. 25. 16. 17. 12. 38. 38. 42. 14. 21. 17. 24. 22.
      46. 38. 40. 8. 25. 24. 40. 35. 54. 35. 34. 5. 28. 29. 46. 40. 51.
      27. 25. 5. 27. 28. 43. 35. 42. 20. 19. 4. 26. 26. 40. 32. 34. 13.
      13. 3. 22. 22. 32. 22. 22. 19. 28. 28. 44. 33. 33. 7. 19. 22. 36.
      33. 49. 35. 34. 8. 22. 24. 39. 34. 47. 32. 31. 7. 23. 27. 42. 34.
      45. 29. 27. 6. 25. 24. 36. 24. 29. 17. 16. 5. 23. 23. 30. 14. 18.
      12. 13. 8. 24. 24. 26. 8. 13. 11. 16. 14. 29. 27. 27. 5. 21. 21.
      31. 26. 38. 28. 27. 7. 30. 31. 44. 33. 42. 25. 24. 7. 32. 33. 46.
      33. 38. 21. 21. 8. 34. 35. 47. 31. 33. 17. 17. 7. 33. 33. 41. 25.
      25. 30. 39. 31. 55. 46. 49. 19. 33. 34. 46. 37. 62. 49. 53. 20.
      36. 32. 44. 36. 57. 44. 47. 18. 33. 28. 39. 32. 50. 38. 40. 15.
      29. 16. 23. 19. 26. 18. 19. 6. 15. 7. 10. 7. 11. 7. 7. 2. 6. 4. 5.
      1. 2. 2. 4. 3. 6. 12. 11. 3. 15. 15. 21. 15. 18. 20. 20. 9. 32.
      32. 41. 25. 29. 23. 23. 12. 40. 39. 49. 28. 32. 23. 24. 14. 44.
      44. 54. 30. 33. 20. 22. 14. 46. 44. 52. 27. 28. 31. 38. 28. 57.
      49. 54. 25. 36. 35. 43. 34. 64. 55. 60. 27. 40. 33. 40. 31. 58.
      50. 55. 24. 37. 28. 35. 27. 50. 43. 47. 20. 31. 15. 19. 14. 26.
      21. 24. 9. 16. 4. 6. 5. 10. 9. 9. 2. 4. 0. 0. 0. 0. 0. 0. 0. 0. 5.
      8. 6. 16. 14. 15. 5. 7. 14. 18. 14. 35. 31. 34. 14. 17. 17. 22.
      18. 44. 39. 42. 17. 21. 20. 25. 21. 50. 46. 49. 20. 23. 22. 27.
      22. 52. 47. 52. 20. 25. 28. 31. 20. 46. 43. 49. 27. 35. 34. 38.
      27. 58. 54. 61. 30. 41. 32. 37. 25. 56. 50. 57. 28. 38. 29. 33.
      23. 50. 45. 51. 24. 33. 16. 20. 14. 30. 26. 30. 13. 19. 5. 7. 6.
      13. 11. 12. 3. 5. 0. 0. 0. 1. 1. 1. 0. 0. 5. 10. 10. 18. 14. 14.
      2. 6. 13. 20. 19. 37. 30. 31. 8. 13. 16. 24. 23. 45. 37. 38. 10.
      16. 18. 27. 25. 50. 42. 42. 11. 18. 19. 27. 25. 51. 43. 43. 12.
      19. 22. 23. 12. 35. 33. 38. 22. 28. 30. 33. 21. 53. 49. 55. 28.
      36. 30. 33. 22. 53. 49. 55. 27. 35. 27. 31. 22. 50. 46. 52. 25.
      32. 18. 21. 15. 35. 31. 35. 16. 21. 6. 8. 7. 15. 14. 15. 5. 7. 2.
      4. 4. 6. 4. 3. 0. 1. 8. 16. 16. 25. 18. 17. 1. 7. 14. 25. 25. 41.
      30. 28. 4. 12. 15. 27. 27. 46. 34. 32. 5. 14. 16. 28. 28. 48. 36.
      34. 5. 15. 14. 22. 22. 39. 31. 30. 6. 12. 14. 15. 7. 23. 22. 27.
      14. 19. 23. 25. 17. 44. 42. 47. 22. 28. 24. 27. 19. 48. 45. 50.
      23. 29. 23. 26. 19. 48. 45. 49. 22. 27. 17. 19. 15. 37. 34. 37.
      16. 19. 8. 10. 9. 18. 16. 16. 6. 7. 5. 11. 10. 14. 8. 6. 0. 3. 11.
      24. 23. 33. 21. 18. 1. 9. 15. 30. 30. 43. 28. 25. 2. 12. 15. 30.
      30. 44. 29. 26. 2. 13. 14. 25. 25. 40. 27. 25. 2. 11. 9. 15. 15.
      27. 19. 17. 1. 7. 3. 4. 3. 15. 14. 15. 4. 4. 12. 14. 10. 36. 35.
      38. 16. 17. 17. 18. 12. 41. 40. 44. 19. 22. 20. 21. 14. 43. 41.
      46. 21. 25. 21. 23. 15. 39. 35. 39. 17. 25. 19. 24. 17. 28. 21.
      22. 10. 20. 15. 27. 22. 26. 14. 12. 0. 13. 18. 35. 32. 40. 23. 20.
      0. 15. 17. 35. 34. 44. 26. 23. 0. 14. 13. 28. 27. 37. 23. 20. 0.
      11. 9. 20. 20. 28. 17. 16. 0. 8. 4. 7. 7. 12. 7. 7. 0. 3. 1. 1. 0.
      9. 9. 11. 1. 1. 12. 12. 7. 29. 29. 34. 15. 16. 20. 20. 10. 35. 35.
      41. 21. 25. 28. 29. 13. 40. 39. 45. 25. 34. 33. 36. 19. 41. 37.
      42. 23. 38. 33. 41. 25. 36. 27. 29. 16. 35. 27. 41. 30. 34. 19.
      17. 3. 25. 22. 40. 34. 40. 22. 20. 1. 20. 16. 33. 30. 38. 21. 19.
      0. 14. 10. 22. 20. 27. 16. 14. 0. 8. 5. 11. 11. 17. 10. 10. 0. 4.
      1. 1. 1. 4. 3. 3. 0. 1. 0. 0. 0. 5. 5. 7. 0. 0. 11. 11. 5. 25. 25.
      29. 13. 15. 22. 22. 9. 31. 31. 37. 21. 28. 34. 35. 15. 38. 37. 44.
      27. 41. 42. 47. 23. 43. 37. 43. 25. 49. 44. 55. 31. 43. 31. 34.
      20. 48. 35. 51. 36. 38. 22. 21. 5. 34. 25. 44. 35. 38. 21. 17. 1.
      23. 15. 31. 28. 33. 16. 14. 0. 12. 8. 17. 16. 20. 10. 8. 0. 5. 2.
      6. 6. 9. 5. 4. 0. 2. 0. 0. 0. 0. 0. 0. 0. 0. 0. 0. 0. 2. 2. 5. 0.
      0. 11. 11. 3. 18. 18. 24. 13. 16. 23. 23. 7. 25. 25. 33. 22. 31.
      41. 41. 14. 35. 33. 41. 30. 49. 52. 59. 25. 43. 36. 44. 30. 60.
      55. 68. 36. 47. 35. 38. 23. 60. 43. 60. 38. 41. 23. 22. 7. 43. 28.
      46. 33. 35. 19. 17. 1. 27. 14. 27. 23. 25. 12. 11. 0. 12. 4. 11.
      11. 11. 6. 4. 0. 4. 0. 1. 1. 1. 1. 1. 0. 0. 0. 0. 0. 0. 0. 0. 0.
      0.</_>
    <_>
      0. 0. 0. 0. 0. 0. 0. 0. 0. 0. 0. 0. 0. 0. 0. 0. 0. 0. 0. 0. 0. 0.
      0. 0. 4. 7. 6. 7. 6. 6. 1. 4. 19. 23. 12. 17. 12. 12. 6. 20. 33.
      38. 17. 23. 19. 23. 15. 38. 46. 49. 20. 33. 30. 39. 30. 57. 49.
      49. 19. 38. 38. 51. 36. 62. 38. 36. 11. 30. 33. 46. 35. 52. 22.
      19. 4. 23. 27. 38. 25. 33. 11. 9. 3. 18. 20. 28. 16. 18. 2. 2. 0.
      7. 7. 10. 2. 2. 1. 3. 3. 3. 3. 3. 0. 1. 6. 8. 5. 6. 5. 6. 2. 8. 8.
      9. 5. 7. 5. 7. 3. 9. 11. 15. 9. 14. 10. 12. 5. 14. 20. 23. 12. 17.
      14. 16. 8. 22. 27. 28. 12. 17. 15. 18. 12. 30. 31. 33. 12. 25. 24.
      31. 22. 40. 36. 36. 14. 35. 35. 46. 29. 47. 30. 28. 10. 33. 35.
      46. 29. 41. 20. 18. 8. 29. 31. 40. 23. 28. 12. 12. 5. 26. 26. 33.
      16. 18. 5. 5. 3. 13. 13. 15. 5. 5. 4. 7. 7. 12. 9. 9. 1. 4. 11.
      14. 10. 16. 14. 15. 4. 12. 12. 16. 11. 17. 14. 16. 5. 14. 15. 19.
      13. 20. 16. 19. 7. 18. 18. 21. 12. 19. 15. 18. 8. 21. 18. 19. 8.
      12. 10. 14. 10. 22. 20. 20. 8. 19. 19. 24. 14. 25. 26. 25. 12. 34.
      34. 42. 23. 33. 24. 22. 11. 36. 38. 45. 24. 31. 18. 17. 10. 35.
      36. 42. 21. 25. 14. 12. 9. 31. 31. 36. 17. 18. 7. 7. 6. 17. 17.
      20. 9. 9. 9. 12. 12. 23. 20. 20. 4. 9. 16. 20. 15. 29. 24. 27. 8.
      17. 17. 21. 16. 29. 25. 27. 9. 19. 18. 21. 15. 27. 24. 27. 10. 21.
      15. 16. 10. 20. 18. 21. 9. 17. 6. 5. 1. 3. 4. 6. 4. 9. 4. 3. 1.
      12. 12. 15. 5. 6. 12. 12. 9. 32. 32. 35. 14. 15. 15. 15. 12. 40.
      40. 43. 16. 18. 15. 16. 13. 41. 40. 44. 17. 19. 15. 15. 12. 38.
      37. 41. 16. 17. 9. 11. 9. 23. 22. 23. 11. 11. 12. 15. 15. 35. 31.
      31. 7. 12. 18. 23. 18. 40. 36. 37. 11. 20. 20. 24. 19. 40. 36. 37.
      12. 22. 19. 23. 17. 36. 32. 34. 12. 21. 15. 17. 12. 25. 23. 24. 9.
      16. 4. 4. 1. 2. 2. 3. 2. 5. 2. 4. 3. 12. 12. 12. 2. 3. 10. 13. 12.
      34. 31. 32. 9. 11. 14. 17. 16. 43. 40. 41. 12. 15. 15. 18. 16. 44.
      41. 42. 13. 16. 14. 16. 15. 41. 37. 38. 12. 15. 9. 11. 9. 23. 22.
      22. 9. 11. 17. 20. 19. 43. 41. 41. 14. 17. 23. 27. 21. 49. 46. 48.
      18. 25. 24. 27. 21. 48. 45. 47. 19. 26. 22. 25. 19. 43. 40. 43.
      17. 25. 17. 18. 13. 30. 28. 30. 13. 19. 4. 3. 1. 1. 1. 2. 2. 5. 5.
      7. 7. 17. 15. 15. 2. 5. 12. 15. 15. 37. 33. 33. 8. 12. 15. 19. 19.
      46. 41. 41. 10. 15. 15. 19. 19. 44. 40. 40. 11. 15. 14. 17. 17.
      40. 36. 36. 9. 14. 6. 7. 7. 17. 15. 15. 6. 6. 19. 20. 17. 46. 44.
      46. 19. 20. 24. 25. 20. 50. 49. 54. 24. 29. 27. 28. 19. 50. 49.
      55. 26. 33. 26. 27. 17. 46. 45. 50. 25. 32. 20. 21. 12. 32. 32.
      37. 19. 26. 6. 7. 1. 4. 3. 6. 5. 9. 10. 15. 12. 24. 20. 20. 5. 11.
      14. 20. 20. 40. 34. 34. 7. 14. 17. 24. 24. 48. 40. 40. 9. 17. 16.
      22. 22. 44. 37. 37. 9. 16. 12. 17. 17. 37. 31. 31. 8. 12. 3. 4. 4.
      11. 9. 9. 3. 3. 20. 20. 17. 44. 44. 47. 22. 23. 27. 27. 18. 50.
      50. 56. 29. 33. 30. 31. 18. 51. 51. 59. 32. 39. 30. 30. 16. 46.
      46. 55. 31. 39. 24. 24. 11. 33. 33. 40. 23. 32. 10. 13. 5. 9. 8.
      11. 7. 14. 14. 22. 19. 31. 24. 24. 6. 15. 16. 26. 26. 44. 34. 33.
      7. 15. 18. 28. 28. 48. 38. 37. 8. 17. 15. 24. 24. 42. 33. 33. 7.
      15. 10. 16. 16. 30. 24. 24. 4. 10. 0. 1. 1. 4. 3. 3. 0. 0. 19. 20.
      14. 41. 39. 44. 22. 23. 27. 28. 16. 47. 47. 56. 31. 36. 32. 33.
      16. 49. 48. 59. 34. 43. 32. 33. 14. 45. 45. 56. 34. 44. 27. 29.
      11. 35. 34. 43. 26. 38. 16. 22. 10. 18. 14. 18. 9. 21. 18. 30. 25.
      38. 28. 28. 6. 19. 19. 31. 30. 46. 35. 34. 6. 18. 19. 31. 30. 47.
      36. 35. 7. 18. 14. 23. 23. 37. 28. 28. 6. 14. 8. 11. 11. 21. 17.
      17. 3. 8. 0. 0. 0. 0. 0. 0. 0. 0. 15. 15. 11. 31. 31. 35. 19. 20.
      25. 27. 12. 40. 40. 49. 29. 35. 34. 35. 14. 43. 43. 54. 34. 46.
      38. 39. 15. 43. 43. 55. 36. 51. 38. 41. 15. 38. 37. 47. 30. 50.
      31. 38. 19. 30. 24. 29. 15. 36. 27. 40. 29. 42. 31. 31. 9. 28. 23.
      37. 32. 45. 32. 31. 6. 22. 19. 31. 29. 41. 30. 29. 5. 18. 11. 20.
      20. 29. 21. 20. 4. 11. 4. 8. 8. 12. 9. 9. 2. 4. 0. 0. 0. 0. 0. 0.
      0. 0. 11. 11. 7. 24. 24. 28. 13. 15. 22. 23. 9. 33. 33. 41. 25.
      30. 31. 33. 10. 37. 37. 48. 30. 43. 40. 41. 12. 40. 38. 50. 33.
      51. 43. 47. 17. 40. 37. 47. 30. 54. 41. 49. 25. 38. 30. 35. 18.
      46. 33. 47. 33. 44. 31. 33. 10. 34. 25. 40. 33. 43. 29. 28. 5. 24.
      17. 30. 27. 36. 24. 23. 3. 17. 8. 16. 16. 22. 15. 14. 2. 8. 1. 4.
      4. 5. 4. 4. 0. 1. 0. 0. 0. 0. 0. 0. 0. 0. 7. 7. 2. 17. 17. 20. 10.
      10. 18. 18. 7. 26. 26. 32. 18. 26. 28. 28. 7. 31. 31. 39. 25. 36.
      38. 39. 12. 36. 35. 44. 28. 47. 47. 52. 20. 41. 36. 44. 28. 55.
      47. 59. 30. 44. 35. 38. 20. 52. 38. 51. 33. 44. 31. 33. 12. 39.
      28. 41. 31. 39. 27. 27. 6. 27. 17. 27. 22. 30. 20. 19. 3. 15. 4.
      11. 11. 14. 9. 7. 0. 4. 0. 0. 0. 0. 0. 0. 0. 0. 0. 0. 0. 0. 0. 0.
      0. 0.</_>
    <_>
      0. 0. 0. 0. 0. 0. 0. 0. 0. 0. 0. 0. 0. 0. 0. 0. 9. 12. 9. 22. 19.
      19. 4. 11. 25. 30. 19. 35. 31. 31. 12. 27. 39. 43. 23. 44. 41. 47.
      23. 46. 49. 51. 23. 51. 49. 62. 38. 62. 47. 47. 19. 46. 46. 62.
      41. 63. 31. 28. 6. 23. 25. 41. 35. 46. 15. 14. 1. 17. 19. 31. 25.
      27. 6. 6. 0. 9. 9. 15. 11. 11. 0. 0. 0. 0. 0. 1. 0. 0. 0. 0. 0. 0.
      0. 0. 0. 0. 0. 0. 0. 0. 0. 0. 0. 0. 0. 0. 0. 0. 0. 0. 0. 0. 10.
      14. 11. 24. 21. 21. 5. 10. 22. 28. 20. 37. 33. 34. 11. 23. 33. 37.
      23. 44. 41. 46. 20. 37. 40. 43. 23. 51. 49. 60. 34. 51. 38. 41.
      18. 48. 48. 62. 38. 54. 25. 24. 5. 27. 29. 43. 31. 40. 15. 14. 3.
      22. 24. 36. 24. 27. 8. 8. 2. 15. 15. 21. 14. 14. 1. 1. 0. 4. 4. 5.
      1. 1. 0. 0. 0. 0. 0. 0. 0. 0. 0. 0. 0. 0. 0. 0. 0. 0. 0. 0. 0. 2.
      2. 2. 0. 0. 10. 13. 12. 27. 24. 24. 7. 11. 19. 24. 19. 39. 35. 36.
      12. 21. 26. 31. 22. 46. 42. 45. 18. 30. 32. 35. 21. 51. 48. 57.
      29. 41. 32. 35. 18. 50. 49. 60. 34. 45. 22. 21. 7. 31. 31. 44. 29.
      34. 16. 15. 5. 28. 28. 39. 25. 26. 10. 10. 4. 21. 20. 27. 15. 16.
      3. 3. 2. 8. 8. 9. 3. 4. 0. 0. 0. 0. 0. 0. 0. 0. 0. 0. 0. 0. 0. 0.
      0. 0. 0. 0. 0. 4. 4. 4. 0. 0. 10. 13. 12. 30. 28. 29. 8. 11. 14.
      19. 17. 42. 39. 40. 13. 16. 17. 22. 20. 46. 43. 45. 15. 19. 20.
      25. 19. 50. 48. 53. 23. 27. 23. 27. 19. 52. 49. 58. 28. 32. 16.
      18. 9. 36. 34. 43. 23. 25. 15. 18. 10. 36. 33. 42. 22. 24. 12. 14.
      8. 28. 26. 32. 16. 18. 4. 5. 4. 12. 11. 14. 5. 7. 0. 0. 0. 0. 0.
      0. 0. 0. 0. 0. 0. 0. 0. 0. 0. 0. 1. 2. 2. 9. 8. 8. 1. 1. 11. 14.
      13. 32. 30. 30. 9. 12. 15. 20. 18. 43. 40. 40. 12. 16. 17. 22. 20.
      46. 42. 42. 13. 18. 18. 23. 21. 49. 44. 47. 17. 22. 20. 26. 21.
      50. 45. 50. 20. 26. 14. 19. 13. 38. 34. 40. 16. 21. 15. 19. 13.
      39. 35. 40. 16. 21. 12. 16. 11. 31. 28. 32. 13. 17. 5. 8. 5. 16.
      14. 16. 5. 8. 0. 0. 0. 0. 0. 0. 0. 0. 0. 0. 0. 0. 0. 0. 0. 0. 3.
      4. 4. 14. 12. 12. 3. 3. 12. 15. 14. 35. 32. 32. 9. 12. 16. 19. 19.
      45. 41. 41. 12. 16. 16. 20. 20. 46. 42. 42. 13. 17. 18. 24. 22.
      49. 44. 45. 14. 19. 18. 26. 22. 48. 42. 45. 15. 22. 14. 21. 17.
      40. 34. 38. 12. 19. 15. 22. 17. 40. 35. 38. 13. 19. 11. 17. 13.
      32. 28. 30. 10. 15. 4. 8. 5. 15. 14. 15. 4. 7. 0. 0. 0. 0. 0. 0.
      0. 0. 0. 0. 0. 0. 0. 0. 0. 0. 7. 7. 7. 17. 17. 17. 5. 7. 13. 14.
      14. 36. 34. 34. 10. 13. 16. 18. 18. 46. 43. 43. 13. 16. 15. 18.
      18. 45. 43. 43. 13. 15. 19. 24. 23. 52. 47. 48. 14. 19. 17. 25.
      22. 48. 41. 43. 12. 19. 15. 24. 21. 43. 35. 37. 10. 18. 15. 23.
      20. 41. 34. 36. 10. 18. 11. 17. 15. 32. 26. 28. 7. 14. 3. 5. 3.
      11. 10. 10. 2. 4. 0. 0. 0. 0. 0. 0. 0. 0. 0. 0. 0. 0. 0. 0. 0. 0.
      9. 10. 9. 20. 20. 21. 8. 9. 13. 15. 15. 36. 34. 35. 12. 15. 16.
      18. 18. 44. 41. 43. 15. 18. 15. 18. 18. 44. 41. 43. 13. 17. 20.
      28. 27. 56. 48. 50. 14. 22. 16. 26. 25. 49. 40. 41. 9. 18. 17. 27.
      25. 45. 36. 37. 8. 18. 15. 24. 23. 42. 33. 34. 7. 16. 10. 16. 15.
      29. 23. 24. 5. 11. 1. 2. 2. 7. 5. 5. 0. 1. 0. 0. 0. 0. 0. 0. 0. 0.
      0. 0. 0. 0. 0. 0. 0. 0. 9. 9. 9. 20. 18. 21. 9. 10. 14. 16. 13.
      33. 32. 36. 16. 18. 19. 21. 16. 42. 39. 44. 19. 23. 21. 26. 20.
      47. 41. 45. 18. 24. 25. 36. 31. 60. 48. 51. 18. 27. 20. 33. 29.
      51. 38. 38. 10. 20. 18. 30. 28. 45. 33. 31. 7. 17. 14. 24. 23. 38.
      29. 28. 6. 14. 8. 13. 12. 23. 18. 18. 4. 9. 0. 0. 0. 3. 2. 2. 0.
      0. 0. 0. 0. 0. 0. 0. 0. 0. 0. 0. 0. 0. 0. 0. 0. 0. 7. 7. 5. 15.
      15. 16. 7. 8. 13. 14. 9. 27. 26. 32. 16. 19. 20. 23. 14. 36. 34.
      41. 21. 27. 25. 32. 21. 45. 38. 43. 22. 30. 29. 42. 32. 56. 44.
      47. 20. 32. 23. 38. 30. 48. 33. 33. 11. 23. 17. 31. 29. 40. 27.
      24. 4. 15. 11. 20. 20. 31. 21. 20. 3. 9. 5. 9. 9. 16. 12. 12. 2.
      5. 0. 0. 0. 1. 0. 0. 0. 0. 0. 0. 0. 0. 0. 0. 0. 0. 0. 0. 0. 0. 0.
      0. 0. 0. 4. 4. 4. 11. 11. 13. 5. 6. 12. 12. 7. 22. 21. 28. 16. 18.
      22. 24. 12. 31. 29. 37. 23. 30. 29. 37. 23. 43. 35. 41. 24. 35.
      33. 46. 31. 53. 38. 42. 22. 36. 27. 41. 31. 46. 29. 29. 12. 25.
      16. 30. 27. 35. 21. 17. 3. 12. 8. 17. 17. 24. 15. 12. 1. 7. 3. 5.
      5. 9. 7. 7. 1. 3. 0. 0. 0. 0. 0. 0. 0. 0. 0. 0. 0. 0. 0. 0. 0. 0.
      0. 0. 0. 0. 0. 0. 0. 0. 1. 1. 1. 7. 7. 9. 3. 3. 11. 11. 3. 15. 15.
      23. 15. 19. 23. 27. 11. 27. 25. 35. 25. 33. 33. 43. 23. 41. 31.
      39. 27. 39. 35. 49. 31. 47. 33. 38. 23. 39. 28. 44. 31. 41. 25.
      23. 14. 28. 15. 30. 25. 28. 14. 9. 1. 11. 4. 12. 12. 15. 7. 6. 0.
      3. 1. 1. 1. 3. 1. 1. 0. 1. 0. 0. 0. 0. 0. 0. 0. 0. 0. 0. 0. 0. 0.
      0. 0. 0.</_>
    <_>
      7. 12. 12. 15. 10. 10. 2. 7. 20. 30. 28. 32. 22. 26. 9. 24. 31.
      44. 36. 41. 28. 31. 12. 35. 44. 62. 46. 49. 33. 38. 14. 51. 59.
      73. 47. 51. 35. 39. 17. 63. 63. 75. 38. 39. 28. 33. 20. 68. 73.
      78. 35. 44. 38. 41. 30. 76. 71. 78. 38. 57. 51. 54. 35. 75. 60.
      65. 35. 59. 52. 55. 33. 63. 41. 47. 28. 52. 46. 47. 25. 43. 26.
      33. 22. 43. 37. 37. 16. 26. 7. 12. 10. 20. 15. 15. 0. 5. 11. 18.
      18. 26. 18. 18. 3. 11. 22. 33. 30. 38. 29. 32. 11. 26. 29. 42. 36.
      44. 31. 36. 12. 34. 38. 53. 42. 48. 34. 40. 14. 43. 44. 56. 38.
      42. 30. 35. 15. 49. 44. 51. 27. 28. 21. 24. 15. 48. 50. 55. 27.
      35. 31. 34. 23. 53. 51. 56. 29. 50. 46. 48. 27. 54. 44. 49. 28.
      54. 49. 51. 27. 47. 31. 36. 23. 49. 44. 46. 21. 33. 20. 26. 19.
      41. 37. 37. 13. 22. 3. 7. 5. 18. 15. 13. 0. 3. 15. 22. 22. 36. 28.
      28. 6. 15. 22. 31. 30. 44. 35. 38. 12. 25. 27. 37. 34. 46. 36. 40.
      13. 31. 31. 42. 35. 45. 35. 40. 14. 36. 31. 40. 29. 34. 26. 30.
      12. 35. 28. 32. 18. 18. 14. 17. 11. 31. 34. 37. 20. 29. 26. 28.
      18. 36. 36. 39. 23. 44. 41. 43. 22. 39. 33. 36. 23. 50. 46. 48.
      23. 35. 24. 28. 20. 46. 42. 44. 18. 27. 16. 20. 15. 38. 35. 36.
      12. 18. 1. 4. 3. 15. 12. 12. 0. 1. 19. 27. 25. 49. 41. 41. 11. 19.
      23. 31. 30. 53. 44. 48. 15. 27. 23. 31. 30. 49. 41. 45. 15. 27.
      21. 28. 27. 42. 35. 40. 13. 25. 13. 18. 16. 23. 19. 23. 7. 17. 5.
      6. 5. 5. 4. 7. 4. 8. 10. 11. 10. 20. 19. 19. 9. 11. 14. 15. 14.
      36. 35. 36. 14. 16. 15. 17. 16. 44. 42. 44. 16. 18. 14. 15. 14.
      42. 40. 42. 14. 16. 10. 11. 10. 36. 35. 36. 10. 12. 0. 0. 0. 12.
      11. 11. 0. 0. 20. 28. 28. 57. 51. 51. 14. 20. 20. 25. 25. 54. 48.
      50. 15. 22. 17. 22. 22. 45. 41. 44. 13. 20. 14. 17. 17. 36. 33.
      36. 11. 16. 5. 6. 6. 14. 13. 15. 4. 7. 1. 0. 0. 0. 1. 2. 2. 2. 9.
      11. 10. 21. 20. 20. 8. 10. 14. 16. 15. 37. 34. 36. 13. 15. 15. 19.
      17. 44. 41. 43. 14. 17. 14. 16. 15. 41. 38. 40. 13. 15. 10. 12.
      11. 35. 33. 35. 9. 11. 0. 0. 0. 9. 7. 9. 0. 0. 20. 25. 25. 60. 55.
      55. 15. 20. 17. 22. 22. 54. 49. 49. 14. 17. 14. 17. 17. 43. 40.
      40. 10. 14. 9. 12. 12. 32. 30. 30. 7. 9. 0. 1. 1. 8. 7. 7. 0. 0.
      0. 0. 0. 0. 0. 0. 0. 0. 10. 13. 12. 23. 21. 21. 8. 11. 15. 19. 18.
      39. 34. 36. 11. 16. 17. 22. 20. 46. 40. 42. 13. 18. 15. 19. 18.
      42. 37. 39. 11. 16. 11. 15. 14. 35. 31. 33. 9. 12. 0. 0. 0. 6. 6.
      6. 0. 0. 22. 23. 23. 62. 60. 60. 19. 22. 17. 20. 20. 54. 51. 51.
      15. 17. 14. 15. 15. 43. 41. 41. 12. 14. 9. 10. 10. 31. 29. 29. 8.
      9. 0. 0. 0. 5. 4. 4. 0. 0. 0. 1. 1. 2. 1. 1. 0. 0. 11. 16. 15. 27.
      22. 23. 6. 11. 15. 22. 21. 41. 34. 35. 9. 16. 17. 25. 23. 47. 39.
      40. 10. 18. 15. 21. 20. 41. 35. 36. 9. 16. 10. 15. 15. 31. 27. 28.
      7. 11. 0. 0. 0. 4. 3. 3. 0. 0. 22. 25. 23. 63. 60. 62. 20. 23. 18.
      21. 20. 54. 51. 54. 17. 20. 14. 16. 15. 42. 40. 41. 13. 15. 10.
      11. 10. 29. 28. 29. 9. 10. 0. 0. 0. 3. 2. 2. 0. 0. 2. 5. 5. 8. 4.
      4. 0. 1. 12. 20. 20. 31. 23. 22. 4. 10. 16. 27. 27. 44. 33. 32. 6.
      15. 17. 28. 28. 47. 36. 35. 7. 16. 14. 23. 23. 40. 31. 30. 6. 13.
      9. 14. 14. 25. 21. 21. 4. 9. 0. 0. 0. 3. 1. 1. 0. 0. 23. 25. 19.
      60. 59. 65. 27. 28. 23. 24. 16. 51. 50. 56. 24. 27. 21. 22. 13.
      40. 39. 44. 20. 24. 18. 19. 9. 29. 28. 32. 14. 21. 11. 14. 6. 9.
      5. 7. 3. 12. 13. 20. 15. 18. 10. 9. 0. 12. 18. 32. 29. 39. 25. 23.
      2. 17. 19. 34. 33. 47. 31. 29. 3. 17. 17. 31. 31. 45. 31. 29. 3.
      15. 11. 21. 21. 32. 23. 22. 3. 10. 5. 10. 10. 17. 12. 12. 2. 5. 0.
      0. 0. 0. 0. 0. 0. 0. 23. 23. 12. 49. 49. 57. 28. 31. 27. 27. 12.
      44. 44. 53. 28. 35. 30. 30. 13. 38. 38. 44. 26. 37. 34. 35. 13.
      31. 31. 36. 23. 39. 31. 35. 15. 19. 14. 17. 12. 33. 29. 40. 25.
      29. 18. 17. 5. 28. 27. 42. 33. 41. 25. 23. 4. 25. 21. 37. 34. 43.
      26. 24. 2. 19. 14. 28. 28. 37. 23. 21. 2. 12. 8. 16. 16. 22. 15.
      14. 1. 7. 3. 5. 5. 8. 5. 5. 1. 3. 0. 0. 0. 0. 0. 0. 0. 0. 22. 22.
      9. 41. 41. 50. 30. 33. 32. 32. 11. 40. 40. 50. 32. 41. 38. 38. 12.
      35. 35. 44. 30. 47. 47. 47. 16. 33. 31. 38. 29. 54. 47. 53. 23.
      27. 21. 24. 18. 50. 42. 55. 33. 36. 23. 22. 8. 41. 33. 49. 36. 41.
      24. 23. 4. 30. 21. 38. 33. 38. 22. 21. 2. 20. 11. 24. 23. 29. 16.
      15. 0. 9. 3. 10. 10. 14. 8. 7. 0. 2. 0. 1. 1. 2. 1. 1. 0. 0. 0. 0.
      0. 0. 0. 0. 0. 0. 22. 22. 5. 30. 30. 43. 30. 33. 35. 35. 9. 33.
      33. 45. 33. 47. 46. 46. 14. 33. 33. 43. 35. 57. 60. 62. 20. 35.
      33. 43. 35. 70. 63. 71. 31. 36. 30. 33. 25. 68. 55. 70. 39. 41.
      28. 27. 12. 54. 39. 55. 38. 41. 25. 23. 7. 38. 23. 38. 31. 35. 19.
      17. 1. 20. 9. 20. 19. 22. 11. 9. 0. 7. 1. 4. 4. 7. 3. 3. 0. 0. 0.
      0. 0. 0. 0. 0. 0. 0. 0. 0. 0. 0. 0. 0. 0. 0.</_>
    <_>
      0. 0. 0. 0. 0. 0. 0. 0. 3. 5. 5. 7. 5. 5. 0. 3. 11. 19. 17. 22.
      12. 12. 0. 11. 20. 36. 33. 38. 20. 19. 0. 17. 28. 51. 41. 47. 27.
      23. 1. 27. 36. 57. 41. 49. 28. 25. 4. 33. 43. 60. 38. 60. 43. 46.
      19. 47. 39. 49. 27. 54. 46. 51. 25. 46. 31. 35. 15. 46. 44. 52.
      28. 41. 20. 23. 11. 36. 35. 41. 22. 28. 13. 15. 7. 26. 26. 30. 15.
      18. 0. 0. 0. 0. 0. 0. 0. 0. 0. 0. 0. 0. 0. 0. 0. 0. 5. 9. 6. 13.
      11. 12. 2. 6. 12. 21. 18. 27. 18. 20. 3. 14. 20. 35. 30. 41. 25.
      27. 4. 20. 25. 43. 35. 47. 28. 28. 4. 25. 28. 44. 34. 43. 27. 25.
      5. 28. 33. 46. 30. 50. 37. 40. 16. 37. 30. 38. 22. 48. 42. 47. 23.
      37. 27. 30. 16. 44. 42. 48. 24. 35. 18. 22. 11. 36. 34. 41. 21.
      27. 12. 15. 8. 27. 26. 30. 15. 18. 0. 0. 0. 0. 0. 0. 0. 0. 0. 0.
      0. 0. 0. 0. 0. 0. 8. 12. 9. 17. 14. 16. 7. 11. 16. 25. 19. 31. 23.
      26. 9. 20. 22. 35. 28. 43. 30. 33. 11. 26. 25. 39. 30. 45. 31. 33.
      10. 28. 24. 37. 27. 39. 26. 28. 9. 26. 26. 36. 24. 44. 34. 38. 15.
      30. 24. 31. 18. 43. 38. 43. 20. 31. 22. 28. 15. 43. 40. 46. 22.
      31. 17. 21. 12. 36. 34. 39. 19. 25. 11. 15. 9. 28. 25. 30. 14. 17.
      0. 0. 0. 0. 0. 0. 0. 0. 0. 0. 0. 0. 0. 0. 0. 0. 12. 17. 11. 23.
      21. 23. 11. 17. 21. 29. 21. 38. 31. 36. 16. 27. 25. 36. 26. 46.
      37. 43. 19. 32. 24. 34. 26. 44. 35. 40. 17. 30. 18. 26. 20. 33.
      25. 30. 12. 22. 14. 20. 15. 34. 28. 32. 13. 19. 14. 19. 13. 37.
      34. 38. 16. 21. 16. 21. 14. 41. 38. 43. 19. 24. 14. 19. 12. 36.
      34. 38. 16. 21. 11. 15. 9. 29. 27. 30. 12. 16. 0. 0. 0. 0. 0. 0.
      0. 0. 0. 0. 0. 0. 0. 0. 0. 0. 15. 18. 12. 28. 25. 29. 14. 20. 21.
      27. 19. 40. 35. 41. 20. 27. 24. 31. 22. 46. 41. 47. 24. 32. 22.
      29. 20. 42. 37. 43. 21. 29. 16. 20. 14. 30. 26. 31. 15. 21. 11.
      16. 11. 29. 26. 29. 12. 16. 14. 19. 13. 36. 34. 37. 15. 20. 16.
      22. 15. 41. 38. 42. 17. 22. 14. 19. 13. 36. 34. 37. 15. 20. 11.
      15. 10. 29. 27. 29. 11. 15. 0. 0. 0. 0. 0. 0. 0. 0. 0. 0. 0. 0. 0.
      0. 0. 0. 15. 18. 14. 29. 27. 30. 14. 20. 21. 26. 19. 41. 37. 41.
      20. 26. 24. 30. 22. 47. 42. 48. 23. 31. 22. 27. 20. 43. 38. 43.
      21. 28. 15. 19. 14. 30. 27. 31. 15. 20. 11. 15. 12. 29. 25. 28.
      10. 14. 14. 19. 15. 37. 34. 36. 12. 18. 15. 22. 17. 42. 39. 41.
      14. 20. 14. 19. 15. 37. 34. 36. 12. 18. 10. 15. 11. 30. 27. 29. 9.
      14. 0. 0. 0. 0. 0. 0. 0. 0. 0. 0. 0. 1. 1. 1. 0. 0. 14. 17. 14.
      31. 29. 30. 11. 16. 19. 24. 19. 42. 37. 40. 16. 22. 22. 28. 23.
      48. 43. 46. 19. 26. 20. 25. 20. 42. 38. 41. 17. 23. 14. 18. 15.
      30. 26. 29. 12. 16. 11. 16. 13. 30. 26. 27. 8. 13. 14. 20. 18. 40.
      35. 36. 11. 17. 16. 23. 20. 45. 39. 41. 12. 19. 14. 20. 17. 39.
      34. 36. 11. 17. 11. 15. 12. 30. 27. 28. 8. 12. 0. 0. 0. 0. 0. 0.
      0. 0. 0. 0. 0. 3. 1. 1. 0. 0. 12. 15. 14. 34. 30. 33. 10. 14. 16.
      20. 18. 42. 38. 40. 13. 18. 18. 23. 20. 47. 42. 44. 15. 20. 16.
      20. 18. 41. 37. 38. 13. 18. 12. 17. 16. 31. 28. 29. 9. 14. 10. 17.
      16. 31. 25. 26. 6. 11. 15. 23. 21. 42. 35. 36. 9. 16. 16. 24. 23.
      46. 39. 39. 10. 17. 14. 21. 19. 39. 33. 34. 8. 15. 9. 14. 12. 27.
      23. 23. 5. 10. 0. 0. 0. 0. 0. 0. 0. 0. 0. 0. 0. 3. 1. 3. 0. 0. 11.
      14. 11. 33. 29. 33. 11. 14. 15. 19. 14. 39. 36. 40. 15. 19. 18.
      21. 16. 44. 40. 44. 17. 22. 17. 21. 15. 39. 36. 39. 15. 20. 17.
      24. 19. 37. 30. 32. 11. 19. 14. 24. 22. 35. 26. 25. 4. 15. 17. 29.
      28. 45. 34. 33. 6. 17. 17. 29. 28. 46. 35. 35. 6. 18. 13. 22. 21.
      36. 28. 28. 5. 14. 7. 11. 10. 21. 17. 17. 3. 8. 0. 0. 0. 0. 0. 0.
      0. 0. 0. 0. 0. 3. 1. 3. 0. 0. 10. 12. 8. 27. 24. 29. 12. 15. 18.
      20. 11. 34. 32. 38. 18. 23. 24. 27. 15. 40. 37. 44. 23. 31. 28.
      32. 18. 41. 36. 42. 22. 33. 30. 39. 26. 43. 35. 38. 18. 33. 25.
      37. 29. 40. 28. 28. 8. 25. 22. 35. 31. 44. 31. 30. 5. 21. 17. 29.
      27. 41. 29. 28. 4. 17. 11. 18. 18. 29. 21. 21. 3. 11. 4. 7. 7. 12.
      10. 10. 2. 4. 0. 0. 0. 0. 0. 0. 0. 0. 0. 0. 0. 1. 1. 1. 0. 0. 9.
      11. 5. 23. 22. 27. 13. 15. 18. 20. 8. 30. 29. 37. 22. 27. 29. 29.
      12. 37. 36. 46. 29. 37. 36. 38. 18. 41. 37. 46. 28. 43. 40. 49.
      30. 48. 38. 43. 23. 44. 33. 46. 34. 43. 28. 29. 9. 33. 25. 40. 34.
      43. 28. 27. 4. 24. 17. 29. 27. 36. 23. 22. 2. 16. 8. 16. 16. 22.
      15. 15. 1. 8. 1. 4. 4. 6. 5. 5. 0. 1. 0. 0. 0. 0. 0. 0. 0. 0. 0.
      0. 0. 0. 0. 0. 0. 0. 9. 9. 1. 16. 16. 22. 15. 15. 20. 20. 4. 25.
      25. 35. 25. 30. 35. 35. 11. 35. 33. 46. 33. 44. 46. 49. 20. 43.
      38. 47. 35. 54. 51. 62. 35. 54. 41. 47. 28. 57. 41. 55. 38. 46.
      30. 30. 12. 41. 28. 43. 35. 41. 25. 23. 4. 27. 15. 28. 25. 30. 17.
      17. 1. 15. 6. 11. 11. 15. 9. 9. 0. 6. 0. 0. 0. 1. 0. 0. 0. 0. 0.
      0. 0. 0. 0. 0. 0. 0.</_>
    <_>
      0. 0. 0. 0. 0. 0. 0. 0. 0. 0. 0. 0. 0. 0. 0. 0. 12. 17. 14. 19.
      14. 15. 6. 12. 33. 41. 27. 36. 28. 30. 15. 35. 59. 70. 46. 60. 49.
      52. 30. 62. 71. 84. 51. 73. 59. 65. 39. 78. 73. 84. 47. 71. 59.
      68. 44. 83. 55. 60. 28. 49. 41. 51. 36. 63. 33. 36. 14. 31. 28.
      36. 25. 39. 14. 14. 1. 11. 9. 17. 12. 19. 5. 5. 0. 3. 3. 7. 7. 9.
      0. 0. 0. 0. 0. 2. 0. 0. 0. 0. 0. 0. 0. 0. 0. 0. 1. 2. 2. 5. 4. 4.
      0. 1. 17. 23. 18. 25. 21. 23. 10. 20. 42. 51. 35. 48. 38. 42. 22.
      47. 66. 81. 54. 71. 57. 63. 36. 73. 77. 94. 60. 81. 66. 74. 44.
      86. 76. 89. 51. 76. 62. 71. 47. 87. 56. 64. 33. 56. 47. 56. 37.
      66. 35. 38. 17. 38. 34. 42. 28. 42. 17. 17. 4. 18. 18. 25. 16. 23.
      9. 9. 2. 12. 12. 16. 11. 13. 3. 3. 1. 5. 5. 7. 3. 3. 0. 0. 0. 0.
      0. 0. 0. 0. 3. 7. 7. 12. 9. 9. 0. 3. 20. 27. 22. 33. 26. 28. 12.
