<?xml version="1.0"?>
<opencv_storage>
<my_svm type_id="opencv-ml-svm">
  <svm_type>C_SVC</svm_type>
  <kernel><type>LINEAR</type></kernel>
  <C>1.0000000000000001e-01</C>
  <term_criteria><epsilon>1.1920928955078125e-07</epsilon>
    <iterations>2147483647</iterations></term_criteria>
  <var_all>1024</var_all>
  <var_count>1024</var_count>
  <class_count>4</class_count>
  <class_labels type_id="opencv-matrix">
    <rows>1</rows>
    <cols>4</cols>
    <dt>i</dt>
    <data>
      98 99 109 115</data></class_labels>
  <sv_total>57</sv_total>
  <support_vectors>
    <_>
      0. 0. 0. 0. 40. 70. 64. 45. 68. 153. 111. 80. 97. 199. 146. 115.
      117. 223. 172. 139. 125. 240. 183. 149. 119. 245. 180. 149. 104.
      237. 162. 144. 86. 218. 129. 149. 78. 187. 83. 173. 80. 132. 26.
      196. 105. 57. 26. 215. 122. 54. 51. 225. 142. 81. 84. 231. 157.
      111. 114. 234. 170. 130. 140. 231. 1. 1. 1. 1. 28. 67. 48. 35. 48.
      150. 92. 66. 75. 199. 129. 97. 95. 223. 154. 120. 107. 242. 167.
      136. 108. 249. 164. 144. 106. 243. 146. 155. 108. 224. 114. 176.
      115. 197. 74. 201. 122. 147. 25. 219. 138. 74. 30. 232. 147. 60.
      58. 242. 156. 85. 90. 247. 166. 113. 120. 248. 173. 133. 146. 245.
      2. 2. 2. 2. 19. 57. 39. 23. 33. 143. 73. 46. 51. 193. 109. 75. 70.
      222. 135. 100. 88. 242. 148. 122. 101. 250. 148. 145. 116. 246.
      138. 171. 134. 228. 113. 196. 147. 206. 81. 218. 156. 158. 44.
      235. 161. 89. 42. 247. 164. 59. 62. 253. 167. 80. 89. 255. 169.
      108. 120. 253. 171. 127. 145. 251. 3. 3. 3. 3. 12. 42. 24. 15. 20.
      128. 50. 38. 35. 185. 82. 66. 58. 218. 113. 99. 85. 238. 134. 134.
      113. 248. 142. 164. 141. 246. 139. 190. 159. 232. 127. 213. 174.
      210. 105. 229. 178. 169. 73. 245. 179. 105. 59. 253. 176. 57. 61.
      255. 170. 71. 79. 255. 165. 93. 109. 253. 161. 112. 133. 248. 8.
      4. 4. 10. 12. 27. 14. 21. 21. 105. 32. 57. 41. 170. 66. 92. 72.
      208. 98. 130. 109. 228. 127. 163. 140. 241. 144. 188. 165. 243.
      151. 211. 181. 232. 148. 224. 189. 213. 133. 239. 191. 180. 103.
      249. 187. 123. 76. 252. 178. 66. 58. 252. 167. 60. 65. 250. 154.
      70. 85. 244. 144. 85. 109. 236. 15. 4. 4. 35. 29. 14. 10. 65. 49.
      76. 15. 107. 77. 145. 45. 143. 111. 188. 87. 172. 142. 217. 124.
      195. 165. 230. 150. 212. 182. 237. 166. 222. 192. 230. 166. 231.
      197. 217. 152. 240. 195. 192. 125. 244. 186. 149. 91. 244. 173.
      92. 58. 240. 154. 61. 43. 232. 136. 44. 56. 223. 118. 53. 73. 216.
      49. 5. 14. 83. 75. 9. 18. 120. 102. 41. 22. 158. 128. 112. 48.
      186. 151. 161. 90. 207. 171. 201. 129. 219. 185. 219. 157. 226.
      193. 228. 172. 229. 198. 229. 174. 233. 196. 222. 162. 233. 188.
      209. 138. 229. 175. 178. 101. 225. 155. 131. 59. 218. 131. 79. 29.
      210. 104. 32. 28. 195. 79. 23. 39. 180. 100. 5. 47. 137. 123. 5.
      51. 168. 148. 19. 51. 194. 168. 70. 67. 214. 181. 128. 94. 225.
      191. 179. 125. 235. 196. 211. 152. 237. 199. 225. 169. 236. 193.
      235. 170. 227. 186. 233. 159. 220. 171. 222. 137. 212. 150. 204.
      99. 201. 124. 168. 55. 184. 96. 116. 16. 165. 67. 45. 8. 141. 43.
      11. 5. 115. 142. 6. 117. 174. 162. 6. 114. 198. 179. 10. 107. 216.
      191. 37. 101. 228. 201. 91. 106. 239. 205. 159. 119. 244. 203.
      202. 139. 241. 194. 223. 151. 231. 183. 239. 156. 219. 167. 243.
      147. 205. 143. 236. 125. 182. 114. 220. 93. 155. 83. 194. 54. 124.
      55. 152. 19. 94. 31. 82. 10. 61. 17. 25. 6. 30. 173. 31. 163. 199.
      188. 23. 157. 215. 200. 17. 146. 226. 207. 21. 132. 238. 209. 64.
      118. 243. 206. 140. 112. 242. 197. 191. 116. 236. 183. 221. 126.
      221. 163. 241. 132. 205. 136. 250. 123. 176. 103. 248. 111. 140.
      69. 235. 82. 98. 40. 214. 52. 64. 20. 182. 23. 38. 11. 124. 13.
      17. 9. 60. 6. 9. 189. 63. 192. 212. 203. 47. 184. 221. 209. 33.
      172. 230. 210. 22. 153. 237. 208. 43. 130. 238. 200. 118. 107.
      233. 184. 180. 93. 221. 161. 217. 96. 206. 132. 240. 102. 177. 96.
      252. 101. 136. 61. 254. 94. 87. 28. 246. 76. 41. 12. 227. 52. 18.
      8. 205. 30. 11. 7. 160. 16. 8. 7. 100. 7. 7. 198. 92. 208. 213.
      206. 76. 200. 220. 209. 55. 185. 226. 207. 36. 164. 227. 198. 34.
      135. 224. 184. 95. 98. 216. 160. 162. 68. 203. 130. 210. 65. 175.
      94. 234. 75. 138. 62. 251. 82. 90. 38. 255. 88. 47. 27. 251. 80.
      24. 22. 239. 69. 18. 20. 217. 48. 16. 17. 185. 35. 14. 13. 135.
      16. 12. 197. 116. 212. 211. 203. 97. 204. 215. 202. 73. 187. 216.
      193. 46. 163. 215. 181. 31. 131. 208. 159. 68. 87. 190. 126. 137.
      50. 166. 87. 194. 44. 128. 53. 224. 65. 86. 37. 246. 78. 50. 36.
      254. 90. 36. 40. 254. 91. 33. 43. 245. 84. 36. 42. 226. 71. 34.
      37. 202. 52. 28. 27. 158. 32. 20. 189. 129. 207. 200. 190. 110.
      195. 204. 187. 81. 178. 202. 177. 54. 153. 192. 156. 30. 117. 177.
      126. 40. 72. 152. 84. 102. 39. 115. 44. 175. 34. 71. 29. 214. 59.
      41. 34. 238. 79. 33. 50. 251. 98. 42. 67. 254. 108. 52. 74. 249.
      106. 63. 71. 230. 96. 60. 63. 211. 77. 47. 46. 174. 55. 38. 177.
      131. 190. 182. 176. 112. 179. 181. 168. 84. 160. 175. 150. 56.
      134. 160. 122. 29. 97. 137. 89. 21. 53. 104. 45. 68. 26. 62. 18.
      154. 25. 24. 26. 204. 56. 22. 46. 227. 83. 39. 74. 247. 110. 62.
      93. 252. 121. 77. 102. 249. 127. 86. 99. 234. 119. 81. 86. 213.
      103. 72. 69. 183. 78. 56. 157. 121. 169. 158. 151. 103. 155. 153.
      141. 77. 135. 143. 118. 49. 104. 121. 88. 27. 69. 95. 54. 13. 32.
      63. 19. 37. 13. 24. 9. 133. 15. 11. 31. 189. 53. 25. 64. 220. 89.
      49. 95. 241. 119. 78. 117. 250. 139. 99. 126. 247. 145. 110. 121.
      234. 141. 106. 110. 214. 123. 91. 88. 186. 100. 72.</_>
    <_>
      21. 13. 22. 25. 29. 30. 41. 38. 44. 51. 60. 55. 57. 71. 84. 67.
      63. 91. 100. 71. 63. 99. 104. 66. 57. 93. 94. 54. 43. 72. 71. 47.
      32. 52. 49. 58. 26. 31. 26. 81. 39. 21. 14. 121. 62. 29. 19. 147.
      94. 47. 30. 165. 122. 66. 50. 175. 142. 85. 69. 179. 157. 102. 93.
      179. 25. 19. 30. 34. 42. 48. 58. 52. 65. 75. 92. 71. 89. 109. 122.
      90. 105. 133. 141. 96. 111. 142. 146. 89. 106. 137. 137. 75. 93.
      115. 112. 76. 74. 82. 78. 105. 65. 53. 45. 141. 73. 31. 22. 176.
      99. 41. 24. 202. 129. 60. 38. 219. 155. 86. 61. 225. 174. 111. 91.
      226. 187. 129. 117. 224. 29. 25. 40. 40. 53. 62. 76. 61. 85. 101.
      117. 87. 119. 139. 150. 107. 142. 162. 170. 115. 155. 173. 176.
      111. 156. 171. 169. 104. 146. 152. 149. 119. 133. 122. 118. 153.
      118. 79. 74. 189. 120. 51. 43. 224. 135. 56. 41. 234. 159. 72. 52.
      240. 179. 103. 74. 243. 199. 128. 106. 242. 213. 148. 134. 240.
      31. 33. 48. 43. 58. 75. 91. 68. 103. 121. 134. 99. 142. 159. 167.
      124. 172. 182. 189. 136. 188. 197. 198. 140. 195. 195. 193. 145.
      191. 181. 176. 164. 178. 157. 152. 196. 166. 124. 117. 228. 160.
      88. 80. 241. 164. 79. 69. 249. 177. 90. 68. 252. 195. 114. 87.
      253. 212. 137. 113. 251. 223. 154. 138. 249. 27. 37. 51. 44. 61.
      83. 96. 72. 116. 127. 139. 108. 160. 167. 173. 139. 193. 192. 196.
      156. 218. 208. 209. 169. 227. 211. 208. 179. 226. 203. 197. 201.
      218. 184. 176. 228. 203. 162. 154. 240. 190. 138. 127. 250. 183.
      123. 108. 254. 188. 116. 92. 255. 198. 124. 97. 255. 210. 136.
      110. 254. 219. 148. 128. 251. 29. 37. 47. 56. 70. 77. 88. 90. 128.
      121. 129. 132. 173. 161. 167. 164. 212. 187. 191. 185. 232. 207.
      208. 205. 236. 216. 213. 220. 237. 216. 209. 230. 233. 208. 199.
      238. 227. 194. 183. 247. 212. 178. 168. 254. 196. 165. 151. 255.
      188. 147. 127. 255. 186. 136. 113. 254. 192. 131. 106. 252. 195.
      132. 110. 246. 54. 39. 36. 106. 97. 69. 70. 140. 144. 103. 107.
      173. 185. 141. 149. 203. 223. 170. 174. 224. 234. 190. 193. 233.
      242. 206. 205. 236. 243. 217. 210. 239. 239. 221. 211. 244. 232.
      220. 206. 247. 222. 212. 196. 250. 200. 198. 181. 252. 182. 175.
      158. 250. 170. 152. 134. 247. 166. 129. 108. 241. 160. 110. 90.
      234. 100. 48. 55. 167. 135. 63. 68. 190. 168. 84. 86. 218. 201.
      113. 124. 232. 228. 140. 149. 240. 235. 163. 172. 245. 241. 184.
      190. 246. 241. 207. 204. 245. 237. 223. 213. 244. 232. 229. 217.
      242. 219. 230. 214. 242. 193. 221. 202. 239. 171. 199. 177. 236.
      147. 168. 153. 231. 133. 134. 119. 220. 114. 97. 83. 201. 147. 73.
      102. 214. 169. 76. 94. 230. 191. 78. 86. 238. 213. 88. 101. 245.
      230. 102. 121. 249. 233. 126. 144. 251. 235. 157. 168. 249. 234.
      187. 186. 245. 231. 215. 204. 237. 222. 229. 215. 231. 204. 231.
      218. 225. 181. 227. 209. 215. 156. 207. 189. 202. 125. 174. 163.
      185. 96. 135. 126. 166. 59. 82. 81. 143. 182. 112. 152. 235. 197.
      105. 132. 243. 211. 95. 109. 248. 222. 80. 98. 252. 229. 73. 99.
      253. 229. 85. 114. 253. 225. 120. 140. 248. 219. 161. 163. 238.
      205. 192. 183. 226. 194. 216. 200. 200. 180. 225. 206. 177. 166.
      221. 202. 161. 144. 201. 185. 149. 112. 171. 163. 132. 79. 131.
      130. 108. 46. 77. 88. 79. 205. 144. 186. 244. 214. 131. 165. 248.
      220. 112. 136. 250. 222. 89. 107. 253. 221. 65. 87. 251. 210. 56.
      84. 248. 194. 77. 104. 239. 178. 123. 128. 227. 165. 161. 153.
      191. 159. 184. 171. 155. 153. 198. 180. 125. 145. 194. 180. 105.
      130. 177. 170. 94. 104. 151. 150. 78. 73. 111. 120. 61. 46. 67.
      81. 46. 214. 162. 209. 244. 217. 146. 183. 246. 216. 125. 154.
      247. 210. 97. 117. 246. 199. 64. 83. 243. 180. 41. 59. 235. 158.
      49. 67. 223. 135. 75. 84. 187. 116. 115. 109. 148. 114. 143. 130.
      102. 118. 157. 143. 70. 120. 156. 145. 58. 109. 141. 139. 57. 89.
      116. 122. 55. 64. 80. 96. 45. 42. 49. 64. 35. 211. 169. 215. 237.
      206. 151. 189. 238. 200. 125. 158. 236. 188. 95. 118. 233. 172.
      60. 74. 228. 146. 31. 42. 207. 113. 27. 36. 174. 83. 40. 45. 138.
      64. 62. 60. 92. 69. 86. 76. 55. 77. 100. 92. 38. 85. 101. 98. 35.
      78. 91. 95. 39. 66. 70. 80. 37. 50. 51. 62. 32. 34. 30. 44. 25.
      197. 164. 204. 226. 186. 143. 178. 224. 175. 115. 148. 217. 160.
      81. 107. 203. 137. 53. 65. 182. 103. 23. 28. 158. 68. 18. 17. 123.
      44. 19. 20. 82. 33. 27. 26. 50. 39. 37. 35. 28. 49. 45. 46. 22.
      56. 48. 53. 23. 54. 42. 54. 24. 43. 34. 47. 24. 33. 24. 36. 21.
      23. 17. 27. 18. 175. 150. 181. 192. 162. 126. 159. 184. 145. 98.
      127. 172. 123. 66. 87. 155. 95. 40. 52. 130. 59. 17. 20. 98. 35.
      13. 0. 59. 22. 9. 0. 34. 19. 10. 9. 20. 23. 11. 11. 12. 28. 13.
      15. 11. 33. 15. 16. 14. 32. 14. 18. 15. 26. 11. 17. 14. 21. 10.
      16. 12. 16. 9. 15. 10. 150. 126. 154. 151. 133. 101. 131. 138.
      110. 72. 100. 119. 82. 50. 67. 93. 57. 28. 38. 63. 32. 13. 16. 36.
      18. 10. 0. 20. 12. 0. 1. 12. 1. 1. 1. 2. 2. 2. 2. 3. 3. 3. 3. 4.
      4. 4. 4. 5. 5. 5. 5. 6. 6. 6. 6. 7. 7. 7. 7. 8. 8. 8. 8. 9.</_>
    <_>
      109. 147. 138. 110. 142. 175. 162. 117. 176. 196. 182. 115. 199.
      204. 187. 106. 206. 200. 181. 90. 199. 185. 158. 92. 183. 158.
      133. 117. 178. 128. 101. 164. 190. 98. 71. 227. 217. 79. 50. 245.
      239. 78. 49. 250. 243. 95. 61. 252. 243. 116. 82. 252. 241. 132.
      108. 248. 232. 140. 124. 242. 205. 139. 135. 215. 106. 150. 134.
      91. 139. 180. 156. 100. 175. 201. 179. 103. 203. 212. 188. 98.
      215. 212. 186. 97. 213. 205. 172. 110. 204. 187. 148. 142. 200.
      154. 119. 191. 206. 126. 93. 237. 224. 102. 68. 247. 236. 86. 59.
      251. 239. 85. 61. 252. 237. 99. 74. 249. 227. 109. 91. 245. 203.
      114. 107. 234. 171. 112. 113. 195. 102. 145. 121. 73. 137. 171.
      144. 84. 174. 196. 167. 95. 205. 209. 181. 104. 223. 217. 185.
      112. 226. 216. 181. 133. 221. 207. 165. 166. 217. 184. 141. 208.
      218. 154. 118. 240. 223. 129. 97. 247. 227. 107. 79. 249. 224. 91.
      70. 249. 210. 86. 71. 245. 189. 87. 76. 237. 163. 87. 82. 205.
      137. 83. 88. 163. 100. 128. 108. 66. 136. 149. 128. 83. 175. 177.
      148. 107. 208. 194. 164. 123. 229. 207. 177. 143. 233. 216. 181.
      166. 231. 217. 176. 192. 228. 206. 159. 220. 225. 187. 145. 239.
      218. 163. 131. 244. 209. 136. 115. 244. 197. 112. 98. 242. 175.
      95. 84. 235. 147. 79. 75. 203. 125. 70. 70. 160. 105. 64. 68. 127.
      103. 104. 93. 72. 140. 121. 111. 102. 178. 143. 131. 130. 211.
      162. 146. 156. 231. 183. 161. 184. 236. 201. 172. 202. 234. 212.
      179. 211. 230. 214. 176. 219. 221. 210. 173. 228. 207. 198. 167.
      232. 191. 176. 152. 228. 167. 146. 134. 211. 141. 119. 114. 184.
      115. 96. 92. 148. 94. 75. 72. 116. 72. 59. 59. 89. 112. 72. 96.
      94. 147. 88. 111. 127. 185. 108. 128. 161. 216. 125. 139. 197.
      233. 145. 148. 218. 236. 169. 158. 229. 232. 194. 171. 224. 225.
      209. 182. 209. 210. 223. 193. 197. 193. 225. 200. 184. 170. 214.
      197. 168. 144. 192. 178. 146. 116. 160. 149. 124. 87. 131. 121.
      99. 66. 106. 97. 74. 50. 77. 70. 56. 126. 47. 126. 117. 160. 57.
      135. 151. 195. 69. 143. 191. 222. 83. 145. 220. 232. 107. 144.
      235. 233. 129. 146. 235. 223. 159. 156. 220. 207. 192. 173. 190.
      190. 218. 198. 154. 170. 234. 216. 130. 149. 236. 224. 109. 130.
      230. 213. 90. 108. 208. 193. 73. 79. 183. 161. 56. 58. 151. 130.
      42. 45. 124. 102. 26. 141. 20. 187. 138. 174. 29. 189. 171. 202.
      39. 186. 204. 221. 51. 172. 226. 227. 67. 151. 233. 219. 90. 140.
      228. 199. 122. 141. 201. 178. 158. 151. 157. 155. 200. 186. 117.
      143. 231. 214. 83. 131. 240. 231. 61. 118. 241. 230. 48. 101. 240.
      219. 38. 77. 234. 196. 27. 58. 215. 164. 17. 45. 188. 132. 10.
      155. 33. 238. 153. 182. 29. 235. 183. 198. 27. 226. 203. 206. 31.
      201. 215. 204. 41. 166. 214. 189. 58. 134. 199. 159. 88. 119. 164.
      138. 123. 127. 122. 120. 166. 156. 81. 114. 211. 195. 51. 110.
      237. 221. 25. 106. 243. 230. 11. 94. 246. 229. 9. 73. 246. 213. 0.
      57. 244. 188. 0. 44. 240. 155. 0. 167. 49. 247. 162. 180. 43. 245.
      180. 186. 33. 241. 189. 185. 25. 219. 190. 172. 23. 173. 180. 149.
      35. 127. 154. 123. 60. 101. 125. 105. 89. 96. 93. 88. 129. 122.
      61. 84. 177. 157. 38. 86. 225. 193. 16. 85. 242. 212. 11. 78. 247.
      220. 15. 65. 250. 213. 18. 51. 251. 196. 23. 39. 250. 170. 28.
      169. 67. 251. 160. 169. 54. 248. 168. 163. 44. 242. 165. 150. 32.
      222. 152. 134. 21. 168. 136. 111. 19. 115. 113. 82. 40. 80. 82.
      67. 60. 67. 60. 56. 92. 87. 40. 58. 135. 118. 23. 64. 194. 150.
      11. 65. 239. 179. 16. 62. 248. 194. 25. 52. 252. 198. 34. 43. 253.
      188. 45. 32. 254. 173. 52. 165. 80. 249. 152. 152. 66. 246. 150.
      140. 51. 238. 142. 120. 37. 202. 126. 100. 24. 147. 105. 75. 13.
      97. 78. 53. 23. 62. 54. 43. 38. 44. 38. 36. 60. 57. 22. 40. 100.
      81. 14. 46. 153. 111. 0. 48. 222. 137. 24. 46. 246. 155. 36. 42.
      253. 169. 50. 34. 254. 174. 64. 29. 255. 174. 78. 153. 89. 244.
      142. 139. 71. 238. 136. 118. 54. 210. 121. 96. 41. 165. 103. 71.
      26. 120. 76. 50. 1. 74. 55. 32. 13. 47. 32. 20. 19. 24. 18. 17.
      37. 35. 10. 21. 68. 52. 1. 27. 120. 73. 1. 30. 191. 101. 31. 30.
      241. 123. 47. 28. 251. 144. 66. 28. 254. 162. 86. 29. 255. 179.
      110. 138. 84. 222. 124. 119. 69. 195. 116. 99. 53. 159. 105. 76.
      40. 125. 81. 55. 26. 89. 62. 36. 1. 55. 43. 17. 2. 34. 17. 14. 11.
      14. 12. 13. 20. 20. 2. 15. 47. 34. 2. 18. 94. 49. 2. 21. 157. 75.
      37. 25. 229. 104. 56. 28. 248. 132. 80. 33. 253. 161. 109. 37.
      255. 192. 135. 114. 76. 157. 103. 98. 63. 137. 95. 77. 48. 113.
      81. 59. 35. 85. 65. 44. 22. 63. 48. 24. 3. 39. 33. 12. 3. 22. 12.
      3. 3. 4. 4. 4. 12. 13. 4. 5. 31. 16. 5. 5. 69. 30. 5. 15. 132. 62.
      42. 21. 202. 92. 63. 31. 243. 129. 93. 39. 253. 170. 122. 46. 255.
      208. 153. 91. 63. 104. 80. 77. 52. 85. 74. 64. 42. 69. 65. 49. 30.
      54. 53. 35. 18. 41. 41. 19. 6. 22. 27. 10. 6. 14. 10. 6. 6. 7. 7.
      7. 7. 8. 8. 8. 19. 8. 9. 9. 53. 15. 9. 16. 113. 57. 45. 26. 177.
      90. 68. 36. 238. 133. 99. 46. 250. 182. 133. 55. 254. 226. 168.</_>
    <_>
      0. 0. 0. 0. 1. 1. 1. 1. 2. 2. 2. 2. 3. 3. 3. 3. 4. 4. 4. 4. 10. 5.
      5. 11. 15. 5. 5. 17. 26. 6. 13. 33. 45. 6. 28. 60. 69. 6. 81. 86.
      98. 29. 155. 128. 122. 47. 220. 158. 142. 69. 248. 180. 150. 88.
      254. 192. 149. 108. 255. 196. 144. 117. 255. 190. 29. 18. 29. 21.
      33. 22. 32. 22. 37. 25. 34. 22. 37. 26. 32. 20. 32. 22. 29. 17.
      30. 18. 24. 21. 32. 16. 20. 36. 48. 11. 24. 59. 71. 10. 40. 94.
      100. 6. 93. 133. 129. 23. 161. 168. 148. 37. 222. 185. 157. 53.
      247. 197. 155. 72. 253. 197. 146. 81. 255. 187. 133. 89. 254. 173.
      46. 45. 50. 31. 54. 51. 56. 33. 61. 56. 61. 33. 63. 56. 58. 30.
      57. 51. 52. 28. 53. 42. 43. 35. 55. 31. 37. 58. 74. 19. 38. 91.
      105. 13. 53. 141. 137. 7. 102. 177. 162. 17. 162. 206. 172. 28.
      216. 221. 172. 40. 244. 220. 161. 51. 251. 203. 143. 62. 252. 182.
      119. 66. 251. 158. 67. 73. 74. 43. 80. 83. 83. 46. 91. 97. 92. 46.
      95. 101. 93. 44. 88. 96. 84. 45. 84. 80. 75. 62. 89. 64. 65. 93.
      113. 42. 63. 140. 147. 26. 72. 185. 173. 13. 111. 223. 192. 14.
      157. 238. 196. 19. 199. 239. 185. 27. 233. 232. 166. 35. 243. 209.
      137. 40. 245. 175. 107. 44. 239. 141. 86. 105. 100. 52. 109. 127.
      118. 56. 123. 145. 133. 57. 132. 153. 136. 59. 128. 151. 128. 68.
      125. 134. 113. 94. 134. 103. 99. 142. 156. 69. 86. 184. 180. 42.
      90. 228. 203. 17. 115. 244. 217. 12. 147. 247. 210. 14. 175. 246.
      191. 16. 199. 236. 163. 21. 214. 205. 126. 26. 214. 166. 89. 27.
      201. 120. 105. 133. 119. 58. 130. 161. 145. 65. 150. 183. 160. 68.
      159. 197. 169. 76. 162. 196. 168. 97. 163. 181. 155. 136. 170.
      152. 139. 180. 187. 107. 121. 225. 207. 70. 115. 245. 224. 36.
      122. 250. 225. 18. 134. 250. 210. 12. 146. 246. 183. 7. 156. 229.
      150. 7. 160. 187. 109. 7. 158. 143. 74. 8. 146. 93. 110. 145. 124.
      62. 140. 178. 154. 73. 164. 207. 174. 82. 179. 226. 188. 107. 185.
      230. 191. 139. 192. 221. 183. 176. 200. 188. 170. 220. 215. 149.
      153. 241. 224. 106. 141. 249. 226. 65. 129. 250. 219. 39. 119.
      248. 194. 25. 112. 237. 165. 13. 108. 202. 124. 10. 102. 158. 82.
      8. 92. 112. 55. 8. 80. 71. 109. 142. 114. 72. 143. 175. 149. 90.
      170. 208. 172. 114. 191. 232. 194. 146. 205. 238. 204. 176. 216.
      236. 204. 211. 222. 222. 193. 237. 226. 184. 178. 246. 224. 149.
      160. 248. 216. 103. 139. 247. 195. 70. 113. 237. 167. 44. 88. 206.
      131. 23. 71. 164. 90. 14. 58. 115. 62. 8. 49. 76. 38. 9. 41. 48.
      116. 118. 106. 99. 151. 157. 138. 131. 179. 189. 166. 159. 204.
      223. 188. 186. 222. 235. 205. 216. 228. 238. 212. 233. 228. 233.
      208. 240. 225. 219. 198. 245. 211. 190. 180. 241. 189. 154. 156.
      231. 165. 116. 121. 201. 129. 78. 85. 163. 90. 48. 54. 114. 63.
      27. 35. 75. 39. 15. 20. 49. 24. 9. 16. 30. 138. 99. 104. 143. 168.
      131. 130. 173. 195. 160. 153. 200. 220. 191. 177. 226. 229. 218.
      195. 237. 232. 231. 207. 240. 227. 236. 215. 239. 215. 235. 212.
      234. 189. 228. 199. 219. 161. 202. 173. 186. 127. 169. 141. 151.
      86. 124. 99. 108. 59. 77. 60. 67. 36. 47. 34. 38. 20. 23. 14. 21.
      12. 9. 9. 12. 164. 87. 111. 179. 186. 106. 127. 210. 213. 125.
      144. 233. 227. 155. 163. 241. 232. 181. 178. 244. 229. 211. 196.
      240. 218. 234. 208. 230. 193. 242. 218. 202. 166. 244. 213. 171.
      132. 238. 193. 137. 96. 219. 164. 96. 64. 174. 121. 66. 41. 123.
      77. 39. 23. 77. 49. 19. 15. 43. 25. 11. 11. 16. 15. 10. 184. 94.
      125. 206. 205. 97. 135. 231. 224. 101. 140. 241. 229. 117. 148.
      246. 227. 145. 159. 243. 217. 181. 175. 234. 192. 223. 194. 203.
      168. 243. 212. 165. 139. 249. 218. 122. 109. 249. 206. 83. 81.
      243. 181. 61. 64. 221. 147. 46. 50. 170. 102. 35. 34. 116. 67. 28.
      27. 71. 39. 24. 18. 34. 25. 19. 198. 113. 138. 221. 215. 108. 140.
      236. 225. 97. 136. 242. 223. 95. 135. 242. 209. 111. 137. 235.
      187. 151. 152. 210. 159. 200. 171. 169. 134. 239. 197. 119. 110.
      251. 212. 78. 92. 252. 211. 54. 82. 251. 194. 45. 76. 242. 167.
      47. 67. 207. 127. 48. 53. 154. 85. 44. 41. 100. 55. 38. 30. 52.
      36. 31. 198. 130. 138. 217. 209. 118. 136. 230. 214. 101. 125.
      235. 202. 83. 115. 231. 182. 85. 112. 214. 157. 120. 123. 177.
      123. 176. 147. 132. 100. 230. 176. 79. 88. 249. 199. 51. 94. 253.
      208. 41. 103. 253. 201. 50. 104. 250. 179. 63. 95. 234. 148. 68.
      77. 184. 110. 66. 60. 131. 74. 57. 42. 73. 49. 47. 186. 135. 124.
      198. 193. 122. 120. 213. 190. 104. 110. 217. 177. 79. 96. 204.
      153. 73. 84. 178. 120. 92. 91. 144. 85. 152. 114. 98. 76. 213.
      152. 54. 81. 247. 182. 43. 106. 253. 200. 50. 126. 254. 203. 68.
      135. 252. 188. 82. 126. 245. 165. 95. 105. 209. 129. 89. 78. 156.
      87. 78. 55. 91. 60. 64. 171. 128. 107. 172. 171. 116. 101. 183.
      167. 98. 87. 182. 148. 75. 75. 169. 117. 61. 66. 142. 80. 72. 70.
      103. 52. 126. 87. 65. 57. 189. 130. 31. 79. 240. 167. 40. 118.
      252. 190. 59. 150. 255. 201. 84. 162. 254. 195. 111. 154. 248.
      174. 121. 132. 227. 144. 117. 98. 174. 104. 102. 69. 112. 70. 79.</_>
    <_>
      190. 129. 189. 254. 226. 152. 194. 253. 240. 182. 198. 248. 246.
      215. 198. 222. 246. 229. 190. 156. 237. 231. 176. 92. 220. 216.
      151. 48. 192. 172. 118. 90. 178. 111. 76. 154. 181. 72. 44. 216.
      188. 75. 37. 237. 188. 113. 50. 241. 166. 159. 76. 230. 136. 184.
      96. 190. 85. 185. 95. 138. 28. 165. 78. 74. 154. 156. 192. 238.
      195. 169. 197. 236. 217. 192. 193. 222. 231. 210. 186. 175. 233.
      221. 175. 120. 229. 223. 166. 67. 217. 210. 146. 51. 206. 169.
      118. 108. 204. 114. 83. 173. 207. 76. 61. 227. 205. 75. 61. 243.
      197. 108. 85. 244. 167. 154. 113. 233. 133. 178. 135. 202. 81.
      179. 133. 147. 26. 161. 115. 90. 126. 181. 181. 202. 160. 193.
      189. 191. 184. 205. 185. 164. 208. 209. 177. 128. 214. 213. 167.
      74. 213. 215. 157. 42. 210. 199. 139. 55. 208. 159. 113. 120. 210.
      106. 85. 179. 212. 70. 77. 228. 206. 61. 92. 241. 185. 92. 124.
      240. 155. 136. 153. 230. 117. 157. 171. 195. 69. 158. 167. 148.
      21. 144. 151. 97. 101. 199. 162. 135. 142. 206. 173. 128. 165.
      209. 177. 103. 186. 207. 175. 68. 195. 203. 168. 32. 195. 196.
      158. 27. 194. 172. 137. 51. 196. 141. 107. 114. 201. 92. 82. 167.
      201. 52. 89. 213. 187. 44. 111. 228. 169. 71. 153. 226. 143. 105.
      189. 211. 104. 131. 209. 174. 59. 131. 204. 139. 20. 109. 175. 94.
      89. 179. 135. 58. 132. 191. 155. 52. 157. 198. 168. 39. 174. 193.
      177. 22. 176. 182. 178. 17. 172. 172. 171. 20. 164. 149. 147. 41.
      161. 110. 109. 93. 162. 63. 80. 139. 162. 34. 95. 170. 157. 30.
      130. 186. 149. 54. 174. 186. 130. 88. 216. 173. 100. 102. 227.
      151. 63. 99. 220. 117. 25. 81. 194. 79. 65. 141. 95. 9. 105. 153.
      134. 10. 140. 160. 160. 10. 156. 162. 187. 11. 156. 158. 204. 14.
      146. 148. 200. 19. 133. 118. 163. 31. 117. 79. 121. 60. 116. 38.
      83. 96. 122. 24. 97. 122. 129. 36. 137. 138. 132. 69. 190. 143.
      123. 99. 225. 139. 104. 112. 234. 121. 74. 108. 225. 94. 38. 96.
      202. 57. 37. 76. 50. 1. 79. 98. 115. 4. 110. 111. 160. 8. 132.
      122. 206. 13. 128. 124. 225. 18. 106. 112. 224. 25. 86. 88. 199.
      28. 68. 51. 147. 32. 71. 29. 103. 46. 87. 35. 105. 63. 104. 62.
      144. 78. 118. 101. 194. 91. 121. 134. 224. 95. 107. 146. 231. 84.
      82. 143. 221. 65. 45. 129. 197. 42. 16. 17. 40. 0. 37. 29. 121. 3.
      70. 45. 174. 8. 90. 60. 223. 17. 90. 70. 239. 28. 74. 66. 239. 38.
      55. 47. 219. 36. 47. 33. 165. 30. 62. 34. 127. 30. 86. 62. 117.
      32. 108. 103. 144. 42. 125. 145. 183. 54. 127. 170. 217. 64. 111.
      183. 224. 67. 84. 181. 218. 60. 46. 168. 201. 52. 7. 1. 66. 1. 14.
      5. 146. 6. 27. 10. 205. 14. 44. 16. 237. 26. 48. 20. 249. 42. 43.
      23. 248. 49. 41. 22. 233. 43. 50. 31. 196. 37. 81. 56. 153. 33.
      107. 102. 140. 29. 132. 148. 150. 34. 135. 177. 176. 41. 127. 207.
      207. 56. 103. 217. 218. 73. 71. 215. 220. 85. 34. 203. 213. 93. 2.
      0. 98. 4. 6. 4. 168. 9. 12. 8. 222. 18. 19. 12. 246. 35. 25. 13.
      251. 50. 35. 15. 250. 58. 53. 18. 239. 57. 84. 40. 219. 59. 120.
      88. 184. 56. 145. 140. 164. 47. 152. 180. 163. 49. 145. 212. 176.
      55. 125. 224. 203. 79. 91. 227. 219. 106. 49. 219. 228. 134. 18.
      208. 229. 148. 0. 5. 124. 5. 4. 12. 185. 13. 8. 20. 232. 24. 16.
      28. 249. 45. 25. 27. 252. 62. 45. 23. 251. 73. 77. 22. 244. 80.
      109. 54. 234. 86. 142. 105. 216. 82. 158. 161. 191. 64. 159. 212.
      180. 61. 144. 231. 182. 69. 109. 235. 204. 100. 67. 232. 225. 142.
      26. 218. 236. 173. 10. 200. 240. 196. 1. 15. 128. 7. 5. 36. 183.
      15. 12. 68. 229. 31. 21. 86. 247. 52. 43. 82. 251. 72. 70. 64.
      250. 89. 98. 41. 247. 97. 123. 64. 241. 99. 143. 110. 226. 91.
      152. 171. 205. 67. 150. 223. 188. 66. 131. 240. 187. 77. 97. 244.
      208. 122. 53. 237. 232. 166. 21. 221. 244. 209. 9. 191. 249. 228.
      2. 30. 112. 7. 7. 77. 165. 14. 17. 116. 215. 33. 39. 140. 238. 58.
      73. 138. 245. 84. 98. 114. 248. 102. 114. 75. 248. 112. 126. 71.
      242. 110. 131. 101. 230. 94. 130. 163. 203. 59. 119. 222. 183. 59.
      99. 243. 187. 78. 75. 249. 211. 134. 43. 245. 236. 184. 21. 230.
      250. 226. 13. 200. 252. 239. 3. 46. 88. 6. 9. 102. 141. 11. 24.
      147. 180. 27. 63. 170. 223. 57. 100. 171. 236. 93. 126. 149. 242.
      115. 133. 101. 242. 129. 125. 73. 238. 120. 106. 83. 221. 91. 96.
      149. 180. 46. 80. 214. 170. 47. 68. 243. 178. 72. 58. 252. 214.
      137. 44. 251. 241. 197. 32. 242. 252. 233. 22. 218. 254. 245. 2.
      48. 53. 3. 11. 107. 104. 6. 33. 154. 151. 19. 80. 182. 199. 49.
      119. 189. 220. 94. 142. 163. 232. 126. 141. 116. 235. 136. 119.
      72. 227. 123. 87. 56. 202. 83. 54. 124. 155. 31. 39. 193. 152. 35.
      38. 238. 169. 65. 48. 253. 214. 137. 53. 254. 243. 201. 55. 250.
      253. 235. 51. 234. 255. 247. 2. 39. 23. 0. 11. 100. 69. 3. 36.
      150. 115. 15. 87. 179. 161. 40. 130. 188. 192. 89. 150. 164. 211.
      127. 145. 119. 212. 138. 113. 60. 198. 123. 66. 29. 159. 78. 24.
      93. 116. 23. 16. 166. 125. 26. 19. 234. 155. 57. 40. 253. 211.
      136. 65. 255. 246. 200. 81. 254. 255. 235. 87. 245. 255. 247.</_>
    <_>
      0. 0. 0. 0. 1. 1. 1. 1. 2. 2. 2. 2. 3. 3. 3. 3. 4. 4. 4. 4. 10. 5.
      5. 11. 13. 5. 5. 20. 26. 9. 6. 39. 41. 12. 6. 74. 58. 16. 6. 115.
      82. 22. 6. 151. 107. 36. 21. 192. 124. 49. 37. 221. 139. 67. 63.
      231. 155. 85. 93. 237. 169. 103. 114. 239. 37. 25. 47. 39. 30. 22.
      40. 29. 23. 20. 29. 21. 17. 15. 21. 15. 14. 12. 14. 14. 19. 11.
      10. 22. 31. 11. 7. 48. 54. 13. 7. 89. 81. 18. 7. 126. 105. 26. 7.
      161. 119. 33. 8. 202. 134. 49. 23. 227. 147. 63. 43. 237. 160. 80.
      73. 243. 174. 96. 105. 247. 191. 111. 125. 250. 99. 86. 104. 69.
      96. 74. 88. 50. 89. 56. 69. 35. 76. 42. 47. 28. 66. 28. 29. 38.
      65. 19. 16. 66. 78. 15. 11. 110. 103. 17. 10. 141. 121. 26. 8.
      177. 137. 34. 8. 216. 149. 46. 8. 231. 159. 61. 24. 240. 166. 76.
      45. 248. 175. 87. 76. 252. 189. 100. 108. 254. 200. 112. 128. 255.
      156. 132. 142. 98. 154. 121. 128. 79. 150. 109. 111. 61. 140. 90.
      87. 64. 131. 70. 58. 91. 126. 48. 33. 124. 128. 35. 18. 161. 140.
      32. 13. 201. 155. 36. 9. 226. 166. 45. 9. 238. 175. 55. 9. 245.
      179. 71. 22. 251. 183. 80. 42. 253. 184. 88. 72. 255. 189. 97.
      101. 255. 196. 106. 123. 255. 209. 171. 179. 117. 211. 158. 162.
      102. 207. 143. 141. 90. 198. 128. 122. 102. 184. 112. 99. 129.
      171. 93. 70. 165. 170. 72. 44. 211. 178. 58. 30. 231. 192. 52. 17.
      240. 198. 53. 12. 248. 197. 60. 10. 252. 192. 72. 19. 254. 184.
      78. 33. 254. 176. 80. 56. 253. 173. 82. 84. 253. 173. 87. 108.
      251. 233. 206. 207. 135. 235. 193. 191. 125. 235. 174. 167. 125.
      232. 159. 148. 140. 228. 145. 130. 170. 224. 129. 109. 214. 221.
      113. 83. 233. 219. 100. 64. 243. 219. 84. 44. 251. 215. 73. 29.
      253. 204. 69. 20. 254. 188. 67. 19. 252. 171. 66. 27. 249. 157.
      62. 40. 245. 150. 60. 57. 241. 145. 59. 78. 238. 241. 218. 218.
      144. 245. 206. 204. 143. 246. 196. 189. 152. 244. 183. 167. 175.
      241. 170. 152. 209. 239. 158. 136. 230. 236. 145. 121. 240. 232.
      134. 111. 248. 229. 117. 93. 251. 221. 104. 72. 252. 201. 85. 50.
      250. 169. 68. 31. 244. 148. 53. 25. 237. 131. 43. 27. 230. 118.
      39. 32. 223. 111. 36. 44. 210. 242. 210. 217. 156. 247. 202. 207.
      165. 250. 196. 199. 186. 250. 191. 186. 209. 248. 187. 170. 225.
      246. 180. 160. 235. 243. 173. 150. 241. 239. 165. 145. 246. 232.
      153. 135. 246. 222. 138. 122. 243. 190. 120. 105. 238. 149. 96.
      74. 228. 120. 66. 45. 209. 94. 39. 28. 181. 74. 24. 18. 156. 55.
      16. 18. 138. 238. 187. 213. 172. 242. 181. 208. 194. 247. 178.
      202. 211. 249. 180. 193. 225. 249. 186. 183. 230. 249. 192. 175.
      233. 247. 195. 172. 236. 242. 197. 174. 236. 235. 193. 171. 233.
      222. 177. 162. 227. 182. 157. 144. 212. 136. 131. 118. 179. 98.
      103. 88. 146. 57. 61. 50. 119. 38. 31. 25. 94. 27. 16. 12. 69.
      226. 153. 212. 188. 234. 153. 210. 208. 239. 154. 204. 223. 242.
      160. 196. 227. 244. 168. 185. 228. 245. 185. 182. 226. 244. 201.
      187. 223. 240. 214. 199. 214. 234. 218. 203. 198. 220. 215. 200.
      173. 178. 201. 185. 149. 133. 168. 157. 123. 93. 137. 127. 92. 46.
      101. 95. 58. 26. 54. 51. 32. 15. 24. 27. 20. 199. 133. 213. 190.
      219. 132. 212. 210. 229. 132. 206. 221. 232. 137. 194. 224. 234.
      147. 176. 218. 236. 164. 174. 203. 237. 194. 185. 180. 234. 216.
      203. 156. 229. 226. 217. 136. 216. 228. 220. 117. 179. 225. 213.
      104. 139. 205. 190. 81. 107. 166. 155. 60. 62. 129. 124. 46. 34.
      85. 83. 32. 21. 38. 43. 23. 159. 117. 208. 178. 180. 116. 208.
      197. 199. 114. 200. 205. 206. 115. 184. 203. 212. 122. 163. 189.
      217. 141. 158. 163. 219. 169. 166. 133. 220. 205. 195. 105. 217.
      225. 215. 77. 204. 231. 224. 64. 177. 230. 223. 68. 148. 222. 207.
      71. 118. 191. 176. 70. 83. 147. 142. 59. 49. 107. 108. 48. 30. 51.
      63. 34. 129. 113. 195. 158. 143. 110. 194. 168. 154. 102. 182.
      172. 159. 94. 163. 165. 162. 95. 144. 148. 164. 113. 135. 123.
      172. 141. 143. 86. 183. 181. 167. 46. 188. 214. 200. 35. 186. 227.
      216. 49. 169. 229. 220. 73. 149. 224. 211. 86. 126. 198. 188. 89.
      97. 155. 152. 81. 60. 115. 119. 65. 37. 59. 79. 47. 110. 106. 164.
      133. 121. 101. 163. 139. 127. 89. 154. 140. 127. 75. 138. 132.
      124. 65. 119. 116. 125. 79. 110. 90. 131. 112. 114. 52. 142. 150.
      138. 30. 153. 187. 167. 36. 160. 213. 195. 56. 157. 222. 205. 82.
      142. 215. 202. 98. 126. 190. 182. 102. 99. 151. 152. 95. 67. 114.
      123. 76. 42. 62. 86. 53. 81. 87. 135. 100. 91. 82. 134. 106. 92.
      71. 127. 103. 84. 54. 113. 90. 73. 42. 91. 70. 67. 45. 75. 44. 77.
      75. 79. 25. 100. 118. 109. 17. 120. 151. 137. 33. 134. 181. 161.
      57. 136. 197. 176. 84. 130. 193. 177. 99. 116. 168. 164. 104. 95.
      139. 144. 96. 62. 107. 116. 77. 40. 56. 83. 54. 52. 63. 97. 64.
      57. 59. 98. 68. 55. 51. 92. 61. 48. 40. 77. 51. 38. 28. 55. 37.
      35. 23. 41. 24. 43. 41. 41. 13. 65. 85. 68. 14. 92. 120. 106. 31.
      109. 146. 130. 52. 115. 162. 147. 78. 112. 161. 151. 94. 101. 146.
      146. 97. 80. 122. 130. 88. 53. 91. 108. 71. 34. 47. 75. 50.</_>
    <_>
      41. 35. 56. 51. 69. 62. 90. 72. 100. 98. 123. 98. 123. 131. 145.
      113. 133. 149. 157. 113. 126. 156. 161. 99. 106. 151. 152. 75. 75.
      135. 135. 66. 66. 100. 94. 78. 76. 65. 56. 118. 112. 48. 27. 155.
      148. 59. 20. 182. 172. 83. 31. 210. 196. 112. 47. 227. 215. 134.
      72. 236. 229. 148. 99. 237. 42. 41. 63. 48. 71. 75. 103. 69. 104.
      121. 139. 93. 125. 150. 160. 108. 136. 170. 175. 108. 131. 180.
      183. 96. 114. 176. 175. 83. 95. 159. 158. 89. 95. 134. 124. 120.
      116. 95. 75. 153. 144. 67. 35. 187. 169. 70. 24. 220. 191. 91. 32.
      240. 210. 115. 50. 245. 224. 134. 73. 247. 235. 146. 102. 246. 41.
      49. 64. 43. 69. 89. 107. 63. 103. 135. 144. 86. 127. 164. 171.
      101. 138. 188. 193. 106. 137. 205. 205. 106. 127. 204. 200. 109.
      120. 183. 179. 128. 128. 157. 149. 155. 147. 128. 109. 186. 167.
      96. 54. 223. 186. 87. 32. 243. 205. 97. 33. 249. 220. 112. 47.
      252. 226. 125. 69. 252. 232. 137. 95. 250. 42. 52. 57. 42. 70. 94.
      100. 63. 105. 141. 142. 89. 130. 171. 171. 110. 143. 200. 197.
      122. 145. 222. 218. 133. 143. 223. 219. 143. 144. 209. 200. 160.
      153. 181. 170. 185. 169. 154. 138. 221. 187. 127. 86. 243. 203.
      109. 49. 250. 212. 104. 37. 253. 218. 107. 44. 254. 219. 111. 59.
      251. 216. 118. 77. 248. 57. 51. 44. 67. 85. 93. 80. 92. 117. 140.
      129. 121. 141. 171. 162. 142. 152. 202. 193. 153. 157. 226. 217.
      165. 159. 234. 223. 174. 163. 225. 214. 193. 172. 204. 188. 214.
      185. 177. 159. 238. 199. 154. 125. 247. 207. 134. 85. 250. 208.
      116. 58. 251. 202. 104. 48. 248. 196. 93. 49. 243. 184. 89. 59.
      236. 91. 50. 39. 130. 117. 88. 65. 145. 142. 132. 108. 163. 158.
      163. 146. 178. 170. 194. 174. 195. 173. 221. 204. 206. 176. 233.
      219. 212. 178. 232. 219. 221. 185. 221. 205. 229. 196. 204. 182.
      241. 201. 179. 159. 244. 198. 158. 133. 244. 191. 138. 101. 241.
      176. 111. 71. 231. 166. 83. 53. 214. 151. 67. 46. 197. 136. 62.
      52. 181. 150. 90. 58. 195. 167. 123. 83. 210. 180. 150. 120. 224.
      189. 173. 152. 235. 193. 199. 177. 239. 190. 218. 200. 238. 185.
      227. 213. 233. 184. 228. 215. 228. 187. 222. 206. 228. 186. 207.
      189. 226. 177. 182. 168. 217. 165. 161. 146. 203. 148. 136. 117.
      183. 129. 101. 84. 166. 102. 72. 62. 149. 168. 88. 74. 234. 178.
      102. 64. 240. 194. 121. 65. 244. 202. 138. 80. 246. 206. 154. 119.
      247. 201. 173. 150. 246. 192. 194. 174. 242. 179. 212. 198. 227.
      172. 226. 217. 209. 170. 233. 222. 196. 167. 227. 217. 183. 156.
      211. 199. 169. 140. 190. 178. 154. 115. 165. 155. 137. 82. 142.
      130. 111. 53. 116. 101. 85. 192. 113. 109. 252. 199. 114. 82. 253.
      208. 117. 64. 253. 209. 122. 58. 252. 206. 133. 76. 249. 194. 147.
      116. 244. 175. 166. 151. 230. 161. 189. 179. 203. 151. 215. 208.
      174. 146. 231. 224. 156. 143. 238. 231. 140. 132. 233. 224. 119.
      111. 222. 211. 96. 81. 203. 188. 70. 55. 181. 167. 46. 31. 165.
      147. 32. 202. 132. 125. 255. 207. 122. 97. 255. 208. 115. 67. 254.
      201. 107. 45. 249. 191. 105. 47. 243. 172. 113. 71. 225. 152. 136.
      119. 197. 135. 162. 156. 166. 120. 191. 186. 139. 114. 220. 216.
      106. 114. 237. 231. 74. 108. 242. 236. 55. 91. 242. 232. 40. 68.
      238. 220. 32. 46. 225. 198. 22. 29. 212. 180. 17. 197. 137. 126.
      253. 195. 121. 97. 250. 188. 105. 64. 245. 176. 87. 38. 235. 164.
      73. 33. 211. 145. 71. 39. 182. 118. 94. 76. 155. 90. 132. 127.
      123. 77. 162. 161. 84. 79. 195. 192. 51. 92. 223. 218. 33. 96.
      241. 232. 23. 90. 246. 237. 21. 73. 248. 234. 23. 58. 247. 225.
      28. 42. 245. 216. 35. 173. 126. 110. 239. 169. 107. 80. 229. 160.
      84. 54. 213. 148. 62. 34. 189. 128. 48. 23. 164. 99. 39. 24. 139.
      66. 55. 45. 100. 49. 87. 82. 61. 50. 130. 129. 36. 61. 164. 160.
      20. 78. 198. 187. 10. 92. 230. 213. 13. 92. 245. 229. 20. 82. 251.
      236. 30. 70. 255. 237. 40. 60. 254. 235. 56. 147. 103. 79. 190.
      139. 78. 60. 177. 124. 59. 39. 163. 104. 40. 27. 144. 74. 31. 17.
      115. 52. 23. 13. 74. 33. 30. 26. 44. 27. 46. 45. 27. 34. 80. 79.
      15. 45. 131. 124. 8. 65. 168. 157. 0. 79. 207. 184. 16. 88. 239.
      209. 28. 86. 249. 228. 40. 81. 254. 239. 61. 77. 255. 241. 86.
      105. 68. 52. 141. 91. 53. 38. 129. 73. 37. 29. 110. 56. 28. 18.
      84. 38. 18. 12. 57. 26. 11. 6. 35. 15. 15. 14. 18. 16. 26. 25. 9.
      25. 43. 43. 6. 36. 88. 76. 0. 54. 140. 124. 0. 68. 175. 158. 19.
      77. 214. 184. 34. 87. 240. 211. 54. 93. 248. 230. 78. 98. 251.
      240. 110. 57. 41. 28. 72. 47. 34. 21. 61. 37. 24. 17. 50. 29. 16.
      12. 36. 19. 10. 8. 26. 11. 0. 1. 15. 6. 7. 7. 7. 10. 12. 13. 1.
      18. 22. 22. 1. 29. 51. 43. 1. 38. 103. 81. 2. 55. 149. 131. 21.
      68. 181. 162. 36. 85. 213. 190. 60. 99. 234. 215. 94. 112. 242.
      230. 122. 30. 20. 14. 25. 24. 16. 11. 21. 19. 13. 9. 17. 14. 9. 7.
      12. 9. 6. 4. 8. 5. 2. 2. 5. 2. 3. 3. 3. 8. 5. 5. 3. 14. 10. 11. 4.
      19. 31. 25. 4. 30. 66. 53. 4. 44. 118. 98. 22. 60. 153. 141. 37.
      81. 180. 168. 63. 102. 201. 192. 97. 119. 216. 210. 126.</_>
    <_>
      224. 216. 213. 110. 202. 196. 191. 88. 174. 172. 169. 67. 144.
      141. 140. 45. 115. 111. 111. 28. 84. 72. 72. 27. 59. 41. 41. 51.
      46. 20. 20. 85. 42. 0. 0. 127. 42. 0. 0. 171. 48. 1. 1. 223. 65.
      36. 37. 241. 79. 61. 63. 248. 100. 89. 93. 252. 120. 118. 120.
      253. 141. 141. 145. 255. 235. 233. 228. 102. 219. 218. 214. 82.
      193. 193. 188. 61. 167. 164. 163. 47. 142. 134. 132. 44. 119. 100.
      99. 62. 95. 67. 65. 98. 76. 40. 36. 134. 69. 23. 20. 177. 67. 16.
      14. 225. 69. 10. 1. 242. 76. 31. 35. 249. 85. 54. 60. 252. 98. 79.
      88. 254. 113. 108. 116. 255. 129. 130. 140. 255. 236. 236. 232.
      87. 229. 228. 223. 71. 212. 210. 205. 52. 189. 185. 183. 46. 171.
      157. 154. 58. 148. 125. 122. 90. 127. 96. 89. 131. 110. 65. 60.
      177. 99. 39. 34. 226. 92. 25. 24. 242. 89. 13. 14. 248. 92. 27.
      32. 252. 94. 47. 53. 254. 97. 68. 78. 254. 105. 90. 107. 255. 115.
      112. 128. 254. 234. 230. 222. 76. 230. 226. 220. 73. 223. 216.
      209. 71. 213. 200. 192. 78. 200. 179. 172. 102. 184. 151. 142.
      132. 164. 125. 114. 175. 147. 96. 83. 223. 132. 67. 57. 241. 120.
      45. 40. 247. 114. 26. 25. 251. 106. 26. 30. 253. 99. 35. 46. 253.
      93. 51. 66. 253. 91. 70. 87. 252. 97. 85. 109. 251. 217. 203. 195.
      106. 220. 207. 201. 114. 222. 208. 201. 121. 224. 205. 195. 132.
      221. 194. 181. 150. 215. 176. 159. 178. 199. 152. 135. 216. 182.
      128. 114. 239. 163. 103. 91. 245. 146. 77. 72. 250. 130. 55. 52.
      251. 115. 41. 46. 251. 101. 35. 43. 250. 84. 39. 50. 250. 75. 49.
      66. 247. 74. 59. 79. 244. 187. 170. 163. 152. 198. 183. 175. 168.
      210. 191. 183. 181. 222. 199. 185. 191. 230. 200. 180. 205. 232.
      191. 169. 224. 226. 178. 153. 237. 211. 157. 138. 243. 188. 136.
      124. 246. 166. 117. 111. 249. 146. 95. 90. 249. 122. 71. 72. 247.
      103. 50. 54. 244. 76. 36. 45. 239. 64. 29. 47. 234. 52. 33. 52.
      214. 160. 136. 133. 211. 173. 152. 146. 231. 189. 168. 155. 236.
      208. 183. 161. 238. 227. 190. 165. 238. 234. 195. 164. 239. 234.
      189. 161. 239. 227. 182. 159. 241. 206. 169. 156. 243. 181. 153.
      147. 243. 155. 131. 129. 241. 126. 109. 109. 237. 103. 80. 82.
      221. 74. 54. 57. 187. 56. 32. 39. 161. 42. 22. 29. 138. 149. 109.
      111. 240. 158. 123. 117. 244. 175. 137. 123. 245. 189. 154. 131.
      246. 209. 170. 140. 244. 225. 182. 149. 243. 229. 188. 160. 238.
      226. 195. 172. 236. 209. 194. 180. 233. 186. 186. 179. 224. 161.
      168. 165. 204. 134. 144. 143. 180. 110. 118. 118. 150. 80. 88. 88.
      121. 60. 62. 63. 96. 38. 43. 43. 71. 142. 101. 108. 245. 145. 105.
      104. 248. 156. 113. 100. 250. 167. 124. 103. 249. 184. 139. 113.
      246. 197. 157. 128. 240. 204. 176. 150. 231. 206. 192. 174. 199.
      197. 206. 194. 177. 182. 209. 203. 157. 163. 199. 196. 137. 143.
      179. 176. 117. 123. 155. 150. 93. 101. 129. 125. 68. 79. 107. 101.
      53. 64. 85. 77. 48. 142. 96. 106. 245. 138. 89. 93. 247. 138. 86.
      77. 248. 141. 94. 73. 246. 149. 107. 80. 242. 158. 126. 104. 235.
      165. 151. 133. 190. 173. 179. 164. 153. 172. 203. 192. 125. 166.
      218. 211. 104. 162. 219. 214. 82. 151. 206. 200. 69. 137. 187.
      181. 59. 121. 167. 159. 58. 107. 147. 135. 69. 94. 129. 119. 80.
      134. 87. 99. 240. 127. 75. 81. 242. 120. 66. 65. 240. 115. 62. 49.
      237. 116. 70. 51. 227. 119. 92. 73. 186. 123. 122. 112. 145. 133.
      151. 144. 106. 139. 184. 177. 70. 147. 207. 202. 44. 156. 221.
      214. 28. 158. 225. 213. 40. 154. 219. 203. 57. 146. 204. 187. 78.
      139. 186. 174. 105. 135. 171. 158. 124. 117. 74. 83. 212. 108. 61.
      68. 215. 98. 49. 50. 207. 87. 39. 34. 190. 82. 41. 30. 167. 78.
      58. 49. 137. 81. 90. 83. 104. 97. 121. 118. 68. 110. 155. 148. 38.
      126. 185. 178. 18. 143. 210. 197. 16. 156. 227. 208. 48. 162. 232.
      213. 74. 166. 228. 207. 108. 170. 218. 201. 135. 174. 204. 190.
      162. 92. 55. 64. 153. 81. 45. 50. 152. 70. 32. 37. 145. 58. 25.
      27. 131. 48. 23. 24. 112. 38. 31. 31. 84. 36. 59. 60. 56. 56. 86.
      86. 32. 75. 124. 119. 19. 102. 159. 148. 11. 128. 188. 173. 18.
      149. 217. 193. 57. 166. 232. 208. 91. 184. 235. 216. 127. 198.
      233. 219. 160. 211. 225. 217. 193. 62. 38. 43. 97. 53. 28. 33. 95.
      44. 25. 26. 84. 33. 18. 19. 73. 26. 15. 15. 56. 17. 19. 19. 40.
      13. 34. 34. 24. 31. 55. 55. 14. 51. 94. 83. 1. 75. 130. 116. 2.
      112. 162. 143. 22. 140. 196. 173. 63. 169. 220. 194. 100. 197.
      230. 212. 136. 221. 231. 222. 176. 235. 228. 229. 212. 37. 21. 21.
      47. 30. 17. 17. 42. 27. 14. 15. 35. 22. 12. 12. 28. 16. 11. 11.
      23. 11. 12. 12. 15. 2. 21. 21. 2. 23. 29. 29. 2. 33. 66. 54. 3.
      53. 105. 86. 3. 95. 136. 116. 22. 130. 171. 148. 64. 165. 196.
      175. 102. 202. 210. 198. 139. 231. 217. 215. 178. 237. 218. 229.
      215. 3. 3. 4. 4. 4. 4. 5. 5. 5. 5. 6. 6. 6. 6. 7. 7. 7. 7. 8. 8.
      8. 8. 9. 9. 9. 13. 13. 9. 16. 17. 18. 10. 24. 44. 30. 10. 37. 77.
      63. 10. 81. 113. 91. 20. 122. 144. 126. 61. 160. 168. 154. 98.
      201. 185. 180. 133. 233. 192. 202. 170. 238. 198. 220. 205.</_>
    <_>
      68. 60. 26. 38. 61. 55. 24. 25. 49. 45. 21. 12. 31. 32. 15. 5. 20.
      18. 10. 3. 17. 8. 5. 7. 28. 2. 1. 25. 58. 1. 0. 64. 107. 6. 0.
      113. 161. 23. 3. 160. 192. 57. 16. 183. 205. 100. 38. 179. 197.
      140. 70. 158. 171. 165. 99. 117. 127. 169. 115. 80. 84. 160. 116.
      54. 106. 133. 53. 62. 99. 120. 51. 38. 82. 98. 47. 20. 63. 73. 39.
      10. 48. 47. 29. 9. 46. 25. 17. 19. 65. 10. 9. 50. 101. 4. 2. 102.
      155. 6. 0. 158. 193. 21. 3. 191. 214. 52. 17. 208. 217. 95. 45.
      203. 206. 135. 83. 179. 177. 164. 119. 147. 135. 171. 137. 113.
      92. 164. 142. 86. 157. 211. 100. 85. 146. 192. 95. 53. 125. 166.
      87. 29. 104. 127. 75. 16. 89. 89. 57. 18. 90. 51. 36. 37. 113. 27.
      20. 84. 154. 11. 7. 144. 193. 8. 1. 190. 220. 16. 4. 217. 230. 41.
      18. 227. 227. 77. 47. 220. 212. 117. 89. 202. 184. 143. 128. 175.
      146. 155. 156. 149. 101. 151. 163. 121. 188. 251. 152. 94. 183.
      244. 143. 58. 170. 220. 134. 31. 153. 186. 120. 23. 136. 140. 96.
      30. 142. 87. 62. 60. 165. 49. 36. 118. 192. 24. 15. 176. 218. 11.
      6. 213. 235. 14. 6. 233. 238. 30. 20. 239. 231. 54. 45. 229. 215.
      83. 85. 215. 190. 105. 124. 197. 156. 116. 154. 174. 111. 114.
      164. 151. 206. 255. 180. 94. 205. 254. 175. 66. 198. 246. 170. 42.
      188. 219. 157. 37. 181. 177. 125. 50. 185. 121. 88. 85. 198. 75.
      53. 141. 214. 40. 27. 190. 229. 22. 13. 219. 240. 21. 13. 234.
      242. 29. 27. 238. 240. 43. 48. 233. 226. 59. 78. 222. 205. 71.
      111. 207. 172. 74. 133. 187. 128. 70. 143. 161. 218. 255. 187. 93.
      223. 255. 185. 76. 219. 249. 180. 63. 213. 232. 169. 61. 207. 194.
      141. 73. 207. 138. 100. 102. 209. 95. 64. 148. 216. 56. 35. 185.
      225. 34. 22. 208. 236. 33. 26. 221. 243. 39. 37. 226. 244. 51. 55.
      226. 241. 59. 74. 218. 224. 65. 93. 204. 199. 65. 107. 180. 160.
      60. 112. 150. 227. 255. 173. 114. 235. 253. 175. 108. 232. 245.
      172. 103. 224. 221. 161. 99. 215. 186. 134. 101. 210. 134. 97.
      115. 206. 98. 64. 139. 209. 68. 40. 166. 216. 52. 34. 182. 228.
      56. 44. 194. 243. 67. 59. 203. 247. 76. 72. 204. 245. 81. 79. 196.
      237. 83. 85. 179. 213. 82. 90. 154. 181. 79. 86. 119. 233. 247.
      155. 161. 239. 236. 156. 166. 235. 212. 152. 164. 224. 185. 135.
      159. 211. 154. 112. 150. 201. 111. 79. 143. 195. 87. 55. 148. 201.
      71. 42. 152. 213. 71. 45. 153. 233. 88. 66. 159. 246. 106. 84.
      162. 250. 121. 96. 163. 250. 126. 98. 156. 247. 128. 97. 135. 234.
      129. 94. 118. 209. 127. 91. 94. 225. 200. 134. 204. 228. 177. 131.
      208. 224. 157. 123. 207. 212. 129. 111. 202. 199. 103. 89. 189.
      189. 78. 62. 177. 189. 69. 46. 167. 203. 72. 43. 151. 221. 86. 55.
      130. 241. 115. 80. 118. 249. 140. 101. 107. 252. 162. 118. 105.
      253. 174. 122. 99. 250. 182. 122. 96. 246. 189. 125. 92. 236. 192.
      133. 91. 218. 152. 136. 231. 217. 127. 124. 232. 210. 104. 113.
      230. 200. 81. 97. 227. 186. 62. 73. 223. 183. 50. 53. 214. 195.
      54. 42. 202. 215. 70. 44. 172. 238. 96. 58. 132. 247. 126. 84. 95.
      252. 159. 104. 67. 254. 181. 123. 59. 254. 199. 137. 61. 252. 211.
      157. 74. 248. 222. 172. 98. 245. 229. 194. 124. 200. 145. 165.
      237. 198. 119. 145. 236. 190. 90. 123. 237. 180. 61. 103. 240.
      174. 39. 76. 242. 178. 31. 54. 240. 197. 40. 42. 226. 223. 63. 44.
      193. 244. 93. 57. 136. 249. 124. 77. 81. 253. 159. 97. 39. 254.
      182. 122. 32. 253. 203. 147. 41. 251. 220. 176. 72. 248. 234. 208.
      119. 245. 242. 239. 170. 162. 178. 184. 219. 167. 150. 168. 221.
      167. 105. 148. 225. 165. 67. 122. 237. 162. 36. 92. 243. 168. 25.
      65. 243. 184. 29. 46. 230. 210. 49. 41. 194. 234. 78. 50. 130.
      246. 109. 63. 66. 250. 141. 79. 23. 251. 171. 109. 19. 251. 196.
      144. 35. 248. 216. 187. 77. 244. 231. 225. 138. 239. 241. 249.
      201. 129. 210. 195. 188. 140. 176. 184. 196. 151. 129. 169. 209.
      153. 78. 144. 223. 149. 38. 110. 232. 146. 21. 74. 230. 155. 19.
      48. 211. 173. 32. 35. 170. 196. 56. 36. 103. 217. 80. 43. 47. 235.
      114. 57. 13. 241. 148. 91. 14. 242. 178. 131. 34. 238. 205. 182.
      80. 229. 222. 228. 147. 222. 231. 252. 206. 108. 216. 191. 146.
      125. 188. 186. 163. 139. 142. 174. 181. 141. 88. 153. 198. 131.
      43. 117. 204. 117. 18. 75. 195. 107. 12. 41. 169. 115. 17. 26.
      120. 130. 31. 23. 66. 158. 49. 27. 28. 178. 76. 35. 7. 191. 110.
      67. 11. 199. 149. 106. 30. 200. 179. 163. 72. 197. 201. 214. 132.
      193. 212. 248. 191. 92. 202. 173. 110. 116. 175. 173. 133. 131.
      132. 167. 158. 130. 82. 142. 171. 112. 40. 106. 168. 86. 15. 68.
      150. 68. 7. 33. 114. 60. 8. 16. 70. 69. 15. 12. 33. 88. 28. 14.
      13. 109. 48. 22. 2. 126. 75. 44. 8. 137. 108. 77. 24. 144. 139.
      126. 56. 147. 166. 183. 104. 149. 176. 228. 160. 81. 168. 138. 83.
      105. 145. 145. 110. 121. 109. 137. 132. 116. 69. 120. 139. 91. 34.
      87. 128. 58. 12. 52. 100. 32. 2. 24. 64. 19. 1. 9. 30. 22. 5. 4.
      10. 33. 11. 5. 3. 51. 26. 9. 0. 69. 46. 28. 4. 82. 73. 52. 14. 93.
      102. 90. 37. 102. 123. 136. 71. 108. 138. 187. 112.</_>
    <_>
      39. 0. 0. 32. 35. 0. 0. 24. 27. 1. 1. 17. 20. 1. 1. 12. 14. 2. 2.
      8. 9. 2. 2. 3. 7. 3. 3. 9. 15. 3. 8. 18. 32. 4. 11. 42. 58. 4. 16.
      99. 107. 18. 20. 159. 158. 42. 33. 188. 185. 82. 50. 203. 197.
      134. 76. 212. 207. 168. 112. 217. 218. 186. 150. 215. 122. 8. 23.
      69. 120. 10. 18. 48. 108. 9. 13. 31. 90. 8. 10. 19. 65. 7. 6. 11.
      44. 6. 4. 7. 31. 6. 4. 16. 34. 5. 10. 35. 57. 5. 14. 76. 100. 5.
      20. 144. 150. 16. 26. 186. 184. 38. 42. 204. 194. 75. 59. 221.
      204. 125. 90. 228. 214. 162. 132. 231. 223. 185. 163. 231. 181.
      33. 45. 117. 182. 27. 33. 82. 178. 23. 23. 51. 167. 19. 17. 28.
      147. 15. 14. 17. 119. 12. 12. 13. 91. 10. 13. 29. 89. 7. 16. 63.
      114. 6. 21. 126. 153. 5. 27. 180. 183. 14. 33. 201. 195. 32. 51.
      221. 204. 61. 67. 233. 212. 104. 96. 237. 220. 145. 137. 240. 224.
      170. 166. 240. 213. 81. 84. 157. 216. 64. 58. 118. 214. 49. 41.
      71. 208. 37. 30. 39. 198. 29. 24. 25. 186. 22. 20. 26. 172. 18.
      21. 56. 163. 15. 25. 111. 175. 11. 29. 171. 187. 9. 34. 197. 198.
      12. 38. 219. 206. 24. 53. 232. 213. 45. 66. 239. 217. 74. 90. 242.
      219. 107. 125. 244. 219. 138. 157. 243. 238. 142. 125. 177. 242.
      115. 92. 139. 243. 88. 64. 87. 241. 66. 47. 49. 234. 52. 40. 36.
      224. 38. 36. 43. 206. 32. 39. 92. 199. 25. 45. 155. 199. 19. 48.
      190. 203. 13. 50. 210. 210. 11. 49. 228. 217. 17. 54. 237. 220.
      28. 57. 242. 216. 46. 71. 242. 211. 66. 97. 241. 208. 87. 129.
      239. 250. 182. 148. 177. 252. 160. 116. 141. 253. 132. 86. 91.
      253. 100. 67. 57. 251. 79. 62. 54. 246. 65. 60. 74. 235. 56. 68.
      137. 226. 48. 72. 183. 221. 37. 75. 201. 223. 28. 74. 222. 225.
      22. 68. 232. 225. 22. 61. 236. 220. 23. 55. 238. 211. 30. 55. 235.
      202. 36. 65. 232. 196. 46. 84. 227. 251. 191. 153. 161. 254. 178.
      123. 133. 255. 151. 95. 97. 255. 122. 81. 85. 254. 103. 83. 98.
      252. 91. 87. 131. 249. 86. 96. 172. 240. 76. 103. 192. 234. 64.
      105. 207. 233. 54. 105. 223. 231. 47. 97. 229. 228. 39. 83. 231.
      221. 36. 65. 227. 207. 31. 53. 220. 194. 28. 48. 209. 184. 27. 51.
      200. 248. 188. 141. 130. 252. 177. 118. 115. 254. 149. 102. 109.
      255. 127. 97. 126. 255. 111. 102. 149. 254. 106. 108. 174. 251.
      107. 119. 187. 247. 104. 127. 200. 241. 100. 135. 209. 239. 93.
      139. 215. 236. 88. 135. 218. 232. 79. 116. 213. 222. 70. 93. 205.
      203. 58. 70. 196. 188. 50. 55. 186. 163. 40. 47. 170. 234. 176.
      116. 100. 245. 151. 109. 120. 251. 128. 108. 144. 253. 106. 113.
      174. 253. 104. 121. 187. 252. 109. 124. 197. 250. 117. 130. 201.
      247. 124. 136. 205. 245. 129. 144. 205. 244. 134. 155. 202. 243.
      136. 156. 200. 239. 133. 148. 193. 230. 123. 134. 185. 212. 110.
      110. 171. 194. 95. 94. 148. 167. 79. 80. 120. 205. 131. 101. 89.
      225. 109. 114. 139. 235. 94. 131. 178. 244. 88. 140. 195. 248. 91.
      142. 208. 249. 101. 138. 216. 247. 113. 133. 217. 245. 128. 134.
      210. 246. 140. 141. 201. 247. 152. 158. 191. 249. 161. 165. 184.
      246. 162. 164. 167. 238. 160. 159. 149. 226. 153. 151. 135. 202.
      141. 144. 119. 185. 125. 136. 102. 176. 73. 95. 99. 193. 69. 129.
      160. 208. 69. 151. 189. 225. 71. 162. 209. 233. 77. 160. 226. 236.
      86. 145. 229. 238. 98. 128. 227. 240. 114. 118. 214. 244. 135.
      123. 197. 248. 154. 146. 180. 250. 166. 162. 150. 250. 175. 168.
      128. 245. 176. 171. 114. 234. 173. 174. 118. 213. 164. 173. 122.
      192. 152. 170. 121. 130. 42. 103. 107. 169. 52. 143. 169. 189. 59.
      165. 195. 203. 68. 177. 216. 215. 71. 171. 230. 224. 72. 149. 233.
      226. 77. 119. 228. 230. 89. 98. 211. 236. 108. 92. 191. 243. 137.
      117. 158. 248. 156. 143. 115. 249. 165. 159. 94. 246. 173. 169.
      101. 235. 174. 178. 124. 219. 166. 183. 140. 196. 157. 184. 146.
      78. 37. 103. 106. 132. 53. 147. 166. 172. 70. 172. 194. 190. 78.
      180. 214. 200. 77. 175. 227. 206. 68. 150. 229. 209. 59. 110. 222.
      212. 62. 80. 202. 222. 75. 67. 181. 230. 101. 85. 129. 237. 130.
      111. 84. 241. 145. 137. 73. 237. 155. 156. 93. 229. 159. 170. 126.
      210. 155. 179. 146. 192. 145. 181. 154. 69. 44. 96. 95. 112. 61.
      138. 154. 157. 80. 163. 187. 182. 89. 173. 204. 188. 84. 164. 215.
      193. 67. 140. 218. 192. 51. 98. 207. 193. 43. 63. 190. 198. 47.
      43. 156. 206. 64. 53. 92. 218. 87. 73. 58. 224. 105. 99. 57. 223.
      121. 126. 81. 211. 127. 147. 111. 198. 123. 161. 136. 183. 112.
      164. 142. 60. 46. 77. 76. 102. 63. 113. 132. 143. 82. 142. 176.
      167. 90. 153. 191. 179. 81. 146. 199. 180. 60. 120. 199. 175. 41.
      80. 189. 165. 29. 50. 169. 168. 24. 30. 115. 182. 34. 31. 60. 189.
      49. 44. 41. 195. 62. 61. 43. 196. 75. 85. 62. 190. 83. 106. 88.
      179. 82. 124. 104. 152. 74. 133. 112. 52. 40. 56. 54. 83. 56. 86.
      93. 117. 73. 110. 139. 143. 79. 122. 168. 152. 72. 116. 181. 147.
      55. 94. 179. 131. 35. 63. 161. 105. 21. 38. 121. 99. 15. 22. 70.
      113. 19. 21. 35. 138. 26. 26. 25. 154. 34. 37. 30. 158. 41. 52.
      44. 148. 46. 66. 59. 127. 45. 78. 72. 96. 40. 85. 78.</_>
    <_>
      131. 151. 145. 133. 117. 139. 136. 115. 102. 124. 121. 95. 82.
      105. 103. 71. 62. 82. 80. 54. 41. 57. 57. 0. 0. 37. 37. 0. 0. 1.
      1. 1. 1. 2. 2. 2. 2. 3. 3. 3. 37. 3. 4. 37. 48. 42. 30. 47. 64.
      56. 35. 62. 78. 71. 41. 73. 92. 89. 45. 86. 101. 104. 54. 94. 150.
      187. 181. 152. 134. 178. 175. 132. 116. 166. 164. 109. 94. 149.
      145. 84. 70. 121. 119. 59. 43. 89. 89. 4. 4. 56. 57. 4. 5. 35. 35.
      5. 5. 5. 6. 6. 31. 6. 6. 32. 52. 7. 38. 52. 72. 51. 58. 72. 96.
      70. 77. 94. 114. 92. 99. 111. 128. 112. 116. 126. 139. 129. 131.
      134. 160. 214. 205. 162. 146. 206. 199. 143. 126. 195. 191. 118.
      103. 180. 177. 92. 75. 158. 155. 64. 46. 125. 125. 7. 7. 87. 87.
      7. 8. 52. 52. 8. 33. 34. 34. 34. 48. 8. 8. 49. 79. 9. 43. 80. 110.
      60. 74. 109. 135. 85. 103. 133. 154. 111. 128. 153. 167. 133. 151.
      165. 176. 153. 164. 174. 163. 238. 226. 164. 149. 230. 222. 146.
      129. 218. 214. 120. 105. 204. 200. 93. 76. 185. 183. 66. 47. 159.
      158. 9. 9. 122. 120. 9. 32. 81. 80. 33. 49. 49. 49. 50. 78. 33.
      33. 78. 114. 10. 51. 114. 147. 67. 93. 146. 168. 96. 125. 168.
      184. 124. 154. 183. 194. 150. 174. 193. 200. 166. 188. 199. 155.
      253. 243. 157. 142. 250. 239. 138. 122. 241. 232. 115. 99. 226.
      220. 88. 72. 210. 205. 63. 45. 187. 185. 30. 35. 159. 155. 42. 51.
      119. 117. 63. 83. 81. 81. 94. 116. 53. 53. 127. 152. 32. 59. 160.
      178. 69. 106. 182. 195. 99. 141. 198. 207. 128. 169. 210. 216.
      153. 188. 217. 220. 171. 202. 221. 137. 255. 247. 139. 123. 255.
      249. 120. 107. 253. 247. 100. 86. 246. 236. 75. 64. 229. 223. 55.
      48. 210. 204. 42. 55. 186. 182. 65. 86. 156. 152. 99. 121. 118.
      113. 135. 155. 83. 74. 166. 182. 50. 67. 190. 200. 68. 110. 208.
      216. 95. 146. 221. 225. 123. 174. 231. 231. 148. 193. 237. 235.
      165. 209. 240. 109. 252. 240. 111. 97. 254. 247. 96. 84. 255. 248.
      77. 69. 253. 246. 60. 62. 245. 235. 51. 71. 227. 220. 65. 95. 208.
      201. 101. 128. 184. 177. 140. 161. 153. 145. 173. 185. 114. 106.
      196. 204. 72. 79. 215. 219. 66. 107. 230. 231. 82. 140. 244. 238.
      107. 167. 248. 242. 129. 187. 250. 242. 148. 201. 249. 76. 233.
      223. 79. 69. 245. 232. 68. 59. 251. 241. 57. 58. 253. 245. 46. 66.
      251. 242. 58. 97. 243. 231. 91. 127. 225. 216. 132. 162. 202. 197.
      169. 185. 177. 170. 196. 205. 143. 136. 217. 222. 98. 102. 236.
      234. 67. 102. 249. 242. 65. 124. 254. 244. 84. 152. 254. 240. 103.
      169. 251. 236. 118. 184. 247. 10. 211. 199. 10. 10. 223. 213. 11.
      11. 237. 225. 32. 56. 248. 234. 38. 87. 252. 239. 70. 127. 250.
      237. 116. 160. 238. 226. 159. 186. 218. 209. 190. 206. 195. 186.
      214. 222. 165. 158. 234. 235. 120. 121. 250. 243. 74. 101. 254.
      243. 50. 104. 255. 236. 60. 122. 251. 228. 71. 140. 245. 220. 85.
      154. 233. 11. 182. 172. 11. 12. 199. 190. 12. 12. 217. 206. 36.
      68. 233. 219. 43. 106. 246. 230. 89. 150. 248. 234. 135. 178. 244.
      228. 175. 201. 227. 215. 201. 218. 203. 195. 224. 232. 176. 171.
      244. 240. 136. 139. 252. 239. 84. 107. 252. 232. 39. 90. 249. 222.
      12. 93. 237. 210. 13. 100. 224. 198. 13. 112. 212. 13. 147. 131.
      13. 14. 173. 161. 14. 14. 196. 184. 39. 76. 215. 202. 47. 119.
      230. 216. 100. 162. 239. 224. 147. 189. 238. 223. 181. 211. 227.
      214. 207. 225. 207. 198. 227. 233. 181. 176. 241. 235. 144. 149.
      246. 229. 90. 112. 241. 217. 43. 80. 229. 202. 14. 59. 215. 188.
      15. 15. 200. 173. 15. 15. 186. 16. 108. 92. 16. 16. 138. 125. 16.
      17. 171. 159. 41. 83. 194. 181. 50. 126. 212. 198. 104. 165. 224.
      209. 149. 192. 228. 211. 180. 211. 219. 203. 204. 221. 203. 192.
      219. 226. 179. 175. 229. 221. 143. 151. 228. 212. 91. 115. 218.
      197. 46. 85. 206. 179. 17. 63. 189. 156. 17. 17. 170. 132. 18. 18.
      151. 18. 69. 58. 18. 19. 98. 90. 19. 19. 142. 127. 40. 81. 172.
      156. 48. 126. 193. 176. 101. 163. 207. 189. 142. 188. 213. 192.
      175. 203. 209. 189. 196. 213. 194. 179. 208. 212. 172. 164. 213.
      205. 137. 141. 208. 192. 87. 109. 197. 173. 46. 82. 180. 148. 19.
      60. 156. 117. 20. 20. 131. 88. 20. 20. 105. 21. 40. 40. 21. 21.
      61. 61. 21. 22. 108. 96. 38. 75. 144. 124. 44. 117. 170. 147. 93.
      154. 187. 163. 130. 178. 193. 169. 162. 191. 191. 167. 180. 197.
      179. 160. 190. 194. 157. 144. 191. 183. 123. 123. 183. 166. 76.
      97. 168. 140. 44. 70. 145. 108. 22. 55. 108. 77. 22. 22. 77. 53.
      23. 23. 53. 23. 23. 24. 24. 24. 39. 39. 24. 25. 83. 66. 34. 67.
      115. 91. 41. 104. 144. 112. 79. 137. 163. 130. 111. 161. 172. 138.
      141. 174. 170. 138. 161. 177. 158. 130. 168. 171. 135. 118. 167.
      157. 106. 102. 157. 134. 65. 78. 136. 105. 42. 61. 110. 73. 25.
      45. 73. 54. 25. 25. 54. 36. 26. 26. 36. 26. 26. 27. 27. 27. 27.
      28. 28. 28. 63. 45. 31. 56. 88. 62. 36. 86. 113. 74. 64. 113. 132.
      91. 90. 134. 143. 98. 113. 148. 142. 100. 129. 150. 130. 95. 137.
      141. 110. 88. 133. 122. 85. 75. 119. 97. 55. 61. 98. 68. 38. 47.
      73. 44. 28. 40. 44. 31. 29. 29. 31. 29. 29. 30. 30.</_>
    <_>
      188. 175. 253. 253. 228. 223. 250. 249. 248. 248. 242. 233. 252.
      254. 217. 191. 252. 255. 192. 153. 248. 254. 178. 130. 219. 247.
      155. 111. 151. 189. 129. 98. 101. 119. 100. 84. 70. 81. 74. 65.
      47. 48. 50. 48. 0. 0. 0. 0. 1. 1. 1. 1. 2. 2. 2. 2. 3. 3. 3. 3. 4.
      4. 4. 4. 171. 181. 250. 246. 211. 221. 245. 234. 233. 243. 230.
      215. 244. 250. 212. 173. 244. 252. 193. 150. 231. 251. 188. 137.
      204. 239. 169. 122. 148. 182. 144. 110. 105. 124. 108. 91. 81. 89.
      82. 70. 59. 61. 57. 51. 44. 43. 30. 5. 35. 35. 28. 5. 28. 29. 26.
      5. 5. 6. 6. 6. 6. 7. 7. 7. 159. 197. 238. 220. 185. 221. 228. 205.
      215. 238. 220. 178. 222. 245. 204. 157. 222. 246. 195. 147. 213.
      244. 204. 148. 177. 224. 183. 138. 148. 179. 158. 121. 118. 136.
      119. 99. 96. 103. 89. 75. 78. 79. 66. 55. 63. 60. 42. 7. 50. 49.
      37. 8. 38. 38. 33. 8. 30. 27. 27. 8. 8. 9. 9. 9. 149. 208. 208.
      165. 173. 224. 201. 154. 198. 236. 194. 149. 210. 241. 187. 142.
      209. 241. 199. 145. 199. 236. 212. 155. 176. 222. 205. 151. 161.
      196. 171. 132. 141. 164. 132. 104. 119. 129. 99. 80. 98. 103. 75.
      58. 79. 81. 54. 36. 63. 64. 47. 33. 46. 48. 39. 29. 35. 33. 30.
      27. 9. 10. 10. 10. 134. 204. 153. 117. 161. 221. 156. 117. 179.
      232. 166. 121. 200. 239. 174. 126. 203. 238. 198. 145. 195. 237.
      217. 162. 186. 230. 214. 158. 178. 219. 181. 138. 169. 203. 146.
      109. 150. 168. 114. 86. 120. 133. 90. 68. 95. 101. 71. 50. 73. 78.
      60. 46. 54. 58. 49. 40. 39. 37. 37. 34. 10. 11. 11. 11. 115. 167.
      109. 85. 136. 195. 120. 91. 158. 217. 141. 103. 175. 224. 164.
      118. 185. 229. 191. 143. 189. 234. 218. 162. 197. 235. 218. 160.
      202. 230. 189. 139. 190. 225. 160. 114. 172. 209. 130. 94. 143.
      165. 107. 81. 107. 120. 89. 69. 83. 90. 74. 62. 61. 68. 61. 51.
      44. 43. 45. 42. 11. 12. 12. 12. 95. 127. 83. 62. 113. 151. 97. 75.
      132. 174. 118. 93. 153. 202. 149. 114. 167. 216. 181. 140. 177.
      227. 213. 156. 190. 235. 215. 155. 206. 240. 192. 137. 207. 239.
      169. 118. 186. 226. 154. 106. 160. 199. 131. 97. 123. 147. 112.
      88. 96. 105. 92. 76. 76. 80. 72. 63. 60. 57. 55. 50. 47. 41. 31.
      12. 76. 94. 59. 42. 90. 110. 80. 67. 104. 130. 102. 84. 122. 157.
      129. 104. 144. 184. 166. 128. 165. 218. 193. 145. 180. 230. 206.
      146. 199. 237. 187. 133. 202. 240. 177. 124. 184. 231. 174. 123.
      164. 213. 161. 117. 134. 166. 135. 105. 108. 126. 107. 91. 89. 99.
      86. 72. 73. 78. 65. 56. 62. 64. 41. 13. 55. 67. 44. 32. 68. 79.
      69. 59. 83. 101. 88. 75. 100. 125. 113. 95. 122. 165. 143. 114.
      152. 209. 167. 122. 176. 229. 179. 128. 196. 237. 179. 126. 201.
      239. 186. 131. 186. 233. 200. 142. 170. 220. 184. 139. 152. 187.
      162. 123. 132. 157. 125. 102. 116. 127. 98. 79. 99. 106. 77. 62.
      86. 92. 57. 34. 43. 45. 32. 13. 53. 60. 57. 52. 69. 84. 74. 66.
      87. 108. 95. 80. 113. 150. 116. 94. 146. 200. 138. 102. 175. 226.
      159. 112. 203. 238. 172. 120. 206. 240. 192. 137. 197. 236. 214.
      155. 183. 228. 210. 154. 173. 215. 176. 135. 163. 201. 143. 108.
      146. 172. 113. 87. 124. 150. 93. 70. 107. 125. 77. 54. 13. 13. 14.
      14. 36. 45. 46. 44. 52. 69. 64. 54. 72. 93. 78. 66. 97. 124. 94.
      73. 127. 168. 112. 85. 163. 212. 135. 98. 183. 225. 163. 116. 197.
      231. 192. 140. 196. 234. 219. 161. 193. 232. 218. 160. 189. 227.
      188. 139. 182. 224. 156. 115. 171. 217. 131. 96. 153. 198. 115.
      85. 131. 168. 103. 77. 14. 14. 15. 15. 34. 40. 38. 36. 47. 63. 51.
      43. 67. 82. 64. 49. 87. 104. 73. 55. 112. 141. 92. 70. 138. 174.
      116. 87. 164. 207. 147. 111. 175. 220. 183. 139. 181. 228. 214.
      159. 194. 234. 216. 159. 205. 236. 190. 141. 207. 241. 169. 121.
      198. 235. 157. 115. 176. 225. 148. 109. 156. 209. 144. 111. 15.
      15. 16. 16. 31. 35. 31. 29. 40. 52. 41. 32. 56. 68. 48. 36. 71.
      86. 56. 39. 90. 106. 77. 61. 110. 136. 101. 82. 130. 166. 134.
      105. 152. 195. 173. 134. 171. 221. 207. 152. 191. 232. 212. 154.
      210. 240. 191. 142. 214. 242. 180. 133. 211. 242. 182. 140. 190.
      231. 185. 147. 170. 216. 194. 158. 16. 16. 17. 17. 28. 29. 26. 17.
      34. 41. 33. 17. 45. 53. 37. 18. 58. 66. 42. 18. 71. 84. 67. 56.
      88. 106. 91. 76. 109. 142. 121. 100. 135. 180. 162. 123. 168. 223.
      184. 137. 208. 242. 203. 144. 222. 246. 188. 140. 227. 246. 193.
      149. 223. 243. 213. 170. 211. 229. 223. 196. 177. 211. 232. 219.
      18. 18. 19. 19. 19. 19. 20. 20. 20. 31. 27. 20. 32. 38. 28. 21.
      40. 46. 30. 21. 53. 65. 58. 53. 72. 93. 82. 71. 97. 128. 110. 92.
      129. 187. 145. 111. 180. 241. 167. 119. 227. 250. 182. 128. 245.
      252. 185. 136. 247. 251. 206. 163. 243. 247. 226. 208. 225. 229.
      243. 233. 200. 202. 249. 247. 21. 21. 22. 22. 22. 22. 23. 23. 23.
      23. 24. 24. 24. 24. 25. 25. 25. 25. 26. 26. 39. 51. 52. 49. 59.
      85. 74. 65. 88. 125. 100. 83. 127. 205. 126. 96. 201. 248. 151.
      102. 245. 255. 170. 117. 253. 255. 178. 133. 254. 255. 210. 172.
      251. 251. 237. 226. 244. 235. 249. 249. 216. 194. 253. 254.</_>
    <_>
      131. 56. 61. 79. 158. 67. 68. 86. 180. 76. 75. 84. 193. 78. 74.
      73. 192. 76. 69. 54. 177. 73. 67. 38. 154. 65. 60. 32. 128. 53.
      52. 39. 110. 41. 48. 77. 120. 30. 48. 130. 139. 20. 54. 179. 172.
      33. 76. 227. 199. 51. 99. 247. 222. 85. 119. 254. 238. 118. 136.
      255. 245. 143. 154. 255. 149. 74. 74. 87. 182. 87. 84. 93. 211.
      98. 91. 92. 226. 102. 95. 80. 228. 105. 96. 57. 219. 106. 98. 45.
      194. 100. 95. 43. 168. 84. 83. 60. 153. 61. 72. 113. 157. 44. 65.
      159. 170. 28. 65. 207. 192. 29. 81. 239. 211. 42. 97. 251. 223.
      63. 113. 254. 234. 94. 126. 255. 239. 118. 138. 255. 162. 86. 81.
      85. 200. 100. 91. 92. 229. 111. 101. 91. 240. 120. 108. 79. 243.
      125. 114. 59. 240. 130. 121. 50. 231. 128. 124. 58. 212. 116. 115.
      97. 196. 98. 106. 143. 195. 70. 96. 187. 202. 48. 88. 228. 215.
      35. 90. 244. 221. 37. 97. 252. 221. 48. 105. 253. 222. 64. 112.
      254. 222. 85. 120. 253. 163. 89. 77. 73. 204. 101. 89. 80. 235.
      115. 103. 80. 245. 126. 114. 71. 250. 135. 127. 62. 249. 145. 138.
      67. 245. 148. 146. 95. 239. 140. 142. 131. 234. 128. 135. 173.
      231. 108. 127. 213. 232. 86. 117. 238. 232. 61. 110. 246. 226. 54.
      107. 249. 217. 50. 105. 248. 205. 52. 101. 246. 194. 56. 100. 242.
      152. 77. 64. 54. 192. 92. 75. 59. 227. 109. 93. 64. 242. 123. 112.
      69. 250. 137. 131. 80. 252. 152. 149. 104. 251. 160. 162. 132.
      248. 159. 163. 163. 246. 150. 159. 198. 244. 137. 151. 226. 242.
      123. 142. 239. 240. 107. 133. 241. 230. 94. 124. 241. 212. 79.
      114. 236. 189. 66. 103. 224. 167. 57. 90. 210. 129. 57. 49. 39.
      166. 68. 55. 47. 201. 90. 76. 58. 232. 109. 104. 84. 243. 129.
      129. 111. 249. 146. 151. 139. 252. 161. 169. 168. 253. 165. 175.
      195. 252. 164. 175. 219. 250. 160. 171. 230. 248. 155. 166. 235.
      242. 144. 158. 231. 235. 134. 148. 220. 213. 123. 136. 197. 184.
      109. 123. 174. 156. 93. 108. 153. 98. 41. 34. 34. 134. 47. 41. 50.
      168. 60. 59. 82. 204. 83. 91. 119. 233. 107. 121. 149. 243. 130.
      146. 179. 248. 147. 166. 203. 251. 159. 176. 220. 251. 167. 179.
      225. 250. 172. 180. 223. 247. 175. 181. 217. 243. 174. 176. 197.
      236. 169. 173. 175. 219. 161. 164. 150. 195. 150. 156. 126. 167.
      140. 144. 104. 72. 26. 29. 44. 112. 29. 36. 74. 147. 39. 57. 114.
      184. 53. 89. 151. 219. 75. 116. 185. 237. 102. 138. 214. 244. 124.
      157. 227. 246. 139. 165. 230. 245. 157. 173. 222. 244. 170. 176.
      206. 241. 182. 183. 182. 240. 190. 186. 157. 236. 192. 189. 129.
      226. 190. 187. 102. 214. 184. 185. 78. 193. 178. 180. 63. 83. 12.
      37. 82. 119. 13. 49. 119. 150. 20. 71. 151. 183. 30. 99. 186. 214.
      44. 120. 216. 232. 61. 133. 233. 238. 88. 142. 236. 238. 110. 148.
      229. 234. 133. 154. 211. 228. 155. 160. 178. 227. 173. 171. 144.
      228. 188. 183. 113. 230. 197. 193. 83. 229. 203. 200. 66. 225.
      205. 204. 64. 215. 207. 209. 71. 116. 0. 79. 122. 142. 0. 92. 153.
      170. 16. 109. 183. 195. 19. 122. 213. 216. 25. 131. 231. 224. 36.
      134. 237. 223. 49. 132. 235. 213. 70. 127. 218. 196. 102. 127.
      184. 187. 126. 132. 147. 189. 149. 146. 107. 200. 171. 164. 68.
      214. 186. 181. 51. 221. 198. 196. 53. 224. 208. 210. 68. 221. 217.
      220. 88. 145. 0. 138. 152. 169. 0. 141. 178. 191. 1. 147. 205.
      209. 12. 148. 224. 218. 16. 145. 234. 216. 20. 136. 233. 201. 27.
      122. 220. 177. 40. 106. 190. 155. 60. 96. 152. 140. 90. 97. 111.
      145. 117. 113. 62. 162. 141. 135. 43. 182. 162. 158. 40. 197. 177.
      176. 51. 206. 191. 194. 72. 206. 204. 210. 96. 172. 32. 188. 177.
      189. 26. 185. 198. 202. 21. 180. 217. 212. 18. 172. 225. 207. 15.
      158. 225. 194. 12. 136. 215. 171. 16. 112. 187. 140. 21. 81. 155.
      111. 34. 59. 115. 93. 49. 55. 69. 99. 73. 69. 36. 121. 105. 101.
      29. 141. 125. 125. 34. 160. 143. 144. 47. 170. 161. 163. 65. 174.
      174. 179. 89. 188. 51. 233. 193. 198. 42. 223. 208. 203. 31. 212.
      218. 200. 24. 191. 218. 188. 17. 165. 206. 167. 1. 133. 185. 137.
      1. 100. 154. 103. 13. 56. 116. 62. 19. 37. 71. 46. 26. 30. 41. 50.
      38. 36. 23. 70. 56. 55. 21. 99. 82. 81. 27. 117. 104. 106. 38.
      130. 121. 125. 52. 134. 135. 139. 67. 199. 85. 247. 203. 201. 63.
      241. 211. 196. 46. 229. 209. 186. 32. 202. 199. 165. 21. 168. 178.
      137. 1. 128. 153. 103. 2. 87. 115. 62. 2. 45. 75. 35. 14. 28. 40.
      25. 17. 20. 24. 28. 22. 23. 14. 39. 33. 33. 17. 53. 44. 45. 22.
      66. 55. 58. 30. 78. 72. 77. 38. 87. 88. 95. 47. 208. 118. 253.
      210. 201. 94. 247. 209. 190. 63. 237. 199. 169. 42. 208. 181. 141.
      26. 166. 156. 110. 2. 117. 124. 66. 2. 70. 78. 40. 3. 31. 46. 22.
      3. 19. 25. 15. 3. 12. 17. 15. 13. 13. 3. 19. 18. 18. 15. 24. 23.
      24. 18. 31. 28. 31. 22. 35. 35. 37. 27. 42. 43. 45. 33. 216. 143.
      254. 215. 202. 118. 249. 207. 181. 86. 237. 191. 156. 52. 205.
      164. 122. 32. 161. 132. 82. 4. 108. 94. 43. 4. 58. 46. 25. 4. 23.
      27. 14. 4. 16. 14. 5. 5. 5. 5. 6. 6. 6. 6. 7. 7. 7. 7. 8. 8. 8. 8.
      9. 9. 9. 9. 10. 10. 10. 10. 11. 11. 11. 11.</_>
    <_>
      0. 0. 0. 0. 1. 1. 1. 1. 2. 2. 2. 2. 3. 3. 3. 3. 4. 4. 4. 4. 5. 5.
      5. 5. 6. 6. 6. 6. 15. 14. 7. 18. 19. 15. 7. 33. 25. 17. 7. 56. 40.
      20. 7. 91. 58. 39. 24. 127. 76. 58. 42. 155. 94. 82. 64. 174. 114.
      108. 87. 193. 127. 130. 110. 205. 27. 28. 28. 37. 33. 36. 36. 40.
      37. 38. 38. 39. 37. 36. 36. 35. 32. 30. 30. 26. 27. 24. 24. 22.
      25. 19. 19. 25. 29. 16. 15. 43. 43. 16. 8. 75. 59. 21. 8. 111. 76.
      27. 8. 146. 96. 52. 28. 175. 116. 74. 51. 202. 131. 99. 76. 221.
      145. 127. 103. 231. 156. 147. 128. 237. 49. 71. 62. 58. 57. 82.
      73. 62. 66. 88. 78. 62. 70. 88. 79. 57. 65. 79. 74. 53. 61. 65.
      61. 60. 55. 49. 44. 81. 63. 29. 26. 113. 77. 23. 17. 146. 95. 30.
      14. 173. 116. 42. 8. 204. 133. 67. 31. 227. 145. 89. 55. 238. 158.
      117. 84. 244. 168. 139. 115. 247. 180. 158. 138. 249. 67. 111. 96.
      81. 83. 129. 115. 87. 96. 139. 125. 86. 106. 141. 128. 83. 107.
      136. 121. 86. 105. 119. 105. 105. 102. 94. 81. 137. 112. 70. 56.
      165. 123. 52. 33. 199. 137. 52. 21. 225. 148. 58. 15. 240. 160.
      79. 32. 246. 166. 100. 55. 249. 177. 123. 84. 251. 188. 143. 116.
      252. 198. 160. 139. 253. 90. 145. 128. 116. 114. 162. 146. 125.
      132. 177. 159. 126. 144. 182. 162. 126. 147. 176. 159. 132. 150.
      161. 145. 153. 149. 142. 125. 181. 153. 115. 93. 215. 157. 86. 63.
      235. 163. 75. 40. 245. 171. 74. 22. 250. 177. 88. 32. 252. 182.
      104. 50. 253. 190. 122. 75. 255. 196. 138. 102. 255. 201. 151.
      126. 254. 118. 169. 154. 161. 141. 195. 169. 168. 158. 209. 183.
      170. 171. 219. 194. 170. 180. 218. 192. 175. 185. 203. 179. 194.
      186. 183. 161. 221. 187. 160. 140. 240. 188. 135. 113. 248. 189.
      117. 82. 252. 188. 101. 56. 254. 187. 98. 46. 255. 184. 103. 45.
      255. 185. 112. 61. 254. 185. 122. 80. 252. 191. 132. 101. 251.
      152. 188. 167. 204. 164. 210. 184. 211. 180. 227. 199. 213. 196.
      232. 208. 211. 205. 232. 209. 213. 214. 229. 204. 223. 215. 218.
      193. 235. 212. 198. 172. 246. 206. 174. 154. 251. 200. 155. 128.
      253. 192. 132. 93. 254. 181. 113. 66. 253. 171. 98. 46. 251. 166.
      93. 45. 249. 162. 94. 54. 247. 163. 99. 69. 243. 176. 196. 176.
      233. 186. 216. 190. 237. 198. 229. 199. 237. 210. 234. 209. 235.
      220. 238. 216. 233. 225. 236. 217. 234. 227. 232. 212. 241. 224.
      226. 203. 246. 215. 212. 189. 250. 200. 193. 165. 250. 181. 164.
      141. 250. 164. 138. 106. 248. 151. 110. 68. 244. 140. 83. 46. 234.
      131. 69. 35. 224. 130. 64. 39. 210. 202. 194. 179. 246. 203. 207.
      181. 247. 206. 222. 189. 247. 216. 231. 198. 244. 223. 234. 206.
      241. 226. 236. 216. 237. 226. 239. 220. 236. 222. 238. 221. 241.
      208. 233. 217. 243. 191. 224. 199. 242. 164. 200. 174. 238. 143.
      167. 144. 230. 119. 134. 102. 212. 99. 92. 64. 190. 85. 57. 31.
      166. 80. 38. 18. 149. 218. 185. 176. 248. 210. 194. 168. 249. 206.
      201. 166. 248. 207. 213. 173. 245. 211. 222. 186. 241. 215. 231.
      202. 231. 214. 236. 220. 223. 207. 242. 228. 219. 196. 242. 228.
      217. 174. 239. 221. 208. 151. 227. 201. 197. 122. 197. 169. 177.
      87. 159. 135. 156. 62. 117. 91. 129. 43. 68. 51. 97. 29. 35. 24.
      72. 213. 170. 163. 245. 202. 169. 152. 245. 195. 171. 142. 243.
      187. 178. 144. 239. 184. 192. 157. 228. 183. 208. 178. 209. 183.
      228. 205. 189. 182. 240. 223. 172. 172. 244. 230. 162. 159. 243.
      229. 156. 137. 235. 218. 144. 109. 219. 191. 130. 75. 179. 156.
      104. 48. 139. 117. 77. 26. 86. 70. 53. 18. 42. 33. 34. 195. 149.
      143. 230. 180. 141. 124. 230. 165. 137. 107. 225. 157. 140. 103.
      214. 151. 152. 121. 195. 148. 173. 148. 167. 150. 204. 179. 142.
      155. 229. 205. 120. 154. 240. 222. 104. 146. 242. 225. 97. 133.
      239. 219. 95. 112. 224. 197. 92. 82. 193. 163. 80. 53. 152. 129.
      65. 30. 100. 81. 48. 16. 51. 41. 31. 160. 121. 112. 190. 150. 109.
      90. 187. 135. 95. 71. 178. 118. 92. 65. 165. 108. 106. 77. 148.
      102. 136. 113. 124. 111. 168. 149. 90. 123. 203. 178. 72. 134.
      226. 200. 68. 138. 233. 211. 80. 134. 232. 207. 94. 118. 220. 192.
      101. 93. 191. 161. 95. 66. 153. 130. 78. 41. 106. 85. 60. 18. 54.
      44. 41. 122. 83. 76. 136. 108. 71. 60. 133. 89. 60. 47. 125. 71.
      54. 39. 111. 59. 63. 47. 90. 56. 92. 74. 69. 73. 134. 114. 45. 96.
      167. 147. 49. 120. 197. 170. 61. 133. 214. 184. 85. 135. 217. 186.
      105. 124. 201. 173. 114. 100. 175. 153. 107. 73. 142. 120. 89. 47.
      97. 78. 68. 20. 51. 42. 47. 70. 50. 37. 57. 59. 41. 28. 53. 48.
      29. 22. 46. 32. 23. 20. 34. 22. 26. 21. 23. 23. 50. 40. 17. 50.
      88. 72. 9. 77. 131. 109. 34. 104. 158. 136. 59. 123. 175. 154. 85.
      129. 182. 157. 107. 120. 172. 150. 115. 98. 155. 131. 109. 73.
      124. 100. 91. 48. 84. 67. 69. 20. 45. 35. 49. 9. 9. 9. 10. 10. 10.
      10. 11. 11. 11. 11. 12. 12. 12. 12. 13. 13. 16. 14. 13. 17. 25.
      21. 13. 38. 54. 43. 14. 64. 87. 72. 31. 89. 119. 98. 55. 110. 140.
      119. 79. 118. 147. 127. 99. 110. 143. 121. 108. 91. 126. 103. 101.
      67. 97. 78. 84. 44. 66. 52. 63. 19. 34. 27. 44.</_>
    <_>
      140. 128. 89. 96. 164. 152. 105. 104. 180. 170. 115. 103. 197.
      182. 123. 91. 204. 188. 124. 74. 204. 186. 122. 55. 195. 177. 115.
      40. 182. 165. 97. 0. 169. 147. 81. 0. 155. 125. 62. 0. 141. 103.
      46. 0. 124. 83. 37. 1. 106. 66. 28. 1. 89. 54. 30. 1. 71. 44. 30.
      1. 57. 39. 29. 2. 155. 145. 97. 105. 177. 169. 117. 113. 201. 187.
      127. 111. 221. 204. 137. 98. 232. 209. 141. 79. 233. 208. 140. 58.
      229. 198. 132. 42. 217. 181. 116. 2. 202. 167. 92. 2. 186. 149.
      71. 2. 174. 131. 53. 3. 161. 111. 46. 3. 143. 95. 41. 3. 121. 85.
      44. 3. 97. 72. 44. 4. 77. 63. 43. 4. 162. 154. 101. 106. 184. 177.
      120. 115. 210. 199. 133. 112. 232. 217. 144. 99. 239. 225. 148.
      79. 244. 223. 149. 59. 243. 211. 143. 42. 239. 196. 127. 4. 234.
      181. 105. 23. 227. 170. 81. 23. 210. 158. 62. 24. 194. 147. 59.
      27. 179. 137. 58. 28. 163. 128. 64. 29. 144. 118. 67. 31. 122.
      109. 65. 32. 158. 153. 94. 96. 180. 175. 116. 104. 206. 195. 128.
      103. 230. 212. 142. 90. 240. 222. 147. 74. 245. 221. 150. 56. 249.
      211. 146. 43. 249. 200. 129. 34. 247. 189. 107. 41. 245. 182. 88.
      48. 239. 175. 72. 54. 231. 172. 76. 60. 212. 168. 84. 64. 191.
      165. 93. 66. 174. 160. 100. 70. 161. 152. 102. 74. 141. 138. 82.
      80. 165. 162. 98. 86. 185. 178. 112. 85. 207. 192. 126. 77. 231.
      200. 136. 65. 241. 201. 140. 57. 248. 198. 136. 57. 252. 192. 119.
      61. 253. 190. 100. 74. 253. 190. 86. 87. 251. 191. 79. 95. 246.
      193. 92. 105. 238. 192. 109. 111. 224. 192. 124. 117. 203. 188.
      133. 119. 188. 184. 138. 125. 110. 109. 63. 61. 135. 134. 77. 66.
      159. 151. 89. 68. 177. 164. 101. 69. 202. 170. 111. 70. 229. 175.
      118. 78. 243. 178. 114. 90. 251. 181. 98. 106. 254. 189. 87. 125.
      255. 199. 80. 139. 255. 205. 86. 148. 252. 211. 108. 156. 247.
      214. 130. 161. 238. 214. 146. 164. 228. 212. 156. 166. 216. 209.
      163. 169. 83. 77. 47. 55. 100. 95. 56. 64. 127. 113. 63. 72. 152.
      128. 73. 88. 176. 140. 82. 101. 206. 151. 86. 123. 235. 162. 83.
      143. 248. 173. 73. 160. 254. 185. 68. 171. 255. 202. 71. 179. 255.
      211. 87. 186. 254. 221. 116. 191. 249. 225. 138. 193. 242. 224.
      155. 195. 235. 223. 166. 197. 229. 219. 173. 201. 76. 53. 31. 80.
      90. 67. 37. 93. 114. 82. 41. 109. 139. 96. 47. 131. 167. 116. 52.
      150. 193. 132. 56. 168. 226. 151. 55. 183. 242. 168. 50. 198. 250.
      183. 51. 208. 253. 200. 62. 215. 254. 209. 78. 219. 251. 215. 107.
      222. 246. 214. 132. 220. 238. 210. 149. 218. 232. 208. 162. 218.
      227. 205. 172. 220. 108. 45. 34. 135. 122. 59. 35. 149. 139. 76.
      35. 163. 158. 95. 36. 175. 176. 117. 37. 190. 200. 137. 37. 207.
      226. 152. 36. 224. 239. 167. 32. 233. 245. 179. 40. 235. 248. 190.
      50. 235. 247. 196. 67. 233. 243. 197. 90. 230. 236. 193. 113. 225.
      226. 187. 130. 220. 210. 181. 144. 216. 203. 179. 155. 213. 154.
      60. 58. 183. 164. 75. 52. 194. 173. 93. 45. 206. 184. 117. 38.
      219. 199. 135. 32. 231. 213. 147. 24. 237. 228. 159. 4. 241. 236.
      166. 5. 242. 237. 172. 33. 240. 237. 176. 42. 236. 233. 176. 52.
      228. 221. 173. 70. 216. 204. 167. 85. 205. 189. 159. 97. 198. 178.
      150. 110. 191. 172. 144. 122. 187. 187. 79. 89. 230. 194. 92. 75.
      236. 202. 113. 62. 240. 208. 131. 49. 243. 216. 145. 38. 244. 223.
      153. 27. 245. 225. 157. 5. 244. 223. 157. 5. 241. 217. 157. 27.
      234. 207. 156. 34. 220. 195. 150. 41. 203. 183. 142. 49. 186. 171.
      131. 57. 174. 159. 118. 65. 166. 146. 104. 73. 160. 136. 94. 81.
      153. 215. 99. 120. 247. 218. 107. 101. 250. 222. 120. 80. 250.
      222. 133. 60. 249. 219. 143. 44. 246. 214. 146. 29. 242. 207. 145.
      5. 237. 196. 138. 6. 227. 184. 129. 24. 205. 171. 120. 26. 185.
      158. 108. 30. 169. 142. 96. 35. 151. 126. 84. 39. 136. 107. 71.
      42. 121. 91. 60. 45. 112. 82. 51. 48. 103. 232. 119. 145. 252.
      230. 119. 123. 253. 226. 121. 94. 252. 217. 126. 70. 248. 206.
      130. 49. 241. 194. 129. 31. 231. 182. 121. 6. 209. 168. 110. 6.
      189. 153. 94. 6. 171. 134. 85. 7. 148. 114. 72. 7. 126. 92. 63. 7.
      99. 81. 54. 7. 83. 68. 48. 8. 69. 58. 40. 8. 61. 51. 36. 8. 52.
      234. 135. 156. 251. 228. 125. 134. 250. 215. 118. 104. 246. 201.
      115. 75. 238. 185. 110. 51. 224. 170. 102. 30. 197. 154. 91. 8.
      174. 132. 78. 9. 154. 108. 65. 9. 130. 87. 56. 9. 100. 69. 46. 9.
      78. 54. 40. 10. 59. 45. 34. 10. 47. 38. 27. 10. 38. 32. 23. 10.
      33. 26. 11. 11. 26. 229. 142. 157. 244. 213. 127. 134. 240. 199.
      112. 102. 234. 180. 98. 73. 213. 163. 88. 50. 188. 139. 75. 28.
      165. 114. 64. 11. 137. 88. 53. 11. 106. 67. 43. 12. 84. 50. 35.
      12. 61. 39. 25. 12. 47. 29. 23. 12. 33. 24. 13. 13. 25. 13. 13.
      14. 14. 14. 14. 15. 15. 15. 15. 16. 16. 212. 141. 148. 227. 196.
      123. 124. 218. 178. 102. 93. 203. 160. 84. 68. 180. 133. 69. 48.
      161. 99. 53. 26. 129. 76. 46. 16. 91. 55. 39. 16. 66. 43. 31. 17.
      49. 33. 25. 17. 36. 25. 17. 17. 28. 18. 18. 18. 18. 19. 19. 19.
      19. 20. 20. 20. 20. 21. 21. 21. 21. 22. 22. 22. 22.</_>
    <_>
      0. 0. 0. 0. 1. 1. 1. 1. 2. 2. 2. 2. 3. 3. 3. 3. 105. 4. 4. 109.
      119. 4. 4. 125. 132. 5. 5. 142. 146. 5. 5. 160. 160. 6. 6. 182.
      173. 6. 6. 208. 190. 7. 7. 231. 205. 136. 138. 241. 216. 152. 153.
      247. 226. 169. 171. 250. 232. 187. 189. 252. 235. 205. 208. 250.
      7. 7. 8. 8. 8. 8. 9. 9. 9. 9. 10. 10. 103. 10. 10. 104. 118. 11.
      11. 120. 134. 11. 11. 139. 149. 12. 12. 158. 163. 12. 12. 178.
      176. 13. 13. 206. 192. 13. 13. 227. 206. 14. 14. 240. 213. 127.
      132. 246. 220. 143. 149. 250. 226. 158. 164. 252. 228. 172. 180.
      251. 229. 187. 198. 248. 14. 14. 15. 15. 15. 15. 16. 16. 102. 16.
      16. 102. 116. 17. 17. 116. 129. 17. 17. 134. 148. 18. 18. 154.
      164. 18. 18. 175. 180. 19. 19. 202. 199. 19. 19. 226. 210. 20. 20.
      240. 217. 20. 20. 245. 220. 121. 126. 249. 222. 136. 142. 252.
      221. 145. 157. 251. 220. 158. 171. 247. 218. 169. 184. 244. 21.
      21. 21. 21. 107. 22. 22. 107. 116. 22. 22. 117. 129. 23. 23. 130.
      147. 23. 23. 151. 165. 24. 24. 172. 184. 24. 24. 199. 203. 25. 25.
      222. 216. 25. 25. 238. 224. 26. 26. 245. 227. 26. 26. 249. 225.
      115. 121. 251. 219. 124. 133. 249. 214. 135. 145. 246. 209. 143.
      157. 243. 203. 152. 167. 237. 105. 27. 103. 105. 120. 27. 108.
      121. 132. 27. 110. 137. 149. 27. 114. 151. 165. 28. 114. 169. 185.
      28. 113. 193. 203. 28. 109. 217. 218. 28. 104. 236. 228. 29. 101.
      243. 232. 29. 29. 248. 231. 29. 30. 249. 223. 108. 114. 248. 212.
      115. 124. 244. 201. 122. 134. 240. 190. 128. 142. 232. 181. 136.
      151. 218. 122. 30. 111. 123. 138. 30. 118. 139. 152. 30. 125. 155.
      168. 31. 128. 172. 186. 31. 131. 194. 206. 31. 129. 214. 219. 31.
      126. 234. 230. 32. 120. 241. 235. 32. 111. 245. 233. 32. 101. 247.
      227. 32. 33. 246. 215. 33. 106. 242. 200. 33. 111. 236. 185. 33.
      118. 222. 171. 34. 125. 208. 160. 34. 130. 191. 135. 34. 137. 135.
      151. 34. 144. 153. 166. 35. 153. 171. 186. 35. 157. 192. 205. 35.
      159. 213. 219. 35. 156. 231. 230. 36. 147. 239. 234. 36. 138. 243.
      233. 36. 124. 244. 227. 36. 104. 243. 215. 37. 37. 238. 200. 37.
      37. 229. 179. 38. 38. 212. 165. 38. 38. 194. 152. 39. 39. 174.
      141. 39. 39. 161. 148. 40. 156. 148. 166. 40. 166. 168. 183. 40.
      174. 189. 203. 40. 181. 211. 217. 41. 182. 229. 228. 41. 175. 237.
      233. 41. 164. 241. 231. 41. 150. 241. 224. 42. 133. 238. 212. 42.
      109. 234. 198. 42. 42. 219. 177. 43. 43. 201. 161. 43. 43. 180.
      146. 44. 44. 164. 133. 44. 44. 150. 119. 45. 45. 137. 159. 45.
      183. 159. 176. 45. 196. 178. 197. 46. 207. 202. 213. 46. 211. 221.
      224. 46. 209. 235. 230. 46. 199. 239. 229. 47. 179. 239. 221. 47.
      160. 237. 209. 47. 141. 226. 192. 47. 113. 210. 173. 48. 48. 190.
      158. 48. 48. 172. 143. 49. 49. 155. 128. 49. 49. 139. 118. 50. 50.
      123. 105. 50. 50. 106. 170. 51. 215. 170. 187. 51. 225. 189. 204.
      51. 232. 209. 216. 51. 234. 225. 223. 52. 228. 235. 224. 52. 214.
      236. 217. 52. 193. 233. 207. 52. 167. 221. 188. 53. 144. 204. 170.
      53. 115. 183. 154. 53. 53. 163. 139. 54. 54. 148. 124. 54. 54.
      135. 114. 55. 55. 122. 103. 55. 55. 109. 56. 56. 56. 56. 174. 57.
      240. 176. 191. 57. 242. 195. 206. 57. 244. 210. 213. 57. 242. 220.
      215. 58. 237. 225. 212. 58. 223. 223. 201. 58. 198. 214. 185. 58.
      168. 199. 166. 59. 144. 177. 150. 59. 113. 159. 134. 59. 59. 141.
      120. 60. 60. 125. 108. 60. 60. 112. 101. 61. 61. 102. 61. 61. 62.
      62. 62. 62. 63. 63. 179. 131. 250. 186. 193. 126. 252. 197. 202.
      119. 251. 207. 207. 112. 246. 211. 204. 106. 239. 211. 195. 63.
      222. 205. 179. 63. 193. 191. 163. 64. 162. 173. 145. 64. 140. 156.
      131. 64. 110. 140. 117. 64. 65. 121. 106. 65. 65. 107. 65. 66. 66.
      66. 66. 67. 67. 67. 67. 68. 68. 68. 68. 69. 69. 69. 182. 146. 254.
      190. 191. 140. 254. 197. 196. 130. 253. 201. 195. 122. 248. 200.
      188. 112. 238. 194. 175. 69. 216. 182. 161. 70. 181. 169. 145. 70.
      154. 154. 127. 70. 132. 138. 115. 70. 104. 123. 101. 71. 71. 108.
      71. 71. 72. 72. 72. 72. 73. 73. 73. 73. 74. 74. 74. 74. 75. 75.
      75. 75. 76. 76. 183. 162. 255. 196. 187. 155. 254. 198. 188. 143.
      253. 196. 184. 130. 247. 189. 174. 119. 236. 176. 161. 76. 208.
      165. 147. 76. 170. 150. 129. 77. 142. 133. 112. 77. 123. 116. 103.
      77. 102. 107. 77. 78. 78. 78. 78. 79. 79. 79. 79. 80. 80. 80. 80.
      81. 81. 81. 81. 82. 82. 82. 82. 83. 83. 83. 186. 177. 255. 202.
      184. 167. 255. 200. 178. 155. 253. 192. 173. 140. 245. 180. 162.
      126. 230. 168. 149. 83. 195. 153. 136. 84. 157. 137. 117. 84. 128.
      117. 84. 84. 113. 85. 85. 85. 85. 86. 86. 86. 86. 87. 87. 87. 87.
      88. 88. 88. 88. 89. 89. 89. 89. 90. 90. 90. 90. 91. 91. 91. 91.
      92. 188. 197. 255. 210. 185. 177. 254. 204. 175. 162. 253. 194.
      167. 147. 242. 178. 156. 131. 218. 163. 141. 92. 181. 146. 127.
      92. 144. 127. 110. 92. 111. 110. 93. 93. 93. 93. 94. 94. 94. 94.
      95. 95. 95. 95. 96. 96. 96. 96. 97. 97. 97. 97. 98. 98. 98. 98.
      99. 99. 99. 99. 100. 100. 100. 100.</_>
    <_>
      0. 0. 0. 0. 88. 87. 88. 92. 127. 123. 109. 122. 159. 156. 127.
      144. 196. 192. 139. 164. 233. 227. 146. 183. 250. 243. 139. 199.
      254. 252. 130. 212. 255. 253. 116. 223. 255. 253. 119. 227. 255.
      253. 126. 221. 254. 249. 148. 207. 251. 242. 163. 188. 244. 236.
      178. 169. 236. 231. 192. 159. 226. 226. 202. 157. 67. 1. 1. 67.
      92. 82. 81. 97. 129. 117. 98. 126. 158. 148. 117. 151. 193. 177.
      128. 174. 228. 209. 132. 198. 245. 233. 128. 216. 253. 241. 120.
      230. 254. 246. 106. 236. 255. 247. 109. 237. 254. 243. 120. 232.
      252. 239. 138. 215. 246. 234. 153. 196. 237. 228. 169. 177. 229.
      220. 183. 168. 216. 214. 197. 166. 79. 1. 1. 79. 106. 77. 75. 113.
      135. 104. 86. 141. 162. 135. 101. 165. 192. 160. 112. 193. 223.
      187. 118. 217. 240. 210. 112. 234. 249. 224. 103. 240. 252. 230.
      94. 245. 252. 232. 97. 242. 250. 229. 107. 236. 245. 224. 127.
      219. 237. 218. 143. 199. 229. 212. 156. 180. 216. 206. 171. 170.
      205. 202. 185. 170. 103. 2. 71. 104. 126. 72. 78. 132. 151. 89.
      85. 158. 174. 121. 93. 186. 198. 142. 99. 213. 222. 162. 100. 235.
      235. 181. 95. 244. 241. 195. 88. 248. 245. 201. 81. 248. 242. 203.
      84. 244. 240. 202. 91. 235. 233. 200. 112. 214. 222. 197. 126.
      195. 211. 194. 141. 176. 200. 189. 154. 167. 191. 184. 167. 166.
      125. 2. 108. 125. 147. 66. 113. 152. 167. 76. 115. 179. 189. 99.
      114. 207. 208. 122. 109. 233. 224. 140. 100. 244. 231. 153. 89.
      249. 234. 164. 78. 250. 232. 169. 73. 247. 228. 173. 74. 239. 219.
      173. 77. 225. 207. 174. 92. 200. 197. 172. 106. 179. 187. 171.
      122. 163. 178. 168. 134. 155. 170. 163. 147. 154. 143. 2. 146.
      145. 161. 60. 149. 168. 183. 66. 148. 196. 202. 79. 144. 223. 215.
      94. 132. 239. 225. 113. 119. 247. 225. 125. 96. 249. 218. 134. 78.
      246. 208. 137. 66. 238. 197. 140. 64. 225. 185. 142. 68. 200. 175.
      145. 75. 178. 165. 146. 82. 157. 157. 146. 94. 147. 152. 143. 108.
      137. 147. 139. 121. 136. 153. 2. 184. 155. 172. 3. 187. 180. 193.
      3. 185. 204. 209. 68. 177. 228. 217. 75. 160. 239. 218. 83. 141.
      243. 211. 95. 115. 241. 198. 102. 87. 235. 180. 107. 64. 217. 165.
      109. 3. 194. 153. 112. 3. 169. 144. 116. 63. 150. 136. 119. 69.
      132. 130. 120. 73. 121. 123. 116. 79. 114. 120. 110. 87. 114. 154.
      69. 221. 166. 173. 70. 226. 186. 191. 69. 221. 204. 203. 70. 209.
      221. 209. 73. 187. 230. 204. 76. 161. 231. 194. 81. 131. 224. 175.
      83. 98. 206. 155. 86. 67. 184. 138. 86. 4. 159. 124. 87. 4. 138.
      115. 90. 4. 121. 105. 90. 4. 102. 101. 90. 5. 91. 95. 89. 5. 85.
      91. 84. 5. 83. 150. 117. 241. 170. 163. 118. 243. 184. 178. 115.
      240. 198. 186. 108. 231. 205. 188. 96. 206. 208. 181. 84. 175.
      203. 168. 76. 138. 191. 151. 71. 104. 171. 130. 69. 68. 152. 107.
      65. 5. 127. 85. 62. 6. 101. 73. 60. 6. 80. 65. 6. 6. 70. 61. 7. 7.
      61. 7. 7. 8. 8. 8. 8. 9. 9. 134. 149. 250. 175. 148. 149. 251.
      182. 156. 145. 248. 188. 162. 136. 238. 188. 161. 122. 214. 182.
      154. 104. 180. 172. 143. 82. 142. 156. 124. 71. 106. 137. 102. 63.
      68. 118. 80. 62. 9. 92. 70. 60. 9. 74. 61. 58. 10. 63. 10. 10. 10.
      11. 11. 11. 11. 12. 12. 12. 12. 13. 13. 13. 13. 14. 114. 176. 251.
      181. 124. 176. 251. 185. 131. 171. 248. 183. 135. 159. 238. 177.
      133. 145. 213. 164. 124. 123. 179. 151. 113. 93. 139. 129. 93. 72.
      102. 107. 77. 14. 64. 82. 67. 14. 14. 71. 59. 15. 15. 61. 15. 15.
      16. 16. 16. 16. 17. 17. 17. 17. 18. 18. 18. 18. 19. 19. 19. 19.
      20. 20. 97. 201. 246. 190. 105. 201. 247. 191. 110. 195. 242. 186.
      110. 179. 232. 176. 105. 158. 204. 157. 96. 136. 172. 137. 84.
      103. 134. 111. 74. 76. 98. 83. 65. 20. 62. 65. 59. 20. 21. 59. 21.
      21. 21. 22. 22. 22. 22. 23. 23. 23. 23. 24. 24. 24. 24. 25. 25.
      25. 25. 26. 26. 26. 26. 27. 94. 215. 237. 199. 100. 213. 238. 199.
      101. 206. 234. 195. 98. 190. 220. 182. 90. 167. 196. 162. 80. 141.
      164. 140. 72. 108. 130. 110. 63. 78. 95. 81. 58. 27. 60. 59. 27.
      27. 28. 28. 28. 28. 29. 29. 29. 29. 30. 30. 30. 30. 31. 31. 31.
      31. 32. 32. 32. 32. 33. 33. 33. 33. 34. 34. 111. 219. 229. 207.
      116. 217. 230. 210. 117. 208. 227. 205. 111. 190. 212. 193. 100.
      166. 190. 173. 85. 140. 160. 150. 74. 105. 128. 119. 62. 77. 96.
      86. 34. 34. 35. 35. 35. 35. 36. 36. 36. 36. 37. 37. 37. 37. 38.
      38. 38. 38. 39. 39. 39. 39. 40. 40. 40. 40. 41. 41. 41. 41. 42.
      42. 128. 215. 220. 213. 133. 212. 226. 218. 133. 201. 222. 214.
      129. 182. 210. 203. 118. 158. 189. 181. 99. 135. 161. 155. 80. 97.
      131. 123. 64. 75. 99. 91. 42. 42. 43. 43. 43. 43. 44. 44. 44. 44.
      45. 45. 45. 45. 46. 46. 46. 46. 47. 47. 47. 47. 48. 48. 48. 48.
      49. 49. 49. 49. 50. 50. 142. 211. 216. 220. 149. 205. 222. 227.
      150. 194. 219. 223. 144. 174. 211. 210. 131. 152. 192. 189. 111.
      125. 165. 160. 89. 88. 133. 129. 66. 72. 103. 93. 50. 50. 51. 51.
      51. 51. 52. 52. 52. 52. 53. 53. 53. 53. 54. 54. 54. 54. 55. 55.
      55. 55. 56. 56. 56. 56. 57. 57. 57. 57. 58. 58.</_>
    <_>
      0. 0. 0. 0. 1. 1. 1. 1. 2. 2. 2. 2. 3. 3. 3. 3. 4. 4. 4. 4. 5. 5.
      5. 5. 6. 6. 6. 6. 7. 7. 7. 7. 8. 8. 8. 8. 9. 9. 9. 9. 10. 10. 10.
      10. 11. 11. 11. 11. 12. 12. 12. 12. 13. 13. 13. 13. 14. 14. 14.
      14. 15. 15. 15. 15. 130. 122. 86. 100. 131. 126. 79. 92. 134. 129.
      72. 81. 135. 132. 66. 71. 136. 135. 61. 64. 137. 137. 16. 16. 137.
      138. 16. 16. 138. 138. 17. 17. 138. 136. 17. 17. 139. 133. 18. 18.
      139. 128. 18. 18. 139. 121. 19. 19. 132. 114. 19. 19. 126. 105.
      20. 20. 118. 93. 20. 20. 112. 80. 21. 21. 161. 156. 117. 130. 163.
      160. 109. 119. 167. 164. 95. 111. 169. 168. 81. 98. 173. 172. 69.
      87. 177. 176. 21. 75. 179. 179. 21. 67. 180. 180. 22. 62. 180.
      179. 58. 22. 182. 177. 61. 22. 182. 171. 64. 22. 181. 166. 68. 58.
      178. 158. 73. 62. 172. 152. 78. 65. 166. 144. 81. 68. 160. 140.
      86. 72. 189. 191. 157. 156. 193. 194. 148. 147. 197. 197. 132.
      136. 202. 201. 115. 119. 204. 202. 101. 110. 206. 206. 82. 92.
      209. 208. 71. 80. 210. 210. 62. 68. 212. 210. 60. 23. 213. 207.
      68. 59. 213. 203. 78. 63. 212. 199. 91. 73. 208. 191. 103. 81.
      204. 184. 113. 90. 200. 173. 120. 97. 193. 168. 129. 104. 211.
      218. 189. 180. 217. 219. 174. 168. 220. 220. 159. 158. 225. 223.
      145. 149. 228. 226. 122. 133. 231. 229. 99. 112. 233. 232. 83. 95.
      236. 235. 69. 77. 237. 235. 67. 23. 239. 231. 87. 65. 239. 227.
      103. 73. 238. 222. 123. 89. 232. 216. 144. 101. 229. 205. 155.
      113. 224. 201. 165. 121. 219. 198. 175. 130. 223. 234. 209. 195.
      227. 233. 199. 187. 233. 236. 185. 176. 242. 240. 164. 164. 245.
      243. 147. 152. 248. 246. 117. 127. 249. 248. 96. 108. 251. 250.
      77. 84. 252. 250. 79. 59. 252. 247. 107. 75. 253. 245. 129. 89.
      252. 240. 157. 109. 249. 228. 176. 122. 247. 222. 193. 141. 243.
      218. 203. 150. 236. 218. 215. 155. 226. 244. 222. 200. 230. 242.
      212. 195. 239. 241. 198. 189. 244. 241. 182. 177. 247. 244. 158.
      162. 248. 245. 130. 142. 250. 247. 107. 114. 251. 250. 82. 88.
      251. 251. 92. 63. 252. 248. 123. 86. 254. 246. 153. 106. 254. 242.
      185. 127. 253. 234. 203. 148. 249. 228. 221. 159. 246. 225. 232.
      168. 244. 223. 245. 178. 220. 243. 225. 196. 226. 238. 215. 195.
      229. 230. 202. 190. 231. 227. 186. 182. 234. 228. 163. 163. 238.
      229. 140. 145. 237. 230. 110. 116. 236. 234. 85. 87. 237. 237.
      102. 67. 239. 235. 142. 94. 240. 232. 169. 116. 241. 230. 202.
      144. 242. 226. 224. 161. 241. 225. 243. 175. 240. 221. 254. 186.
      238. 220. 255. 192. 206. 227. 216. 186. 214. 221. 204. 187. 216.
      216. 196. 184. 217. 207. 179. 174. 215. 205. 157. 159. 214. 204.
      133. 142. 210. 205. 107. 113. 208. 207. 82. 83. 208. 209. 109. 72.
      211. 213. 148. 99. 214. 215. 183. 125. 218. 217. 213. 153. 219.
      217. 233. 169. 222. 214. 253. 186. 224. 211. 255. 194. 224. 206.
      255. 198. 191. 205. 196. 166. 194. 200. 188. 167. 194. 192. 175.
      167. 191. 184. 161. 161. 188. 176. 145. 149. 183. 171. 118. 125.
      177. 170. 96. 104. 174. 172. 77. 76. 174. 178. 111. 74. 178. 185.
      148. 101. 184. 190. 183. 128. 192. 197. 212. 154. 199. 201. 231.
      170. 203. 200. 249. 188. 207. 197. 254. 195. 209. 192. 255. 198.
      160. 173. 162. 144. 162. 165. 157. 146. 160. 155. 151. 147. 154.
      146. 141. 143. 149. 137. 120. 126. 141. 125. 103. 111. 129. 122.
      84. 91. 125. 123. 69. 66. 124. 139. 105. 72. 131. 150. 141. 97.
      146. 162. 170. 124. 158. 175. 201. 150. 173. 185. 221. 166. 187.
      187. 235. 181. 193. 183. 246. 189. 196. 171. 253. 190. 135. 143.
      127. 113. 135. 134. 121. 115. 128. 120. 116. 115. 118. 110. 110.
      112. 108. 94. 98. 102. 91. 76. 85. 89. 74. 60. 70. 76. 59. 23. 62.
      59. 23. 90. 95. 67. 83. 115. 120. 90. 111. 142. 154. 114. 134.
      156. 181. 140. 153. 165. 199. 154. 163. 165. 211. 164. 170. 159.
      219. 169. 172. 151. 223. 171. 106. 97. 80. 90. 105. 94. 78. 93.
      101. 89. 74. 92. 94. 82. 69. 88. 84. 74. 63. 80. 73. 66. 60. 71.
      63. 58. 24. 65. 24. 24. 24. 25. 25. 83. 84. 64. 77. 106. 105. 79.
      99. 124. 131. 100. 118. 143. 153. 117. 140. 150. 167. 136. 151.
      151. 181. 146. 155. 145. 188. 152. 156. 134. 190. 152. 25. 25. 26.
      26. 26. 26. 27. 27. 27. 27. 28. 28. 28. 28. 29. 29. 29. 29. 30.
      30. 30. 30. 31. 31. 31. 31. 32. 32. 32. 32. 33. 33. 33. 75. 71.
      60. 70. 93. 85. 70. 88. 109. 104. 86. 103. 119. 117. 98. 116. 127.
      132. 112. 126. 128. 143. 119. 131. 121. 147. 123. 133. 114. 149.
      124. 33. 34. 34. 34. 34. 35. 35. 35. 35. 36. 36. 36. 36. 37. 37.
      37. 37. 38. 38. 38. 38. 39. 39. 39. 39. 40. 40. 40. 40. 41. 41.
      41. 41. 66. 61. 42. 64. 79. 65. 61. 75. 91. 76. 70. 87. 100. 85.
      78. 96. 106. 93. 88. 104. 107. 97. 95. 108. 102. 100. 98. 108. 96.
      102. 99. 42. 42. 42. 43. 43. 43. 43. 44. 44. 44. 44. 45. 45. 45.
      45. 46. 46. 46. 46. 47. 47. 47. 47. 48. 48. 48. 48. 49. 49. 49.
      49. 50. 50. 50. 50. 51. 51. 51. 51. 52. 52. 52. 52. 53. 53. 53.
      53. 54. 54. 54. 54. 55. 55. 55. 55. 56. 56. 56. 56. 57. 57. 57.
      57. 58.</_>
    <_>
      0. 0. 0. 0. 1. 1. 1. 1. 2. 2. 2. 2. 3. 3. 3. 3. 4. 4. 4. 4. 5. 5.
      5. 5. 6. 6. 6. 6. 7. 7. 7. 109. 7. 8. 8. 123. 8. 8. 9. 141. 120.
      9. 9. 160. 139. 134. 128. 180. 153. 150. 144. 199. 165. 167. 158.
      210. 177. 183. 172. 218. 185. 197. 184. 224. 9. 10. 10. 10. 10.
      11. 11. 11. 11. 12. 12. 12. 12. 13. 13. 13. 13. 14. 14. 14. 14.
      15. 15. 111. 15. 15. 16. 125. 106. 16. 16. 141. 110. 16. 17. 158.
      114. 17. 17. 177. 131. 17. 18. 194. 147. 136. 133. 210. 162. 154.
      149. 221. 176. 170. 166. 230. 187. 187. 181. 234. 196. 201. 194.
      237. 18. 18. 18. 19. 19. 19. 19. 20. 20. 20. 20. 21. 21. 21. 21.
      22. 108. 22. 22. 108. 116. 22. 23. 124. 123. 23. 23. 144. 133. 23.
      24. 163. 139. 24. 24. 183. 144. 24. 25. 204. 154. 25. 25. 217.
      164. 136. 137. 229. 174. 153. 155. 236. 185. 170. 171. 241. 195.
      186. 189. 244. 205. 201. 203. 245. 25. 26. 26. 26. 26. 27. 27. 27.
      27. 28. 28. 28. 107. 28. 29. 112. 118. 29. 29. 126. 131. 29. 30.
      147. 142. 30. 30. 170. 154. 30. 31. 192. 161. 31. 31. 211. 166.
      31. 32. 226. 172. 32. 32. 235. 178. 133. 138. 243. 184. 148. 156.
      246. 191. 164. 172. 248. 200. 180. 189. 250. 207. 193. 203. 251.
      32. 33. 33. 33. 106. 33. 34. 112. 111. 34. 34. 124. 120. 34. 35.
      140. 136. 35. 35. 158. 149. 35. 36. 179. 162. 36. 36. 202. 173.
      36. 37. 218. 181. 37. 37. 232. 187. 37. 38. 241. 189. 38. 38. 247.
      190. 125. 134. 249. 192. 141. 149. 252. 194. 156. 167. 254. 199.
      168. 182. 252. 204. 179. 196. 251. 112. 38. 39. 113. 122. 39. 39.
      127. 134. 39. 40. 145. 145. 40. 40. 165. 160. 40. 41. 187. 174.
      41. 41. 208. 186. 41. 42. 224. 196. 42. 42. 236. 202. 42. 43. 244.
      205. 43. 43. 249. 204. 43. 44. 253. 201. 118. 126. 255. 198. 130.
      142. 254. 193. 142. 157. 252. 192. 153. 170. 250. 193. 161. 181.
      248. 128. 44. 44. 132. 141. 44. 45. 149. 156. 45. 45. 169. 169.
      45. 46. 191. 184. 46. 46. 212. 198. 46. 47. 228. 206. 47. 47. 238.
      211. 47. 48. 246. 213. 48. 48. 251. 212. 48. 49. 254. 209. 49. 49.
      255. 205. 111. 120. 254. 197. 119. 132. 251. 188. 126. 143. 247.
      182. 136. 155. 243. 180. 143. 163. 239. 147. 49. 50. 159. 161. 50.
      50. 177. 176. 50. 51. 197. 191. 51. 51. 214. 206. 51. 52. 230.
      213. 52. 52. 240. 217. 52. 53. 247. 220. 53. 53. 252. 218. 53. 54.
      255. 215. 54. 54. 255. 209. 54. 55. 253. 201. 55. 112. 248. 190.
      55. 119. 244. 178. 55. 127. 237. 168. 56. 137. 231. 163. 56. 143.
      222. 171. 56. 132. 188. 182. 56. 129. 204. 198. 57. 125. 216. 208.
      57. 122. 231. 216. 57. 116. 239. 222. 57. 110. 246. 224. 58. 107.
      250. 223. 58. 58. 253. 218. 58. 59. 253. 211. 59. 59. 250. 202.
      59. 60. 246. 189. 60. 60. 240. 176. 60. 61. 231. 163. 61. 61. 219.
      151. 61. 62. 208. 143. 62. 62. 195. 200. 135. 158. 212. 206. 130.
      154. 221. 213. 124. 146. 232. 219. 118. 138. 238. 225. 113. 128.
      244. 227. 107. 116. 248. 226. 62. 110. 249. 220. 63. 63. 249. 214.
      63. 63. 247. 203. 64. 64. 242. 188. 64. 64. 234. 173. 65. 65. 223.
      160. 65. 65. 210. 146. 66. 66. 191. 137. 66. 66. 174. 125. 67. 67.
      159. 216. 151. 179. 228. 219. 145. 171. 233. 222. 139. 162. 239.
      225. 129. 151. 243. 226. 121. 140. 245. 225. 111. 124. 245. 220.
      67. 115. 245. 214. 67. 68. 241. 203. 68. 68. 235. 186. 68. 69.
      227. 169. 69. 69. 214. 155. 69. 70. 198. 142. 70. 70. 177. 130.
      70. 71. 157. 122. 71. 71. 140. 114. 71. 72. 123. 230. 166. 195.
      235. 229. 159. 186. 239. 228. 150. 174. 242. 225. 140. 161. 243.
      222. 127. 146. 242. 217. 115. 128. 240. 211. 72. 117. 234. 200.
      72. 72. 227. 183. 73. 73. 215. 165. 73. 73. 205. 148. 74. 74. 185.
      130. 74. 74. 167. 117. 75. 75. 150. 109. 75. 75. 135. 106. 76. 76.
      121. 76. 76. 77. 109. 235. 178. 207. 238. 232. 169. 195. 241. 229.
      159. 182. 242. 223. 147. 167. 240. 215. 135. 152. 236. 207. 117.
      131. 231. 193. 77. 120. 219. 179. 77. 77. 206. 164. 78. 78. 188.
      146. 78. 78. 168. 129. 79. 79. 150. 114. 79. 79. 134. 107. 80. 80.
      117. 80. 80. 81. 108. 81. 81. 81. 82. 82. 82. 82. 83. 236. 183.
      210. 237. 233. 175. 200. 238. 227. 164. 185. 237. 217. 151. 168.
      233. 207. 138. 153. 226. 190. 121. 129. 215. 173. 83. 118. 199.
      157. 83. 83. 175. 144. 84. 84. 156. 127. 84. 84. 138. 115. 85. 85.
      119. 106. 85. 85. 108. 86. 86. 86. 86. 87. 87. 87. 87. 88. 88. 88.
      88. 89. 89. 89. 89. 234. 184. 208. 233. 229. 176. 196. 232. 220.
      165. 181. 230. 209. 152. 166. 223. 192. 139. 148. 213. 171. 121.
      126. 197. 152. 90. 116. 173. 133. 90. 90. 152. 122. 90. 91. 131.
      110. 91. 91. 115. 91. 92. 92. 92. 92. 93. 93. 93. 93. 94. 94. 94.
      94. 95. 95. 95. 95. 96. 96. 96. 96. 97. 97. 97. 228. 180. 202.
      224. 221. 172. 190. 221. 212. 162. 175. 216. 199. 148. 160. 209.
      178. 137. 145. 194. 157. 119. 123. 175. 135. 97. 113. 155. 114.
      98. 98. 132. 109. 98. 98. 113. 99. 99. 99. 99. 100. 100. 100. 100.
      101. 101. 101. 101. 102. 102. 102. 102. 103. 103. 103. 103. 104.
      104. 104. 104. 105. 105. 105. 105.</_>
    <_>
      0. 0. 0. 0. 1. 1. 1. 1. 103. 111. 115. 120. 146. 148. 138. 144.
      185. 176. 162. 165. 224. 206. 183. 180. 245. 231. 204. 191. 252.
      242. 217. 197. 254. 246. 225. 197. 252. 244. 227. 196. 243. 240.
      221. 189. 219. 222. 205. 179. 179. 196. 184. 164. 138. 166. 157.
      145. 2. 134. 129. 122. 2. 2. 2. 3. 3. 3. 3. 4. 4. 4. 4. 5. 99.
      104. 108. 112. 139. 140. 128. 131. 174. 167. 153. 151. 212. 192.
      172. 167. 237. 218. 196. 182. 247. 232. 211. 190. 249. 239. 223.
      202. 246. 239. 230. 207. 235. 233. 229. 208. 205. 216. 215. 200.
      170. 188. 194. 181. 127. 162. 167. 159. 5. 130. 140. 132. 5. 5. 6.
      6. 6. 6. 7. 7. 7. 7. 8. 8. 93. 97. 100. 101. 127. 127. 119. 119.
      163. 152. 139. 134. 195. 174. 158. 149. 219. 201. 184. 172. 235.
      216. 207. 190. 237. 224. 225. 209. 232. 226. 235. 221. 214. 220.
      235. 224. 186. 203. 224. 215. 156. 180. 204. 198. 118. 155. 174.
      171. 8. 125. 146. 143. 8. 9. 9. 9. 9. 10. 10. 10. 10. 11. 11. 11.
      87. 89. 90. 90. 114. 112. 105. 102. 146. 133. 121. 116. 171. 156.
      145. 134. 192. 175. 178. 169. 206. 191. 206. 194. 210. 202. 229.
      218. 204. 205. 240. 232. 186. 201. 241. 236. 164. 184. 233. 227.
      138. 165. 213. 207. 104. 143. 182. 180. 11. 113. 151. 149. 12. 12.
      12. 12. 13. 13. 13. 13. 14. 14. 14. 14. 81. 83. 83. 82. 100. 98.
      91. 88. 125. 113. 104. 97. 147. 133. 136. 125. 163. 152. 175. 168.
      172. 166. 208. 199. 175. 173. 234. 223. 171. 176. 244. 238. 158.
      173. 245. 241. 141. 162. 239. 233. 117. 147. 219. 214. 90. 126.
      187. 184. 15. 101. 154. 152. 15. 15. 15. 16. 16. 16. 16. 17. 17.
      17. 17. 18. 75. 75. 76. 18. 85. 83. 79. 18. 100. 89. 86. 18. 114.
      105. 135. 117. 126. 120. 181. 165. 134. 131. 216. 200. 137. 142.
      240. 225. 131. 147. 248. 239. 121. 144. 249. 242. 107. 136. 243.
      234. 93. 122. 223. 213. 78. 107. 192. 183. 19. 89. 155. 150. 19.
      19. 19. 20. 20. 20. 20. 21. 21. 21. 21. 22. 22. 22. 22. 23. 23.
      23. 23. 24. 73. 24. 86. 74. 76. 80. 145. 120. 79. 88. 188. 164.
